svm_type c_svc
kernel_type rbf
gamma 2
nr_class 3
total_sv 155
rho -0.601456 -0.654239 0.0237322
label 1 2 3
nr_sv 54 59 42
SV
128 0 1:-0.752088 2:-0.748574 3:-0.896034 4:-0.909645 5:-0.746535 6:-0.947074 7:-0.995963 
37.90830430883012 15.98529516292697 1:-0.29621 2:0.247821 3:-0.505376 4:-0.550642 5:0.161663 6:-0.616175 7:-0.980179 
128 77.28918033419191 1:-0.454116 2:-0.0274234 3:-0.549175 4:-0.545543 5:-0.0956295 6:-0.664894 7:-0.970162 
60.09111985242086 0 1:-0.878474 2:-0.571113 3:-0.905275 4:-0.899748 5:-0.626408 6:-0.932383 7:-0.996822 
128 0 1:-0.676734 2:-0.644775 3:-0.932113 4:-0.930448 5:-0.646337 6:-0.936509 7:-0.996106 
128 0 1:-0.660295 2:-0.605944 3:-0.938353 4:-0.940303 5:-0.61121 6:-0.93104 7:-0.995791 
0 99.1578143460991 1:-0.743049 2:-0.662428 3:-0.944331 4:-0.946834 5:-0.674106 6:-0.940204 7:-0.996425 
0 56.60178523454162 1:-0.486124 2:-0.596965 3:-0.600314 4:-0.597709 5:-0.568923 6:-0.80108 7:-0.963372 
128 0 1:-0.777193 2:-0.629538 3:-0.867763 4:-0.871184 5:-0.653991 6:-0.911422 7:-0.99196 
100.1252818042771 0 1:-0.926829 2:-0.95498 3:-0.95585 4:-0.953591 5:-0.950775 6:-0.992709 7:-0.999625 
3.141496551860353 10.45058662906815 1:-0.988272 2:-1 3:-0.963073 4:-0.967133 5:-1 6:-1 7:-0.999956 
87.54792697951541 128 1:-0.601376 2:-0.314254 3:-0.691751 4:-0.683821 5:-0.360285 6:-0.81069 7:-0.989598 
44.27509920034289 128 1:-0.0203106 2:-0.165019 3:-0.552443 4:-0.570494 5:-0.121433 6:-0.64227 7:-0.918277 
128 128 1:-0.495317 2:-0.297799 3:-0.830524 4:-0.792614 5:-0.325528 6:-0.797875 7:-0.978601 
29.0127849283447 66.73908166642235 1:-0.510142 2:-0.135159 3:-0.890693 4:-0.891861 5:-0.195179 6:-0.870062 7:-0.993761 
30.50771746805358 57.86752823328912 1:-0.7799 2:-0.701354 3:-0.93735 4:-0.927201 5:-0.713404 6:-0.932558 7:-0.99585 
128 0 1:-0.724179 2:-0.632873 3:-0.891647 4:-0.886345 5:-0.646094 6:-0.920486 7:-0.993575 
128 0 1:-0.711013 2:-0.650731 3:-0.924046 4:-0.91727 5:-0.658093 6:-0.931135 7:-0.995792 
3.82729451273741 0 1:-0.244612 2:0.405933 3:-0.816518 4:-0.833882 5:0.301621 6:-0.761923 7:-0.989637 
128 32.37526836408615 1:-0.701525 2:-0.349515 3:-0.829613 4:-0.756904 5:-0.409272 6:-0.786331 7:-0.989403 
128 22.8922175948918 1:-0.661741 2:-0.381189 3:-0.730744 4:-0.727185 5:-0.427259 6:-0.834778 7:-0.9884 
0 28.84778383302395 1:0.398562 2:-0.19929 3:-0.707012 4:-0.587418 5:-0.0655315 6:-0.623228 7:-0.955123 
128 128 1:-0.322223 2:-0.105568 3:-0.894533 4:-0.892974 5:-0.13324 6:-0.819545 7:-0.98578 
0.5057454305240812 0 1:-0.690234 2:-0.645435 3:-0.957067 4:-0.949782 5:-0.649585 6:-0.937257 7:-0.99683 
0 15.31590283195743 1:-0.154122 2:0.395391 3:-0.417339 4:-0.44153 5:0.311124 6:-0.474424 7:-0.958565 
128 0 1:-0.892419 2:-0.664112 3:-0.910124 4:-0.872416 5:-0.705438 6:-0.901647 7:-0.992965 
128 74.06525155641585 1:-0.656161 2:-0.569866 3:-0.752619 4:-0.740562 5:-0.580805 6:-0.85147 7:-0.982133 
9.911900937085902 2.336432824575495 1:0.26147 2:0.171508 3:-0.366871 4:-0.448066 5:0.210936 6:-0.538368 7:-0.912448 
128 128 1:-0.439238 2:-0.402501 3:-0.885186 4:-0.893081 5:-0.400112 6:-0.877541 7:-0.990606 
128 66.0329956825325 1:-0.355646 2:0.139679 3:-0.794145 4:-0.808585 5:0.0610963 6:-0.781849 7:-0.988988 
128 128 1:-0.800177 2:-0.528603 3:-0.876578 4:-0.868915 5:-0.57586 6:-0.88255 7:-0.988676 
128 37.60781546902658 1:-0.796443 2:-0.633081 3:-0.841227 4:-0.84708 5:-0.660756 6:-0.900196 7:-0.989166 
128 4.006917563506248 1:-0.779775 2:-0.559144 3:-0.899651 4:-0.892019 5:-0.596804 6:-0.897463 7:-0.991254 
128 128 1:-0.555567 2:-0.388747 3:-0.883259 4:-0.881927 5:-0.412164 6:-0.861378 7:-0.98808 
128 128 1:-0.541985 2:-0.255564 3:-0.878425 4:-0.873676 5:-0.300265 6:-0.838897 7:-0.987893 
128 0 1:-0.822037 2:-0.664329 3:-0.87255 4:-0.875922 5:-0.691503 6:-0.909923 7:-0.991864 
21.544380206892 0 1:-0.541471 2:-0.2016 3:-0.902938 4:-0.900727 5:-0.255926 6:-0.883601 7:-0.994806 
128 0 1:-0.598261 2:-0.353925 3:-0.826067 4:-0.828582 5:-0.39218 6:-0.882377 7:-0.994149 
128 128 1:-0.737786 2:-0.513449 3:-0.884324 4:-0.876446 5:-0.550926 6:-0.873737 7:-0.989061 
128 0 1:-0.460509 2:-0.400417 3:-0.924552 4:-0.927169 5:-0.402669 6:-0.894598 7:-0.99347 
128 128 1:-0.158406 2:-0.167564 3:-0.878166 4:-0.885874 5:-0.151211 6:-0.867942 7:-0.992966 
13.57720833468323 107.9115227675232 1:-0.321888 2:0.293545 3:-0.708606 4:-0.708218 5:0.193996 6:-0.679679 7:-0.982307 
128 128 1:-0.498713 2:-0.407313 3:-0.793313 4:-0.766293 5:-0.415982 6:-0.806399 7:-0.975346 
0 1.691845437219818 1:-0.646465 2:-0.663788 3:-0.966708 4:-0.970553 5:-0.655853 6:-0.952339 7:-0.997989 
128 128 1:-0.615903 2:-0.540803 3:-0.736103 4:-0.747617 5:-0.548909 6:-0.849325 7:-0.979507 
128 38.58588854724696 1:-0.504145 2:-0.404439 3:-0.869311 4:-0.867948 5:-0.414716 6:-0.872909 7:-0.989734 
128 5.461783173037892 1:-0.52363 2:-0.568348 3:-0.937902 4:-0.936866 5:-0.552986 6:-0.924853 7:-0.995598 
128 0 1:-0.654201 2:-0.569254 3:-0.949044 4:-0.948744 5:-0.579911 6:-0.924859 7:-0.995825 
128 106.4410249669217 1:-0.577802 2:-0.679989 3:-0.961479 4:-0.962288 5:-0.655365 6:-0.954218 7:-0.997967 
128 128 1:-0.30692 2:-0.15243 3:-0.889459 4:-0.882607 5:-0.168586 6:-0.840258 7:-0.988593 
128 32.68128930009095 1:0.100634 2:0.0553854 3:-0.756202 4:-0.765463 5:0.0834936 6:-0.732886 7:-0.96995 
128 128 1:-0.503173 2:-0.518005 3:-0.870027 4:-0.882336 5:-0.507615 6:-0.909838 7:-0.993481 
106.0027011306674 55.75785090593887 1:-0.405244 2:-0.359968 3:-0.926509 4:-0.928645 5:-0.358429 6:-0.891793 7:-0.993355 
128 0 1:-0.552834 2:-0.517651 3:-0.922928 4:-0.928785 5:-0.517284 6:-0.914629 7:-0.994518 
-128 62.75420193162996 1:-0.768185 2:-0.790293 3:-0.9607 4:-0.967623 5:-0.783962 6:-0.964489 7:-0.998303 
-128 0 1:-0.800212 2:-0.62197 3:-0.857502 4:-0.832201 5:-0.652404 6:-0.888755 7:-0.989535 
-73.55996942236547 0 1:-0.440333 2:-0.175428 3:-0.517089 4:-0.491283 5:-0.214191 6:-0.677839 7:-0.936074 
-128 0 1:-0.852026 2:-0.573592 3:-0.893821 4:-0.873201 5:-0.623136 6:-0.894885 7:-0.990151 
-128 42.85864243275753 1:-0.689656 2:-0.794132 3:-1 4:-0.999593 5:-0.771362 6:-0.983291 7:-1 
-128 73.08090109321303 1:-0.682846 2:-0.590193 3:-0.840542 4:-0.846978 5:-0.60282 6:-0.900859 7:-0.990638 
-128 26.48302284546666 1:-0.81534 2:-0.616749 3:-0.807336 4:-0.803585 5:-0.651157 6:-0.88845 7:-0.987038 
-128 0 1:-0.968132 2:-0.850614 3:-0.922673 4:-0.909948 5:-0.873504 6:-0.962218 7:-0.996875 
-128 128 1:-0.285943 2:0.183584 3:-0.690638 4:-0.701084 5:0.111064 6:-0.700574 7:-0.981795 
-128 128 1:-0.732478 2:-0.606073 3:-0.802018 4:-0.796203 5:-0.62579 6:-0.885568 7:-0.988404 
-1.231716953978811 0.9629664500273033 1:-0.270956 2:0.41183 3:0.282165 4:0.0424457 5:0.301171 6:-0.0465138 7:1 
-95.62763842497887 128 1:-0.452126 2:-0.194752 3:-0.630283 4:-0.654573 5:-0.232396 6:-0.773742 7:-0.985214 
-29.05160063388268 128 1:-0.224773 2:0.170714 3:-0.737226 4:-0.743722 5:0.11278 6:-0.638819 7:-0.935624 
-1.371184197704606 1.801631717324542 1:-0.16253 2:0.285639 3:0.807695 4:0.660471 5:0.21947 6:0.249059 7:0.598198 
0 128 1:-0.19132 2:0.144533 3:-0.635112 4:-0.632265 5:0.0980271 6:-0.65028 7:-0.963827 
-3.895650650661676 0 1:0.205749 2:-0.00213283 3:-0.946711 4:-0.945015 5:0.0574218 6:-0.883724 7:-0.995703 
-128 128 1:-0.547086 2:-0.377809 3:-0.828439 4:-0.822176 5:-0.401497 6:-0.840232 7:-0.984444 
-8.077928657907 75.2305995181565 1:-0.0621162 2:0.395952 3:-0.674175 4:-0.682311 5:0.330034 6:-0.631299 7:-0.971213 
-128 50.88278754075154 1:-0.432184 2:-0.43671 3:-0.899278 4:-0.904352 5:-0.42674 6:-0.897913 7:-0.992797 
0 24.51213387256153 1:0.741688 2:0.461216 3:-0.586044 4:-0.597266 5:0.544716 6:-0.446974 7:-0.848176 
-128 0 1:-0.564648 2:-0.604542 3:-0.878132 4:-0.888781 5:-0.59088 6:-0.925016 7:-0.994617 
-3.367831727666396 0 1:-0.260993 2:0.141545 3:-0.0906673 4:-0.139871 5:0.0816066 6:-0.391199 7:-0.939476 
0 60.14404757749711 1:-0.42098 2:-0.0680415 3:-0.593665 4:-0.593779 5:-0.122281 6:-0.69886 7:-0.973925 
0 31.46412069224773 1:-0.565319 2:-0.518253 3:-0.819309 4:-0.83131 5:-0.520281 6:-0.879882 7:-0.988792 
-23.77121810303771 128 1:-0.33078 2:-0.483327 3:-0.765254 4:-0.718458 5:-0.444619 6:-0.786262 7:-0.978347 
-0.9409891054988447 3.155230175633047 1:-0.22179 2:0.520984 3:0.193909 4:-0.0347848 5:0.400508 6:-0.0522175 7:-0.297629 
-128 37.82898659656729 1:-0.742215 2:-0.421345 3:-0.849168 4:-0.841263 5:-0.476314 6:-0.847895 7:-0.983706 
-128 0 1:-0.649502 2:-0.425443 3:-0.842836 4:-0.8371 5:-0.461081 6:-0.861444 7:-0.986638 
-128 128 1:-0.48031 2:-0.255471 3:-0.808835 4:-0.816114 5:-0.287822 6:-0.81136 7:-0.979208 
-128 0 1:-0.580256 2:-0.504915 3:-0.886265 4:-0.881579 5:-0.512342 6:-0.901518 7:-0.992703 
-128 128 1:-0.376526 2:-0.180312 3:-0.845709 4:-0.850389 5:-0.2054 6:-0.818398 7:-0.982438 
-0.8615967455103653 0.4699748187480746 1:0.41784 2:0.998376 3:-0.129262 4:-0.175118 5:0.920107 6:-0.0321146 7:-0.610124 
-128 128 1:-0.485041 2:-0.441365 3:-0.940001 4:-0.94748 5:-0.441155 6:-0.893609 7:-0.993387 
-128 115.8506720004154 1:-0.563666 2:-0.539777 3:-0.93778 4:-0.940523 5:-0.537593 6:-0.923289 7:-0.995458 
-128 0 1:-0.504353 2:-0.424337 3:-0.903438 4:-0.898989 5:-0.431069 6:-0.897485 7:-0.993738 
-128 0 1:-0.720412 2:-0.553838 3:-0.875109 4:-0.868484 5:-0.580551 6:-0.895993 7:-0.991512 
-68.72354575558849 42.68567615162712 1:0.319303 2:0.0498374 3:-0.68002 4:-0.66213 5:0.122794 6:-0.706154 7:-0.954002 
-128 57.91537463690754 1:-0.689495 2:-0.502908 3:-0.840644 4:-0.84676 5:-0.532602 6:-0.87561 7:-0.987348 
-15.42436904984461 128 1:-0.138922 2:0.0458401 3:-0.553702 4:-0.568454 5:0.0276318 6:-0.594902 7:-0.929873 
-32.72751622249762 0 1:-0.467123 2:0.0130526 3:-0.485478 4:-0.40202 5:-0.0650578 6:-0.542652 7:-0.976921 
-128 128 1:-0.745169 2:-0.587764 3:-0.863255 4:-0.858143 5:-0.613326 6:-0.886036 7:-0.989811 
-1.031538208444362 0.9428419237110911 1:0.809618 2:1 3:0.0540532 4:-0.084671 5:1 6:0.119716 7:-0.534568 
-128 0 1:-0.577326 2:-0.460956 3:-0.849867 4:-0.849292 5:-0.47572 6:-0.874828 7:-0.989052 
-128 0 1:-0.549475 2:-0.550027 3:-0.880011 4:-0.884687 5:-0.54315 6:-0.911074 7:-0.993423 
-92.70527599779074 128 1:-0.530296 2:-0.392032 3:-0.81766 4:-0.79386 5:-0.40979 6:-0.818317 7:-0.980744 
0 128 1:-0.220238 2:-0.122651 3:-0.828869 4:-0.833461 5:-0.126793 6:-0.803707 7:-0.982817 
-128 60.56071547746144 1:-0.317915 2:-0.0575998 3:-0.932324 4:-0.935116 5:-0.0930545 6:-0.912671 7:-0.998168 
-69.92442229850259 80.15319419977317 1:-0.584568 2:-0.47434 3:-0.817226 4:-0.829247 5:-0.488143 6:-0.874107 7:-0.988121 
-128 56.51395233802053 1:-0.81479 2:-0.457617 3:-0.94248 4:-0.919452 5:-0.5206 6:-0.88237 7:-0.991918 
-128 40.34795250334044 1:-0.673723 2:-0.531253 3:-0.941698 4:-0.928762 5:-0.552675 6:-0.907025 7:-0.994588 
-115.5544919763717 18.09346624222202 1:-0.663739 2:-0.61417 3:-0.892211 4:-0.846668 5:-0.618643 6:-0.856062 7:-0.98917 
-128 0 1:-0.563467 2:-0.612895 3:-0.926857 4:-0.929615 5:-0.597491 6:-0.940245 7:-0.996704 
-128 128 1:-0.472508 2:-0.152628 3:-0.808129 4:-0.799479 5:-0.201953 6:-0.818677 7:-0.98889 
-37.2311033284517 128 1:-0.0729903 2:0.00978333 3:-0.767522 4:-0.788865 5:0.0112957 6:-0.741342 7:-0.969076 
-128 0 1:-0.822561 2:-0.751134 3:-0.921065 4:-0.914347 5:-0.762765 6:-0.951461 7:-0.996536 
-128 128 1:-0.203622 2:-0.252709 3:-0.896657 4:-0.900393 5:-0.230075 6:-0.869432 7:-0.991673 
-0.8993741855510002 0.248217697483505 1:-0.0392825 2:0.596382 3:-0.0216724 4:-0.172867 5:0.498913 6:-0.191091 7:0.176104 
-128 77.82656407263951 1:-0.183722 2:-0.0720706 3:-0.902029 4:-0.888518 5:-0.0780075 6:-0.83584 7:-0.989231 
-128 128 1:-0.63319 2:-0.292645 3:-0.794868 4:-0.797641 5:-0.348951 6:-0.79634 7:-0.973406 
-11.13680676605296 -0.9721293517500745 1:0.539615 2:0.0422344 3:-0.622553 4:-0.520116 5:0.16074 6:-0.469994 7:-0.949945 
0 -76.45394984500315 1:-0.00328417 2:0.0931005 3:-0.626643 4:-0.656207 5:0.0935718 6:-0.640361 7:-0.942819 
-21.91638487539277 0 1:-0.585937 2:-0.401843 3:-0.296387 4:-0.393199 5:-0.42899 6:-0.669914 7:-0.897964 
-109.1804470906555 -9.688271974894608 1:0.0953749 2:-0.170617 3:-0.634177 4:-0.550642 5:-0.102824 6:-0.637478 7:-0.944317 
0 -41.961506056666 1:-0.364032 2:0.0303488 3:-0.745974 4:-0.753462 5:-0.0302072 6:-0.770487 7:-0.987231 
-128 -128 1:-0.660478 2:-0.493766 3:-0.806046 4:-0.821819 5:-0.51929 6:-0.858902 7:-0.983445 
-1.588856080062908 -13.3570195126143 1:0.793425 2:0.242485 3:-0.769348 4:-0.666408 5:0.375789 6:-0.582444 7:-0.951596 
-128 -128 1:-0.673392 2:-0.456388 3:-0.815999 4:-0.78245 5:-0.491239 6:-0.83135 7:-0.981172 
-128 -128 1:-0.68228 2:-0.624553 3:-0.835024 4:-0.782947 5:-0.630873 6:-0.867447 7:-0.986283 
-128 -128 1:-0.599511 2:-0.521377 3:-0.888608 4:-0.883773 5:-0.529697 6:-0.901925 7:-0.992826 
-128 -128 1:-0.486473 2:-0.521935 3:-0.965248 4:-0.967439 5:-0.507489 6:-0.934237 7:-0.997211 
-69.57805111401225 -63.69242444939522 1:-0.332103 2:-0.240165 3:-0.62261 4:-0.659789 5:-0.245555 6:-0.74414 7:-0.962132 
0 -59.72194095244654 1:0.00859096 2:0.0957613 3:-0.724821 4:-0.712257 5:0.0981342 6:-0.653592 7:-0.943171 
0 -128 1:-0.404539 2:-0.0666673 3:-0.720022 4:-0.734986 5:-0.117858 6:-0.767581 7:-0.982078 
-128 -53.65907535958094 1:-0.543127 2:-0.485895 3:-0.641145 4:-0.656338 5:-0.489305 6:-0.808382 7:-0.972796 
-1.237394076230415 -2.698092621167054 1:0.346473 2:0.527045 3:-0.286351 4:-0.264834 5:0.519428 6:-0.158544 7:-0.609945 
-72.20446724525625 -128 1:-0.159498 2:-0.127429 3:-0.810483 4:-0.828225 5:-0.118529 6:-0.809914 7:-0.982177 
-128 -128 1:-0.394611 2:-0.0688161 3:-0.817744 4:-0.834588 5:-0.117628 6:-0.834675 7:-0.991973 
-128 -98.96647374579955 1:-0.512319 2:-0.0612942 3:-0.845248 4:-0.826471 5:-0.135066 6:-0.835415 7:-0.993853 
-1.646925509577727 -0.9761403651812658 1:0.354284 2:0.87588 3:1 4:1 5:0.806948 6:1 7:-0.567431 
-63.12688002097774 -128 1:-0.343853 2:-0.248904 3:-0.825546 4:-0.778067 5:-0.255076 6:-0.753982 7:-0.975583 
-128 -128 1:-0.613901 2:-0.527932 3:-0.888469 4:-0.889864 5:-0.537957 6:-0.908443 7:-0.993136 
0 -128 1:-0.16768 2:0.169751 3:-0.63294 4:-0.644953 5:0.123439 6:-0.65763 7:-0.965113 
-2.322574329895806 -2.37784278316155 1:-0.341774 2:0.224235 3:-0.0185983 4:-0.0288766 5:0.133192 6:-0.360025 7:-0.628674 
-128 -128 1:-0.820109 2:-0.76661 3:-0.96607 4:-0.967869 5:-0.77496 6:-0.961012 7:-0.998133 
0 -52.8773324419758 1:-0.381994 2:-0.202315 3:-0.642509 4:-0.687378 5:-0.224533 6:-0.713499 7:-0.948514 
0 -72.42217226145593 1:-0.287298 2:-0.220788 3:-0.653714 4:-0.656978 5:-0.220687 6:-0.726068 7:-0.957582 
-72.8233741763834 -73.28843911151149 1:-0.188288 2:0.229565 3:-0.767865 4:-0.752669 5:0.168339 6:-0.637654 7:-0.943003 
-128 -128 1:-0.757477 2:-0.335894 3:-0.869577 4:-0.844688 5:-0.409326 6:-0.827079 7:-0.982242 
-128 -128 1:-0.49426 2:-0.304402 3:-0.864723 4:-0.874933 5:-0.330729 6:-0.842984 7:-0.985879 
-128 -128 1:-0.689502 2:-0.544815 3:-0.873291 4:-0.888558 5:-0.566956 6:-0.883966 7:-0.988379 
0 -128 1:-0.0879174 2:0.17121 3:-0.732158 4:-0.741561 5:0.14063 6:-0.656935 7:-0.949219 
-128 -128 1:-0.295099 2:0.23283 3:-0.608475 4:-0.606132 5:0.149597 6:-0.643464 7:-0.968773 
-128 -128 1:-0.442656 2:-0.309984 3:-0.734146 4:-0.742768 5:-0.324957 6:-0.790542 7:-0.971876 
0 -15.53162897768892 1:0.327821 2:0.328593 3:-0.529829 4:-0.543274 5:0.353009 6:-0.481551 7:-0.879216 
0 -11.96136886755195 1:1 2:0.553389 3:-0.628544 4:-0.576007 5:0.672072 6:-0.41679 7:-0.873384 
-128 -128 1:-0.56117 2:-0.510778 3:-0.816301 4:-0.842054 5:-0.513321 6:-0.869014 7:-0.985577 
-1.644925289268133 -2.060504991741488 1:-0.221613 2:0.667322 3:0.600376 4:0.615162 5:0.520503 6:0.496083 7:0.734444 
-68.8176506753212 0 1:-0.509522 2:-0.0826665 3:-0.836642 4:-0.826537 5:-0.152025 6:-0.78051 7:-0.97666 
-6.878325175447587 -6.101560836597887 1:-0.191769 2:-0.0678577 3:0.0274485 4:-0.11208 5:-0.0761679 6:-0.414437 7:-0.659375 
-128 -128 1:-0.321529 2:-0.263499 3:-0.922124 4:-0.932567 5:-0.262563 6:-0.86913 7:-0.991562 
-128 -128 1:-0.14918 2:-0.225585 3:-0.944823 4:-0.945797 5:-0.196923 6:-0.88612 7:-0.994234 
