svm_type c_svc
kernel_type rbf
gamma 2
nr_class 3
total_sv 166
rho 0.0136834 0.0522135 0.239088
label 1 3 2
nr_sv 62 43 61
SV
7.833962140560291 8 1:-0.445384 2:0.215461 3:-0.812236 4:-0.827199 5:0.104779 6:-0.812473 7:-0.994646 
0 6.490746759195381 1:-0.558318 2:-0.610385 3:-0.959502 4:-0.962314 5:-0.594881 6:-0.941053 7:-0.997176 
8 8 1:-0.451889 2:-0.0274234 3:-0.549175 4:-0.545543 5:-0.0956295 6:-0.664894 7:-0.970137 
0 5.237035632051466 1:-0.875597 2:-0.571113 3:-0.905275 4:-0.899748 5:-0.626408 6:-0.932383 7:-0.996796 
1.653851098691404 0 1:-0.483847 2:-0.596965 3:-0.600314 4:-0.597709 5:-0.568923 6:-0.80108 7:-0.963347 
0 8 1:-0.77447 2:-0.629538 3:-0.867763 4:-0.871184 5:-0.653991 6:-0.911422 7:-0.991934 
8 8 1:-0.486577 2:-0.378813 3:-0.824308 4:-0.839301 5:-0.390644 6:-0.855437 7:-0.986252 
0 1.467584270348641 1:-1 2:-0.989894 3:-0.979385 4:-0.9796 5:-0.994683 6:-0.99848 7:-1 
0 3.34251746904854 1:-0.923877 2:-0.95498 3:-0.95585 4:-0.953591 5:-0.950775 6:-0.992709 7:-0.999599 
0 0.6856612004010452 1:-0.985226 2:-1 3:-0.963073 4:-0.967133 5:-1 6:-1 7:-0.99993 
8 8 1:-0.598923 2:-0.314254 3:-0.691751 4:-0.683821 5:-0.360285 6:-0.81069 7:-0.989572 
8 8 1:-0.0187475 2:-0.165019 3:-0.552443 4:-0.570494 5:-0.121433 6:-0.64227 7:-0.918252 
8 8 1:-0.197754 2:-0.29814 3:-0.595761 4:-0.599139 5:-0.266508 6:-0.713942 7:-0.942042 
8 8 1:-0.493026 2:-0.297799 3:-0.830524 4:-0.792614 5:-0.325528 6:-0.797875 7:-0.978575 
8 8 1:-0.507829 2:-0.135159 3:-0.890693 4:-0.891861 5:-0.195179 6:-0.870062 7:-0.993735 
0 8 1:-0.630342 2:-0.509317 3:-0.931358 4:-0.933479 5:-0.526496 6:-0.907559 7:-0.993665 
8 0 1:-0.617709 2:-0.385017 3:-0.560313 4:-0.556953 5:-0.422065 6:-0.780898 7:-0.965312 
0 5.654404926479986 1:-0.721538 2:-0.632873 3:-0.891647 4:-0.886345 5:-0.646094 6:-0.920486 7:-0.993549 
6.756039526009516 0 1:-0.81158 2:-0.791634 3:-0.960791 4:-0.967403 5:-0.79432 6:-0.963935 7:-0.998212 
8 8 1:-0.698918 2:-0.349515 3:-0.829613 4:-0.756904 5:-0.409272 6:-0.786331 7:-0.989377 
5.055764874741793 6.211765900968451 1:-0.659195 2:-0.381189 3:-0.730744 4:-0.727185 5:-0.427259 6:-0.834778 7:-0.988374 
0 6.072579907577662 1:-0.634272 2:-0.739628 3:-0.953658 4:-0.953661 5:-0.71608 6:-0.961717 7:-0.998218 
2.525182925440386 2.433634411643498 1:0.399483 2:-0.19929 3:-0.707012 4:-0.587418 5:-0.0655315 6:-0.623228 7:-0.955098 
0 5.925848083453017 1:-0.687644 2:-0.645435 3:-0.957067 4:-0.949782 5:-0.649585 6:-0.937257 7:-0.996804 
0 7.9327523903843 1:-0.152353 2:0.395391 3:-0.417339 4:-0.44153 5:0.311124 6:-0.474424 7:-0.95854 
0 8 1:-0.560141 2:-0.492736 3:-0.77483 4:-0.754968 5:-0.498805 6:-0.825604 7:-0.980637 
3.690206169916926 8 1:-0.889519 2:-0.664112 3:-0.910124 4:-0.872416 5:-0.705438 6:-0.901647 7:-0.992939 
0 8 1:-0.653623 2:-0.569866 3:-0.752619 4:-0.740562 5:-0.580805 6:-0.85147 7:-0.982107 
1.247750621712707 1.865423458265863 1:0.262601 2:0.171508 3:-0.366871 4:-0.448066 5:0.210936 6:-0.538368 7:-0.912423 
0.8004534708064254 7.302693431856579 1:-0.785883 2:-0.768878 3:-0.914475 4:-0.92729 5:-0.770505 6:-0.941271 7:-0.995322 
5.673126995619677 8 1:-0.437033 2:-0.402501 3:-0.885186 4:-0.893081 5:-0.400112 6:-0.877541 7:-0.99058 
8 8 1:-0.353569 2:0.139679 3:-0.794145 4:-0.808585 5:0.0610963 6:-0.781849 7:-0.988962 
0 8 1:-0.797419 2:-0.528603 3:-0.876578 4:-0.868915 5:-0.57586 6:-0.88255 7:-0.98865 
2.949508431453732 2.523824327524869 1:-0.194723 2:0.358139 3:0.3853 4:0.356655 5:0.272078 6:-0.0331568 7:-0.661619 
8 8 1:-0.130374 2:-0.054768 3:-0.777406 4:-0.787401 5:-0.0534743 6:-0.763063 7:-0.974064 
0 8 1:-0.79369 2:-0.633081 3:-0.841227 4:-0.84708 5:-0.660756 6:-0.900196 7:-0.98914 
0 8 1:-0.777049 2:-0.559144 3:-0.899651 4:-0.892019 5:-0.596804 6:-0.897463 7:-0.991228 
0 8 1:-0.821395 2:-0.66837 3:-0.892645 4:-0.882057 5:-0.695248 6:-0.921686 7:-0.993482 
7.342731964531575 8 1:-0.553184 2:-0.388747 3:-0.883259 4:-0.881927 5:-0.412164 6:-0.861378 7:-0.988054 
0 8 1:-0.759615 2:-0.815039 3:-0.938774 4:-0.944357 5:-0.80307 6:-0.968934 7:-0.998183 
0 8 1:-0.819246 2:-0.664329 3:-0.87255 4:-0.875922 5:-0.691503 6:-0.909923 7:-0.991838 
8 0 1:-0.539109 2:-0.2016 3:-0.902938 4:-0.900727 5:-0.255926 6:-0.883601 7:-0.99478 
0 5.923418459884497 1:-0.595813 2:-0.353925 3:-0.826067 4:-0.828582 5:-0.39218 6:-0.882377 7:-0.994123 
0 8 1:-0.735123 2:-0.513449 3:-0.884324 4:-0.876446 5:-0.550926 6:-0.873737 7:-0.989035 
8 8 1:-0.319863 2:0.293545 3:-0.708606 4:-0.708218 5:0.193996 6:-0.679679 7:-0.982281 
8 8 1:-0.496417 2:-0.407313 3:-0.793313 4:-0.766293 5:-0.415982 6:-0.806399 7:-0.97532 
3.014229210198398 0 1:-0.574582 2:-0.225766 3:-0.952026 4:-0.935145 5:-0.282859 6:-0.896604 7:-0.995526 
8 2.014428315772852 1:-0.470561 2:0.0535453 3:-0.849264 4:-0.85201 5:-0.0330064 6:-0.830882 7:-0.993224 
0 8 1:-0.491851 2:-0.516491 3:-0.94362 4:-0.947755 5:-0.504563 6:-0.93623 7:-0.997002 
0 8 1:-0.80908 2:-0.51985 3:-0.884106 4:-0.838896 5:-0.571026 6:-0.871108 7:-0.989147 
0 8 1:-0.50184 2:-0.404439 3:-0.869311 4:-0.867948 5:-0.414716 6:-0.872909 7:-0.989709 
0 8 1:-0.521296 2:-0.568348 3:-0.937902 4:-0.936866 5:-0.552986 6:-0.924853 7:-0.995572 
8 8 1:-0.304918 2:-0.15243 3:-0.889459 4:-0.882607 5:-0.168586 6:-0.840258 7:-0.988567 
5.75364471385747 8 1:-0.124546 2:0.317443 3:-0.557035 4:-0.52943 5:0.252812 6:-0.587672 7:-0.918238 
8 8 1:0.102012 2:0.0553854 3:-0.756202 4:-0.765463 5:0.0834936 6:-0.732886 7:-0.969924 
0 8 1:-0.50087 2:-0.518005 3:-0.870027 4:-0.882336 5:-0.507615 6:-0.909838 7:-0.993455 
8 8 1:-0.487577 2:-0.0207599 3:-0.836248 4:-0.825562 5:-0.0973347 6:-0.818238 7:-0.991187 
2.05398076854529 0 1:-0.582199 2:-0.7161 3:-0.998805 4:-1 5:-0.686335 6:-0.968146 7:-0.999486 
8 8 1:-0.611596 2:-0.350824 3:-0.886302 4:-0.871239 5:-0.392808 6:-0.850604 7:-0.986874 
3.882339851452555 0 1:-0.779386 2:-0.706711 3:-0.943498 4:-0.943666 5:-0.71824 6:-0.944911 7:-0.996641 
8 8 1:-0.403091 2:-0.359968 3:-0.926509 4:-0.928645 5:-0.358429 6:-0.891793 7:-0.993329 
0 8 1:-0.550455 2:-0.517651 3:-0.922928 4:-0.928785 5:-0.517284 6:-0.914629 7:-0.994492 
-1.122994929012354 0.4306705920910782 1:0.458202 2:0.203509 3:0.158085 4:0.176394 5:0.276451 6:-0.0199394 7:-0.686139 
-6.659416790657716 2.18340778329709 1:-0.583507 2:-0.401843 3:-0.296387 4:-0.393199 5:-0.42899 6:-0.669914 7:-0.897939 
-0.1454432048809781 5.307053422061832 1:-0.306216 2:-0.233331 3:-0.760831 4:-0.72489 5:-0.235164 6:-0.752244 7:-0.96922 
-8 8 1:0.0967608 2:-0.170617 3:-0.634177 4:-0.550642 5:-0.102824 6:-0.637478 7:-0.944292 
-8 8 1:-0.361942 2:0.0303488 3:-0.745974 4:-0.753462 5:-0.0302072 6:-0.770487 7:-0.987205 
-8 8 1:-0.657934 2:-0.493766 3:-0.806046 4:-0.821819 5:-0.51929 6:-0.858902 7:-0.983419 
-8 8 1:-0.670829 2:-0.456388 3:-0.815999 4:-0.78245 5:-0.491239 6:-0.83135 7:-0.981146 
-8 8 1:-0.484196 2:-0.521935 3:-0.965248 4:-0.967439 5:-0.507489 6:-0.934237 7:-0.997185 
-8 4.503048957292706 1:-0.330063 2:-0.240165 3:-0.62261 4:-0.659789 5:-0.245555 6:-0.74414 7:-0.962107 
0 8 1:0.0101098 2:0.0957613 3:-0.724821 4:-0.712257 5:0.0981342 6:-0.653592 7:-0.943146 
0 6.661089308787219 1:-0.402387 2:-0.0666673 3:-0.720022 4:-0.734986 5:-0.117858 6:-0.767581 7:-0.982052 
-8 8 1:-0.452625 2:-0.27883 3:-0.621192 4:-0.657464 5:-0.301865 6:-0.771028 7:-0.974928 
-8 8 1:0.0107956 2:0.210518 3:-0.784507 4:-0.796964 5:0.192343 6:-0.712331 7:-0.971533 
-8 8 1:-0.57016 2:-0.121434 3:-0.905477 4:-0.882622 5:-0.196446 6:-0.800274 7:-0.982391 
-1.244408404576756 0.07165390212046877 1:-0.396581 2:-0.00106664 3:0.442139 4:0.361906 5:-0.0629162 6:-0.30664 7:-0.45317 
-1.203168472892951 3.956681222233338 1:0.347474 2:0.527045 3:-0.286351 4:-0.264834 5:0.519428 6:-0.158544 7:-0.609924 
0 8 1:-0.157722 2:-0.127429 3:-0.810483 4:-0.828225 5:-0.118529 6:-0.809914 7:-0.982151 
-5.29563361176947 0 1:-0.524369 2:-0.0219985 3:-0.820833 4:-0.803661 5:-0.105739 6:-0.727621 7:-0.965623 
-2.177622070683498 1.623110553538228 1:-0.0587328 2:-0.161767 3:-0.605892 4:-0.592777 5:-0.126798 6:-0.665671 7:-0.939212 
-8 8 1:-0.392475 2:-0.0688161 3:-0.817744 4:-0.834588 5:-0.117628 6:-0.834675 7:-0.991947 
-8 0 1:-0.510002 2:-0.0612942 3:-0.845248 4:-0.826471 5:-0.135066 6:-0.835415 7:-0.993827 
-0.9924230301059489 1.2361424541317 1:0.355274 2:0.87588 3:1 4:1 5:0.806948 6:1 7:-0.567411 
-8 8 1:-0.341795 2:-0.248904 3:-0.825546 4:-0.778067 5:-0.255076 6:-0.753982 7:-0.975557 
-2.085685185962624 8 1:-0.388005 2:0.0414004 3:-0.629711 4:-0.648017 5:-0.026382 6:-0.688385 7:-0.972992 
-0.4224530569716986 0 1:0.0913858 2:0.177455 3:0.0964488 4:0.0210804 5:0.181424 6:-0.193173 7:-0.60958 
-8 8 1:-0.165891 2:0.169751 3:-0.63294 4:-0.644953 5:0.123439 6:-0.65763 7:-0.965087 
-2.041581519222884 4.191005143011902 1:-0.339718 2:0.224235 3:-0.0185983 4:-0.0288766 5:0.133192 6:-0.360025 7:-0.628653 
-8 6.657884048107009 1:-0.336906 2:0.0817744 3:-0.812985 4:-0.837148 5:0.0169765 6:-0.809638 7:-0.990123 
-8 8 1:-0.817321 2:-0.76661 3:-0.96607 4:-0.967869 5:-0.77496 6:-0.961012 7:-0.998107 
-8 8 1:-0.186467 2:0.229565 3:-0.767865 4:-0.752669 5:0.168339 6:-0.637654 7:-0.942977 
-8 8 1:-0.754785 2:-0.335894 3:-0.869577 4:-0.844688 5:-0.409326 6:-0.827079 7:-0.982216 
-2.903152072887453 8 1:-0.402394 2:-0.204675 3:-0.689665 4:-0.678153 5:-0.23099 6:-0.739606 7:-0.964892 
-8 8 1:-0.49197 2:-0.304402 3:-0.864723 4:-0.874933 5:-0.330729 6:-0.842984 7:-0.985853 
-8 8 1:-0.686914 2:-0.544815 3:-0.873291 4:-0.888558 5:-0.566956 6:-0.883966 7:-0.988354 
0 8 1:-0.0862507 2:0.17121 3:-0.732158 4:-0.741561 5:0.14063 6:-0.656935 7:-0.949194 
-8 8 1:-0.440446 2:-0.309984 3:-0.734146 4:-0.742768 5:-0.324957 6:-0.790542 7:-0.97185 
-8 8 1:-0.593407 2:-0.230325 3:-0.877216 4:-0.856211 5:-0.290378 6:-0.817303 7:-0.983724 
-0.9433321523164779 6.77625264554643 1:1 2:0.553389 3:-0.628544 4:-0.576007 5:0.672072 6:-0.41679 7:-0.873359 
-8 8 1:-0.558779 2:-0.510778 3:-0.816301 4:-0.842054 5:-0.513321 6:-0.869014 7:-0.985551 
-0.9954582615973381 2.210921109125938 1:-0.219742 2:0.667322 3:0.600376 4:0.615162 5:0.520503 6:0.496083 7:0.734448 
-8 0 1:-0.507209 2:-0.0826665 3:-0.836642 4:-0.826537 5:-0.152025 6:-0.78051 7:-0.976634 
0 1.284550683448299 1:-0.189944 2:-0.0678577 3:0.0274485 4:-0.11208 5:-0.0761679 6:-0.414437 7:-0.659354 
-8 8 1:-0.14742 2:-0.225585 3:-0.944823 4:-0.945797 5:-0.196923 6:-0.88612 7:-0.994208 
-8 0 1:-0.765476 2:-0.790293 3:-0.9607 4:-0.967623 5:-0.783962 6:-0.964489 7:-0.998277 
-8 0 1:-0.670627 2:-0.766009 3:-0.926423 4:-0.932274 5:-0.745007 6:-0.965769 7:-0.998137 
-8 0 1:-0.797454 2:-0.62197 3:-0.857502 4:-0.832201 5:-0.652404 6:-0.888755 7:-0.989509 
-8 0 1:-0.849188 2:-0.573592 3:-0.893821 4:-0.873201 5:-0.623136 6:-0.894885 7:-0.990125 
-8 -6.908234397494999 1:-0.687067 2:-0.794132 3:-1 4:-0.999593 5:-0.771362 6:-0.983291 7:-0.999974 
-8 0 1:-0.812558 2:-0.616749 3:-0.807336 4:-0.803585 5:-0.651157 6:-0.88845 7:-0.987012 
-8 -3.710926110457245 1:-0.965117 2:-0.850614 3:-0.922673 4:-0.909948 5:-0.873504 6:-0.962218 7:-0.996849 
-8 -8 1:-0.533747 2:-0.388666 3:-0.776175 4:-0.790987 5:-0.408194 6:-0.840196 7:-0.982863 
-8 -8 1:-0.283973 2:0.183584 3:-0.690638 4:-0.701084 5:0.111064 6:-0.700574 7:-0.981769 
-8 0 1:-0.729823 2:-0.606073 3:-0.802018 4:-0.796203 5:-0.62579 6:-0.885568 7:-0.988378 
-0.753987656938313 -0.7648475099344895 1:-0.269009 2:0.41183 3:0.282165 4:0.0424457 5:0.301171 6:-0.0465138 7:1 
0 -8 1:-0.222896 2:0.170714 3:-0.737226 4:-0.743722 5:0.11278 6:-0.638819 7:-0.935599 
-0.8305121129865679 -1.651181604217639 1:-0.160749 2:0.285639 3:0.807695 4:0.660471 5:0.21947 6:0.249059 7:0.598204 
-8 -7.754442972336324 1:-0.452448 2:-0.413862 3:-0.888932 4:-0.890036 5:-0.412521 6:-0.885364 7:-0.991776 
0 -1.882847637696288 1:0.206966 2:-0.00213283 3:-0.946711 4:-0.945015 5:0.0574218 6:-0.883724 7:-0.995677 
-8 -8 1:-0.274088 2:0.291764 3:-0.76292 4:-0.751204 5:0.201729 6:-0.707032 7:-0.98502 
-8 -8 1:-0.544715 2:-0.377809 3:-0.828439 4:-0.822176 5:-0.401497 6:-0.840232 7:-0.984418 
-6.178206565708226 -3.95784001322197 1:-0.060489 2:0.395952 3:-0.674175 4:-0.682311 5:0.330034 6:-0.631299 7:-0.971187 
-8 0 1:-0.42999 2:-0.43671 3:-0.899278 4:-0.904352 5:-0.42674 6:-0.897913 7:-0.992771 
-0.8601601661206014 -7.093312016101627 1:0.742084 2:0.461216 3:-0.586044 4:-0.597266 5:0.544716 6:-0.446974 7:-0.848152 
-3.592059361434987 -1.188559901995324 1:-0.259061 2:0.141545 3:-0.0906673 4:-0.139871 5:0.0816066 6:-0.391199 7:-0.939451 
-8 -8 1:-0.418803 2:-0.0680415 3:-0.593665 4:-0.593779 5:-0.122281 6:-0.69886 7:-0.973899 
-8 -8 1:-0.409525 2:-0.132516 3:-0.730739 4:-0.737056 5:-0.17327 6:-0.759349 7:-0.978252 
-8 -8 1:-0.328741 2:-0.483327 3:-0.765254 4:-0.718458 5:-0.444619 6:-0.786262 7:-0.978321 
-2.076207740673861 -2.933552966008946 1:-0.219919 2:0.520984 3:0.193909 4:-0.0347848 5:0.400508 6:-0.0522175 7:-0.297612 
-8 0 1:-0.677928 2:-0.489647 3:-0.927174 4:-0.925812 5:-0.519928 6:-0.898943 7:-0.992772 
-8 -8 1:-0.646975 2:-0.425443 3:-0.842836 4:-0.8371 5:-0.461081 6:-0.861444 7:-0.986612 
-8 -8 1:-0.478043 2:-0.255471 3:-0.808835 4:-0.816114 5:-0.287822 6:-0.81136 7:-0.979182 
-8 0 1:-0.689347 2:-0.525627 3:-0.900723 4:-0.899206 5:-0.551716 6:-0.896999 7:-0.991663 
-8 0 1:-0.577835 2:-0.504915 3:-0.886265 4:-0.881579 5:-0.512342 6:-0.901518 7:-0.992678 
-0.7639970635873468 -1.840721693937901 1:0.418732 2:0.998376 3:-0.129262 4:-0.175118 5:0.920107 6:-0.0321146 7:-0.610103 
-8 0 1:-0.482766 2:-0.441365 3:-0.940001 4:-0.94748 5:-0.441155 6:-0.893609 7:-0.993361 
-8 0 1:-0.376463 2:0.393278 3:-0.664246 4:-0.646966 5:0.264384 6:-0.620518 7:-0.981409 
-8 -8 1:-0.322246 2:-0.0858734 3:-0.897973 4:-0.905481 5:-0.117507 6:-0.894926 7:-0.997069 
-8 -8 1:-0.645557 2:-0.450245 3:-0.806269 4:-0.79939 5:-0.481128 6:-0.845751 7:-0.984113 
-8 0 1:-0.717776 2:-0.553838 3:-0.875109 4:-0.868484 5:-0.580551 6:-0.895993 7:-0.991487 
-8 -7.476881462076243 1:0.320346 2:0.0498374 3:-0.68002 4:-0.66213 5:0.122794 6:-0.706154 7:-0.953977 
-8 0 1:-0.686906 2:-0.502908 3:-0.840644 4:-0.84676 5:-0.532602 6:-0.87561 7:-0.987322 
-0.3982217489658094 0 1:-0.248489 2:0.0879125 3:-0.368588 4:-0.399898 5:0.0397653 6:-0.564428 7:-0.942701 
-4.94364574930211 -8 1:-0.137177 2:0.0458401 3:-0.553702 4:-0.568454 5:0.0276318 6:-0.594902 7:-0.929848 
-0.4339174927429076 -0.2714067893595457 1:0.809909 2:1 3:0.0540532 4:-0.084671 5:1 6:0.119716 7:-0.534548 
-8 0 1:-0.547101 2:-0.550027 3:-0.880011 4:-0.884687 5:-0.54315 6:-0.911074 7:-0.993397 
-8 -3.258477887736526 1:-0.666726 2:-0.439591 3:-0.877048 4:-0.863262 5:-0.476646 6:-0.867378 7:-0.98819 
-8 -8 1:-0.527952 2:-0.392032 3:-0.81766 4:-0.79386 5:-0.40979 6:-0.818317 7:-0.980719 
-8 -8 1:-0.218369 2:-0.122651 3:-0.828869 4:-0.833461 5:-0.126793 6:-0.803707 7:-0.982791 
-8 -8 1:-0.315896 2:-0.0575998 3:-0.932324 4:-0.935116 5:-0.0930545 6:-0.912671 7:-0.998142 
-8 -4.518543318955675 1:-0.812009 2:-0.457617 3:-0.94248 4:-0.919452 5:-0.5206 6:-0.88237 7:-0.991892 
0 -7.697270293265049 1:-0.339675 2:0.0219786 3:-0.53352 4:-0.556255 5:-0.0325965 6:-0.640298 7:-0.969103 
-8 0 1:-0.671159 2:-0.531253 3:-0.941698 4:-0.928762 5:-0.552675 6:-0.907025 7:-0.994562 
-8 0 1:-0.66119 2:-0.61417 3:-0.892211 4:-0.846668 5:-0.618643 6:-0.856062 7:-0.989144 
-8 0 1:-0.561071 2:-0.612895 3:-0.926857 4:-0.929615 5:-0.597491 6:-0.940245 7:-0.996678 
-8 -8 1:-0.152776 2:-0.0393091 3:-0.52521 4:-0.536154 5:-0.045301 6:-0.585519 7:-0.900417 
-8 -8 1:-0.453478 2:-0.0918079 3:-0.674371 4:-0.648797 5:-0.148727 6:-0.702028 7:-0.975635 
0 -8 1:-0.0713465 2:0.00978333 3:-0.767522 4:-0.788865 5:0.0112957 6:-0.741342 7:-0.969051 
-8 0 1:-0.834437 2:-0.622241 3:-0.894943 4:-0.852241 5:-0.660053 6:-0.888253 7:-0.991555 
-8 0 1:-0.819769 2:-0.751134 3:-0.921065 4:-0.914347 5:-0.762765 6:-0.951461 7:-0.99651 
-8 -8 1:-0.201778 2:-0.252709 3:-0.896657 4:-0.900393 5:-0.230075 6:-0.869432 7:-0.991647 
-0.05669291479239037 -0.1844252499974506 1:-0.0376903 2:0.596382 3:-0.0216724 4:-0.172867 5:0.498913 6:-0.191091 7:0.176114 
-2.19671037160353 -8 1:-0.181908 2:-0.0720706 3:-0.902029 4:-0.888518 5:-0.0780075 6:-0.83584 7:-0.989205 
-8 -8 1:-0.630688 2:-0.292645 3:-0.794868 4:-0.797641 5:-0.348951 6:-0.79634 7:-0.97338 
-8 -8 1:-0.732471 2:-0.397246 3:-0.835512 4:-0.834276 5:-0.455138 6:-0.835112 7:-0.981523 
