svm_type c_svc
kernel_type rbf
gamma 0.000488281
nr_class 3
total_sv 185
rho -0.341178 0.472917 -3.35171
label 2 3 1
nr_sv 68 53 64
SV
0 2048 1:-0.413581 2:-0.456183 3:-0.906905 4:-0.920325 5:-0.399778 6:-0.930436 7:-0.998959 
2048 2048 1:-0.429007 2:0.184854 3:-0.837662 4:-0.843687 5:0.179814 6:-0.831842 7:-0.99938 
2048 1572.214058054542 1:-0.545063 2:0.301938 3:0.188474 4:0.207247 5:0.26297 6:0.207415 7:-0.886599 
0 2048 1:-0.390472 2:-0.449746 3:-0.945876 4:-0.93827 5:-0.389292 6:-0.927295 7:-0.998507 
0 2048 1:-0.538286 2:-0.544349 3:-0.937871 4:-0.944555 5:-0.504923 6:-0.945982 7:-0.998929 
0 2048 1:-0.372601 2:-0.65058 3:-0.969999 4:-0.97175 5:-0.568262 6:-0.96718 7:-0.999565 
2048 2048 1:0.021019 2:-0.257043 3:-0.853365 4:-0.866385 5:-0.131619 6:-0.86907 7:-0.995434 
2048 0 1:0.25269 2:0.36119 3:-0.730579 4:-0.772661 5:0.476791 6:-0.746201 7:-0.992841 
2048 2048 1:0.125572 2:-0.202427 3:-0.884307 4:-0.890164 5:-0.0610105 6:-0.877737 7:-0.996365 
2048 2048 1:0.0732652 2:-0.325357 3:-0.876714 4:-0.873678 5:-0.183239 6:-0.868504 7:-0.997128 
0 2048 1:-0.39127 2:-0.709406 3:-0.942743 4:-0.952516 5:-0.625477 6:-0.962222 7:-0.999227 
2048 2048 1:0.35059 2:0.0218497 3:-0.719748 4:-0.710096 5:0.187971 6:-0.708369 7:-0.995479 
0 2048 1:-0.61035 2:-0.590492 3:-0.897363 4:-0.907269 5:-0.561316 6:-0.929642 7:-0.998738 
2048 2048 1:-0.419568 2:-0.0612579 3:-0.917843 4:-0.912326 5:-0.0420015 6:-0.901325 7:-0.999264 
2048 0 1:0.103933 2:0.96961 3:-0.376717 4:-0.162746 5:1 6:-0.283542 7:-0.849569 
2048 0 1:-0.0440921 2:0.20929 3:0.904412 4:1 5:0.279208 6:0.565255 7:1 
2048 2048 1:0.16502 2:-0.236403 3:-0.793627 4:-0.800961 5:-0.0839842 6:-0.820673 7:-0.994334 
2048 2048 1:-0.0992159 2:-0.431478 3:-0.936823 4:-0.94487 5:-0.314286 6:-0.938879 7:-0.998441 
2048 2048 1:0.108227 2:-0.052895 3:-0.886024 4:-0.899527 5:0.071432 6:-0.873884 7:-0.996637 
0 2048 1:-0.591463 2:-0.555822 3:-0.981771 4:-0.984422 5:-0.526015 6:-0.971352 7:-0.999558 
2048 1957.836142851402 1:-0.337696 2:0.657672 3:-0.866488 4:-0.872935 5:0.627903 6:-0.823515 7:-0.999513 
2048 2048 1:0.818799 2:-0.269438 3:-0.907129 4:-0.894644 5:0.017082 6:-0.870461 7:-0.99521 
2048 2048 1:-0.0324686 2:-0.182975 3:-0.828438 4:-0.851352 5:-0.075019 6:-0.852665 7:-0.994527 
2048 2048 1:-0.407794 2:-0.194997 3:-0.823817 4:-0.833197 5:-0.161205 6:-0.850548 7:-0.998489 
0 2048 1:-0.273601 2:-0.900358 3:-0.994559 4:-0.999137 5:-0.775452 6:-1 7:-1 
2048 2048 1:-0.0241243 2:0.0197684 3:-0.844327 4:-0.856976 5:0.110942 6:-0.848491 7:-0.99367 
2048 2048 1:-0.186375 2:-0.480903 3:-0.84203 4:-0.856326 5:-0.376688 6:-0.880714 7:-0.994627 
2048 2048 1:0.273602 2:0.132931 3:-0.819225 4:-0.825972 5:0.273503 6:-0.803507 7:-0.990612 
2048 2048 1:0.157012 2:-0.21785 3:-0.925933 4:-0.938486 5:-0.0687258 6:-0.922846 7:-0.998439 
2048 2048 1:-0.254323 2:-0.340738 3:-0.959816 4:-0.964099 5:-0.262907 6:-0.94947 7:-0.99924 
2048 2048 1:-0.255745 2:-0.315963 3:-0.920488 4:-0.923212 5:-0.240673 6:-0.915077 7:-0.998297 
2048 2048 1:-0.101001 2:0.105049 3:-0.937857 4:-0.947764 5:0.173045 6:-0.927662 7:-0.999589 
0 2048 1:-0.941754 2:-1 3:-1 4:-0.997941 5:-1 6:-0.98883 7:-0.999693 
2048 2048 1:-0.442964 2:-0.0641631 3:-0.474329 4:-0.475443 5:-0.0493336 6:-0.578324 7:-0.997834 
2048 2048 1:-0.347701 2:-0.528542 3:-0.815995 4:-0.830851 5:-0.45234 6:-0.875027 7:-0.996734 
2048 2048 1:-0.0356739 2:-0.223198 3:-0.743475 4:-0.759878 5:-0.112224 6:-0.796852 7:-0.993912 
2048 2048 1:-0.181893 2:-0.332295 3:-0.898484 4:-0.905256 5:-0.240709 6:-0.905477 7:-0.997808 
2048 2048 1:-0.0901037 2:-0.398256 3:-0.883486 4:-0.896947 5:-0.28226 6:-0.892839 7:-0.995763 
1078.083340128871 2048 1:-0.281526 2:-0.564254 3:-0.957609 4:-0.964535 5:-0.471531 6:-0.958062 7:-0.999207 
2048 2048 1:0.00842129 2:-0.332771 3:-0.895608 4:-0.907205 5:-0.20298 6:-0.906508 7:-0.997277 
0 2048 1:-0.385368 2:-0.624705 3:-0.944445 4:-0.955056 5:-0.547302 6:-0.957806 7:-0.99916 
2048 2048 1:-0.323866 2:-0.408831 3:-0.900063 4:-0.906606 5:-0.338746 6:-0.913942 7:-0.998112 
2048 2048 1:0.0937067 2:-0.109481 3:-0.82544 4:-0.85149 5:0.0170851 6:-0.850449 7:-0.996241 
0 2048 1:-0.384993 2:-0.53178 3:-0.922022 4:-0.927199 5:-0.46276 6:-0.935837 7:-0.998669 
2048 2048 1:-0.287819 2:-0.474201 3:-0.894089 4:-0.904374 5:-0.390937 6:-0.907093 7:-0.997149 
2048 0 1:0.276373 2:0.523273 3:-0.69222 4:-0.729477 5:0.628869 6:-0.681788 7:-0.995525 
2048 2048 1:0.0206723 2:-0.541455 3:-0.976443 4:-0.98556 5:-0.390212 6:-0.979385 7:-0.999809 
0 2048 1:-0.356597 2:-0.743357 3:-0.986988 4:-0.989116 5:-0.649385 6:-0.980965 7:-0.999685 
2048 2048 1:-0.32788 2:-0.629355 3:-0.868107 4:-0.880452 5:-0.540001 6:-0.913739 7:-0.997698 
2048 2048 1:-0.175344 2:-0.382067 3:-0.903824 4:-0.90113 5:-0.284638 6:-0.901836 7:-0.997462 
2048 2048 1:-0.256926 2:-0.409196 3:-0.876827 4:-0.884948 5:-0.325655 6:-0.90087 7:-0.997687 
0 2048 1:-0.356402 2:-0.562538 3:-0.90356 4:-0.914428 5:-0.484986 6:-0.936588 7:-0.998966 
2048 2048 1:0.112416 2:0.175671 3:-0.771706 4:-0.798222 5:0.280032 6:-0.790727 7:-0.995934 
0 2048 1:-0.396322 2:-0.731687 3:-0.94455 4:-0.940009 5:-0.646742 6:-0.944312 7:-0.998704 
0 2048 1:-0.532481 2:-0.510905 3:-0.887206 4:-0.890806 5:-0.47336 6:-0.908746 7:-0.998771 
2048 2048 1:0.217449 2:-0.584256 3:-0.881187 4:-0.871565 5:-0.38966 6:-0.890338 7:-0.996127 
2048 2048 1:-0.0434067 2:-0.547441 3:-0.904793 4:-0.919446 5:-0.408502 6:-0.923779 7:-0.996864 
0 2048 1:-0.70415 2:-0.75942 3:-0.963265 4:-0.966256 5:-0.733676 6:-0.977767 7:-0.999808 
2048 2048 1:-0.131188 2:-0.428337 3:-0.920742 4:-0.929061 5:-0.317841 6:-0.930337 7:-0.998561 
2048 2048 1:-0.0543248 2:-0.221137 3:-0.848588 4:-0.863357 5:-0.11409 6:-0.867528 7:-0.996147 
2048 0 1:0.37006 2:0.361093 3:-0.797926 4:-0.788691 5:0.500238 6:-0.733064 7:-0.995145 
0 2048 1:-0.426751 2:-0.496333 3:-0.887287 4:-0.896124 5:-0.438913 6:-0.911763 7:-0.998475 
2048 2048 1:0.0304153 2:-0.300161 3:-0.936122 4:-0.941833 5:-0.168929 6:-0.924698 7:-0.997884 
2048 2048 1:-0.284676 2:-0.451476 3:-0.931853 4:-0.935677 5:-0.369651 6:-0.932649 7:-0.998437 
2048 2048 1:0.274216 2:0.140101 3:-0.798084 4:-0.806673 5:0.280144 6:-0.760028 7:-0.984891 
2048 2048 1:-0.272053 2:-0.224822 3:-0.904804 4:-0.90914 5:-0.161098 6:-0.907518 7:-0.998592 
2048 2048 1:0.104908 2:-0.232991 3:-0.90481 4:-0.917034 5:-0.0929356 6:-0.901781 7:-0.996838 
2048 2048 1:-0.303682 2:-0.358887 3:-0.916374 4:-0.920641 5:-0.289301 6:-0.916417 7:-0.998347 
-2048 2048 1:-0.54026 2:-0.331585 3:-0.547209 4:-0.5843 5:-0.311922 6:-0.712028 7:-0.996508 
-2048 2048 1:-0.104571 2:0.551928 3:-0.87416 4:-0.87266 5:0.57853 6:-0.826466 7:-0.998918 
-2048 849.907979199202 1:-0.339305 2:-0.40226 3:0.188176 4:0.00903037 5:-0.335869 6:-0.392643 7:-0.953004 
-2048 2048 1:-0.11955 2:0.158204 3:-0.497724 4:-0.538101 5:0.217642 6:-0.549171 7:-0.99473 
-2048 2048 1:-0.114595 2:-0.35647 3:-0.891194 4:-0.90311 5:-0.249189 6:-0.909251 7:-0.997909 
-2048 2048 1:-0.118394 2:-0.482246 3:-0.814433 4:-0.841607 5:-0.364278 6:-0.870672 7:-0.99587 
-2048 2048 1:-0.805681 2:-0.84394 3:-0.978163 4:-0.971791 5:-0.830861 6:-0.980718 7:-0.999753 
-2048 2048 1:-0.345059 2:-0.0705933 3:-0.82313 4:-0.789763 5:-0.0355469 6:-0.794769 7:-0.998105 
-2048 2048 1:0.51207 2:0.109238 3:-0.795757 4:-0.802955 5:0.299784 6:-0.778838 7:-0.992284 
-2048 2048 1:-0.0486317 2:-0.133125 3:-0.919577 4:-0.926885 5:-0.0329477 6:-0.913818 7:-0.998667 
-2048 2048 1:-0.123933 2:-0.426174 3:-0.872046 4:-0.88276 5:-0.31442 6:-0.889212 7:-0.996638 
-2048 2048 1:-0.57525 2:-0.506374 3:-0.936754 4:-0.941557 5:-0.477817 6:-0.944718 7:-0.999184 
-2048 0 1:-0.135653 2:1 3:-0.219517 4:0.0397901 5:0.979583 6:-0.20934 7:-0.44185 
-2048 2048 1:-0.764416 2:-0.732807 3:-0.88326 4:-0.881822 5:-0.72157 6:-0.930018 7:-0.999301 
-672.6678838971297 0 1:-0.239842 2:0.469292 3:1 4:0.925313 5:0.476292 6:1 7:0.0629525 
-2048 2048 1:-0.2839 2:-0.460924 3:-0.890494 4:-0.90436 5:-0.378084 6:-0.917467 7:-0.998118 
-2048 2048 1:0.0270453 2:-0.289878 3:-0.862642 4:-0.882751 5:-0.160258 6:-0.888568 7:-0.996489 
-2048 0 1:0.132245 2:0.571595 3:-0.512078 4:-0.580722 5:0.643893 6:-0.507074 7:-0.861727 
-2048 2048 1:-0.509998 2:-0.684862 3:-0.907139 4:-0.91675 5:-0.626973 6:-0.941637 7:-0.998791 
-820.2176031880623 0 1:0.0341307 2:0.933323 3:-0.303233 4:-0.0847191 5:0.95302 6:-0.271379 7:-0.808167 
-2048 2048 1:-0.536873 2:-0.694493 3:-0.901638 4:-0.912968 5:-0.641116 6:-0.935008 7:-0.998304 
-2048 2048 1:0.112661 2:-0.56702 3:-0.926587 4:-0.942443 5:-0.395005 6:-0.942759 7:-0.998269 
-2048 2048 1:0.143964 2:0.0726979 3:-0.765311 4:-0.813238 5:0.192758 6:-0.782559 7:-0.967071 
-2048 0 1:0.458876 2:0.119318 3:-0.766313 4:-0.724939 5:0.29828 6:-0.676764 7:-0.997441 
-1633.197853043678 2048 1:0.689959 2:-0.503822 3:-0.816216 4:-0.832539 5:-0.221801 6:-0.846794 7:-0.99163 
-2048 2048 1:0.0945003 2:-0.151472 3:-0.865236 4:-0.882776 5:-0.0209242 6:-0.869861 7:-0.996083 
-2048 2048 1:0.282629 2:-0.021313 3:-0.853422 4:-0.844903 5:0.13511 6:-0.829445 7:-0.994797 
-2048 2048 1:-0.0602587 2:-0.197484 3:-0.862115 4:-0.874901 5:-0.0937799 6:-0.868062 7:-0.996626 
-2048 2048 1:-0.301084 2:-0.240398 3:-0.93121 4:-0.918749 5:-0.181077 6:-0.899 7:-0.998377 
-2048 2048 1:0.107261 2:-0.324136 3:-0.872486 4:-0.88306 5:-0.175312 6:-0.882253 7:-0.995903 
-2048 2048 1:-0.835333 2:-0.663154 3:-0.954453 4:-0.953574 5:-0.672477 6:-0.9573 7:-0.999324 
-2048 2048 1:0.354321 2:-0.25464 3:-0.892954 4:-0.904829 5:-0.0626032 6:-0.885255 7:-0.994913 
-2048 2048 1:-0.116702 2:-0.250189 3:-0.865155 4:-0.876679 5:-0.153005 6:-0.879856 7:-0.997338 
-2048 2048 1:0.081545 2:-0.0184047 3:-0.818577 4:-0.831578 5:0.0974325 6:-0.826619 7:-0.99339 
-2048 2048 1:-0.145471 2:-0.0825497 3:-0.962126 4:-0.962612 5:-0.00639422 6:-0.939453 7:-0.999348 
0 2048 1:0.595405 2:0.00396586 3:-0.82845 4:-0.854089 5:0.220804 6:-0.827744 7:-0.992159 
-2048 320.6301625741685 1:0.191988 2:0.226176 3:-0.556443 4:-0.594002 5:0.341895 6:-0.575673 7:-0.961112 
-2048 2048 1:0.111175 2:-0.0387938 3:-0.718877 4:-0.770414 5:0.0848406 6:-0.792228 7:-0.989084 
-2048 2048 1:-0.086381 2:-0.0886739 3:-0.860298 4:-0.869239 5:-0.000112282 6:-0.863211 7:-0.996891 
-2048 183.4950599113904 1:0.561656 2:0.177359 3:-0.854305 4:-0.860583 5:0.371647 6:-0.82122 7:-0.991967 
-2048 2048 1:0.290832 2:0.248079 3:-0.734814 4:-0.772175 5:0.381625 6:-0.751935 7:-0.97279 
-2048 2048 1:-0.494751 2:-0.750527 3:-0.839339 4:-0.86116 5:-0.683604 6:-0.920074 7:-0.997953 
-2048 2048 1:-0.240041 2:-0.134913 3:-0.903487 4:-0.913713 5:-0.0729537 6:-0.911003 7:-0.999013 
-2048 2048 1:-0.0369073 2:-0.332783 3:-0.874688 4:-0.889337 5:-0.21208 6:-0.894843 7:-0.99669 
-2048 2048 1:0.412148 2:0.267392 3:-0.790675 4:-0.816237 5:0.423506 6:-0.782841 7:-0.993695 
-2048 2048 1:0.418393 2:-0.33393 3:-0.869763 4:-0.854971 5:-0.121827 6:-0.858204 7:-0.996247 
-2048 2048 1:0.335621 2:0.0599217 3:-0.820026 4:-0.828695 5:0.219576 6:-0.800277 7:-0.991969 
-2048 2048 1:0.524114 2:0.123546 3:-0.859199 4:-0.861386 5:0.315205 6:-0.823626 7:-0.993637 
-2048 2048 1:-0.291653 2:-0.382998 3:-0.93901 4:-0.942623 5:-0.308805 6:-0.943194 7:-0.999396 
-2048 0 1:0.550292 2:0.35308 3:-0.580118 4:-0.644496 5:0.529093 6:-0.602807 7:-0.617949 
-2048 2048 1:0.127277 2:-0.069282 3:-0.7355 4:-0.74788 5:0.0603565 6:-0.763183 7:-0.994444 
-2048 2048 1:-0.309714 2:-0.588791 3:-0.918187 4:-0.926472 5:-0.499487 6:-0.94003 7:-0.998768 
-2048 2048 1:0.0590993 2:-0.12346 3:-0.942336 4:-0.951332 5:-0.00256062 6:-0.93583 7:-0.999246 
-2048 -2048 1:0.720341 2:-0.31883 3:-0.834196 4:-0.872888 5:-0.0475564 6:-0.84815 7:-0.985296 
-2048 -2048 1:-0.364566 2:-0.553546 3:-0.883347 4:-0.892068 5:-0.478449 6:-0.91583 7:-0.997637 
-2048 -2048 1:-0.171076 2:-0.461772 3:-0.888757 4:-0.90618 5:-0.356231 6:-0.920082 7:-0.99867 
-2048 0 1:-0.559512 2:-0.432183 3:-0.900242 4:-0.906713 5:-0.407224 6:-0.919264 7:-0.999098 
-2048 0 1:-0.444426 2:-0.514168 3:-0.932838 4:-0.930722 5:-0.458669 6:-0.931391 7:-0.998752 
-2048 0 1:-0.380583 2:-0.639185 3:-0.89916 4:-0.90302 5:-0.559504 6:-0.923954 7:-0.998139 
-2048 -2048 1:-0.287826 2:-0.335046 3:-0.933737 4:-0.929475 5:-0.264451 6:-0.915657 7:-0.998391 
-2048 0 1:-0.538823 2:-0.674579 3:-0.948031 4:-0.941197 5:-0.623407 6:-0.941683 7:-0.998951 
-2048 0 1:-0.515693 2:-0.66356 3:-0.936176 4:-0.93933 5:-0.608753 6:-0.942762 7:-0.998956 
-2048 -2048 1:-0.0110921 2:-0.460892 3:-0.861599 4:-0.867199 5:-0.323352 6:-0.883268 7:-0.996253 
-2048 -2048 1:-0.34181 2:-0.225661 3:-0.878457 4:-0.88724 5:-0.175848 6:-0.885874 7:-0.998487 
-2048 -2048 1:-0.135599 2:-0.222375 3:-0.83144 4:-0.850669 5:-0.131512 6:-0.867424 7:-0.997344 
-2048 -2048 1:-0.0351138 2:-0.100447 3:-0.825544 4:-0.845331 5:-0.000533646 6:-0.851847 7:-0.997287 
-2048 -2048 1:-0.17856 2:-0.226993 3:-0.948341 4:-0.949977 5:-0.144324 6:-0.932072 7:-0.998942 
-2048 -2048 1:-0.11394 2:-0.429981 3:-0.914814 4:-0.92088 5:-0.315877 6:-0.917301 7:-0.99772 
-2048 -2048 1:-0.246986 2:0.858585 3:-0.783527 4:-0.782262 5:0.828717 6:-0.700347 7:-0.998993 
-2048 0 1:-0.433291 2:-0.758127 3:-0.89644 4:-0.899 5:-0.678188 6:-0.928344 7:-0.99812 
-2048 -2048 1:0.519256 2:0.0504615 3:0.0201036 4:0.00362499 5:0.247799 6:-0.122082 7:-0.986603 
-2048 -2048 1:-0.313089 2:-0.407722 3:-0.926505 4:-0.935505 5:-0.335577 6:-0.93331 7:-0.998763 
-2048 -2048 1:-0.283106 2:-0.544748 3:-0.881128 4:-0.885842 5:-0.454118 6:-0.907457 7:-0.997798 
-2048 0 1:-0.505369 2:-0.597936 3:-0.963142 4:-0.966301 5:-0.547032 6:-0.966644 7:-0.99951 
-2048 -2048 1:-0.363772 2:-0.28003 3:-0.896754 4:-0.909862 5:-0.229671 6:-0.912154 7:-0.998668 
-2048 0 1:-0.451625 2:-0.779168 3:-0.951882 4:-0.957832 5:-0.70099 6:-0.964239 7:-0.999062 
-2048 -2048 1:0.152751 2:-0.170307 3:-0.824311 4:-0.857204 5:-0.0263647 6:-0.855748 7:-0.983925 
-2048 -2048 1:0.0889415 2:-0.414359 3:-0.955964 4:-0.964467 5:-0.260996 6:-0.954377 7:-0.999267 
-2048 0 1:-0.50455 2:-0.433969 3:-0.939616 4:-0.929943 5:-0.397826 6:-0.924826 7:-0.998966 
-2048 -2048 1:-0.218707 2:-0.359295 3:-0.907883 4:-0.919039 5:-0.272633 6:-0.916479 7:-0.998203 
-2048 0 1:-0.504387 2:-0.677763 3:-0.946499 4:-0.94308 5:-0.619396 6:-0.943383 7:-0.99898 
-2048 -2048 1:-0.293337 2:-0.383458 3:-0.884844 4:-0.893425 5:-0.309561 6:-0.905094 7:-0.998035 
-2048 0 1:-0.627366 2:-0.486528 3:-0.842293 4:-0.849116 5:-0.470228 6:-0.89916 7:-0.999076 
-2048 -2048 1:0.597398 2:0.121463 3:-0.829718 4:-0.84165 5:0.328006 6:-0.80807 7:-0.992711 
-2048 -2048 1:-0.24157 2:-0.318101 3:-0.901615 4:-0.912334 5:-0.239774 6:-0.907241 7:-0.998078 
-2048 0 1:-0.399103 2:-0.597777 3:-0.92777 4:-0.93508 5:-0.525579 6:-0.941834 7:-0.998721 
-2048 -2048 1:0.0290325 2:-0.111422 3:-0.901918 4:-0.913157 5:0.00235242 6:-0.908111 7:-0.999096 
-853.1088611888374 -2048 1:-0.234877 2:-0.920671 3:-0.918694 4:-0.91097 5:-0.786151 6:-0.941216 7:-0.998224 
-2048 0 1:-0.561008 2:-0.726946 3:-0.965047 4:-0.9667 5:-0.675455 6:-0.967437 7:-0.999328 
-2048 -2048 1:-0.401791 2:0.53646 3:-0.910456 4:-0.913802 5:0.504873 6:-0.877415 7:-0.999725 
-2048 -2048 1:0.42296 2:-0.143966 3:-0.876575 4:-0.878031 5:0.0517599 6:-0.857543 7:-0.995145 
-2048 -2048 1:0.253942 2:0.0607514 3:-0.717177 4:-0.775014 5:0.203952 6:-0.746382 7:-0.917006 
-2048 0 1:-0.40543 2:-0.716006 3:-0.93185 4:-0.939864 5:-0.634315 6:-0.956603 7:-0.999063 
-2048 -2048 1:-0.125863 2:-0.402934 3:-0.825215 4:-0.824729 5:-0.293683 6:-0.849062 7:-0.997131 
-2048 -2048 1:-0.174882 2:-0.61196 3:-0.890197 4:-0.907834 5:-0.493511 6:-0.928248 7:-0.99775 
-2048 0 1:-0.43914 2:-0.693898 3:-0.957716 4:-0.964145 5:-0.620979 6:-0.971072 7:-0.999609 
-2048 -2048 1:-0.0245145 2:-0.240166 3:-0.848376 4:-0.866562 5:-0.125409 6:-0.867433 7:-0.995349 
-2048 -2048 1:0.0652951 2:-0.279649 3:-0.871754 4:-0.890936 5:-0.14329 6:-0.888517 7:-0.996257 
-2048 -2048 1:-0.228839 2:-0.489246 3:-0.900009 4:-0.910524 5:-0.392787 6:-0.922839 7:-0.998322 
-2048 -2027.055807137171 1:-0.540405 2:-0.308043 3:-0.849974 4:-0.861575 5:-0.290552 6:-0.885665 7:-0.999071 
-2048 -2048 1:0.184622 2:0.016429 3:-0.948877 4:-0.957359 5:0.149764 6:-0.944913 7:-0.99979 
-2048 -2048 1:-0.135277 2:-0.352039 3:-0.930399 4:-0.941205 5:-0.249308 6:-0.94536 7:-0.999474 
-628.9413397171054 0 1:-0.580317 2:-0.73097 3:-0.933077 4:-0.940593 5:-0.682985 6:-0.957156 7:-0.999205 
-2048 -2048 1:-0.0570747 2:-0.143799 3:-0.645196 4:-0.61102 5:-0.0443434 6:-0.671283 7:-0.996462 
-2048 -2048 1:-0.283445 2:-0.179164 3:-0.934945 4:-0.937016 5:-0.12188 6:-0.922254 7:-0.998812 
-2048 -2048 1:-0.0489024 2:-0.15609 3:-0.907606 4:-0.905912 5:-0.0538768 6:-0.886831 7:-0.997381 
-2048 -2048 1:0.229927 2:0.201349 3:-0.754545 4:-0.806276 5:0.326936 6:-0.768179 7:-0.966864 
-2048 -2048 1:-0.386131 2:-0.321892 3:-0.758252 4:-0.75113 5:-0.272206 6:-0.802878 7:-0.998451 
-2048 -2048 1:0.0111248 2:-0.313172 3:-0.849123 4:-0.863081 5:-0.184623 6:-0.873077 7:-0.995823 
-2048 0 1:-0.324337 2:-0.578622 3:-0.996129 4:-1 5:-0.493176 6:-0.992621 7:-0.999999 
-2048 -2048 1:0.314084 2:-0.104507 3:-0.860442 4:-0.880574 5:0.0657955 6:-0.867106 7:-0.995156 
-2048 -2048 1:-0.0352421 2:-0.265064 3:-0.855877 4:-0.871371 5:-0.150192 6:-0.875413 7:-0.996098 
-2048 0 1:-0.379081 2:-0.573511 3:-0.944997 4:-0.950523 5:-0.499507 6:-0.952659 7:-0.999112 
-2048 0 1:-0.600656 2:-0.68174 3:-0.902585 4:-0.905349 5:-0.642314 6:-0.935064 7:-0.99885 
-2048 -2048 1:-0.0914236 2:-0.189869 3:-0.904494 4:-0.911731 5:-0.0931069 6:-0.896778 7:-0.997549 
-2048 -1374.97739454759 1:-0.36386 2:-0.539078 3:-0.932064 4:-0.94198 5:-0.465156 6:-0.945217 7:-0.998745 
-2048 -2048 1:-0.406419 2:-0.461592 3:-0.902171 4:-0.909856 5:-0.403258 6:-0.921905 7:-0.998553 
