svm_type c_svc
kernel_type rbf
gamma 0.00012207
nr_class 3
total_sv 187
rho 0.946291 -19.5813 -3.82345
label 3 2 1
nr_sv 50 72 65
SV
32768 32768 1:-0.611995 2:-0.331585 3:-0.546775 4:-0.5843 5:-0.311922 6:-0.712028 7:-0.996508 
32768 0 1:0.154926 2:0.491612 3:-0.438771 4:-0.474369 5:0.595469 6:-0.513248 7:-0.906402 
32768 0 1:-0.205421 2:0.158204 3:-0.497303 4:-0.538101 5:0.217642 6:-0.549171 7:-0.99473 
32768 32768 1:-0.200632 2:-0.35647 3:-0.890662 4:-0.90311 5:-0.249189 6:-0.909251 7:-0.997909 
32768 32768 1:-0.868498 2:-0.84394 3:-0.977607 4:-0.971791 5:-0.830861 6:-0.980718 7:-0.999753 
32768 32768 1:-0.423353 2:-0.0705933 3:-0.822617 4:-0.789763 5:-0.0355469 6:-0.794769 7:-0.998105 
32768 32768 1:-0.140947 2:-0.0601179 3:-0.801591 4:-0.820794 5:0.0325708 6:-0.829928 7:-0.991025 
32768 32768 1:0.404978 2:0.109238 3:-0.795252 4:-0.802955 5:0.299784 6:-0.778838 7:-0.992284 
32768 32768 1:-0.645809 2:-0.506374 3:-0.93621 4:-0.941557 5:-0.477817 6:-0.944718 7:-0.999184 
32768 32768 1:-0.381151 2:-0.311668 3:-0.906025 4:-0.91166 5:-0.245921 6:-0.911413 7:-0.998406 
32768 0 1:-0.220982 2:1 3:-0.219174 4:0.0397901 5:0.979583 6:-0.20934 7:-0.44185 
21780.41452965378 0 1:-0.108465 2:0.763736 3:-0.27524 4:-0.410786 5:0.788171 6:-0.381169 7:-0.909416 
32768 32768 1:-0.364248 2:-0.460924 3:-0.889963 4:-0.90436 5:-0.378084 6:-0.917467 7:-0.998118 
32768 32768 1:-0.58275 2:-0.684862 3:-0.906603 4:-0.91675 5:-0.626973 6:-0.941637 7:-0.998791 
15595.1502024579 0 1:-0.0569032 2:0.933323 3:-0.302867 4:-0.0847191 5:0.95302 6:-0.271379 7:-0.808167 
32768 9955.598928393181 1:0.345523 2:0.399287 3:-0.629288 4:-0.679166 5:0.551095 6:-0.653517 7:-0.974699 
32768 32768 1:-0.43922 2:-0.217062 3:-0.914889 4:-0.925441 5:-0.171975 6:-0.899802 7:-0.996957 
32768 32768 1:-0.608722 2:-0.694493 3:-0.901104 4:-0.912968 5:-0.641116 6:-0.935008 7:-0.998304 
25644.00679725342 0 1:0.876514 2:0.254527 3:-0.686562 4:-0.714818 5:0.529686 6:-0.657142 7:-0.927107 
32768 0 1:0.199193 2:0.101308 3:-0.652939 4:-0.664377 5:0.249878 6:-0.655577 7:-0.972663 
32768 32768 1:0.0189883 2:-0.56702 3:-0.926045 4:-0.942443 5:-0.395005 6:-0.942759 7:-0.998269 
32768 32768 1:0.353571 2:0.119318 3:-0.765816 4:-0.724939 5:0.29828 6:-0.676764 7:-0.997441 
32768 26985.90258783401 1:0.57689 2:-0.503822 3:-0.815705 4:-0.832539 5:-0.221801 6:-0.846794 7:-0.99163 
32768 32768 1:0.0583858 2:-0.105877 3:-0.926099 4:-0.932678 5:0.0323363 6:-0.918197 7:-0.998661 
32768 32768 1:0.183246 2:-0.021313 3:-0.852901 4:-0.844903 5:0.13511 6:-0.829445 7:-0.994797 
32768 32768 1:-0.148121 2:-0.197484 3:-0.861592 4:-0.874901 5:-0.0937799 6:-0.868062 7:-0.996626 
32768 32768 1:-0.380855 2:-0.240398 3:-0.930667 4:-0.918749 5:-0.181077 6:-0.899 7:-0.998377 
32768 32768 1:0.0137704 2:-0.324136 3:-0.87196 4:-0.88306 5:-0.175312 6:-0.882253 7:-0.995903 
32768 32768 1:-0.897154 2:-0.663154 3:-0.953903 4:-0.953574 5:-0.672477 6:-0.9573 7:-0.999324 
32768 32768 1:-0.534802 2:-0.665748 3:-0.92385 4:-0.932209 5:-0.599651 6:-0.945459 7:-0.998696 
32768 32768 1:-0.202668 2:-0.250189 3:-0.864631 4:-0.876679 5:-0.153005 6:-0.879856 7:-0.997338 
32768 32768 1:-0.230471 2:-0.0825497 3:-0.961575 4:-0.962612 5:-0.00639422 6:-0.939453 7:-0.999348 
32768 32768 1:-0.441271 2:-0.619354 3:-0.961449 4:-0.946469 5:-0.538074 6:-0.936722 7:-0.998738 
32768 32768 1:0.485513 2:0.00396586 3:-0.827936 4:-0.854089 5:0.220804 6:-0.827744 7:-0.992159 
32768 0 1:0.0956505 2:0.226176 3:-0.556006 4:-0.594002 5:0.341895 6:-0.575673 7:-0.961112 
32768 32768 1:0.114784 2:-0.184447 3:-0.766811 4:-0.772724 5:-0.0273796 6:-0.76822 7:-0.986052 
32768 32768 1:0.0175521 2:-0.0387938 3:-0.718394 4:-0.770414 5:0.0848406 6:-0.792228 7:-0.989084 
32768 32768 1:0.204483 2:-0.0192179 3:-0.834039 4:-0.852224 5:0.141421 6:-0.844135 7:-0.986774 
32768 32768 1:0.452898 2:0.177359 3:-0.853784 4:-0.860583 5:0.371647 6:-0.82122 7:-0.991967 
32768 32768 1:0.191173 2:0.248079 3:-0.734326 4:-0.772175 5:0.381625 6:-0.751935 7:-0.97279 
32768 32768 1:-0.568015 2:-0.750527 3:-0.838822 4:-0.86116 5:-0.683604 6:-0.920074 7:-0.997953 
32768 32768 1:-0.321863 2:-0.134913 3:-0.902952 4:-0.913713 5:-0.0729537 6:-0.911003 7:-0.999013 
32768 32768 1:-0.125554 2:-0.332783 3:-0.874161 4:-0.889337 5:-0.21208 6:-0.894843 7:-0.99669 
32768 32768 1:0.314448 2:-0.33393 3:-0.869237 4:-0.854971 5:-0.121827 6:-0.858204 7:-0.996247 
32768 32768 1:0.173067 2:0.127644 3:-0.75279 4:-0.784653 5:0.268395 6:-0.78226 7:-0.987152 
32768 32768 1:0.416617 2:0.123546 3:-0.858677 4:-0.861386 5:0.315205 6:-0.823626 7:-0.993637 
32768 32768 1:0.0331134 2:-0.069282 3:-0.735013 4:-0.74788 5:0.0603565 6:-0.763183 7:-0.994444 
32768 0 1:0.328739 2:0.0270882 3:-0.641184 4:-0.646503 5:0.209293 6:-0.663429 7:-0.987638 
32768 32768 1:-0.164432 2:-0.361644 3:-0.897335 4:-0.91247 5:-0.246381 6:-0.913551 7:-0.998224 
32768 32768 1:-0.0327735 2:-0.12346 3:-0.94179 4:-0.951332 5:-0.00256062 6:-0.93583 7:-0.999246 
-32768 32768 1:-0.50448 2:0.184854 3:-0.837146 4:-0.843687 5:0.179814 6:-0.831842 7:-0.99938 
-32768 32768 1:-0.2424 2:-0.495454 3:-0.875844 4:-0.868693 5:-0.384188 6:-0.890885 7:-0.997665 
-32768 0 1:-0.616637 2:0.301938 3:0.188702 4:0.207247 5:0.26297 6:0.207415 7:-0.886599 
0 32768 1:-0.46724 2:-0.449746 3:-0.945329 4:-0.93827 5:-0.389292 6:-0.927295 7:-0.998507 
0 32768 1:-0.449969 2:-0.65058 3:-0.969445 4:-0.97175 5:-0.568262 6:-0.96718 7:-0.999565 
-32768 32768 1:-0.0695744 2:-0.257043 3:-0.852844 4:-0.866385 5:-0.131619 6:-0.86907 7:-0.995434 
-32768 11387.79919019589 1:0.154313 2:0.36119 3:-0.730093 4:-0.772661 5:0.476791 6:-0.746201 7:-0.992841 
-32768 32768 1:0.0314657 2:-0.202427 3:-0.883778 4:-0.890164 5:-0.0610105 6:-0.877737 7:-0.996365 
-32768 32768 1:-0.316782 2:-0.453615 3:-0.902162 4:-0.895921 5:-0.361591 6:-0.903874 7:-0.997702 
-32768 32768 1:-0.0190836 2:-0.325357 3:-0.876186 4:-0.873678 5:-0.183239 6:-0.868504 7:-0.997128 
0 32768 1:-0.468011 2:-0.709406 3:-0.942197 4:-0.952516 5:-0.625477 6:-0.962222 7:-0.999227 
-32768 32768 1:-0.0994615 2:-0.369834 3:-0.939276 4:-0.91576 5:-0.240345 6:-0.902789 7:-0.998511 
-32768 26474.23542824925 1:0.248924 2:0.0218497 3:-0.719264 4:-0.710096 5:0.187971 6:-0.708369 7:-0.995479 
0 32768 1:-0.67973 2:-0.590492 3:-0.89683 4:-0.907269 5:-0.561316 6:-0.929642 7:-0.998738 
0 32768 1:-0.469012 2:-0.04372 3:-0.881382 4:-0.875571 5:-0.0205936 6:-0.861335 7:-0.99872 
0 32768 1:-0.495358 2:-0.0612579 3:-0.917304 4:-0.912326 5:-0.0420015 6:-0.901325 7:-0.999264 
-32768 0 1:0.0105534 2:0.96961 3:-0.376331 4:-0.162746 5:1 6:-0.283542 7:-0.849569 
-18578.19599658738 22.22792491905085 1:-0.132498 2:0.20929 3:0.904439 4:1 5:0.279208 6:0.565255 7:1 
0 32768 1:-0.702392 2:-0.71068 3:-0.934937 4:-0.944609 5:-0.675266 6:-0.95501 7:-0.998999 
-32768 32768 1:0.0695884 2:-0.236403 3:-0.793123 4:-0.800961 5:-0.0839842 6:-0.820673 7:-0.994334 
-32768 32768 1:-0.18577 2:-0.431478 3:-0.936278 4:-0.94487 5:-0.314286 6:-0.938879 7:-0.998441 
-32768 32768 1:-0.0122357 2:-0.265284 3:-0.926656 4:-0.937662 5:-0.127214 6:-0.927056 7:-0.998516 
-32768 32768 1:0.0147035 2:-0.052895 3:-0.885494 4:-0.899527 5:0.071432 6:-0.873884 7:-0.996637 
0 32768 1:-0.661478 2:-0.555822 3:-0.981214 4:-0.984422 5:-0.526015 6:-0.971352 7:-0.999558 
-32768 0 1:1 2:0.0731775 3:-0.845004 4:-0.835511 5:0.390466 6:-0.795293 7:-0.990618 
-26018.68089519723 32768 1:-0.416237 2:0.657672 3:-0.865963 4:-0.872935 5:0.627903 6:-0.823515 7:-0.999513 
0 32768 1:-0.934201 2:-0.941106 3:-1 4:-0.999848 5:-0.932815 6:-0.992176 7:-0.999853 
-32768 0 1:0.701401 2:-0.269438 3:-0.906593 4:-0.894644 5:0.017082 6:-0.870461 7:-0.99521 
-32768 32768 1:-0.121265 2:-0.182975 3:-0.827924 4:-0.851352 5:-0.075019 6:-0.852665 7:-0.994527 
-32768 32768 1:0.337202 2:0.115607 3:-0.818818 4:-0.848332 5:0.29151 6:-0.826655 7:-0.992547 
-32768 32768 1:-0.48398 2:-0.194997 3:-0.823304 4:-0.833197 5:-0.161205 6:-0.850548 7:-0.998489 
0 32768 1:-0.354295 2:-0.900358 3:-0.993998 4:-0.999137 5:-0.775452 6:-1 7:-1 
-32768 32768 1:-0.27 2:-0.480903 3:-0.841512 4:-0.856326 5:-0.376688 6:-0.880714 7:-0.994627 
-32768 32768 1:0.174522 2:0.132931 3:-0.818713 4:-0.825972 5:0.273503 6:-0.803507 7:-0.990612 
-32768 32768 1:0.0618491 2:-0.21785 3:-0.925392 4:-0.938486 5:-0.0687258 6:-0.922846 7:-0.998439 
0 32768 1:-0.335665 2:-0.340738 3:-0.959265 4:-0.964099 5:-0.262907 6:-0.94947 7:-0.99924 
-32768 32768 1:-0.33704 2:-0.315963 3:-0.919948 4:-0.923212 5:-0.240673 6:-0.915077 7:-0.998297 
-32768 32768 1:-0.014861 2:0.0745652 3:-0.83513 4:-0.855854 5:0.181156 6:-0.84207 7:-0.996993 
0 32768 1:-1 2:-1 3:-0.999438 4:-0.997941 5:-1 6:-0.98883 7:-0.999693 
-32768 32768 1:-0.517968 2:-0.0641631 3:-0.473914 4:-0.475443 5:-0.0493336 6:-0.578324 7:-0.997834 
-32768 32768 1:-0.425906 2:-0.528542 3:-0.815484 4:-0.830851 5:-0.45234 6:-0.875027 7:-0.996734 
-32768 32768 1:0.183332 2:0.079174 3:-0.868083 4:-0.88336 5:0.226468 6:-0.855125 7:-0.995369 
-32768 32768 1:-0.124362 2:-0.223198 3:-0.742985 4:-0.759878 5:-0.112224 6:-0.796852 7:-0.993912 
-32768 32768 1:-0.265668 2:-0.332295 3:-0.89795 4:-0.905256 5:-0.240709 6:-0.905477 7:-0.997808 
0 32768 1:-0.361954 2:-0.564254 3:-0.957059 4:-0.964535 5:-0.471531 6:-0.958062 7:-0.999207 
0 32768 1:-0.462307 2:-0.624705 3:-0.943899 4:-0.955056 5:-0.547302 6:-0.957806 7:-0.99916 
-32768 32768 1:-0.402871 2:-0.408831 3:-0.899529 4:-0.906606 5:-0.338746 6:-0.913942 7:-0.998112 
0 32768 1:-0.461945 2:-0.53178 3:-0.921482 4:-0.927199 5:-0.46276 6:-0.935837 7:-0.998669 
-32768 32768 1:-0.368035 2:-0.474201 3:-0.893556 4:-0.904374 5:-0.390937 6:-0.907093 7:-0.997149 
-32768 0 1:0.1772 2:0.523273 3:-0.691744 4:-0.729477 5:0.628869 6:-0.681788 7:-0.995525 
-32768 32768 1:-0.0699094 2:-0.541455 3:-0.975887 4:-0.98556 5:-0.390212 6:-0.979385 7:-0.999809 
-32768 32768 1:-0.25934 2:-0.382067 3:-0.903289 4:-0.90113 5:-0.284638 6:-0.901836 7:-0.997462 
-32768 32768 1:-0.296949 2:-0.228564 3:-0.882364 4:-0.899797 5:-0.152911 6:-0.905403 7:-0.998835 
-32768 32768 1:-0.33818 2:-0.409196 3:-0.876299 4:-0.884948 5:-0.325655 6:-0.90087 7:-0.997687 
-18422.69463758053 32768 1:-0.434315 2:-0.562538 3:-0.903025 4:-0.914428 5:-0.484986 6:-0.936588 7:-0.998966 
0 32768 1:-0.472893 2:-0.731687 3:-0.944003 4:-0.940009 5:-0.646742 6:-0.944312 7:-0.998704 
-32768 32768 1:-0.314872 2:-0.179718 3:-0.92718 4:-0.931246 5:-0.11223 6:-0.920911 7:-0.998982 
0 32768 1:-0.604478 2:-0.510905 3:-0.886675 4:-0.890806 5:-0.47336 6:-0.908746 7:-0.998771 
-32768 32768 1:0.120256 2:-0.584256 3:-0.880659 4:-0.871565 5:-0.38966 6:-0.890338 7:-0.996127 
-32768 32768 1:-0.131835 2:-0.547441 3:-0.904257 4:-0.919446 5:-0.408502 6:-0.923779 7:-0.996864 
0 32768 1:-0.770379 2:-0.75942 3:-0.962713 4:-0.966256 5:-0.733676 6:-0.977767 7:-0.999808 
-32768 32768 1:0.146857 2:0.176207 3:-0.79878 4:-0.826719 5:0.3071 6:-0.820987 7:-0.986177 
-32768 32768 1:-0.216667 2:-0.428337 3:-0.920202 4:-0.929061 5:-0.317841 6:-0.930337 7:-0.998561 
-32768 0 1:0.267739 2:0.361093 3:-0.797421 4:-0.788691 5:0.500238 6:-0.733064 7:-0.995145 
0 32768 1:-0.5023 2:-0.496333 3:-0.886757 4:-0.896124 5:-0.438913 6:-0.911763 7:-0.998475 
0 32768 1:-0.529176 2:-0.685234 3:-0.894588 4:-0.901852 5:-0.616196 6:-0.922566 7:-0.997955 
-32768 32768 1:0.0340086 2:-0.00142799 3:-0.820291 4:-0.847384 5:0.12222 6:-0.836876 7:-0.993915 
0 32768 1:-0.364999 2:-0.451476 3:-0.93131 4:-0.935677 5:-0.369651 6:-0.932649 7:-0.998437 
-32768 32768 1:0.175116 2:0.140101 3:-0.797578 4:-0.806673 5:0.280144 6:-0.760028 7:-0.984891 
-32768 32768 1:-0.3528 2:-0.224822 3:-0.904269 4:-0.90914 5:-0.161098 6:-0.907518 7:-0.998592 
-32768 32768 1:-0.0470149 2:-0.167196 3:-0.834158 4:-0.851642 5:-0.0452707 6:-0.855055 7:-0.99598 
0 32768 1:-0.383365 2:-0.358887 3:-0.915836 4:-0.920641 5:-0.289301 6:-0.916417 7:-0.998347 
-32768 -32768 1:0.606252 2:-0.31883 3:-0.833681 4:-0.872888 5:-0.0475564 6:-0.84815 7:-0.985296 
0 -32768 1:-0.671395 2:-0.701608 3:-0.921068 4:-0.923384 5:-0.660588 6:-0.943645 7:-0.998845 
-32768 -32768 1:-0.255215 2:-0.461772 3:-0.888226 4:-0.90618 5:-0.356231 6:-0.920082 7:-0.99867 
0 -32768 1:-0.630601 2:-0.432183 3:-0.899708 4:-0.906713 5:-0.407224 6:-0.919264 7:-0.999098 
0 -32768 1:-0.519381 2:-0.514168 3:-0.932295 4:-0.930722 5:-0.458669 6:-0.931391 7:-0.998752 
0 -32768 1:-0.612151 2:-0.619331 3:-0.940305 4:-0.943038 5:-0.573508 6:-0.950762 7:-0.999052 
-32768 -32768 1:-0.457683 2:-0.639185 3:-0.898626 4:-0.90302 5:-0.559504 6:-0.923954 7:-0.998139 
0 -32768 1:-0.368042 2:-0.335046 3:-0.933194 4:-0.929475 5:-0.264451 6:-0.915657 7:-0.998391 
-32768 -32768 1:-0.0569681 2:-0.211243 3:-0.9096 4:-0.920776 5:-0.0873731 6:-0.915711 7:-0.998732 
0 -32768 1:-0.588254 2:-0.66356 3:-0.935632 4:-0.93933 5:-0.608753 6:-0.942762 7:-0.998956 
-32768 -32768 1:-0.100607 2:-0.460892 3:-0.861076 4:-0.867199 5:-0.323352 6:-0.883268 7:-0.996253 
-32768 -32768 1:-0.420213 2:-0.225661 3:-0.877929 4:-0.88724 5:-0.175848 6:-0.885874 7:-0.998487 
0 -32768 1:-0.439487 2:-0.641274 3:-0.943594 4:-0.954151 5:-0.557628 6:-0.955752 7:-0.999003 
-32768 -32768 1:-0.123821 2:-0.100447 3:-0.825031 4:-0.845331 5:-0.000533646 6:-0.851847 7:-0.997287 
-32768 -32768 1:-0.422313 2:-0.51559 3:-0.916146 4:-0.922922 5:-0.439821 6:-0.927079 7:-0.998347 
-32768 -32768 1:-0.199998 2:-0.429981 3:-0.914276 4:-0.92088 5:-0.315877 6:-0.917301 7:-0.99772 
-28080.92192329365 -32768 1:-0.328575 2:0.858585 3:-0.783026 4:-0.782262 5:0.828717 6:-0.700347 7:-0.998993 
-32768 -32768 1:-0.50862 2:-0.758127 3:-0.895907 4:-0.899 5:-0.678188 6:-0.928344 7:-0.99812 
0 -32768 1:-0.392457 2:-0.407722 3:-0.925963 4:-0.935505 5:-0.335577 6:-0.93331 7:-0.998763 
-32768 -32768 1:-0.363482 2:-0.544748 3:-0.880599 4:-0.885842 5:-0.454118 6:-0.907457 7:-0.997798 
0 -32768 1:-0.441437 2:-0.28003 3:-0.896221 4:-0.909862 5:-0.229671 6:-0.912154 7:-0.998668 
-32768 -32768 1:0.0577316 2:-0.170307 3:-0.823798 4:-0.857204 5:-0.0263647 6:-0.855748 7:-0.983925 
-32768 -32768 1:-0.00393397 2:-0.414359 3:-0.955414 4:-0.964467 5:-0.260996 6:-0.954377 7:-0.999267 
0 -32768 1:-0.506822 2:-0.620472 3:-0.91955 4:-0.928591 5:-0.55269 6:-0.937834 7:-0.998397 
-32768 -32768 1:-0.301246 2:-0.359295 3:-0.907347 4:-0.919039 5:-0.272633 6:-0.916479 7:-0.998203 
0 -32768 1:-0.565414 2:-0.646319 3:-0.929772 4:-0.93385 5:-0.588342 6:-0.94656 7:-0.998993 
-32768 -32768 1:-0.373369 2:-0.383458 3:-0.884314 4:-0.893425 5:-0.309561 6:-0.905094 7:-0.998035 
0 -32768 1:-0.696174 2:-0.486528 3:-0.841775 4:-0.849116 5:-0.470228 6:-0.89916 7:-0.999076 
-32768 -32768 1:0.487439 2:0.121463 3:-0.829203 4:-0.84165 5:0.328006 6:-0.80807 7:-0.992711 
-32768 -32768 1:-0.323341 2:-0.318101 3:-0.90108 4:-0.912334 5:-0.239774 6:-0.907241 7:-0.998078 
-32768 -32768 1:-0.237212 2:-0.0849241 3:-0.782759 4:-0.797933 5:-0.00995117 6:-0.815009 7:-0.997048 
-32768 -32768 1:-0.0618301 2:-0.111422 3:-0.901383 4:-0.913157 5:0.00235242 6:-0.908111 7:-0.999096 
0 -32768 1:-0.478178 2:0.53646 3:-0.909919 4:-0.913802 5:0.504873 6:-0.877415 7:-0.999725 
-32768 -32768 1:0.155523 2:0.0607514 3:-0.716694 4:-0.775014 5:0.203952 6:-0.746382 7:-0.917006 
-8860.579592933551 -32768 1:-0.481695 2:-0.716006 3:-0.931307 4:-0.939864 5:-0.634315 6:-0.956603 7:-0.999063 
-32768 -32768 1:-0.211522 2:-0.402934 3:-0.824702 4:-0.824729 5:-0.293683 6:-0.849062 7:-0.997131 
-32768 -32768 1:-0.246814 2:-0.212041 3:-0.935047 4:-0.92192 5:-0.127489 6:-0.902069 7:-0.998132 
0 -32768 1:-0.514272 2:-0.693898 3:-0.957165 4:-0.964145 5:-0.620979 6:-0.971072 7:-0.999609 
-32768 -32768 1:-0.113578 2:-0.240166 3:-0.847856 4:-0.866562 5:-0.125409 6:-0.867433 7:-0.995349 
-32768 -32768 1:0.0323122 2:0.0263633 3:-0.882003 4:-0.890682 5:0.147129 6:-0.869347 7:-0.99569 
-32768 -32768 1:-0.0267859 2:-0.279649 3:-0.871228 4:-0.890936 5:-0.14329 6:-0.888517 7:-0.996257 
-32768 -32768 1:-0.311038 2:-0.489246 3:-0.899475 4:-0.910524 5:-0.392787 6:-0.922839 7:-0.998322 
-32768 -32768 1:-0.101047 2:-0.0296094 3:-0.843558 4:-0.860777 5:0.0685811 6:-0.855702 7:-0.997089 
0 -32768 1:-0.612136 2:-0.308043 3:-0.849454 4:-0.861575 5:-0.290552 6:-0.885665 7:-0.999071 
0 -32768 1:-0.645902 2:-0.775917 3:-0.946068 4:-0.946135 5:-0.722843 6:-0.956297 7:-0.998811 
-32768 -32768 1:0.088532 2:0.016429 3:-0.94833 4:-0.957359 5:0.149764 6:-0.944913 7:-0.99979 
-32768 -32768 1:0.254702 2:0.0541182 3:-0.859735 4:-0.878579 5:0.218501 6:-0.852668 7:-0.995076 
-32768 -32768 1:0.0507342 2:-0.434712 3:-0.860648 4:-0.857295 5:-0.268153 6:-0.872372 7:-0.996143 
-32768 -32768 1:-0.220619 2:-0.352039 3:-0.929857 4:-0.941205 5:-0.249308 6:-0.94536 7:-0.999474 
0 -32768 1:-0.650706 2:-0.73097 3:-0.932533 4:-0.940593 5:-0.682985 6:-0.957156 7:-0.999205 
-32768 -32768 1:-0.145044 2:-0.143799 3:-0.644733 4:-0.61102 5:-0.0443434 6:-0.671283 7:-0.996462 
0 -32768 1:-0.363809 2:-0.179164 3:-0.934401 4:-0.937016 5:-0.12188 6:-0.922254 7:-0.998812 
0 -5116.262543364159 1:-0.704966 2:-0.645806 3:-0.952305 4:-0.951818 5:-0.616831 6:-0.956691 7:-0.99936 
-32768 -32768 1:0.132315 2:0.201349 3:-0.754052 4:-0.806276 5:0.326936 6:-0.768179 7:-0.966864 
-32768 -32768 1:-0.463045 2:-0.321892 3:-0.757758 4:-0.75113 5:-0.272206 6:-0.802878 7:-0.998451 
-32768 -32768 1:-0.449526 2:-0.469218 3:-0.895356 4:-0.905679 5:-0.403317 6:-0.91732 7:-0.998325 
0 -32768 1:-0.403327 2:-0.578622 3:-0.995568 4:-1 5:-0.493176 6:-0.992621 7:-0.999999 
-32768 -32768 1:-0.346436 2:-0.504325 3:-0.864963 4:-0.875631 5:-0.413838 6:-0.899579 7:-0.997235 
-32768 -32768 1:0.213644 2:-0.104507 3:-0.859919 4:-0.880574 5:0.0657955 6:-0.867106 7:-0.995156 
-32768 -32768 1:-0.123945 2:-0.265064 3:-0.855355 4:-0.871371 5:-0.150192 6:-0.875413 7:-0.996098 
0 -32768 1:-0.456231 2:-0.573511 3:-0.94445 4:-0.950523 5:-0.499507 6:-0.952659 7:-0.999112 
0 -32768 1:-0.670362 2:-0.68174 3:-0.90205 4:-0.905349 5:-0.642314 6:-0.935064 7:-0.99885 
-32768 -32768 1:-0.178239 2:-0.189869 3:-0.903959 4:-0.911731 5:-0.0931069 6:-0.896778 7:-0.997549 
0 -32768 1:-0.441522 2:-0.539078 3:-0.931521 4:-0.94198 5:-0.465156 6:-0.945217 7:-0.998745 
0 -32768 1:-0.482651 2:-0.461592 3:-0.901637 4:-0.909856 5:-0.403258 6:-0.921905 7:-0.998553 
