svm_type c_svc
kernel_type rbf
gamma 0.125
nr_class 3
total_sv 180
rho -1.04994 -0.97682 0.283522
label 2 3 1
nr_sv 67 53 60
SV
0 8 1:-0.448797 2:-0.456183 3:-0.906369 4:-0.920325 5:-0.399778 6:-0.930436 7:-0.998959 
8 8 1:-0.208391 2:-0.495454 3:-0.875844 4:-0.868693 5:-0.384188 6:-0.890885 7:-0.997665 
8 7.501373081578091 1:-0.572384 2:0.301938 3:0.188702 4:0.207247 5:0.26297 6:0.207415 7:-0.886599 
0 8 1:-0.427076 2:-0.449746 3:-0.945329 4:-0.93827 5:-0.389292 6:-0.927295 7:-0.998507 
0 8 1:-0.566013 2:-0.544349 3:-0.937327 4:-0.944555 5:-0.504923 6:-0.945982 7:-0.998929 
0 8 1:-0.410278 2:-0.65058 3:-0.969445 4:-0.97175 5:-0.568262 6:-0.96718 7:-0.999565 
8 0 1:0.177463 2:0.36119 3:-0.730093 4:-0.772661 5:0.476791 6:-0.746201 7:-0.992841 
8 8 1:0.0579782 2:-0.202427 3:-0.883778 4:-0.890164 5:-0.0610105 6:-0.877737 7:-0.996365 
8 8 1:-0.280736 2:-0.453615 3:-0.902162 4:-0.895921 5:-0.361591 6:-0.903874 7:-0.997702 
8 8 1:0.00881269 2:-0.325357 3:-0.876186 4:-0.873678 5:-0.183239 6:-0.868504 7:-0.997128 
8 8 1:-0.069365 2:-0.369834 3:-0.939276 4:-0.91576 5:-0.240345 6:-0.902789 7:-0.998511 
0 8 1:-0.633749 2:-0.590492 3:-0.89683 4:-0.907269 5:-0.561316 6:-0.929642 7:-0.998738 
8 8 1:-0.428799 2:-0.04372 3:-0.881382 4:-0.875571 5:-0.0205936 6:-0.861335 7:-0.99872 
8 0 1:0.0376384 2:0.96961 3:-0.376331 4:-0.162746 5:1 6:-0.283542 7:-0.849569 
7.542146076856125 0 1:-0.101497 2:0.20929 3:0.904439 4:1 5:0.279208 6:0.565255 7:1 
0 8 1:-0.655791 2:-0.71068 3:-0.934937 4:-0.944609 5:-0.675266 6:-0.95501 7:-0.998999 
8 8 1:-0.15331 2:-0.431478 3:-0.936278 4:-0.94487 5:-0.314286 6:-0.938879 7:-0.998441 
8 8 1:0.0154731 2:-0.265284 3:-0.926656 4:-0.937662 5:-0.127214 6:-0.927056 7:-0.998516 
8 8 1:0.0416748 2:-0.052895 3:-0.885494 4:-0.899527 5:0.071432 6:-0.873884 7:-0.996637 
0 8 1:-0.615997 2:-0.555822 3:-0.981214 4:-0.984422 5:-0.526015 6:-0.971352 7:-0.999558 
8 0 1:1 2:0.0731775 3:-0.845004 4:-0.835511 5:0.390466 6:-0.795293 7:-0.990618 
4.968995651765519 8 1:-0.377469 2:0.657672 3:-0.865963 4:-0.872935 5:0.627903 6:-0.823515 7:-0.999513 
0 8 1:-0.881255 2:-0.941106 3:-1 4:-0.999848 5:-0.932815 6:-0.992176 7:-0.999853 
8 5.452453087993746 1:0.709575 2:-0.269438 3:-0.906593 4:-0.894644 5:0.017082 6:-0.870461 7:-0.99521 
8 8 1:-0.0905715 2:-0.182975 3:-0.827924 4:-0.851352 5:-0.075019 6:-0.852665 7:-0.994527 
8 0 1:0.355345 2:0.115607 3:-0.818818 4:-0.848332 5:0.29151 6:-0.826655 7:-0.992547 
8 8 1:-0.443358 2:-0.194997 3:-0.823304 4:-0.833197 5:-0.161205 6:-0.850548 7:-0.998489 
0 8 1:-0.317223 2:-0.900358 3:-0.993998 4:-0.999137 5:-0.775452 6:-1 7:-1 
8 8 1:-0.0827283 2:0.0197684 3:-0.843808 4:-0.856976 5:0.110942 6:-0.848491 7:-0.99367 
8 8 1:-0.235235 2:-0.480903 3:-0.841512 4:-0.856326 5:-0.376688 6:-0.880714 7:-0.994627 
8 8 1:0.0875299 2:-0.21785 3:-0.925392 4:-0.938486 5:-0.0687258 6:-0.922846 7:-0.998439 
8 8 1:-0.30044 2:-0.315963 3:-0.919948 4:-0.923212 5:-0.240673 6:-0.915077 7:-0.998297 
8 8 1:0.0129197 2:0.0745652 3:-0.83513 4:-0.855854 5:0.181156 6:-0.84207 7:-0.996993 
8 8 1:-0.154988 2:0.105049 3:-0.937312 4:-0.947764 5:0.173045 6:-0.927662 7:-0.999589 
0 8 1:-0.945252 2:-1 3:-0.999438 4:-0.997941 5:-1 6:-0.98883 7:-0.999693 
8 8 1:-0.386873 2:-0.528542 3:-0.815484 4:-0.830851 5:-0.45234 6:-0.875027 7:-0.996734 
8 8 1:0.205687 2:0.079174 3:-0.868083 4:-0.88336 5:0.226468 6:-0.855125 7:-0.995369 
8 8 1:-0.0935843 2:-0.223198 3:-0.742985 4:-0.759878 5:-0.112224 6:-0.796852 7:-0.993912 
8 8 1:-0.144745 2:-0.398256 3:-0.882957 4:-0.896947 5:-0.28226 6:-0.892839 7:-0.995763 
8 8 1:-0.0521372 2:-0.332771 3:-0.895076 4:-0.907205 5:-0.20298 6:-0.906508 7:-0.997277 
0 8 1:-0.422278 2:-0.624705 3:-0.943899 4:-0.955056 5:-0.547302 6:-0.957806 7:-0.99916 
8 8 1:0.0280266 2:-0.109481 3:-0.824927 4:-0.85149 5:0.0170851 6:-0.850449 7:-0.996241 
0 8 1:-0.421926 2:-0.53178 3:-0.921482 4:-0.927199 5:-0.46276 6:-0.935837 7:-0.998669 
8 0 1:0.199723 2:0.523273 3:-0.691744 4:-0.729477 5:0.628869 6:-0.681788 7:-0.995525 
0 8 1:-0.395235 2:-0.743357 3:-0.986429 4:-0.989116 5:-0.649385 6:-0.980965 7:-0.999685 
8 8 1:-0.368243 2:-0.629355 3:-0.867582 4:-0.880452 5:-0.540001 6:-0.913739 7:-0.997698 
8 8 1:-0.224867 2:-0.382067 3:-0.903289 4:-0.90113 5:-0.284638 6:-0.901836 7:-0.997462 
8 8 1:-0.261446 2:-0.228564 3:-0.882364 4:-0.899797 5:-0.152911 6:-0.905403 7:-0.998835 
8 8 1:-0.395052 2:-0.562538 3:-0.903025 4:-0.914428 5:-0.484986 6:-0.936588 7:-0.998966 
8 8 1:0.0456123 2:0.175671 3:-0.771208 4:-0.798222 5:0.280032 6:-0.790727 7:-0.995934 
4.874997336633537 8 1:-0.432574 2:-0.731687 3:-0.944003 4:-0.940009 5:-0.646742 6:-0.944312 7:-0.998704 
8 8 1:-0.278879 2:-0.179718 3:-0.92718 4:-0.931246 5:-0.11223 6:-0.920911 7:-0.998982 
0 8 1:-0.560557 2:-0.510905 3:-0.886675 4:-0.890806 5:-0.47336 6:-0.908746 7:-0.998771 
8 8 1:0.144338 2:-0.584256 3:-0.880659 4:-0.871565 5:-0.38966 6:-0.890338 7:-0.996127 
8 8 1:0.170211 2:0.176207 3:-0.79878 4:-0.826719 5:0.3071 6:-0.820987 7:-0.986177 
8 8 1:-0.183362 2:-0.428337 3:-0.920202 4:-0.929061 5:-0.317841 6:-0.930337 7:-0.998561 
8 8 1:-0.111115 2:-0.221137 3:-0.848069 4:-0.863357 5:-0.11409 6:-0.867528 7:-0.996147 
8 0 1:0.287784 2:0.361093 3:-0.797421 4:-0.788691 5:0.500238 6:-0.733064 7:-0.995145 
8 8 1:-0.461176 2:-0.496333 3:-0.886757 4:-0.896124 5:-0.438913 6:-0.911763 7:-0.998475 
8 8 1:-0.487316 2:-0.685234 3:-0.894588 4:-0.901852 5:-0.616196 6:-0.922566 7:-0.997955 
8 8 1:-0.031464 2:-0.300161 3:-0.935578 4:-0.941833 5:-0.168929 6:-0.924698 7:-0.997884 
8 8 1:0.0604515 2:-0.00142799 3:-0.820291 4:-0.847384 5:0.12222 6:-0.836876 7:-0.993915 
8 8 1:-0.327634 2:-0.451476 3:-0.93131 4:-0.935677 5:-0.369651 6:-0.932649 7:-0.998437 
8 8 1:-0.315769 2:-0.224822 3:-0.904269 4:-0.90914 5:-0.161098 6:-0.907518 7:-0.998592 
8 8 1:-0.0183541 2:-0.167196 3:-0.834158 4:-0.851642 5:-0.0452707 6:-0.855055 7:-0.99598 
8 8 1:0.0385552 2:-0.232991 3:-0.904274 4:-0.917034 5:-0.0929356 6:-0.901781 7:-0.996838 
8 8 1:-0.345497 2:-0.358887 3:-0.915836 4:-0.920641 5:-0.289301 6:-0.916417 7:-0.998347 
-8 8 1:-0.567869 2:-0.331585 3:-0.546775 4:-0.5843 5:-0.311922 6:-0.712028 7:-0.996508 
-8 8 1:-0.158344 2:0.551928 3:-0.873633 4:-0.87266 5:0.57853 6:-0.826466 7:-0.998918 
-8 8 1:-0.172424 2:0.158204 3:-0.497303 4:-0.538101 5:0.217642 6:-0.549171 7:-0.99473 
-8 8 1:-0.167766 2:-0.35647 3:-0.890662 4:-0.90311 5:-0.249189 6:-0.909251 7:-0.997909 
-8 8 1:-0.171336 2:-0.482246 3:-0.813923 4:-0.841607 5:-0.364278 6:-0.870672 7:-0.99587 
-8 8 1:-0.38439 2:-0.0705933 3:-0.822617 4:-0.789763 5:-0.0355469 6:-0.794769 7:-0.998105 
-8 8 1:-0.109715 2:-0.0601179 3:-0.801591 4:-0.820794 5:0.0325708 6:-0.829928 7:-0.991025 
-8 8 1:-0.105764 2:-0.133125 3:-0.919038 4:-0.926885 5:-0.0329477 6:-0.913818 7:-0.998667 
-8 8 1:-0.176543 2:-0.426174 3:-0.871519 4:-0.88276 5:-0.31442 6:-0.889212 7:-0.996638 
-8 8 1:-0.600757 2:-0.506374 3:-0.93621 4:-0.941557 5:-0.477817 6:-0.944718 7:-0.999184 
-8 8 1:-0.343344 2:-0.311668 3:-0.906025 4:-0.91166 5:-0.245921 6:-0.911413 7:-0.998406 
-7.703520866784931 0 1:0.714532 2:-0.122965 3:-0.837585 4:-0.843814 5:0.151279 6:-0.819399 7:-0.989392 
-5.396918439419909 0.2997358549354022 1:-0.187559 2:1 3:-0.219174 4:0.0397901 5:0.979583 6:-0.20934 7:-0.44185 
-8 8 1:-0.778563 2:-0.732807 3:-0.882731 4:-0.881822 5:-0.72157 6:-0.930018 7:-0.999301 
-8 1.365492922965061 1:-0.285492 2:0.469292 3:1 4:0.925313 5:0.476292 6:1 7:0.0629525 
-8 8 1:-0.326904 2:-0.460924 3:-0.889963 4:-0.90436 5:-0.378084 6:-0.917467 7:-0.998118 
-8 8 1:-0.0346316 2:-0.289878 3:-0.862118 4:-0.882751 5:-0.160258 6:-0.888568 7:-0.996489 
-8 0 1:0.0642507 2:0.571595 3:-0.511653 4:-0.580722 5:0.643893 6:-0.507074 7:-0.861727 
-8 8 1:-0.399823 2:-0.217062 3:-0.914889 4:-0.925441 5:-0.171975 6:-0.899802 7:-0.996957 
-8 8 1:-0.564685 2:-0.694493 3:-0.901104 4:-0.912968 5:-0.641116 6:-0.935008 7:-0.998304 
-4.285699759050338 0 1:0.221114 2:0.101308 3:-0.652939 4:-0.664377 5:0.249878 6:-0.655577 7:-0.972663 
-8 8 1:0.0458423 2:-0.56702 3:-0.926045 4:-0.942443 5:-0.395005 6:-0.942759 7:-0.998269 
-8 8 1:0.0752662 2:0.0726979 3:-0.764815 4:-0.813238 5:0.192758 6:-0.782559 7:-0.967071 
-8 0 1:0.371266 2:0.119318 3:-0.765816 4:-0.724939 5:0.29828 6:-0.676764 7:-0.997441 
-8 4.847965711731612 1:0.588472 2:-0.503822 3:-0.815705 4:-0.832539 5:-0.221801 6:-0.846794 7:-0.99163 
-8 8 1:0.0841614 2:-0.105877 3:-0.926099 4:-0.932678 5:0.0323363 6:-0.918197 7:-0.998661 
-8 8 1:0.0287725 2:-0.151472 3:-0.864712 4:-0.882776 5:-0.0209242 6:-0.869861 7:-0.996083 
-8 8 1:0.205604 2:-0.021313 3:-0.852901 4:-0.844903 5:0.13511 6:-0.829445 7:-0.994797 
-8 8 1:-0.116693 2:-0.197484 3:-0.861592 4:-0.874901 5:-0.0937799 6:-0.868062 7:-0.996626 
-8 8 1:-0.343055 2:-0.240398 3:-0.930667 4:-0.918749 5:-0.181077 6:-0.899 7:-0.998377 
-8 8 1:0.0407673 2:-0.324136 3:-0.87196 4:-0.88306 5:-0.175312 6:-0.882253 7:-0.995903 
-8 8 1:-0.492788 2:-0.665748 3:-0.92385 4:-0.932209 5:-0.599651 6:-0.945459 7:-0.998696 
-8 8 1:0.27299 2:-0.25464 3:-0.892422 4:-0.904829 5:-0.0626032 6:-0.885255 7:-0.994913 
-8 8 1:-0.169746 2:-0.250189 3:-0.864631 4:-0.876679 5:-0.153005 6:-0.879856 7:-0.997338 
-8 8 1:0.0165952 2:-0.0184047 3:-0.818066 4:-0.831578 5:0.0974325 6:-0.826619 7:-0.99339 
-8 8 1:-0.196788 2:-0.0825497 3:-0.961575 4:-0.962612 5:-0.00639422 6:-0.939453 7:-0.999348 
-8 8 1:-0.401818 2:-0.619354 3:-0.961449 4:-0.946469 5:-0.538074 6:-0.936722 7:-0.998738 
-8 8 1:0.139016 2:-0.184447 3:-0.766811 4:-0.772724 5:-0.0273796 6:-0.76822 7:-0.986052 
-8 8 1:0.0444455 2:-0.0387938 3:-0.718394 4:-0.770414 5:0.0848406 6:-0.792228 7:-0.989084 
-8 8 1:-0.141246 2:-0.0886739 3:-0.859776 4:-0.869239 5:-0.000112282 6:-0.863211 7:-0.996891 
-8 8 1:0.226259 2:-0.0192179 3:-0.834039 4:-0.852224 5:0.141421 6:-0.844135 7:-0.986774 
-8 0 1:0.213314 2:0.248079 3:-0.734326 4:-0.772175 5:0.381625 6:-0.751935 7:-0.97279 
-8 8 1:-0.525092 2:-0.750527 3:-0.838822 4:-0.86116 5:-0.683604 6:-0.920074 7:-0.997953 
-8 8 1:-0.0947437 2:-0.332783 3:-0.874161 4:-0.889337 5:-0.21208 6:-0.894843 7:-0.99669 
-8 0 1:0.327344 2:0.267392 3:-0.790171 4:-0.816237 5:0.423506 6:-0.782841 7:-0.993695 
-8 8 1:0.333214 2:-0.33393 3:-0.869237 4:-0.854971 5:-0.121827 6:-0.858204 7:-0.996247 
-8 8 1:0.195704 2:0.127644 3:-0.75279 4:-0.784653 5:0.268395 6:-0.78226 7:-0.987152 
-8 8 1:0.255414 2:0.0599217 3:-0.819514 4:-0.828695 5:0.219576 6:-0.800277 7:-0.991969 
-8 0 1:0.432587 2:0.123546 3:-0.858677 4:-0.861386 5:0.315205 6:-0.823626 7:-0.993637 
-8 8 1:-0.334191 2:-0.382998 3:-0.938465 4:-0.942623 5:-0.308805 6:-0.943194 7:-0.999396 
-8 8 1:0.0595809 2:-0.069282 3:-0.735013 4:-0.74788 5:0.0603565 6:-0.763183 7:-0.994444 
-8 8 1:-0.132557 2:-0.361644 3:-0.897335 4:-0.91247 5:-0.246381 6:-0.913551 7:-0.998224 
-8 8 1:-0.351167 2:-0.588791 3:-0.917648 4:-0.926472 5:-0.499487 6:-0.94003 7:-0.998768 
-8 -8 1:0.61703 2:-0.31883 3:-0.833681 4:-0.872888 5:-0.0475564 6:-0.84815 7:-0.985296 
-8 -8 1:-0.402725 2:-0.553546 3:-0.882818 4:-0.892068 5:-0.478449 6:-0.91583 7:-0.997637 
-8 -8 1:-0.220855 2:-0.461772 3:-0.888226 4:-0.90618 5:-0.356231 6:-0.920082 7:-0.99867 
-8 0 1:-0.585965 2:-0.432183 3:-0.899708 4:-0.906713 5:-0.407224 6:-0.919264 7:-0.999098 
-8 0 1:-0.477789 2:-0.514168 3:-0.932295 4:-0.930722 5:-0.458669 6:-0.931391 7:-0.998752 
-8 0 1:-0.56802 2:-0.619331 3:-0.940305 4:-0.943038 5:-0.573508 6:-0.950762 7:-0.999052 
-8 -8 1:-0.330594 2:-0.335046 3:-0.933194 4:-0.929475 5:-0.264451 6:-0.915657 7:-0.998391 
-8 -8 1:-0.0280348 2:-0.211243 3:-0.9096 4:-0.920776 5:-0.0873731 6:-0.915711 7:-0.998732 
-8 0 1:-0.544777 2:-0.66356 3:-0.935632 4:-0.93933 5:-0.608753 6:-0.942762 7:-0.998956 
-8 -8 1:-0.381336 2:-0.225661 3:-0.877929 4:-0.88724 5:-0.175848 6:-0.885874 7:-0.998487 
-8 0 1:-0.400083 2:-0.641274 3:-0.943594 4:-0.954151 5:-0.557628 6:-0.955752 7:-0.999003 
-8 -8 1:-0.187509 2:-0.222375 3:-0.830925 4:-0.850669 5:-0.131512 6:-0.867424 7:-0.997344 
-8 -8 1:-0.0930579 2:-0.100447 3:-0.825031 4:-0.845331 5:-0.000533646 6:-0.851847 7:-0.997287 
-8 -8 1:-0.383378 2:-0.51559 3:-0.916146 4:-0.922922 5:-0.439821 6:-0.927079 7:-0.998347 
-8 -8 1:-0.22789 2:-0.226993 3:-0.947794 4:-0.949977 5:-0.144324 6:-0.932072 7:-0.998942 
-8 -8 1:-0.16715 2:-0.429981 3:-0.914276 4:-0.92088 5:-0.315877 6:-0.917301 7:-0.99772 
-8 -8 1:-0.292207 2:0.858585 3:-0.783026 4:-0.782262 5:0.828717 6:-0.700347 7:-0.998993 
-5.178471033761213 -2.167782788995902 1:-0.467323 2:-0.758127 3:-0.895907 4:-0.899 5:-0.678188 6:-0.928344 7:-0.99812 
-8 -8 1:0.428021 2:0.0504615 3:0.020379 4:0.00362499 5:0.247799 6:-0.122082 7:-0.986603 
-8 -8 1:-0.35434 2:-0.407722 3:-0.925963 4:-0.935505 5:-0.335577 6:-0.93331 7:-0.998763 
-8 0 1:-0.535073 2:-0.597936 3:-0.96259 4:-0.966301 5:-0.547032 6:-0.966644 7:-0.99951 
-8 -8 1:-0.40198 2:-0.28003 3:-0.896221 4:-0.909862 5:-0.229671 6:-0.912154 7:-0.998668 
-8 0 1:-0.484556 2:-0.779168 3:-0.951333 4:-0.957832 5:-0.70099 6:-0.964239 7:-0.999062 
-8 -8 1:0.0835251 2:-0.170307 3:-0.823798 4:-0.857204 5:-0.0263647 6:-0.855748 7:-0.983925 
-8 0 1:-0.465575 2:-0.620472 3:-0.91955 4:-0.928591 5:-0.55269 6:-0.937834 7:-0.998397 
-8 0 1:-0.534303 2:-0.433969 3:-0.939071 4:-0.929943 5:-0.397826 6:-0.924826 7:-0.998966 
-8 0 1:-0.522562 2:-0.646319 3:-0.929772 4:-0.93385 5:-0.588342 6:-0.94656 7:-0.998993 
-8 0 1:-0.53415 2:-0.677763 3:-0.945951 4:-0.94308 5:-0.619396 6:-0.943383 7:-0.99898 
-7.775355135810628 0 1:-0.649744 2:-0.486528 3:-0.841775 4:-0.849116 5:-0.470228 6:-0.89916 7:-0.999076 
-8 -8 1:-0.287116 2:-0.318101 3:-0.90108 4:-0.912334 5:-0.239774 6:-0.907241 7:-0.998078 
-8 -4.345411700636173 1:-0.435188 2:-0.597777 3:-0.927228 4:-0.93508 5:-0.525579 6:-0.941834 7:-0.998721 
-8 -8 1:-0.203345 2:-0.0849241 3:-0.782759 4:-0.797933 5:-0.00995117 6:-0.815009 7:-0.997048 
-8 -8 1:-0.0327638 2:-0.111422 3:-0.901383 4:-0.913157 5:0.00235242 6:-0.908111 7:-0.999096 
-8 -8 1:-0.280825 2:-0.920671 3:-0.918155 4:-0.91097 5:-0.786151 6:-0.941216 7:-0.998224 
-8 -8 1:-0.437715 2:0.53646 3:-0.909919 4:-0.913802 5:0.504873 6:-0.877415 7:-0.999725 
-8 -8 1:0.337508 2:-0.143966 3:-0.876047 4:-0.878031 5:0.0517599 6:-0.857543 7:-0.995145 
-8 -8 1:0.178639 2:0.0607514 3:-0.716694 4:-0.775014 5:0.203952 6:-0.746382 7:-0.917006 
-8 0 1:-0.441135 2:-0.716006 3:-0.931307 4:-0.939864 5:-0.634315 6:-0.956603 7:-0.999063 
-8 -8 1:-0.212683 2:-0.212041 3:-0.935047 4:-0.92192 5:-0.127489 6:-0.902069 7:-0.998132 
-8 -8 1:-0.224432 2:-0.61196 3:-0.889666 4:-0.907834 5:-0.493511 6:-0.928248 7:-0.99775 
-8 0 1:-0.472821 2:-0.693898 3:-0.957165 4:-0.964145 5:-0.620979 6:-0.971072 7:-0.999609 
-8 -8 1:-0.0830951 2:-0.240166 3:-0.847856 4:-0.866562 5:-0.125409 6:-0.867433 7:-0.995349 
-8 -8 1:0.0588016 2:0.0263633 3:-0.882003 4:-0.890682 5:0.147129 6:-0.869347 7:-0.99569 
-8 -8 1:0.00132119 2:-0.279649 3:-0.871228 4:-0.890936 5:-0.14329 6:-0.888517 7:-0.996257 
-8 -8 1:-0.0709067 2:-0.0296094 3:-0.843558 4:-0.860777 5:0.0685811 6:-0.855702 7:-0.997089 
-8 -8 1:-0.568005 2:-0.308043 3:-0.849454 4:-0.861575 5:-0.290552 6:-0.885665 7:-0.999071 
-8 -8 1:0.275103 2:0.0541182 3:-0.859735 4:-0.878579 5:0.218501 6:-0.852668 7:-0.995076 
-8 -8 1:0.0767193 2:-0.434712 3:-0.860648 4:-0.857295 5:-0.268153 6:-0.872372 7:-0.996143 
-8 -8 1:-0.187206 2:-0.352039 3:-0.929857 4:-0.941205 5:-0.249308 6:-0.94536 7:-0.999474 
-8 -8 1:-0.326476 2:-0.179164 3:-0.934401 4:-0.937016 5:-0.12188 6:-0.922254 7:-0.998812 
-8 -8 1:-0.106018 2:-0.15609 3:-0.90707 4:-0.905912 5:-0.0538768 6:-0.886831 7:-0.997381 
-8 -8 1:-0.422996 2:-0.321892 3:-0.757758 4:-0.75113 5:-0.272206 6:-0.802878 7:-0.998451 
-8 -8 1:-0.409847 2:-0.469218 3:-0.895356 4:-0.905679 5:-0.403317 6:-0.91732 7:-0.998325 
-8 -8 1:-0.049596 2:-0.313172 3:-0.848603 4:-0.863081 5:-0.184623 6:-0.873077 7:-0.995823 
-8 0 1:-0.364913 2:-0.578622 3:-0.995568 4:-1 5:-0.493176 6:-0.992621 7:-0.999999 
-8 -8 1:-0.309579 2:-0.504325 3:-0.864963 4:-0.875631 5:-0.413838 6:-0.899579 7:-0.997235 
-8 -8 1:0.23517 2:-0.104507 3:-0.859919 4:-0.880574 5:0.0657955 6:-0.867106 7:-0.995156 
-8 -8 1:-0.0931784 2:-0.265064 3:-0.855355 4:-0.871371 5:-0.150192 6:-0.875413 7:-0.996098 
-8 -8 1:-0.402062 2:-0.539078 3:-0.931521 4:-0.94198 5:-0.465156 6:-0.945217 7:-0.998745 
-8 -8 1:-0.442065 2:-0.461592 3:-0.901637 4:-0.909856 5:-0.403258 6:-0.921905 7:-0.998553 
