svm_type c_svc
kernel_type rbf
gamma 0.00012207
nr_class 3
total_sv 178
rho -8.87904 -15.371 -8.82121
label 2 3 1
nr_sv 66 55 57
SV
32768 32768 1:-0.448797 2:-0.447792 3:-0.842465 4:-0.868242 5:-0.399778 6:-0.897065 7:-0.995316 
44.3310437238103 2705.483529385876 1:-0.463297 2:0.203135 3:-0.725996 4:-0.741262 5:0.179814 6:-0.732685 7:-0.997521 
32768 32768 1:-0.208391 2:-0.487669 3:-0.791106 4:-0.782694 5:-0.384188 6:-0.831124 7:-0.988541 
32768 22013.74474658628 1:-0.572384 2:0.322026 3:1 4:1 5:0.26297 6:1 7:-0.406898 
0 32768 1:-0.566013 2:-0.537318 3:-0.894552 4:-0.908388 5:-0.504923 6:-0.922984 7:-0.99516 
0 32768 1:-0.410278 2:-0.645189 3:-0.948591 4:-0.953446 5:-0.568262 6:-0.958325 7:-0.998489 
32768 32768 1:-0.040296 2:-0.245579 3:-0.752409 4:-0.778869 5:-0.131619 6:-0.794754 7:-0.976859 
32768 0 1:0.177463 2:0.382193 3:-0.545879 4:-0.623581 5:0.476791 6:-0.589902 7:-0.963275 
32768 32768 1:-0.280736 2:-0.445184 3:-0.835387 4:-0.827807 5:-0.361591 6:-0.852779 7:-0.988736 
32768 32768 1:0.00881269 2:-0.314948 3:-0.791683 4:-0.790953 5:-0.183239 6:-0.79381 7:-0.985728 
2978.472652511972 32768 1:-0.427826 2:-0.704923 3:-0.902747 4:-0.921578 5:-0.625477 6:-0.950059 7:-0.99672 
32768 32768 1:-0.069365 2:-0.36011 3:-0.897832 4:-0.860677 5:-0.240345 6:-0.850971 7:-0.992973 
32768 32768 1:0.269484 2:0.0376164 3:-0.52766 4:-0.519919 5:0.187971 6:-0.526827 7:-0.977092 
0 32768 1:-0.428799 2:-0.028965 3:-0.800424 4:-0.79409 5:-0.0205936 6:-0.781857 7:-0.994063 
0 32768 1:-0.454424 2:-0.0467735 3:-0.860864 4:-0.854989 5:-0.0420015 6:-0.84853 7:-0.996916 
32768 0 1:0.0376384 2:1 3:0.0493284 4:0.386968 5:1 6:0.181459 7:-0.212977 
0 32768 1:-0.655791 2:-0.706216 3:-0.890531 4:-0.908477 5:-0.675266 6:-0.938035 7:-0.995526 
32768 32768 1:0.0950574 2:-0.224621 3:-0.651928 4:-0.670471 5:-0.0839842 6:-0.714064 7:-0.971094 
32768 32768 1:0.0154731 2:-0.253948 3:-0.876598 4:-0.896967 5:-0.127214 6:-0.89143 7:-0.992999 
0 32768 1:-0.615997 2:-0.548969 3:-0.968393 4:-0.974441 5:-0.526015 6:-0.965282 7:-0.998451 
32768 0 1:1 2:0.0897361 3:-0.739219 4:-0.727716 5:0.390466 6:-0.671749 7:-0.951638 
0 32768 1:-0.881255 2:-0.940197 3:-1 4:-1 5:-0.932815 6:-1 7:-1 
32768 32768 1:0.709575 2:-0.258166 3:-0.842842 4:-0.825692 5:0.017082 6:-0.797073 7:-0.975683 
32768 0 1:0.355345 2:0.13282 3:-0.69516 4:-0.748958 5:0.29151 6:-0.724037 7:-0.96174 
32768 32768 1:-0.443358 2:-0.182576 3:-0.702708 4:-0.723882 5:-0.161205 6:-0.763872 7:-0.992858 
32768 32768 1:-0.0827283 2:0.035503 3:-0.737206 4:-0.763281 5:0.110942 6:-0.760443 7:-0.967617 
32768 32768 1:-0.235235 2:-0.472893 3:-0.733343 4:-0.762204 5:-0.376688 6:-0.814166 7:-0.97263 
32768 0 1:0.197119 2:0.150411 3:-0.694984 4:-0.711911 5:0.273503 6:-0.685445 7:-0.951603 
32768 32768 1:0.0875299 2:-0.205782 3:-0.874471 4:-0.898332 5:-0.0687258 6:-0.884411 7:-0.992594 
32768 32768 1:-0.299103 2:-0.330566 3:-0.931463 4:-0.940769 5:-0.262907 6:-0.928798 7:-0.99679 
32768 32768 1:0.0129197 2:0.0911452 3:-0.722605 4:-0.761421 5:0.181156 6:-0.749738 7:-0.985024 
32768 32768 1:-0.154988 2:0.122099 3:-0.894527 4:-0.913704 5:0.173045 6:-0.89244 7:-0.998618 
0 32768 1:-0.945252 2:-1 3:-0.999054 4:-0.996841 5:-1 6:-0.994422 7:-0.999161 
32768 32768 1:-0.476415 2:-0.0497236 3:-0.114857 4:-0.13113 5:-0.0493336 6:-0.310012 7:-0.989426 
32768 32768 1:0.205687 2:0.0958252 3:-0.778049 4:-0.806995 5:0.226468 6:-0.771504 7:-0.976516 
32768 32768 1:-0.0935843 2:-0.211212 3:-0.56757 4:-0.602402 5:-0.112224 6:-0.674349 7:-0.968888 
32768 32768 1:-0.231022 2:-0.321992 3:-0.8283 4:-0.843274 5:-0.240709 6:-0.855452 7:-0.989291 
32768 32768 1:-0.144745 2:-0.388971 3:-0.803074 4:-0.829507 5:-0.28226 6:-0.834382 7:-0.97858 
32768 32768 1:-0.324672 2:-0.55753 3:-0.927751 4:-0.941492 5:-0.471531 6:-0.943124 7:-0.996615 
32768 32768 1:-0.0521372 2:-0.322476 3:-0.823464 4:-0.846503 5:-0.20298 6:-0.857172 7:-0.98651 
0 32768 1:-0.422278 2:-0.618915 3:-0.905609 4:-0.925787 5:-0.547302 6:-0.942698 7:-0.99637 
32768 32768 1:-0.364469 2:-0.39971 3:-0.830956 4:-0.845511 5:-0.338746 6:-0.869566 7:-0.990882 
32768 32768 1:0.0280266 2:-0.0957409 3:-0.705439 4:-0.754191 5:0.0170851 6:-0.763708 7:-0.981083 
32768 32768 1:-0.421926 2:-0.524555 3:-0.867893 4:-0.879631 5:-0.46276 6:-0.906069 7:-0.9938 
32768 32768 1:-0.330587 2:-0.466088 3:-0.820908 4:-0.841813 5:-0.390937 6:-0.858147 7:-0.985837 
32768 32768 1:-0.0406219 2:-0.534379 3:-0.95943 4:-0.976327 5:-0.390212 6:-0.978674 7:-0.999769 
0 32768 1:-0.395235 2:-0.739397 3:-0.977167 4:-0.982219 5:-0.649385 6:-0.981308 7:-0.999121 
32768 32768 1:-0.368243 2:-0.623636 3:-0.777205 4:-0.802177 5:-0.540001 6:-0.869228 7:-0.988715 
32768 32768 1:-0.261446 2:-0.216661 3:-0.802077 4:-0.834229 5:-0.152911 6:-0.855328 7:-0.994668 
32768 32768 1:-0.301549 2:-0.40008 3:-0.791873 4:-0.809626 5:-0.325655 6:-0.847771 7:-0.988653 
32768 20563.06950881863 1:0.0456123 2:0.193811 3:-0.615056 4:-0.665932 5:0.280032 6:-0.664137 7:-0.979473 
0 32768 1:-0.432574 2:-0.727547 3:-0.905785 4:-0.900856 5:-0.646742 6:-0.920199 7:-0.993982 
32768 32768 1:-0.278879 2:-0.167062 3:-0.877479 4:-0.886336 5:-0.11223 6:-0.881185 7:-0.995437 
32768 32768 1:0.144338 2:-0.577841 3:-0.799207 4:-0.787452 5:-0.38966 6:-0.830213 7:-0.980488 
32768 32768 1:-0.100853 2:-0.540458 3:-0.838912 4:-0.866786 5:-0.408502 6:-0.885967 7:-0.984348 
0 32768 1:-0.721917 2:-0.755708 3:-0.937264 4:-0.944343 5:-0.733676 6:-0.975977 7:-0.999765 
32768 0 1:0.170211 2:0.194355 3:-0.661447 4:-0.713149 5:0.3071 6:-0.714588 7:-0.928379 
32768 32768 1:-0.111115 2:-0.209119 3:-0.744374 4:-0.773854 5:-0.11409 6:-0.792183 7:-0.980591 
32768 0 1:0.287784 2:0.382094 3:-0.65916 4:-0.650141 5:0.500238 6:-0.568 7:-0.975345 
32768 32768 1:-0.487316 2:-0.680377 3:-0.822644 4:-0.837634 5:-0.616196 6:-0.883943 7:-0.990057 
32768 32768 1:-0.031464 2:-0.289363 3:-0.891609 4:-0.903877 5:-0.168929 6:-0.887499 7:-0.989686 
32768 32768 1:0.0604515 2:0.0139796 3:-0.697638 4:-0.747388 5:0.12222 6:-0.741078 7:-0.9689 
32768 32768 1:-0.327634 2:-0.443012 3:-0.884428 4:-0.893679 5:-0.369651 6:-0.900755 7:-0.992582 
32768 0 1:0.197696 2:0.157692 3:-0.659424 4:-0.679934 5:0.280144 6:-0.612955 7:-0.921645 
32768 32768 1:-0.0183541 2:-0.154347 3:-0.720969 4:-0.754442 5:-0.0452707 6:-0.771388 7:-0.979717 
32768 32768 1:0.0385552 2:-0.221156 3:-0.838941 4:-0.862788 5:-0.0929356 6:-0.84929 7:-0.984211 
-32768 32768 1:-0.567869 2:-0.321272 3:-0.237445 4:-0.311492 5:-0.311922 6:-0.532927 7:-0.98248 
-32768 0 1:0.581045 2:0.142816 3:-0.450581 4:-0.352112 5:0.348606 6:-0.265847 7:-0.986848 
-32768 20205.57019755803 1:-0.158344 2:0.575874 3:-0.787386 4:-0.789266 5:0.57853 6:-0.723722 7:-0.995102 
0 1368.711262487041 1:-0.378982 2:-0.393037 3:0.999499 4:0.67158 5:-0.335869 6:-0.000437726 7:-0.754655 
-32768 32768 1:-0.172424 2:0.176075 3:-0.154209 4:-0.234945 5:0.217642 6:-0.261407 7:-0.973171 
-32768 32768 1:-0.171336 2:-0.474257 3:-0.686924 4:-0.737817 5:-0.364278 6:-0.797425 7:-0.979142 
-32768 32768 1:-0.81735 2:-0.841532 3:-0.962323 4:-0.953514 5:-0.830861 6:-0.980897 7:-0.999477 
-32768 32768 1:-0.109715 2:-0.0456159 3:-0.666176 4:-0.703331 5:0.0325708 6:-0.729494 7:-0.953765 
-32768 0 1:0.421266 2:0.126353 3:-0.655511 4:-0.673775 5:0.299784 6:-0.644316 7:-0.960363 
-32768 32768 1:-0.105764 2:-0.119749 3:-0.863781 4:-0.87911 5:-0.0329477 6:-0.86936 7:-0.993786 
-32768 32768 1:-0.176543 2:-0.41732 3:-0.783831 4:-0.806001 5:-0.31442 6:-0.828334 7:-0.983165 
-32768 32768 1:-0.600757 2:-0.498758 3:-0.892673 4:-0.90342 5:-0.477817 6:-0.920876 7:-0.996493 
-32768 32768 1:-0.343344 2:-0.301047 3:-0.841886 4:-0.853885 5:-0.245921 6:-0.86535 7:-0.99242 
-32768 32768 1:0.714532 2:-0.109433 3:-0.726736 4:-0.741472 5:0.151279 6:-0.711941 7:-0.945214 
-32768 32768 1:-0.778563 2:-0.728685 3:-0.802694 4:-0.804447 5:-0.72157 6:-0.896367 7:-0.99711 
-32768 32768 1:-0.326904 2:-0.452607 3:-0.814861 4:-0.84179 5:-0.378084 6:-0.875442 7:-0.990912 
-32768 32768 1:-0.0346316 2:-0.278921 3:-0.768013 4:-0.805986 5:-0.160258 6:-0.827261 7:-0.982383 
-12050.14789160532 0 1:0.0642507 2:0.595844 3:-0.178353 4:-0.305564 5:0.643893 6:-0.191221 7:-0.276647 
-32768 32768 1:-0.539424 2:-0.679999 3:-0.84286 4:-0.862318 5:-0.626973 6:-0.91574 7:-0.994437 
-21270.94396780504 0 1:-0.0279717 2:0.963153 3:0.172931 4:0.516249 5:0.95302 6:0.201738 7:0.00384384 
-32768 0 1:0.363439 2:0.420878 3:-0.376275 4:-0.468672 5:0.551095 6:-0.435375 7:-0.868267 
-32768 32768 1:-0.399823 2:-0.204981 3:-0.8568 4:-0.876718 5:-0.171975 6:-0.845991 7:-0.984832 
-32768 32768 1:-0.564685 2:-0.689779 3:-0.833606 4:-0.856053 5:-0.641116 6:-0.904688 7:-0.991889 
-32768 0 1:0.221114 2:0.118301 3:-0.416068 4:-0.444169 5:0.249878 6:-0.438811 7:-0.857605 
-32768 31191.44795694649 1:0.0752662 2:0.0892492 3:-0.604299 4:-0.690813 5:0.192758 6:-0.65052 7:-0.82832 
-32768 32768 1:0.588472 2:-0.496166 3:-0.689923 4:-0.722791 5:-0.221801 6:-0.757615 7:-0.956936 
-32768 32768 1:0.0841614 2:-0.0920811 3:-0.875661 4:-0.888709 5:0.0323363 6:-0.87666 7:-0.993755 
-32768 32768 1:0.0287725 2:-0.138379 3:-0.772376 4:-0.806028 5:-0.0209242 6:-0.796073 7:-0.980253 
-2469.71183682541 0 1:0.877061 2:0.00462248 3:-0.599928 4:-0.559011 5:0.288049 6:-0.498184 7:-0.941786 
-32768 32768 1:-0.116693 2:-0.185102 3:-0.767128 4:-0.792979 5:-0.0937799 6:-0.793072 7:-0.983101 
-32768 32768 1:0.0407673 2:-0.313708 3:-0.784571 4:-0.806498 5:-0.175312 6:-0.816733 7:-0.979315 
-32768 32768 1:-0.845222 2:-0.657957 3:-0.922442 4:-0.923331 5:-0.672477 6:-0.941853 7:-0.99723 
-32768 32768 1:-0.492788 2:-0.660591 3:-0.871878 4:-0.887931 5:-0.599651 6:-0.922111 7:-0.993937 
-32768 32768 1:0.27299 2:-0.24314 3:-0.819 4:-0.842566 5:-0.0626032 6:-0.821737 7:-0.974131 
-32768 32768 1:0.0165952 2:-0.00325908 3:-0.693894 4:-0.7212 5:0.0974325 6:-0.723978 7:-0.966152 
-32768 32768 1:-0.196788 2:-0.0683939 3:-0.935349 4:-0.938305 5:-0.00639422 6:-0.912099 7:-0.997357 
-32768 32768 1:-0.401818 2:-0.613481 3:-0.935137 4:-0.911558 5:-0.538074 6:-0.907545 7:-0.994158 
-32768 32768 1:0.499596 2:0.0194566 3:-0.710501 4:-0.758498 5:0.220804 6:-0.725853 7:-0.959704 
-32768 32768 1:0.139016 2:-0.171863 3:-0.607657 4:-0.623685 5:-0.0273796 6:-0.626614 7:-0.927723 
-32768 32768 1:0.0444455 2:-0.0239628 3:-0.526195 4:-0.619858 5:0.0848406 6:-0.666639 7:-0.943605 
-32768 32768 1:-0.141246 2:-0.0746125 3:-0.764071 4:-0.783598 5:-0.000112282 6:-0.784985 7:-0.98449 
-32768 32768 1:0.226259 2:-0.00408483 3:-0.72077 4:-0.755407 5:0.141421 6:-0.753181 7:-0.931505 
-32768 0 1:0.467874 2:0.195525 3:-0.753991 4:-0.769257 5:0.371647 6:-0.714976 7:-0.958699 
-32768 32768 1:-0.525092 2:-0.746678 3:-0.728817 4:-0.770213 5:-0.683604 6:-0.879789 7:-0.990047 
-32768 32768 1:-0.285679 2:-0.121565 3:-0.836716 4:-0.857286 5:-0.0729537 6:-0.864666 7:-0.995601 
-32768 0 1:0.327344 2:0.286948 3:-0.646962 4:-0.695781 5:0.423506 6:-0.650989 7:-0.967752 
-32768 32768 1:0.333214 2:-0.323652 3:-0.779991 4:-0.759958 5:-0.121827 6:-0.776637 7:-0.981113 
-32768 32768 1:0.195704 2:0.145043 3:-0.584067 4:-0.64345 5:0.268395 6:-0.650021 7:-0.933485 
-32768 32768 1:0.255414 2:0.0762759 3:-0.696332 4:-0.716422 5:0.219576 6:-0.68006 7:-0.958711 
-32768 32768 1:-0.334191 2:-0.373477 3:-0.896468 4:-0.905186 5:-0.308805 6:-0.918336 7:-0.997607 
-32768 32768 1:0.0595809 2:-0.0549215 3:-0.554157 4:-0.582523 5:0.0603565 6:-0.618215 7:-0.971671 
-32768 393.1570475683148 1:0.347114 2:0.0429358 3:-0.396289 4:-0.414554 5:0.209293 6:-0.451902 7:-0.936031 
-32768 32768 1:-0.132557 2:-0.351795 3:-0.827265 4:-0.855226 5:-0.246381 6:-0.868915 7:-0.991465 
-32768 32768 1:-0.351167 2:-0.582446 3:-0.861442 4:-0.878427 5:-0.499487 6:-0.913061 7:-0.994315 
-32768 32768 1:-0.00450248 2:-0.109935 3:-0.902062 4:-0.919616 5:-0.00256062 6:-0.906058 7:-0.996822 
-32768 -32768 1:-0.402725 2:-0.546657 3:-0.80284 4:-0.821423 5:-0.478449 6:-0.872713 7:-0.988391 
-32768 -32768 1:-0.220855 2:-0.453468 3:-0.81194 4:-0.844805 5:-0.356231 6:-0.879802 7:-0.993801 
-32768 0 1:-0.56802 2:-0.613457 3:-0.899562 4:-0.905874 5:-0.573508 6:-0.930953 7:-0.995802 
-32768 0 1:-0.417781 2:-0.633618 3:-0.829438 4:-0.83957 5:-0.559504 6:-0.886258 7:-0.991025 
-32768 -32768 1:-0.0280348 2:-0.199073 3:-0.847901 4:-0.868989 5:-0.0873731 6:-0.872515 7:-0.994127 
-32768 0 1:-0.566518 2:-0.669558 3:-0.911641 4:-0.902824 5:-0.623407 6:-0.915817 7:-0.995275 
-32768 0 1:-0.544777 2:-0.658369 3:-0.8917 4:-0.899731 5:-0.608753 6:-0.917615 7:-0.995303 
-32768 -32768 1:-0.0704787 2:-0.452574 3:-0.766259 4:-0.780219 5:-0.323352 6:-0.818424 7:-0.981147 
-32768 -32768 1:-0.381336 2:-0.213713 3:-0.794614 4:-0.813423 5:-0.175848 6:-0.822769 7:-0.992845 
-32768 0 1:-0.400083 2:-0.635739 3:-0.905097 4:-0.924288 5:-0.557628 6:-0.939272 7:-0.995547 
-32768 -32768 1:-0.187509 2:-0.210377 3:-0.715531 4:-0.752831 5:-0.131512 6:-0.792008 7:-0.986861 
-32768 -32768 1:-0.383378 2:-0.508115 3:-0.858916 4:-0.872545 5:-0.439821 6:-0.891468 7:-0.992114 
-32768 -32768 1:-0.22789 2:-0.215065 3:-0.912163 4:-0.917371 5:-0.144324 6:-0.899792 7:-0.995228 
-32768 -32768 1:-0.16715 2:-0.421186 3:-0.855768 4:-0.869161 5:-0.315877 6:-0.875166 7:-0.988828 
-32768 -32768 1:0.428021 2:0.0666697 3:0.716795 4:0.662624 5:0.247799 6:0.450652 7:-0.930608 
-32768 -32768 1:-0.35434 2:-0.398584 3:-0.875433 4:-0.893392 5:-0.335577 6:-0.901856 7:-0.994288 
-32768 -32768 1:-0.326158 2:-0.537724 3:-0.799108 4:-0.811107 5:-0.454118 6:-0.858754 7:-0.989238 
-32768 0 1:-0.535073 2:-0.591732 3:-0.937058 4:-0.944417 5:-0.547032 6:-0.957432 7:-0.998204 
-32768 -32768 1:-0.40198 2:-0.268921 3:-0.82539 4:-0.850905 5:-0.229671 6:-0.866585 7:-0.993791 
-32768 -32768 1:0.0835251 2:-0.157505 3:-0.70354 4:-0.763658 5:-0.0263647 6:-0.772543 7:-0.916586 
-32768 -32768 1:0.0235476 2:-0.405323 3:-0.924983 4:-0.941379 5:-0.260996 6:-0.93698 7:-0.996929 
-32768 0 1:-0.465575 2:-0.614616 3:-0.864643 4:-0.881937 5:-0.55269 6:-0.9094 7:-0.992372 
-32768 -32768 1:-0.534303 2:-0.425235 3:-0.897486 4:-0.884178 5:-0.397826 6:-0.887713 7:-0.995352 
-32768 -32768 1:-0.265626 2:-0.349409 3:-0.844111 4:-0.866111 5:-0.272633 6:-0.873795 7:-0.991357 
-32768 0 1:-0.522562 2:-0.640862 3:-0.881841 4:-0.890651 5:-0.588342 6:-0.923948 7:-0.995493 
-32768 0 1:-0.53415 2:-0.672791 3:-0.909063 4:-0.905944 5:-0.619396 6:-0.918651 7:-0.995427 
-32768 -32768 1:-0.335774 2:-0.373945 3:-0.805358 4:-0.823672 5:-0.309561 6:-0.854814 7:-0.990477 
-32768 -32768 1:0.50147 2:0.138767 3:-0.712633 4:-0.737888 5:0.328006 6:-0.693053 7:-0.962597 
-32768 -20390.8864645599 1:-0.435188 2:-0.591571 3:-0.87756 4:-0.892688 5:-0.525579 6:-0.916068 7:-0.994068 
-32768 -32768 1:-0.203345 2:-0.0708048 3:-0.63449 4:-0.665453 5:-0.00995117 6:-0.704621 7:-0.985309 
-12514.29778479079 0 1:-0.587371 2:-0.722733 3:-0.940261 4:-0.945078 5:-0.675455 6:-0.958755 7:-0.997247 
-32768 -32768 1:0.337508 2:-0.130758 3:-0.791449 4:-0.798165 5:0.0517599 6:-0.775536 7:-0.975346 
-32768 -32768 1:-0.178358 2:-0.393722 3:-0.705061 4:-0.709852 5:-0.293683 6:-0.761396 7:-0.985744 
-32768 -32768 1:-0.212683 2:-0.199883 3:-0.890717 4:-0.870885 5:-0.127489 6:-0.84977 7:-0.990986 
-32768 -32768 1:-0.224432 2:-0.605973 3:-0.814362 4:-0.847546 5:-0.493511 6:-0.893418 7:-0.988985 
-32768 0 1:-0.472821 2:-0.689175 3:-0.927931 4:-0.940846 5:-0.620979 6:-0.964815 7:-0.998719 
-32768 -32768 1:0.0588016 2:0.0421997 3:-0.801469 4:-0.819126 5:0.147129 6:-0.795215 7:-0.978198 
-32768 -32768 1:0.00132119 2:-0.268534 3:-0.783339 4:-0.819547 5:-0.14329 6:-0.827177 7:-0.981168 
-32768 -32768 1:-0.27515 2:-0.481365 3:-0.830866 4:-0.852002 5:-0.392787 6:-0.8844 7:-0.991981 
-32768 -32768 1:-0.0709067 2:-0.0146367 3:-0.736785 4:-0.769579 5:0.0685811 6:-0.772466 7:-0.985525 
-32768 0 1:-0.855282 2:-0.642258 3:-0.922361 4:-0.920591 5:-0.66057 6:-0.929473 7:-0.994007 
-32768 -32768 1:0.113482 2:0.0321121 3:-0.913064 4:-0.929602 5:0.149764 6:-0.921202 7:-0.999667 
-32768 -32768 1:0.275103 2:0.0703828 3:-0.764004 4:-0.799074 5:0.218501 6:-0.767408 7:-0.97498 
-32768 -32768 1:0.0767193 2:-0.42599 3:-0.76554 4:-0.763809 5:-0.268153 6:-0.800258 7:-0.980568 
-32768 -32768 1:-0.1137 2:-0.130589 3:-0.402262 4:-0.355763 5:-0.0443434 6:-0.464995 7:-0.98224 
-32768 -32768 1:-0.326476 2:-0.166499 3:-0.889629 4:-0.895896 5:-0.12188 6:-0.883423 7:-0.99455 
-32768 -32768 1:-0.106018 2:-0.143069 3:-0.843644 4:-0.844361 5:-0.0538768 6:-0.824365 7:-0.987053 
-32768 0 1:-0.658295 2:-0.640341 3:-0.919753 4:-0.920421 5:-0.616831 6:-0.940838 7:-0.997417 
-32768 -32768 1:0.156067 2:0.219886 3:-0.586191 4:-0.679277 5:0.326936 6:-0.626544 7:-0.827238 
-32768 -32768 1:-0.422996 2:-0.311429 3:-0.592426 4:-0.587908 5:-0.272206 6:-0.684395 7:-0.992658 
-32768 -32768 1:-0.409847 2:-0.461028 3:-0.823936 4:-0.843976 5:-0.403317 6:-0.875198 7:-0.991998 
-32768 -32768 1:-0.049596 2:-0.302574 3:-0.745274 4:-0.773395 5:-0.184623 6:-0.801434 7:-0.978892 
-32768 -32768 1:-0.309579 2:-0.496677 3:-0.772799 4:-0.79419 5:-0.413838 6:-0.845619 7:-0.986287 
-32768 -32768 1:0.23517 2:-0.0906903 3:-0.764313 4:-0.80238 5:0.0657955 6:-0.791479 7:-0.975399 
-32768 -32768 1:-0.416369 2:-0.56693 3:-0.906537 4:-0.918276 5:-0.499507 6:-0.934116 7:-0.996119 
-32768 -32768 1:-0.145986 2:-0.177369 3:-0.83841 4:-0.854003 5:-0.0931069 6:-0.840949 7:-0.987934 
-32768 -32768 1:-0.442065 2:-0.453285 3:-0.834503 4:-0.850895 5:-0.403258 6:-0.882842 7:-0.993192 
