svm_type c_svc
kernel_type rbf
gamma 0.0078125
nr_class 3
total_sv 177
rho 27.7692 24.3384 6.62116
label 2 1 3
nr_sv 66 64 47
SV
2048 0 1:-0.448797 2:-0.483285 3:-0.906369 4:-0.920325 5:-0.427008 6:-0.930436 7:-0.998959 
2048 2048 1:-0.463297 2:0.169682 3:-0.837146 4:-0.843687 5:0.172605 6:-0.831842 7:-0.99938 
2048 2048 1:-0.208391 2:-0.523287 3:-0.875844 4:-0.868693 5:-0.41088 6:-0.890885 7:-0.997665 
2048 0 1:-0.427076 2:-0.476728 3:-0.945329 4:-0.93827 5:-0.416161 6:-0.927295 7:-0.998507 
2048 0 1:-0.566013 2:-0.573091 3:-0.937327 4:-0.944555 5:-0.535786 6:-0.945982 7:-0.998929 
2048 2048 1:-0.040296 2:-0.280438 3:-0.852844 4:-0.866385 5:-0.149587 6:-0.86907 7:-0.995434 
2048 2048 1:0.0579782 2:-0.224806 3:-0.883778 4:-0.890164 5:-0.0765389 6:-0.877737 7:-0.996365 
2048 2048 1:-0.280736 2:-0.480668 3:-0.902162 4:-0.895921 5:-0.387502 6:-0.903874 7:-0.997702 
2048 0 1:-0.427826 2:-0.741221 3:-0.942197 4:-0.952516 5:-0.660504 6:-0.962222 7:-0.999227 
2048 2048 1:-0.069365 2:-0.395328 3:-0.939276 4:-0.91576 5:-0.262068 6:-0.902789 7:-0.998511 
2048 2048 1:0.269484 2:0.0036449 3:-0.719264 4:-0.710096 5:0.181043 6:-0.708369 7:-0.995479 
2048 0 1:-0.633749 2:-0.620093 3:-0.89683 4:-0.907269 5:-0.594126 6:-0.929642 7:-0.998738 
2048 2048 1:-0.428799 2:-0.0631451 3:-0.881382 4:-0.875571 5:-0.0347259 6:-0.861335 7:-0.99872 
2048 0 1:-0.454424 2:-0.0810094 3:-0.917304 4:-0.912326 5:-0.0568733 6:-0.901325 7:-0.999264 
185.8616654361307 209.6778985656636 1:-0.101497 2:0.194573 3:0.904439 4:1 5:0.275432 6:0.565255 7:1 
2048 0 1:-0.655791 2:-0.742518 3:-0.934937 4:-0.944609 5:-0.712013 6:-0.95501 7:-0.998999 
2048 2048 1:0.0950574 2:-0.259415 3:-0.793123 4:-0.800961 5:-0.100306 6:-0.820673 7:-0.994334 
2048 2048 1:-0.15331 2:-0.45812 3:-0.936278 4:-0.94487 5:-0.338563 6:-0.938879 7:-0.998441 
2048 2048 1:0.0154731 2:-0.288833 3:-0.926656 4:-0.937662 5:-0.145029 6:-0.927056 7:-0.998516 
2048 2048 1:0.0416748 2:-0.0724909 3:-0.885494 4:-0.899527 5:0.0604785 6:-0.873884 7:-0.996637 
934.5186066397992 2048 1:1 2:0.055928 3:-0.845004 4:-0.835511 5:0.390533 6:-0.795293 7:-0.990618 
2048 2048 1:-0.881255 2:-0.977233 3:-1 4:-0.999848 5:-0.978458 6:-0.992176 7:-0.999853 
2048 2048 1:-0.0905715 2:-0.204992 3:-0.827924 4:-0.851352 5:-0.0910314 6:-0.852665 7:-0.994527 
0 2048 1:0.355345 2:0.0991469 3:-0.818818 4:-0.848332 5:0.288159 6:-0.826655 7:-0.992547 
2048 959.5182836189365 1:-0.317223 2:-0.935726 3:-0.993998 4:-0.999137 5:-0.81566 6:-1 7:-1 
2048 2048 1:-0.0827283 2:0.00152487 3:-0.843808 4:-0.856976 5:0.101354 6:-0.848491 7:-0.99367 
0 2048 1:0.197119 2:0.116793 3:-0.818713 4:-0.825972 5:0.26953 6:-0.803507 7:-0.990612 
2048 0 1:-0.299103 2:-0.365691 3:-0.959265 4:-0.964099 5:-0.28541 6:-0.94947 7:-0.99924 
2048 0 1:-0.30044 2:-0.340455 3:-0.919948 4:-0.923212 5:-0.262407 6:-0.915077 7:-0.998297 
2048 2048 1:0.0129197 2:0.0573415 3:-0.83513 4:-0.855854 5:0.173992 6:-0.84207 7:-0.996993 
1197.98672548901 2048 1:-0.154988 2:0.0883925 3:-0.937312 4:-0.947764 5:0.165602 6:-0.927662 7:-0.999589 
2048 2048 1:-0.476415 2:-0.0839687 3:-0.473914 4:-0.475443 5:-0.0644587 6:-0.578324 7:-0.997834 
2048 2048 1:-0.386873 2:-0.55699 3:-0.815484 4:-0.830851 5:-0.481386 6:-0.875027 7:-0.996734 
0 2048 1:0.205687 2:0.0620361 3:-0.868083 4:-0.88336 5:0.22087 6:-0.855125 7:-0.995369 
2048 2048 1:-0.231022 2:-0.357091 3:-0.89795 4:-0.905256 5:-0.262445 6:-0.905477 7:-0.997808 
2048 2048 1:-0.144745 2:-0.424279 3:-0.882957 4:-0.896947 5:-0.305432 6:-0.892839 7:-0.995763 
2048 0 1:-0.324672 2:-0.593367 3:-0.957059 4:-0.964535 5:-0.50124 6:-0.958062 7:-0.999207 
2048 2048 1:-0.0521372 2:-0.357575 3:-0.895076 4:-0.907205 5:-0.223413 6:-0.906508 7:-0.997277 
2048 0 1:-0.364469 2:-0.435051 3:-0.899529 4:-0.906606 5:-0.363869 6:-0.913942 7:-0.998112 
2048 2048 1:0.0280266 2:-0.13013 3:-0.824927 4:-0.85149 5:0.00425434 6:-0.850449 7:-0.996241 
2048 0 1:-0.330587 2:-0.501638 3:-0.893556 4:-0.904374 5:-0.417863 6:-0.907093 7:-0.997149 
2048 2048 1:0.199723 2:0.5144 3:-0.691744 4:-0.729477 5:0.637171 6:-0.681788 7:-0.995525 
2048 0 1:-0.0406219 2:-0.570143 3:-0.975887 4:-0.98556 5:-0.417112 6:-0.979385 7:-0.999809 
2048 0 1:-0.395235 2:-0.775804 3:-0.986429 4:-0.989116 5:-0.685237 6:-0.980965 7:-0.999685 
2048 2048 1:-0.368243 2:-0.65968 3:-0.867582 4:-0.880452 5:-0.572076 6:-0.913739 7:-0.997698 
2048 2048 1:-0.224867 2:-0.40779 3:-0.903289 4:-0.90113 5:-0.307891 6:-0.901836 7:-0.997462 
2048 2048 1:-0.261446 2:-0.25143 3:-0.882364 4:-0.899797 5:-0.171614 6:-0.905403 7:-0.998835 
2048 2048 1:-0.301549 2:-0.435423 3:-0.876299 4:-0.884948 5:-0.350325 6:-0.90087 7:-0.997687 
2048 0 1:-0.395052 2:-0.591619 3:-0.903025 4:-0.914428 5:-0.51516 6:-0.936588 7:-0.998966 
2048 2048 1:0.0456123 2:0.160329 3:-0.771208 4:-0.798222 5:0.276284 6:-0.790727 7:-0.995934 
2048 1178.489706072093 1:-0.278879 2:-0.201674 3:-0.92718 4:-0.931246 5:-0.129528 6:-0.920911 7:-0.998982 
2048 0 1:-0.560557 2:-0.539025 3:-0.886675 4:-0.890806 5:-0.503132 6:-0.908746 7:-0.998771 
2048 2048 1:-0.100853 2:-0.576241 3:-0.904257 4:-0.919446 5:-0.436034 6:-0.923779 7:-0.996864 
2048 35.66737873706926 1:-0.721917 2:-0.792165 3:-0.962713 4:-0.966256 5:-0.77244 6:-0.977767 7:-0.999808 
0 2048 1:0.170211 2:0.160875 3:-0.79878 4:-0.826719 5:0.304287 6:-0.820987 7:-0.986177 
2048 2048 1:-0.183362 2:-0.45492 3:-0.920202 4:-0.929061 5:-0.342241 6:-0.930337 7:-0.998561 
2048 2048 1:-0.111115 2:-0.243864 3:-0.848069 4:-0.863357 5:-0.131452 6:-0.867528 7:-0.996147 
2048 0 1:-0.461176 2:-0.524182 3:-0.886757 4:-0.896124 5:-0.467496 6:-0.911763 7:-0.998475 
2048 2048 1:-0.487316 2:-0.716598 3:-0.894588 4:-0.901852 5:-0.650902 6:-0.922566 7:-0.997955 
2048 2048 1:-0.031464 2:-0.324359 3:-0.935578 4:-0.941833 5:-0.188185 6:-0.924698 7:-0.997884 
2048 2048 1:0.0604515 2:-0.020066 3:-0.820291 4:-0.847384 5:0.113021 6:-0.836876 7:-0.993915 
1977.776203241343 2048 1:0.197696 2:0.124097 3:-0.797578 4:-0.806673 5:0.2764 6:-0.760028 7:-0.984891 
2048 0 1:-0.315769 2:-0.247618 3:-0.904269 4:-0.90914 5:-0.180084 6:-0.907518 7:-0.998592 
2048 2048 1:-0.0183541 2:-0.18892 3:-0.834158 4:-0.851642 5:-0.0602555 6:-0.855055 7:-0.99598 
2048 2048 1:0.0385552 2:-0.255938 3:-0.904274 4:-0.917034 5:-0.109567 6:-0.901781 7:-0.996838 
2048 0 1:-0.345497 2:-0.384178 3:-0.915836 4:-0.920641 5:-0.312716 6:-0.916417 7:-0.998347 
-2048 2048 1:0.61703 2:-0.343375 3:-0.833681 4:-0.872888 5:-0.0626201 6:-0.84815 7:-0.985296 
-45.91364945821147 0 1:-0.625643 2:-0.733278 3:-0.921068 4:-0.923384 5:-0.696828 6:-0.943645 7:-0.998845 
-2048 2048 1:-0.402725 2:-0.582459 3:-0.882818 4:-0.892068 5:-0.508397 6:-0.91583 7:-0.997637 
-2048 0 1:-0.585965 2:-0.458838 3:-0.899708 4:-0.906713 5:-0.434712 6:-0.919264 7:-0.999098 
-2048 0 1:-0.477789 2:-0.542349 3:-0.932295 4:-0.930722 5:-0.487934 6:-0.931391 7:-0.998752 
-2048 0 1:-0.56802 2:-0.649469 3:-0.940305 4:-0.943038 5:-0.60674 6:-0.950762 7:-0.999052 
-2048 0 1:-0.417781 2:-0.669692 3:-0.898626 4:-0.90302 5:-0.592252 6:-0.923954 7:-0.998139 
-2048 2048 1:-0.330594 2:-0.359893 3:-0.933194 4:-0.929475 5:-0.287007 6:-0.915657 7:-0.998391 
-2048 2048 1:-0.0280348 2:-0.233786 3:-0.9096 4:-0.920776 5:-0.103812 6:-0.915711 7:-0.998732 
-2048 0 1:-0.566518 2:-0.705746 3:-0.947484 4:-0.941197 5:-0.658362 6:-0.941683 7:-0.998951 
-2048 2048 1:-0.0704787 2:-0.488081 3:-0.861076 4:-0.867199 5:-0.347942 6:-0.883268 7:-0.996253 
0 413.0681003638923 1:-0.883627 2:-1 3:-0.951889 4:-0.956437 5:-1 6:-0.970192 7:-0.998928 
-2048 0 1:-0.400083 2:-0.671821 3:-0.943594 4:-0.954151 5:-0.590311 6:-0.955752 7:-0.999003 
-2048 2048 1:-0.187509 2:-0.245125 3:-0.830925 4:-0.850669 5:-0.149476 6:-0.867424 7:-0.997344 
-2048 2048 1:-0.0930579 2:-0.120928 3:-0.825031 4:-0.845331 5:-0.013973 6:-0.851847 7:-0.997287 
-2048 676.9898161877022 1:-0.383378 2:-0.543797 3:-0.916146 4:-0.922922 5:-0.468435 6:-0.927079 7:-0.998347 
-2048 2048 1:-0.22789 2:-0.249829 3:-0.947794 4:-0.949977 5:-0.16273 6:-0.932072 7:-0.998942 
-2048 2048 1:-0.292207 2:0.855953 3:-0.783026 4:-0.782262 5:0.843922 6:-0.700347 7:-0.998993 
-1141.543921057976 2048 1:0.428021 2:0.0327893 3:0.020379 4:0.00362499 5:0.242938 6:-0.122082 7:-0.986603 
-2048 2048 1:-0.326158 2:-0.573498 3:-0.880599 4:-0.885842 5:-0.483226 6:-0.907457 7:-0.997798 
-2048 0 1:-0.535073 2:-0.627676 3:-0.96259 4:-0.966301 5:-0.579349 6:-0.966644 7:-0.99951 
-1060.685630290095 0 1:-0.484556 2:-0.81228 3:-0.951333 4:-0.957832 5:-0.738625 6:-0.964239 7:-0.999062 
-2048 2048 1:0.0235476 2:-0.440682 3:-0.955414 4:-0.964467 5:-0.283433 6:-0.954377 7:-0.999267 
-2048 0 1:-0.465575 2:-0.650631 3:-0.91955 4:-0.928591 5:-0.585203 6:-0.937834 7:-0.998397 
-2048 0 1:-0.534303 2:-0.460657 3:-0.939071 4:-0.929943 5:-0.424989 6:-0.924826 7:-0.998966 
-2048 2048 1:-0.265626 2:-0.384594 3:-0.907347 4:-0.919039 5:-0.295472 6:-0.916479 7:-0.998203 
-2048 0 1:-0.522562 2:-0.676959 3:-0.929772 4:-0.93385 5:-0.622086 6:-0.94656 7:-0.998993 
-2048 0 1:-0.53415 2:-0.708988 3:-0.945951 4:-0.94308 5:-0.654213 6:-0.943383 7:-0.99898 
-2048 2048 1:-0.335774 2:-0.409206 3:-0.884314 4:-0.893425 5:-0.333675 6:-0.905094 7:-0.998035 
-2048 0 1:-0.649744 2:-0.514195 3:-0.841775 4:-0.849116 5:-0.499892 6:-0.89916 7:-0.999076 
-2048 2048 1:0.50147 2:0.105112 3:-0.829203 4:-0.84165 5:0.325915 6:-0.80807 7:-0.992711 
-2048 2048 1:-0.287116 2:-0.342633 3:-0.90108 4:-0.912334 5:-0.261477 6:-0.907241 7:-0.998078 
-2048 0 1:-0.435188 2:-0.627514 3:-0.927228 4:-0.93508 5:-0.557155 6:-0.941834 7:-0.998721 
-2048 2048 1:-0.203345 2:-0.105116 3:-0.782759 4:-0.797933 5:-0.0237159 6:-0.815009 7:-0.997048 
-2048 2048 1:-0.0327638 2:-0.132107 3:-0.901383 4:-0.913157 5:-0.0109873 6:-0.908111 7:-0.999096 
-2048 0 1:-0.587371 2:-0.759087 3:-0.964494 4:-0.9667 5:-0.712208 6:-0.967437 7:-0.999328 
-2048 2048 1:-0.437715 2:0.527833 3:-0.909919 4:-0.913802 5:0.508892 6:-0.877415 7:-0.999725 
-2048 2048 1:0.337508 2:-0.165257 3:-0.876047 4:-0.878031 5:0.0401269 6:-0.857543 7:-0.995145 
-2048 2048 1:0.178639 2:0.0432706 3:-0.716694 4:-0.775014 5:0.197576 6:-0.746382 7:-0.917006 
-2048 2048 1:-0.178358 2:-0.429045 3:-0.824702 4:-0.824729 5:-0.317249 6:-0.849062 7:-0.997131 
-2048 2048 1:-0.212683 2:-0.234599 3:-0.935047 4:-0.92192 5:-0.145314 6:-0.902069 7:-0.998132 
-2048 2048 1:-0.224432 2:-0.641961 3:-0.889666 4:-0.907834 5:-0.52398 6:-0.928248 7:-0.99775 
-2048 2048 1:-0.0830951 2:-0.263247 3:-0.847856 4:-0.866562 5:-0.143162 6:-0.867433 7:-0.995349 
-2048 2048 1:0.0588016 2:0.00824259 3:-0.882003 4:-0.890682 5:0.138791 6:-0.869347 7:-0.99569 
-2048 2048 1:-0.27515 2:-0.516963 3:-0.899475 4:-0.910524 5:-0.419776 6:-0.922839 7:-0.998322 
-2048 2048 1:-0.0709067 2:-0.0487719 3:-0.843558 4:-0.860777 5:0.0575292 6:-0.855702 7:-0.997089 
-2048 982.1026663387393 1:-0.568005 2:-0.332387 3:-0.849454 4:-0.861575 5:-0.31401 6:-0.885665 7:-0.999071 
-2048 2048 1:0.113482 2:-0.0018766 3:-0.94833 4:-0.957359 5:0.141517 6:-0.944913 7:-0.99979 
-2048 2048 1:0.275103 2:0.036514 3:-0.859735 4:-0.878579 5:0.212628 6:-0.852668 7:-0.995076 
-2048 2048 1:0.0767193 2:-0.461414 3:-0.860648 4:-0.857295 5:-0.290837 6:-0.872372 7:-0.996143 
0 2048 1:-1 2:-0.910535 3:-0.930218 4:-0.9254 5:-0.94309 6:-0.955229 7:-0.999553 
-2048 2048 1:-0.187206 2:-0.377202 3:-0.929857 4:-0.941205 5:-0.271341 6:-0.94536 7:-0.999474 
-2048 2048 1:-0.1137 2:-0.165087 3:-0.644733 4:-0.61102 5:-0.0592962 6:-0.671283 7:-0.996462 
-2048 2048 1:-0.106018 2:-0.177607 3:-0.90707 4:-0.905912 5:-0.0691588 6:-0.886831 7:-0.997381 
-2048 0 1:-0.658295 2:-0.676437 3:-0.952305 4:-0.951818 5:-0.65156 6:-0.956691 7:-0.99936 
-2048 2048 1:0.156067 2:0.186485 3:-0.754052 4:-0.806276 5:0.324809 6:-0.768179 7:-0.966864 
-2048 2048 1:-0.409847 2:-0.496562 3:-0.895356 4:-0.905679 5:-0.43067 6:-0.91732 7:-0.998325 
-2048 2048 1:-0.049596 2:-0.337612 3:-0.848603 4:-0.863081 5:-0.204422 6:-0.873077 7:-0.995823 
-2048 0 1:-0.364913 2:-0.608002 3:-0.995568 4:-1 5:-0.523633 6:-0.992621 7:-0.999999 
-2048 2048 1:-0.309579 2:-0.532323 3:-0.864963 4:-0.875631 5:-0.441554 6:-0.899579 7:-0.997235 
-2048 2048 1:-0.0931784 2:-0.288608 3:-0.855355 4:-0.871371 5:-0.168801 6:-0.875413 7:-0.996098 
-2048 0 1:-0.416369 2:-0.602796 3:-0.94445 4:-0.950523 5:-0.530183 6:-0.952659 7:-0.999112 
-2048 2048 1:-0.145986 2:-0.212014 3:-0.903959 4:-0.911731 5:-0.109744 6:-0.896778 7:-0.997549 
-2048 0 1:-0.402062 2:-0.567722 3:-0.931521 4:-0.94198 5:-0.494645 6:-0.945217 7:-0.998745 
-2048 -2048 1:-0.158344 2:0.543589 3:-0.873633 4:-0.87266 5:0.585094 6:-0.826466 7:-0.998918 
-554.9071728749805 -1219.668381488731 1:-0.378982 2:-0.428358 3:0.188404 4:0.00903037 5:-0.360892 6:-0.392643 7:-0.953004 
-2048 -2048 1:-0.167766 2:-0.381715 3:-0.890662 4:-0.90311 5:-0.271217 6:-0.909251 7:-0.997909 
-2048 -2048 1:-0.171336 2:-0.509833 3:-0.813923 4:-0.841607 5:-0.390282 6:-0.870672 7:-0.99587 
-2048 -2048 1:-0.81735 2:-0.878259 3:-0.977607 4:-0.971791 5:-0.872982 6:-0.980718 7:-0.999753 
-2048 -2048 1:-0.38439 2:-0.0905186 3:-0.822617 4:-0.789763 5:-0.0501958 6:-0.794769 7:-0.998105 
-2048 -2048 1:-0.109715 2:-0.0798482 3:-0.801591 4:-0.820794 5:0.0202749 6:-0.829928 7:-0.991025 
-2048 0 1:0.421266 2:0.0926594 3:-0.795252 4:-0.802955 5:0.296718 6:-0.778838 7:-0.992284 
-2048 -2048 1:-0.105764 2:-0.154214 3:-0.919038 4:-0.926885 5:-0.0475068 6:-0.913818 7:-0.998667 
-2048 -2048 1:-0.176543 2:-0.452717 3:-0.871519 4:-0.88276 5:-0.338702 6:-0.889212 7:-0.996638 
-2048 -2048 1:-0.343344 2:-0.33608 3:-0.906025 4:-0.91166 5:-0.267836 6:-0.911413 7:-0.998406 
-2048 -2048 1:-0.778563 2:-0.765057 3:-0.882731 4:-0.881822 5:-0.759916 6:-0.930018 7:-0.999301 
-2048 -2048 1:-0.0346316 2:-0.313885 3:-0.862118 4:-0.882751 5:-0.179215 6:-0.888568 7:-0.996489 
-2048 -2048 1:-0.539424 2:-0.716219 3:-0.906603 4:-0.91675 5:-0.662052 6:-0.941637 7:-0.998791 
-2048 -2048 1:-0.399823 2:-0.239713 3:-0.914889 4:-0.925441 5:-0.191337 6:-0.899802 7:-0.996957 
-2048 -2048 1:0.221114 2:0.0845823 3:-0.652939 4:-0.664377 5:0.245089 6:-0.655577 7:-0.972663 
-2048 -2048 1:0.0458423 2:-0.596185 3:-0.926045 4:-0.942443 5:-0.422071 6:-0.942759 7:-0.998269 
-2048 -2048 1:0.0752662 2:0.0554395 3:-0.764815 4:-0.813238 5:0.185996 6:-0.782559 7:-0.967071 
0 -1303.650637447531 1:0.371266 2:0.102927 3:-0.765816 4:-0.724939 5:0.295163 6:-0.676764 7:-0.997441 
-2048 -2048 1:0.0841614 2:-0.126459 3:-0.926099 4:-0.932678 5:0.0200324 6:-0.918197 7:-0.998661 
-2048 -2048 1:0.0287725 2:-0.172902 3:-0.864712 4:-0.882776 5:-0.0350679 6:-0.869861 7:-0.996083 
-2048 -2048 1:0.205604 2:-0.0403211 3:-0.852901 4:-0.844903 5:0.126356 6:-0.829445 7:-0.994797 
-2048 -2048 1:-0.343055 2:-0.263484 3:-0.930667 4:-0.918749 5:-0.200753 6:-0.899 7:-0.998377 
-2048 -2048 1:-0.845222 2:-0.694108 3:-0.953903 4:-0.953574 5:-0.709128 6:-0.9573 7:-0.999324 
-2048 -2048 1:-0.492788 2:-0.69675 3:-0.92385 4:-0.932209 5:-0.633786 6:-0.945459 7:-0.998696 
-2048 -2048 1:0.27299 2:-0.277991 3:-0.892422 4:-0.904829 5:-0.0781866 6:-0.885255 7:-0.994913 
-2048 -2048 1:-0.169746 2:-0.273457 3:-0.864631 4:-0.876679 5:-0.171711 6:-0.879856 7:-0.997338 
-2048 -2048 1:0.0165952 2:-0.0373586 3:-0.818066 4:-0.831578 5:0.0873772 6:-0.826619 7:-0.99339 
-2048 -2048 1:-0.401818 2:-0.649493 3:-0.961449 4:-0.946469 5:-0.570082 6:-0.936722 7:-0.998738 
-2048 -2048 1:0.499596 2:-0.0145717 3:-0.827936 4:-0.854089 5:0.215011 6:-0.827744 7:-0.992159 
-535.4729251553461 -1572.410344079108 1:0.120406 2:0.211774 3:-0.556006 4:-0.594002 5:0.340285 6:-0.575673 7:-0.961112 
-2048 -2048 1:0.139016 2:-0.206491 3:-0.766811 4:-0.772724 5:-0.0417464 6:-0.76822 7:-0.986052 
-2048 -2048 1:-0.141246 2:-0.108936 3:-0.859776 4:-0.869239 5:-0.0135371 6:-0.863211 7:-0.996891 
-2048 -2048 1:0.226259 2:-0.038187 3:-0.834039 4:-0.852224 5:0.132885 6:-0.844135 7:-0.986774 
-1292.973168963436 0 1:0.467874 2:0.162049 3:-0.853784 4:-0.860583 5:0.371064 6:-0.82122 7:-0.991967 
-2048 -2048 1:0.213314 2:0.234085 3:-0.734326 4:-0.772175 5:0.381386 6:-0.751935 7:-0.97279 
-2048 -2048 1:-0.285679 2:-0.156035 3:-0.902952 4:-0.913713 5:-0.0888947 6:-0.911003 7:-0.999013 
-2048 -2048 1:-0.0947437 2:-0.357588 3:-0.874161 4:-0.889337 5:-0.232827 6:-0.894843 7:-0.99669 
-2048 0 1:0.327344 2:0.253758 3:-0.790171 4:-0.816237 5:0.424714 6:-0.782841 7:-0.993695 
-2048 -2048 1:0.195704 2:0.111408 3:-0.75279 4:-0.784653 5:0.264246 6:-0.78226 7:-0.987152 
-2048 -2048 1:0.255414 2:0.0424255 3:-0.819514 4:-0.828695 5:0.21374 6:-0.800277 7:-0.991969 
-2048 -2048 1:0.432587 2:0.107234 3:-0.858677 4:-0.861386 5:0.312672 6:-0.823626 7:-0.993637 
-2048 -2048 1:-0.334191 2:-0.408737 3:-0.938465 4:-0.942623 5:-0.332893 6:-0.943194 7:-0.999396 
-2048 -24.4312198749649 1:0.347114 2:0.00898098 3:-0.641184 4:-0.646503 5:0.203102 6:-0.663429 7:-0.987638 
-2048 -2048 1:-0.132557 2:-0.386987 3:-0.897335 4:-0.91247 5:-0.268313 6:-0.913551 7:-0.998224 
-2048 -2048 1:-0.351167 2:-0.618361 3:-0.917648 4:-0.926472 5:-0.530162 6:-0.94003 7:-0.998768 
-2048 -2048 1:-0.00450248 2:-0.144369 3:-0.94179 4:-0.951332 5:-0.01607 6:-0.93583 7:-0.999246 
