svm_type c_svc
kernel_type rbf
gamma 0.125
nr_class 3
total_sv 172
rho -0.491165 -1.99809 -0.0290236
label 1 3 2
nr_sv 56 50 66
SV
0 8 1:-0.848825 2:-0.724924 3:-0.867361 4:-0.837561 5:-0.751235 6:-0.864477 7:-0.974303 
8 8 1:-0.333306 2:0.469055 3:0.0963018 4:0.212141 5:0.298666 6:0.223538 7:-0.245854 
0 8 1:-0.917641 2:-0.829114 3:-0.887992 4:-0.853544 5:-0.847913 6:-0.905429 7:-0.981895 
8 8 1:-0.476153 2:-0.455942 3:-0.753376 4:-0.777457 5:-0.460234 6:-0.73933 7:-0.947153 
8 8 1:-0.78563 2:-0.650345 3:-0.869508 4:-0.841968 5:-0.679074 6:-0.830651 7:-0.970028 
8 8 1:-0.545451 2:-0.358457 3:-0.729966 4:-0.654939 5:-0.398167 6:-0.682578 7:-0.923797 
0 8 1:-0.820215 2:-0.833163 3:-0.901067 4:-0.883593 5:-0.830413 6:-0.930191 7:-0.987901 
8 8 1:-0.345264 2:-0.25257 3:-0.779669 4:-0.726626 5:-0.272254 6:-0.677767 7:-0.935978 
0.8526674466686464 8 1:-0.701154 2:-0.692213 3:-0.878687 4:-0.822362 5:-0.694111 6:-0.866242 7:-0.975885 
8 8 1:-0.368949 2:-0.462222 3:-0.707529 4:-0.654952 5:-0.442415 6:-0.7857 7:-0.952604 
0 8 1:-0.764287 2:-0.757748 3:-0.912484 4:-0.914152 5:-0.759136 6:-0.907422 7:-0.986942 
0 8 1:-0.854079 2:-0.82266 3:-0.88743 4:-0.88683 5:-0.829332 6:-0.922236 7:-0.986403 
0 8 1:-0.930392 2:-0.856698 3:-0.900916 4:-0.885113 5:-0.872348 6:-0.926422 7:-0.986654 
0 8 1:-0.876749 2:-0.748047 3:-0.892771 4:-0.869769 5:-0.775378 6:-0.868004 7:-0.977388 
0 0.5211012064151177 1:-0.807954 2:-0.83773 3:-0.923675 4:-0.932982 5:-0.831407 6:-0.935612 7:-0.991379 
8 8 1:-0.607355 2:-0.433699 3:-0.666326 4:-0.651464 5:-0.470576 6:-0.683085 7:-0.915958 
0 8 1:-0.935412 2:-0.77735 3:-0.887516 4:-0.767762 5:-0.810916 6:-0.846986 7:-0.967935 
8 0 1:0.421487 2:0.735479 3:0.583982 4:0.797623 5:0.6688 6:0.54232 7:0.199105 
8 8 1:-0.577544 2:-0.399493 3:-0.748661 4:-0.666949 5:-0.437304 6:-0.710448 7:-0.932354 
8 8 1:-0.803129 2:-0.636383 3:-0.87514 4:-0.807401 5:-0.671793 6:-0.82275 7:-0.966564 
0 8 1:-0.835733 2:-0.773024 3:-0.918776 4:-0.88748 5:-0.786341 6:-0.903571 7:-0.984481 
0 8 1:-0.822384 2:-0.750494 3:-0.886477 4:-0.855949 5:-0.76576 6:-0.882923 7:-0.979782 
0 8 1:-0.917813 2:-0.790926 3:-0.859249 4:-0.815302 5:-0.817872 6:-0.88158 7:-0.974679 
0 8 1:-0.670809 2:-0.738713 3:-0.901554 4:-0.902255 5:-0.724293 6:-0.919141 7:-0.98837 
8 8 1:-0.777873 2:-0.66318 3:-0.841449 4:-0.796991 5:-0.687536 6:-0.837668 7:-0.967512 
8 8 1:-0.782784 2:-0.65178 3:-0.771115 4:-0.737856 5:-0.6796 6:-0.809579 7:-0.956153 
0 8 1:-0.857668 2:-0.809633 3:-0.884142 4:-0.869224 5:-0.819834 6:-0.912428 7:-0.984028 
8 8 1:-0.747861 2:-0.653877 3:-0.794507 4:-0.763705 5:-0.673835 6:-0.833525 7:-0.963547 
8 8 1:-0.748573 2:-0.514965 3:-0.647429 4:-0.605187 5:-0.564574 6:-0.688594 7:-0.906759 
0 8 1:-0.897315 2:-0.812507 3:-0.897442 4:-0.861162 5:-0.830517 6:-0.912294 7:-0.983665 
8 8 1:-0.566444 2:-0.235314 3:-0.28297 4:-0.18152 5:-0.305632 6:-0.498814 7:-0.791736 
8 8 1:-0.719744 2:-0.661706 3:-0.861571 4:-0.843697 5:-0.674031 6:-0.855429 7:-0.974469 
0 8 1:-0.811016 2:-0.737951 3:-0.858995 4:-0.836778 5:-0.753467 6:-0.876529 7:-0.976247 
8 8 1:-0.828619 2:-0.722394 3:-0.758197 4:-0.723507 5:-0.744951 6:-0.851894 7:-0.962176 
0 8 1:-0.938322 2:-0.879034 3:-0.917756 4:-0.905686 5:-0.891624 6:-0.933953 7:-0.988989 
8 8 1:-0.64535 2:-0.49109 3:-0.736618 4:-0.711514 5:-0.523849 6:-0.754376 7:-0.943054 
8 8 1:-0.838022 2:-0.663992 3:-0.856294 4:-0.800758 5:-0.700949 6:-0.832968 7:-0.966059 
8 8 1:-0.878038 2:-0.694026 3:-0.803395 4:-0.62005 5:-0.733103 6:-0.773904 7:-0.944236 
8 8 1:-0.59912 2:-0.628138 3:-0.846787 4:-0.834368 5:-0.621976 6:-0.857269 7:-0.975043 
8 8 1:-0.350266 2:-0.392967 3:-0.730827 4:-0.687274 5:-0.383899 6:-0.761463 7:-0.950983 
8 8 1:-0.377065 2:-0.482004 3:-0.845108 4:-0.749949 5:-0.459719 6:-0.826802 7:-0.970332 
0 8 1:-0.91399 2:-0.832661 3:-0.873567 4:-0.858929 5:-0.849932 6:-0.905978 7:-0.981659 
8 8 1:0.408014 2:-0.0496649 3:-0.683921 4:-0.689649 5:0.0475273 6:-0.714591 7:-0.951921 
8 8 1:-0.754953 2:-0.237343 3:-0.432938 4:-0.267948 5:-0.347262 6:-0.429464 7:-0.772416 
8 8 1:-0.64679 2:-0.51946 3:-0.715902 4:-0.707018 5:-0.546499 6:-0.737113 7:-0.935769 
8 8 1:-0.746881 2:-0.677493 3:-0.851406 4:-0.83027 5:-0.692228 6:-0.865582 7:-0.97516 
8 8 1:-0.274462 2:-0.446382 3:-0.800134 4:-0.791618 5:-0.409873 6:-0.805866 7:-0.965581 
0 2.335233643766553 1:-0.942712 2:-0.892569 3:-0.92221 4:-0.889113 5:-0.903218 6:-0.94622 7:-0.989765 
8 8 1:-0.683621 2:-0.379664 3:-0.619109 4:-0.560433 5:-0.444212 6:-0.626947 7:-0.886976 
8 8 1:-0.599639 2:-0.59779 3:-0.810437 4:-0.795464 5:-0.598183 6:-0.832681 7:-0.96792 
8 8 1:-0.800437 2:-0.739458 3:-0.788793 4:-0.796185 5:-0.752407 6:-0.846948 7:-0.966152 
8 8 1:-0.708535 2:-0.593205 3:-0.688352 4:-0.666131 5:-0.617696 6:-0.780285 7:-0.94174 
0 8 1:-0.352785 2:-0.666832 3:-0.892138 4:-0.877968 5:-0.600141 6:-0.915362 7:-0.987737 
8 8 1:-0.886601 2:-0.687934 3:-0.807314 4:-0.750889 5:-0.730123 6:-0.823778 7:-0.958402 
0 8 1:-0.885629 2:-0.822699 3:-0.817101 4:-0.806906 5:-0.836062 6:-0.906565 7:-0.977922 
0 8 1:-0.889804 2:-0.84487 3:-0.867188 4:-0.858354 5:-0.854412 6:-0.921993 7:-0.984353 
-5.563334865758039 0.4498209167932228 1:1 2:1 3:1 4:1 5:1 6:1 7:1 
-0.1440891621780928 8 1:-0.720717 2:-0.20573 3:-0.623765 4:-0.470116 5:-0.315092 6:-0.492608 7:-0.840373 
0 8 1:-0.628883 2:-0.161988 3:-0.526386 4:-0.280754 5:-0.261137 6:-0.462982 7:-0.810129 
0 8 1:-0.120032 2:0.0598019 3:-0.477936 4:-0.432362 5:0.0216125 6:-0.420416 7:-0.817459 
-8 8 1:-0.639931 2:-0.485511 3:-0.701547 4:-0.699013 5:-0.518303 6:-0.691904 7:-0.922112 
-8 8 1:-0.177572 2:-0.142545 3:-0.615208 4:-0.563277 5:-0.149983 6:-0.60031 7:-0.901559 
0 8 1:-0.34395 2:-0.0905872 3:-0.425204 4:-0.346969 5:-0.144391 6:-0.478755 7:-0.82919 
-8 8 1:-0.803516 2:-0.558264 3:-0.737858 4:-0.682253 5:-0.610345 6:-0.756506 7:-0.936825 
-8 8 1:-0.808398 2:-0.690845 3:-0.774737 4:-0.744776 5:-0.715809 6:-0.838685 7:-0.961333 
-8 8 1:-0.407281 2:-0.25469 3:-0.539793 4:-0.545453 5:-0.287094 6:-0.587057 7:-0.878236 
-7.610461693717205 0 1:0.0129915 2:0.655024 3:0.325088 4:0.412289 5:0.518683 6:0.339697 7:-0.165193 
0 8 1:-0.343538 2:-0.0423079 3:-0.584019 4:-0.533746 5:-0.106277 6:-0.474134 7:-0.84801 
-8 8 1:-0.517085 2:-0.670806 3:-0.839004 4:-0.836248 5:-0.638162 6:-0.882194 7:-0.979012 
-8 8 1:-0.46846 2:-0.132259 3:-0.604111 4:-0.569034 5:-0.203655 6:-0.527074 7:-0.864014 
0 8 1:-0.394819 2:-0.114827 3:-0.492122 4:-0.461093 5:-0.174285 6:-0.507496 7:-0.843045 
-2.427811146258724 8 1:-0.705104 2:-0.458175 3:-0.396576 4:-0.384108 5:-0.510613 6:-0.610941 7:-0.844406 
0 8 1:-0.368122 2:-0.141174 3:-0.46016 4:-0.437957 5:-0.189369 6:-0.492292 7:-0.824148 
0 8 1:0.454223 2:0.311094 3:-0.566749 4:-0.430211 5:0.341489 6:-0.436054 7:-0.875553 
-8 8 1:-0.358022 2:-0.609722 3:-0.840292 4:-0.792057 5:-0.556272 6:-0.880516 7:-0.979233 
-8 8 1:-0.441117 2:-0.589245 3:-0.810971 4:-0.799104 5:-0.557789 6:-0.847259 7:-0.971335 
-8 8 1:-0.498981 2:-0.485868 3:-0.788139 4:-0.796091 5:-0.488652 6:-0.774719 7:-0.956668 
-8 8 1:-0.641871 2:-0.512891 3:-0.73149 4:-0.714828 5:-0.540281 6:-0.747602 7:-0.940247 
-8 8 1:-0.777389 2:-0.449254 3:-0.67785 4:-0.555152 5:-0.518936 6:-0.651426 7:-0.900943 
-1.106970578756584 8 1:-0.288923 2:-0.17329 3:-0.554932 4:-0.530261 5:-0.197846 6:-0.550949 7:-0.869907 
-8 8 1:-0.785132 2:-0.519937 3:-0.662173 4:-0.586063 5:-0.576253 6:-0.71239 7:-0.915301 
-8 8 1:-0.499344 2:-0.258693 3:-0.603147 4:-0.563985 5:-0.309797 6:-0.596997 7:-0.88508 
-8 8 1:-0.832768 2:-0.69035 3:-0.8288 4:-0.76591 5:-0.720593 6:-0.840004 7:-0.964507 
-8 8 1:-0.865519 2:-0.645073 3:-0.747694 4:-0.654788 5:-0.691886 6:-0.782709 7:-0.941675 
-8 8 1:-0.410295 2:-0.458879 3:-0.729528 4:-0.63159 5:-0.448562 6:-0.76552 7:-0.947801 
-8 8 1:-0.524658 2:-0.513186 3:-0.779932 4:-0.764689 5:-0.515622 6:-0.805514 7:-0.961262 
-8 8 1:-0.843997 2:-0.527807 3:-0.767576 4:-0.63273 5:-0.594952 6:-0.691283 7:-0.920616 
0 8 1:-0.58817 2:-0.246985 3:-0.500667 4:-0.413159 5:-0.319439 6:-0.543743 7:-0.843898 
-8 8 1:-0.755504 2:-0.412338 3:-0.521231 4:-0.439907 5:-0.485213 6:-0.604124 7:-0.857943 
-8 8 1:-0.16973 2:-0.139461 3:-0.622486 4:-0.568084 5:-0.145889 6:-0.60416 7:-0.900666 
-8 8 1:-0.699013 2:-0.639757 3:-0.768053 4:-0.751871 5:-0.65234 6:-0.833287 7:-0.962671 
0 8 1:-0.473995 2:-0.31377 3:-0.415275 4:-0.430337 5:-0.347795 6:-0.566463 7:-0.844183 
-8 8 1:-0.939038 2:-0.824317 3:-0.80277 4:-0.775738 5:-0.848679 6:-0.883888 7:-0.970546 
0 8 1:-0.554394 2:-0.216102 3:-0.397603 4:-0.36215 5:-0.287941 6:-0.466281 7:-0.792683 
-8 8 1:-0.0453133 2:-0.103077 3:-0.708873 4:-0.669241 5:-0.0908104 6:-0.707805 7:-0.948163 
-8 8 1:-0.776865 2:-0.5981 3:-0.631781 4:-0.620451 5:-0.636063 6:-0.732676 7:-0.918804 
-8 8 1:-0.82208 2:-0.552242 3:-0.808403 4:-0.722885 5:-0.609545 6:-0.751191 7:-0.942572 
-8 8 1:-0.539 2:-0.508005 3:-0.608593 4:-0.577137 5:-0.514587 6:-0.726968 7:-0.921261 
0 3.776261391249325 1:0.0630749 2:0.188508 3:-0.424801 4:-0.413541 5:0.161871 6:-0.479828 7:-0.873903 
0 8 1:-0.72727 2:-0.307197 3:-0.380972 4:-0.299869 5:-0.396403 6:-0.492951 7:-0.786579 
-8 8 1:-0.885903 2:-0.800898 3:-0.807143 4:-0.774845 5:-0.81895 6:-0.897935 7:-0.974776 
0 1.58388636672621 1:-0.69097 2:-0.244422 3:-0.258952 4:-0.151141 5:-0.33925 6:-0.442296 7:-0.744683 
-8 8 1:-0.776957 2:-0.605201 3:-0.768048 4:-0.697125 5:-0.641675 6:-0.793306 7:-0.94927 
0 8 1:-0.774227 2:-0.286816 3:-0.320299 4:-0.14521 5:-0.390322 6:-0.408202 7:-0.71393 
-8 8 1:-0.770904 2:-0.457643 3:-0.748547 4:-0.65988 5:-0.524167 6:-0.697957 7:-0.92284 
-8 8 1:-0.680535 2:-0.475526 3:-0.577084 4:-0.571603 5:-0.519061 6:-0.6671 7:-0.894515 
-2.6625639148868 -8 1:0.431367 2:0.238849 3:-0.530998 4:-0.510678 5:0.279732 6:-0.520344 7:-0.894879 
-8 0 1:-0.77861 2:-0.757735 3:-0.868753 4:-0.870307 5:-0.762168 6:-0.899077 7:-0.982421 
-8 0 1:-0.882884 2:-0.789158 3:-0.88651 4:-0.865437 5:-0.809062 6:-0.893416 7:-0.980609 
-8 -8 1:-0.665436 2:-0.45801 3:-0.49403 4:-0.443099 5:-0.502059 6:-0.659799 7:-0.877825 
-2.485708689937654 -8 1:-0.395987 2:-0.132653 3:-0.615416 4:-0.590754 5:-0.188574 6:-0.511458 7:-0.862685 
-8 0 1:-0.813967 2:-0.786586 3:-0.909254 4:-0.905292 5:-0.792401 6:-0.914022 7:-0.987097 
0 -8 1:-0.774879 2:-0.461427 3:-0.313234 4:-0.285086 5:-0.527991 6:-0.530892 7:-0.781653 
-8 -8 1:-0.530869 2:-0.36039 3:-0.680232 4:-0.636957 5:-0.396592 6:-0.687108 7:-0.922218 
0 -8 1:-0.603076 2:0.0221256 3:-0.471666 4:-0.330635 5:-0.110641 6:-0.283301 7:-0.734152 
-8 -8 1:-0.839486 2:-0.67027 3:-0.86077 4:-0.828948 5:-0.706204 6:-0.828873 7:-0.967846 
-8 0 1:-0.774924 2:-0.762721 3:-0.87455 4:-0.85013 5:-0.765313 6:-0.908694 7:-0.983049 
-8 -8 1:-0.774675 2:-0.536993 3:-0.709231 4:-0.648148 5:-0.587467 6:-0.719411 7:-0.924294 
-8 -8 1:-0.637304 2:-0.513054 3:-0.756327 4:-0.719867 5:-0.53944 6:-0.752459 7:-0.944681 
-8 -8 1:-0.710556 2:-0.596372 3:-0.776901 4:-0.736929 5:-0.62062 6:-0.805249 7:-0.956539 
-5.708062245357216 -8 1:-0.131345 2:-0.04518 3:-0.628696 4:-0.605336 5:-0.0634778 6:-0.644337 7:-0.927231 
-8 -8 1:-0.557961 2:-0.459009 3:-0.63807 4:-0.60393 5:-0.480022 6:-0.714448 7:-0.921371 
-8 -8 1:-0.197545 2:-0.315991 3:-0.555247 4:-0.515345 5:-0.290838 6:-0.675218 7:-0.914471 
-8 -8 1:-0.62856 2:-0.588573 3:-0.77046 4:-0.735856 5:-0.597065 6:-0.841668 7:-0.966092 
-8 -8 1:-0.61727 2:-0.430038 3:-0.702145 4:-0.662811 5:-0.469799 6:-0.700174 7:-0.926256 
-8 -8 1:-0.725471 2:-0.514276 3:-0.673777 4:-0.630001 5:-0.559125 6:-0.727706 7:-0.924074 
-8 0 1:-0.876593 2:-0.870275 3:-0.935041 4:-0.93468 5:-0.871616 6:-0.94747 7:-0.992546 
-8 0 1:-0.895876 2:-0.935745 3:-0.95981 4:-0.977595 5:-0.927278 6:-0.978558 7:-0.997851 
0 -8 1:-0.626293 2:-0.20584 3:-0.454446 4:-0.381023 5:-0.295127 6:-0.469247 7:-0.797692 
-8 0 1:-0.896219 2:-0.85858 3:-0.895397 4:-0.895954 5:-0.866573 6:-0.934024 7:-0.988325 
-8 -8 1:-0.538411 2:-0.479861 3:-0.74558 4:-0.749733 5:-0.492295 6:-0.757511 7:-0.947529 
0 -8 1:-0.65463 2:-0.296213 3:-0.561621 4:-0.429591 5:-0.372326 6:-0.570619 7:-0.861915 
0 -8 1:-0.618145 2:-0.390745 3:-0.458424 4:-0.432767 5:-0.439035 6:-0.61066 7:-0.862094 
-8 -8 1:-0.804655 2:-0.493067 3:-0.60818 4:-0.506655 5:-0.559236 6:-0.644278 7:-0.887032 
-8 0 1:-0.989633 2:-0.95172 3:-0.951411 4:-0.936211 5:-0.959771 6:-0.973147 7:-0.995102 
-8 -8 1:-0.707266 2:-0.614114 3:-0.79564 4:-0.768219 5:-0.633895 6:-0.831158 7:-0.96413 
0 -8 1:-0.41411 2:-0.101933 3:-0.532047 4:-0.503939 5:-0.168227 6:-0.502121 7:-0.847333 
-8 -8 1:-0.66766 2:-0.675373 3:-0.788855 4:-0.794062 5:-0.673735 6:-0.868971 7:-0.973323 
-8 0 1:-0.935809 2:-0.829615 3:-0.863323 4:-0.810223 5:-0.852166 6:-0.897627 7:-0.977616 
-8 -8 1:-0.259787 2:-0.35935 3:-0.772474 4:-0.742962 5:-0.338207 6:-0.741051 7:-0.948582 
-8 0 1:-0.882341 2:-0.81205 3:-0.905397 4:-0.867627 5:-0.826977 6:-0.910782 7:-0.984401 
-8 -8 1:-0.803229 2:-0.600115 3:-0.621663 4:-0.585645 5:-0.643248 6:-0.740927 7:-0.918579 
0 -8 1:-0.334539 2:0.0543157 3:-0.190919 4:-0.149973 5:-0.0282609 6:-0.309052 7:-0.702706 
-8 0 1:-0.829126 2:-0.869875 3:-0.962017 4:-0.96206 5:-0.861222 6:-0.965865 7:-0.996294 
-8 -8 1:-0.808155 2:-0.705489 3:-0.818595 4:-0.778328 5:-0.727291 6:-0.852035 7:-0.967821 
-8 -8 1:-0.655019 2:-0.585924 3:-0.808787 4:-0.792701 5:-0.600597 6:-0.823514 7:-0.96494 
-8 -8 1:-0.63743 2:-0.412818 3:-0.625269 4:-0.598392 5:-0.460517 6:-0.670768 7:-0.904756 
-8 0 1:-0.893553 2:-0.90219 3:-0.917811 4:-0.926758 5:-0.900355 6:-0.955866 7:-0.992863 
-8 -8 1:0.169011 2:0.236898 3:-0.739448 4:-0.691008 5:0.222482 6:-0.512746 7:-0.904518 
-8 0 1:-0.900288 2:-0.739005 3:-0.894018 4:-0.829557 5:-0.773255 6:-0.845466 7:-0.971187 
0 -8 1:-0.441476 2:0.00547389 3:-0.370102 4:-0.243026 5:-0.0894399 6:-0.374699 7:-0.775498 
-8 0 1:-0.823399 2:-0.914322 3:-0.982645 4:-1 5:-0.895014 6:-0.983561 7:-0.999507 
-8 -5.80996867476876 1:-0.957793 2:-0.796427 3:-0.823964 4:-0.706673 5:-0.830694 6:-0.844713 7:-0.960925 
-8 -8 1:-0.319449 2:-0.246742 3:-0.678666 4:-0.557179 5:-0.262182 6:-0.638008 7:-0.908613 
-8 -8 1:-0.599149 2:-0.54544 3:-0.792902 4:-0.767253 5:-0.556846 6:-0.799218 7:-0.958209 
-8 -8 1:-0.691834 2:-0.564035 3:-0.676205 4:-0.678217 5:-0.591174 6:-0.74903 7:-0.932172 
-8 -8 1:-0.644792 2:-0.329203 3:-0.574547 4:-0.479135 5:-0.396221 6:-0.599062 7:-0.87179 
0 -8 1:-0.43427 2:-0.259793 3:-0.312668 4:-0.23124 5:-0.296845 6:-0.474324 7:-0.736485 
-8 -8 1:-0.777574 2:-0.700439 3:-0.806316 4:-0.775329 5:-0.716819 6:-0.859002 7:-0.969214 
-8 -8 1:-0.689302 2:-0.513651 3:-0.734516 4:-0.663052 5:-0.550952 6:-0.752904 7:-0.939359 
-8 0 1:-0.877336 2:-0.838482 3:-0.877707 4:-0.875151 5:-0.846733 6:-0.920136 7:-0.985157 
-8 -8 1:-0.739581 2:-0.583488 3:-0.670737 4:-0.632376 5:-0.616635 6:-0.773737 7:-0.936666 
0 -8 1:0.0838638 2:0.0540654 3:-0.563459 4:-0.529656 5:0.0603934 6:-0.518728 7:-0.877444 
-8 0 1:-0.864568 2:-0.801971 3:-0.886593 4:-0.871359 5:-0.815264 6:-0.907324 7:-0.983328 
-8 -8 1:-0.757688 2:-0.604123 3:-0.802195 4:-0.750962 5:-0.636734 6:-0.810123 7:-0.958063 
-8 0 1:-0.890001 2:-0.82923 3:-0.88033 4:-0.886668 5:-0.842135 6:-0.9069 7:-0.983599 
-8 -8 1:-0.672978 2:-0.560815 3:-0.717127 4:-0.684146 5:-0.584634 6:-0.778826 7:-0.945626 
0 -8 1:-0.259678 2:-0.0882941 3:-0.578384 4:-0.495222 5:-0.124689 6:-0.575249 7:-0.891287 
-8 -8 1:-0.695985 2:-0.375394 3:-0.542851 4:-0.487223 5:-0.443474 6:-0.602196 7:-0.866497 
-8 -8 1:-0.804213 2:-0.537318 3:-0.659833 4:-0.591857 5:-0.593995 6:-0.716897 7:-0.914394 
-8 0 1:-0.656669 2:-0.711016 3:-0.850151 4:-0.835117 5:-0.699475 6:-0.88309 7:-0.978776 
-8 0 1:-0.852754 2:-0.834915 3:-0.88892 4:-0.886107 5:-0.838703 6:-0.925505 7:-0.987033 
