svm_type c_svc
kernel_type rbf
gamma 2
nr_class 3
total_sv 175
rho 0.153939 0.0266183 0.204568
label 1 3 2
nr_sv 61 42 72
SV
0 2 1:-0.449179 2:-0.786697 3:-0.877775 4:-0.888458 5:-0.715894 6:-0.902087 7:-0.995068 
0 2 1:-0.011221 2:-0.680791 3:-0.919052 4:-0.937178 5:-0.542206 6:-0.936111 7:-0.997688 
0 2 1:-0.699861 2:-0.7196 3:-0.816743 4:-0.812203 5:-0.698776 6:-0.8282 7:-0.988492 
0 2 1:-0.340387 2:-0.582764 3:-0.797887 4:-0.826601 5:-0.510675 6:-0.841192 7:-0.989466 
2 2 1:-0.671683 2:-0.631732 3:-0.781073 4:-0.801658 5:-0.613643 6:-0.822205 7:-0.986236 
1.354802354546227 0 1:-0.676567 2:-0.9023 3:-0.891735 4:-0.902625 5:-0.861383 6:-0.928535 7:-0.99626 
2 2 1:-0.478685 2:-0.454676 3:-0.614235 4:-0.657139 5:-0.418132 6:-0.699924 7:-0.967672 
2 2 1:-0.454012 2:-0.495296 3:-0.705945 4:-0.73485 5:-0.450855 6:-0.762189 7:-0.979448 
0 2 1:-0.77863 2:-0.721679 3:-0.770247 4:-0.779617 5:-0.714532 6:-0.811686 7:-0.985096 
0 2 1:-0.429275 2:-0.680095 3:-0.833807 4:-0.849842 5:-0.615123 6:-0.869639 7:-0.992033 
2 2 1:-0.338791 2:-0.352477 3:-0.657763 4:-0.71427 5:-0.300268 6:-0.728525 7:-0.97369 
0 2 1:-0.199636 2:-0.592682 3:-0.810655 4:-0.847433 5:-0.494961 6:-0.856283 7:-0.990948 
0 2 1:-0.166577 2:-0.566478 3:-0.804071 4:-0.844543 5:-0.465235 6:-0.848899 7:-0.990642 
1.491328181453673 2 1:0.247595 2:0.56497 3:-0.564245 4:-0.658338 5:0.640028 6:-0.632736 7:-0.990484 
2 2 1:-0.323197 2:-0.527301 3:-0.563763 4:-0.622 5:-0.457042 6:-0.690032 7:-0.960164 
0 2 1:-0.756869 2:-0.795622 3:-0.829845 4:-0.837598 5:-0.778173 6:-0.856522 7:-0.990807 
2 1.369068739165049 1:0.503792 2:0.207792 3:0.112846 4:-0.102018 5:0.359194 6:-0.247448 7:-0.650553 
2 2 1:-0.134575 2:-0.374153 3:-0.747652 4:-0.769378 5:-0.284117 6:-0.777032 7:-0.983589 
0 2 1:-0.492509 2:-0.612453 3:-0.826242 4:-0.835481 5:-0.564528 6:-0.844051 7:-0.98973 
2 2 1:0.0990038 2:0.0997756 3:-0.896198 4:-0.921297 5:0.189417 6:-0.909658 7:-0.998677 
0.0278377978710206 1.84284000820714 1:-0.959594 2:-0.773352 3:-0.720314 4:-0.766458 5:-0.79352 6:-0.821978 7:-0.981355 
0 2 1:-0.135412 2:-0.660668 3:-0.865971 4:-0.890565 5:-0.545695 6:-0.898297 7:-0.995001 
0 2 1:-0.537638 2:-0.689569 3:-0.798115 4:-0.823475 5:-0.642832 6:-0.841699 7:-0.988988 
2 2 1:-0.183759 2:-0.490591 3:-0.700861 4:-0.767495 5:-0.399014 6:-0.785343 7:-0.981615 
0 2 1:-0.283804 2:-0.594511 3:-0.818744 4:-0.834483 5:-0.511438 6:-0.843444 7:-0.98992 
0.4371260842862433 0 1:0.16095 2:-1 3:-1 4:-1 5:-0.803178 6:-1 7:-1 
2 2 1:-0.135777 2:-0.482111 3:-0.782444 4:-0.812306 5:-0.382835 6:-0.829715 7:-0.989128 
0 1.062802868759252 1:-0.971457 2:-0.997356 3:-0.885728 4:-0.868084 5:-1 6:-0.893095 7:-0.993886 
0 2 1:-0.423082 2:-0.519393 3:-0.799853 4:-0.811611 5:-0.467401 6:-0.821841 7:-0.988382 
2 2 1:-0.785094 2:-0.70137 3:-0.852284 4:-0.840855 5:-0.697138 6:-0.850627 7:-0.990347 
0.233656893118414 2 1:-0.264826 2:-0.515636 3:-0.747577 4:-0.789518 5:-0.436129 6:-0.812443 7:-0.98641 
0 2 1:-0.409539 2:-0.557919 3:-0.743304 4:-0.78621 5:-0.500171 6:-0.785625 7:-0.980969 
2 2 1:-0.306908 2:-0.238827 3:-0.684169 4:-0.716694 5:-0.190958 6:-0.722841 7:-0.978595 
0 1.811449342548854 1:-0.0528111 2:-0.858443 3:-0.940519 4:-0.947522 5:-0.711622 6:-0.953406 7:-0.998307 
2 2 1:0.0434315 2:-0.437415 3:-0.701672 4:-0.768712 5:-0.310522 6:-0.775362 7:-0.981113 
2 2 1:-0.382942 2:-0.541455 3:-0.692562 4:-0.746705 5:-0.480469 6:-0.785436 7:-0.981633 
0 2 1:-0.355541 2:-0.782023 3:-0.885202 4:-0.902184 5:-0.695154 6:-0.910401 7:-0.995652 
0.2602544066960434 0 1:-0.203456 2:-0.933713 3:-0.979881 4:-0.987912 5:-0.806807 6:-0.987523 7:-0.999694 
1.846123358002449 2 1:-0.613832 2:-0.613568 3:-0.746759 4:-0.774583 5:-0.586891 6:-0.800693 7:-0.983159 
2 2 1:-0.0047439 2:-0.161209 3:-0.429954 4:-0.526823 5:-0.0669724 6:-0.565762 7:-0.929964 
0 2 1:-0.699471 2:-0.751115 3:-0.859475 4:-0.82254 5:-0.727463 6:-0.831166 7:-0.990042 
0 2 1:-0.421316 2:-0.616339 3:-0.729175 4:-0.787522 5:-0.555549 6:-0.806559 7:-0.983095 
2 2 1:-0.433818 2:-0.440055 3:-0.697123 4:-0.727102 5:-0.396897 6:-0.752577 7:-0.977629 
0 2 1:-0.437892 2:-0.597456 3:-0.759889 4:-0.790036 5:-0.541235 6:-0.817811 7:-0.985882 
2 2 1:-0.125077 2:-0.262196 3:-0.747071 4:-0.790048 5:-0.18029 6:-0.805783 7:-0.990439 
2 2 1:0.31813 2:-0.537093 3:-0.866375 4:-0.900303 5:-0.353143 6:-0.901433 7:-0.996074 
2 2 1:-0.407497 2:-0.407952 3:-0.669539 4:-0.717398 5:-0.362974 6:-0.732444 7:-0.973447 
2 2 1:-0.150933 2:-0.384814 3:-0.721792 4:-0.747579 5:-0.296722 6:-0.760262 7:-0.980284 
2 2 1:-0.276476 2:-0.482232 3:-0.701032 4:-0.755089 5:-0.4077 6:-0.782352 7:-0.981923 
0 2 1:-0.709195 2:-0.69903 3:-0.850215 4:-0.778288 5:-0.681649 6:-0.787092 7:-0.989638 
2 2 1:-0.474767 2:-0.560616 3:-0.631316 4:-0.707022 5:-0.514108 6:-0.759511 7:-0.974838 
0 2 1:0.143917 2:-0.819708 3:-0.942219 4:-0.96411 5:-0.641666 6:-0.965762 7:-0.998965 
2 2 1:0.0710906 2:-0.446457 3:-0.679348 4:-0.758949 5:-0.313906 6:-0.767784 7:-0.980604 
0 2 1:-0.580313 2:-0.778271 3:-0.879927 4:-0.877844 5:-0.731277 6:-0.886833 7:-0.994099 
2 2 1:-0.273074 2:-0.444712 3:-0.697937 4:-0.750858 5:-0.372865 6:-0.773788 7:-0.980291 
0 2 1:-0.560182 2:-0.707331 3:-0.791025 4:-0.824373 5:-0.663006 6:-0.847414 7:-0.988796 
2 0 1:-0.567123 2:-0.988142 3:-0.932387 4:-0.932369 5:-0.920454 6:-0.939762 7:-0.997377 
2 2 1:-0.868109 2:-0.716789 3:-0.779493 4:-0.74814 5:-0.725813 6:-0.791408 7:-0.983559 
0 2 1:-0.563577 2:-0.665443 3:-0.756276 4:-0.795201 5:-0.625383 6:-0.824441 7:-0.98599 
0 0.3234400237675194 1:-0.699576 2:-0.794819 3:-0.855962 4:-0.860144 5:-0.76736 6:-0.881107 7:-0.99294 
0 2 1:-0.569915 2:-0.748548 3:-0.827065 4:-0.839221 5:-0.702327 6:-0.870805 7:-0.992014 
0 1.16002353304405 1:0.0749344 2:0.0394725 3:-0.370829 4:-0.456202 5:0.130158 6:-0.508468 7:-0.944192 
-1.877661904566631 2 1:0.18448 2:-0.0282977 3:-0.737599 4:-0.770361 5:0.0875944 6:-0.759914 7:-0.989462 
-2 2 1:0.017358 2:-0.436881 3:-0.693471 4:-0.770228 5:-0.314622 6:-0.788099 7:-0.983646 
0 1.128468693778801 1:0.782508 2:0.150019 3:-0.0788066 4:-0.304835 5:0.355516 6:-0.318231 7:-0.848178 
-1.363393515635602 1.534838255429029 1:0.104096 2:-0.154471 3:0.266481 4:0.0041337 5:-0.0416757 6:-0.28301 7:-0.805236 
-2 2 1:-0.372178 2:-0.301673 3:-0.720832 4:-0.727151 5:-0.259786 6:-0.720177 7:-0.97512 
-2 2 1:-0.1952 2:-0.505515 3:-0.743743 4:-0.787647 5:-0.414644 6:-0.810355 7:-0.985659 
-2 2 1:-0.110731 2:-0.333679 3:-0.51746 4:-0.647394 5:-0.24299 6:-0.646394 7:-0.953949 
-2 2 1:-0.200586 2:-0.222641 3:-0.765375 4:-0.735146 5:-0.157483 6:-0.705324 7:-0.97794 
0 2 1:0.267047 2:-0.137658 3:-0.489629 4:-0.593948 5:0.00233481 6:-0.61062 7:-0.951502 
-2 2 1:-0.546471 2:-0.459091 3:-0.7137 4:-0.736876 5:-0.434087 6:-0.752207 7:-0.976618 
-2 2 1:-0.567377 2:-0.819812 3:-0.845558 4:-0.873269 5:-0.766906 6:-0.890979 7:-0.993637 
-0.8129782507921828 2 1:0.181898 2:0.76479 3:0.78503 4:0.892604 5:0.810795 6:1 7:-0.0230808 
0 1.284771465202505 1:-0.331284 2:-0.147177 3:-0.387158 4:-0.513021 5:-0.11162 6:-0.5045 7:-0.9069 
-0.4317802929199077 0.5472600851457946 1:0.0374569 2:1 3:0.821324 4:1 5:1 6:0.32467 7:1 
-2 2 1:-0.277658 2:-0.460158 3:-0.649116 4:-0.67976 5:-0.387766 6:-0.724625 7:-0.972439 
-1.76521570022632 1.152490410766762 1:0.723935 2:0.361194 3:-0.0956507 4:-0.341365 5:0.537898 6:-0.360565 7:-0.93095 
-2 2 1:0.0166167 2:-0.346222 3:-0.687426 4:-0.740338 5:-0.23203 6:-0.746943 7:-0.979264 
-2 2 1:-0.345042 2:-0.64826 3:-0.775586 4:-0.813014 5:-0.571255 6:-0.845236 7:-0.989321 
-0.4174730491085222 0.6630076179657599 1:-0.00459406 2:0.897448 3:0.784104 4:0.883502 5:0.899028 6:0.254782 7:0.974131 
-2 2 1:0.0822007 2:-0.310725 3:-0.687339 4:-0.756714 5:-0.188102 6:-0.753355 7:-0.980098 
-2 2 1:-0.567377 2:-0.819812 3:-0.845558 4:-0.873269 5:-0.766906 6:-0.890979 7:-0.993637 
0 2 1:-0.0572381 2:-0.228881 3:-0.605356 4:-0.687542 5:-0.137956 6:-0.69619 7:-0.973038 
-2 2 1:-0.570556 2:-0.625455 3:-0.759803 4:-0.805858 5:-0.590124 6:-0.817648 7:-0.984928 
0 2 1:-0.34767 2:-0.194263 3:-0.395481 4:-0.538448 5:-0.157467 6:-0.535098 7:-0.911317 
-2 2 1:-0.194147 2:-0.538617 3:-0.738558 4:-0.79526 5:-0.444663 6:-0.802229 7:-0.984321 
-2 2 1:-0.493891 2:-0.465017 3:-0.758906 4:-0.757236 5:-0.430243 6:-0.760809 7:-0.982254 
-2 2 1:-0.364123 2:-0.49768 3:-0.661143 4:-0.729282 5:-0.437216 6:-0.748588 7:-0.973368 
-2 2 1:0.0341357 2:-0.306802 3:-0.663984 4:-0.72514 5:-0.192979 6:-0.736769 7:-0.976311 
-0.1522728073790516 2 1:-0.141298 2:-0.265209 3:-0.596371 4:-0.660549 5:-0.185893 6:-0.679021 7:-0.965531 
-2 2 1:-0.152188 2:-0.394825 3:-0.616652 4:-0.699486 5:-0.306077 6:-0.697061 7:-0.967488 
-0.830353555345853 0.4098616196275589 1:1 2:0.0180273 3:-0.0268714 4:-0.230489 5:0.273346 6:-0.247705 7:-0.737999 
-2 2 1:-0.274258 2:-0.320352 3:-0.593433 4:-0.630806 5:-0.259601 6:-0.667912 7:-0.972019 
-2 2 1:0.210797 2:-0.466548 3:-0.723365 4:-0.798903 5:-0.307658 6:-0.801117 7:-0.985455 
0 2 1:0.467354 2:-0.23066 3:-0.610813 4:-0.711951 5:-0.047283 6:-0.720501 7:-0.977246 
-2 2 1:-0.536409 2:-0.376175 3:-0.694503 4:-0.708239 5:-0.35666 6:-0.723698 7:-0.973192 
-2 2 1:-0.651953 2:-0.652922 3:-0.771039 4:-0.790675 5:-0.629507 6:-0.8168 7:-0.986066 
0 2 1:-0.198397 2:-0.230423 3:-0.436504 4:-0.546533 5:-0.164198 6:-0.574235 7:-0.932884 
-2 2 1:-0.480436 2:-0.347446 3:-0.560625 4:-0.633891 5:-0.320598 6:-0.663499 7:-0.955955 
-2 2 1:-0.728426 2:-0.475686 3:-0.643047 4:-0.671568 5:-0.481242 6:-0.712905 7:-0.967634 
0 2 1:0.115624 2:-0.164175 3:-0.464018 4:-0.576776 5:-0.0485014 6:-0.582401 7:-0.937599 
-2 2 1:-0.721482 2:-0.79397 3:-0.827378 4:-0.85589 5:-0.770439 6:-0.879416 7:-0.99207 
-2 0 1:-0.3507 2:-0.640637 3:-0.826262 4:-0.837301 5:-0.565295 6:-0.855491 7:-0.991719 
-0.9260460590624827 -1.686037691895013 1:-0.292878 2:0.757765 3:0.608779 4:0.729599 5:0.720853 6:0.820913 7:-0.272607 
-2 -0.3599784381470902 1:-0.505867 2:-0.725397 3:-0.806797 4:-0.836808 5:-0.669935 6:-0.858385 7:-0.990291 
-2 -2 1:-0.571408 2:-0.736508 3:-0.841731 4:-0.848018 5:-0.691604 6:-0.864041 7:-0.991525 
0 -2 1:0.196938 2:-0.293216 3:-0.606955 4:-0.702383 5:-0.151939 6:-0.70777 7:-0.972432 
-1.482537334401483 -2 1:-0.83671 2:-0.34361 3:-0.714521 4:-0.645698 5:-0.37978 6:-0.638215 7:-0.961031 
-1.568415819636273 -2 1:0.300601 2:0.0933268 3:-0.429744 4:-0.581655 5:0.219001 6:-0.566554 7:-0.959256 
-2 -0.7757052409577613 1:-0.812469 2:-0.889903 3:-0.82237 4:-0.841643 5:-0.873982 6:-0.875959 7:-0.991445 
-2 -2 1:-0.359839 2:-0.437195 3:-0.718254 4:-0.740381 5:-0.381272 6:-0.738198 7:-0.97593 
0 -2 1:-0.291679 2:-0.33886 3:-0.541463 4:-0.644156 5:-0.279553 6:-0.664959 7:-0.955375 
-2 0 1:-0.519914 2:-0.663414 3:-0.810615 4:-0.828592 5:-0.615849 6:-0.851746 7:-0.989897 
-2 0 1:-0.501916 2:-0.53803 3:-0.724476 4:-0.759731 5:-0.498276 6:-0.78934 7:-0.981977 
-0.9476556200616758 -1.006934266641027 1:0.687888 2:0.513039 3:1 4:0.636108 5:0.670107 6:0.288102 7:-0.199582 
-2 0 1:-0.560173 2:-0.700071 3:-0.813709 4:-0.820036 5:-0.656381 6:-0.838883 7:-0.989368 
0 -2 1:-0.593053 2:-0.330293 3:-0.482124 4:-0.580094 5:-0.324761 6:-0.626649 7:-0.938569 
-2 0 1:-0.317929 2:-0.564726 3:-0.744608 4:-0.793482 5:-0.490264 6:-0.801743 7:-0.98369 
-2 0 1:0.1719 2:-0.472047 3:-0.795403 4:-0.847993 5:-0.319519 6:-0.843936 7:-0.991046 
-2 -1.741191082168911 1:-0.461235 2:-0.540359 3:-0.805925 4:-0.838175 5:-0.493244 6:-0.818881 7:-0.987727 
0 -2 1:-0.0971417 2:-0.408986 3:-0.65198 4:-0.724493 5:-0.309314 6:-0.744043 7:-0.975705 
-2 -2 1:0.24424 2:0.30737 3:-0.783008 4:-0.830278 5:0.404389 6:-0.808378 7:-0.995637 
-1.182019772262839 -2 1:-0.264055 2:-0.198595 3:-0.450262 4:-0.548578 5:-0.146709 6:-0.580494 7:-0.936145 
-2 0 1:-0.673557 2:-0.62912 3:-0.718863 4:-0.770386 5:-0.61159 6:-0.796447 7:-0.981055 
-2 -2 1:-0.239803 2:-0.385439 3:-0.651712 4:-0.714097 5:-0.312928 6:-0.733575 7:-0.974634 
0 -2 1:-0.395238 2:-0.359578 3:-0.557698 4:-0.621383 5:-0.316679 6:-0.660957 7:-0.957872 
-2 0 1:-0.00937405 2:-0.513588 3:-0.804461 4:-0.836977 5:-0.389316 6:-0.842596 7:-0.990332 
0 -2 1:0.44752 2:-0.215832 3:-0.559363 4:-0.666959 5:-0.0372427 6:-0.693397 7:-0.971377 
-2 0 1:-0.0695296 2:-0.649846 3:-0.857629 4:-0.892806 5:-0.524229 6:-0.890294 7:-0.994317 
-2 -2 1:-0.344941 2:-0.448398 3:-0.700487 4:-0.741017 5:-0.388873 6:-0.761628 7:-0.978628 
-2 0 1:-0.600897 2:-0.566157 3:-0.745607 4:-0.7645 5:-0.541355 6:-0.789833 7:-0.98228 
-2 0 1:-0.375579 2:-0.577803 3:-0.750657 4:-0.799227 5:-0.512339 6:-0.826386 7:-0.986994 
-0.9121784802251778 -2 1:-0.0064974 2:-0.151091 3:-0.248264 4:-0.460062 5:-0.0580491 6:-0.475019 7:-0.864286 
0 -1.347426317742659 1:0.614828 2:-0.273961 3:-0.695325 4:-0.766653 5:-0.0608466 6:-0.773151 7:-0.985115 
-2 -0.8953581091036285 1:-0.342031 2:-0.758985 3:-0.883096 4:-0.900922 5:-0.671757 6:-0.909631 7:-0.99558 
-2 0 1:-0.282253 2:-0.593892 3:-0.754761 4:-0.806201 5:-0.5106 6:-0.820912 7:-0.985531 
-2 -1.569436530091757 1:-0.81253 2:-0.736533 3:-0.776155 4:-0.804254 5:-0.734049 6:-0.833306 7:-0.985172 
-2 0 1:-0.111428 2:-0.774594 3:-0.878847 4:-0.904462 5:-0.645428 6:-0.905363 7:-0.995229 
-2 0 1:0.227033 2:-0.63984 3:-0.840524 4:-0.879532 5:-0.462922 6:-0.877517 7:-0.993533 
-2 -2 1:-0.11472 2:-0.418146 3:-0.706401 4:-0.76212 5:-0.320765 6:-0.781582 7:-0.982614 
-2 -1.339304040263403 1:-0.541732 2:-0.523698 3:-0.746522 4:-0.754009 5:-0.492204 6:-0.779164 7:-0.982423 
-2 -1.692973443355794 1:-0.0894706 2:-0.459223 3:-0.771553 4:-0.804769 5:-0.353803 6:-0.818397 7:-0.988461 
-2 -2 1:-0.202457 2:-0.448581 3:-0.712278 4:-0.753608 5:-0.363972 6:-0.750846 7:-0.976634 
-0.3641656426319139 -1.201350321000566 1:0.637769 2:0.111024 3:-0.613998 4:-0.522178 5:0.29447 6:-0.425784 7:-0.938569 
-2 0 1:-0.846671 2:-0.863567 3:-0.850534 4:-0.829296 5:-0.855969 6:-0.840989 7:-0.990352 
-0.5986727048069239 0 1:0.846978 2:-0.221322 3:-0.814968 4:-0.863307 5:0.0280278 6:-0.862326 7:-0.994977 
-2 0 1:-0.0451586 2:-0.591402 3:-0.800209 4:-0.848303 5:-0.466614 6:-0.853952 7:-0.99104 
-0.06913496025733265 -2 1:0.321456 2:-0.147649 3:-0.242808 4:-0.43442 5:0.00279114 6:-0.486188 7:-0.889099 
-2 0 1:-0.607912 2:-0.565426 3:-0.716217 4:-0.747193 5:-0.541922 6:-0.774937 7:-0.981115 
-2 0 1:0.157385 2:-0.644782 3:-0.87256 4:-0.903448 5:-0.479685 6:-0.911736 7:-0.99621 
-2 -2 1:-0.68738 2:-0.872359 3:-0.874934 4:-0.873299 5:-0.835966 6:-0.904958 7:-0.99476 
-2 -0.8791313090943616 1:-0.657716 2:-0.674195 3:-0.813666 4:-0.797528 5:-0.649931 6:-0.806066 7:-0.987016 
-2 0 1:-0.412874 2:-0.696361 3:-0.830163 4:-0.852465 5:-0.627079 6:-0.867809 7:-0.992107 
-1.669289493093916 -2 1:0.0319562 2:-0.370152 3:-0.670427 4:-0.736702 5:-0.251167 6:-0.756896 7:-0.98002 
-2 0 1:-0.453047 2:-0.530804 3:-0.72649 4:-0.757801 5:-0.483084 6:-0.793671 7:-0.983258 
-0.6894850960077957 -1.38589489049829 1:-0.294564 2:-0.466448 3:-0.661354 4:-0.728568 5:-0.39648 6:-0.75002 7:-0.975802 
0 -2 1:-0.429492 2:-0.302851 3:-0.5052 4:-0.606935 5:-0.270944 6:-0.624982 7:-0.943727 
-2 0 1:-0.443475 2:-0.636179 3:-0.759713 4:-0.798026 5:-0.57755 6:-0.827111 7:-0.987451 
-2 -2 1:-0.122902 2:-0.418026 3:-0.724454 4:-0.771939 5:-0.322095 6:-0.788011 7:-0.983751 
-2 -2 1:-0.139642 2:-0.41056 3:-0.670044 4:-0.731904 5:-0.318228 6:-0.736584 7:-0.976092 
0 -2 1:-0.00749141 2:-0.42317 3:-0.500105 4:-0.556343 5:-0.306483 6:-0.611232 7:-0.935628 
-2 0 1:-0.270539 2:-0.576334 3:-0.775168 4:-0.818424 5:-0.492519 6:-0.836032 7:-0.988661 
-2 -2 1:-0.267409 2:-0.263788 3:-0.579904 4:-0.625117 5:-0.206784 6:-0.655337 7:-0.959807 
-2 0 1:-0.535069 2:-0.650668 3:-0.761731 4:-0.802629 5:-0.606885 6:-0.822573 7:-0.985284 
-2 -2 1:-0.627248 2:-0.762306 3:-0.811835 4:-0.820953 5:-0.724968 6:-0.843586 7:-0.990405 
0 -2 1:0.14495 2:-0.43796 3:-0.69275 4:-0.774175 5:-0.293158 6:-0.781493 7:-0.983062 
-2 0 1:-0.533015 2:-0.621581 3:-0.773432 4:-0.779424 5:-0.579983 6:-0.80656 7:-0.986233 
-2 0 1:-0.510839 2:-0.558595 3:-0.713482 4:-0.755874 5:-0.51861 6:-0.789049 7:-0.981612 
-2 0 1:-0.411579 2:-0.566035 3:-0.67824 4:-0.746617 5:-0.507935 6:-0.787978 7:-0.980714 
-2 -2 1:-0.184033 2:-0.349576 3:-0.664284 4:-0.713679 5:-0.270393 6:-0.736146 7:-0.97641 
-2 0 1:-0.804902 2:-0.871189 3:-0.850227 4:-0.85002 5:-0.855575 6:-0.867406 7:-0.992142 
-2 0 1:-0.5461 2:-0.528996 3:-0.688001 4:-0.732887 5:-0.497807 6:-0.764123 7:-0.97731 
0 -2 1:0.163083 2:-0.417686 3:-0.731104 4:-0.792042 5:-0.271469 6:-0.797696 7:-0.985822 
-2 -2 1:-0.561309 2:-0.508924 3:-0.70142 4:-0.727429 5:-0.482168 6:-0.759568 7:-0.97852 
