svm_type c_svc
kernel_type rbf
gamma 2
nr_class 3
total_sv 168
rho 1.87158 -0.275529 1.13014
label 3 2 1
nr_sv 41 67 60
SV
19.72833222893453 0.5328607338742792 1:0.0749344 2:0.0479904 3:-0.370829 4:-0.456202 5:0.130158 6:-0.508455 7:-0.944192 
0 7.949154433534548 1:0.18448 2:-0.0191788 3:-0.737599 4:-0.770361 5:0.0875944 6:-0.759899 7:-0.989462 
8.906414704088723 0 1:0.782508 2:0.157556 3:-0.0788066 4:-0.304835 5:0.355516 6:-0.318219 7:-0.848178 
12.62701288800595 128 1:-0.372178 2:-0.29013 3:-0.720832 4:-0.727151 5:-0.259786 6:-0.720162 7:-0.97512 
128 128 1:-0.1952 2:-0.492164 3:-0.743743 4:-0.787647 5:-0.414644 6:-0.81034 7:-0.985659 
0 103.7253613488058 1:-0.200586 2:-0.211799 3:-0.765375 4:-0.735146 5:-0.157483 6:-0.705309 7:-0.97794 
88.00570165927525 0 1:0.267047 2:-0.127569 3:-0.489629 4:-0.593948 5:0.00233481 6:-0.610606 7:-0.951502 
128 128 1:-0.546471 2:-0.446152 3:-0.7137 4:-0.736876 5:-0.434087 6:-0.752192 7:-0.976618 
3.019947878204748 0.6955046046839216 1:0.181898 2:0.766876 3:0.78503 4:0.892604 5:0.810795 6:1 7:-0.0230808 
128 128 1:-0.217457 2:-0.405145 3:-0.70698 4:-0.766774 5:-0.338449 6:-0.787926 7:-0.983777 
1.447966105123125 0.3693288938587498 1:0.0374569 2:1 3:0.821324 4:1 5:1 6:0.324676 7:1 
70.69275293832054 0 1:-0.257747 2:-0.190019 3:-0.405497 4:-0.534902 5:-0.147489 6:-0.558259 7:-0.919908 
2.234712466757893 0.1710819847396082 1:0.723935 2:0.366859 3:-0.0956507 4:-0.341365 5:0.537898 6:-0.360553 7:-0.93095 
128 128 1:0.0166167 2:-0.334284 3:-0.687426 4:-0.740338 5:-0.23203 6:-0.746928 7:-0.979264 
1.430904777614653 0.3577519305119317 1:-0.00459406 2:0.898358 3:0.784104 4:0.883502 5:0.899028 6:0.254788 7:0.974131 
128 128 1:-0.567377 2:-0.803674 3:-0.845558 4:-0.873269 5:-0.766906 6:-0.890963 7:-0.993637 
0 128 1:-0.0572381 2:-0.217983 3:-0.605356 4:-0.687542 5:-0.137956 6:-0.696176 7:-0.973038 
128 128 1:0.0911166 2:-0.364199 3:-0.710383 4:-0.774935 5:-0.246463 6:-0.770848 7:-0.982958 
0 67.40213672361308 1:-0.0342246 2:-0.0992333 3:-0.352895 4:-0.4774 5:-0.0245838 6:-0.497208 7:-0.911648 
25.39647742564247 0.09142880777400042 1:0.222038 2:-0.255219 3:-0.67454 4:-0.747928 5:-0.1231 6:-0.758815 7:-0.983154 
0 28.28781183735512 1:-0.163078 2:-0.180379 3:-0.533267 4:-0.601641 5:-0.121958 6:-0.597644 7:-0.949429 
128 128 1:-0.570556 2:-0.611041 3:-0.759803 4:-0.805858 5:-0.590124 6:-0.817632 7:-0.984928 
128 128 1:0.106406 2:-0.530207 3:-0.783734 4:-0.833608 5:-0.396603 6:-0.842138 7:-0.99012 
128 128 1:0.0341357 2:-0.295213 3:-0.663984 4:-0.72514 5:-0.192979 6:-0.736754 7:-0.976311 
128 128 1:-0.837176 2:-0.667356 3:-0.814873 4:-0.78893 5:-0.688877 6:-0.80378 7:-0.985401 
128 128 1:-0.152188 2:-0.382456 3:-0.616652 4:-0.699486 5:-0.306077 6:-0.697046 7:-0.967488 
0 0.04102561929714042 1:1 2:0.0267354 3:-0.0268714 4:-0.230489 5:0.273346 6:-0.247695 7:-0.737999 
0 45.99118716255691 1:-0.248128 2:-0.200118 3:-0.482094 4:-0.566574 5:-0.155094 6:-0.578756 7:-0.938672 
128 128 1:-0.274258 2:-0.308643 3:-0.593433 4:-0.630806 5:-0.259601 6:-0.667897 7:-0.972019 
128 112.0136262376798 1:0.0727999 2:-0.395402 3:-0.639173 4:-0.728114 5:-0.278412 6:-0.739928 7:-0.973366 
128 50.8465462360958 1:0.210797 2:-0.453542 3:-0.723365 4:-0.798903 5:-0.307658 6:-0.801102 7:-0.985455 
128 0 1:0.467354 2:-0.219746 3:-0.610813 4:-0.711951 5:-0.047283 6:-0.720487 7:-0.977246 
128 128 1:-0.536409 2:-0.363971 3:-0.694503 4:-0.708239 5:-0.35666 6:-0.723683 7:-0.973192 
128 128 1:-0.651953 2:-0.638264 3:-0.771039 4:-0.790675 5:-0.629507 6:-0.816784 7:-0.986066 
128 0 1:0.17817 2:-0.351931 3:-0.634836 4:-0.716714 5:-0.219853 6:-0.724785 7:-0.974207 
128 128 1:-0.480436 2:-0.335497 3:-0.560625 4:-0.633891 5:-0.320598 6:-0.663485 7:-0.955955 
128 0 1:-0.728426 2:-0.4626 3:-0.643047 4:-0.671568 5:-0.481242 6:-0.712891 7:-0.967634 
128 128 1:-0.438307 2:-0.550331 3:-0.766045 4:-0.795001 5:-0.510966 6:-0.820949 7:-0.987025 
2.692840635258183 57.22142874292244 1:0.115624 2:-0.153851 3:-0.464018 4:-0.576776 5:-0.0485014 6:-0.582387 7:-0.937599 
128 8.387369016651697 1:-0.437132 2:-0.284688 3:-0.514865 4:-0.604588 5:-0.266203 6:-0.642216 7:-0.950526 
128 128 1:-0.721482 2:-0.778061 3:-0.827378 4:-0.85589 5:-0.770439 6:-0.8794 7:-0.99207 
-5.817066255403322 0 1:0.848487 2:-0.0936709 3:-0.559422 4:-0.671041 5:0.135841 6:-0.688353 7:-0.974867 
0 128 1:-0.3507 2:-0.626088 3:-0.826262 4:-0.837301 5:-0.565295 6:-0.855476 7:-0.991719 
-0.5658045623067102 2.024017137458751 1:-0.292878 2:0.759913 3:0.608779 4:0.729599 5:0.720853 6:0.820914 7:-0.272607 
-39.39856871418803 128 1:-0.571408 2:-0.721109 3:-0.841731 4:-0.848018 5:-0.691604 6:-0.864025 7:-0.991525 
-128 104.3329168503362 1:0.196938 2:-0.281748 3:-0.606955 4:-0.702383 5:-0.151939 6:-0.707755 7:-0.972432 
-73.98744928491122 26.0930538869941 1:-0.83671 2:-0.331695 3:-0.714521 4:-0.645698 5:-0.37978 6:-0.638201 7:-0.961031 
-77.69899192036822 0 1:0.299439 2:-0.139064 3:-0.394879 4:-0.529194 5:-0.00254796 6:-0.553658 7:-0.934065 
-32.34466691107072 14.27217711912221 1:0.300601 2:0.101367 3:-0.429744 4:-0.581655 5:0.219001 6:-0.56654 7:-0.959256 
0 128 1:-0.812469 2:-0.873144 3:-0.82237 4:-0.841643 5:-0.873982 6:-0.875943 7:-0.991445 
-128 128 1:-0.599339 2:-0.622603 3:-0.813758 4:-0.811754 5:-0.605832 6:-0.828897 7:-0.988341 
-128 128 1:-0.291679 2:-0.326987 3:-0.541463 4:-0.644156 5:-0.279553 6:-0.664944 7:-0.955375 
0 128 1:-0.519914 2:-0.648663 3:-0.810615 4:-0.828592 5:-0.615849 6:-0.851731 7:-0.989897 
0 128 1:-0.501916 2:-0.52439 3:-0.724476 4:-0.759731 5:-0.498276 6:-0.789325 7:-0.981977 
0 2.022833479345851 1:0.687888 2:0.517357 3:1 4:0.636108 5:0.670107 6:0.288108 7:-0.199582 
0 128 1:-0.560173 2:-0.684995 3:-0.813709 4:-0.820036 5:-0.656381 6:-0.838868 7:-0.989368 
-89.70237430059538 0 1:-0.593053 2:-0.318496 3:-0.482124 4:-0.580094 5:-0.324761 6:-0.626635 7:-0.938569 
0 128 1:-0.317929 2:-0.55085 3:-0.744608 4:-0.793482 5:-0.490264 6:-0.801728 7:-0.98369 
-128 64.77716612365923 1:0.308275 2:-0.396489 3:-0.717299 4:-0.790165 5:-0.237983 6:-0.795412 7:-0.98598 
-58.18992206704398 128 1:0.1719 2:-0.458993 3:-0.795403 4:-0.847993 5:-0.319519 6:-0.84392 7:-0.991046 
-71.48094192929729 128 1:-0.461235 2:-0.526699 3:-0.805925 4:-0.838175 5:-0.493244 6:-0.818865 7:-0.987727 
-128 0 1:-0.0971417 2:-0.396491 3:-0.65198 4:-0.724493 5:-0.309314 6:-0.744028 7:-0.975705 
-6.010819808134741 10.820911604254 1:-0.505362 2:-0.462269 3:-0.676677 4:-0.72457 5:-0.441692 6:-0.752114 7:-0.975573 
0 3.821614095353037 1:0.24424 2:0.313512 3:-0.783008 4:-0.830278 5:0.404389 6:-0.808363 7:-0.995637 
-123.3499818717671 37.88582881864784 1:-0.673557 2:-0.614673 3:-0.718863 4:-0.770386 5:-0.61159 6:-0.796431 7:-0.981055 
-128 0 1:0.27143 2:-0.305205 3:-0.599832 4:-0.706508 5:-0.160428 6:-0.714344 7:-0.972836 
-128 128 1:-0.239803 2:-0.373153 3:-0.651712 4:-0.714097 5:-0.312928 6:-0.73356 7:-0.974634 
0 128 1:-0.00937405 2:-0.500165 3:-0.804461 4:-0.836977 5:-0.389316 6:-0.84258 7:-0.990332 
-128 128 1:-0.0302583 2:-0.412794 3:-0.730383 4:-0.773849 5:-0.312555 6:-0.796304 7:-0.98598 
0 128 1:-0.0695296 2:-0.635215 3:-0.857629 4:-0.892806 5:-0.524229 6:-0.890278 7:-0.994317 
0 128 1:-0.344941 2:-0.435554 3:-0.700487 4:-0.741017 5:-0.388873 6:-0.761613 7:-0.978628 
-128 128 1:-0.600897 2:-0.552269 3:-0.745607 4:-0.7645 5:-0.541355 6:-0.789818 7:-0.98228 
0 128 1:-0.375579 2:-0.563811 3:-0.750657 4:-0.799227 5:-0.512339 6:-0.826371 7:-0.986994 
-6.181636519267824 37.14204882961001 1:-0.0064974 2:-0.140883 3:-0.248264 4:-0.460062 5:-0.0580491 6:-0.475006 7:-0.864286 
0 128 1:-0.342031 2:-0.743386 3:-0.883096 4:-0.900922 5:-0.671757 6:-0.909615 7:-0.99558 
-128 128 1:-0.668703 2:-0.839922 3:-0.856883 4:-0.877034 5:-0.818103 6:-0.891386 7:-0.993619 
-128 128 1:-0.81253 2:-0.721133 3:-0.776155 4:-0.804254 5:-0.734049 6:-0.833291 7:-0.985172 
-21.41865989644758 128 1:-0.111428 2:-0.758857 3:-0.878847 4:-0.904462 5:-0.645428 6:-0.905347 7:-0.995229 
-10.03068093256939 11.27384907413775 1:0.227033 2:-0.625298 3:-0.840524 4:-0.879532 5:-0.462922 6:-0.877501 7:-0.993533 
-128 128 1:-0.11472 2:-0.40557 3:-0.706401 4:-0.76212 5:-0.320765 6:-0.781567 7:-0.982614 
-128 128 1:-0.541732 2:-0.510186 3:-0.746522 4:-0.754009 5:-0.492204 6:-0.779149 7:-0.982423 
0 128 1:-0.202457 2:-0.435735 3:-0.712278 4:-0.753608 5:-0.363972 6:-0.750831 7:-0.976634 
-1.474736220797091 0 1:0.637769 2:0.118908 3:-0.613998 4:-0.522178 5:0.29447 6:-0.425772 7:-0.938569 
0 128 1:-0.846671 2:-0.847041 3:-0.850534 4:-0.829296 5:-0.855969 6:-0.840973 7:-0.990352 
0 2.529801626684396 1:0.846978 2:-0.210492 3:-0.814968 4:-0.863307 5:0.0280278 6:-0.86231 7:-0.994977 
-61.77856307985766 0 1:-0.0451586 2:-0.577289 3:-0.800209 4:-0.848303 5:-0.466614 6:-0.853936 7:-0.99104 
0 128 1:0.157385 2:-0.630196 3:-0.87256 4:-0.903448 5:-0.479685 6:-0.91172 7:-0.99621 
-18.01526708920912 128 1:-0.68738 2:-0.855755 3:-0.874934 4:-0.873299 5:-0.835966 6:-0.904942 7:-0.99476 
0 128 1:-0.412874 2:-0.681318 3:-0.830163 4:-0.852465 5:-0.627079 6:-0.867793 7:-0.992107 
-128 128 1:-0.0511132 2:-0.283344 3:-0.671107 4:-0.716734 5:-0.19705 6:-0.749596 7:-0.980108 
0 128 1:-0.453047 2:-0.517229 3:-0.72649 4:-0.757801 5:-0.483084 6:-0.793656 7:-0.983258 
0 103.0273566962185 1:-0.294564 2:-0.453444 3:-0.661354 4:-0.728568 5:-0.39648 6:-0.750005 7:-0.975802 
-128 51.63756219258387 1:-0.429492 2:-0.291298 3:-0.5052 4:-0.606935 5:-0.270944 6:-0.624968 7:-0.943727 
0 128 1:-0.343386 2:-0.398432 3:-0.62427 4:-0.698452 5:-0.354425 6:-0.727065 7:-0.97116 
0 128 1:-0.443475 2:-0.621669 3:-0.759713 4:-0.798026 5:-0.57755 6:-0.827095 7:-0.987451 
-128 128 1:-0.139642 2:-0.398051 3:-0.670044 4:-0.731904 5:-0.318228 6:-0.736569 7:-0.976092 
0 39.84099249812197 1:-0.00749141 2:-0.410549 3:-0.500105 4:-0.556343 5:-0.306483 6:-0.611219 7:-0.935628 
0 128 1:-0.270539 2:-0.562355 3:-0.775168 4:-0.818424 5:-0.492519 6:-0.836016 7:-0.988661 
0 128 1:-0.444173 2:-0.499768 3:-0.686103 4:-0.730839 5:-0.465448 6:-0.774289 7:-0.979593 
-128 128 1:-0.267409 2:-0.25258 3:-0.579904 4:-0.625117 5:-0.206784 6:-0.655323 7:-0.959807 
0 128 1:-0.535069 2:-0.636029 3:-0.761731 4:-0.802629 5:-0.606885 6:-0.822558 7:-0.985284 
-128 0 1:0.14495 2:-0.425208 3:-0.69275 4:-0.774175 5:-0.293158 6:-0.781478 7:-0.983062 
-50.73693234399071 0 1:0.503473 2:-0.239931 3:-0.724843 4:-0.789234 5:-0.0595108 6:-0.784079 7:-0.9858 
0 128 1:-0.533015 2:-0.6072 3:-0.773432 4:-0.779424 5:-0.579983 6:-0.806544 7:-0.986233 
0 128 1:-0.504381 2:-0.580364 3:-0.707707 4:-0.764513 5:-0.55024 6:-0.798129 7:-0.981493 
0 128 1:-0.102906 2:-0.441477 3:-0.77287 4:-0.799064 5:-0.351742 6:-0.810552 7:-0.98693 
0 128 1:-0.804902 2:-0.854595 3:-0.850227 4:-0.85002 5:-0.855575 6:-0.86739 7:-0.992142 
-128 128 1:-0.561309 2:-0.495543 3:-0.70142 4:-0.727429 5:-0.482168 6:-0.759553 7:-0.97852 
0 -45.06387010732245 1:-0.011221 2:-0.665886 3:-0.919052 4:-0.937178 5:-0.542206 6:-0.936094 7:-0.997688 
0 -128 1:-0.340387 2:-0.568728 3:-0.797887 4:-0.826601 5:-0.510675 6:-0.841176 7:-0.989466 
0 -128 1:-0.502024 2:-0.524857 3:-0.72823 4:-0.738885 5:-0.498724 6:-0.772091 7:-0.98158 
-128 -128 1:-0.671683 2:-0.617262 3:-0.781073 4:-0.801658 5:-0.613643 6:-0.82219 7:-0.986236 
0 -128 1:-0.689207 2:-0.657631 3:-0.821739 4:-0.799411 5:-0.65389 6:-0.805317 7:-0.986754 
-128 -128 1:0.239718 2:-0.422658 3:-0.764106 4:-0.825455 5:-0.274136 6:-0.825617 7:-0.989639 
-128 -128 1:-0.478685 2:-0.441776 3:-0.614235 4:-0.657139 5:-0.418132 6:-0.699909 7:-0.967672 
-125.7430419099591 -128 1:-0.646646 2:-0.620574 3:-0.820117 4:-0.817672 5:-0.612287 6:-0.836384 7:-0.988747 
0 -128 1:-0.454012 2:-0.482036 3:-0.705945 4:-0.73485 5:-0.450855 6:-0.762174 7:-0.979448 
0 -128 1:-0.337111 2:-0.664261 3:-0.831874 4:-0.864545 5:-0.598047 6:-0.873842 7:-0.992263 
0 -128 1:-0.429275 2:-0.665196 3:-0.833807 4:-0.849842 5:-0.615123 6:-0.869623 7:-0.992033 
0 -128 1:-0.771427 2:-0.752128 3:-0.816262 4:-0.822224 5:-0.755352 6:-0.841177 7:-0.988692 
-128 -128 1:-0.338791 2:-0.340484 3:-0.657763 4:-0.71427 5:-0.300268 6:-0.72851 7:-0.97369 
0 -95.0813968884684 1:-0.372086 2:-0.700185 3:-0.845243 4:-0.856792 5:-0.637273 6:-0.874282 7:-0.992745 
0 -128 1:-0.166577 2:-0.552587 3:-0.804071 4:-0.844543 5:-0.465235 6:-0.848884 7:-0.990642 
-1.8599990929407 -4.662074983088578 1:0.247595 2:0.568828 3:-0.564245 4:-0.658338 5:0.640028 6:-0.632722 7:-0.990484 
0 -128 1:-0.323197 2:-0.513757 3:-0.563763 4:-0.622 5:-0.457042 6:-0.690018 7:-0.960164 
0 -128 1:-0.756869 2:-0.779699 3:-0.829845 4:-0.837598 5:-0.778173 6:-0.856506 7:-0.990807 
-128 -128 1:-0.00639708 2:-0.249981 3:-0.6101 4:-0.67778 5:-0.158468 6:-0.696412 7:-0.970854 
-128 -81.25639466286074 1:-0.134575 2:-0.361968 3:-0.747652 4:-0.769378 5:-0.284117 6:-0.777016 7:-0.983589 
-6.045051030379622 0 1:0.0990038 2:0.107759 3:-0.896198 4:-0.921297 5:0.189417 6:-0.909642 7:-0.998677 
-14.0238888555881 -13.46378523438959 1:-0.457163 2:-0.855262 3:-0.878327 4:-0.889536 5:-0.795008 6:-0.902177 7:-0.995141 
0 -128 1:-0.135412 2:-0.645941 3:-0.865971 4:-0.890565 5:-0.545695 6:-0.898281 7:-0.995001 
-110.6311842973694 -128 1:-0.183759 2:-0.477373 3:-0.700861 4:-0.767495 5:-0.399014 6:-0.785328 7:-0.981615 
0 -128 1:-0.135777 2:-0.468968 3:-0.782444 4:-0.812306 5:-0.382835 6:-0.829699 7:-0.989128 
-128 -128 1:-0.327237 2:-0.307011 3:-0.522361 4:-0.612681 5:-0.26742 6:-0.627119 7:-0.946249 
0 -92.97081496700793 1:-0.423082 2:-0.505919 3:-0.799853 4:-0.811611 5:-0.467401 6:-0.821825 7:-0.988382 
-75.71307226731445 0 1:-0.785094 2:-0.686282 3:-0.852284 4:-0.840855 5:-0.697138 6:-0.850611 7:-0.990347 
0 -128 1:-0.264826 2:-0.502195 3:-0.747577 4:-0.789518 5:-0.436129 6:-0.812428 7:-0.98641 
0 -128 1:-0.409539 2:-0.544104 3:-0.743304 4:-0.78621 5:-0.500171 6:-0.78561 7:-0.980969 
-128 0 1:-0.306908 2:-0.227842 3:-0.684169 4:-0.716694 5:-0.190958 6:-0.722826 7:-0.978595 
-128 0 1:-0.027411 2:-0.171331 3:-0.549947 4:-0.593227 5:-0.0897595 6:-0.60599 7:-0.949121 
-128 -128 1:0.0434315 2:-0.424668 3:-0.701672 4:-0.768712 5:-0.310522 6:-0.775346 7:-0.981113 
0 -128 1:-0.382942 2:-0.527786 3:-0.692562 4:-0.746705 5:-0.480469 6:-0.78542 7:-0.981633 
-128 -103.0051228354977 1:-0.0047439 2:-0.150911 3:-0.429954 4:-0.526823 5:-0.0669724 6:-0.565749 7:-0.929964 
0 -13.52181185019888 1:-1 2:-0.827862 3:-0.748207 4:-0.761434 5:-0.865289 6:-0.796825 7:-0.982314 
-128 -128 1:-0.627117 2:-0.67482 3:-0.777732 4:-0.803431 5:-0.658791 6:-0.831796 7:-0.98728 
0 -112.6715761479543 1:-0.861833 2:-0.854486 3:-0.812779 4:-0.842975 5:-0.86549 6:-0.881794 7:-0.990912 
-73.47006300667673 -128 1:-0.433818 2:-0.427285 3:-0.697123 4:-0.727102 5:-0.396897 6:-0.752562 7:-0.977629 
0 -128 1:-0.437892 2:-0.58329 3:-0.759889 4:-0.790036 5:-0.541235 6:-0.817795 7:-0.985882 
-128 -128 1:0.0477131 2:-0.333793 3:-0.673186 4:-0.746781 5:-0.226107 6:-0.757039 7:-0.980328 
-43.18830488493952 0 1:-0.125077 2:-0.251003 3:-0.747071 4:-0.790048 5:-0.18029 6:-0.805768 7:-0.990439 
-58.65699182733508 -128 1:-0.52051 2:-0.811864 3:-0.852845 4:-0.864957 5:-0.7662 6:-0.887635 7:-0.993798 
0 -41.27939586182777 1:-0.68969 2:-0.896243 3:-0.900313 4:-0.874691 5:-0.873646 6:-0.884723 7:-0.9947 
0 -128 1:-0.433945 2:-0.504312 3:-0.721486 4:-0.76804 5:-0.467832 6:-0.793568 7:-0.982614 
-52.52850647091211 -128 1:-0.0792105 2:-0.667732 3:-0.860508 4:-0.892521 5:-0.555868 6:-0.903282 7:-0.99531 
-128 -82.66011714092652 1:-0.517875 2:-0.348237 3:-0.723212 4:-0.72216 5:-0.338914 6:-0.717533 7:-0.974506 
-53.15436618051147 -83.52126250147856 1:-0.758005 2:-0.88433 3:-0.849712 4:-0.879184 5:-0.874697 6:-0.918681 7:-0.994786 
0 -86.30511049505368 1:0.31813 2:-0.523462 3:-0.866375 4:-0.900303 5:-0.353143 6:-0.901417 7:-0.996074 
-128 -128 1:-0.407497 2:-0.395466 3:-0.669539 4:-0.717398 5:-0.362974 6:-0.73243 7:-0.973447 
-128 -128 1:-0.150933 2:-0.372533 3:-0.721792 4:-0.747579 5:-0.296722 6:-0.760247 7:-0.980284 
0 -128 1:-0.457035 2:-0.668323 3:-0.818679 4:-0.825071 5:-0.622886 6:-0.84548 7:-0.990375 
0 -51.27018143598743 1:0.143917 2:-0.803571 3:-0.942219 4:-0.96411 5:-0.641666 6:-0.965745 7:-0.998965 
-128 -128 1:0.0710906 2:-0.43363 3:-0.679348 4:-0.758949 5:-0.313906 6:-0.767769 7:-0.980604 
0 -128 1:-0.273074 2:-0.4319 3:-0.697937 4:-0.750858 5:-0.372865 6:-0.773773 7:-0.980291 
-69.0705302964633 -128 1:-0.560182 2:-0.69219 3:-0.791025 4:-0.824373 5:-0.663006 6:-0.847398 7:-0.988796 
0 -76.87903967443127 1:-0.84422 2:-0.969438 3:-0.909065 4:-0.885015 5:-0.968218 6:-0.908642 7:-0.995754 
-55.99860419356529 -39.89017524603345 1:-0.868109 2:-0.701565 3:-0.779493 4:-0.74814 5:-0.725813 6:-0.791393 7:-0.983559 
0 -128 1:-0.563577 2:-0.650674 3:-0.756276 4:-0.795201 5:-0.625383 6:-0.824425 7:-0.98599 
0 -128 1:-0.569915 2:-0.733042 3:-0.827065 4:-0.839221 5:-0.702327 6:-0.870789 7:-0.992014 
