svm_type c_svc
kernel_type rbf
gamma 0.00012207
nr_class 3
total_sv 181
rho -3.16088 -5.62474 2.22199
label 1 3 2
nr_sv 59 49 73
SV
32768 32768 1:-0.937512 2:-0.793909 
32768 32768 1:-0.789964 2:-0.604573 
0 32768 1:-0.965957 2:-0.871969 
32768 32768 1:-0.783468 2:-0.592383 
32768 32768 1:-0.816113 2:-0.713886 
32768 32768 1:-0.922658 2:-0.743242 
0 32768 1:-0.925686 2:-0.875003 
32768 32768 1:-0.739155 2:-0.597088 
0 32768 1:-0.939684 2:-0.867134 
0 32768 1:-0.971228 2:-0.892636 
0 32768 1:-0.915886 2:-0.822649 
32768 32768 1:-0.8377 2:-0.575718 
0 32768 1:-0.972083 2:-0.928746 
32768 32768 1:-0.412428 2:0.300249 
32768 32768 1:-0.825378 2:-0.550091 
0 32768 1:-0.933879 2:-0.879404 
0 32768 1:-0.9321 2:-0.829946 
0 32768 1:-0.926582 2:-0.813066 
0 32768 1:-0.966028 2:-0.843358 
0 32768 1:-0.863929 2:-0.80424 
32768 32768 1:-0.929408 2:-0.711939 
32768 32768 1:-0.908184 2:-0.747649 
32768 32768 1:-0.910214 2:-0.739108 
0 32768 1:-0.941167 2:-0.857374 
32768 32768 1:-0.895779 2:-0.740679 
0 32768 1:-0.983551 2:-0.939823 
0 32768 1:-0.957555 2:-0.859527 
0 32768 1:-0.916069 2:-0.840754 
0 13385.56736549351 1:-0.983693 2:-0.950057 
32768 32768 1:-0.828162 2:-0.669181 
32768 32768 1:-0.884156 2:-0.746545 
10822.01106095763 32768 1:-0.921883 2:-0.803668 
32768 32768 1:-0.92916 2:-0.792013 
32768 32768 1:-0.853405 2:-0.618717 
32768 32768 1:-0.933046 2:-0.748258 
0 32768 1:-0.930161 2:-0.816035 
32768 32768 1:-0.949587 2:-0.77076 
32768 32768 1:-0.834296 2:-0.721395 
32768 32768 1:-0.74251 2:-0.611909 
0 32768 1:-0.982773 2:-0.942719 
32768 32768 1:-0.762205 2:-0.664095 
0 32768 1:-0.964448 2:-0.874627 
32768 32768 1:-0.417997 2:-0.287994 
0 32768 1:-0.981935 2:-0.947307 
32768 32768 1:-0.854001 2:-0.639971 
32768 32768 1:-0.895373 2:-0.758372 
32768 32768 1:-0.700099 2:-0.585221 
32768 32768 1:-0.876439 2:-0.608777 
0 32768 1:-0.97632 2:-0.919511 
32768 32768 1:-0.869225 2:-0.535234 
0 32768 1:-0.917511 2:-0.804797 
0 32768 1:-0.910446 2:-0.858995 
32768 32768 1:-0.879523 2:-0.695222 
0 9010.101069094366 1:-0.732474 2:-0.750385 
32768 32768 1:-0.953126 2:-0.766195 
0 32768 1:-0.952725 2:-0.867163 
0 32768 1:-0.941058 2:-0.884092 
0 32768 1:-0.954451 2:-0.883774 
0 32768 1:-0.918165 2:-0.821472 
-0 15769.54947060171 1:-0.511246 2:-0.0674419 
-0 32768 1:-0.848024 2:-0.380688 
-0 32768 1:-0.787054 2:-0.304704 
-0 32768 1:-0.884558 2:-0.40492 
-32768 32768 1:-0.763627 2:-0.515711 
-0 21745.57041956799 1:-0.789065 2:-0.237113 
-0 32768 1:-0.846599 2:-0.372148 
-0 32768 1:-0.636266 2:-0.205979 
-32768 32768 1:-0.660049 2:-0.357581 
-0 32768 1:-0.728822 2:-0.318653 
-32768 32768 1:-0.918783 2:-0.669044 
-32768 32768 1:-0.920801 2:-0.768376 
-32768 32768 1:-0.755 2:-0.441602 
-0 32768 1:-0.813979 2:-0.268828 
-0 32768 1:-0.676149 2:-0.181649 
-0 32768 1:-0.728652 2:-0.282482 
-32768 32768 1:-0.800387 2:-0.753363 
-0 32768 1:-0.780288 2:-0.349875 
-32768 32768 1:-0.878105 2:-0.594056 
-0 32768 1:-0.398897 2:-0.0177071 
-0 32768 1:-0.785789 2:-0.236866 
-32768 32768 1:-0.768986 2:-0.692256 
-32768 32768 1:-0.851967 2:-0.63505 
-32768 32768 1:-0.907984 2:-0.587372 
-32768 32768 1:-0.706077 2:-0.380616 
-32768 32768 1:-0.911184 2:-0.640329 
-32768 32768 1:-0.930875 2:-0.768005 
-16721.61344496399 32768 1:-0.809136 2:-0.40489 
-32768 32768 1:-0.756245 2:-0.594584 
-32768 32768 1:-0.803518 2:-0.635271 
-32768 32768 1:-0.82977 2:-0.435829 
-32768 32768 1:-0.656808 2:-0.355271 
-32768 32768 1:-0.875587 2:-0.7301 
-32768 32768 1:-0.974801 2:-0.868376 
-0 32768 1:-0.800851 2:-0.386821 
-32768 32768 1:-0.60538 2:-0.328011 
-32768 32768 1:-0.945816 2:-0.828481 
-32768 32768 1:-0.907767 2:-0.69889 
-32768 32768 1:-0.926457 2:-0.664533 
-0 32768 1:-0.749401 2:-0.236289 
-0 32768 1:-0.560578 2:-0.109551 
-32768 32768 1:-0.887267 2:-0.480941 
-32768 32768 1:-0.902768 2:-0.49337 
-32768 32768 1:-0.952838 2:-0.850829 
-0 32768 1:-0.872262 2:-0.433909 
-32768 32768 1:-0.907805 2:-0.70421 
-26868.39761599363 32768 1:-0.906677 2:-0.465671 
-32768 32768 1:-0.872188 2:-0.71334 
-32768 32768 1:-0.915859 2:-0.760688 
-0 -32768 1:-0.408345 2:-0.0718346 
-32768 -0 1:-0.908488 2:-0.818491 
-32768 -0 1:-0.932863 2:-0.819536 
-32768 -0 1:-0.95159 2:-0.842034 
-32768 -32768 1:-0.861708 2:-0.593932 
-32768 -0 1:-0.965396 2:-0.879587 
-32768 -32768 1:-0.76629 2:-0.432042 
-0 -32768 1:-0.750331 2:-0.35017 
-32768 -0 1:-0.923103 2:-0.840107 
-0 -32768 1:-0.734885 2:-0.25034 
-32768 -32768 1:-0.906946 2:-0.596492 
-32768 -32768 1:-0.806085 2:-0.520794 
-32768 -32768 1:-0.933652 2:-0.752961 
-32768 -0 1:-0.906965 2:-0.822227 
-0 -32768 1:-0.734111 2:-0.13986 
-32768 -32768 1:-0.906862 2:-0.653107 
-0 -32768 1:-0.384849 2:0.130738 
-32768 -32768 1:-0.880358 2:-0.697595 
-0 -32768 1:-0.640941 2:-0.284634 
-32768 -0 1:-0.878667 2:-0.789805 
-32768 -32768 1:-0.668305 2:-0.487529 
-32768 -32768 1:-0.874531 2:-0.68279 
-32768 -32768 1:-0.886524 2:-0.636088 
-32768 -0 1:-0.94899 2:-0.902808 
-0 -32768 1:-0.845528 2:-0.405002 
-0 -32768 1:-0.732402 2:-0.362159 
-32768 -0 1:-0.957102 2:-0.894046 
-32768 -32768 1:-0.809202 2:-0.610303 
-32768 -0 1:-0.809238 2:-0.831905 
-0 -32768 1:-0.857242 2:-0.472711 
-32768 -32768 1:-0.84216 2:-0.543536 
-32768 -32768 1:-0.919254 2:-0.620198 
-32768 -0 1:-0.995715 2:-0.963828 
-32768 -32768 1:-0.878999 2:-0.710888 
-32768 -32768 1:-0.862478 2:-0.713799 
-32768 -32768 1:-0.862627 2:-0.756784 
-32768 -0 1:-0.973466 2:-0.872345 
-32768 -32768 1:-0.903324 2:-0.597233 
-32768 -0 1:-0.951366 2:-0.859184 
-32768 -0 1:-0.938859 2:-0.887567 
-32768 -32768 1:-0.918665 2:-0.7004 
-0 -32768 1:-0.724932 2:-0.21009 
-0 -32768 1:-0.759983 2:-0.246677 
-32768 -0 1:-0.975257 2:-0.963753 
-32768 -0 1:-0.929369 2:-0.902509 
-32768 -32768 1:-0.920701 2:-0.779348 
-32768 -32768 1:-0.857402 2:-0.689767 
-32768 -32768 1:-0.850132 2:-0.560074 
-32768 -32768 1:-0.885333 2:-0.571236 
-0 -32768 1:-0.516789 2:-0.073296 
-32768 -32768 1:-0.958784 2:-0.804459 
-0 -32768 1:-0.769134 2:-0.246683 
-0 -32768 1:-0.490359 2:0.15242 
-32768 -32768 1:-0.804824 2:-0.630612 
-32768 -0 1:-0.927002 2:-0.935809 
-32768 -0 1:-0.982554 2:-0.84748 
-32768 -32768 1:-0.718694 2:-0.435647 
-32768 -0 1:-0.971119 2:-0.936815 
-32768 -32768 1:-0.87262 2:-0.673368 
-22395.66843458789 -32768 1:-0.853175 2:-0.497428 
-32768 -32768 1:-0.766156 2:-0.445425 
-32768 -32768 1:-0.879422 2:-0.736905 
-32768 -32768 1:-0.871573 2:-0.635619 
-32768 -0 1:-0.949297 2:-0.878988 
-32768 -32768 1:-0.84509 2:-0.627491 
-32768 -4747.119890169715 1:-0.908435 2:-0.794125 
-32768 -0 1:-0.944019 2:-0.851634 
-32768 -32768 1:-0.89984 2:-0.703403 
-32768 -0 1:-0.954532 2:-0.872056 
-0 -32768 1:-0.693988 2:-0.316935 
-32768 -32768 1:-0.919071 2:-0.653351 
-32768 -0 1:-0.858084 2:-0.783488 
-32768 -0 1:-0.939136 2:-0.876315 
