svm_type c_svc
kernel_type rbf
gamma 8
nr_class 3
total_sv 169
rho -3.65492 0.257793 1.49771
label 3 2 1
nr_sv 50 65 54
SV
33.1651211222963 0 1:-0.511246 2:-0.0674419 
352.342496598638 0 1:-0.825927 2:-0.237559 
4.923478489315178 0.1744553023088952 1:-0.1733 2:0.498432 
0 283.3430871343157 1:-0.884558 2:-0.40492 
512 512 1:-0.763627 2:-0.515711 
512 0 1:-0.636266 2:-0.205979 
512 0 1:-0.748251 2:-0.207537 
512 512 1:-0.851166 2:-0.614536 
512 0 1:-0.660049 2:-0.357581 
512 512 1:-0.918783 2:-0.669044 
512 512 1:-0.920801 2:-0.768376 
226.2370038461492 0 1:-0.789813 2:-0.246172 
36.2842605658187 0 1:-0.58128 2:0.239971 
512 512 1:-0.800387 2:-0.753363 
0 9.57819427342508 1:-0.592114 2:0.158135 
512 512 1:-0.878105 2:-0.594056 
512 0 1:-0.738813 2:-0.356554 
512 0 1:-0.398897 2:-0.0177071 
512 0 1:-0.785789 2:-0.236866 
0 512 1:-0.734639 2:-0.707598 
512 512 1:-0.792904 2:-0.614804 
18.74624825683394 0 1:-0.564005 2:0.359318 
512 0 1:-0.710036 2:-0.176973 
512 0 1:-0.706077 2:-0.380616 
512 512 1:-0.911184 2:-0.640329 
0 1.257807288416188 1:1 2:1 
512 512 1:-0.793054 2:-0.444601 
90.3941609761382 0 1:-0.809136 2:-0.40489 
449.0045040743715 512 1:-0.944412 2:-0.734083 
0 7.097043690470636 1:-0.758351 2:-0.0144302 
512 512 1:-0.803518 2:-0.635271 
7.101673569083879 58.23512789335273 1:-0.935516 2:-0.646225 
512 512 1:-0.82977 2:-0.435829 
0 7.672266754469642 1:-0.678638 2:0.294873 
512 0 1:-0.898938 2:-0.559715 
512 512 1:-0.875587 2:-0.7301 
512 512 1:-0.782576 2:-0.485865 
512 512 1:-0.974801 2:-0.868376 
512 124.0250994076656 1:-0.815809 2:-0.412691 
512 14.49537706427066 1:-0.60538 2:-0.328011 
512 512 1:-0.945816 2:-0.828481 
512 512 1:-0.926457 2:-0.664533 
512 512 1:-0.809446 2:-0.63139 
49.56938751933617 0 1:-0.560578 2:-0.109551 
512 512 1:-0.907805 2:-0.70421 
512 512 1:-0.905303 2:-0.593657 
512 512 1:-0.872188 2:-0.71334 
512 512 1:-0.867949 2:-0.607055 
128.7075144423905 0 1:-0.737576 2:-0.0803355 
512 512 1:-0.915859 2:-0.760688 
-420.6827219252295 28.04274244682458 1:-0.408345 2:-0.0718346 
-74.71473933821605 512 1:-0.932863 2:-0.819536 
-35.68813659696081 512 1:-0.965396 2:-0.879587 
-512 220.0479102175809 1:-0.76629 2:-0.432042 
-0 512 1:-0.923103 2:-0.840107 
-512 0 1:-0.734885 2:-0.25034 
-512 0 1:-0.906946 2:-0.596492 
-334.5149241376121 512 1:-0.806085 2:-0.520794 
-512 52.24336508842359 1:-0.835931 2:-0.234207 
-512 512 1:-0.933652 2:-0.752961 
-0 512 1:-0.906965 2:-0.822227 
-512 0 1:-0.734111 2:-0.13986 
-512 512 1:-0.906862 2:-0.653107 
-80.54991070475435 0 1:-0.384849 2:0.130738 
-0 512 1:-0.85008 2:-0.635172 
-512 512 1:-0.880358 2:-0.697595 
-512 0 1:-0.640941 2:-0.284634 
-0 512 1:-0.878667 2:-0.789805 
-0 512 1:-0.817283 2:-0.594681 
-177.8556226191014 328.2256906382802 1:-0.668305 2:-0.487529 
-512 512 1:-0.846465 2:-0.691753 
-512 512 1:-0.874531 2:-0.68279 
-512 0 1:-0.886524 2:-0.636088 
-0 512 1:-0.95696 2:-0.951859 
-512 0 1:-0.732402 2:-0.362159 
-0 512 1:-0.809202 2:-0.610303 
-216.8227117165436 512 1:-0.809238 2:-0.831905 
-512 90.88471361884793 1:-0.84216 2:-0.543536 
-0 512 1:-0.995715 2:-0.963828 
-512 512 1:-0.878999 2:-0.710888 
-512 512 1:-0.862478 2:-0.713799 
-512 0 1:-0.757823 2:-0.327154 
-512 512 1:-0.973466 2:-0.872345 
-512 0 1:-0.903324 2:-0.597233 
-512 512 1:-0.694033 2:-0.520014 
-0 512 1:-0.951366 2:-0.859184 
-0 512 1:-0.938859 2:-0.887567 
-512 0 1:-0.724932 2:-0.21009 
-512 0 1:-0.759983 2:-0.246677 
-0 512 1:-0.975257 2:-0.963753 
-0 512 1:-0.929369 2:-0.902509 
-0 512 1:-0.857402 2:-0.689767 
-14.37606831873591 0 1:-0.850132 2:-0.560074 
-512 0 1:-0.885333 2:-0.571236 
-0 512 1:-0.956 2:-0.926719 
-512 512 1:-0.958784 2:-0.804459 
-118.7038006028279 0 1:-0.490359 2:0.15242 
-512 512 1:-0.804824 2:-0.630612 
-512 0 1:-0.718694 2:-0.435647 
-0 512 1:-0.971119 2:-0.936815 
-46.09804993413248 512 1:-0.834308 2:-0.659437 
-512 512 1:-0.853175 2:-0.497428 
-512 512 1:-0.766156 2:-0.445425 
-512 512 1:-0.90806 2:-0.775564 
-0 512 1:-0.879422 2:-0.736905 
-0 512 1:-0.949297 2:-0.878988 
-512 512 1:-0.892356 2:-0.687942 
-0 512 1:-0.84509 2:-0.627491 
-388.4691635662551 0 1:-0.551985 2:-0.210277 
-0 512 1:-0.908435 2:-0.794125 
-512 512 1:-0.89984 2:-0.703403 
-0 512 1:-0.864826 2:-0.670956 
-512 512 1:-0.874336 2:-0.532035 
-0 512 1:-0.858084 2:-0.783488 
-0 512 1:-0.939136 2:-0.876315 
-512 -512 1:-0.789964 2:-0.604573 
-25.16557474465563 -13.78778317807531 1:-0.724422 2:0.100639 
-512 -512 1:-0.783468 2:-0.592383 
-360.0082145020112 -512 1:-0.816113 2:-0.713886 
-512 -512 1:-0.91139 2:-0.738033 
-512 -512 1:-0.922658 2:-0.743242 
-512 -512 1:-0.812112 2:-0.519346 
-0 -512 1:-0.925686 2:-0.875003 
-512 -512 1:-0.729365 2:-0.440013 
-201.436482979676 -512 1:-0.94408 2:-0.930017 
-0 -512 1:-0.876472 2:-0.769401 
-0 -508.3839784997987 1:-0.739155 2:-0.597088 
-0 -512 1:-0.902568 2:-0.818501 
-0 -512 1:-0.915886 2:-0.822649 
-0 -512 1:-0.920618 2:-0.878425 
-512 -512 1:-0.8377 2:-0.575718 
-0 -182.1164168406413 1:-0.972083 2:-0.928746 
-512 -512 1:-0.825378 2:-0.550091 
-0 -512 1:-0.933879 2:-0.879404 
-512 -512 1:-0.918623 2:-0.727572 
-0 -512 1:-0.863929 2:-0.80424 
-512 -512 1:-0.929408 2:-0.711939 
-512 -512 1:-0.910214 2:-0.739108 
-0 -512 1:-0.895779 2:-0.740679 
-134.1324080241007 -512 1:-0.983551 2:-0.939823 
-512 -512 1:-0.896073 2:-0.636604 
-0 -512 1:-0.916069 2:-0.840754 
-3.263884811204717 -512 1:-0.983693 2:-0.950057 
-512 -512 1:-0.82079 2:-0.427085 
-512 -512 1:-0.828162 2:-0.669181 
-0 -512 1:-0.921883 2:-0.803668 
-0 -433.6212869647796 1:-0.956843 2:-0.949542 
-0 -512 1:-0.92916 2:-0.792013 
-512 -512 1:-0.933046 2:-0.748258 
-0 -8.488808606790888 1:-0.930161 2:-0.816035 
-512 -159.4846751225449 1:-0.949587 2:-0.77076 
-0 -512 1:-0.834296 2:-0.721395 
-0 -512 1:-0.731432 2:-0.545201 
-0 -512 1:-0.982773 2:-0.942719 
-108.6068496138842 -0 1:-0.762205 2:-0.664095 
-0 -357.0484812995435 1:-0.9838 2:-0.951609 
-0 -63.12412669059255 1:-0.417997 2:-0.287994 
-512 -17.38886480719092 1:-0.89871 2:-0.428605 
-0 -512 1:-0.981935 2:-0.947307 
-512 -512 1:-0.854001 2:-0.639971 
-0 -512 1:-0.895373 2:-0.758372 
-512 -512 1:-0.876439 2:-0.608777 
-512 -512 1:-0.869225 2:-0.535234 
-185.2650441331631 -512 1:-0.834511 2:-0.698658 
-0 -512 1:-0.910446 2:-0.858995 
-512 -512 1:-0.879523 2:-0.695222 
-512 -0 1:-0.732474 2:-0.750385 
-512 -0 1:-0.953126 2:-0.766195 
-0 -512 1:-0.918165 2:-0.821472 
