svm_type c_svc
kernel_type rbf
gamma 0.5
nr_class 3
total_sv 137
rho -2.16309 12.5743 17.1087
label 2 1 3
nr_sv 54 55 28
SV
8192 0 1:-0.765897 2:-0.724104 
8192 0 1:-0.458017 2:-0.415273 
8192 0 1:-0.773933 2:-0.531759 
8192 0 1:-0.555939 2:-0.11608 
8192 4148.399539273669 1:-0.761342 2:-0.44135 
8192 0 1:-0.686751 2:-0.395559 
8192 0 1:-0.488855 2:0.0831311 
0 8192 1:-0.118597 2:0.116847 
8192 8192 1:-0.28664 2:0.0813627 
8192 0 1:-0.675029 2:-0.490262 
8192 0 1:-0.723822 2:-0.619418 
665.8048859717697 8192 1:-0.196635 2:0.174287 
8192 8192 1:-0.386865 2:-0.217075 
8192 0 1:-0.326311 2:0.182561 
8192 0 1:-0.607916 2:-0.398165 
8192 0 1:-0.601609 2:-0.461427 
8192 8192 1:-0.1743 2:-0.0233102 
8192 8192 1:-0.325421 2:-0.04327 
8192 0 1:-0.5211 2:-0.33968 
8192 0 1:-0.726222 2:-0.580041 
8192 8192 1:-0.250469 2:0.15517 
1336.87375264891 8017.105519422875 1:0.136334 2:0.566725 
8192 8192 1:-0.423249 2:-0.169489 
8192 0 1:-0.862988 2:-0.685565 
8192 0 1:-0.629938 2:-0.329222 
8192 8192 1:-0.20318 2:0.265833 
8192 3571.846531504129 1:-0.469705 2:-0.311076 
2279.503091724742 5072.146848934195 1:-0.0816758 2:0.406871 
8192 0 1:-0.712037 2:-0.485006 
8192 0 1:-0.617616 2:-0.67991 
0 8192 1:0.527512 2:0.687724 
8192 0 1:-0.506565 2:-0.353371 
8192 8192 1:-0.384 2:-0.0628779 
8192 0 1:-0.302541 2:0.2243 
0 8192 1:-0.0551901 2:0.364819 
8192 1016.546440254319 1:-0.743014 2:-0.361597 
8192 8192 1:-0.200664 2:0.283957 
8192 8192 1:-0.207284 2:0.0947852 
0 8192 1:0.11279 2:0.0879991 
8192 8192 1:-0.324537 2:-0.165351 
8192 8192 1:-0.297633 2:-0.043835 
8192 5487.97968361335 1:-0.190013 2:0.600269 
8192 0 1:-0.507666 2:0.0439996 
8192 0 1:-0.626294 2:-0.412966 
8192 0 1:-0.880002 2:-0.751648 
8192 8192 1:0.14369 2:0.575502 
8192 0 1:-0.795168 2:-0.629814 
8192 49.32813669663387 1:-0.4389 2:-0.090172 
8192 8192 1:-0.231024 2:0.14661 
8192 0 1:-0.411813 2:-0.00137883 
8192 0 1:-0.503255 2:-0.200616 
8192 8192 1:-0.358496 2:0.074762 
8192 0 1:-0.472563 2:-0.336934 
8192 0 1:-0.584532 2:-0.331959 
-5729.734947483353 0 1:-0.464557 2:0.327134 
-8192 0 1:-0.909655 2:-0.628802 
-8192 8192 1:-0.222668 2:0.360499 
-8192 0 1:-0.757821 2:-0.518988 
-8192 8192 1:-0.0445455 2:0.354668 
-6333.676455727858 0 1:-0.749913 2:-0.566443 
-8192 0 1:-0.394356 2:-0.256478 
-8192 8192 1:-0.0691805 2:0.347421 
-633.6353665733784 0 1:-0.700609 2:-0.636729 
-6299.158460084442 8192 1:0.10548 2:0.694696 
-8192 0 1:-0.700671 2:-0.721017 
-8192 0 1:-0.749073 2:-0.648667 
-8192 0 1:-0.522946 2:-0.23097 
-8192 0 1:-0.598843 2:-0.277331 
-5071.690231358662 0 1:-0.763158 2:-0.659805 
-1339.417182359979 0 1:-0.496668 2:-0.325401 
-8192 0 1:-0.662978 2:-0.654568 
-8192 8192 1:-0.112954 2:0.148679 
-8192 8192 1:-0.308691 2:0.239902 
-8192 8192 1:-0.242788 2:0.269653 
-122.9500933959485 0 1:-0.370357 2:-0.30225 
-95.30908729634012 0 1:-0.467705 2:-0.321816 
-6157.287591779423 0 1:-0.615639 2:-0.332724 
-8192 0 1:-0.475052 2:-0.132149 
-8192 0 1:-0.781718 2:-0.598829 
-8192 8192 1:-0.384817 2:0.0539031 
-5267.322314285992 0 1:-0.809109 2:-0.645369 
-8192 7494.151454484429 1:-0.384966 2:-0.217398 
-8192 8192 1:-0.301322 2:-0.0837219 
-0 7114.272008003977 1:-0.703516 2:-0.408928 
-8192 0 1:-0.521559 2:-0.224572 
-8192 8192 1:-0.374415 2:-0.0870525 
-8192 0 1:-0.480282 2:-0.203446 
-0 83.48467797059764 1:-0.222486 2:0.55835 
-8192 0 1:-0.78025 2:-0.611132 
-8192 8192 1:-0.33839 2:-0.0830597 
-8192 1971.597382279562 1:-0.616807 2:-0.188838 
-8192 0 1:-0.550656 2:-0.212398 
-8192 0 1:-0.580444 2:-0.267039 
-8192 4836.397760044152 1:-0.300862 2:0.293669 
-8192 0 1:-0.56647 2:-0.313702 
-8192 0 1:-0.414163 2:0.0916489 
-8192 0 1:-0.778914 2:-0.594133 
-8192 0 1:-0.569233 2:-0.31281 
-8192 0 1:-0.554181 2:-0.323877 
-8192 8192 1:-0.31956 2:-0.221808 
-8192 0 1:-0.471247 2:-0.0892313 
-8192 0 1:-0.422547 2:-0.306383 
-8192 0 1:-0.772454 2:-0.551399 
-8192 0 1:-0.681646 2:-0.654218 
-8192 0 1:-0.489008 2:-0.28563 
-8192 8192 1:-0.233086 2:-0.0676666 
-8192 8192 1:-0.35737 2:-0.146565 
-8192 8192 1:-0.15432 2:0.322226 
-8192 0 1:-0.479432 2:-0.076231 
-8192 -8192 1:-0.378127 2:-0.0618807 
-8192 -8192 1:-0.146548 2:0.612723 
-8192 -8192 1:-0.514089 2:-0.136423 
-8192 -8192 1:-0.424154 2:-0.0526948 
-8192 -8192 1:-0.474424 2:-0.291757 
-8192 -8192 1:-0.154576 2:0.31152 
-5015.438746719289 -0 1:0.553617 2:0.720209 
-8192 -0 1:-0.146067 2:0.0471944 
-8192 -8192 1:-0.179227 2:0.239132 
-8192 -2851.386240845762 1:-0.0729456 2:0.302841 
-8192 -8192 1:-0.145407 2:0.223594 
-8192 -8192 1:-0.603903 2:-0.36114 
-8192 -0 1:0.0648125 2:0.114649 
-8192 -8192 1:-0.290742 2:0.00810941 
-8192 -0 1:-0.17232 2:0.0260054 
-126.7806361199797 -0 1:0.246906 2:0.0643569 
-8192 -8192 1:-0.0227546 2:0.414887 
-0 -1250.883133410925 1:0.427247 2:0.996228 
-2305.758932309421 -8192 1:-0.184943 2:-0.231736 
-8192 -8192 1:-0.210433 2:0.197722 
-8192 -360.2766353344379 1:-0.180528 2:-0.00815402 
-8192 -8192 1:-0.368765 2:-0.0784177 
-8192 -8192 1:-0.161854 2:0.153968 
-8192 -8192 1:-0.107532 2:0.395813 
-3531.37438455049 -0 1:-0.131816 2:-0.0344786 
-0 -430.3894714853948 1:-0.143997 2:-0.317715 
-8192 -222.9678017061662 1:0.396564 2:0.695859 
-8192 -8192 1:-0.303206 2:0.0891024 
