svm_type c_svc
kernel_type rbf
gamma 0.03125
nr_class 3
total_sv 160
rho 16.6047 22.292 20.8905
label 3 2 1
nr_sv 41 61 58
SV
512 512 1:-0.802771 2:-0.851205 
512 0 1:-0.198829 2:-0.316384 
512 512 1:-0.158718 2:-0.600633 
512 0 1:-0.372793 2:-0.294823 
512 512 1:-0.59242 2:-0.545407 
512 0 1:0.0932476 2:-0.409344 
512 512 1:0.0333971 2:-0.429171 
512 139.0708608081856 1:0.346952 2:-0.394846 
512 512 1:-0.256535 2:-0.54818 
512 512 1:-0.424343 2:-0.624913 
512 512 1:-0.543272 2:-0.364808 
512 512 1:0.113814 2:-0.518354 
512 0 1:0.183636 2:-0.216541 
512 0 1:-0.27646 2:-0.309689 
512 512 1:-0.46381 2:-0.500631 
11.9715040058396 0 1:-0.32576 2:-0.273022 
512 512 1:-0.35359 2:-0.818107 
512 512 1:-0.417246 2:-0.677669 
512 512 1:-0.477388 2:-0.518886 
149.4826338785346 304.1572916818527 1:1 2:1 
512 512 1:-0.800166 2:-0.652607 
512 512 1:-0.337592 2:-0.40199 
512 512 1:-0.330376 2:-0.369906 
512 512 1:-0.483717 2:-0.605971 
512 512 1:-0.652771 2:-0.472413 
512 512 1:-0.119097 2:-0.616863 
512 512 1:-0.365624 2:-0.516968 
512 512 1:-0.670372 2:-0.441422 
512 512 1:-0.403989 2:-0.356865 
512 512 1:-0.292945 2:-0.566362 
512 512 1:-0.41072 2:-0.42106 
512 512 1:-0.337099 2:-0.46626 
512 512 1:-0.589388 2:-0.453035 
512 512 1:-0.164853 2:-0.453594 
512 426.57514569911 1:-0.233098 2:-0.372568 
512 512 1:-0.518 2:-0.418317 
512 512 1:-0.348107 2:-0.352181 
512 512 1:-0.756013 2:-0.71797 
512 512 1:-0.731888 2:-0.638421 
512 512 1:-0.561842 2:-0.625095 
512 512 1:-0.640768 2:-0.68155 
-512 0 1:0.142943 2:-0.302081 
-512 512 1:-0.371864 2:-0.668524 
-0 512 1:-0.521091 2:-0.769254 
-512 512 1:-0.497724 2:-0.667913 
-512 512 1:-0.605275 2:-0.382691 
-0 512 1:-0.587341 2:-0.795988 
-512 512 1:-0.426803 2:-0.594897 
-512 188.3386918887094 1:0.560986 2:-0.44032 
-512 512 1:-0.325363 2:-0.259802 
-512 265.2099543670295 1:-0.0518859 2:-0.440913 
-512 512 1:-0.658534 2:-0.573398 
-512 512 1:-0.376797 2:-0.640222 
-512 512 1:-0.417455 2:-0.384164 
-512 512 1:-0.567733 2:-0.699064 
-512 512 1:-0.473478 2:-0.570114 
-512 512 1:-0.583632 2:-0.659495 
-0 512 1:-0.91356 2:-0.877681 
-512 512 1:-0.148184 2:-0.432037 
-0 512 1:-0.882192 2:-0.919209 
-512 512 1:-0.482915 2:-0.590997 
-512 512 1:-0.636561 2:-0.588656 
-512 512 1:-0.628412 2:-0.54401 
-0 512 1:-0.727037 2:-0.795225 
-0 512 1:-0.581129 2:-0.743427 
-512 512 1:-0.147531 2:-0.510332 
-0 512 1:-0.762126 2:-0.73282 
-512 512 1:-0.198865 2:-0.687432 
-0 512 1:-0.71708 2:-0.767793 
-512 512 1:-0.444578 2:-0.477512 
-0 512 1:-0.896218 2:-0.827849 
-512 512 1:-0.366841 2:-0.485439 
-512 512 1:-0.245717 2:-0.526413 
-262.0239671841993 512 1:0.406881 2:-0.649075 
-411.4301707001748 512 1:-0.560193 2:-0.741519 
-0 512 1:-0.77093 2:-0.721799 
-512 150.7185176227845 1:0.485992 2:-0.0460641 
-0 512 1:-0.544253 2:-0.755067 
-0 512 1:-0.943191 2:-1 
-0 512 1:-0.79483 2:-0.725485 
-512 512 1:-0.432617 2:-0.518798 
-512 512 1:-0.469474 2:-0.632826 
-512 512 1:-0.50642 2:-0.635367 
-512 512 1:-0.46211 2:-0.540416 
-512 512 1:-0.712318 2:-0.707776 
-0 512 1:-0.622365 2:-0.782098 
-0 512 1:-0.689463 2:-0.734089 
-0 512 1:-0.885797 2:-0.872837 
-512 512 1:-0.805048 2:-0.606227 
-0 512 1:-0.713654 2:-0.753906 
-512 0 1:-0.0979721 2:-0.339701 
-0 512 1:-0.751063 2:-0.747432 
-512 512 1:-0.72862 2:-0.683493 
-0 512 1:-0.853021 2:-0.841987 
-0 512 1:-0.670103 2:-0.808311 
-512 512 1:0.184731 2:0.49015 
-512 512 1:-0.251598 2:-0.522333 
-512 512 1:-0.470941 2:-0.0442986 
-512 512 1:-0.583516 2:-0.609902 
-512 512 1:-0.494399 2:-0.362751 
-512 512 1:-0.482872 2:-0.568657 
-0 512 1:-0.903635 2:-0.807876 
-0 -512 1:-0.570204 2:-0.907569 
-512 -512 1:-0.429713 2:-0.694503 
-0 -512 1:-0.777289 2:-0.790531 
-512 -512 1:-0.317484 2:-0.740236 
-0 -512 1:-0.749381 2:-0.764777 
-0 -512 1:-0.749427 2:-0.831104 
-512 -512 1:-0.738451 2:-0.654898 
-512 -512 1:0.0977872 2:-0.545692 
-0 -512 1:-0.709746 2:-0.765883 
-512 -512 1:-0.62665 2:-0.665378 
-512 -512 1:-0.59373 2:-0.649636 
-512 -512 1:-0.466241 2:-0.755817 
-0 -512 1:-0.669336 2:-0.834661 
-0 -512 1:-0.707648 2:-0.815348 
-0 -512 1:-0.649937 2:-0.810835 
-0 -512 1:-0.849358 2:-0.778316 
-512 -512 1:-0.651411 2:-0.640539 
-512 -512 1:-0.41817 2:-0.51396 
-512 -512 1:0.849333 2:-0.00348155 
-512 -512 1:0.035121 2:0.424008 
-0 -512 1:-0.767795 2:-0.760697 
-0 -512 1:-0.63297 2:-0.808915 
-512 -512 1:-0.56647 2:-0.621297 
-0 -512 1:-0.773832 2:-0.6813 
-512 -512 1:-0.211782 2:-0.640637 
-0 -512 1:-0.807106 2:-0.757828 
-512 -512 1:-0.530908 2:-0.693137 
-512 -512 1:-0.454408 2:-0.471809 
-0 -512 1:-0.694491 2:-0.707686 
-0 -512 1:-0.646605 2:-0.78932 
-512 -512 1:-0.255804 2:-0.678559 
-512 -512 1:-0.533984 2:0.037144 
-512 -512 1:-0.557993 2:-0.694179 
-512 -512 1:0.163256 2:0.433395 
-512 -512 1:-0.453402 2:-0.507282 
-0 -428.1964078836558 1:-0.665188 2:-0.911638 
-512 -512 1:-0.627153 2:-0.342436 
-512 -512 1:-0.742944 2:-0.661079 
-0 -512 1:-0.756875 2:-0.708455 
-0 -512 1:-0.808571 2:-0.668173 
-357.8032981891478 -512 1:-0.603884 2:-0.724302 
-512 -512 1:-0.679198 2:-0.681879 
-512 -512 1:-0.548402 2:-0.713367 
-512 -512 1:-0.499926 2:-0.652107 
-0 -512 1:-0.863297 2:-0.773749 
-512 -512 1:-0.482527 2:-0.640541 
-0 -176.0707559948672 1:-0.821985 2:-0.807886 
-512 -512 1:-0.171237 2:-0.626062 
-512 -512 1:-0.358804 2:-0.330757 
-512 -512 1:-0.419225 2:-0.711565 
-0 -512 1:-0.582868 2:-0.731715 
-512 -512 1:-0.569312 2:-0.361454 
-512 -512 1:-0.318234 2:-0.54973 
-512 -512 1:-0.275683 2:-0.60085 
-0 -512 1:-0.748986 2:-0.739803 
-512 -512 1:-0.629527 2:-0.542167 
-0 -512 1:-0.769382 2:-0.795287 
-0 -512 1:-0.648182 2:-0.781819 
