svm_type c_svc
kernel_type rbf
gamma 2
nr_class 3
total_sv 158
rho -1.5983 -1.59757 0.95751
label 3 2 1
nr_sv 39 65 54
SV
128 128 1:-0.802771 2:-0.851205 
15.75415216813165 0 1:0.0462492 2:-0.0392625 
0 20.35838423091112 1:0.424527 2:0.71124 
128 59.26634537534547 1:-0.158718 2:-0.600633 
128 0 1:-0.372793 2:-0.294823 
128 128 1:-0.59242 2:-0.545407 
128 0 1:0.0932476 2:-0.409344 
128 0 1:-0.256535 2:-0.54818 
28.11587870816852 0 1:-0.591216 2:0.219101 
128 0 1:-0.543272 2:-0.364808 
0 128 1:-0.00521897 2:0.366297 
128 0 1:0.135959 2:-0.434756 
128 0 1:0.0373866 2:-0.12445 
21.44135642631468 0 1:0.113814 2:-0.518354 
88.16473599445695 0 1:-0.149847 2:-0.578121 
128 128 1:-0.46381 2:-0.500631 
124.9107346577343 0 1:-0.32576 2:-0.273022 
128 128 1:-0.724542 2:-0.666268 
128 128 1:-0.417246 2:-0.677669 
128 128 1:-0.693294 2:-0.820573 
31.99708438252188 0 1:0.361025 2:0.213227 
128 0 1:0.046485 2:-0.188996 
128 128 1:-0.477388 2:-0.518886 
128 128 1:-0.800166 2:-0.652607 
128 0 1:-0.337592 2:-0.40199 
128 0 1:-0.330376 2:-0.369906 
128 128 1:-0.781823 2:-0.739826 
128 128 1:-0.483717 2:-0.605971 
128 128 1:-0.652771 2:-0.472413 
0 102.2197812286594 1:-0.119097 2:-0.616863 
128 128 1:-0.670372 2:-0.441422 
128 128 1:-0.292945 2:-0.566362 
128 0 1:-0.337099 2:-0.46626 
128 52.6579691611776 1:-0.589388 2:-0.453035 
128 128 1:-0.472314 2:-0.550945 
128 0 1:-0.348107 2:-0.352181 
128 128 1:-0.756013 2:-0.71797 
128 128 1:-0.731888 2:-0.638421 
38.16616314596492 0 1:-0.517876 2:-0.170866 
-128 0 1:0.142943 2:-0.302081 
-64.2199692012734 128 1:-0.521091 2:-0.769254 
-0 6.18416477298048 1:-0.489043 2:-0.564865 
-0 128 1:-0.497724 2:-0.667913 
-128 7.426997245277596 1:-0.605275 2:-0.382691 
-128 128 1:-0.603622 2:-0.531049 
-0 128 1:-0.587341 2:-0.795988 
-128 128 1:-0.258321 2:-0.590825 
-128 128 1:-0.426803 2:-0.594897 
-128 0 1:-0.325363 2:-0.259802 
-128 128 1:-0.175929 2:-0.606224 
-128 0 1:-0.0518859 2:-0.440913 
-128 128 1:-0.658534 2:-0.573398 
-0 128 1:-0.608002 2:-0.749219 
-128 0 1:-0.417455 2:-0.384164 
-0 128 1:-0.567733 2:-0.699064 
-128 0 1:-0.343005 2:-0.290141 
-0 128 1:-0.583632 2:-0.659495 
-0 128 1:-0.60524 2:-0.678495 
-0 128 1:-0.91356 2:-0.877681 
-128 128 1:-0.880117 2:-0.794474 
-0 128 1:-0.882192 2:-0.919209 
-119.4056186591625 128 1:-0.604444 2:-0.571149 
-0 128 1:-0.482915 2:-0.590997 
-128 128 1:-0.636561 2:-0.588656 
-128 128 1:-0.628412 2:-0.54401 
-0 128 1:-0.727037 2:-0.795225 
-0 128 1:-0.581129 2:-0.743427 
-0 128 1:-0.762126 2:-0.73282 
-128 128 1:-0.748014 2:-0.606334 
-68.90656940434235 128 1:-0.784072 2:-0.82416 
-0 128 1:-0.71708 2:-0.767793 
-128 0 1:0.196568 2:-0.0456092 
-128 0 1:-0.444578 2:-0.477512 
-0 128 1:-0.896218 2:-0.827849 
-128 0 1:-0.366841 2:-0.485439 
-128 4.734192293108562 1:0.0705474 2:-0.439026 
-128 12.61877692415703 1:-0.245717 2:-0.526413 
-17.29421468932164 5.466454765616887 1:0.406881 2:-0.649075 
-128 128 1:-0.746193 2:-0.83959 
-0 128 1:-0.544253 2:-0.755067 
-0 128 1:-0.943191 2:-1 
-128 128 1:-0.79483 2:-0.725485 
-128 0 1:-0.0453918 2:-0.213621 
-128 0 1:-0.432617 2:-0.518798 
-0 128 1:-0.50642 2:-0.635367 
-128 0 1:-0.46211 2:-0.540416 
-0 128 1:-0.555417 2:-0.564427 
-128 0 1:-0.484548 2:-0.442855 
-0 128 1:-0.622365 2:-0.782098 
-0 128 1:-0.689463 2:-0.734089 
-0 128 1:-0.885797 2:-0.872837 
-0 128 1:-0.713654 2:-0.753906 
-128 128 1:-0.590479 2:-0.527435 
-0 128 1:-0.751063 2:-0.747432 
-0 128 1:-0.677084 2:-0.717858 
-50.72516153553359 128 1:-0.72862 2:-0.683493 
-0 128 1:-0.853021 2:-0.841987 
-0 128 1:-0.670103 2:-0.808311 
-128 0 1:-0.251598 2:-0.522333 
-19.06984203754663 128 1:-0.834094 2:-0.806039 
-128 17.04181683844784 1:-0.470941 2:-0.0442986 
-0 128 1:-0.583516 2:-0.609902 
-0 128 1:-0.482872 2:-0.568657 
-8.928729956112774 128 1:-0.903635 2:-0.807876 
-0 -75.37306307166959 1:-0.777289 2:-0.790531 
-0 -128 1:-0.749381 2:-0.764777 
-128 -128 1:-0.738451 2:-0.654898 
-95.97471126837901 -0 1:-0.761543 2:-0.912197 
-0 -128 1:-0.709746 2:-0.765883 
-0 -128 1:-0.975605 2:-0.932815 
-0 -128 1:-0.706309 2:-0.778382 
-17.28987451885753 -128 1:-0.59373 2:-0.649636 
-0 -128 1:-0.707648 2:-0.815348 
-0 -128 1:-0.540244 2:-0.75877 
-0 -128 1:-0.927252 2:-0.921153 
-128 -128 1:-0.41817 2:-0.51396 
-128 -1.645323333059145 1:0.035121 2:0.424008 
-0 -128 1:-0.767795 2:-0.760697 
-0 -128 1:-0.760416 2:-0.716882 
-0 -92.87276725811982 1:-0.63297 2:-0.808915 
-0 -128 1:-0.556609 2:-0.677419 
-128 -128 1:-0.56647 2:-0.621297 
-6.862639517841864 -128 1:-0.773832 2:-0.6813 
-0 -128 1:-0.530908 2:-0.693137 
-24.3552970267458 -128 1:-0.886929 2:-0.928532 
-128 -128 1:-0.678354 2:-0.6191 
-0 -128 1:-0.694491 2:-0.707686 
-0 -128 1:-0.646605 2:-0.78932 
-128 -35.24385935553045 1:-0.255804 2:-0.678559 
-0 -128 1:-0.557993 2:-0.694179 
-0 -128 1:-0.904233 2:-0.899869 
-14.27443490051239 -0 1:0.163256 2:0.433395 
-128 -128 1:-0.453402 2:-0.507282 
-128 -128 1:-0.742944 2:-0.661079 
-0 -128 1:-0.756875 2:-0.708455 
-0 -128 1:-0.932445 2:-0.903548 
-128 -0 1:-0.808571 2:-0.668173 
-0 -128 1:-0.603884 2:-0.724302 
-0 -128 1:-0.728251 2:-0.804969 
-74.50853680138378 -0 1:-0.872599 2:-0.896952 
-0 -128 1:-0.679198 2:-0.681879 
-0 -128 1:-0.548402 2:-0.713367 
-128 -128 1:-0.482527 2:-0.640541 
-128 -128 1:-0.171237 2:-0.626062 
-0 -79.64900787675774 1:-0.8766 2:-0.898082 
-0 -128 1:-0.419225 2:-0.711565 
-1.236985962373235 -128 1:-0.404333 2:-0.655843 
-0 -24.68838194445177 1:-1 2:-0.891241 
-128 -128 1:-0.569312 2:-0.361454 
-128 -128 1:-0.318234 2:-0.54973 
-0 -128 1:-0.748986 2:-0.739803 
-128 -128 1:-0.699235 2:-0.551132 
-128 -128 1:-0.684028 2:-0.619013 
-128 -128 1:-0.629527 2:-0.542167 
-0 -128 1:-0.769382 2:-0.795287 
-0 -128 1:-0.648182 2:-0.781819 
-0 -128 1:-0.7713 2:-0.790586 
-128 -128 1:-0.689665 2:-0.658505 
