svm_type c_svc
kernel_type rbf
gamma 0.5
nr_class 3
total_sv 165
rho -10.5975 53.0498 72.2351
label 3 2 1
nr_sv 44 61 60
SV
32768 32768 1:-0.838483 2:-0.802771 
10433.79505443171 0 1:-0.220899 2:0.424527 
32768 280.8695053685252 1:-0.48905 2:-0.158718 
32768 32768 1:-0.724092 2:-0.59242 
32768 0 1:-0.312671 2:0.0932476 
0 32768 1:-0.115589 2:0.0333971 
3246.998198253856 30447.28269451049 1:-0.011263 2:0.346952 
32768 0 1:-0.461534 2:-0.29454 
32768 32768 1:-0.539232 2:-0.256535 
32768 32768 1:-0.553193 2:-0.424343 
32768 32768 1:-0.76656 2:-0.591216 
32768 32768 1:-0.732808 2:-0.543272 
32768 0 1:-0.0971088 2:0.448126 
30713.50547035548 12694.5560485024 1:-0.340118 2:0.113814 
32768 0 1:-0.0309904 2:0.466352 
19034.09006910458 0 1:-0.268999 2:0.183636 
0 8359.016397285592 1:-0.183627 2:-0.0220457 
32768 32768 1:-0.626687 2:-0.46381 
32768 32768 1:-0.660089 2:-0.417246 
32768 32768 1:-0.667667 2:-0.477388 
0 213.6414117364441 1:1 2:1 
32768 32768 1:-0.917201 2:-0.800166 
32768 0 1:-0.515095 2:-0.337592 
32768 32768 1:-0.582534 2:-0.330376 
32768 32768 1:-0.715384 2:-0.483717 
32768 32768 1:-0.740289 2:-0.652771 
32768 32768 1:-0.537221 2:-0.119097 
0 7731.195333888884 1:-0.0965102 2:-0.365624 
32768 32768 1:-0.733816 2:-0.670372 
32768 32768 1:-0.583985 2:-0.403989 
32768 32768 1:-0.60388 2:-0.292945 
32768 32768 1:-0.539087 2:-0.41072 
32768 32768 1:-0.646791 2:-0.337099 
32768 32768 1:-0.691187 2:-0.589388 
26506.81998725728 0 1:-0.38772 2:-0.164853 
32768 32768 1:-0.517486 2:-0.233098 
32768 32768 1:-0.684985 2:-0.518 
32768 32768 1:-0.539761 2:-0.348107 
32768 32768 1:-0.592565 2:-0.407669 
32768 32768 1:-0.874323 2:-0.756013 
32768 32768 1:-0.816652 2:-0.731888 
11161.2316056479 32768 1:-0.574417 2:-0.517876 
32768 32768 1:-0.780924 2:-0.561842 
32768 32768 1:-0.798438 2:-0.640768 
-32768 13432.7676739491 1:-0.40556 2:0.142943 
-32768 0 1:-0.615095 2:-0.371864 
-0 32768 1:-0.789674 2:-0.521091 
-0 32768 1:-0.723928 2:-0.497724 
-32768 32768 1:-0.725843 2:-0.605275 
-23495.5385895925 32768 1:-0.835053 2:-0.587341 
-0 32768 1:-0.687339 2:-0.426803 
-7936.698565975504 0 1:-0.00706319 2:0.560986 
-32768 0 1:-0.501396 2:-0.325363 
-32768 0 1:-0.438604 2:-0.0518859 
-0 32768 1:-0.809162 2:-0.658534 
-32768 0 1:-0.56044 2:-0.376797 
-32768 22044.09177312319 1:-0.580373 2:-0.417455 
-32768 32768 1:-0.712287 2:-0.567733 
-32768 32768 1:-0.658552 2:-0.473478 
-32768 32768 1:-0.737768 2:-0.583632 
-0 32768 1:-0.93642 2:-0.91356 
-32768 0 1:-0.459688 2:-0.148184 
-28876.55994997804 32768 1:-0.830394 2:-0.882192 
-32768 32768 1:-0.623694 2:-0.482915 
-32768 32768 1:-0.772249 2:-0.636561 
-0 32768 1:-0.801645 2:-0.628412 
-32768 32768 1:-0.865854 2:-0.727037 
-32768 32768 1:-0.735122 2:-0.581129 
-32768 32768 1:-0.405904 2:-0.147531 
-0 32768 1:-0.860755 2:-0.762126 
-32768 32768 1:-0.535435 2:-0.198865 
-32768 32768 1:-0.79902 2:-0.71708 
-32768 32768 1:-0.662394 2:-0.444578 
-0 32768 1:-0.955211 2:-0.896218 
-32768 32768 1:-0.526263 2:-0.366841 
-32768 31956.58815504737 1:-0.453024 2:-0.245717 
-32768 0 1:-0.129796 2:0.406881 
-0 32768 1:-0.751008 2:-0.560193 
-4917.033601985932 32768 1:-0.882175 2:-0.77093 
-32768 0 1:-0.055872 2:0.485992 
-0 32768 1:-0.75125 2:-0.544253 
-0 32768 1:-0.885089 2:-0.943191 
-32768 32768 1:-0.923633 2:-0.79483 
-32768 32768 1:-0.644444 2:-0.432617 
-32768 32768 1:-0.645182 2:-0.469474 
-32768 32768 1:-0.668655 2:-0.50642 
-32239.81303208865 32768 1:-0.686477 2:-0.46211 
-0 32768 1:-0.857828 2:-0.712318 
-0 32768 1:-0.775244 2:-0.622365 
-0 32768 1:-0.850356 2:-0.689463 
-0 32768 1:-0.893716 2:-0.885797 
-0 32768 1:-0.885757 2:-0.805048 
-0 32768 1:-0.823359 2:-0.713654 
-32768 0 1:-0.409947 2:-0.0979721 
-0 32768 1:-0.858801 2:-0.751063 
-0 32768 1:-0.857747 2:-0.72862 
-0 32768 1:-0.917842 2:-0.853021 
-0 32768 1:-0.847095 2:-0.670103 
-32768 32768 1:-0.181753 2:0.184731 
-32768 32768 1:-0.615239 2:-0.251598 
-32768 32768 1:-0.669468 2:-0.470941 
-32768 32768 1:-0.735367 2:-0.583516 
-32768 32768 1:-0.616439 2:-0.494399 
-32768 32768 1:-0.649972 2:-0.482872 
-3630.796645430039 32768 1:-0.974848 2:-0.903635 
-32768 -0 1:-0.524448 2:-0.570204 
-32768 -32768 1:-0.672977 2:-0.429713 
-0 -32768 1:-0.881883 2:-0.777289 
-32768 -32768 1:-0.522397 2:-0.317484 
-0 -32768 1:-0.811587 2:-0.749427 
-0 -32768 1:-0.846263 2:-0.738451 
-0 -32768 1:-0.802822 2:-0.761543 
-32768 -32768 1:-0.303519 2:0.0977872 
-0 -32768 1:-0.863341 2:-0.709746 
-32768 -32768 1:-0.769754 2:-0.62665 
-2825.549342542202 -32768 1:-0.769607 2:-0.702993 
-15746.33322853079 -32768 1:-0.994587 2:-0.975605 
-32768 -32768 1:-0.772459 2:-0.59373 
-0 -32768 1:-0.758902 2:-0.466241 
-32768 -32768 1:-0.795584 2:-0.669336 
-29427.43423575512 -32768 1:-0.792178 2:-0.707648 
-0 -32768 1:-0.824615 2:-0.649937 
-5003.828567550927 -0 1:-0.657778 2:-0.651411 
-32768 -32768 1:-0.602119 2:-0.41817 
-3242.754510564066 -1230.908788201149 1:0.183376 2:0.849333 
-32768 -28493.11041147501 1:-0.235299 2:0.035121 
-32768 -32768 1:-0.765265 2:-0.63297 
-0 -32768 1:-0.965581 2:-0.93294 
-32768 -32768 1:-0.739842 2:-0.56647 
-0 -32768 1:-0.863696 2:-0.773832 
-32768 -32768 1:-0.483531 2:-0.211782 
-32768 -32768 1:-0.742153 2:-0.530908 
-32768 -32768 1:-0.586871 2:-0.454408 
-0 -32768 1:-0.861402 2:-0.694491 
-0 -32768 1:-0.818756 2:-0.646605 
-32768 -32768 1:-0.582657 2:-0.255804 
-0 -3276.068946673426 1:-0.952397 2:-0.9198 
-32768 -32768 1:-0.678922 2:-0.533984 
-32768 -0 1:0.0160435 2:0.163256 
-32768 -32768 1:-0.615531 2:-0.453402 
-0 -32768 1:-0.794575 2:-0.627153 
-0 -31527.74936125297 1:-0.880057 2:-0.742944 
-0 -32768 1:-0.860749 2:-0.756875 
-0 -25164.83051490785 1:-0.884732 2:-0.808571 
-32768 -32768 1:-0.74513 2:-0.603884 
-0 -32768 1:-0.835191 2:-0.679198 
-7506.652146559659 -0 1:-0.95247 2:-0.896676 
-0 -32768 1:-0.778041 2:-0.548402 
-32768 -32768 1:-0.700532 2:-0.499926 
-0 -9220.178878989689 1:-0.951286 2:-0.946792 
-32768 -32768 1:-0.729404 2:-0.482527 
-32768 -32768 1:-0.504232 2:-0.171237 
-32768 -14742.08152962392 1:-0.429169 2:-0.358804 
-32768 -32768 1:-0.699298 2:-0.419225 
-0 -32768 1:-1 2:-1 
-32768 -32768 1:-0.76922 2:-0.582868 
-9812.374142296343 -0 1:-0.959106 2:-0.883913 
-32768 -32768 1:-0.608575 2:-0.569312 
-32768 -32768 1:-0.612102 2:-0.318234 
-18929.63521749428 -19314.51917099497 1:-0.666132 2:-0.275683 
-0 -32768 1:-0.85335 2:-0.748986 
-32768 -32768 1:-0.766142 2:-0.629527 
-0 -32768 1:-0.815041 2:-0.769382 
-32768 -32768 1:-0.742144 2:-0.648182 
-0 -32768 1:-0.859002 2:-0.789254 
