svm_type c_svc
kernel_type rbf
gamma 0.03125
nr_class 3
total_sv 172
rho -0.880964 -3.54982 -0.669714
label 3 1 2
nr_sv 43 60 69
SV
32 32 1:-0.423464 2:-0.487939 
32 32 1:-0.170734 2:0.00241695 
32 32 1:-0.164771 2:-0.0614213 
32 32 1:-0.246147 2:-0.197312 
32 32 1:-0.296022 2:-0.0777568 
32 32 1:0.0290008 2:0.090145 
32 32 1:-0.0407776 2:0.409423 
0 32 1:0.270251 2:0.623563 
32 32 1:0.286451 2:-0.529381 
0 32 1:0.320417 2:0.55597 
0 22.67360177142396 1:0.472136 2:0.561744 
32 32 1:-0.167401 2:-0.218303 
32 32 1:-0.426854 2:-0.111735 
32 32 1:-0.380023 2:-0.134131 
32 32 1:-0.149282 2:0.0785402 
32 32 1:0.214855 2:0.0757163 
32 32 1:-0.327752 2:-0.43228 
32 32 1:0.122309 2:0.168147 
32 32 1:0.10879 2:0.422922 
0 32 1:0.370654 2:0.415874 
32 32 1:0.109346 2:0.200139 
32 32 1:-0.0791602 2:0.27459 
0 32 1:0.454576 2:0.376346 
32 32 1:-0.516073 2:-0.348428 
32 32 1:0.545652 2:-0.272332 
32 32 1:-0.342798 2:-0.0716832 
0 32 1:-0.0333925 2:0.727828 
0 32 1:0.043513 2:0.73568 
32 32 1:0.198604 2:0.283916 
32 32 1:-0.709034 2:-0.569453 
32 32 1:0.0520515 2:0.518156 
32 32 1:0.133141 2:0.230582 
32 32 1:0.0124648 2:0.470115 
32 32 1:0.143201 2:0.222873 
32 32 1:-0.253317 2:0.29989 
32 32 1:0.357114 2:0.0795343 
8.207704003568736 32 1:0.308957 2:0.169194 
32 32 1:0.215476 2:0.288653 
0 32 1:0.234414 2:0.355177 
32 32 1:-0.287228 2:-0.133848 
32 32 1:-0.157185 2:-0.0460695 
32 32 1:-0.421195 2:-0.114444 
32 32 1:-0.0382653 2:0.117981 
-32 32 1:0.0679876 2:0.466433 
-32 32 1:0.0429342 2:-0.443243 
-32 32 1:-0.38105 2:-0.225068 
-0 32 1:-0.681999 2:-0.573829 
-0 32 1:-0.568068 2:-0.492026 
-32 32 1:-0.368227 2:-0.120363 
-0 28.57058415849621 1:-0.584804 2:-0.620425 
-32 32 1:-0.164363 2:0.0461647 
-0 32 1:-0.518542 2:-0.322509 
-32 32 1:-0.30701 2:-0.221509 
-32 32 1:-0.329535 2:-0.245655 
-32 32 1:0.0814131 2:0.146307 
-0 32 1:-0.598522 2:-0.599577 
-0 32 1:-0.420436 2:-0.319621 
-32 32 1:-0.317975 2:-0.240283 
-0 32 1:-0.461314 2:-0.473282 
-32 32 1:0.276044 2:0.609849 
-32 32 1:-0.391626 2:-0.282984 
-0 32 1:-0.441757 2:-0.576313 
-0 32 1:-0.519013 2:-0.37385 
-32 32 1:-0.24888 2:-0.395782 
-0 32 1:-0.641955 2:-0.289282 
-32 32 1:-0.0688638 2:-0.356058 
-0 32 1:-0.560956 2:-0.343587 
-0 32 1:-0.562937 2:-0.318032 
-32 32 1:-0.0236964 2:0.0161509 
-32 32 1:-0.179304 2:-0.0204445 
-32 32 1:-0.399498 2:-0.22658 
-0 32 1:-0.495775 2:-0.60487 
-32 32 1:-0.0342152 2:0.459341 
-0 32 1:-0.504546 2:-0.572288 
-32 32 1:-0.149245 2:0.0287553 
-32 32 1:-0.219597 2:-0.270614 
-0 32 1:-0.564252 2:-0.424213 
-0 32 1:-0.425768 2:-0.303461 
-32 32 1:-0.0485131 2:0.188512 
-32 32 1:-0.27916 2:-0.169185 
-0 32 1:-0.623448 2:-0.523027 
-32 32 1:-0.203593 2:-0.0287814 
-32 32 1:-0.107396 2:0.0136781 
-0 32 1:-0.497009 2:-0.546705 
-0 32 1:-0.534932 2:-0.401637 
-32 32 1:0.0896665 2:0.412007 
-0 32 1:-0.419897 2:-0.387201 
-32 32 1:-0.15634 2:-0.0620474 
-32 32 1:-0.197786 2:0.127222 
-32 32 1:0.251943 2:0.519218 
-32 32 1:0.0902663 2:0.238731 
-0 32 1:-0.681253 2:-0.493645 
-32 32 1:-0.207129 2:-0.589051 
-0 32 1:-0.57491 2:-0.53165 
-0 32 1:-0.575607 2:-0.430681 
-32 32 1:-0.302337 2:-0.206801 
-32 32 1:-0.119666 2:0.114138 
-32 32 1:-0.0590412 2:-0.0362208 
-32 32 1:0.438362 2:0.506856 
-0 32 1:-0.377471 2:-0.419684 
-8.207704003568741 32 1:-0.267141 2:-0.518908 
-0 32 1:-0.4153 2:-0.524456 
-32 32 1:0.0789946 2:0.209638 
-22.67360177142396 -32 1:-0.1214 2:-0.269713 
-0 -32 1:-0.720131 2:-0.440696 
-32 -32 1:-0.207867 2:-0.135136 
-0 -32 1:-0.563154 2:-0.107113 
-32 -32 1:-0.258857 2:-0.0191407 
-0 -32 1:-0.872086 2:-0.898812 
-0 -32 1:-0.64246 2:-0.675807 
-32 -32 1:0.200131 2:0.264179 
-32 -0 1:0.148408 2:0.332627 
-0 -32 1:-0.616323 2:-0.494423 
-0 -32 1:-0.366961 2:-0.276411 
-32 -32 1:0.0384827 2:-0.303113 
-0 -32 1:-0.742262 2:-0.625173 
-32 -32 1:-0.143997 2:-0.0770066 
-32 -0 1:-0.0206897 2:0.309797 
-32 -32 1:-0.268567 2:-0.131601 
-32 -0 1:0.474012 2:0.578327 
-0 -32 1:-0.310664 2:-0.273842 
-32 -32 1:-0.135945 2:0.092781 
-32 -32 1:0.0863154 2:0.187343 
-32 -32 1:-0.063532 2:0.214595 
-0 -32 1:-0.465042 2:-0.383041 
-0 -32 1:-0.39402 2:-0.17768 
-32 -32 1:-0.0815673 2:-0.238738 
-0 -32 1:-0.476669 2:-0.480756 
-0 -32 1:-0.712616 2:-0.648377 
-0 -32 1:-0.452296 2:-0.278292 
-32 -32 1:0.559266 2:-0.0112031 
-32 -32 1:-0.309556 2:-0.14931 
-32 -32 1:-0.396051 2:0.0779802 
-32 -0 1:0.143549 2:0.314068 
-32 -32 1:-0.421925 2:-0.149235 
-32 -32 1:-0.120283 2:0.183873 
-32 -32 1:0.220871 2:0.25006 
-32 -32 1:0.218166 2:0.23426 
-32 -32 1:-0.0611607 2:-0.0796659 
-32 -11.23653066606555 1:0.445891 2:0.276783 
-0 -32 1:-0.322459 2:-0.421182 
-0 -32 1:-0.678121 2:-0.563074 
-0 -32 1:-0.528803 2:-0.329159 
-32 -17.33405349243066 1:-0.164206 2:0.288621 
-32 -32 1:-0.167024 2:-0.0517024 
-32 -32 1:-0.169262 2:-0.167235 
-32 -0 1:0.221412 2:0.3314 
-0 -32 1:-0.526851 2:-0.655666 
-32 -32 1:0.0510422 2:0.252473 
-32 -32 1:-0.0357599 2:0.0428852 
-0 -32 1:-0.793997 2:-0.585196 
-32 -32 1:-0.107544 2:-0.113808 
-32 -32 1:-0.269621 2:-0.108768 
-32 -32 1:-0.28263 2:-0.129941 
-32 -0 1:0.246828 2:0.334379 
-0 -32 1:-0.34853 2:-0.25252 
-32 -32 1:-0.313135 2:-0.104765 
-0 -32 1:-0.484657 2:-0.333156 
-32 -32 1:-0.189733 2:-0.00976313 
-32 -32 1:-0.205393 2:-0.0994312 
-0 -32 1:-0.724193 2:-0.655579 
-0 -32 1:-0.5441 2:-0.27723 
-32 -0 1:0.160678 2:0.39927 
-0 -32 1:-0.429303 2:-0.167153 
-32 -32 1:-0.00434757 2:0.220328 
-0 -32 1:-0.361656 2:-0.279052 
-0 -32 1:-0.476296 2:-0.444148 
-0 -32 1:-0.590605 2:-0.549847 
-32 -32 1:-0.210755 2:0.200692 
-32 -32 1:-0.0226627 2:0.0353201 
-32 -0 1:0.438192 2:0.591151 
-32 -32 1:-0.0536591 2:0.17479 
