svm_type c_svc
kernel_type rbf
gamma 0.03125
nr_class 3
total_sv 177
rho 0.533468 -1.2251 -0.890203
label 3 1 2
nr_sv 48 63 66
SV
8 8 1:-0.423464 2:-0.459931 
8 8 1:0.127324 2:0.226427 
8 8 1:-0.170734 2:0.0572454 
0 0.5563855740418977 1:0.409926 2:0.877044 
8 8 1:-0.164771 2:-0.0100845 
8 8 1:-0.246147 2:-0.153408 
8 8 1:0.0290008 2:0.149772 
0 8 1:0.649429 2:0.586292 
8 8 1:-0.0407776 2:0.486513 
0 8 1:0.270251 2:0.712366 
8 8 1:0.286451 2:-0.50364 
8 8 1:-0.0955073 2:0.133621 
0 8 1:0.482088 2:0.723617 
8 8 1:-0.303594 2:-0.285774 
8 8 1:-0.167401 2:-0.175547 
8 8 1:-0.855225 2:-0.864433 
8 8 1:-0.426854 2:-0.0631501 
8 8 1:-0.149282 2:0.137532 
8 8 1:0.214855 2:0.134554 
8 8 1:-0.327752 2:-0.401228 
8 8 1:0.10879 2:0.50075 
8 8 1:0.0195816 2:-0.0326314 
8 8 1:0.370654 2:0.493317 
8 8 1:0.109346 2:0.265782 
0 8 1:0.223518 2:0.789624 
8 8 1:-0.0791602 2:0.344306 
8 8 1:0.454576 2:0.451627 
8 8 1:-0.516073 2:-0.312789 
8 8 1:-0.342798 2:-0.0209078 
8 8 1:-0.0333925 2:0.822334 
1.60352896360576 8 1:0.043513 2:0.830616 
8 8 1:-0.193253 2:-0.035007 
8 8 1:-0.709034 2:-0.545904 
8 8 1:-0.00503662 2:-0.0278326 
8 8 1:0.0520515 2:0.601194 
8 8 1:0.133141 2:0.29789 
8 8 1:0.0430102 2:0.139753 
8 8 1:0.143201 2:0.289759 
8 8 1:-0.23107 2:-0.165323 
8 8 1:-0.253317 2:0.370989 
8 8 1:0.357114 2:0.138581 
8 8 1:0.308957 2:0.233144 
8 8 1:-0.100873 2:-0.105442 
8 8 1:0.234414 2:0.4293 
8 8 1:-0.590457 2:-0.42502 
8 8 1:-0.157185 2:0.00610692 
8 8 1:-0.421195 2:-0.0660076 
8 8 1:-0.0382653 2:0.17913 
-8 8 1:0.0679876 2:0.546641 
-8 8 1:0.0429342 2:-0.412791 
-0 8 1:-0.681999 2:-0.550519 
-8 8 1:0.877862 2:0.701847 
-0 4.397472110070805 1:-0.602272 2:-0.633794 
-0 8 1:-0.632249 2:-0.568424 
-0 8 1:-0.584804 2:-0.599663 
-8 8 1:-0.518542 2:-0.285452 
-8 8 1:-0.455014 2:-0.387277 
-0 8 1:-0.484439 2:-0.3877 
-8 8 1:0.0814131 2:0.209006 
-8 8 1:-0.420436 2:-0.282407 
-8 8 1:-0.0812346 2:0.214875 
-0 8 1:-0.461314 2:-0.444472 
-8 8 1:0.276044 2:0.697902 
-8 8 1:-0.391626 2:-0.243766 
-8 8 1:-0.519013 2:-0.339602 
-0 8 1:-0.553621 2:-0.334813 
-8 8 1:-0.24888 2:-0.362734 
-1.60352896360576 8 1:-0.641955 2:-0.250408 
-8 8 1:-0.0688638 2:-0.320837 
-8 8 1:-0.560956 2:-0.307684 
-8 8 1:-0.562937 2:-0.280731 
-8 8 1:-0.0236964 2:0.0717305 
-8 8 1:-0.399498 2:-0.184277 
-0 8 1:-0.495775 2:-0.583258 
-0 8 1:-0.409805 2:-0.453479 
-8 8 1:-0.0342152 2:0.539162 
-8 8 1:0.347369 2:0.453525 
-0 8 1:-0.504546 2:-0.548893 
-8 8 1:-0.219597 2:-0.230719 
-0 8 1:-0.564252 2:-0.39272 
-8 8 1:-0.425768 2:-0.265363 
-8 8 1:0.0242547 2:0.169839 
-8 8 1:-0.0485131 2:0.253519 
-0 8 1:-0.606131 2:-0.604993 
-8 8 1:-0.27916 2:-0.123743 
-8 8 1:-0.459453 2:-0.377167 
-0 8 1:-0.515133 2:-0.635666 
-0 8 1:-0.623448 2:-0.496938 
-8 8 1:-0.449062 2:-0.382355 
-8 8 1:-0.203593 2:0.0243406 
-0 8 1:-0.459238 2:-0.591742 
-0 8 1:-0.497009 2:-0.521911 
-0 8 1:-0.534932 2:-0.368908 
-8 8 1:0.0896665 2:0.489238 
-8 8 1:-0.419897 2:-0.353683 
-8 8 1:-0.15634 2:-0.0107449 
-8 8 1:0.251943 2:0.602313 
-8 8 1:-0.207129 2:-0.566574 
-0 8 1:-0.57491 2:-0.506033 
-8 8 1:-0.154138 2:0.168899 
-0 8 1:-0.575607 2:-0.399542 
-8 8 1:-0.302337 2:-0.163416 
-8 8 1:-0.119666 2:0.175077 
-8 8 1:-0.0590412 2:0.0164943 
-8 8 1:0.405327 2:0.794611 
-8 8 1:0.438362 2:0.589275 
-8 8 1:-0.377471 2:-0.387943 
-8 8 1:-0.267141 2:-0.492594 
-0 8 1:-0.4153 2:-0.498446 
-8 8 1:-0.391562 2:-0.230065 
-8 8 1:0.0789946 2:0.2758 
-8 -8 1:-0.1214 2:-0.229769 
-0 -8 1:-0.720131 2:-0.410105 
-8 -8 1:0.140405 2:0.368542 
-8 -8 1:-0.207867 2:-0.0878316 
-7.277560949220948 -8 1:-0.563154 2:-0.0582756 
-8 -8 1:-0.258857 2:0.0345086 
-0 -8 1:-0.872086 2:-0.893277 
-0 -8 1:-0.64246 2:-0.658075 
-8 -8 1:-0.294322 2:-0.046437 
-8 -8 1:0.200131 2:0.333325 
-8 -8 1:0.148408 2:0.405517 
-0 -8 1:-0.616323 2:-0.46677 
-8 -8 1:-0.366961 2:-0.236833 
-0 -8 1:-0.697678 2:-0.594467 
-0 -8 1:-0.742262 2:-0.604672 
-8 -8 1:-0.162356 2:0.0897547 
-8 -8 1:-0.0206897 2:0.381437 
-8 -8 1:-0.268567 2:-0.0841023 
-8 -8 1:-0.383672 2:-0.0518547 
-8 -8 1:-0.310664 2:-0.234124 
-8 -8 1:-0.135945 2:0.152552 
-8 -8 1:-0.105544 2:-0.11576 
-8 -0 1:0.332393 2:0.491024 
-8 -8 1:-0.063532 2:0.281029 
-8 -8 1:-0.348304 2:-0.3047 
-0 -8 1:-0.465042 2:-0.349295 
-8 -8 1:-0.0815673 2:-0.1971 
-0 -8 1:-0.712616 2:-0.629144 
-0 -8 1:-0.452296 2:-0.238818 
-8 -8 1:0.559266 2:0.0428803 
-8 -8 1:-0.396051 2:0.136942 
-8 -8 1:-0.320299 2:-0.233433 
-8 -8 1:0.143549 2:0.385942 
-8 -8 1:-0.421925 2:-0.102701 
-8 -8 1:-0.120283 2:0.248627 
-8 -8 1:0.218166 2:0.301769 
-8 -8 1:-0.0611607 2:-0.0293271 
-8 -8 1:0.445891 2:0.346618 
-1.278824624820949 -8 1:-0.322459 2:-0.389523 
-0 -8 1:-0.528803 2:-0.292466 
-8 -8 1:-0.164206 2:0.359104 
-0 -8 1:-0.538168 2:-0.46571 
-0 -8 1:-0.662089 2:-0.205863 
-8 -8 1:-0.169262 2:-0.121686 
-8 -8 1:0.221412 2:0.404223 
-0 -8 1:-0.526851 2:-0.636833 
-8 -8 1:0.0510422 2:0.320979 
-8 -8 1:-0.0357599 2:0.0999271 
-0 -8 1:-0.472865 2:-0.238697 
-0 -8 1:-0.793997 2:-0.562507 
-8 -8 1:-0.149156 2:0.061713 
-8 -8 1:-0.269621 2:-0.0600214 
-8 -8 1:-0.28263 2:-0.0823518 
-8 -4.397472110070805 1:0.246828 2:0.407364 
-8 -8 1:-0.313135 2:-0.0557991 
-8 -8 1:-0.189733 2:0.0443991 
-8 -8 1:0.00544171 2:-0.056004 
-0 -8 1:-0.724193 2:-0.636741 
-8 -0 1:0.160678 2:0.475805 
-8 -8 1:-0.429303 2:-0.1216 
-8 -0 1:-0.0658198 2:0.479035 
-8 -8 1:-0.361656 2:-0.239618 
-0 -8 1:-0.476296 2:-0.413745 
-0 -8 1:-0.590605 2:-0.525226 
-8 -8 1:-0.0226627 2:0.0919482 
-8 -8 1:-0.0536591 2:0.239047 
