svm_type c_svc
kernel_type rbf
gamma 0.0078125
nr_class 3
total_sv 166
rho -25.1552 -85.6046 -90.3182
label 3 1 2
nr_sv 43 57 66
SV
8192 8192 1:0.127324 2:0.162825 
8192 8192 1:-0.170734 2:0.00241695 
8192 8192 1:-0.164771 2:-0.0614213 
8192 8192 1:-0.246147 2:-0.197312 
8192 8192 1:-0.296022 2:-0.0777568 
8192 8192 1:0.0290008 2:0.090145 
8192 8192 1:-0.0407776 2:0.409423 
0 8192 1:0.270251 2:0.623563 
8192 8192 1:0.286451 2:-0.529381 
8192 8192 1:-0.0955073 2:0.074832 
5794.109606639561 8192 1:0.320417 2:0.55597 
8192 8192 1:-0.303594 2:-0.322814 
0 3222.493212518388 1:0.472136 2:0.561744 
8192 8192 1:-0.855225 2:-0.871463 
8192 8192 1:-0.426854 2:-0.111735 
8192 8192 1:-0.380023 2:-0.134131 
8192 8192 1:-0.327752 2:-0.43228 
8192 8192 1:0.122309 2:0.168147 
8192 8192 1:0.0195816 2:-0.0827988 
8192 8192 1:0.370654 2:0.415874 
8192 8192 1:-0.0791602 2:0.27459 
1130.957531161484 8192 1:0.454576 2:0.376346 
6617.94722039406 8192 1:0.545652 2:-0.272332 
8192 8192 1:-0.342798 2:-0.0716832 
8068.254117954188 3450.887450690891 1:-0.0333925 2:0.727828 
8192 8192 1:0.198604 2:0.283916 
8192 8192 1:-0.193253 2:-0.0850513 
8192 8192 1:-0.709034 2:-0.569453 
8192 8192 1:-0.00503662 2:-0.0782489 
8192 8192 1:0.0520515 2:0.518156 
8192 8192 1:0.0430102 2:0.0806458 
8192 8192 1:0.0124648 2:0.470115 
8192 8192 1:-0.23107 2:-0.208609 
8192 8192 1:-0.253317 2:0.29989 
8192 8192 1:0.308957 2:0.169194 
8192 8192 1:0.215476 2:0.288653 
8192 8192 1:-0.100873 2:-0.151834 
8192 8192 1:0.234414 2:0.355177 
8192 8192 1:-0.287228 2:-0.133848 
8192 8192 1:-0.590457 2:-0.454838 
8192 8192 1:-0.157185 2:-0.0460695 
8192 8192 1:-0.421195 2:-0.114444 
8192 8192 1:-0.0382653 2:0.117981 
-8192 8192 1:0.0679876 2:0.466433 
-8192 8192 1:0.0429342 2:-0.443243 
-8192 8192 1:-0.38105 2:-0.225068 
-8192 8192 1:0.877862 2:0.613589 
-0 8192 1:-0.568068 2:-0.492026 
-8192 8192 1:-0.368227 2:-0.120363 
-8192 8192 1:-0.164363 2:0.0461647 
-8192 8192 1:-0.30701 2:-0.221509 
-0 8192 1:-0.455014 2:-0.419052 
-8192 8192 1:-0.329535 2:-0.245655 
-0 8192 1:-0.484439 2:-0.419454 
-8192 8192 1:0.0814131 2:0.146307 
-8192 8192 1:-0.420436 2:-0.319621 
-8192 8192 1:-0.317975 2:-0.240283 
-8192 8192 1:-0.0812346 2:0.151872 
-0 8192 1:-0.461314 2:-0.473282 
-8192 8192 1:-0.391626 2:-0.282984 
-0 8192 1:-0.441757 2:-0.576313 
-0 8192 1:-0.519013 2:-0.37385 
-0 8192 1:-0.553621 2:-0.369309 
-8192 8192 1:-0.0688638 2:-0.356058 
-0 8192 1:-0.560956 2:-0.343587 
-8192 8192 1:-0.0236964 2:0.0161509 
-8192 8192 1:-0.179304 2:-0.0204445 
-0 8009.84648878863 1:-0.495775 2:-0.60487 
-8192 8192 1:-0.409805 2:-0.481821 
-8192 8192 1:-0.0342152 2:0.459341 
-8192 8192 1:0.347369 2:0.378145 
-0 8192 1:-0.504546 2:-0.572288 
-8192 8192 1:-0.149245 2:0.0287553 
-0 8192 1:-0.564252 2:-0.424213 
-8192 8192 1:0.0242547 2:0.109172 
-8192 8192 1:-0.0485131 2:0.188512 
-5227.268476149295 8192 1:-0.459453 2:-0.409467 
-0 8192 1:-0.623448 2:-0.523027 
-8192 8192 1:-0.449062 2:-0.414386 
-8192 8192 1:-0.203593 2:-0.0287814 
-8192 8192 1:-0.107396 2:0.0136781 
-0 8192 1:-0.497009 2:-0.546705 
-0 8192 1:-0.534932 2:-0.401637 
-8192 8192 1:0.0896665 2:0.412007 
-8192 8192 1:-0.419897 2:-0.387201 
-8192 8192 1:-0.15634 2:-0.0620474 
-8192 8192 1:-0.197786 2:0.127222 
-8192 8192 1:0.251943 2:0.519218 
-8192 8192 1:0.0902663 2:0.238731 
-0 8192 1:-0.681253 2:-0.493645 
-0 8192 1:-0.57491 2:-0.53165 
-8192 8192 1:-0.154138 2:0.10828 
-8192 8192 1:-0.302337 2:-0.206801 
-8192 8192 1:-0.0590412 2:-0.0362208 
-8192 8192 1:0.405327 2:0.701543 
-8192 8192 1:0.438362 2:0.506856 
-8192 8192 1:-0.377471 2:-0.419684 
-0 8192 1:-0.4153 2:-0.524456 
-8192 8192 1:-0.391562 2:-0.269993 
-8192 8192 1:0.0789946 2:0.209638 
-8192 -8192 1:-0.1214 2:-0.269713 
-8192 -8192 1:0.140405 2:0.29757 
-8192 -8192 1:-0.207867 2:-0.135136 
-2064.568060273315 -8192 1:-0.563154 2:-0.107113 
-8192 -8192 1:-0.258857 2:-0.0191407 
-8192 -8192 1:-0.294322 2:-0.0958885 
-8192 -8192 1:0.200131 2:0.264179 
-0 -8192 1:-0.616323 2:-0.494423 
-0 -8192 1:-0.366961 2:-0.276411 
-8192 -8192 1:0.0384827 2:-0.303113 
-4608.812602935959 -8192 1:-0.697678 2:-0.615498 
-8192 -8192 1:-0.742262 2:-0.625173 
-8192 -8192 1:-0.143997 2:-0.0770066 
-8192 -0 1:-0.162356 2:0.0332403 
-8192 -0 1:-0.0206897 2:0.309797 
-8192 -8192 1:0.474012 2:0.578327 
-0 -8192 1:-0.383672 2:-0.101025 
-0 -8192 1:-0.310664 2:-0.273842 
-8192 -0 1:-0.135945 2:0.092781 
-8192 -7628.271824255383 1:0.0863154 2:0.187343 
-8192 -8192 1:-0.105544 2:-0.161616 
-8192 -8192 1:0.332393 2:0.4137 
-8192 -0 1:-0.063532 2:0.214595 
-0 -8192 1:-0.348304 2:-0.340758 
-0 -8192 1:-0.465042 2:-0.383041 
-0 -8192 1:-0.39402 2:-0.17768 
-0 -8192 1:-0.476669 2:-0.480756 
-8192 -8192 1:-0.712616 2:-0.648377 
-8192 -8192 1:0.559266 2:-0.0112031 
-0 -8192 1:-0.309556 2:-0.14931 
-0 -8192 1:-0.320299 2:-0.273187 
-8192 -8192 1:0.143549 2:0.314068 
-0 -8192 1:-0.421925 2:-0.149235 
-8192 -0 1:-0.120283 2:0.183873 
-8192 -8192 1:0.220871 2:0.25006 
-8192 -8192 1:-0.0611607 2:-0.0796659 
-8192 -8192 1:0.445891 2:0.276783 
-0 -8192 1:-0.322459 2:-0.421182 
-0 -8192 1:-0.678121 2:-0.563074 
-8192 -8192 1:-0.167024 2:-0.0517024 
-0 -8192 1:-0.538168 2:-0.493418 
-0 -8192 1:-0.662089 2:-0.247046 
-8192 -8192 1:-0.169262 2:-0.167235 
-8192 -8192 1:0.221412 2:0.3314 
-8192 -0 1:0.0510422 2:0.252473 
-8192 -1956.20176264208 1:-0.0357599 2:0.0428852 
-0 -8192 1:-0.472865 2:-0.278178 
-8192 -8192 1:-0.149156 2:0.00665283 
-8192 -8192 1:-0.107544 2:-0.113808 
-8192 -8192 1:-0.269621 2:-0.108768 
-0 -8192 1:-0.28263 2:-0.129941 
-0 -8192 1:-0.34853 2:-0.25252 
-8192 -8192 1:-0.313135 2:-0.104765 
-0 -8192 1:-0.484657 2:-0.333156 
-8192 -8192 1:-0.189733 2:-0.00976313 
-8192 -8192 1:-0.205393 2:-0.0994312 
-8192 -8192 1:0.00544171 2:-0.104959 
-8192 -8192 1:-0.724193 2:-0.655579 
-0 -8192 1:-0.5441 2:-0.27723 
-0 -8192 1:-0.429303 2:-0.167153 
-8192 -0 1:-0.00434757 2:0.220328 
-8192 -6617.372901891164 1:-0.0658198 2:0.402333 
-0 -8192 1:-0.361656 2:-0.279052 
-0 -8192 1:-0.590605 2:-0.549847 
-8192 -0 1:-0.210755 2:0.200692 
-8192 -8192 1:0.438192 2:0.591151 
