svm_type c_svc
kernel_type rbf
gamma 0.03125
nr_class 3
total_sv 162
rho -3.08061 -6.65837 -18.5897
label 1 3 2
nr_sv 54 40 68
SV
425.8825722165645 2048 1:-0.623744 2:-0.504606 
2048 2048 1:0.807657 2:0.278308 
0 2048 1:-0.264348 2:-0.429793 
0 2048 1:-0.563841 2:-0.665248 
0 2048 1:-0.505716 2:-0.545188 
2048 2048 1:-0.754087 2:-0.543968 
0 2048 1:-0.776871 2:-0.74048 
0 2048 1:-0.657292 2:-0.69878 
0 2048 1:-0.515728 2:-0.470558 
0 2048 1:-0.574877 2:-0.6517 
2048 2048 1:-0.585902 2:-0.325613 
2048 2048 1:-0.287827 2:0.59695 
2048 2048 1:-0.264079 2:-0.241655 
0 2048 1:-0.401588 2:-0.476648 
0 2048 1:-0.584745 2:-0.669213 
0 2048 1:-0.584573 2:-0.512773 
0 1449.596258547951 1:-0.189955 2:-0.574069 
0 2048 1:-0.620403 2:-0.506725 
0 2048 1:-0.727395 2:-0.632614 
2048 2048 1:-0.538299 2:-0.445764 
2048 2048 1:-0.0926149 2:-0.0781651 
0 2048 1:-0.533371 2:-0.564936 
0 2048 1:-0.666217 2:-0.675947 
0 2048 1:-0.761586 2:-0.693412 
2048 2048 1:-0.340554 2:-0.147914 
2048 2048 1:-0.165259 2:-0.194696 
1535.388934045525 2048 1:-0.407881 2:-0.418237 
2048 2048 1:-0.372445 2:-0.07355 
2048 2048 1:-0.628205 2:-0.363129 
0 2048 1:-0.621022 2:-0.5989 
2048 2048 1:-0.431983 2:-0.266321 
2048 2048 1:-0.561825 2:-0.272764 
2048 2048 1:-0.618734 2:-0.431147 
0 2048 1:-0.581636 2:-0.560461 
2048 2048 1:-0.276641 2:-0.159148 
2048 2048 1:0.0549821 2:-0.11446 
0 2048 1:-0.780512 2:-0.74821 
2048 2048 1:-0.32436 2:-0.300443 
0 2048 1:-0.843389 2:-0.716287 
2048 2048 1:-0.161422 2:-0.259599 
0 2048 1:-0.766844 2:-0.627216 
2048 2048 1:-0.0419781 2:-0.282013 
2048 2048 1:-0.340925 2:-0.263838 
2048 2048 1:-0.262002 2:-0.27914 
2048 2048 1:-0.439035 2:-0.225326 
0 2048 1:-0.55217 2:-0.531106 
2048 2048 1:-0.237453 2:-0.361089 
0 2048 1:-0.667142 2:-0.630489 
2048 2048 1:-0.52005 2:-0.314604 
0 218.5131938824268 1:-0.771631 2:-0.750542 
0 2048 1:-0.738182 2:-0.694335 
2048 2048 1:-0.371292 2:-0.232066 
0 2048 1:-0.719625 2:-0.634424 
0 2048 1:-0.300893 2:-0.445885 
-0 1659.154211251571 1:0.278811 2:0.704889 
-2048 2048 1:-0.375503 2:-0.194162 
-2048 2048 1:-0.751908 2:-0.592129 
-2048 2048 1:-0.687537 2:-0.417308 
-0 2048 1:-0.476227 2:0.0135477 
-2048 2048 1:-0.428907 2:-0.640575 
-2048 2048 1:-0.403437 2:-0.240471 
-2048 2048 1:0.073973 2:0.000613322 
-2048 2048 1:-0.669481 2:-0.188235 
-2048 2048 1:-0.0854186 2:-0.0847234 
-2048 2048 1:-0.713935 2:-0.178452 
-2048 2048 1:-0.439719 2:-0.355198 
-0 2048 1:-0.133679 2:0.262538 
-0 2048 1:0.386869 2:0.300874 
-2048 2048 1:0.171266 2:-0.0918282 
-2048 2048 1:0.0207197 2:0.0220128 
-2048 2048 1:-0.21649 2:-0.185229 
-909.9151053664548 2048 1:-0.181473 2:0.0968259 
-1051.356400895635 2048 1:0.666645 2:0.196749 
-0 249.672208768422 1:0.809137 2:0.389818 
-0 2048 1:0.0912722 2:0.517049 
-2048 2048 1:0.362475 2:0.0243689 
-2048 2048 1:-0.507707 2:-0.401386 
-2048 2048 1:-0.573094 2:-0.222381 
-2048 2048 1:-0.289539 2:-0.0765013 
-2048 2048 1:-0.55038 2:-0.432884 
-2048 2048 1:-0.299354 2:-0.138368 
-0 2048 1:-0.326975 2:0.155638 
-2048 2048 1:-0.219426 2:-0.498892 
-2048 2048 1:-0.237251 2:0.00974028 
-0 1506.12550734584 1:-0.262742 2:0.353298 
-2048 2048 1:-0.251776 2:-0.190014 
-0 2048 1:0.521273 2:0.217626 
-2048 2048 1:-0.345478 2:-0.125276 
-2048 2048 1:-0.49673 2:-0.167176 
-2048 2048 1:-0.570713 2:-0.490712 
-0 2048 1:0.0707905 2:0.435647 
-0 2048 1:0.51908 2:0.411903 
-0 2048 1:-0.226408 2:0.263297 
-0 2048 1:-0.234925 2:0.300728 
-2048 -0 1:-1 2:-0.941328 
-2048 -2048 1:-0.432611 2:-0.0468857 
-2048 -0 1:-0.413945 2:-0.663019 
-2048 -0 1:-0.961475 2:-0.837275 
-2048 -0 1:-0.879683 2:-0.850064 
-0 -2048 1:0.486902 2:0.303121 
-0 -2048 1:0.125233 2:0.283428 
-2048 -0 1:-0.616557 2:-0.509998 
-2048 -0 1:-0.987125 2:-0.915744 
-2048 -0 1:-0.930022 2:-0.947084 
-2048 -2048 1:-0.574122 2:-0.453986 
-2048 -0 1:-0.357393 2:-0.419142 
-2048 -1831.71786748139 1:-0.829866 2:-0.679148 
-0 -2048 1:-0.0961064 2:0.535697 
-2048 -0 1:-0.438762 2:-0.377005 
-2048 -0 1:-0.244622 2:-0.342914 
-2048 -0 1:-0.0647462 2:-0.243118 
-2048 -0 1:-0.502483 2:-0.428597 
-2048 -0 1:-0.388075 2:-0.583961 
-2048 -0 1:-0.690281 2:-0.712698 
-0 -2048 1:-0.349463 2:0.139783 
-2048 -0 1:-0.414767 2:-0.386453 
-2048 -0 1:-0.472319 2:-0.425828 
-0 -2048 1:-0.0272898 2:0.439819 
-2048 -2048 1:-0.418392 2:-0.218081 
-2048 -2048 1:-0.238053 2:-0.1828 
-2048 -2048 1:-0.565109 2:-0.176643 
-2048 -0 1:-0.121733 2:-0.190373 
-0 -2048 1:0.23211 2:0.285614 
-426.4154129986196 -2048 1:-0.275152 2:-0.029488 
-2048 -0 1:-0.501474 2:-0.506877 
-0 -2048 1:-0.166907 2:0.113307 
-0 -2048 1:0.354329 2:0.89483 
-2048 -0 1:-0.377172 2:-0.403499 
-2048 -0 1:-0.485366 2:-0.48062 
-2048 -0 1:-0.490864 2:-0.530542 
-2048 -1583.234059884443 1:-0.426848 2:-0.350547 
-0 -2048 1:-0.219656 2:-0.0171426 
-0 -2048 1:0.17462 2:0.0715583 
-2048 -2048 1:-0.41603 2:-0.258955 
-2048 -0 1:-0.847648 2:-0.814163 
-1241.694039431762 -2048 1:0.655188 2:-0.0394105 
-0 -2048 1:0.110479 2:0.50007 
-0 -2048 1:0.0582703 2:0.322929 
-2048 -2048 1:0.03836 2:-0.11412 
-2048 -0 1:-0.447096 2:-0.539887 
-2048 -2048 1:-0.846137 2:-0.640867 
-2048 -2048 1:-0.348556 2:-0.151521 
-0 -2048 1:0.439663 2:0.0844319 
-2048 -0 1:-0.213151 2:-0.364629 
-2048 -2048 1:-0.256768 2:-0.0515615 
-2048 -0 1:-0.951432 2:-0.884222 
-2048 -2048 1:-0.420234 2:-0.232212 
-2048 -2048 1:-0.377822 2:-0.305337 
-2048 -2048 1:-0.38361 2:-0.152517 
-2048 -2048 1:-0.51052 2:-0.265332 
-2048 -2048 1:-0.388833 2:-0.247709 
-2048 -0 1:-0.492473 2:-0.510059 
-2048 -2048 1:-0.216364 2:-0.0909599 
-2048 -0 1:-0.33459 2:-0.385622 
-2048 -2048 1:-0.129955 2:-0.0586542 
-2048 -2048 1:-0.595487 2:-0.423781 
-2048 -2048 1:-0.540938 2:-0.415954 
-2048 -2048 1:-0.296406 2:-0.241145 
-2048 -0 1:-0.538443 2:-0.535576 
-0 -2048 1:0.193496 2:0.108734 
-2048 -2048 1:-0.382662 2:-0.214906 
-2048 -0 1:-0.0245122 2:-0.16573 
