svm_type c_svc
kernel_type rbf
gamma 0.125
nr_class 3
total_sv 170
rho -0.0574445 -0.157729 -0.0617483
label 1 3 2
nr_sv 58 44 68
SV
2 2 1:-0.504606 2:-0.587703 
2 2 1:0.278308 2:-0.414057 
2 2 1:-0.429793 2:-0.645383 
0 2 1:-0.665248 2:-0.783588 
0 2 1:-0.545188 2:-0.658299 
0 2 1:-0.543968 2:-0.612302 
0 2 1:-0.69878 2:-0.800169 
2 2 1:-0.470558 2:-0.545768 
0 2 1:-0.6517 2:-0.791243 
2 2 1:-0.325613 2:-0.0334917 
2 2 1:0.59695 2:0.415809 
2 2 1:-0.241655 2:-0.362653 
0 2 1:-0.476648 2:-0.688874 
0 2 1:-0.669213 2:-0.798954 
2 2 1:-0.512773 2:-0.604822 
0 2 1:-0.574069 2:-0.833973 
0.7125370179968122 2 1:-0.506725 2:-0.638782 
0 2 1:-0.656066 2:-0.811042 
0 2 1:-0.632614 2:-0.691623 
2 2 1:-0.445764 2:-0.551076 
2 2 1:-0.0781651 2:-0.326349 
0 2 1:-0.564936 2:-0.648851 
0 2 1:-0.675947 2:-0.776981 
0 2 1:-0.693412 2:-0.797235 
2 2 1:-0.147914 2:-0.270902 
2 2 1:-0.194696 2:-0.383549 
2 2 1:-0.418237 2:-0.528591 
2 2 1:-0.07355 2:-0.272015 
0 2 1:-0.706711 2:-0.865277 
2 2 1:-0.363129 2:-0.544717 
0 2 1:-0.5989 2:-0.715258 
2 2 1:-0.266321 2:-0.413015 
0 0.5040927354897898 1:-0.723902 2:-0.852994 
2 2 1:-0.272764 2:-0.472989 
2 2 1:-0.431147 2:-0.528183 
0 2 1:-0.560461 2:-0.676382 
2 2 1:-0.159148 2:-0.35429 
2 2 1:-0.11446 2:-0.366122 
0 2 1:-0.74821 2:-0.803575 
2 2 1:-0.300443 2:-0.546538 
0 2 1:-0.713998 2:-0.801587 
0 2 1:-0.716287 2:-0.792682 
2 2 1:-0.259599 2:-0.423417 
0 2 1:-0.650394 2:-0.856692 
0 2 1:-0.627216 2:-0.707279 
2 2 1:-0.282013 2:-0.5474 
2 2 1:-0.263838 2:-0.400286 
2 2 1:-0.27914 2:-0.449679 
2 2 1:-0.225326 2:-0.251654 
2 2 1:-0.531106 2:-0.597907 
2 2 1:-0.361089 2:-0.60838 
0 2 1:-0.630489 2:-0.759926 
2 2 1:-0.314604 2:-0.481387 
0 2 1:-0.750542 2:-0.808106 
0 2 1:-0.694335 2:-0.707443 
2 2 1:-0.232066 2:-0.421577 
0 2 1:-0.634424 2:-0.667578 
2 2 1:-0.445885 2:-0.627702 
-0 2 1:0.704889 2:0.109024 
-2 2 1:-0.194162 2:-0.421219 
-2 2 1:-0.592129 2:-0.671825 
-2 2 1:-0.417308 2:-0.111404 
-2 2 1:0.0135477 2:-0.145319 
-2 2 1:-0.640575 2:-0.799551 
-2 2 1:-0.240471 2:-0.185387 
-0 2 1:0.649811 2:0.321958 
-2 2 1:0.000613322 2:-0.23774 
-2 2 1:-0.188235 2:-0.362389 
-2 2 1:-0.0847234 2:-0.406764 
-2 2 1:-0.178452 2:-0.355653 
-2 2 1:-0.355198 2:-0.460304 
-0 2 1:0.262538 2:0.140757 
-2 2 1:0.300874 2:-0.268453 
-2 2 1:-0.0918282 2:-0.550434 
-2 2 1:0.0220128 2:-0.182674 
-2 2 1:-0.185229 2:-0.329718 
-0 2 1:0.391506 2:-0.0562119 
-2 2 1:0.0968259 2:0.114933 
-2 2 1:0.196749 2:-0.43669 
-0 2 1:0.389818 2:-0.172691 
-0 2 1:0.517049 2:0.428829 
-0 2 1:0.367447 2:0.213376 
-2 2 1:0.0243689 2:-0.420238 
-2 2 1:-0.401386 2:-0.569755 
-2 2 1:-0.222381 2:-0.343711 
-2 2 1:-0.0765013 2:-0.181028 
-2 2 1:-0.432884 2:-0.547894 
-2 2 1:-0.138368 2:-0.296094 
-0.6336497577717491 2 1:0.155638 2:0.0640234 
-2 2 1:-0.498892 2:-0.780104 
-2 2 1:0.00974028 2:0.151774 
-0 2 1:0.353298 2:0.51506 
-2 2 1:-0.190014 2:-0.410553 
-2 2 1:0.217626 2:-0.351094 
-2 2 1:-0.125276 2:-0.24028 
-2 2 1:-0.167176 2:-0.371378 
-2 2 1:-0.490712 2:-0.629126 
-0 0.3606432882908779 1:0.435647 2:0.667355 
-0.07888726022506307 2 1:0.411903 2:-0.264845 
-0 2 1:0.263297 2:0.193224 
-0 2 1:0.300728 2:0.309705 
-2 2 1:0.0885005 2:-0.0248861 
-2 -0 1:-0.941328 2:-0.936549 
-2 -2 1:-0.0468857 2:-0.223555 
-2 -0 1:-0.663019 2:-0.854402 
-2 -0 1:-0.837275 2:-0.876036 
-2 -0 1:-0.850064 2:-0.898572 
-0 -2 1:0.303121 2:0.152522 
-0 -2 1:0.283428 2:-0.0861064 
-2 -0 1:-0.509998 2:-0.617208 
-2 -0 1:-0.915744 2:-0.912622 
-2 -0 1:-0.947084 2:-0.98271 
-2 -0 1:-0.453986 2:-0.594167 
-2 -0 1:-0.419142 2:-0.597379 
-2 -0 1:-0.679148 2:-0.703574 
-0 -2 1:0.535697 2:0.742465 
-2 -2 1:-0.377005 2:-0.525113 
-2 -2 1:-0.342914 2:-0.561919 
-2 -2 1:-0.243118 2:-0.4813 
-2 -0.3606432882908777 1:-0.428597 2:-0.54279 
-2 -0 1:-0.583961 2:-0.737574 
-2 -0 1:-0.712698 2:-0.812721 
-0 -2 1:0.139783 2:0.117809 
-2 -2 1:-0.386453 2:-0.57757 
-2 -0 1:-0.425828 2:-0.628062 
-0 -2 1:0.439819 2:0.214584 
-2 -2 1:-0.218081 2:-0.323247 
-2 -2 1:-0.1828 2:-0.334901 
-2 -2 1:-0.176643 2:-0.253544 
-2 -2 1:-0.190373 2:-0.438749 
-0 -2 1:0.285614 2:-0.087128 
-2 -2 1:-0.029488 2:-0.192247 
-2 -0 1:-0.506877 2:-0.687177 
-0 -2 1:0.113307 2:0.0799463 
-0 -2 1:0.89483 2:0.80091 
-2 -2 1:-0.403499 2:-0.557539 
-2 -0 1:-0.48062 2:-0.642616 
-2 -0 1:-0.530542 2:-0.694041 
-2 -2 1:-0.350547 2:-0.489778 
-2 -2 1:-0.0171426 2:-0.259411 
-2 -2 1:0.0715583 2:-0.290107 
-2 -2 1:-0.258955 2:-0.41475 
-2 -0 1:-0.814163 2:-0.876619 
-2 -2 1:-0.0394105 2:-0.583885 
-0 -2 1:0.50007 2:0.171194 
-0 -2 1:0.322929 2:0.188783 
-2 -2 1:-0.11412 2:-0.459879 
-2 -0 1:-0.539887 2:-0.759382 
-2 -0 1:-0.640867 2:-0.662947 
-2 -2 1:-0.151521 2:-0.375098 
-2 -2 1:0.0844319 2:-0.306752 
-2 -2 1:-0.364629 2:-0.477785 
-2 -2 1:-0.0515615 2:-0.299683 
-2 -0 1:-0.884222 2:-0.901674 
-2 -2 1:-0.232212 2:-0.328578 
-2 -2 1:-0.305337 2:-0.470856 
-2 -2 1:-0.152517 2:-0.323055 
-2 -2 1:-0.265332 2:-0.444788 
-2 -2 1:-0.247709 2:-0.429213 
-2 -0 1:-0.510059 2:-0.582197 
-2 -2 1:-0.0909599 2:-0.231734 
-2 -0 1:-0.385622 2:-0.617839 
-2 -2 1:-0.0586542 2:-0.254636 
-2 -0 1:-0.423781 2:-0.592002 
-2 -2 1:-0.415954 2:-0.544788 
-2 -2 1:-0.241145 2:-0.304977 
-2 -0 1:-0.535576 2:-0.673241 
-0.5040927354897898 -2 1:0.108734 2:-0.183824 
-2 -2 1:-0.214906 2:-0.311026 
-2 -2 1:-0.16573 2:-0.475688 
