svm_type c_svc
kernel_type rbf
gamma 2
nr_class 3
total_sv 178
rho -0.178845 -0.0663891 0.114066
label 3 1 2
nr_sv 47 64 67
SV
0.006710295352291009 0.125 1:0.699454 2:0.101254 
0.125 0.125 1:-0.216155 2:-0.433612 
0.125 0.125 1:-0.621451 2:-0.686404 
0.125 0.125 1:0.914978 2:0.695387 
0.125 0.125 1:-0.00461969 2:-0.155306 
0.125 0.125 1:-0.67079 2:-0.815244 
0.125 0.125 1:-0.0177923 2:-0.248534 
0.125 0.125 1:-0.210119 2:-0.37427 
0.125 0.125 1:-0.104701 2:-0.419032 
0.125 0.125 1:-0.200156 2:-0.367475 
0.125 0.125 1:0.287998 2:-0.279514 
0 0.125 1:0.437962 2:0.0555627 
0.125 0.125 1:0.00400126 2:-0.192987 
0.125 0.125 1:-0.207058 2:-0.341313 
0 0.125 1:0.380299 2:-0.0654225 
0 0.125 1:0.222036 2:-0.0149391 
0 0.125 1:0.0801922 2:0.107215 
0.125 0.125 1:-0.213112 2:-0.226925 
0.125 0.125 1:0.181955 2:-0.449219 
0.125 0.125 1:0.859375 2:1 
0.125 0.125 1:0.0202908 2:-0.45887 
0 0.125 1:0.312977 2:0.329437 
0 0.1098024449633363 1:0.355797 2:0.206516 
0.125 0.125 1:0.00640078 2:-0.432623 
0.125 0.125 1:-0.256718 2:-0.450284 
0.125 0.125 1:0.775583 2:0.428936 
0.125 0.125 1:-0.0963271 2:-0.191327 
0.125 0.125 1:0.716547 2:0.470163 
0.125 0.125 1:-0.159333 2:-0.307397 
0 0.125 1:0.140087 2:0.0558613 
0.125 0.125 1:-0.63539 2:-0.65893 
0.125 0.125 1:-0.00849727 2:0.144377 
0.125 0.125 1:0.341387 2:0.510831 
0.125 0.125 1:-0.243947 2:-0.316177 
0.125 0.125 1:-0.211931 2:-0.422854 
0.125 0.125 1:0.00456404 2:-0.0763295 
0.125 0.125 1:0.911434 2:0.785582 
0.125 0.125 1:0.203217 2:-0.362877 
0.125 0.125 1:-0.188672 2:-0.383337 
0.125 0.125 1:-0.518166 2:-0.643333 
0 0.125 1:0.180576 2:-0.0125636 
0.125 0.125 1:0.401072 2:-0.275875 
0 0.125 1:0.249729 2:0.186188 
0.125 0.125 1:0.0717135 2:-0.0338235 
0.125 0.125 1:-0.0712311 2:-0.313944 
0.125 0.125 1:-0.249668 2:-0.146638 
0.125 0.125 1:1 2:0.902938 
-0.125 0.125 1:0.265017 2:-0.426388 
-0.125 0.125 1:-0.456125 2:-0.659731 
-0.125 0.125 1:0.635799 2:0.787218 
-0 0.125 1:-0.695916 2:-0.799142 
-0 0.125 1:-0.573646 2:-0.67276 
-0 0.125 1:-0.682206 2:-0.693447 
-0 0.125 1:-0.572403 2:-0.626362 
-0.125 0.125 1:-0.482607 2:-0.606112 
-0 0.01225916499601699 1:-0.730066 2:-0.815868 
-0.125 0.125 1:-0.0756838 2:-0.39583 
-0.05312275992853498 0 1:-0.90841 2:-0.929197 
-0 0.125 1:-0.558773 2:-0.714342 
-0.125 0.125 1:-0.497641 2:-0.559248 
-0.125 0.125 1:-1 2:-0.979365 
-0 0.125 1:-0.682119 2:-0.806864 
-0.125 0.125 1:-0.350027 2:-0.0425042 
-0.125 0.125 1:-0.933852 2:-0.949575 
-0.125 0.125 1:-0.515724 2:-0.5633 
-0.125 0.125 1:-0.264522 2:-0.374536 
-0 0.125 1:-0.503844 2:-0.703601 
-0 0.125 1:-0.699955 2:-0.814642 
-0 0.125 1:-0.540634 2:-0.618817 
-0 0.125 1:-0.603059 2:-0.849966 
-0 0.125 1:-0.686566 2:-0.826835 
-0.125 0.125 1:-0.901317 2:-0.967842 
-0 0.125 1:-0.662682 2:-0.706375 
-0.125 0.125 1:-0.362488 2:-0.456654 
-0.125 0.125 1:-0.0980216 2:-0.337916 
-0 0.125 1:-0.570109 2:-0.680109 
-0.125 0.125 1:-0.954681 2:-0.977948 
-0.125 0.125 1:-0.343892 2:-0.405157 
-0 0.125 1:-0.706813 2:-0.792477 
-0 0.125 1:-0.724599 2:-0.812907 
-0.125 0.125 1:-0.169055 2:-0.281985 
-0.125 0.125 1:-0.448908 2:-0.576927 
-0.125 0.125 1:-0.216699 2:-0.395614 
-0.125 0.125 1:-0.444356 2:-0.541921 
-0.125 0.125 1:-0.0933215 2:-0.283108 
-0.125 0.125 1:-0.388234 2:-0.558188 
-0.125 0.125 1:-0.289643 2:-0.425337 
-0.125 0.125 1:-0.296205 2:-0.485834 
-0 0.125 1:-0.599509 2:-0.66386 
-0 0.125 1:-0.5892 2:-0.691001 
-0.125 0.125 1:-0.180496 2:-0.3661 
-0 0.125 1:-0.690072 2:-0.749815 
-0.125 0.125 1:-0.134985 2:-0.378035 
-0.07858753542375603 0.125 1:-0.439724 2:-0.711813 
-0.125 0.125 1:-0.912034 2:-0.964314 
-0.125 0.125 1:-0.324393 2:-0.560024 
-0 0.125 1:-0.699899 2:-0.777191 
-0.125 0.125 1:-0.322729 2:-0.290558 
-0.125 0.0762033176646749 1:-0.917625 2:-0.949143 
-0.125 0.125 1:-0.282797 2:-0.435829 
-0 0.125 1:-0.657184 2:-0.722167 
-0.125 0.125 1:-0.305623 2:-0.560894 
-0 0.125 1:-0.557122 2:-0.611876 
-0.125 0.125 1:-0.247893 2:-0.262569 
-0.125 0.125 1:-0.386156 2:-0.622405 
-0.125 0.125 1:0.0258443 2:-0.629302 
-0 0.125 1:-0.660517 2:-0.775273 
-0.125 0.125 1:-0.338815 2:-0.494305 
-0 0.125 1:-0.725539 2:-0.722333 
-0 0.125 1:-0.664525 2:-0.68212 
-0 0.125 1:-0.472514 2:-0.641896 
-0.125 -0.125 1:-0.0661661 2:-0.234225 
-0.125 -0.125 1:-0.693647 2:-0.870573 
-0.125 -0.125 1:-0.871112 2:-0.892395 
-0.125 -0.125 1:-0.266359 2:-0.37691 
-0.125 -0.125 1:0.290286 2:0.145132 
-0.125 -0 1:0.27023 2:-0.0955778 
-0.125 -0.125 1:-0.951026 2:-0.929301 
-0.125 -0.125 1:-0.982944 2:-1 
-0 -0.125 1:-0.480764 2:-0.608069 
-0 -0.125 1:-0.445278 2:-0.611308 
-0 -0.125 1:-0.710072 2:-0.71843 
-0 -0.125 1:-0.648606 2:-0.707485 
-0.125 -0.125 1:0.527146 2:0.74022 
-0.0191452134610406 -0.125 1:-0.749201 2:-0.815681 
-0 -0.125 1:-0.402365 2:-0.538413 
-0 -0.125 1:-0.367646 2:-0.57554 
-0.125 -0.125 1:-0.200304 2:-0.476515 
-0.125 -0.125 1:-0.266013 2:-0.494217 
-0 -0.125 1:-0.454907 2:-0.556244 
-0 -0.125 1:-0.613133 2:-0.752726 
-0.125 -0.125 1:-0.744241 2:-0.828529 
-0 -0.125 1:-0.411988 2:-0.591328 
-0 -0.125 1:-0.452087 2:-0.642259 
-0.125 -0.125 1:-0.240515 2:-0.334786 
-0.125 -0.125 1:-0.204584 2:-0.346542 
-0.125 -0.125 1:-0.212296 2:-0.451296 
-0.125 -0.125 1:0.311492 2:0.0525763 
-0.125 -0 1:-0.048448 2:-0.202644 
-0.125 -0.125 1:-0.0474338 2:-0.358839 
-0 -0.125 1:-0.534629 2:-0.70189 
-0.125 -0 1:0.0969765 2:0.071923 
-0.125 -0.125 1:0.892894 2:0.799174 
-0 -0.125 1:-0.429347 2:-0.571122 
-0 -0.125 1:-0.507888 2:-0.656941 
-0 -0.125 1:-0.558729 2:-0.708814 
-0.09065723150229571 -0.125 1:-0.37542 2:-0.50277 
-0.125 -0.08846248266069189 1:-0.0358753 2:-0.270394 
-0.125 -0.125 1:-0.282142 2:-0.427087 
-0.125 -0.125 1:-0.324578 2:-0.499203 
-0.125 -0.125 1:-0.847575 2:-0.892984 
-0.125 -0.125 1:-0.0585532 2:-0.597697 
-0.125 -0.125 1:-0.355166 2:-0.49065 
-0.125 -0.125 1:0.31046 2:0.181709 
-0.125 -0.125 1:-0.134639 2:-0.47261 
-0 -0.125 1:-0.568247 2:-0.774725 
-0.125 -0.125 1:-0.172728 2:-0.38709 
-0.125 -0.125 1:-0.184312 2:-0.439462 
-0 -0.125 1:-0.389761 2:-0.490672 
-0.125 -0.125 1:-0.0709281 2:-0.311017 
-0.125 -0.125 1:-0.918923 2:-0.918257 
-0.125 -0.125 1:-0.254906 2:-0.340164 
-0.125 -0.125 1:-0.329377 2:-0.483683 
-0.125 -0.125 1:-0.291573 2:-0.443264 
-0.125 -0.125 1:-0.173743 2:-0.334593 
-0.125 -0 1:0.150149 2:-0.11237 
-0.125 -0.125 1:-0.288635 2:-0.457387 
-0.125 -0.125 1:-0.270688 2:-0.441677 
-0.125 -0.125 1:-0.111052 2:-0.242475 
-0 -0.125 1:-0.41114 2:-0.631947 
-0.125 -0.125 1:-0.0781514 2:-0.265577 
-0.125 -0 1:0.266594 2:-0.142284 
-0 -0.125 1:-0.450003 2:-0.605885 
-0.125 -0.125 1:-0.264003 2:-0.316357 
-0 -0.125 1:-0.57218 2:-0.642667 
-0.125 -0.125 1:-0.23728 2:-0.322458 
-0.125 -0.125 1:-0.124664 2:-0.142573 
-0.125 -0.125 1:-0.1872 2:-0.488556 
