svm_type c_svc
kernel_type rbf
gamma 0.5
nr_class 3
total_sv 153
rho 2.71053 -3.33965 -12.5405
label 1 3 2
nr_sv 51 41 61
SV
0 512 1:-0.482086 2:-0.542124 
0 512 1:-0.403872 2:-0.60618 
512 512 1:0.717046 2:0.986837 
0 512 1:-0.802065 2:-0.854829 
0 512 1:-0.524513 2:-0.620524 
0 512 1:-0.431056 2:-0.547148 
512 512 1:-0.0133288 2:-0.315638 
0 343.0654699388313 1:-0.859253 2:-0.86277 
0 512 1:-0.868166 2:-0.902848 
0 499.878624556448 1:-0.509245 2:-0.666304 
0 512 1:-0.44649 2:-0.495553 
0 512 1:-0.802452 2:-0.849867 
88.77391509772464 0 1:-0.784169 2:-0.792027 
512 75.36344464968981 1:-0.294956 2:0.0733556 
0 512 1:-0.465053 2:-0.500014 
512 512 1:0.669546 2:0.572326 
0 512 1:-0.452857 2:-0.654479 
0 512 1:-0.484302 2:-0.59885 
0 298.2720847469472 1:-0.816737 2:-0.900887 
512 512 1:-0.307749 2:-0.382602 
295.4633451255431 512 1:-0.420569 2:-0.501448 
0 512 1:-0.520882 2:-0.628615 
512 512 1:-0.288659 2:-0.325907 
0 512 1:-0.813086 2:-0.878797 
512 512 1:-0.109179 2:-0.190301 
0 512 1:-0.869366 2:-0.893894 
0 512 1:-0.396463 2:-0.515016 
512 512 1:-0.158088 2:-0.315401 
512 512 1:-0.0314348 2:-0.191537 
512 0 1:-0.693378 2:-0.850383 
512 512 1:-0.334178 2:-0.494386 
512 512 1:-0.405288 2:-0.476024 
512 512 1:-0.120924 2:-0.282906 
0 512 1:-0.387036 2:-0.663519 
434.6075391205053 0 1:-0.736764 2:-0.781861 
512 512 1:-0.268642 2:-0.496408 
0 512 1:-0.866801 2:-0.894235 
512 512 1:-0.266934 2:-0.199739 
0 107.8792272158612 1:-0.877626 2:-0.924808 
512 512 1:-0.225941 2:-0.359675 
102.8820039146077 0 1:-0.634502 2:-0.84085 
512 512 1:-0.249374 2:-0.497366 
512 512 1:-0.230373 2:-0.333988 
0 512 1:-0.50755 2:-0.553494 
512 512 1:-0.246371 2:-0.388841 
0 445.4452870530993 1:-0.509791 2:-0.553455 
0 512 1:-0.332045 2:-0.565086 
512 201.3767820482207 1:0.0908952 2:-0.572679 
512 512 1:-0.283446 2:-0.424054 
512 512 1:-0.197157 2:-0.357633 
0 512 1:-0.420696 2:-0.586544 
-512 512 1:-0.573588 2:-0.635546 
-337.6619830083708 0 1:-0.390819 2:-0.0131701 
-0 512 1:0.0596223 2:-0.0508338 
-512 512 1:-0.624236 2:-0.777392 
-512 512 1:-0.205944 2:-0.0953312 
-512 512 1:-0.151333 2:-0.291901 
-512 512 1:-0.325886 2:-0.400641 
-0 512 1:0.319932 2:0.266867 
-0 28.52358134131922 1:0.36001 2:-0.18758 
-0 512 1:0.513956 2:0.181322 
-512 512 1:-0.0505439 2:-0.500735 
-512 512 1:-0.148191 2:-0.255618 
-0 512 1:0.454762 2:0.0481237 
-0 512 1:0.292296 2:0.103703 
-512 512 1:-0.154406 2:-0.129682 
-512 512 1:0.0851942 2:-0.385042 
-0 512 1:0.385652 2:0.482844 
-0 512 1:0.452997 2:-0.0812321 
-0 512 1:0.586012 2:0.586786 
-0 512 1:0.429609 2:0.347514 
-512 512 1:0.0709354 2:-0.356146 
-512 512 1:-0.19917 2:-0.37559 
-512 512 1:-0.374173 2:-0.522192 
-512 512 1:-0.187031 2:-0.271159 
-0 512 1:-0.0345202 2:-0.0904908 
-212.0448108460974 0 1:0.799938 2:0.637776 
-512 512 1:-0.407103 2:-0.497913 
-512 512 1:-0.0991991 2:-0.218277 
-512 512 1:-0.476112 2:-0.755794 
-512 512 1:-0.587897 2:-0.605297 
-512 512 1:-0.18606 2:-0.227944 
-512 512 1:-0.153193 2:-0.34539 
-0 512 1:0.0690499 2:0.0361157 
-261.9738748840264 512 1:1 2:0.985037 
-143.0797206876685 512 1:-0.0855117 2:-0.156293 
-512 512 1:-0.129317 2:-0.301883 
-512 512 1:-0.467561 2:-0.588126 
-0 512 1:0.249736 2:0.106319 
-478.0298314510235 251.8648832587406 1:0.500909 2:0.851681 
-0 205.7936525554565 1:0.359858 2:0.454492 
-0.9365823811944697 512 1:-0.00875781 2:-0.225485 
-512 -19.58398859595406 1:-0.93866 2:-0.929534 
-512 -449.8630719860895 1:-0.6477 2:-0.838306 
-512 -0 1:-0.829878 2:-0.862331 
-512 -0 1:-0.843248 2:-0.887359 
-512 -512 1:-0.209067 2:-0.294808 
-0 -512 1:0.362359 2:0.279933 
-0 -512 1:0.341771 2:0.0149244 
-512 -0 1:-0.487724 2:-0.57489 
-512 -0 1:-0.911914 2:-0.902962 
-512 -0 1:-0.429165 2:-0.549302 
-512 -0 1:-0.664562 2:-0.670804 
-512 -0 1:-0.601464 2:-0.658754 
-512 -512 1:0.605508 2:0.935095 
-512 -0 1:-0.704729 2:-0.777872 
-512 -512 1:-0.313043 2:-0.513489 
-512 -512 1:-0.141258 2:-0.404468 
-512 -512 1:-0.208711 2:-0.423957 
-512 -512 1:-0.402621 2:-0.492245 
-512 -0 1:-0.565049 2:-0.708563 
-0 -512 1:0.191596 2:0.241382 
-512 -512 1:-0.399726 2:-0.586944 
-0 -512 1:0.505271 2:0.348857 
-512 -512 1:-0.182536 2:-0.248432 
-367.4625262868042 -512 1:-0.139214 2:-0.171024 
-512 -106.2088701214227 1:-0.153568 2:-0.376703 
-0 -512 1:0.384128 2:0.178034 
-0 -512 1:0.344056 2:0.0137899 
-0 -512 1:0.0146302 2:-0.10295 
-0 -512 1:0.0156714 2:-0.274912 
-512 -0 1:-0.48446 2:-0.652594 
-0 -512 1:0.163916 2:0.199334 
-235.3192663007716 -484.0795804174637 1:0.980967 2:1 
-512 -0 1:-0.376383 2:-0.508625 
-512 -0 1:-0.509201 2:-0.660217 
-0 -512 1:0.12027 2:-0.211629 
-512 -0 1:-0.268832 2:-0.429447 
-512 -0 1:-0.805716 2:-0.862979 
-512 -512 1:-0.300232 2:-0.42003 
-344.499127621522 -512 1:0.568261 2:0.30067 
-0 -512 1:0.383068 2:0.320203 
-512 -512 1:-0.518971 2:-0.732782 
-512 -512 1:-0.624541 2:-0.625686 
-512 -0 1:-0.11295 2:-0.306015 
-512 -512 1:-0.124841 2:-0.363674 
-0 -512 1:0.133729 2:-0.230113 
-512 -512 1:-0.197309 2:-0.254352 
-512 -0 1:-0.273759 2:-0.41236 
-512 -0 1:-0.23495 2:-0.367861 
-0 -161.6398467434498 1:0.218501 2:-0.00356306 
-512 -0 1:-0.231934 2:-0.383409 
-512 -512 1:-0.487787 2:-0.536009 
-0 -512 1:-0.0496361 2:-0.146802 
-0 -512 1:0.338038 2:-0.0364964 
-512 -0 1:-0.397587 2:-0.546898 
-512 -288.8067592911369 1:-0.389404 2:-0.494464 
-512 -512 1:-0.206648 2:-0.228142 
-512 -0 1:-0.514464 2:-0.637118 
-512 -0 1:-0.523009 2:-0.587393 
-512 -512 1:-0.179216 2:-0.23486 
-0 -512 1:-0.0636092 2:-0.0368151 
-512 -512 1:-0.127806 2:-0.417725 
