svm_type c_svc
kernel_type rbf
gamma 0.000488281
nr_class 3
total_sv 165
rho -3.18484 -1.80963 -3.17999
label 1 3 2
nr_sv 56 43 66
SV
2048 2048 1:-0.668424 2:-0.504606 
2048 2048 1:0.593002 2:0.278308 
2048 2048 1:-0.164634 2:0.642385 
0 2048 1:-0.615634 2:-0.665248 
0 2048 1:-0.823662 2:-0.651785 
2048 2048 1:-0.487829 2:-0.455795 
2048 2048 1:-0.114783 2:-0.0562313 
0 2048 1:-0.478926 2:-0.530584 
0 2048 1:-0.779771 2:-0.732246 
2048 2048 1:-0.573234 2:-0.470558 
0 2048 1:-0.625359 2:-0.6517 
2048 2048 1:-0.635075 2:-0.325613 
2048 2048 1:-0.781894 2:-0.488313 
2048 2048 1:-0.372396 2:0.59695 
2048 2048 1:-0.351468 2:-0.241655 
0 2048 1:-0.634055 2:-0.669213 
0 2048 1:-0.633904 2:-0.512773 
0 2048 1:-0.286146 2:-0.574069 
1675.088470663753 2048 1:-0.665479 2:-0.506725 
0 2048 1:-0.562829 2:-0.656066 
2048 2048 1:-0.388711 2:-0.337849 
2048 2048 1:-0.593125 2:-0.445764 
2048 2048 1:-0.200364 2:-0.0781651 
0 2048 1:-0.587512 2:-0.541715 
0 2048 1:-0.588782 2:-0.564936 
2048 2048 1:-0.59734 2:-0.319589 
0 2048 1:-0.705853 2:-0.675947 
2048 2048 1:-0.623137 2:-0.422706 
2048 2048 1:-0.478194 2:-0.418237 
0 1010.110126242642 1:-0.515763 2:-0.706711 
2048 2048 1:-0.672355 2:-0.363129 
0 2048 1:-0.666024 2:-0.5989 
2048 2048 1:-0.499434 2:-0.266321 
0 2048 1:-0.689551 2:-0.723902 
2048 2048 1:-0.613857 2:-0.272764 
0 2048 1:-0.769225 2:-0.570584 
2048 2048 1:-0.664008 2:-0.431147 
0 2048 1:-0.631316 2:-0.560461 
0 2048 1:-0.714469 2:-0.659509 
2048 2048 1:-0.0702942 2:-0.11446 
2048 2048 1:-0.115087 2:-0.413689 
0 2048 1:-0.719323 2:-0.713998 
0 2048 1:-0.659932 2:-0.669158 
2048 2048 1:-0.761566 2:-0.298809 
0 2048 1:-0.403787 2:-0.650394 
2048 2048 1:-0.155741 2:-0.282013 
2048 2048 1:-0.419188 2:-0.263838 
0 2048 1:-0.593793 2:-0.528963 
2048 2048 1:-0.349637 2:-0.27914 
2048 2048 1:-0.505648 2:-0.225326 
0 2048 1:-0.605349 2:-0.531106 
2048 2048 1:1 2:0.0434608 
2048 2048 1:-0.577043 2:-0.314604 
0 2048 1:-0.769272 2:-0.694335 
2048 2048 1:-0.445949 2:-0.232066 
0 2048 1:-0.752919 2:-0.634424 
-2048 2048 1:-0.44966 2:-0.194162 
-2048 2048 1:-0.781368 2:-0.592129 
-2048 2048 1:-0.724641 2:-0.417308 
-2048 2048 1:-0.538424 2:0.0135477 
-2048 2048 1:-0.474277 2:-0.240471 
-2048 2048 1:-0.0535584 2:0.000613322 
-2048 2048 1:-0.194023 2:-0.0847234 
-2048 2048 1:-0.747905 2:-0.178452 
-2048 2048 1:-0.506251 2:-0.355198 
-0 2048 1:-0.236552 2:0.262538 
-2048 2048 1:0.0321812 2:-0.0918282 
-2048 2048 1:-0.100488 2:0.0220128 
-2048 2048 1:-0.30953 2:-0.185229 
-0 2048 1:0.762505 2:0.391506 
-0 2048 1:-0.141857 2:0.236105 
-1857.869486107145 2048 1:-0.278671 2:0.0968259 
-2048 2048 1:-0.307479 2:-0.191174 
-0 2048 1:0.468735 2:0.196749 
-2048 2048 1:0.387686 2:0.0380077 
-0 2048 1:-0.431609 2:0.325401 
-0 2048 1:0.594307 2:0.389818 
-2048 2048 1:0.200685 2:0.0243689 
-2048 2048 1:-0.220497 2:-0.233991 
-2048 2048 1:-0.566166 2:-0.401386 
-2048 2048 1:-0.623788 2:-0.222381 
-2048 2048 1:-0.373904 2:-0.0765013 
-2048 2048 1:-0.603772 2:-0.432884 
-0 2048 1:-0.406895 2:0.155638 
-2048 2048 1:-0.312117 2:-0.498892 
-2048 2048 1:-0.849904 2:-0.605816 
-2048 2048 1:-0.327825 2:0.00974028 
-2048 2048 1:-0.503691 2:-0.221452 
-2048 2048 1:-0.203967 2:0.0225654 
-0 2048 1:0.340626 2:0.217626 
-2048 2048 1:-0.423201 2:-0.125276 
-2048 2048 1:-0.556492 2:-0.167176 
-0 2048 1:-0.0492247 2:0.195395 
-0 1310.725773016698 1:0.338693 2:0.411903 
-0 2048 1:-0.31827 2:0.263297 
-0 2048 1:-0.325775 2:0.300728 
-1865.218984556608 2048 1:-0.648326 2:0.0885005 
-2048 2048 1:-0.393696 2:-0.0518591 
-2048 2048 1:-0.501991 2:-0.227069 
-2048 -0 1:-1 2:-0.941328 
-2048 -2048 1:-0.499987 2:-0.0468857 
-2048 -0 1:-0.483537 2:-0.663019 
-2048 -0 1:-0.89397 2:-0.850064 
-2048 -2048 1:-0.452498 2:-0.243458 
-0 -2048 1:0.310336 2:0.303121 
-2048 -0 1:-0.66209 2:-0.509998 
-2048 -0 1:-0.988654 2:-0.915744 
-2048 -0 1:-0.938331 2:-0.947084 
-2048 -99.33626167302253 1:-0.433701 2:-0.419142 
-2048 -0 1:-0.850069 2:-0.679148 
-2048 -0 1:-0.696453 2:-0.618793 
-2048 -0 1:-0.796325 2:-0.717568 
-2048 -2048 1:-0.505407 2:-0.377005 
-2048 -2048 1:-0.144727 2:-0.178598 
-2048 -2048 1:-0.175805 2:-0.243118 
-2048 -0 1:-0.46074 2:-0.583961 
-2048 -0 1:-0.727059 2:-0.712698 
-0 -2048 1:-0.426712 2:0.139783 
-2048 -2048 1:-0.484262 2:-0.386453 
-2048 -0 1:-0.53498 2:-0.425828 
-0 -2048 1:-0.142796 2:0.439819 
-2048 -2048 1:-0.487456 2:-0.218081 
-2048 -2048 1:-0.328532 2:-0.1828 
-2048 -2048 1:-0.616751 2:-0.176643 
-0 -2048 1:0.0734377 2:0.323943 
-0 -2048 1:0.0858 2:0.285614 
-2048 -2048 1:-0.361226 2:-0.029488 
-2048 -2048 1:0.00729976 2:-0.0284921 
-0 -2048 1:-0.265834 2:0.113307 
-2048 -0 1:-0.546478 2:-0.48062 
-2048 -0 1:-0.551323 2:-0.530542 
-2048 -2048 1:-0.494909 2:-0.350547 
-2048 -2048 1:-0.31232 2:-0.0171426 
-1010.110126242643 -2048 1:0.0351369 2:0.0715583 
-2048 -2048 1:-0.485375 2:-0.258955 
-2048 -2048 1:-0.550811 2:-0.300625 
-2048 -0 1:-0.865739 2:-0.814163 
-2048 -2048 1:0.458639 2:-0.0394105 
-2048 -2048 1:-0.653194 2:-0.330659 
-0 -2048 1:-0.021387 2:0.50007 
-2048 -2048 1:-0.0849425 2:-0.11412 
-2048 -0 1:-0.512752 2:-0.539887 
-2048 -0 1:-0.864408 2:-0.640867 
-2048 -2048 1:-0.425914 2:-0.151521 
-2048 -2048 1:-0.357186 2:-0.162895 
-2048 -2048 1:0.268707 2:0.0844319 
-2048 -2048 1:-0.306587 2:-0.364629 
-2048 -2048 1:-0.345025 2:-0.0515615 
-2048 -0 1:-0.957199 2:-0.884222 
-2048 -2048 1:-0.48908 2:-0.232212 
-2048 -2048 1:-0.553892 2:-0.268216 
-0 -2048 1:-0.117139 2:0.165518 
-2048 -2048 1:-0.568645 2:-0.265332 
-2048 -2048 1:-0.461408 2:-0.247709 
-2048 -0 1:-0.55274 2:-0.510059 
-2048 -2048 1:-0.309419 2:-0.0909599 
-2048 -2048 1:-0.413605 2:-0.385622 
-0 -2048 1:0.09419 2:0.279857 
-2048 -0 1:-0.643522 2:-0.423781 
-2048 -1211.389511343675 1:-0.595451 2:-0.415954 
-2048 -0 1:-0.593251 2:-0.535576 
-2048 -0 1:-0.706077 2:-0.543749 
-0 -2048 1:0.0517717 2:0.108734 
-2048 -2048 1:-0.532728 2:-0.104325 
-2048 -2048 1:-0.140349 2:-0.16573 
