svm_type c_svc
kernel_type rbf
gamma 0.125
nr_class 3
total_sv 154
rho -3.80437 -12.935 0.734126
label 3 1 2
nr_sv 38 50 66
SV
0 8192 1:0.121975 2:0.699454 
8192 8192 1:-0.457931 2:-0.216155 
8192 8192 1:-0.791531 2:-0.621451 
0 8192 1:-0.547201 2:-0.00461969 
8192 8192 1:-0.505262 2:-0.67079 
8192 8192 1:-0.0595693 2:-0.0177923 
8192 8192 1:-0.718478 2:-0.210119 
8192 8192 1:-0.200835 2:-0.104701 
8192 2657.851415482653 1:-0.757877 2:-0.200156 
0 8192 1:0.217745 2:0.287998 
0 8192 1:0.02273 2:0.437962 
0 8192 1:-0.106767 2:0.00400126 
8192 8192 1:-0.317001 2:-0.207058 
1256.78088780876 0 1:0.76115 2:0.380299 
0 8192 1:-0.148372 2:0.222036 
0 8192 1:-0.285966 2:0.0801922 
8192 8192 1:-0.314939 2:-0.213112 
0 407.4953730458984 1:0.0364627 2:0.859375 
8192 3486.41324546877 1:0.384193 2:0.0202908 
2263.402687975018 8192 1:0.196125 2:0.00640078 
8192 8192 1:-0.22746 2:-0.256718 
8192 8192 1:-0.381742 2:-0.0963271 
303.4677287713744 0 1:-0.445365 2:0.716547 
8192 8192 1:-0.390442 2:-0.159333 
0 8192 1:-0.414921 2:0.140087 
8192 8192 1:-0.860459 2:-0.63539 
8192 8192 1:-0.335401 2:-0.00849727 
8192 8192 1:-0.51227 2:-0.243947 
8192 8192 1:-0.348275 2:-0.211931 
3963.376251309306 8192 1:-0.210836 2:0.00456404 
0 8192 1:0.336864 2:0.203217 
8192 8192 1:-0.565372 2:-0.188672 
8192 8192 1:-0.630942 2:-0.518166 
0 8192 1:-0.0552109 2:0.180576 
0 8192 1:-0.325791 2:0.249729 
8192 8192 1:-0.401647 2:-0.0712311 
8192 8192 1:-0.51056 2:-0.249668 
2709.439350445856 2829.197045161377 1:0.305595 2:1 
-8192 4995.607394053625 1:0.59068 2:0.265017 
-0 8192 1:-0.359416 2:-0.456125 
-8192 8192 1:-0.171278 2:0.635799 
-0 8192 1:-0.573337 2:-0.573646 
-0 8192 1:-0.793463 2:-0.572403 
-0 8192 1:-0.496317 2:-0.482607 
-8192 8192 1:-0.121143 2:-0.0756838 
-0 8192 1:-0.487364 2:-0.558773 
-0 8192 1:-0.58221 2:-0.497641 
-2322.101176112499 8192 1:-0.95185 2:-1 
-0 6301.02365185474 1:-0.634632 2:-0.682119 
-8192 8192 1:-0.644404 2:-0.350027 
-0 8192 1:-0.929852 2:-0.933852 
-8192 8192 1:-0.79206 2:-0.515724 
-8192 8192 1:-0.359178 2:-0.264522 
-0 8192 1:-0.48105 2:-0.503844 
-0 8192 1:-0.643226 2:-0.540634 
-0 8192 1:-0.769806 2:-0.662682 
-0 8192 1:-0.396634 2:-0.362488 
-8192 8192 1:-0.207213 2:-0.0980216 
-0 8192 1:-0.596569 2:-0.570109 
-300.1337616824345 8192 1:-0.954225 2:-0.954681 
-8192 8192 1:-0.606453 2:-0.343892 
-8192 8192 1:-0.426956 2:-0.169055 
-0 8192 1:-0.632397 2:-0.448908 
-8192 8192 1:-0.271596 2:-0.216699 
-0 8192 1:-0.486627 2:-0.444356 
-8192 8192 1:-0.45522 2:-0.0933215 
-8192 8192 1:-0.681896 2:-0.388234 
-8192 8192 1:-0.507988 2:-0.289643 
-8192 8192 1:-0.623065 2:-0.296205 
-0 8192 1:-0.779319 2:-0.599509 
-0 8192 1:-0.640623 2:-0.5892 
-8192 8192 1:-0.370312 2:-0.180496 
-0 8192 1:-0.72425 2:-0.690072 
-8192 8192 1:-0.0764005 2:-0.134985 
-0 8192 1:-0.121449 2:-0.439724 
-8192 8192 1:-0.412604 2:-0.324393 
-0 6321.295748116935 1:-0.922529 2:-0.90708 
-8192 8192 1:-0.771616 2:-0.322729 
-8192 8192 1:-0.268195 2:-0.282797 
-0 2858.116758070728 1:-0.804769 2:-0.657184 
-7874.231968515404 8192 1:-0.162334 2:-0.305623 
-0 8192 1:-0.602886 2:-0.557122 
-8192 8192 1:-0.514238 2:-0.247893 
-0 8192 1:-0.33558 2:-0.386156 
-0 8192 1:-0.716405 2:-0.660517 
-8192 8192 1:-0.58604 2:-0.338815 
-0 8192 1:-0.76292 2:-0.664525 
-0 8192 1:-0.391806 2:-0.472514 
-8192 -8192 1:-0.508545 2:-0.0661661 
-1154.984216708161 -8192 1:-0.492001 2:-0.693647 
-1859.968707919103 -8192 1:-0.977267 2:-0.871112 
-0 -8192 1:-0.460785 2:-0.266359 
-8192 -702.0199204385671 1:0.306402 2:0.290286 
-8192 -0 1:-0.0141385 2:0.27023 
-0 -8192 1:-1 2:-0.951026 
-3306.114232908823 -8192 1:-0.94939 2:-0.982944 
-0 -8192 1:-0.633963 2:-0.480764 
-0 -8192 1:-0.441881 2:-0.445278 
-2923.152076349787 -8192 1:-0.860624 2:-0.710072 
-0 -8192 1:-0.706132 2:-0.648606 
-8192 -1346.71173573941 1:-0.210307 2:0.527146 
-0 -8192 1:-0.806574 2:-0.749201 
-0 -8192 1:-0.513996 2:-0.402365 
-0 -8192 1:-0.341933 2:-0.367646 
-0 -8192 1:-0.151258 2:-0.200304 
-0 -8192 1:-0.182513 2:-0.266013 
-0 -8192 1:-0.570471 2:-0.454907 
-0 -8192 1:-0.469074 2:-0.613133 
-0 -8192 1:-0.736913 2:-0.744241 
-0 -8192 1:-0.49273 2:-0.411988 
-0 -8192 1:-0.543738 2:-0.452087 
-8192 -8192 1:-0.495942 2:-0.240515 
-0 -4872.208064675566 1:-0.233019 2:-0.212296 
-8192 -0 1:0.0681514 2:0.311492 
-8192 -0 1:-0.368992 2:-0.048448 
-8192 -0 1:0.00163611 2:-0.0474338 
-0 -8192 1:-0.569577 2:-0.534629 
-8192 -0 1:-0.273056 2:0.0969765 
-8192 -4800.006853751704 1:0.188905 2:0.892894 
-0 -8192 1:-0.45941 2:-0.429347 
-0 -8192 1:-0.555301 2:-0.507888 
-0 -8192 1:-0.560173 2:-0.558729 
-0 -8192 1:-0.503438 2:-0.37542 
-8192 -0 1:-0.319807 2:-0.0358753 
-8192 -8192 1:-0.493849 2:-0.282142 
-8192 -8192 1:-0.559659 2:-0.324578 
-0 -8192 1:-0.876384 2:-0.847575 
-8192 -8192 1:0.45555 2:-0.0585532 
-8192 -8192 1:-0.662625 2:-0.355166 
-8192 -0 1:-0.0734862 2:0.31046 
-8192 -0 1:-0.0911324 2:-0.134639 
-0 -8192 1:-0.521383 2:-0.568247 
-8192 -563.0969774907689 1:-0.434049 2:-0.172728 
-8192 -0 1:-0.364929 2:-0.184312 
-0 -8192 1:-0.314042 2:-0.389761 
-8192 -0 1:-0.352699 2:-0.0709281 
-0 -8192 1:-0.968365 2:-0.918923 
-8192 -8192 1:-0.497576 2:-0.254906 
-0 -8192 1:-0.459986 2:-0.329377 
-8192 -8192 1:-0.562757 2:-0.291573 
-8192 -8192 1:-0.465116 2:-0.173743 
-8192 -0 1:-0.123513 2:0.150149 
-8192 -8192 1:-0.577594 2:-0.288635 
-136.7378452728996 -8192 1:-0.469745 2:-0.270688 
-8192 -0 1:-0.31689 2:-0.111052 
-0 -8192 1:-0.421671 2:-0.41114 
-8192 -0 1:-0.240307 2:-0.0781514 
-8192 -0 1:0.0890221 2:0.266594 
-8192 -8192 1:-0.652898 2:-0.450003 
-0 -8192 1:-0.387829 2:-0.264003 
-0 -8192 1:-0.71581 2:-0.57218 
-8192 -8192 1:-0.464276 2:-0.23728 
-8192 -8192 1:-0.541472 2:-0.124664 
-8192 -8192 1:-0.146855 2:-0.1872 
