svm_type c_svc
kernel_type rbf
gamma 0.5
nr_class 3
total_sv 135
rho -0.753371 1.24405 2.09574
label 2 1 3
nr_sv 54 54 27
SV
128 0 1:-0.765897 2:-0.724104 3:-0.91296 4:-0.921618 5:-0.728193 6:-0.929015 7:-0.964675 
128 71.23688658080377 1:-0.458017 2:-0.415273 3:-0.32682 4:-0.253017 5:-0.408369 6:-0.606926 7:-0.716699 
128 0 1:-0.773933 2:-0.531759 3:-0.834889 4:-0.79706 5:-0.578999 6:-0.829075 7:-0.921918 
128 0 1:-0.555939 2:-0.11608 3:-0.495769 4:-0.502052 5:-0.197675 6:-0.626496 7:-0.80675 
128 43.26572806959258 1:-0.761342 2:-0.44135 3:-0.690768 4:-0.651924 5:-0.504777 6:-0.780976 7:-0.902685 
128 19.03179197422548 1:-0.686751 2:-0.395559 3:-0.935985 4:-0.904661 5:-0.450113 6:-0.841639 7:-0.935117 
52.2856104660748 0 1:-0.488855 2:0.0831311 3:-0.535583 4:-0.542475 5:-0.0242845 6:-0.528061 7:-0.657342 
0 67.37484093444883 1:-0.118597 2:0.116847 3:0.258439 4:0.312901 5:0.0948791 6:-0.0857652 7:-0.159334 
128 128 1:-0.28664 2:0.0813627 3:-0.557097 4:-0.528883 5:0.0249307 6:-0.509082 7:-0.674854 
128 0 1:-0.675029 2:-0.490262 3:-0.794569 4:-0.787856 5:-0.521627 6:-0.818316 7:-0.898781 
128 0 1:-0.723822 2:-0.619418 3:-0.562429 4:-0.581158 5:-0.635369 6:-0.798713 7:-0.839006 
0 128 1:-0.196635 2:0.174287 3:-0.254264 4:-0.334744 5:0.120504 6:-0.411335 7:-0.540218 
128 128 1:-0.386865 2:-0.217075 3:-0.413105 4:-0.427164 5:-0.234757 6:-0.590184 7:-0.653952 
128 0 1:-0.326311 2:0.182561 3:-0.543223 4:-0.541301 5:0.0945564 6:-0.52671 7:-0.703499 
128 0 1:-0.607916 2:-0.398165 3:-0.590265 4:-0.57957 5:-0.432433 6:-0.72224 7:-0.805964 
128 12.50909620055076 1:-0.601609 2:-0.461427 3:-0.77126 4:-0.786838 5:-0.480585 6:-0.831579 7:-0.90945 
0 99.15834502781661 1:-0.1743 2:-0.0233102 3:0.396393 4:0.326146 5:-0.0292405 6:-0.186956 7:-0.0981519 
128 0 1:-0.5211 2:-0.33968 3:-0.697339 4:-0.707052 5:-0.364731 6:-0.754469 7:-0.834958 
128 0 1:-0.726222 2:-0.580041 3:-0.676634 4:-0.64048 5:-0.605015 6:-0.798112 7:-0.857151 
0 128 1:-0.250469 2:0.15517 3:-0.258721 4:-0.277734 5:0.0920035 6:-0.398476 7:-0.556907 
45.40469979564953 0 1:0.0328271 2:0.476492 3:-0.171535 4:-0.201944 5:0.415495 6:-0.188701 7:-0.30873 
57.33183402278312 0 1:0.136334 2:0.566725 3:-0.0706077 4:-0.132393 5:0.512331 6:-0.112326 7:-0.23193 
128 102.338090568088 1:-0.423249 2:-0.169489 3:-0.399523 4:-0.427358 5:-0.206454 6:-0.591011 7:-0.671778 
128 0 1:-0.862988 2:-0.685565 3:-0.744033 4:-0.687462 5:-0.722195 6:-0.850745 7:-0.897928 
128 0 1:-0.629938 2:-0.329222 3:-0.677724 4:-0.685774 5:-0.383747 6:-0.745907 7:-0.826917 
128 56.6552924453708 1:-0.20318 2:0.265833 3:-0.661463 4:-0.614606 5:0.190831 6:-0.460224 7:-0.675876 
128 0 1:-0.469705 2:-0.311076 3:-0.569739 4:-0.614147 5:-0.329383 6:-0.697697 7:-0.760709 
128 128 1:-0.0816758 2:0.406871 3:-0.265809 4:-0.260285 5:0.33211 6:-0.270475 7:-0.463543 
128 0 1:-0.712037 2:-0.485006 3:-0.671778 4:-0.673985 5:-0.526757 6:-0.800799 7:-0.884219 
128 0 1:-0.617616 2:-0.67991 3:-0.98669 4:-0.988985 5:-0.656344 6:-0.941997 7:-0.983982 
128 0 1:-0.506565 2:-0.353371 3:-0.243951 4:-0.1949 5:-0.371857 6:-0.542271 7:-0.715138 
128 128 1:-0.384 2:-0.0628779 3:-0.493347 4:-0.528803 5:-0.112823 6:-0.592789 7:-0.699046 
0 4.534359848019591 1:1 2:0.171684 3:-0.0243979 4:0.223033 5:0.417921 6:0.277218 7:-0.295776 
128 37.34782962871682 1:-0.302541 2:0.2243 3:-0.735538 4:-0.744794 5:0.133316 6:-0.644765 7:-0.83704 
0 127.0224736225577 1:-0.0551901 2:0.364819 3:-0.179664 4:-0.161064 5:0.305681 6:-0.213925 7:-0.375628 
128 0 1:-0.743014 2:-0.361597 3:-0.762978 4:-0.742321 5:-0.437495 6:-0.762741 7:-0.842069 
102.4015440936925 128 1:-0.200664 2:0.283957 3:-0.713141 4:-0.698398 5:0.205709 6:-0.584662 7:-0.761044 
0 128 1:-0.207284 2:0.0947852 3:-0.152883 4:-0.180904 5:0.0553414 6:-0.356473 7:-0.394044 
18.88243951930742 56.83546981100938 1:0.11279 2:0.0879991 3:-0.962153 4:-0.969176 5:0.130107 6:-0.791565 7:-0.93424 
128 128 1:-0.324537 2:-0.165351 3:-0.663766 4:-0.59961 5:-0.178498 6:-0.611539 7:-0.757499 
76.88616489098335 128 1:-0.297633 2:-0.043835 3:-0.334852 4:-0.352518 5:-0.0762399 6:-0.494443 7:-0.542989 
125.5183520147478 110.4278693332991 1:-0.190013 2:0.600269 3:-0.543497 4:-0.49527 5:0.457031 6:-0.334083 7:-0.67166 
128 0 1:-0.507666 2:0.0439996 3:-0.652609 4:-0.588234 5:-0.0597538 6:-0.590863 7:-0.794136 
128 0 1:-0.626294 2:-0.412966 3:-0.616478 4:-0.628235 5:-0.448668 6:-0.747188 7:-0.830736 
128 0 1:-0.880002 2:-0.751648 3:-0.831562 4:-0.83862 5:-0.778402 6:-0.910793 7:-0.941019 
23.2381147689491 113.8263556283358 1:0.14369 2:0.575502 3:-0.184926 4:-0.277098 5:0.521072 6:-0.206867 7:-0.249326 
128 0 1:-0.795168 2:-0.629814 3:-0.764364 4:-0.747394 5:-0.661396 6:-0.854363 7:-0.908865 
128 0.7735910456857633 1:-0.4389 2:-0.090172 3:-0.583037 4:-0.537747 5:-0.148019 6:-0.573496 7:-0.756397 
0 22.56741767005243 1:-0.231024 2:0.14661 3:-0.190995 4:-0.238502 5:0.0901403 6:-0.320932 7:-0.430294 
128 128 1:-0.411813 2:-0.00137883 3:-0.35473 4:-0.387429 5:-0.0714388 6:-0.528993 7:-0.690548 
128 0 1:-0.503255 2:-0.200616 3:-0.669355 4:-0.627618 5:-0.250945 6:-0.662187 7:-0.782036 
63.75910625059869 61.93234338612731 1:-0.358496 2:0.074762 3:-0.313596 4:-0.269569 5:0.00175933 6:-0.418758 7:-0.653857 
85.78697752987254 0 1:-0.472563 2:-0.336934 3:0.186696 4:0.0734797 5:-0.350425 6:-0.486462 7:-0.4948 
128 0 1:-0.584532 2:-0.331959 3:-0.678391 4:-0.663776 5:-0.374536 6:-0.729561 7:-0.81549 
-20.19641638049807 39.40855282501065 1:-0.464557 2:0.327134 3:0.464949 4:0.321301 5:0.17361 6:-0.091238 7:-0.192179 
-128 0 1:-0.687265 2:-0.505637 3:-0.642022 4:-0.649329 5:-0.536776 6:-0.784327 7:-0.84906 
-55.72975785077676 0 1:-0.909655 2:-0.628802 3:-0.937936 4:-0.884155 5:-0.689251 6:-0.87337 7:-0.938043 
-128 85.4917271051138 1:-0.222668 2:0.360499 3:-0.482728 4:-0.479822 5:0.260372 6:-0.382588 7:-0.652639 
-85.34858737514273 0 1:-0.66385 2:-0.544051 3:-0.494078 4:-0.468169 5:-0.561114 6:-0.7439 7:-0.806541 
-119.2604540348127 0 1:-0.616609 2:-0.516443 3:-0.190475 4:-0.253684 5:-0.527588 6:-0.672748 7:-0.691632 
0 47.27512050788868 1:-0.618194 2:-0.471341 3:-0.635799 4:-0.577621 5:-0.49253 6:-0.740372 7:-0.82635 
-128 128 1:-0.0445455 2:0.354668 3:-0.345213 4:-0.351926 5:0.300365 6:-0.314857 7:-0.430105 
-128 0 1:-0.733463 2:-0.543341 3:-0.793443 4:-0.746199 5:-0.577977 6:-0.796787 7:-0.882654 
-128 0 1:-0.858375 2:-0.734727 3:-0.760923 4:-0.751027 5:-0.759687 6:-0.899644 7:-0.932861 
0 14.67939289577154 1:-0.651701 2:-0.601656 3:-0.742528 4:-0.683543 5:-0.603357 6:-0.78052 7:-0.879899 
-128 128 1:-0.394356 2:-0.256478 3:-0.418818 4:-0.367357 5:-0.267607 6:-0.58906 7:-0.700303 
-1.46973716949256 30.29252767177218 1:-0.0691805 2:0.347421 3:0.942108 4:0.882339 5:0.288503 6:0.37121 7:0.800448 
-83.52145320763204 128 1:0.10548 2:0.694696 3:-0.276808 4:-0.258269 5:0.60521 6:-0.0772605 7:-0.338609 
-128 0 1:-0.700671 2:-0.721017 3:-0.974298 4:-0.965837 5:-0.709443 6:-0.951395 7:-0.988061 
-128 14.28912841123411 1:-0.749073 2:-0.648667 3:-0.709325 4:-0.674028 5:-0.664681 6:-0.815757 7:-0.892278 
-78.57685828571847 0 1:-0.522946 2:-0.23097 3:-0.639781 4:-0.646134 5:-0.279735 6:-0.712515 7:-0.823042 
-128 0 1:-0.598843 2:-0.277331 3:-0.713403 4:-0.705886 5:-0.335173 6:-0.728861 7:-0.838655 
-39.32968061308409 0 1:-0.496668 2:-0.325401 3:-0.589129 4:-0.597362 5:-0.347392 6:-0.684909 7:-0.760998 
-128 0 1:-0.675827 2:-0.384441 3:-0.69126 4:-0.65539 5:-0.438639 6:-0.746807 7:-0.833512 
-91.08387620888968 0 1:-0.662978 2:-0.654568 3:-0.962143 4:-0.958013 5:-0.647774 6:-0.924207 7:-0.975302 
-128 128 1:-0.112954 2:0.148679 3:-0.637561 4:-0.56196 5:0.121315 6:-0.476283 7:-0.704015 
-128 13.74022252169462 1:-0.308691 2:0.239902 3:-0.707046 4:-0.687962 5:0.144042 6:-0.581753 7:-0.781 
-128 0 1:-0.673403 2:-0.456964 3:-0.495015 4:-0.530858 5:-0.495044 6:-0.738609 7:-0.822721 
-128 29.91307848958558 1:-0.467705 2:-0.321816 3:0.000451838 4:-0.00802051 5:-0.337326 6:-0.483895 7:-0.578537 
-128 0 1:-0.475052 2:-0.132149 3:-0.729319 4:-0.709218 5:-0.190065 6:-0.688039 7:-0.803233 
-8.932272699999936 0 1:-0.832473 2:-0.742281 3:-0.84315 4:-0.845906 5:-0.759144 6:-0.9123 7:-0.947235 
-128 0 1:-0.741806 2:-0.535341 3:-0.774621 4:-0.776023 5:-0.573775 6:-0.835269 7:-0.895224 
-80.10892191900088 0 1:-0.699969 2:-0.482385 3:-0.717087 4:-0.702513 5:-0.521676 6:-0.800663 7:-0.88256 
-128 0 1:-0.781718 2:-0.598829 3:-0.838753 4:-0.849354 5:-0.633672 6:-0.863075 7:-0.916176 
-128 128 1:-0.384817 2:0.0539031 3:-0.35286 4:-0.386177 5:-0.0212249 6:-0.497031 7:-0.666539 
-128 0 1:-0.809109 2:-0.645369 3:-0.81731 4:-0.803114 5:-0.677113 6:-0.882629 7:-0.940024 
-128 128 1:-0.384966 2:-0.217398 3:-0.543782 4:-0.466941 5:-0.234535 6:-0.586568 7:-0.750517 
-45.54579570044911 82.50942486504465 1:-0.301322 2:-0.0837219 3:-0.848986 4:-0.860094 5:-0.108519 6:-0.768554 7:-0.897536 
-128 0 1:-0.521559 2:-0.224572 3:-0.673828 4:-0.66587 5:-0.274358 6:-0.711129 7:-0.812734 
-128 0 1:-0.480282 2:-0.203446 3:-0.641372 4:-0.671219 5:-0.247421 6:-0.690367 7:-0.779938 
-79.88300940826693 97.22968622481955 1:-0.222486 2:0.55835 3:-0.137691 4:-0.167929 5:0.415951 6:-0.213618 7:-0.551157 
-39.33169329900331 0 1:-0.78025 2:-0.611132 3:-0.826504 4:-0.830833 5:-0.642976 6:-0.887945 7:-0.956902 
-5.548502270947172 0 1:-0.718169 2:-0.556777 3:-0.790281 4:-0.714359 5:-0.584711 6:-0.77862 7:-0.896421 
0 128 1:-0.33839 2:-0.0830597 3:-0.638339 4:-0.672842 5:-0.117275 6:-0.666941 7:-0.810048 
-128 0 1:-0.616807 2:-0.188838 3:-0.490008 4:-0.466963 5:-0.270103 6:-0.618989 7:-0.821678 
-73.62782692894416 0 1:-0.550656 2:-0.212398 3:-0.788375 4:-0.719823 5:-0.27207 6:-0.68168 7:-0.844974 
-128 0 1:-0.580444 2:-0.267039 3:-0.720479 4:-0.699424 5:-0.322478 6:-0.737822 7:-0.841278 
-128 0 1:-0.300862 2:0.293669 3:-0.574498 4:-0.532606 5:0.188269 6:-0.475587 7:-0.706829 
-128 128 1:-0.414163 2:0.0916489 3:-0.551552 4:-0.570772 5:0.00110365 6:-0.594257 7:-0.79575 
-128 0 1:-0.778914 2:-0.594133 3:-0.834645 4:-0.821348 5:-0.629279 6:-0.861795 7:-0.924633 
-128 0 1:-0.569233 2:-0.31281 3:-0.611721 4:-0.609019 5:-0.355653 6:-0.707072 7:-0.803558 
-128 128 1:-0.31956 2:-0.221808 3:-0.229268 4:-0.317671 5:-0.221634 6:-0.553697 7:-0.565152 
-128 0 1:-0.471247 2:-0.0892313 3:-0.598808 4:-0.556262 5:-0.155374 6:-0.612088 7:-0.747749 
-128 0 1:-0.489008 2:-0.28563 3:-0.587137 4:-0.551725 5:-0.314211 6:-0.656382 7:-0.745895 
0 112.1574971043512 1:-0.233086 2:-0.0676666 3:-0.716733 4:-0.629565 5:-0.0788212 6:-0.54059 7:-0.794586 
-128 128 1:-0.35737 2:-0.146565 3:-0.439332 4:-0.427901 5:-0.171947 6:-0.574785 7:-0.648774 
-128 128 1:-0.15432 2:0.322226 3:-0.569329 4:-0.568683 5:0.24739 6:-0.471681 7:-0.64009 
-128 0 1:-0.479432 2:-0.076231 3:-0.699146 4:-0.688652 5:-0.147203 6:-0.673217 7:-0.821585 
-52.5707844177461 -26.54962014021297 1:-0.378127 2:-0.0618807 3:0.608713 4:0.509847 5:-0.11057 6:-0.150082 7:-0.170917 
-128 -90.99676956698346 1:-0.146548 2:0.612723 3:-0.55505 4:-0.570875 5:0.477698 6:-0.426341 7:-0.713204 
-128 -128 1:-0.514089 2:-0.136423 3:-0.651961 4:-0.638738 5:-0.203193 6:-0.643664 7:-0.732327 
-128 -128 1:-0.424154 2:-0.0526948 3:-0.378236 4:-0.391765 5:-0.114867 6:-0.54287 7:-0.694279 
-128 -128 1:-0.474424 2:-0.291757 3:-0.657464 4:-0.590315 5:-0.315378 6:-0.676577 7:-0.774863 
0 -26.53543325004476 1:-0.154576 2:0.31152 3:0.919894 4:0.67993 5:0.23891 6:0.192869 7:0.778194 
-128 -29.4633387403629 1:-0.146067 2:0.0471944 3:-0.266543 4:-0.236837 5:0.0332495 6:-0.351296 7:-0.490773 
-128 -128 1:-0.179227 2:0.239132 3:-0.599956 4:-0.617471 5:0.175836 6:-0.545503 7:-0.706228 
-35.09197287373018 0 1:-0.0729456 2:0.302841 3:0.550358 4:0.406459 5:0.252515 6:0.0558975 7:0.0503925 
-128 -4.58253052563198 1:-0.145407 2:0.223594 3:-0.0977208 4:-0.165305 5:0.172085 6:-0.237142 7:-0.209587 
-128 -128 1:-0.603903 2:-0.36114 3:-0.452023 4:-0.419829 5:-0.402323 6:-0.657545 7:-0.800612 
-128 -128 1:-0.290742 2:0.00810941 3:-0.202759 4:-0.282178 5:-0.0336813 6:-0.484547 7:-0.603527 
-128 -128 1:-0.17232 2:0.0260054 3:-0.840646 4:-0.850895 5:0.0100227 6:-0.73851 7:-0.885755 
0 -0.8371257722917267 1:0.723999 2:1 3:0.800095 4:0.897187 5:1 6:1 7:1 
-7.284809040868701 0 1:0.246906 2:0.0643569 3:0.331744 4:0.659121 5:0.145084 6:0.343018 7:-0.185759 
-128 -128 1:-0.0227546 2:0.414887 3:-0.243183 4:-0.259448 5:0.353157 6:-0.187599 7:-0.367634 
0 -40.37724151499516 1:-0.184943 2:-0.231736 3:-0.477594 4:-0.362401 5:-0.19575 6:-0.562634 7:-0.682303 
-128 -128 1:-0.210433 2:0.197722 3:-0.474383 4:-0.504027 5:0.135473 6:-0.515 7:-0.671118 
-128 0 1:-0.180528 2:-0.00815402 3:0.0190808 4:0.02394 5:-0.0188847 6:-0.292347 7:-0.326822 
-128 -128 1:-0.368765 2:-0.0784177 3:-0.397217 4:-0.371658 5:-0.121227 6:-0.525245 7:-0.684843 
-128 0 1:-0.161854 2:0.153968 3:-0.269768 4:-0.329334 5:0.113235 6:-0.400611 7:-0.47897 
-128 -128 1:-0.107532 2:0.395813 3:-0.384837 4:-0.35715 5:0.316946 6:-0.327804 7:-0.544204 
-44.26531379025813 -70.63438952177935 1:-0.0583862 2:0.899694 3:0.0310019 4:-0.0183933 5:0.725352 6:0.0364136 7:-0.21548 
-78.74237991684262 0 1:-0.131816 2:-0.0344786 3:-0.288654 4:-0.225035 5:-0.0273884 6:-0.416016 7:-0.554799 
-4.707843122420565 -128 1:-0.143997 2:-0.317715 3:-0.647436 4:-0.556021 5:-0.253093 6:-0.535344 7:-0.780774 
-16.17467861283443 -21.00990958998424 1:0.396564 2:0.695859 3:-0.530498 4:-0.420753 5:0.678969 6:-0.190679 7:-0.48655 
-128 -128 1:-0.303206 2:0.0891024 3:-0.438693 4:-0.453853 5:0.0268692 6:-0.509955 7:-0.648332 
