svm_type c_svc
kernel_type rbf
gamma 0.5
nr_class 3
total_sv 133
rho -0.710696 -1.89785 -0.862422
label 3 1 2
nr_sv 29 52 52
SV
31.57233143013407 32 1:-0.0501565 2:0.185952 3:0.0922319 4:0.0474314 5:0.134495 6:-0.194475 7:-0.263407 
18.44261279643841 13.70114377825291 1:-0.259408 2:-0.0606065 3:0.606307 4:0.507517 5:-0.105553 6:-0.152854 7:-0.172695 
32 32 1:-0.00183781 2:0.613188 3:-0.564611 4:-0.578341 5:0.480058 6:-0.429779 7:-0.715806 
32 32 1:-0.410631 2:-0.135059 3:-0.662118 4:-0.646526 5:-0.197758 6:-0.647626 7:-0.734958 
32 32 1:-0.310602 2:-0.0514316 3:-0.38671 4:-0.39838 5:-0.109831 6:-0.546589 7:-0.696853 
32 32 1:-0.366514 2:-0.290207 3:-0.667654 4:-0.597873 5:-0.309435 6:-0.680619 7:-0.777559 
4.565679386668563 0 1:-0.0107666 2:0.312346 3:0.919402 4:0.678409 5:0.242348 6:0.190924 7:0.777857 
0 0.1823224303105511 1:0.776913 2:0.720545 3:0.258355 4:0.498785 5:0.7386 6:0.548522 7:0.37248 
0.4389488915449113 0 1:-0.0275391 2:-0.183755 3:0.385932 4:0.834242 5:-0.150105 6:0.375161 7:-0.278835 
32 32 1:-0.475842 2:-0.137628 3:-0.685682 4:-0.646317 5:-0.214377 6:-0.685954 7:-0.826949 
32 32 1:-0.0381839 2:0.240045 3:-0.609793 4:-0.625158 5:0.179559 6:-0.549229 7:-0.708819 
0 32 1:-0.000568607 2:0.224526 3:-0.10447 4:-0.170843 5:0.175825 6:-0.240124 7:-0.211424 
32 32 1:-0.510525 2:-0.359507 3:-0.460951 4:-0.426577 5:-0.395988 6:-0.66154 7:-0.803347 
0 32 1:0.233246 2:0.115711 3:-0.354596 4:-0.293589 5:0.142939 6:-0.366089 7:-0.495353 
32 32 1:-0.0305019 2:0.0271742 3:-0.851963 4:-0.859692 5:0.0144949 6:-0.742701 7:-0.888619 
0.02611121832316007 0 1:0.966418 2:1 3:0.798866 4:0.896699 5:1 6:1 7:1 
0 5.566538860784523 1:0.435777 2:0.0654796 3:0.327636 4:0.657501 5:0.148947 6:0.341435 7:-0.187559 
32 32 1:0.13585 2:0.415589 3:-0.250827 4:-0.265434 5:0.356079 6:-0.190462 7:-0.369711 
32 32 1:-0.0728932 2:0.198684 3:-0.483448 4:-0.511175 5:0.139378 6:-0.518652 7:-0.673656 
0 7.765256617642149 1:0.242558 2:-0.0396667 3:-0.538898 4:-0.432775 5:0.0232861 6:-0.446408 7:-0.660334 
0 32 1:-0.0396314 2:-0.00694428 3:0.0130499 4:0.019301 5:-0.0142818 6:-0.295462 7:-0.328837 
32 32 1:-0.248996 2:-0.0771237 3:-0.405807 4:-0.378178 5:-0.116162 6:-0.528921 7:-0.687402 
32 32 1:-0.0188617 2:0.154983 3:-0.277575 4:-0.335652 5:0.117241 6:-0.403988 7:-0.481216 
22.74937537349108 12.8801706619994 1:0.0962196 2:0.899814 3:0.0250443 4:-0.0232334 5:0.726593 6:0.0340909 7:-0.217326 
32 32 1:-0.431211 2:-0.341138 3:-6.5659e-005 4:-0.106414 5:-0.363831 6:-0.542593 7:-0.523213 
32 27.02877483071806 1:0.000999547 2:-0.316134 3:-0.657565 4:-0.563416 5:-0.247432 6:-0.539045 7:-0.783479 
0 14.02048187098143 1:0.602233 2:0.696224 3:-0.539908 4:-0.427505 5:0.680419 6:-0.193549 7:-0.488808 
32 32 1:0.055416 2:0.0106372 3:-0.421858 4:-0.328683 5:0.0207825 6:-0.458607 7:-0.605564 
32 32 1:-0.176078 2:0.0901954 3:-0.447539 4:-0.460763 5:0.0312653 6:-0.513595 7:-0.650835 
-29.47092107584228 6.172383544023895 1:-0.355539 2:0.327941 3:0.46166 4:0.318075 5:0.177343 6:-0.0938686 7:-0.193989 
0 32 1:-0.686717 2:-0.6159 3:-0.656389 4:-0.634727 5:-0.636337 6:-0.817788 7:-0.873859 
0 32 1:-0.665188 2:-0.551736 3:-0.945532 4:-0.917033 5:-0.581241 6:-0.896538 7:-0.957306 
-32 32 1:-0.0865005 2:0.361266 3:-0.491844 4:-0.486855 5:0.263714 6:-0.385921 7:-0.655149 
0 32 1:-0.347716 2:-0.300973 3:-0.36717 4:-0.396239 5:-0.31366 6:-0.611149 7:-0.649945 
-32 32 1:0.111614 2:0.355442 3:-0.353484 4:-0.358351 5:0.303525 6:-0.318026 7:-0.432277 
-3.499976136737265 0 1:-0.87062 2:-0.713015 3:-0.861286 4:-0.838613 5:-0.753618 6:-0.895993 7:-0.934983 
-32 32 1:-0.267536 2:-0.105291 3:-0.531324 4:-0.553146 5:-0.142384 6:-0.598114 7:-0.694486 
0 14.98667130344415 1:-0.793559 2:-0.732645 3:-0.771749 4:-0.759349 5:-0.751738 6:-0.904223 7:-0.935797 
-32 32 1:-0.277459 2:-0.25497 3:-0.427542 4:-0.373855 5:-0.26188 6:-0.592891 7:-0.702886 
-32 24.42085142656646 1:0.278478 2:0.695063 3:-0.284658 4:-0.264249 5:0.606993 6:-0.0798573 7:-0.340642 
-32 32 1:0.0090969 2:0.164061 3:-0.132742 4:-0.102586 5:0.130615 6:-0.250009 7:-0.456863 
0 27.62231391883667 1:-0.618154 2:-0.718952 3:-0.986436 4:-0.97518 5:-0.701721 6:-0.956099 7:-0.991081 
0 24.21102966609335 1:-0.671989 2:-0.646688 3:-0.719834 4:-0.681984 5:-0.65716 6:-0.820134 7:-0.895152 
0 32 1:-0.420482 2:-0.229493 3:-0.649863 4:-0.653958 5:-0.273954 6:-0.716643 7:-0.82581 
0 32 1:-0.687655 2:-0.657814 3:-0.667896 4:-0.699035 5:-0.669386 6:-0.860552 7:-0.905424 
0 32 1:-0.590522 2:-0.38278 3:-0.701658 4:-0.663257 5:-0.43214 6:-0.751018 7:-0.836297 
-5.817081645449102 10.28113170633149 1:-0.615817 2:-0.541977 3:0.271893 4:0.123526 5:-0.562537 6:-0.596829 7:-0.566325 
-15.92277877290314 28.74586460780763 1:-0.633022 2:-0.461956 3:-0.675208 4:-0.63271 5:-0.503694 6:-0.777427 7:-0.863983 
-32 32 1:-0.182179 2:0.240814 3:-0.717541 4:-0.695984 5:0.147909 6:-0.585566 7:-0.783705 
0 32 1:-0.695275 2:-0.608822 3:-0.751652 4:-0.73735 5:-0.632708 6:-0.842475 7:-0.899497 
-7.721669168463175 0 1:-0.108879 2:0.270529 3:1 4:1 5:0.187609 6:0.404175 7:0.49835 
-32 32 1:-0.35904 2:-0.32023 3:-0.00569357 4:-0.0128114 5:-0.331284 6:-0.487472 7:-0.580935 
0 32 1:-0.425311 2:-0.345846 3:-0.219437 4:-0.288965 5:-0.366198 6:-0.602047 7:-0.628883 
-2.175981497500967 32 1:-0.367213 2:-0.130791 3:-0.739951 4:-0.717342 5:-0.184689 6:-0.692108 7:-0.805972 
0 32 1:-0.266849 2:0.0550384 3:-0.361177 4:-0.392766 5:-0.0166115 6:-0.50064 7:-0.66907 
-20.28934433656676 32 1:-0.267015 2:-0.215937 3:-0.553274 4:-0.473913 5:-0.228958 6:-0.590393 7:-0.753176 
0 18.37864622800979 1:-0.621319 2:-0.407237 3:-0.868998 4:-0.807593 5:-0.458201 6:-0.760498 7:-0.892481 
0 32 1:-0.418939 2:-0.223103 3:-0.684119 4:-0.673788 5:-0.268601 6:-0.715254 7:-0.815487 
-32 32 1:-0.255279 2:-0.0857481 3:-0.705214 4:-0.718567 5:-0.124326 6:-0.696532 7:-0.819621 
0 32 1:-0.373029 2:-0.202002 3:-0.651463 4:-0.679162 5:-0.241786 6:-0.694441 7:-0.782642 
-16.09430090667383 18.23113863661993 1:-0.0862989 2:0.55888 3:-0.144686 4:-0.173479 5:0.41859 6:-0.216543 7:-0.553513 
0 32 1:-0.706665 2:-0.609199 3:-0.837733 4:-0.839535 5:-0.635554 6:-0.892496 7:-0.959875 
-32 32 1:-0.215211 2:-0.0817601 3:-0.648412 4:-0.680793 5:-0.112227 6:-0.670959 7:-0.812797 
0 32 1:-0.524877 2:-0.187411 3:-0.499169 4:-0.473935 5:-0.264366 6:-0.622891 7:-0.824445 
-32 32 1:-0.163769 2:-0.0279791 3:-0.460251 4:-0.476185 5:-0.0585676 6:-0.518723 7:-0.670807 
0 4.472544363567359 1:-0.484433 2:-0.265518 3:-0.731057 4:-0.707501 5:-0.316503 6:-0.742011 7:-0.844074 
-32 32 1:-0.173471 2:0.294517 3:-0.584179 4:-0.53989 5:0.191936 6:-0.479144 7:-0.709421 
0 32 1:-0.299488 2:0.0927389 3:-0.561092 4:-0.578238 5:0.00561622 6:-0.5981 7:-0.798478 
0 32 1:-0.560197 2:-0.347095 3:-0.596167 4:-0.545257 5:-0.397389 6:-0.706061 7:-0.808714 
0 32 1:-0.705179 2:-0.59222 3:-0.845924 4:-0.830004 5:-0.621919 6:-0.866283 7:-0.927556 
-8.803005556463681 0 1:-0.363821 2:-0.356084 3:-0.874984 4:-0.888897 5:-0.360447 6:-0.829248 7:-0.918582 
0 32 1:-0.384049 2:-0.205129 3:-0.704919 4:-0.707944 5:-0.246704 6:-0.714241 7:-0.815827 
-32 32 1:-0.194268 2:-0.220342 3:-0.236826 4:-0.323934 5:-0.216115 6:-0.557443 7:-0.567529 
0 32 1:-0.36298 2:-0.0879242 3:-0.608637 4:-0.563658 5:-0.150155 6:-0.615974 7:-0.750403 
0 32 1:-0.697994 2:-0.549538 3:-0.947828 4:-0.919255 5:-0.586868 6:-0.88482 7:-0.95055 
0 5.87598222560298 1:-0.382735 2:-0.284088 3:-0.596895 4:-0.5591 5:-0.308274 6:-0.660375 7:-0.748547 
0 16.02352331662032 1:-0.672269 2:-0.593548 3:-0.821454 4:-0.831161 5:-0.615588 6:-0.869105 7:-0.917913 
-32 32 1:-0.0980885 2:-0.0663855 3:-0.727287 4:-0.637309 5:-0.0739476 6:-0.544304 7:-0.797311 
-32 32 1:-0.236321 2:-0.145189 3:-0.448181 4:-0.434687 5:-0.166652 6:-0.578581 7:-0.651278 
0 32 1:-0.675911 2:-0.502381 3:-0.806161 4:-0.7904 5:-0.544974 6:-0.815999 7:-0.881553 
0 32 1:-0.372084 2:-0.0749396 3:-0.709592 4:-0.696677 5:-0.14202 6:-0.67725 7:-0.824351 
-32 -32 1:-0.348266 2:-0.413575 3:-0.334977 4:-0.258972 5:-0.402007 6:-0.6108 7:-0.719306 
0 -32 1:-0.699639 2:-0.529921 3:-0.84617 4:-0.8056 5:-0.571866 6:-0.833485 7:-0.924837 
-9.682551829429343 0 1:1 2:0.190842 3:-0.353176 4:-0.166475 5:0.373545 6:-0.106367 7:-0.497483 
0 -32 1:-0.685635 2:-0.43962 3:-0.701163 4:-0.659776 5:-0.497979 6:-0.785269 7:-0.905574 
0 -32 1:-0.602672 2:-0.393884 3:-0.947888 4:-0.913714 5:-0.443562 6:-0.846079 7:-0.938056 
0 -32 1:-0.382565 2:0.0842313 3:-0.545024 4:-0.549806 5:-0.0196572 6:-0.531745 7:-0.659859 
-32 -32 1:-0.170378 2:0.0653697 3:-0.388968 4:-0.404966 5:0.013091 6:-0.497078 7:-0.651805 
-32 0 1:0.0292504 2:0.117907 3:0.25388 4:0.309635 5:0.098968 6:-0.0883826 7:-0.161095 
0 -32 1:-0.589634 2:-0.488474 3:-0.805602 4:-0.796353 5:-0.514753 6:-0.822699 7:-0.901665 
0 -32 1:-0.643904 2:-0.617475 3:-0.572035 4:-0.588673 5:-0.627981 6:-0.803049 7:-0.841799 
-32 -32 1:-0.269127 2:-0.215614 3:-0.421793 4:-0.433947 5:-0.229178 6:-0.594017 7:-0.656464 
-32 -32 1:-0.263859 2:-0.0344353 3:-0.533444 4:-0.525284 5:-0.0860444 6:-0.577924 7:-0.707735 
-14.93272459223812 -32 1:-0.201776 2:0.183542 3:-0.552711 4:-0.548626 5:0.0986468 6:-0.530391 7:-0.706086 
-1.365369976542994 -32 1:-0.507974 2:-0.459673 3:-0.78215 4:-0.795331 5:-0.473897 6:-0.835994 7:-0.91235 
-11.27319940732642 0 1:-0.200787 2:-0.0420181 3:0.039716 4:-0.0149844 5:-0.0778585 6:-0.374051 7:-0.440943 
-32 -32 1:-0.418429 2:-0.338073 3:-0.707774 4:-0.715165 5:-0.358566 6:-0.758698 7:-0.837745 
0 -32 1:-0.646573 2:-0.578145 3:-0.686942 4:-0.648277 5:-0.597764 6:-0.802446 7:-0.859972 
-2.311298467777288 -32 1:-0.139913 2:-0.0149737 3:-0.21821 4:-0.30916 5:-0.0430343 6:-0.500187 7:-0.571615 
-18.34851272163651 0 1:0.19767 2:0.47712 3:-0.178737 4:-0.207657 5:0.418135 6:-0.191567 7:-0.310718 
0 -32 1:-0.521611 2:-0.243146 3:-0.618285 4:-0.586704 5:-0.307302 6:-0.695656 7:-0.832172 
0 -32 1:0.312795 2:0.567245 3:-0.07719 4:-0.137775 5:0.514534 6:-0.115007 7:-0.233801 
-12.30805658584143 -32 1:-0.309595 2:-0.168085 3:-0.408127 4:-0.434142 5:-0.201004 6:-0.594846 7:-0.674317 
0 -32 1:-0.539483 2:-0.327627 3:-0.688039 4:-0.693786 5:-0.377496 6:-0.750116 7:-0.829692 
-32 -32 1:-0.0648259 2:0.266714 3:-0.671678 4:-0.622279 5:0.194487 6:-0.463744 7:-0.678422 
-32 -32 1:0.070316 2:0.407583 3:-0.273591 4:-0.266275 5:0.335127 6:-0.273538 7:-0.465766 
0 -32 1:-0.692377 2:-0.611483 3:-0.757446 4:-0.739916 5:-0.634143 6:-0.858911 7:-0.912997 
0 -32 1:-0.630796 2:-0.483224 3:-0.682056 4:-0.681941 5:-0.51986 6:-0.80514 7:-0.88708 
-3.331639276547898 -32 1:-0.525777 2:-0.677894 3:-0.998905 4:-0.998439 5:-0.648861 6:-0.946678 7:-0.986996 
-15.99093472519493 -32 1:-0.402262 2:-0.351747 3:-0.251599 4:-0.200579 5:-0.365659 6:-0.545988 7:-0.717742 
-32 -32 1:-0.283744 2:0.092825 3:-0.834636 4:-0.805206 5:0.00921012 6:-0.686399 7:-0.855856 
-32 -32 1:-0.26594 2:-0.0616025 3:-0.502529 4:-0.536069 5:-0.107796 6:-0.596629 7:-0.701626 
0 -32 1:-0.218233 2:0.206942 3:-0.453784 4:-0.450639 5:0.113295 6:-0.482823 7:-0.69718 
-32 0 1:-0.0296381 2:0.280235 3:-0.482383 4:-0.50127 5:0.212962 6:-0.450018 7:-0.617971 
-27.7998022324942 0 1:0.0997744 2:0.365582 3:-0.186916 4:-0.166582 5:0.308818 6:-0.216852 7:-0.377717 
-32 -32 1:-0.0620276 2:0.284816 3:-0.723673 4:-0.70647 5:0.209297 6:-0.588482 7:-0.763719 
-32 0 1:-0.0693904 2:0.0958715 3:-0.159971 4:-0.186516 5:0.059609 6:-0.359743 7:-0.396161 
0 -32 1:-0.4447 2:-0.1798 3:-0.685142 4:-0.68242 5:-0.240443 6:-0.684595 7:-0.790645 
-32 -7.382153502183613 1:-0.247508 2:-0.107743 3:0.245572 4:0.140766 5:-0.139819 6:-0.34386 7:-0.376588 
-32 -32 1:-0.16988 2:-0.0425825 3:-0.343058 4:-0.358946 5:-0.0713779 6:-0.498046 7:-0.545333 
0 -32 1:-0.403487 2:0.0451467 3:-0.662769 4:-0.595782 5:-0.0549663 6:-0.594697 7:-0.796861 
0 -32 1:-0.535429 2:-0.411271 3:-0.626417 4:-0.635973 5:-0.442123 6:-0.7514 7:-0.833517 
-7.314706815757916 -32 1:-0.54505 2:-0.459228 3:-0.7702 4:-0.710115 5:-0.481853 6:-0.749916 7:-0.868086 
0 -32 1:-0.817614 2:-0.749547 3:-0.842822 4:-0.847359 5:-0.770368 6:-0.915399 7:-0.943967 
-32 -0.03992744134042213 1:0.320976 2:0.576012 3:-0.192211 4:-0.283168 5:0.523236 6:-0.209776 7:-0.251224 
0 -32 1:-0.723257 2:-0.627858 3:-0.775211 4:-0.755699 5:-0.65389 6:-0.858833 7:-0.911764 
-32 -32 1:0.23628 2:-0.0491337 3:-0.512663 4:-0.450298 5:0.0144627 6:-0.405225 7:-0.650248 
0 -32 1:-0.296876 2:-0.000177221 3:-0.363059 4:-0.394023 5:-0.0665985 6:-0.532678 7:-0.693115 
0 -32 1:-0.288449 2:0.0286107 3:-0.620798 4:-0.569135 5:-0.0421556 6:-0.567702 7:-0.749199 
0 -32 1:-0.564461 2:-0.542819 3:-0.841921 4:-0.849832 5:-0.551694 6:-0.875688 7:-0.940499 
-18.23953849228925 -32 1:-0.39858 2:-0.199175 3:-0.679619 4:-0.635354 5:-0.245294 6:-0.666194 7:-0.784742 
-2.246353927612726 -32 1:-0.364444 2:-0.335329 3:0.181695 4:0.0690762 5:-0.344325 6:-0.490045 7:-0.497071 
0 -32 1:-0.48898 2:-0.330361 3:-0.68871 4:-0.671684 5:-0.368327 6:-0.73373 7:-0.818247 
