svm_type c_svc
kernel_type rbf
gamma 0.00012207
nr_class 3
total_sv 130
rho 13.617 1.36436 25.0279
label 2 3 1
nr_sv 54 26 50
SV
0 32768 1:-0.727897 2:-0.722035 3:-0.910365 4:-0.91737 5:-0.720386 6:-0.929015 7:-0.964675 
0 32768 1:-0.735761 2:-0.529921 3:-0.829967 4:-0.786062 5:-0.571866 6:-0.829075 7:-0.921918 
32768 0 1:0.759481 2:0.190842 3:-0.325379 4:-0.115488 5:0.373545 6:-0.103707 7:-0.495212 
0 32768 1:-0.522457 2:-0.114741 3:-0.480739 4:-0.475067 5:-0.192264 6:-0.626496 7:-0.80675 
0 32768 1:-0.650455 2:-0.393884 3:-0.934077 4:-0.899495 5:-0.443562 6:-0.841639 7:-0.935117 
32768 32768 1:-0.456817 2:0.0842313 3:-0.521739 4:-0.51768 5:-0.0196572 6:-0.528061 7:-0.657342 
32543.01357049602 32768 1:-0.270148 2:0.0653697 3:-0.362013 4:-0.365713 5:0.013091 6:-0.493478 7:-0.6493 
32768 32768 1:-0.258953 2:0.0824651 3:-0.543894 4:-0.503352 5:0.0293356 6:-0.509082 7:-0.674854 
0 32768 1:-0.686728 2:-0.617475 3:-0.549386 4:-0.55846 5:-0.627981 6:-0.798713 7:-0.839006 
32768 32768 1:-0.170885 2:0.175278 3:-0.232035 4:-0.298693 5:0.124477 6:-0.411335 7:-0.540218 
0 32768 1:-0.352386 2:-0.0344353 3:-0.509887 4:-0.491952 5:-0.0860444 6:-0.574129 7:-0.705145 
0 32768 1:-0.573315 2:-0.396487 3:-0.578051 4:-0.556786 5:-0.425962 6:-0.72224 7:-0.805964 
32768 32768 1:-0.149031 2:-0.0220823 3:0.438018 4:0.398012 5:-0.0245908 6:-0.186956 7:-0.0981519 
0 32768 1:-0.488368 2:-0.338073 3:-0.688317 4:-0.691177 5:-0.358566 6:-0.754469 7:-0.834958 
32768 32768 1:-0.223561 2:0.156184 3:-0.236624 4:-0.238593 5:0.0961055 6:-0.398476 7:-0.556907 
32768 32768 1:-0.0267132 2:0.217887 3:-0.0952728 4:-0.153839 5:0.194568 6:-0.304208 7:-0.352632 
0 32768 1:-0.243346 2:-0.0149737 3:-0.18724 4:-0.265194 5:-0.0430343 6:-0.496579 7:-0.569231 
32768 454.3452104805138 1:0.0536394 2:0.47712 3:-0.146839 4:-0.158696 5:0.418135 6:-0.188701 7:-0.30873 
0 32768 1:-0.579142 2:-0.243146 3:-0.596723 4:-0.556394 5:-0.307302 6:-0.691578 7:-0.829393 
19199.46519864878 32768 1:-0.392623 2:-0.168085 3:-0.381623 4:-0.396325 5:-0.201004 6:-0.591011 7:-0.671778 
19889.76815578765 32768 1:-0.822899 2:-0.683542 3:-0.736403 4:-0.670525 5:-0.714415 6:-0.850745 7:-0.897928 
32768 32768 1:-0.177289 2:0.266714 3:-0.651372 4:-0.59372 5:0.194487 6:-0.460224 7:-0.675876 
0 32768 1:-0.438079 2:-0.309503 3:-0.556913 4:-0.593237 5:-0.323378 6:-0.697697 7:-0.760709 
32768 32768 1:-0.0583995 2:0.407583 3:-0.243924 4:-0.220198 5:0.335127 6:-0.270475 7:-0.463543 
0 32768 1:-0.729371 2:-0.611483 3:-0.739157 4:-0.717145 5:-0.634143 6:-0.854441 7:-0.910096 
0 32768 1:-0.675196 2:-0.483224 3:-0.661994 4:-0.656318 5:-0.51986 6:-0.800799 7:-0.884219 
0 32768 1:-0.582807 2:-0.677894 3:-0.986294 4:-0.988389 5:-0.648861 6:-0.941997 7:-0.983982 
32768 0 1:0.537679 2:0.688098 3:-0.154495 4:0.0388492 5:0.706675 6:0.116546 7:-0.085516 
32768 32768 1:-0.474146 2:-0.351747 3:-0.221414 4:-0.15127 5:-0.365659 6:-0.542271 7:-0.715138 
0 32768 1:-0.369881 2:0.092825 3:-0.818162 4:-0.785648 5:0.00921012 6:-0.682344 7:-0.853042 
32768 0 1:1 2:0.172678 3:0.00468383 4:0.289312 5:0.420551 6:0.277218 7:-0.295776 
0 32768 1:-0.312247 2:0.206942 3:-0.428354 4:-0.413634 5:0.113295 6:-0.479258 7:-0.694606 
0 32768 1:-0.274512 2:0.225231 3:-0.727655 4:-0.730963 5:0.137231 6:-0.644765 7:-0.83704 
0 32768 1:-0.146333 2:0.280235 3:-0.457625 4:-0.466757 5:0.212962 6:-0.446531 7:-0.615518 
0 32768 1:-0.705507 2:-0.359963 3:-0.755913 4:-0.728356 5:-0.431001 6:-0.762741 7:-0.842069 
0 32768 1:-0.174828 2:0.284816 3:-0.70459 4:-0.682053 5:0.209297 6:-0.584662 7:-0.761044 
32768 32768 1:-0.181305 2:0.0958715 3:-0.127631 4:-0.136515 5:0.059609 6:-0.356473 7:-0.394044 
0 32768 1:0.131882 2:0.0890935 3:-0.961025 4:-0.967506 5:0.134037 6:-0.791565 7:-0.93424 
0 32768 1:-0.51148 2:-0.1798 3:-0.665153 4:-0.65682 5:-0.240443 6:-0.680544 7:-0.78793 
0 32768 1:-0.296034 2:-0.163953 3:-0.653743 4:-0.577912 5:-0.173174 6:-0.611539 7:-0.757499 
32768 32768 1:-0.338002 2:-0.107743 3:0.287449 4:0.206871 5:-0.139819 6:-0.340628 7:-0.3745 
32768 32768 1:-0.269709 2:-0.0425825 3:-0.315024 4:-0.31743 5:-0.0713779 6:-0.494443 7:-0.542989 
32768 0 1:-0.164406 2:0.600748 3:-0.529889 4:-0.467918 5:0.459483 6:-0.334083 7:-0.67166 
0 32768 1:-0.591298 2:-0.411271 3:-0.605046 4:-0.608088 5:-0.442123 6:-0.747188 7:-0.830736 
0 32768 1:-0.599762 2:-0.459228 3:-0.752211 4:-0.685878 5:-0.481853 6:-0.745708 7:-0.865253 
32768 0 1:0.162117 2:0.576012 3:-0.160629 4:-0.237922 5:0.523236 6:-0.206867 7:-0.249326 
0 32768 1:-0.756538 2:-0.627858 3:-0.75734 4:-0.733705 5:-0.65389 6:-0.854363 7:-0.908865 
32768 32768 1:-0.407937 2:-0.0888638 3:-0.570608 4:-0.512697 5:-0.142833 6:-0.573496 7:-0.756397 
23026.00174401744 32768 1:0.087606 2:-0.0491337 3:-0.488617 4:-0.413276 5:0.0144627 6:-0.401846 7:-0.647745 
32768 32768 1:-0.204534 2:0.147634 3:-0.16688 4:-0.197235 5:0.0942507 6:-0.320932 7:-0.430294 
32768 32768 1:-0.374019 2:0.0286107 3:-0.599295 4:-0.53796 5:-0.0421556 6:-0.563933 7:-0.746546 
0 32768 1:-0.616839 2:-0.542819 3:-0.825618 4:-0.83247 5:-0.551694 6:-0.871177 7:-0.937556 
0 32768 1:-0.470907 2:-0.199175 3:-0.659499 4:-0.607438 5:-0.245294 6:-0.662187 7:-0.782036 
32768 32768 1:-0.329263 2:0.0758722 3:-0.293135 4:-0.229986 5:0.00626893 6:-0.418758 7:-0.653857 
-32768 32768 1:-0.164384 2:0.185952 3:0.130503 4:0.108944 5:0.134495 6:-0.191602 7:-0.261491 
-32768 32768 1:-0.121876 2:0.613188 3:-0.541787 4:-0.54762 5:0.480058 6:-0.426341 7:-0.713204 
-32768 32768 1:-0.481508 2:-0.135059 3:-0.641587 4:-0.61916 5:-0.197758 6:-0.643664 7:-0.732327 
-32768 32768 1:-0.442696 2:-0.290207 3:-0.647253 4:-0.568113 5:-0.309435 6:-0.676577 7:-0.774863 
-12880.77801839358 0 1:-0.144487 2:-0.183755 3:0.431109 4:0.93447 5:-0.150105 6:0.376664 7:-0.276896 
-32768 32768 1:-0.121405 2:0.0483377 3:-0.24468 4:-0.19548 5:0.0376169 6:-0.351296 7:-0.490773 
-32768 32768 1:-0.538877 2:-0.137628 3:-0.665704 4:-0.618941 5:-0.214377 6:-0.6819 7:-0.824179 
-32768 32768 1:-0.12076 2:0.224526 3:-0.0708247 4:-0.120071 5:0.175825 6:-0.237142 7:-0.209587 
-32768 0 1:0.0849366 2:0.115711 3:-0.326833 4:-0.248856 5:0.142939 6:-0.362804 7:-0.493085 
-32768 32768 1:-0.262967 2:0.00929963 3:-0.178994 4:-0.243278 5:-0.0290116 6:-0.484547 7:-0.603527 
-32768 32768 1:-0.147093 2:0.0271742 3:-0.835896 4:-0.842815 5:0.0144949 6:-0.73851 7:-0.885755 
-32768 0 1:0.263111 2:0.0654796 3:0.371442 4:0.749032 5:0.148947 6:0.343018 7:-0.185759 
-32768 29911.66508590974 1:-0.000746211 2:0.415589 3:-0.220623 4:-0.219316 5:0.356079 6:-0.187599 7:-0.367634 
-32768 0 1:0.439572 2:0.996233 3:0.152349 4:0.120925 5:0.923121 6:0.240268 7:0.231511 
-32768 32768 1:-0.159445 2:-0.230258 3:-0.462021 4:-0.327848 5:-0.190348 6:-0.562634 7:-0.682303 
-32768 32768 1:-0.184386 2:0.198684 3:-0.458715 4:-0.477149 5:0.139378 6:-0.515 7:-0.671118 
-32768 27799.25155866123 1:0.0931286 2:-0.0396667 3:-0.51547 4:-0.394891 5:0.0232861 6:-0.44293 7:-0.657816 
-32768 32768 1:-0.155125 2:-0.00694428 3:0.0494586 4:0.0794295 5:-0.0142818 6:-0.292347 7:-0.326822 
-32768 32768 1:-0.339311 2:-0.0771237 3:-0.379249 4:-0.337607 5:-0.116162 6:-0.525245 7:-0.684843 
-32768 32768 1:-0.136853 2:0.154983 3:-0.248 4:-0.292989 5:0.117241 6:-0.400611 7:-0.47897 
-32768 32768 1:-0.0836997 2:0.396538 3:-0.3665 4:-0.322313 5:0.320032 6:-0.327804 7:-0.544204 
-32768 32768 1:-0.107461 2:-0.0332373 3:-0.26745 4:-0.183038 5:-0.0227471 6:-0.416016 7:-0.554799 
-32768 32768 1:-0.499613 2:-0.341138 3:0.0360346 4:-0.0524717 5:-0.363831 6:-0.538884 7:-0.520903 
-32768 0 1:0.409549 2:0.696224 3:-0.516503 4:-0.389362 5:0.680419 6:-0.190679 7:-0.48655 
-16241.47065055632 0 1:0.684766 2:0.953273 3:0.191479 4:0.523721 5:0.951889 6:0.643704 7:0.203595 
-32768 32768 1:-0.275163 2:0.0901954 3:-0.421962 4:-0.424256 5:0.0312653 6:-0.509955 7:-0.648332 
-32768 -32768 1:-0.196357 2:0.361266 3:-0.467309 4:-0.451633 5:0.263714 6:-0.382588 7:-0.652639 
-2.930408217705843 0 1:-0.581821 2:-0.514623 3:-0.166344 4:-0.213239 5:-0.520687 6:-0.672748 7:-0.691632 
-32768 -15110.33326596211 1:-0.426159 2:-0.300973 3:-0.339702 4:-0.356557 5:-0.31366 6:-0.607275 7:-0.647443 
-32768 -32768 1:-0.0220682 2:0.355442 3:-0.325695 4:-0.316806 5:0.303525 6:-0.314857 7:-0.430105 
-32768 -32768 1:-0.355622 2:-0.105291 3:-0.507717 4:-0.521185 5:-0.142384 6:-0.594271 7:-0.691916 
-32768 -32768 1:-0.364351 2:-0.25497 3:-0.401494 4:-0.333072 5:-0.26188 6:-0.58906 7:-0.700303 
-32768 -32768 1:-0.0461731 2:0.348204 3:1 4:0.984347 5:0.291717 6:0.37121 7:0.800448 
-32768 0 1:-0.485327 2:-0.341822 3:-0.771416 4:-0.79634 5:-0.36073 6:-0.830539 7:-0.933267 
-32768 0 1:-0.579375 2:-0.321765 3:-0.67478 4:-0.662703 5:-0.36896 6:-0.749426 7:-0.852528 
-32768 0 1:-0.579735 2:-0.34035 3:-0.607763 4:-0.618455 5:-0.383613 6:-0.741921 7:-0.850595 
-32768 -32768 1:0.124729 2:0.695063 3:-0.255251 4:-0.218073 5:0.606993 6:-0.0772605 7:-0.338609 
-32768 -32768 1:-0.112256 2:0.164061 3:-0.0997615 4:-0.0484548 5:0.130615 6:-0.247003 7:-0.454653 
-32768 0 1:-0.620258 2:-0.360258 3:-0.786239 4:-0.757028 5:-0.409528 6:-0.775251 7:-0.884199 
-32768 0 1:-0.490175 2:-0.229493 3:-0.629043 4:-0.626957 5:-0.273954 6:-0.712515 7:-0.823042 
-32768 0 1:-0.564438 2:-0.275798 3:-0.70486 4:-0.689947 5:-0.329141 6:-0.728861 7:-0.838655 
-32768 0 1:-0.464462 2:-0.323811 3:-0.576881 4:-0.575542 5:-0.341305 6:-0.684909 7:-0.760998 
-32768 0 1:-0.639765 2:-0.38278 3:-0.682056 4:-0.636715 5:-0.43214 6:-0.746807 7:-0.833512 
-32768 -9832.583378608852 1:-0.662019 2:-0.541977 3:0.314388 4:0.188783 5:-0.562537 6:-0.592989 7:-0.56395 
-32768 -32768 1:-0.0890047 2:0.149701 3:-0.626757 4:-0.538222 5:0.125284 6:-0.476283 7:-0.704015 
-32768 -32768 1:-0.28053 2:0.240814 3:-0.698313 4:-0.671052 5:0.147909 6:-0.581753 7:-0.781 
-32768 0 1:-0.340869 2:-0.300687 3:-0.909356 4:-0.911379 5:-0.291721 6:-0.830719 7:-0.927756 
-32768 0 1:-0.572036 2:-0.394544 3:-0.617226 4:-0.629626 5:-0.424113 6:-0.763416 7:-0.841449 
-32768 -32768 1:-0.436122 2:-0.32023 3:0.0302743 4:0.045737 5:-0.331284 6:-0.483895 7:-0.578537 
-32768 0 1:-0.580873 2:-0.331125 3:-0.845324 4:-0.811821 5:-0.376674 6:-0.81061 7:-0.924986 
-32768 0 1:-0.494422 2:-0.345846 3:-0.188496 4:-0.244005 5:-0.366198 6:-0.598194 7:-0.626412 
-32768 -32768 1:-0.355017 2:0.0550384 3:-0.333569 4:-0.352913 5:-0.0166115 6:-0.497031 7:-0.666539 
-32768 0 1:-0.582554 2:-0.375923 3:-0.583436 4:-0.575044 5:-0.412202 6:-0.729282 7:-0.81859 
-32768 -32768 1:-0.355163 2:-0.215937 3:-0.530183 4:-0.438054 5:-0.228958 6:-0.586568 7:-0.750517 
-32768 -32768 1:-0.273319 2:-0.0824215 3:-0.844484 4:-0.852512 5:-0.103511 6:-0.768554 7:-0.897536 
-32768 0 1:-0.488817 2:-0.223103 3:-0.664105 4:-0.647763 5:-0.268601 6:-0.711129 7:-0.812734 
-32768 0 1:-0.344839 2:-0.0857481 3:-0.685697 4:-0.694745 5:-0.124326 6:-0.692452 7:-0.816862 
-32768 0 1:-0.448428 2:-0.202002 3:-0.630682 4:-0.653402 5:-0.241786 6:-0.690367 7:-0.779938 
-32768 -32768 1:-0.264334 2:-0.0279791 3:-0.434973 4:-0.440437 5:-0.0585676 6:-0.515071 7:-0.668273 
-32768 0 1:-0.517288 2:-0.210943 3:-0.782067 4:-0.70464 5:-0.266323 6:-0.68168 7:-0.844974 
-32768 0 1:-0.546434 2:-0.265518 3:-0.712147 4:-0.683136 5:-0.316503 6:-0.737822 7:-0.841278 
-32768 0 1:-0.532762 2:-0.312125 3:-0.688323 4:-0.677052 5:-0.349539 6:-0.719219 7:-0.835572 
-32768 -32768 1:-0.383732 2:0.0927389 3:-0.538185 4:-0.547511 5:0.00561622 6:-0.594257 7:-0.79575 
-32768 0 1:-0.613087 2:-0.347095 3:-0.574085 4:-0.512908 5:-0.397389 6:-0.701959 7:-0.805971 
-451.4148022627907 0 1:-0.440327 2:-0.356084 3:-0.859458 4:-0.873457 5:-0.360447 6:-0.824849 7:-0.915673 
-32768 0 1:-0.535466 2:-0.311234 3:-0.600146 4:-0.587831 5:-0.349529 6:-0.707072 7:-0.803558 
-32768 0 1:-0.458123 2:-0.205129 3:-0.685394 4:-0.6836 5:-0.246704 6:-0.710118 7:-0.813074 
-32768 0 1:-0.520737 2:-0.322288 3:-0.743693 4:-0.747292 5:-0.35444 6:-0.781672 7:-0.880915 
-32768 -32768 1:-0.291165 2:-0.220342 3:-0.206294 4:-0.280694 5:-0.216115 6:-0.553697 7:-0.565152 
-32768 0 1:-0.439588 2:-0.0879242 3:-0.586848 4:-0.532215 5:-0.150155 6:-0.612088 7:-0.747749 
-32768 0 1:-0.391935 2:-0.304816 3:-0.914497 4:-0.919318 5:-0.307957 6:-0.83466 7:-0.932749 
-32768 0 1:-0.456967 2:-0.284088 3:-0.57483 4:-0.527432 5:-0.308274 6:-0.656382 7:-0.745895 
-32768 -32768 1:-0.206552 2:-0.0663855 3:-0.708289 4:-0.60949 5:-0.0739476 6:-0.54059 7:-0.794586 
-32768 -32768 1:-0.328161 2:-0.145189 3:-0.422619 4:-0.396898 5:-0.166652 6:-0.574785 7:-0.648774 
-32768 -32768 1:-0.129481 2:0.32304 3:-0.556491 4:-0.545309 5:0.25079 6:-0.471681 7:-0.64009 
-32768 0 1:-0.447597 2:-0.0749396 3:-0.690177 4:-0.671779 5:-0.14202 6:-0.673217 7:-0.821585 
