svm_type c_svc
kernel_type rbf
gamma 2
nr_class 3
total_sv 146
rho -0.248038 -0.0277939 0.113993
label 2 3 1
nr_sv 61 26 59
SV
0 2 1:-0.727897 2:-0.72151 3:-0.91296 4:-0.921618 5:-0.713494 6:-0.913628 7:-0.96076 
2 2 1:-0.426643 2:-0.412468 3:-0.32682 4:-0.253017 5:-0.387267 6:-0.521722 7:-0.685299 
0 2 1:-0.735761 2:-0.529033 3:-0.834889 4:-0.79706 5:-0.561313 6:-0.792025 7:-0.913263 
0.6125340965683863 0.2149151412447744 1:0.759481 2:0.193089 3:-0.344907 4:-0.160957 5:0.407401 6:0.0905779 7:-0.439264 
0 2 1:-0.522457 2:-0.11307 3:-0.495769 4:-0.502052 5:-0.172355 6:-0.545534 7:-0.785331 
0.1994638169439101 2 1:-0.72344 2:-0.438563 3:-0.690768 4:-0.651924 5:-0.485605 6:-0.7335 7:-0.891899 
0.369268369724911 2 1:-0.650455 2:-0.392741 3:-0.935985 4:-0.904661 5:-0.429847 6:-0.807312 7:-0.927925 
0 0.6488795277528502 1:-0.456817 2:0.0862774 3:-0.535583 4:-0.542475 5:0.00450693 6:-0.425762 7:-0.619364 
2 0 1:-0.270148 2:0.0673802 3:-0.38048 4:-0.39832 5:0.0380624 6:-0.383683 7:-0.61043 
2 1.923261564273228 1:-0.0945266 2:0.120017 3:0.258439 4:0.312901 5:0.126056 6:0.112408 7:-0.0661593 
2 1.192675867570237 1:-0.258953 2:0.0845078 3:-0.557097 4:-0.528883 5:0.0547074 6:-0.402669 7:-0.638817 
0 2 1:-0.638985 2:-0.487508 3:-0.794569 4:-0.787856 5:-0.502792 6:-0.778933 7:-0.887563 
2 0 1:-0.170885 2:0.177496 3:-0.254264 4:-0.334744 5:0.152194 6:-0.283733 7:-0.489259 
2 2 1:-0.357021 2:-0.214134 3:-0.413105 4:-0.427164 5:-0.210179 6:-0.50135 7:-0.615597 
0 2 1:-0.352386 2:-0.0326131 3:-0.524073 4:-0.518069 5:-0.0635166 6:-0.481816 7:-0.672465 
0 2 1:-0.573315 2:-0.395348 3:-0.590265 4:-0.57957 5:-0.411813 6:-0.662032 7:-0.784458 
0 2 1:-0.567144 2:-0.458653 3:-0.77126 4:-0.786838 5:-0.460929 6:-0.795071 7:-0.899414 
2 0 1:-0.149031 2:-0.0202368 3:0.396393 4:0.326146 5:-0.000548285 6:-0.0107174 7:0.00180434 
0.3726230344095678 0.2067163408605513 1:-0.2969 2:-0.0402103 3:0.045584 4:-0.0101833 5:-0.0551289 6:-0.234347 7:-0.376552 
0 2 1:-0.488368 2:-0.336824 3:-0.697339 4:-0.707052 5:-0.342756 6:-0.701247 7:-0.816665 
0 2 1:-0.689076 2:-0.577349 3:-0.676634 4:-0.64048 5:-0.58785 6:-0.754349 7:-0.841318 
2 0 1:-0.223561 2:0.158366 3:-0.258721 4:-0.277734 5:0.123123 6:-0.268087 7:-0.507797 
2 0 1:-0.0267132 2:0.220186 3:-0.121461 4:-0.197337 5:0.224013 6:-0.153386 7:-0.280881 
2 2 1:-0.243346 2:-0.0131148 3:-0.210766 4:-0.302967 5:-0.0194464 6:-0.387456 7:-0.521487 
0 2 1:-0.579142 2:-0.241718 3:-0.608396 4:-0.579198 5:-0.290228 6:-0.624723 7:-0.810484 
1.396619407237721 0.1844529497899531 1:0.154919 2:0.570202 3:-0.0706077 4:-0.132393 5:0.551866 6:0.0800905 7:-0.146802 
0 2 1:-0.822899 2:-0.682945 3:-0.744033 4:-0.687462 5:-0.707375 6:-0.818392 7:-0.886615 
0 2 1:-0.594864 2:-0.326358 3:-0.677724 4:-0.685774 5:-0.362152 6:-0.690829 7:-0.807733 
0.2330755683983752 0.4434874648696581 1:-0.177289 2:0.269105 3:-0.661463 4:-0.614606 5:0.223929 6:-0.34322 7:-0.639952 
2 2 1:-0.438079 2:-0.3082 3:-0.569739 4:-0.614147 5:-0.3067 6:-0.632169 7:-0.734187 
0 2 1:-0.0583995 2:0.410239 3:-0.265809 4:-0.260285 5:0.368037 6:-0.11234 7:-0.404085 
0 2 1:-0.729371 2:-0.61075 3:-0.746707 4:-0.731685 5:-0.625125 6:-0.822889 7:-0.900131 
1.271531931831827 0.4873979797794077 1:0.537679 2:0.691284 3:-0.178969 4:-0.0145543 5:0.748742 6:0.358573 7:0.0158407 
0.5151665469280096 2 1:-0.369881 2:0.0948874 3:-0.823425 4:-0.796667 5:0.0340858 6:-0.613487 7:-0.836753 
0.2868584067986245 2 1:-0.354218 2:-0.0598316 3:-0.493347 4:-0.528803 5:-0.0858046 6:-0.504521 7:-0.665689 
0.3054274690225766 0.6941134638192328 1:1 2:0.174891 3:-0.0243979 4:0.223033 5:0.455565 6:0.554074 7:-0.217723 
0 2 1:-0.274512 2:0.227543 3:-0.735538 4:-0.744794 5:0.165263 6:-0.567762 7:-0.818978 
2 1.526200720946532 1:-0.146333 2:0.282651 3:-0.473324 4:-0.494169 5:0.24286 6:-0.326559 7:-0.572904 
1.365990794378657 0.9866218080333015 1:-0.0324838 2:0.368159 3:-0.179664 4:-0.161064 5:0.341078 6:-0.0435325 7:-0.306425 
0 2 1:-0.705507 2:-0.358755 3:-0.762978 4:-0.742321 5:-0.416976 6:-0.711312 7:-0.824564 
0.5693145316115679 0 1:-0.174828 2:0.287241 3:-0.713141 4:-0.698398 5:0.239104 6:-0.494632 7:-0.734559 
1.888033742007697 1.610834023353342 1:0.131882 2:0.0911488 3:-0.962153 4:-0.969176 5:0.161989 6:-0.746384 7:-0.926951 
0 2 1:-0.51148 2:-0.178252 3:-0.674845 4:-0.674462 5:-0.221721 6:-0.611297 7:-0.764425 
2 2 1:-0.296034 2:-0.162375 3:-0.663766 4:-0.59961 5:-0.152794 6:-0.527334 7:-0.730621 
0 0.9022168185170377 1:-0.338002 2:-0.106059 3:0.250182 4:0.14483 5:-0.118617 6:-0.1977 7:-0.305173 
2 2 1:-0.269709 2:-0.0407757 3:-0.334852 4:-0.352518 5:-0.0484886 6:-0.384857 7:-0.492336 
0.376918919609391 2 1:-0.164406 2:0.603769 3:-0.543497 4:-0.49527 5:0.495458 6:-0.189736 7:-0.635268 
0 2 1:-0.475223 2:0.0471191 3:-0.652609 4:-0.588234 5:-0.0316725 6:-0.502176 7:-0.771319 
0 2 1:-0.599762 2:-0.458208 3:-0.759383 4:-0.702026 5:-0.469081 6:-0.690586 7:-0.850318 
0.4561291922567742 2 1:-0.839547 2:-0.749074 3:-0.831562 4:-0.83862 5:-0.764708 6:-0.891456 7:-0.934482 
0 2 1:-0.756538 2:-0.627156 3:-0.764364 4:-0.747394 5:-0.645359 6:-0.822795 7:-0.898764 
1.880269334250162 2 1:-0.407937 2:-0.0871444 3:-0.583037 4:-0.537747 5:-0.121705 6:-0.481046 7:-0.729398 
2 1.50406325853876 1:0.087606 2:-0.0473393 3:-0.50342 4:-0.443437 5:0.0394678 6:-0.272187 7:-0.608703 
2 0 1:-0.204534 2:0.1498 3:-0.190995 4:-0.238502 5:0.121222 6:-0.173734 7:-0.36715 
0 2 1:-0.381433 2:0.00170959 3:-0.35473 4:-0.387429 5:-0.0435914 6:-0.426895 7:-0.65625 
0 2 1:-0.374019 2:0.0305519 3:-0.610894 4:-0.561712 5:-0.0185459 6:-0.469409 7:-0.718455 
0 2 1:-0.616839 2:-0.541956 3:-0.830665 4:-0.841082 5:-0.540644 6:-0.843253 7:-0.930635 
0 2 1:-0.470907 2:-0.197664 3:-0.669355 4:-0.627618 5:-0.226692 6:-0.588961 7:-0.757878 
1.827942090102353 0.2343893267143479 1:-0.329263 2:0.0779026 3:-0.313596 4:-0.269569 5:0.0310721 6:-0.292765 7:-0.615492 
1.876975523854762 2 1:-0.440875 2:-0.334075 3:0.186696 4:0.0734797 5:-0.328163 6:-0.375145 7:-0.438807 
0 2 1:-0.550435 2:-0.329097 3:-0.678391 4:-0.663776 5:-0.352757 6:-0.670939 7:-0.79504 
-2 1.979503492483732 1:-0.164384 2:0.18819 3:0.0977789 4:0.0519373 5:0.162459 6:-0.0163705 7:-0.179639 
-2 1.454132093458338 1:-0.348471 2:-0.0588337 3:0.608713 4:0.509847 5:-0.0835059 6:0.0341503 7:-0.0790254 
-2 2 1:-0.393508 2:-0.0496415 3:-0.378236 4:-0.391765 5:-0.0878893 6:-0.443781 7:-0.660395 
-0.5026617638579097 0.5120926187229841 1:0.563223 2:0.723792 3:0.262887 4:0.501155 5:0.781454 6:0.885507 7:0.525656 
-2 0 1:-0.121405 2:0.0503161 3:-0.266543 4:-0.236837 5:0.0631928 6:-0.21068 7:-0.434333 
-2 2 1:-0.538877 2:-0.136001 3:-0.675381 4:-0.63853 5:-0.195013 6:-0.612947 7:-0.804692 
-2 2 1:-0.153851 2:0.242385 3:-0.599956 4:-0.617471 5:0.208633 6:-0.446985 7:-0.673668 
-2 1.260540558528079 1:-0.0498572 2:0.306137 3:0.550358 4:0.406459 5:0.286848 6:0.284778 7:0.166813 
-2 0 1:-0.12076 2:0.226837 3:-0.0977208 4:-0.165305 5:0.204807 6:-0.0717818 7:-0.121981 
-2 2 1:-0.569389 2:-0.358298 3:-0.452023 4:-0.419829 5:-0.3811 6:-0.583312 7:-0.778513 
-2 0 1:0.0849366 2:0.117817 3:-0.346318 4:-0.28747 5:0.171111 6:-0.224683 7:-0.436901 
-2 2 1:-0.262967 2:0.0112043 3:-0.202759 4:-0.282178 5:-0.00507802 6:-0.372816 7:-0.559584 
-2 2 1:-0.147093 2:0.0291126 3:-0.840646 4:-0.850895 5:0.0395009 6:-0.681828 7:-0.873093 
-0.9467248535072138 0.2308754579850852 1:0.439572 2:1 3:0.118993 4:0.0633021 5:0.970523 6:0.509114 7:0.368006 
-2 2 1:-0.159445 2:-0.228806 3:-0.477594 4:-0.362401 5:-0.170392 6:-0.467828 7:-0.647091 
-1.74048982936037 0.5053423275923786 1:0.0931286 2:-0.0378545 3:-0.529495 4:-0.425998 5:0.0485088 6:-0.322177 7:-0.61989 
-2 2 1:-0.339311 2:-0.0753821 3:-0.397217 4:-0.371658 5:-0.0943763 6:-0.422335 7:-0.649912 
-2 2 1:-0.136853 2:0.157163 3:-0.269768 4:-0.329334 5:0.144779 6:-0.270685 7:-0.421222 
-2 2 1:-0.0836997 2:0.399173 3:-0.384837 4:-0.35715 5:0.352569 6:-0.182096 7:-0.493685 
-2 1.439990006252626 1:-0.0356111 2:0.903399 3:0.0310019 4:-0.0183933 5:0.769151 6:0.261071 7:-0.128528 
-2 0 1:-0.107461 2:-0.0314129 3:-0.288654 4:-0.225035 5:0.0013409 6:-0.28943 7:-0.505456 
-2 2 1:-0.499613 2:-0.339895 3:0.00604536 4:-0.101181 5:-0.34815 6:-0.43893 7:-0.467802 
-2 2 1:-0.11938 2:-0.314843 3:-0.647436 4:-0.556021 5:-0.228882 6:-0.434623 7:-0.756477 
-0.6142663292097804 0.5901889392218581 1:0.684766 2:0.956959 3:0.156991 4:0.445392 5:1 6:1 7:0.336995 
-2 2 1:-0.0715077 2:0.0125444 3:-0.413169 4:-0.322398 5:0.0459434 6:-0.336984 7:-0.559142 
-2 2 1:-0.275163 2:0.0922528 3:-0.438693 4:-0.453853 5:0.0566847 6:-0.40373 7:-0.609354 
-2 -2 1:-0.433042 2:0.330447 3:0.464949 4:0.321301 5:0.206363 6:0.105749 7:-0.102644 
-0.1329893553058334 0 1:-0.868562 2:-0.626143 3:-0.937936 4:-0.884155 5:-0.673772 6:-0.845921 7:-0.931176 
-2 -0.3367123678782882 1:-0.724392 2:-0.615176 3:-0.646267 4:-0.626994 5:-0.627373 6:-0.772972 7:-0.856722 
-0.5327379360780845 -0.1338461482364934 1:-0.956963 2:-0.992932 3:-0.776346 4:-0.789087 5:-0.990742 6:-0.97012 7:-0.968038 
-2 -2 1:-0.196357 2:0.363835 3:-0.482728 4:-0.479822 5:0.294862 6:-0.248755 7:-0.614139 
-2 0 1:-0.719995 2:-0.516254 3:-0.856409 4:-0.815363 5:-0.54696 6:-0.782722 7:-0.906847 
0 -0.4220914269690945 1:-0.628046 2:-0.541334 3:-0.494078 4:-0.468169 5:-0.543069 6:-0.688387 7:-0.785099 
-2 -1.284032554952463 1:-0.426159 2:-0.299654 3:-0.358815 4:-0.389634 5:-0.296743 6:-0.522146 7:-0.608367 
0 -0.2576856443107972 1:-0.924364 2:-0.976072 3:-1 4:-1 5:-0.968728 6:-1 7:-1 
-2 -2 1:-0.355622 2:-0.103602 3:-0.521966 4:-0.5458 5:-0.121244 6:-0.506323 7:-0.65777 
-1.610543100006472 0 1:-0.818385 2:-0.732141 3:-0.760923 4:-0.751027 5:-0.745618 6:-0.87789 7:-0.92542 
0 -0.1109704965675286 1:-0.616159 2:-0.598978 3:-0.742528 4:-0.683543 5:-0.586158 6:-0.732945 7:-0.866587 
-0.7252374212790614 -0.3354054486477907 1:-1 2:-0.988071 3:-0.971996 4:-0.940824 5:-0.998075 6:-0.981503 7:-0.989443 
-2 -2 1:-0.364351 2:-0.253564 3:-0.418818 4:-0.367357 5:-0.243686 6:-0.499983 7:-0.667086 
-0.6247853474502122 -0.5306015875634695 1:-0.0461731 2:0.350748 3:0.942108 4:0.882339 5:0.323556 6:0.668439 7:1 
-1.964113626913455 0 1:-0.579375 2:-0.320486 3:-0.684194 4:-0.680042 5:-0.353406 6:-0.69511 7:-0.836183 
-2 -2 1:-0.112256 2:0.166258 3:-0.12582 4:-0.0973702 5:0.158484 6:-0.0837801 7:-0.39421 
-0.804931761855723 0 1:-0.664075 2:-0.718421 3:-0.974298 4:-0.965837 5:-0.694369 6:-0.94086 7:-0.986738 
-2 0 1:-0.490175 2:-0.228039 3:-0.639781 4:-0.646134 5:-0.256058 6:-0.650199 7:-0.803428 
-2 0 1:-0.564438 2:-0.274431 3:-0.713403 4:-0.705886 5:-0.312606 6:-0.670088 7:-0.820772 
-2 0 1:-0.725217 2:-0.657168 3:-0.657704 4:-0.690998 5:-0.661237 6:-0.824881 7:-0.891732 
-0.8574445180095732 0 1:-0.464462 2:-0.322535 3:-0.589129 4:-0.597362 5:-0.325069 6:-0.616608 7:-0.734508 
-1.47144435867075 -0.7784414416460581 1:-0.662019 2:-0.541112 3:0.276342 4:0.127672 5:-0.551754 6:-0.504763 7:-0.51562 
-2 -2 1:-0.0890047 2:0.151871 3:-0.637561 4:-0.56196 5:0.153021 6:-0.36276 7:-0.67121 
-1.575428669699157 0 1:-0.677154 2:-0.460941 3:-0.664972 4:-0.624987 5:-0.491461 6:-0.72398 7:-0.845767 
-2 0 1:-0.731921 2:-0.608084 3:-0.740949 4:-0.729132 5:-0.623655 6:-0.802939 7:-0.885158 
-0.569494654889363 -0.6926429576877724 1:-0.216045 2:0.272927 3:1 4:1 5:0.216882 6:0.710293 7:0.665265 
0 -0.41231830312214 1:-0.340869 2:-0.299367 3:-0.91198 4:-0.915934 5:-0.274263 6:-0.794025 7:-0.919749 
-2 -2 1:-0.436122 2:-0.318947 3:0.000451838 4:-0.00802051 5:-0.314801 6:-0.372022 7:-0.531824 
-0.1215310592296472 0 1:-0.494422 2:-0.344611 3:-0.211986 4:-0.282868 5:-0.350575 6:-0.511097 7:-0.585006 
-2 0 1:-0.443311 2:-0.129151 3:-0.729319 4:-0.709218 5:-0.164593 6:-0.620417 7:-0.781425 
-2 0 1:-0.704324 2:-0.532618 3:-0.774621 4:-0.776023 5:-0.555985 6:-0.799561 7:-0.883611 
-2 -2 1:-0.355017 2:0.0570294 3:-0.35286 4:-0.386177 5:0.00762776 6:-0.388005 7:-0.62958 
-0.1152210100521929 0 1:-0.77018 2:-0.642721 3:-0.81731 4:-0.803114 5:-0.661391 6:-0.857187 7:-0.933377 
-2 -2 1:-0.273319 2:-0.0806899 3:-0.848986 4:-0.860094 5:-0.0814136 6:-0.718384 7:-0.886179 
-2 -0.04481157372371677 1:-0.666859 2:-0.406119 3:-0.857578 4:-0.799043 5:-0.444846 6:-0.703431 7:-0.877376 
-2 0 1:-0.344839 2:-0.0840228 3:-0.694794 4:-0.710437 5:-0.102742 6:-0.625787 7:-0.796564 
-2 0 1:-0.448428 2:-0.200496 3:-0.641372 4:-0.671219 5:-0.223097 6:-0.623249 7:-0.755548 
-2 -2 1:-0.19618 2:0.561822 3:-0.137691 4:-0.167929 5:0.453556 6:-0.043158 7:-0.50141 
-2 0 1:-0.741941 2:-0.608461 3:-0.826504 4:-0.830833 5:-0.626571 6:-0.863656 7:-0.952126 
-2 -0.1283146990987756 1:-0.681196 2:-0.554069 3:-0.790281 4:-0.714359 5:-0.567139 6:-0.730633 7:-0.884941 
-2 -1.247061886600674 1:-0.309589 2:-0.0800273 3:-0.638339 4:-0.672842 5:-0.0903448 6:-0.594746 7:-0.788995 
-2 -0.5210832696650777 1:-0.582015 2:-0.185878 3:-0.490008 4:-0.466963 5:-0.246233 6:-0.536399 7:-0.801914 
-2 -2 1:-0.264334 2:-0.0261447 3:-0.451328 4:-0.469202 5:-0.0353625 6:-0.409955 7:-0.631507 
-2 0 1:-0.517288 2:-0.209454 3:-0.788375 4:-0.719823 5:-0.248239 6:-0.612679 7:-0.827792 
-2 -0.1601589215187917 1:-0.272869 2:0.29696 3:-0.574498 4:-0.532606 5:0.221315 6:-0.361913 7:-0.674336 
-2 -0.5764867660561507 1:-0.383732 2:0.0948011 3:-0.551552 4:-0.570772 5:0.0304033 6:-0.506306 7:-0.773113 
-2 0 1:-0.613087 2:-0.345863 3:-0.586413 4:-0.537947 5:-0.382535 6:-0.637354 7:-0.784466 
-0.4332940064281576 0 1:-0.740634 2:-0.591451 3:-0.834645 4:-0.821348 5:-0.612599 6:-0.831837 7:-0.91628 
-2 0 1:-0.535466 2:-0.309934 3:-0.611721 4:-0.609019 5:-0.333496 6:-0.643575 7:-0.781786 
-2 0 1:-0.458123 2:-0.203628 3:-0.694501 4:-0.699865 5:-0.228136 6:-0.647282 7:-0.792356 
-2 -2 1:-0.291165 2:-0.21887 3:-0.229268 4:-0.317671 5:-0.196794 6:-0.456955 7:-0.516956 
-0.02966693287407538 0 1:-0.675827 2:-0.625328 3:-0.802568 4:-0.827095 5:-0.622839 6:-0.856017 7:-0.924341 
-1.897133812293104 0 1:-0.62538 2:-0.594509 3:-0.9319 4:-0.939365 5:-0.584983 6:-0.886389 7:-0.956229 
-1.294228685028353 0 1:-0.734313 2:-0.548688 3:-0.935926 4:-0.910177 5:-0.576684 6:-0.854338 7:-0.941784 
-2 0 1:-0.456967 2:-0.282737 3:-0.587137 4:-0.551725 5:-0.291224 6:-0.581898 7:-0.717732 
-2 -2 1:-0.328161 2:-0.143576 3:-0.439332 4:-0.427901 5:-0.146112 6:-0.482613 7:-0.609846 
-2 -2 1:-0.129481 2:0.325536 3:-0.569329 4:-0.568683 5:0.281621 6:-0.35716 7:-0.600199 
-2 0 1:-0.714885 2:-0.501442 3:-0.795124 4:-0.781931 5:-0.533758 6:-0.7708 7:-0.865255 
