svm_type c_svc
kernel_type rbf
gamma 0.0078125
nr_class 3
total_sv 150
rho 46.7365 26.0803 -7.47066
label 1 3 2
nr_sv 60 33 57
SV
2048 2048 1:-0.146075 2:0.144385 3:-0.542257 4:-0.457343 5:0.102721 6:-0.3848 7:-0.994066 
2048 2048 1:-0.451851 2:0.365548 3:-0.456791 4:-0.42953 5:0.0918717 6:-0.433173 7:-0.996603 
1679.134355452514 2048 1:-0.565081 2:-0.364426 3:-1 4:-1 5:-0.665423 6:-1 7:-1 
2048 2048 1:-0.219715 2:0.356617 3:-0.333482 4:-0.272356 5:0.247604 6:-0.178369 7:-0.988643 
0 1378.826318183395 1:-0.37101 2:0.312969 3:-0.67166 4:-0.669648 5:0.100207 6:-0.639053 7:-0.996417 
2048 2048 1:-0.14856 2:0.519252 3:-0.500647 4:-0.410993 5:0.448777 6:-0.257072 7:-0.992687 
0 2048 1:-0.265108 2:0.5349 3:-0.731047 4:-0.710248 5:0.380947 6:-0.633912 7:-0.99711 
2048 0 1:-0.261249 2:0.113729 3:-0.550114 4:-0.483572 5:-0.00709962 6:-0.425303 7:-0.995632 
0 2048 1:-0.266877 2:0.395011 3:-0.740181 4:-0.70638 5:0.249904 6:-0.640062 7:-0.99732 
2048 0 1:-0.340103 2:0.0339343 3:-0.382212 4:-0.334913 5:-0.136851 6:-0.337043 7:-0.991839 
0 2048 1:-0.277441 2:0.448136 3:-0.799704 4:-0.772182 5:0.291731 6:-0.693386 7:-0.998132 
0 2048 1:-0.378368 2:0.434553 3:-0.825971 4:-0.815852 5:0.207816 6:-0.754814 7:-0.999038 
2048 1343.813695250473 1:0.14541 2:-0.148948 3:-0.405626 4:-0.286193 5:0.0365124 6:-0.168053 7:-0.994028 
140.8146765295556 0 1:-0.362981 2:-0.0511749 3:-0.538464 4:-0.485032 5:-0.231983 6:-0.486272 7:-0.995751 
0 2048 1:-0.282359 2:0.467214 3:-0.787034 4:-0.794295 5:0.305957 6:-0.734907 7:-0.997847 
0 2048 1:-0.310503 2:0.410368 3:-0.641309 4:-0.63075 5:0.233328 6:-0.586937 7:-0.995499 
2048 2048 1:-0.307876 2:0.094459 3:-0.425677 4:-0.368052 5:-0.0579246 6:-0.333905 7:-0.992344 
0 2048 1:-0.299744 2:0.375268 3:-0.691407 4:-0.657959 5:0.208363 6:-0.60165 7:-0.996818 
0 2048 1:-0.455624 2:-0.364113 3:-0.811694 4:-0.79093 5:-0.587793 6:-0.792487 7:-0.998872 
2048 2048 1:-0.330068 2:0.600871 3:-0.479829 4:-0.468071 5:0.396258 6:-0.402368 7:-0.992127 
2048 2048 1:-0.240492 2:0.377877 3:-0.367998 4:-0.321203 5:0.25265 6:-0.234058 7:-0.992001 
0 7.270150173071112 1:0.984646 2:-1 3:-0.557089 4:-0.363987 5:-0.160141 6:-0.211845 7:-0.997666 
2048 2048 1:-0.284239 2:0.491559 3:-0.154834 4:-0.124921 5:0.327216 6:-0.0661867 7:-0.972468 
0 2048 1:-0.50397 2:-0.123401 3:-0.884425 4:-0.895374 5:-0.398614 6:-0.897931 7:-0.99942 
0 2048 1:-0.486246 2:-0.212855 3:-0.866415 4:-0.849412 5:-0.469089 6:-0.84117 7:-0.999149 
2048 2048 1:-0.121242 2:0.562933 3:-0.579186 4:-0.515469 5:0.508607 6:-0.402985 7:-0.994423 
2048 2048 1:-0.306076 2:0.523866 3:-0.208753 4:-0.18789 5:0.341762 6:-0.157195 7:-0.983447 
2048 2048 1:-0.260252 2:0.435482 3:-0.562902 4:-0.54625 5:0.292135 6:-0.483411 7:-0.993671 
0 2048 1:-0.332304 2:0.398482 3:-0.818385 4:-0.808489 5:0.206896 6:-0.752333 7:-0.998604 
2048 2048 1:-0.15915 2:0.550196 3:-0.213613 4:-0.129991 5:0.470004 6:0.00054329 7:-0.975625 
0 2048 1:0.0477343 2:0.125149 3:-0.684701 4:-0.589531 5:0.221812 6:-0.486566 7:-0.996913 
0 2048 1:-0.46694 2:-0.363304 3:-0.837523 4:-0.816187 5:-0.595038 6:-0.80985 7:-0.999131 
0 2048 1:-0.328903 2:0.301682 3:-0.70348 4:-0.682897 5:0.119485 6:-0.6384 7:-0.99664 
2048 2048 1:-0.237065 2:0.527448 3:-0.0230087 4:-0.00966662 5:0.393847 6:0.0644055 7:-0.960203 
548.8884592629102 161.3374014958074 1:-0.0168644 2:-0.643677 3:-0.684141 4:-0.580997 5:-0.537168 6:-0.528951 7:-0.998399 
0 2048 1:-0.255202 2:0.282194 3:-0.659617 4:-0.640865 5:0.153479 6:-0.576606 7:-0.995987 
2048 2048 1:-0.0616074 2:0.288909 3:-0.503171 4:-0.420024 5:0.296496 6:-0.328588 7:-0.994371 
2048 2048 1:-0.181912 2:0.258414 3:-0.35055 4:-0.294189 5:0.183199 6:-0.215778 7:-0.989174 
2048 2048 1:-0.234982 2:0.502553 3:-0.649726 4:-0.611775 5:0.372221 6:-0.533878 7:-0.995343 
0 2048 1:-0.233575 2:0.267998 3:-0.645737 4:-0.60775 5:0.155588 6:-0.552584 7:-0.996355 
0 2048 1:-0.218065 2:0.39672 3:-0.69986 4:-0.656872 5:0.285978 6:-0.574137 7:-0.996933 
0 2048 1:-0.371969 2:0.440054 3:-0.644586 4:-0.627142 5:0.217441 6:-0.579335 7:-0.997523 
0 2048 1:-0.230999 2:0.247424 3:-0.687136 4:-0.655052 5:0.138319 6:-0.574628 7:-0.996273 
2048 2048 1:-0.153504 2:0.73872 3:-0.670533 4:-0.645377 5:0.648912 6:-0.514874 7:-0.995688 
2048 2048 1:-0.317345 2:0.636379 3:-0.726964 4:-0.733301 5:0.438193 6:-0.66534 7:-0.999066 
2048 2048 1:-0.113167 2:0.817274 3:-0.445213 4:-0.421091 5:0.750297 6:-0.250406 7:-0.987332 
0 1680.63341404607 1:-0.326169 2:0.375867 3:-0.757939 4:-0.764382 5:0.190247 6:-0.716702 7:-0.997919 
0 2048 1:-0.403499 2:0.331741 3:-0.729454 4:-0.714813 5:0.0946684 6:-0.676295 7:-0.997889 
2048 1433.353382360127 1:-0.114384 2:-0.316707 3:0.138789 4:0.301396 5:-0.302701 6:0.297694 7:-0.977218 
636.1486335553817 0 1:0.543645 2:-0.698022 3:-0.518011 4:-0.344265 5:-0.191555 6:-0.215217 7:-0.997045 
2048 2048 1:-0.242279 2:0.393174 3:-0.417341 4:-0.35253 5:0.265579 6:-0.267636 7:-0.989831 
0 2048 1:-0.255248 2:0.434026 3:-0.580159 4:-0.578671 5:0.29432 6:-0.525115 7:-0.993899 
0 2048 1:-0.348324 2:0.328475 3:-0.72249 4:-0.701179 5:0.130622 6:-0.65856 7:-0.9978 
0 2048 1:-0.291193 2:0.458926 3:-0.616761 4:-0.599361 5:0.292025 6:-0.542802 7:-0.994914 
234.4308925048545 2048 1:-0.24607 2:0.520553 3:-0.712245 4:-0.680037 5:0.381087 6:-0.597539 7:-0.997021 
2048 2048 1:-0.216558 2:0.539169 3:-0.612348 4:-0.585487 5:0.41921 6:-0.503452 7:-0.995049 
0 1457.345772357287 1:-0.451546 2:-0.199704 3:-0.780517 4:-0.754071 5:-0.432369 6:-0.75706 7:-0.998652 
0 2048 1:-0.228627 2:0.539382 3:-0.733665 4:-0.723448 5:0.410881 6:-0.636151 7:-0.997113 
0 2048 1:-0.219889 2:0.34508 3:-0.759675 4:-0.724309 5:0.236777 6:-0.653349 7:-0.997214 
0 2048 1:-0.316973 2:0.511517 3:-0.659599 4:-0.654525 5:0.322605 6:-0.594354 7:-0.997582 
-2048 2048 1:0.081325 2:0.180307 3:-0.156328 4:-0.0269199 5:0.296723 6:0.10245 7:-0.985302 
-2048 2048 1:-0.249391 2:0.79861 3:-0.421573 4:-0.401938 5:0.636729 6:-0.29505 7:-0.991161 
-2048 2048 1:-0.430527 2:-0.250643 3:-0.639073 4:-0.606213 5:-0.46478 6:-0.601171 7:-0.998017 
-2048 1997.956565634386 1:0.11458 2:-0.375811 3:-0.197889 4:-0.0231756 5:-0.195761 6:0.0725793 7:-0.991225 
-2048 2048 1:-0.471557 2:-0.0723404 3:-0.657149 4:-0.630172 5:-0.328337 6:-0.645938 7:-0.997926 
-2048 2048 1:0.00353703 2:0.122436 3:-0.255035 4:-0.123835 5:0.188067 6:0.00780802 7:-0.990858 
-2048 2048 1:-0.120217 2:0.64055 3:-0.763286 4:-0.725892 5:0.581346 6:-0.614486 7:-0.997026 
-2048 2048 1:-0.410964 2:0.338249 3:0.0738744 4:0.0720183 5:0.0954322 6:0.0478374 7:-0.94388 
-2048 2048 1:-0.166601 2:0.675726 3:-0.44682 4:-0.42001 5:0.58121 6:-0.320064 7:-0.989068 
-2048 2048 1:-0.347658 2:0.368735 3:-0.623955 4:-0.61302 5:0.168447 6:-0.569923 7:-0.996958 
-1095.181885131877 2048 1:-0.237732 2:0.542073 3:-0.0272868 4:0.0273982 5:0.406945 6:0.114162 7:-0.976509 
-2048 2048 1:-0.329188 2:0.494708 3:0.0328877 4:0.0364404 5:0.298378 6:0.078327 7:-0.940854 
-2048 2048 1:-0.172212 2:0.891425 3:-0.598047 4:-0.571041 5:0.777377 6:-0.417672 7:-0.997304 
-96.23513217333792 0 1:-0.129192 2:0.107966 3:-0.21456 4:-0.00583209 5:0.0808597 6:0.158643 7:-0.988432 
-2048 2048 1:-0.288955 2:0.200772 3:-0.459957 4:-0.291129 5:0.0540845 6:-0.143891 7:-0.992374 
-2048 2048 1:-0.265714 2:-0.25872 3:-0.461972 4:-0.339957 5:-0.355823 6:-0.393378 7:-0.996436 
-2048 2048 1:-0.404001 2:0.241637 3:-0.861 4:-0.868311 5:0.0107129 6:-0.836033 7:-0.999131 
0 87.1713225099862 1:0.0730332 2:0.808245 3:-0.0720857 4:0.0769297 5:0.873482 6:0.377204 7:-0.971257 
-2048 2048 1:-0.31381 2:0.105205 3:-0.716739 4:-0.674736 5:-0.0521471 6:-0.635027 7:-0.997753 
-2048 0 1:-0.241107 2:-0.0216559 3:0.0377586 4:0.0890932 5:-0.118482 6:0.119582 7:-0.965475 
-2048 2048 1:-0.135849 2:0.441582 3:-0.441937 4:-0.376208 5:0.385693 6:-0.275851 7:-0.988775 
0 2048 1:-0.195387 2:0.535932 3:-0.0431345 4:0.0319117 5:0.431166 6:0.169175 7:-0.962511 
0 1025.472609132864 1:-0.153143 2:0.914391 3:0.311787 4:0.346448 5:0.812159 6:0.483595 7:-0.746701 
-2048 2048 1:-0.213803 2:0.933591 3:-0.471217 4:-0.431057 5:0.787112 6:-0.331171 7:-0.988753 
-2048 2048 1:0.015581 2:0.525412 3:-0.489673 4:-0.355728 5:0.570468 6:-0.15313 7:-0.992576 
-2048 2048 1:-0.26094 2:0.301572 3:-0.601373 4:-0.557178 5:0.167404 6:-0.495701 7:-0.996193 
0 2048 1:-0.20753 2:0.831588 3:-0.142386 4:-0.0954022 5:0.696904 6:0.101823 7:-0.960602 
-2048 2048 1:-0.146184 2:0.764065 3:-0.632201 4:-0.601891 5:0.677599 6:-0.474825 7:-0.994288 
-2048 2048 1:-0.172473 2:-0.178763 3:-0.604638 4:-0.539026 5:-0.215757 6:-0.484934 7:-0.99706 
0 2048 1:0.163543 2:0.826824 3:-0.225422 4:-0.037833 5:0.954672 6:0.295527 7:-0.979711 
-2048 2048 1:-0.141731 2:0.584941 3:-0.582582 4:-0.542643 5:0.514549 6:-0.435101 7:-0.994333 
-2048 2048 1:-0.173915 2:0.761827 3:-0.497525 4:-0.483583 5:0.655929 6:-0.350633 7:-0.990511 
-2048 2048 1:-0.320049 2:0.310092 3:-0.320357 4:-0.259311 5:0.133544 6:-0.224939 7:-0.991175 
-2048 0 1:-0.319078 2:0.357398 3:-0.759162 4:-0.732014 5:0.178122 6:-0.677604 7:-0.998029 
-2048 -2048 1:-0.204149 2:-0.30337 3:-0.561987 4:-0.474472 5:-0.353751 6:-0.46698 7:-0.99692 
-2048 -2048 1:-0.121001 2:0.589912 3:-0.588415 4:-0.53351 5:0.53381 6:-0.407118 7:-0.993633 
-2048 0 1:-0.233126 2:0.58984 3:-0.691543 4:-0.659136 5:0.454519 6:-0.56888 7:-0.996188 
-2048 -2048 1:-0.0312934 2:0.481029 3:-0.0904409 4:0.0499914 5:0.496169 6:0.20601 7:-0.976448 
-2048 -2048 1:-0.206107 2:0.389594 3:-0.360573 4:-0.304102 5:0.287815 6:-0.225738 7:-0.989939 
-2048 -1347.949616133012 1:-0.37448 2:-0.0867794 3:-0.718075 4:-0.676658 5:-0.273143 6:-0.643105 7:-0.998267 
-2048 0 1:-0.298576 2:0.236231 3:-0.755237 4:-0.754439 5:0.0801858 6:-0.717813 7:-0.997667 
0 -2048 1:0.400288 2:0.12914 3:0.321897 4:0.584681 5:0.474617 6:1 7:-0.967758 
-2048 0 1:-0.326616 2:0.303637 3:-0.680622 4:-0.649382 5:0.122915 6:-0.599156 7:-0.996551 
-2048 0 1:-0.346343 2:0.548423 3:-0.752674 4:-0.738117 5:0.336096 6:-0.673725 7:-0.997867 
-2048 0 1:-0.327311 2:0.274499 3:-0.74789 4:-0.74571 5:0.095389 6:-0.697044 7:-0.997656 
-2048 0 1:-0.242153 2:0.603482 3:-0.628751 4:-0.619129 5:0.460798 6:-0.529017 7:-0.996535 
-2048 -2048 1:-0.167199 2:0.708374 3:-0.494084 4:-0.47453 5:0.61108 6:-0.349455 7:-0.99121 
-2048 0 1:-0.232972 2:0.548238 3:-0.745029 4:-0.74072 5:0.416027 6:-0.658542 7:-0.997553 
-2048 0 1:-0.347268 2:0.308324 3:-0.891598 4:-0.888172 5:0.112672 6:-0.831607 7:-0.999034 
-2048 0 1:-0.312833 2:0.493695 3:-0.749297 4:-0.739881 5:0.308994 6:-0.682741 7:-0.998226 
-2048 -2048 1:-0.382247 2:0.288699 3:-0.611228 4:-0.596893 5:0.0697481 6:-0.556054 7:-0.996576 
-2048 0 1:-0.465869 2:-0.203066 3:-0.774448 4:-0.737014 5:-0.445609 6:-0.74034 7:-0.998603 
-2048 0 1:-0.413184 2:0.239824 3:-0.918808 4:-0.915053 5:0.00254215 6:-0.88285 7:-0.999495 
-2048 -2048 1:-0.467428 2:0.164051 3:-0.67659 4:-0.651093 5:-0.106089 6:-0.635961 7:-0.997617 
-2048 -2048 1:-0.287999 2:0.510181 3:-0.355173 4:-0.290624 5:0.341837 6:-0.226787 7:-0.991578 
-2048 0 1:-0.211161 2:0.444761 3:-0.787449 4:-0.796662 5:0.33543 6:-0.723272 7:-0.997687 
0 -2048 1:-0.239125 2:1 3:-0.364157 4:-0.31662 5:0.830837 6:-0.200315 7:-0.986536 
-2048 0 1:-0.420751 2:0.203885 3:-0.77106 4:-0.769546 5:-0.0361501 6:-0.729074 7:-0.998184 
-2048 -2048 1:-0.335132 2:-0.255832 3:-0.468049 4:-0.390494 5:-0.402192 6:-0.420945 7:-0.995486 
-2048 0 1:-0.558934 2:-0.266724 3:-0.926448 4:-0.923116 5:-0.570428 6:-0.913099 7:-0.999674 
-2048 0 1:-0.271717 2:0.463709 3:-0.753623 4:-0.739085 5:0.310224 6:-0.663711 7:-0.997975 
-2048 0 1:-0.351529 2:0.420797 3:-0.76058 4:-0.762653 5:0.214017 6:-0.71519 7:-0.998576 
0 -2048 1:0.0885352 2:0.905352 3:-0.376644 4:-0.316145 5:0.974534 6:-0.0753578 7:-0.979801 
-2048 0 1:-0.504473 2:-0.334996 3:-0.894545 4:-0.905652 5:-0.595293 6:-0.924241 7:-0.999531 
-2048 0 1:-0.424983 2:0.0402786 3:-0.779041 4:-0.779517 5:-0.190939 6:-0.748396 7:-0.99807 
-2048 -2048 1:-0.167327 2:0.657548 3:-0.360123 4:-0.323117 5:0.563831 6:-0.180623 7:-0.982754 
-2048 -2048 1:0.00657005 2:0.267856 3:-0.55489 4:-0.470671 5:0.325134 6:-0.348887 7:-0.995 
-2048 0 1:-0.307032 2:0.47969 3:-0.664622 4:-0.662212 5:0.300099 6:-0.602683 7:-0.996317 
-2048 0 1:-0.331568 2:0.0466815 3:-0.709216 4:-0.666591 5:-0.118994 6:-0.61943 7:-0.99802 
-2048 -2048 1:-0.393663 2:-0.252258 3:-0.692468 4:-0.645338 5:-0.440232 6:-0.673978 7:-0.99784 
-1318.580133866227 -2048 1:-0.296392 2:0.725012 3:0.0878055 4:0.18811 5:0.535233 6:0.169049 7:-0.955705 
-2048 0 1:-0.341196 2:0.468661 3:-0.842665 4:-0.843547 5:0.265727 6:-0.779516 7:-0.999092 
-2048 0 1:0.0606583 2:-0.155873 3:-0.637447 4:-0.552545 5:-0.0297958 6:-0.467596 7:-0.99733 
-2048 -2048 1:-0.249603 2:0.401345 3:-0.544814 4:-0.510095 5:0.267986 6:-0.417581 7:-0.988728 
-2048 -2048 1:-0.333054 2:0.26968 3:-0.568808 4:-0.536429 5:0.0868601 6:-0.508415 7:-0.995121 
-2048 -2048 1:-0.248728 2:0.607964 3:-0.378929 4:-0.331774 5:0.460311 6:-0.242735 7:-0.990628 
-2048 -2048 1:-0.164553 2:0.495992 3:-0.404828 4:-0.339739 5:0.415895 6:-0.220227 7:-0.989985 
-2048 0 1:-0.202953 2:0.613824 3:-0.632956 4:-0.601279 5:0.498091 6:-0.502795 7:-0.996102 
-2048 0 1:-0.192308 2:0.647393 3:-0.659868 4:-0.615747 5:0.536758 6:-0.513611 7:-0.996127 
-2048 -2048 1:-0.338092 2:0.824896 3:-0.226858 4:-0.243635 5:0.598444 6:-0.185874 7:-0.964576 
-2048 -2048 1:-0.158663 2:0.252457 3:-0.289384 4:-0.209272 5:0.194099 6:-0.124016 7:-0.985052 
-2048 -2048 1:-0.31182 2:0.0480135 3:-0.62585 4:-0.590352 5:-0.103804 6:-0.560092 7:-0.99624 
-2048 0 1:-0.294668 2:0.524838 3:-0.745938 4:-0.731263 5:0.350724 6:-0.660347 7:-0.997509 
-2048 -2048 1:-0.286467 2:0.280197 3:-0.493274 4:-0.451625 5:0.129534 6:-0.384161 7:-0.9932 
-2048 -1542.447595237361 1:-0.297785 2:0.362704 3:-0.623089 4:-0.590978 5:0.19809 6:-0.531141 7:-0.995972 
-2048 -2048 1:-0.112715 2:0.919804 3:-0.323278 4:-0.352015 5:0.845746 6:-0.219803 7:-0.982949 
-2048 -2048 1:0.179776 2:0.340197 3:-0.381851 4:-0.255049 5:0.514635 6:-0.0893492 7:-0.990091 
0 -220.2032859068656 1:-0.215594 2:0.869812 3:1 4:1 5:0.726671 6:0.980813 7:1 
-2048 -2048 1:-0.188651 2:0.317177 3:-0.24277 4:-0.144047 5:0.232959 6:-0.0664601 7:-0.981453 
-2048 -2048 1:-0.301233 2:0.696594 3:-0.533388 4:-0.530533 5:0.505446 6:-0.425018 7:-0.991994 
