svm_type c_svc
kernel_type rbf
gamma 8
nr_class 3
total_sv 167
rho 0.222679 -0.150195 -0.0177781
label 1 3 2
nr_sv 61 42 64
SV
3.351319825084256 0 1:-0.446836 2:-0.758584 
0 8 1:-0.698585 2:-0.68852 
8 8 1:-0.499907 2:-0.499417 
1.878221094598378 8 1:-0.687885 2:-0.639299 
0 0.6891873945383578 1:-0.919554 2:-0.909971 
8 8 1:0.24499 2:-0.391745 
8 8 1:-0.476468 2:-0.411887 
8 8 1:-0.645143 2:-0.600258 
8 8 1:-0.45169 2:-0.454303 
3.429662414454248 7.479012586595324 1:-0.777689 2:-0.690692 
8 8 1:-0.335979 2:-0.305172 
0 5.115446293274816 1:-0.196232 2:-0.555993 
8 8 1:-0.163033 2:-0.528631 
0 8 1:-0.320319 2:-0.487722 
8 8 1:-0.00217197 2:-0.209823 
3.449622993361902 5.416718316105265 1:0.510186 2:0.279861 
8 8 1:-0.130895 2:-0.327806 
0 8 1:-0.490351 2:-0.576638 
8 3.645590905595215 1:0.103677 2:0.167071 
2.722308494959287 0 1:-0.454855 2:-0.847512 
0 0.2844647938716332 1:-0.969782 2:-0.882083 
0 8 1:-0.131736 2:-0.626984 
0 8 1:-0.535671 2:-0.657162 
8 8 1:-0.180288 2:-0.44939 
1.257001595540451 2.124985137334162 1:0.165886 2:-0.981314 
8 8 1:-0.132102 2:-0.440536 
8 8 1:-0.324376 2:-0.269907 
0 8 1:-0.420628 2:-0.479465 
0.5565887850259663 8 1:-0.261699 2:-0.475542 
8 8 1:-0.303961 2:-0.186499 
8 7.322530368760519 1:-0.0232753 2:-0.126962 
8 8 1:0.0478685 2:-0.393864 
0 7.611194408336663 1:-0.786324 2:-0.903102 
1.147360839271081 8 1:-0.61219 2:-0.577802 
8 0 1:-0.000511761 2:-0.105449 
0 8 1:-0.698193 2:-0.721429 
0 2.246890592842783 1:-1 2:-0.818646 
0 8 1:-0.625531 2:-0.657409 
0 8 1:-0.418855 2:-0.580696 
0 8 1:-0.435502 2:-0.560978 
8 8 1:0.0521683 2:-0.298123 
8 0 1:-0.518472 2:-0.801791 
5.532873665805563 0 1:-0.68837 2:-0.890688 
0 8 1:-0.431538 2:-0.477772 
0.8537716349788674 8 1:-0.0752951 2:-0.649942 
0.2792367146270352 3.397919895365036 1:-0.575205 2:-0.784947 
8 8 1:-0.515825 2:-0.31334 
0 4.914163687690498 1:-0.232847 2:-0.856262 
8 8 1:-0.404977 2:-0.363098 
8 8 1:-0.147323 2:-0.338937 
8 8 1:-0.2734 2:-0.440662 
0 8 1:-0.707959 2:-0.667042 
0 8 1:-0.454726 2:-0.650564 
0 8 1:-0.472533 2:-0.52251 
8 8 1:0.0756452 2:-0.403305 
0 8 1:-0.578529 2:-0.749785 
0 8 1:-0.558312 2:-0.675709 
0 4.852028793930808 1:-0.843558 2:-0.967802 
0 2.303571759467105 1:-0.565282 2:-0.968932 
8 0 1:-0.867548 2:-0.685586 
0 8 1:-0.561721 2:-0.63197 
-8 0 1:0.0795053 2:0.104102 
-4.337253535459884 0.232588935725885 1:0.189517 2:0.0333365 
-8 8 1:0.0216841 2:-0.393306 
-0.9365976513314864 1.685351100458986 1:0.790088 2:0.219535 
-8 8 1:-0.369508 2:-0.252122 
-8 8 1:-0.106949 2:-0.285542 
-0 8 1:0.272435 2:-0.0808576 
-8 8 1:-0.565537 2:-0.793163 
-0.660984045047999 0.3077283154531194 1:0.186923 2:0.861478 
-8 8 1:-0.21413 2:-0.373295 
-8 8 1:-0.274587 2:-0.417612 
-1.965379798859016 0.1206252452467239 1:0.731266 2:0.440044 
-8 8 1:0.0209397 2:-0.29864 
-8 8 1:-0.342257 2:-0.614028 
-0.3679879919635593 1.531631870623273 1:-0.000361285 2:1 
-0 3.638069063329322 1:0.0868026 2:-0.261574 
-0.1081194046166663 3.960671045521639 1:1 2:0.0711311 
-8 8 1:-0.565537 2:-0.793163 
-2.876018050231925 0 1:-0.0532292 2:-0.176112 
-8 8 1:0.0957564 2:-0.330157 
-5.30051689077034 0 1:-0.0301179 2:-0.0510043 
-0 8 1:0.227234 2:-0.215342 
-0 2.07171702265837 1:-0.344897 2:-0.139965 
-8 8 1:0.111111 2:-0.505054 
-8 8 1:-0.19072 2:-0.499538 
-8 8 1:-0.491739 2:-0.422685 
-8 8 1:-0.361419 2:-0.456793 
-8 8 1:-0.137647 2:-0.214046 
-8 8 1:-0.836484 2:-0.649545 
-8 8 1:-0.148583 2:-0.349391 
-0 4.98934407937969 1:-0.244931 2:-0.157291 
-8 8 1:-0.271172 2:-0.271626 
-8 8 1:0.0773618 2:-0.363031 
-1.423225272835129 8 1:0.473594 2:-0.17797 
-8 8 1:-0.534438 2:-0.329917 
-2.56770080965522 8 1:0.18318 2:-0.317232 
-3.309748248228005 8 1:-0.194988 2:-0.177722 
-8 8 1:-0.478227 2:-0.299918 
-6.159209162981791 8 1:-0.727271 2:-0.433827 
-8 8 1:-0.435919 2:-0.526255 
-2.445227195726007 8 1:-0.434739 2:-0.246388 
-8 8 1:-0.720298 2:-0.766178 
-1.560517082595609 -5.420885322794649 1:0.856348 2:-0.045144 
-8 -8 1:-0.347939 2:-0.606068 
-1.1276750533154 -1.7264119878962 1:-0.289871 2:0.854142 
-8 -3.947153079286968 1:-0.503765 2:-0.694574 
-8 -8 1:0.202028 2:-0.243291 
-0 -8 1:0.304964 2:-0.0929673 
-5.853682404716385 -2.682730855532426 1:0.306132 2:0.160337 
-8 -0 1:-0.597636 2:-0.602397 
-8 -6.721885390494479 1:-0.357116 2:-0.393634 
-8 -8 1:-0.288667 2:-0.290952 
-8 -0 1:-0.517873 2:-0.629851 
-8 -0 1:-0.499798 2:-0.498925 
-8 -0 1:-0.558303 2:-0.668129 
-0 -8 1:-0.591323 2:-0.282007 
-1.387486394137027 -0 1:0.313838 2:-0.364176 
-0 -8 1:0.176883 2:-0.430026 
-6.043599488815584 -3.986911365942406 1:-0.573976 2:-0.499532 
-8 -8 1:-0.503258 2:-0.433478 
-2.568907098586263 -0 1:0.249531 2:0.383841 
-8 -8 1:-0.260925 2:-0.144488 
-8 -8 1:-0.672169 2:-0.594042 
-0 -8 1:0.276836 2:-0.268004 
-8 -8 1:-0.23657 2:-0.33959 
-8 -8 1:-0.392666 2:-0.312587 
-0 -8 1:-0.0261347 2:-0.381354 
-0 -4.727896746894246 1:0.453675 2:-0.162486 
-8 -1.184145422382359 1:-0.065573 2:-0.615684 
-8 -0 1:-0.599199 2:-0.528296 
-8 -0 1:-0.372924 2:-0.540456 
-8 -8 1:-0.339233 2:-0.729647 
-8 -8 1:-0.667295 2:-0.831351 
-8 -0 1:-0.279201 2:-0.557257 
-8 -8 1:-0.811733 2:-0.706202 
-8 -0 1:-0.107649 2:-0.745946 
-2.515602758754123 -0 1:0.232251 2:-0.605235 
-6.981221444808088 -8 1:-0.110955 2:-0.373743 
-8 -0 1:-0.0855987 2:-0.416635 
-8 -0 1:-0.199066 2:-0.405523 
-8 -0 1:-0.846019 2:-0.838851 
-8 -0 1:-0.0410983 2:-0.554656 
-8 -0 1:-0.606244 2:-0.527533 
-0 -1.190063549811567 1:0.162307 2:-0.610396 
-8 -4.768366448020495 1:-0.68605 2:-0.848032 
-8 -0 1:-0.65626 2:-0.641109 
-8 -8 1:-0.0470782 2:-0.244973 
-8 -8 1:0.0363444 2:-0.323628 
-8 -0 1:-0.450721 2:-0.49138 
-5.957788508938234 -8 1:-0.427066 2:-0.253352 
-8 -8 1:-0.340594 2:-0.366223 
-8 -8 1:-0.119173 2:-0.373618 
-8 -6.181276509341211 1:-0.135984 2:-0.365822 
-0 -8 1:-0.00327096 2:-0.378988 
-8 -0 1:-0.441809 2:-0.472984 
-0.4427894049967003 -8 1:-0.264294 2:-0.212562 
-8 -0 1:-0.533092 2:-0.616542 
-8 -0 1:-0.625663 2:-0.733115 
-8 -0 1:-0.53103 2:-0.586169 
-8 -0 1:-0.508759 2:-0.520399 
-8 -0 1:-0.502274 2:-0.557896 
-8 -0 1:-0.0990909 2:-0.411572 
-0 -8 1:-0.180564 2:-0.302142 
-8 -0 1:-0.804072 2:-0.84681 
-6.964435294044778 -8 1:0.168028 2:-0.373263 
-0 -8 1:-0.559443 2:-0.468534 
