svm_type c_svc
kernel_type rbf
gamma 0.5
nr_class 3
total_sv 152
rho 6.74667 6.31296 -4.58735
label 1 2 3
nr_sv 50 60 42
SV
2048 415.147092869493 1:-0.011221 2:-0.665886 
2048 0 1:-0.699861 2:-0.70435 
2048 0 1:-0.340387 2:-0.568728 
2048 2048 1:-0.502024 2:-0.524857 
2048 2048 1:-0.671683 2:-0.617262 
2048 0 1:-0.689207 2:-0.657631 
2048 2048 1:0.239718 2:-0.422658 
2048 2048 1:-0.478685 2:-0.441776 
2048 0 1:-0.646646 2:-0.620574 
2048 0 1:-0.337111 2:-0.664261 
2048 0 1:-0.372086 2:-0.700185 
2048 2048 1:-0.199636 2:-0.578558 
0 646.6151846664459 1:0.247595 2:0.568828 
2048 2048 1:-0.00639708 2:-0.249981 
1908.094600942004 2048 1:0.503792 2:0.214817 
2048 2048 1:-0.134575 2:-0.361968 
0 1921.848281136202 1:-0.959594 2:-0.757626 
2048 0 1:-0.135412 2:-0.645941 
2048 0 1:-0.537638 2:-0.674585 
2048 2048 1:-0.183759 2:-0.477373 
2048 0 1:-0.283804 2:-0.580371 
2048 2048 1:-0.135777 2:-0.468968 
2048 2048 1:-0.327237 2:-0.307011 
2048 2048 1:-0.423082 2:-0.505919 
1606.847673731995 2048 1:-0.785094 2:-0.686282 
2048 2048 1:-0.264826 2:-0.502195 
2048 0 1:-0.409539 2:-0.544104 
2048 2048 1:-0.027411 2:-0.171331 
2048 2048 1:0.0434315 2:-0.424668 
2048 2048 1:-0.382942 2:-0.527786 
2048 993.837753332627 1:-0.613832 2:-0.599259 
2048 0 1:-0.627117 2:-0.67482 
2048 0 1:-0.421316 2:-0.602006 
2048 2048 1:-0.433818 2:-0.427285 
2048 2048 1:0.0477131 2:-0.333793 
2048 2048 1:-0.125077 2:-0.251003 
2048 2048 1:-0.433945 2:-0.504312 
1423.800498294348 0 1:-0.0792105 2:-0.667732 
2048 2048 1:-0.517875 2:-0.348237 
2048 2048 1:0.31813 2:-0.523462 
2048 2048 1:-0.407497 2:-0.395466 
2048 2048 1:-0.276476 2:-0.469088 
2048 0 1:-0.457035 2:-0.668323 
2048 623.5764115805463 1:-0.474767 2:-0.546777 
1440.462201438462 0 1:-0.580313 2:-0.762501 
2048 2048 1:-0.273074 2:-0.4319 
877.0768215970238 0 1:-0.84422 2:-0.969438 
0 1166.346742220067 1:-0.567123 2:-0.970511 
2048 0 1:-0.563577 2:-0.650674 
2048 0 1:-0.569915 2:-0.733042 
-0 1180.290552198978 1:0.848487 2:-0.0936709 
-2048 0 1:-0.505867 2:-0.710096 
-2048 0 1:-0.571408 2:-0.721109 
-0 2048 1:0.196938 2:-0.281748 
-683.0535129198367 1221.185976536817 1:-0.83671 2:-0.331695 
-2048 2048 1:0.299439 2:-0.139064 
-2048 2048 1:-0.812469 2:-0.873144 
-2048 970.9429694868404 1:-0.599339 2:-0.622603 
-2048 2048 1:-0.359839 2:-0.42445 
-0 2048 1:-0.291679 2:-0.326987 
-2048 0 1:-0.501916 2:-0.52439 
-619.7311815425127 1648.578880803589 1:0.687888 2:0.517357 
-0 2048 1:-0.593053 2:-0.318496 
-2048 0 1:-0.317929 2:-0.55085 
-2048 0 1:-0.461235 2:-0.526699 
-2048 1864.395605243899 1:-0.57578 2:-0.524967 
-2048 2048 1:-0.0971417 2:-0.396491 
-2048 2048 1:-0.505362 2:-0.462269 
-1396.889409140191 2048 1:-0.264055 2:-0.187966 
-0 2048 1:0.27143 2:-0.305205 
-0 2048 1:-0.395238 2:-0.347522 
-2048 2048 1:-0.00937405 2:-0.500165 
-2048 2048 1:-0.0302583 2:-0.412794 
-0 624.4772242230215 1:0.44752 2:-0.20505 
-2048 2048 1:-0.344941 2:-0.435554 
-2048 0 1:-0.375579 2:-0.563811 
-2048 2048 1:-0.0064974 2:-0.140883 
-2048 136.9530618414099 1:-0.342031 2:-0.743386 
-2048 1020.20172788023 1:-0.668703 2:-0.839922 
-2048 0 1:-0.282253 2:-0.579758 
-2048 0 1:0.227033 2:-0.625298 
-2048 0 1:-0.541732 2:-0.510186 
-2048 2048 1:-0.0894706 2:-0.446282 
-114.9165786410066 2048 1:0.637769 2:0.118908 
-2048 2048 1:-0.0451586 2:-0.577289 
-1266.011118133066 2048 1:0.321456 2:-0.137472 
-2048 2048 1:-0.607912 2:-0.551544 
-2048 0 1:0.157385 2:-0.630196 
-2048 2048 1:-0.657716 2:-0.659348 
-2048 0 1:-0.412874 2:-0.681318 
-2043.329689639273 2048 1:-0.0511132 2:-0.283344 
-0 2048 1:0.0319562 2:-0.358002 
-2048 0 1:-0.453047 2:-0.517229 
-2048 2048 1:-0.294564 2:-0.453444 
-1132.350305987935 2048 1:-0.343386 2:-0.398432 
-2048 0 1:-0.443475 2:-0.621669 
-2048 2048 1:-0.122902 2:-0.405451 
-2048 2048 1:-0.139642 2:-0.398051 
-2048 0 1:-0.270539 2:-0.562355 
-2048 1743.261314770908 1:-0.444173 2:-0.499768 
-2048 0 1:-0.535069 2:-0.636029 
-2048 2048 1:-0.627248 2:-0.746678 
-0 1635.269084642755 1:0.14495 2:-0.425208 
-2048 0 1:-0.510839 2:-0.544773 
-2048 0 1:-0.411579 2:-0.552147 
-2048 0 1:-0.504381 2:-0.580364 
-2048 2048 1:-0.102906 2:-0.441477 
-0 2048 1:-0.184033 2:-0.337608 
-2048 0 1:-0.5461 2:-0.515437 
-0 2048 1:0.163083 2:-0.405114 
-1381.95168941083 -0 1:0.18448 2:-0.0191788 
-2048 -2048 1:0.017358 2:-0.424139 
-0 -1882.310833693334 1:0.782508 2:0.157556 
-2048 -2048 1:-0.1952 2:-0.492164 
-2048 -2048 1:-0.110731 2:-0.321852 
-1728.762657785122 -2048 1:-0.200586 2:-0.211799 
-0 -2048 1:0.267047 2:-0.127569 
-2048 -2048 1:-0.546471 2:-0.446152 
-2048 -2048 1:-0.567377 2:-0.803674 
-438.7022251241434 -0 1:0.181898 2:0.766876 
-2048 -2048 1:-0.217457 2:-0.405145 
-0 -90.90835806651259 1:0.0374569 2:1 
-2048 -2048 1:-0.277658 2:-0.447209 
-1076.760619399561 -2048 1:0.723935 2:0.366859 
-2048 -2048 1:-0.345042 2:-0.633643 
-0 -2048 1:0.0822007 2:-0.299101 
-0 -130.7979689551262 1:0.991531 2:0.0166949 
-0 -2048 1:-0.0572381 2:-0.217983 
-2048 -2048 1:0.0911166 2:-0.364199 
-0 -2048 1:0.222038 2:-0.255219 
-2048 -2048 1:-0.570556 2:-0.611041 
-0 -951.4886934271104 1:-0.34767 2:-0.183673 
-2048 -2048 1:0.106406 2:-0.530207 
-2048 -2048 1:-0.194147 2:-0.524972 
-2048 -2048 1:-0.493891 2:-0.452025 
-2048 -2048 1:-0.364123 2:-0.484399 
-1969.121948327665 -2048 1:0.0341357 2:-0.295213 
-2048 -2048 1:-0.141298 2:-0.25399 
-2048 -2048 1:-0.837176 2:-0.667356 
-2048 -2048 1:-0.152188 2:-0.382456 
-2048 -2048 1:0.0727999 2:-0.395402 
-2048 -2048 1:0.210797 2:-0.453542 
-379.8288064464929 -2048 1:0.467354 2:-0.219746 
-2048 -2048 1:-0.651953 2:-0.638264 
-0 -2048 1:0.17817 2:-0.351931 
-2048 -2048 1:-0.198397 2:-0.219511 
-2048 -2048 1:-0.480436 2:-0.335497 
-2048 -2048 1:-0.728426 2:-0.4626 
-2048 -2048 1:-0.438307 2:-0.550331 
-0 -798.0505434863541 1:0.115624 2:-0.153851 
-840.2435193115753 -2048 1:-0.437132 2:-0.284688 
-2048 -2048 1:-0.721482 2:-0.778061 
