svm_type c_svc
kernel_type rbf
gamma 8
nr_class 3
total_sv 198
rho -0.437836 0.57984 0.67786
label 2 1 3
nr_sv 69 60 69
SV
0.125 0.125 1:-0.721645 2:-0.745702 3:-0.924071 4:-0.908331 5:-0.734529 6:-0.93848 7:-0.9972 
0.125 0.125 1:-0.320904 2:-0.0664843 3:-0.649476 4:-0.617243 5:-0.0887373 6:-0.5931 7:-0.986044 
0.125 0 1:-0.781442 2:-0.675283 3:-0.896704 4:-0.859063 5:-0.686283 6:-0.904035 7:-0.995945 
0.125 0.125 1:-0.319798 2:-0.395546 3:-0.773471 4:-0.70359 5:-0.365559 6:-0.723909 7:-0.981374 
0.125 0.125 1:-0.942474 2:-0.924616 3:-0.911142 4:-0.886828 5:-0.925917 6:-0.971005 7:-0.998062 
0.125 0.125 1:-0.369468 2:-0.44442 3:-0.720542 4:-0.646287 5:-0.415875 6:-0.709974 7:-0.981038 
0.125 0.125 1:-0.844866 2:-0.807887 3:-0.890136 4:-0.864676 5:-0.809628 6:-0.938738 7:-0.997168 
0.125 0 1:-0.775952 2:-0.735501 3:-0.916263 4:-0.891757 5:-0.735966 6:-0.916081 7:-0.995238 
0.125 0.125 1:-0.725379 2:-0.636333 3:-0.929234 4:-0.901511 5:-0.643143 6:-0.893995 7:-0.995141 
0.125 0.125 1:-0.761292 2:-0.782607 3:-0.861326 4:-0.832712 5:-0.772916 6:-0.913379 7:-0.994081 
0.01711847539534336 0.125 1:-0.560079 2:-0.499659 3:-0.703637 4:-0.67921 5:-0.497567 6:-0.773576 7:-0.98643 
0.125 0.125 1:-0.965716 2:-0.911435 3:-0.94714 4:-0.915299 5:-0.919111 6:-0.970153 7:-0.998393 
0 0.125 1:-0.474488 2:-0.439568 3:-0.805134 4:-0.772057 5:-0.431177 6:-0.776474 7:-0.984366 
0.125 0.125 1:-0.87883 2:-0.823794 3:-0.946714 4:-0.912265 5:-0.829289 6:-0.943102 7:-0.997495 
0.125 0.125 1:-0.5358 2:-0.493269 3:-0.682051 4:-0.598737 5:-0.487705 6:-0.693644 7:-0.988016 
0.125 0.125 1:-0.451267 2:-0.615841 3:-0.751944 4:-0.666522 5:-0.575289 6:-0.770181 7:-0.986895 
0.125 0.125 1:-0.657949 2:-0.571979 3:-0.890137 4:-0.861318 5:-0.576518 6:-0.876053 7:-0.994575 
0.125 0.125 1:-0.913905 2:-0.913138 3:-0.958825 4:-0.943407 5:-0.91098 6:-0.980785 7:-0.999103 
0.125 0.125 1:-0.275663 2:-0.131551 3:-0.328752 4:-0.244741 5:-0.135163 6:-0.305812 7:-0.915495 
0.125 0.125 1:-0.705532 2:-0.653645 3:-0.913515 4:-0.895596 5:-0.654054 6:-0.913545 7:-0.996441 
0.125 0.01307279615945811 1:-0.791544 2:-0.736651 3:-0.869847 4:-0.850756 5:-0.739812 6:-0.921178 7:-0.996297 
0.02918212828817902 0.125 1:-0.458697 2:-0.346174 3:-0.662922 4:-0.608259 5:-0.349636 6:-0.66821 7:-0.977952 
0.125 0.125 1:-0.717547 2:-0.695544 3:-0.877286 4:-0.863596 5:-0.691545 6:-0.909743 7:-0.995256 
0.125 0.125 1:-0.229609 2:-0.336955 3:-0.661989 4:-0.582864 5:-0.299584 6:-0.618416 7:-0.968289 
0.125 0.125 1:-0.962741 2:-0.987893 3:-0.957657 4:-0.953983 5:-0.982929 6:-0.997002 7:-0.99966 
0.125 0.125 1:-0.281205 2:-0.440923 3:-0.751292 4:-0.670292 5:-0.396636 6:-0.719783 7:-0.978308 
0.125 0.125 1:-0.629202 2:-0.567322 3:-0.839468 4:-0.806588 5:-0.56729 6:-0.845098 7:-0.990783 
0 0.125 1:-0.520696 2:-0.501833 3:-0.777859 4:-0.749329 5:-0.492127 6:-0.797944 7:-0.984681 
0.125 0.125 1:-0.238479 2:-0.241069 3:-0.41516 4:-0.313407 5:-0.220498 6:-0.42091 7:-0.959755 
0.125 0.125 1:-0.0564829 2:-0.189733 3:-0.686137 4:-0.598617 5:-0.143682 6:-0.544901 7:-0.96463 
0 0.125 1:-0.494783 2:-0.487478 3:-0.718102 4:-0.699766 5:-0.475258 6:-0.76614 7:-0.98195 
0.125 0.125 1:-0.479219 2:-0.383028 3:-0.836444 4:-0.823861 5:-0.384451 6:-0.818972 7:-0.992988 
0.125 0.125 1:-0.636741 2:-0.574713 3:-0.905423 4:-0.887642 5:-0.574905 6:-0.886736 7:-0.99465 
0.125 0.125 1:-0.667255 2:-0.563017 3:-0.758137 4:-0.72417 5:-0.570691 6:-0.828155 7:-0.99091 
0.125 0.125 1:-0.87719 2:-0.865928 3:-0.89183 4:-0.878195 5:-0.864457 6:-0.959651 7:-0.997833 
0.125 0.125 1:-0.815129 2:-0.817121 3:-0.882572 4:-0.861064 5:-0.811912 6:-0.93981 7:-0.996517 
0.125 0.125 1:-0.910242 2:-0.963595 3:-0.987629 4:-0.977966 5:-0.952782 6:-0.999121 7:-1 
0.125 0.125 1:-0.937599 2:-0.91347 3:-0.931395 4:-0.913558 5:-0.915634 6:-0.974482 7:-0.998447 
0.002836132724976941 0.125 1:-0.602729 2:-0.565734 3:-0.824717 4:-0.808498 5:-0.561066 6:-0.845829 7:-0.990588 
0.125 0.125 1:-0.595422 2:-0.560786 3:-0.849008 4:-0.805702 5:-0.555552 6:-0.835997 7:-0.989939 
0.125 0.125 1:-0.26973 2:-0.384417 3:-0.954034 4:-0.942528 5:-0.346948 6:-0.890977 7:-0.99699 
0.125 0.125 1:-0.854363 2:-0.719063 3:-0.925364 4:-0.894761 5:-0.736602 6:-0.922818 7:-0.996606 
0.125 0.125 1:-0.426224 2:-0.329508 3:-0.839713 4:-0.825785 5:-0.329611 6:-0.81686 7:-0.994359 
0.125 0.125 1:-0.871492 2:-0.85693 3:-0.935182 4:-0.916414 5:-0.855831 6:-0.965874 7:-0.998414 
0.125 0.125 1:-0.214945 2:-0.114338 3:-0.553491 4:-0.519847 5:-0.109463 6:-0.514855 7:-0.944424 
0.125 0.125 1:-0.662855 2:-0.597348 3:-0.728658 4:-0.682398 5:-0.598781 6:-0.80974 7:-0.990682 
0.125 0.125 1:-0.663755 2:-0.717101 3:-0.936511 4:-0.931322 5:-0.699763 6:-0.944946 7:-0.99816 
0.125 0.125 1:-0.798713 2:-0.855738 3:-0.958949 4:-0.954802 5:-0.841391 6:-0.97924 7:-0.999509 
0.125 0 1:-0.766723 2:-0.72246 3:-0.911322 4:-0.893447 5:-0.723284 6:-0.920249 7:-0.995943 
0.125 0.125 1:-0.749722 2:-0.715979 3:-0.865437 4:-0.842978 5:-0.714688 6:-0.910178 7:-0.995599 
0.125 0.125 1:-0.710219 2:-0.651992 3:-0.826858 4:-0.793475 5:-0.653528 6:-0.873604 7:-0.993165 
0.125 0.125 1:-0.670776 2:-0.715498 3:-0.84871 4:-0.826024 5:-0.69971 6:-0.906587 7:-0.994641 
0.125 0.125 1:-0.745961 2:-0.76305 3:-0.854225 4:-0.842649 5:-0.753622 6:-0.919153 7:-0.994815 
0.125 0.125 1:-0.806359 2:-0.80406 3:-0.903605 4:-0.889314 5:-0.799297 6:-0.945279 7:-0.997142 
0.125 0.125 1:-0.901262 2:-0.898576 3:-0.928385 4:-0.912588 5:-0.896386 6:-0.971831 7:-0.998501 
0.125 0.125 1:-0.718864 2:-0.681537 3:-0.819959 4:-0.793134 5:-0.679997 6:-0.87731 7:-0.992589 
0.125 0.125 1:-0.742257 2:-0.65002 3:-0.889977 4:-0.854491 5:-0.657782 6:-0.889328 7:-0.994881 
0.125 0.125 1:-0.913612 2:-0.919981 3:-0.9177 4:-0.906593 5:-0.916686 6:-0.974481 7:-0.998382 
0.125 0.125 1:-0.693083 2:-0.643591 3:-0.881868 4:-0.868781 5:-0.643291 6:-0.89197 7:-0.993427 
0.125 0.125 1:-0.503251 2:-0.543284 3:-0.813583 4:-0.798374 5:-0.523802 6:-0.842756 7:-0.990514 
0.07586326359150068 0.125 1:-0.446144 2:-0.295301 3:-0.763006 4:-0.731463 5:-0.304491 6:-0.734264 7:-0.986714 
0.125 0.125 1:-0.827862 2:-0.799628 3:-0.8821 4:-0.860935 5:-0.799536 6:-0.93912 7:-0.99682 
0 0.125 1:-0.550963 2:-0.509076 3:-0.822661 4:-0.7876 5:-0.503811 6:-0.815566 7:-0.988092 
0 0.125 1:-0.577816 2:-0.53173 3:-0.786684 4:-0.765192 5:-0.52784 6:-0.819516 7:-0.988194 
0.125 0.125 1:-0.961112 2:-0.978555 3:-0.984773 4:-0.980618 5:-0.974767 6:-0.995541 7:-0.99974 
0.125 0.125 1:-0.881171 2:-0.855379 3:-0.901589 4:-0.876504 5:-0.856311 6:-0.955405 7:-0.997701 
0 0.125 1:-0.556206 2:-0.440361 3:-0.744032 4:-0.696228 5:-0.446931 6:-0.758703 7:-0.986383 
0.125 0.125 1:-0.288069 2:-0.332696 3:-0.596016 4:-0.544261 5:-0.306791 6:-0.606081 7:-0.961815 
0.125 0.125 1:-0.603729 2:-0.597149 3:-0.892571 4:-0.881759 5:-0.587698 6:-0.887475 7:-0.994046 
-0.125 0.125 1:-0.649667 2:-0.676581 3:-0.930356 4:-0.917053 5:-0.66305 6:-0.924414 7:-0.996622 
-0.125 0.125 1:-0.417131 2:-0.507588 3:-0.711476 4:-0.645401 5:-0.477853 6:-0.744093 7:-0.980038 
-0.125 0 1:-0.868674 2:-0.820645 3:-0.926222 4:-0.897928 5:-0.824763 6:-0.94473 7:-0.997229 
-0.125 0.08963560174861193 1:-0.792785 2:-0.823728 3:-0.941657 4:-0.929589 5:-0.813349 6:-0.962008 7:-0.998494 
-0.125 0.125 1:-0.659346 2:-0.637648 3:-0.836968 4:-0.800162 5:-0.63206 6:-0.855316 7:-0.991944 
-0.125 0.125 1:-0.789039 2:-0.787219 3:-0.905553 4:-0.867468 5:-0.781922 6:-0.914569 7:-0.99567 
-0.125 0.125 1:-0.793206 2:-0.677764 3:-0.926483 4:-0.881619 5:-0.690544 6:-0.898523 7:-0.995651 
-0.125 0.125 1:-0.886132 2:-0.86776 3:-0.881981 4:-0.864416 5:-0.86765 6:-0.956235 7:-0.997589 
-0.125 0.125 1:-0.807194 2:-0.7787 3:-0.907937 4:-0.882111 5:-0.778101 6:-0.933118 7:-0.996423 
-0.125 0.125 1:-0.520918 2:-0.480121 3:-0.916873 4:-0.898823 5:-0.473889 6:-0.877212 7:-0.995641 
-0.125 0.125 1:-0.680306 2:-0.608909 3:-0.804919 4:-0.752021 5:-0.611735 6:-0.84035 7:-0.990952 
-0.125 0 1:-0.897093 2:-0.877247 3:-0.916199 4:-0.89313 5:-0.877661 6:-0.962429 7:-0.998125 
-0.125 0 1:-0.844796 2:-0.839734 3:-0.947294 4:-0.932983 5:-0.836425 6:-0.963951 7:-0.998544 
-0.125 0.125 1:-0.846453 2:-0.842135 3:-0.87172 4:-0.836847 5:-0.838753 6:-0.934919 7:-0.995603 
-0.125 0.125 1:-0.732025 2:-0.707661 3:-0.831108 4:-0.788377 5:-0.704419 6:-0.882496 7:-0.993047 
-0.125 0 1:-0.864478 2:-0.860042 3:-0.886796 4:-0.871299 5:-0.857156 6:-0.949449 7:-0.996552 
-0.125 0.125 1:0.128964 2:0.184535 3:0.22352 4:0.35396 5:0.205637 6:0.513927 7:-0.706884 
-0.125 0.125 1:-0.672304 2:-0.685449 3:-0.837525 4:-0.821288 5:-0.674695 6:-0.881768 7:-0.991664 
-0.125 0.125 1:-0.759987 2:-0.722884 3:-0.890927 4:-0.872134 5:-0.722397 6:-0.91228 7:-0.995043 
-0.125 0.125 1:-0.9292 2:-0.937431 3:-0.961212 4:-0.948394 5:-0.934255 6:-0.987587 7:-0.999424 
-0.125 0.125 1:-1 2:-1 3:-0.979472 4:-0.969233 5:-1 6:-1 7:-0.999841 
-0.125 0.1148296594601701 1:-0.831086 2:-0.879668 3:-0.97253 4:-0.962828 5:-0.867514 6:-0.982232 7:-0.999461 
-0.125 0.125 1:-0.338244 2:-0.670641 3:-0.907773 4:-0.842798 5:-0.600558 6:-0.845339 7:-0.993678 
-0.125 0.125 1:-0.775767 2:-0.753757 3:-0.855718 4:-0.832408 5:-0.751301 6:-0.9167 7:-0.995373 
-0.125 0.125 1:-0.324222 2:-0.197171 3:-0.722469 4:-0.685583 5:-0.199371 6:-0.661787 7:-0.977081 
-0.125 0.125 1:-0.783838 2:-0.757482 3:-0.906178 4:-0.884712 5:-0.755927 6:-0.929345 7:-0.996372 
-0.125 0.125 1:-0.807754 2:-0.790252 3:-0.894367 4:-0.874721 5:-0.78793 6:-0.937703 7:-0.996736 
-0.125 0.125 1:-0.974711 2:-0.973439 3:-0.966779 4:-0.954817 5:-0.972971 6:-0.99413 7:-0.999581 
-0.125 0.125 1:-0.950089 2:-0.948019 3:-0.961391 4:-0.947194 5:-0.947025 6:-0.98666 7:-0.999258 
-0.125 0.125 1:-0.932001 2:-0.942597 3:-0.978334 4:-0.960141 5:-0.939121 6:-0.989284 7:-0.999567 
-0.125 0.125 1:-0.907049 2:-0.917116 3:-0.955271 4:-0.948077 5:-0.913063 6:-0.979864 7:-0.998974 
-0.125 0.125 1:-0.368415 2:-0.662943 3:-1 4:-1 5:-0.599647 6:-0.966883 7:-0.999584 
-0.125 0.125 1:-0.810719 2:-0.811882 3:-0.872741 4:-0.858182 5:-0.806687 6:-0.929849 7:-0.995468 
-0.125 0.125 1:-0.807964 2:-0.858325 3:-0.965294 4:-0.959031 5:-0.845277 6:-0.971974 7:-0.998914 
-0.125 0 1:-0.899659 2:-0.895043 3:-0.94376 4:-0.926081 5:-0.893116 6:-0.973507 7:-0.99868 
-0.125 0.125 1:-0.845214 2:-0.836629 3:-0.853923 4:-0.82924 5:-0.833889 6:-0.934207 7:-0.995734 
-0.125 0.125 1:0.557049 2:0.53418 3:0.0118671 4:0.138469 5:0.579019 6:0.601798 7:-0.485816 
-0.125 0.125 1:-0.445128 2:-0.656992 3:-0.838342 4:-0.770976 5:-0.608799 6:-0.827777 7:-0.990941 
-0.125 0.125 1:-0.183481 2:-0.43236 3:-0.59975 4:-0.507257 5:-0.371387 6:-0.587135 7:-0.964867 
-0.125 0 1:-0.878404 2:-0.861905 3:-0.890279 4:-0.866026 5:-0.861295 6:-0.947437 7:-0.997079 
-0.125 0.125 1:-0.721042 2:-0.752077 3:-0.835383 4:-0.798141 5:-0.739784 6:-0.890731 7:-0.992781 
-0.125 0.125 1:-0.826252 2:-0.777702 3:-0.857283 4:-0.843021 5:-0.780779 6:-0.924916 7:-0.99571 
-0.125 0.125 1:-0.517194 2:-0.425751 3:-0.787116 4:-0.76218 5:-0.427428 6:-0.791266 7:-0.989133 
-0.125 0 1:-0.855853 2:-0.808895 3:-0.916097 4:-0.891399 5:-0.812504 6:-0.939387 7:-0.996984 
-0.125 0.125 1:-0.659287 2:-0.561349 3:-0.783736 4:-0.73743 5:-0.567816 6:-0.818158 7:-0.99064 
-0.125 0.125 1:-0.790075 2:-0.733082 3:-0.919038 4:-0.897224 5:-0.736537 6:-0.920258 7:-0.995786 
-0.125 0.125 1:-0.915465 2:-0.955521 3:-0.967188 4:-0.962074 5:-0.946949 6:-0.989787 7:-0.999448 
-0.125 0.125 1:-0.757689 2:-0.791796 3:-0.917841 4:-0.90852 5:-0.779987 6:-0.948995 7:-0.997733 
-0.125 0.125 1:-0.376036 2:-0.514385 3:-0.809466 4:-0.739165 5:-0.475988 6:-0.777983 7:-0.985662 
-0.125 0.125 1:-0.782061 2:-0.830461 3:-0.984405 4:-0.981253 5:-0.817037 6:-0.968524 7:-0.998953 
-0.125 0.125 1:-0.102906 2:-0.592132 3:-0.8406 4:-0.743083 5:-0.491019 6:-0.762302 7:-0.987856 
-0.125 0.125 1:-0.990421 2:-0.998998 3:-0.968174 4:-0.960048 5:-0.997388 6:-0.99952 7:-0.99979 
-0.125 0.125 1:-0.602632 2:-0.537413 3:-0.830156 4:-0.802459 5:-0.537206 6:-0.837046 7:-0.99056 
-0.125 0.125 1:-0.786976 2:-0.815095 3:-0.924543 4:-0.916329 5:-0.805009 6:-0.947825 7:-0.997129 
-0.125 0 1:-0.839658 2:-0.818124 3:-0.939694 4:-0.924333 5:-0.817284 6:-0.956979 7:-0.998019 
-0.125 0.125 1:-0.99062 2:-0.989775 3:-0.95593 4:-0.939727 5:-0.989661 6:-0.995209 7:-0.999556 
-0.125 0.125 1:-0.80366 2:-0.806286 3:-0.858499 4:-0.847194 5:-0.800673 6:-0.932417 7:-0.995902 
-0.125 0 1:-0.846562 2:-0.882449 3:-0.965808 4:-0.956764 5:-0.872712 6:-0.97849 7:-0.999155 
-0.125 0.125 1:-0.660941 2:-0.584046 3:-0.888332 4:-0.873474 5:-0.587229 6:-0.879179 7:-0.993435 
-0.125 0.125 1:-0.913571 2:-0.939327 3:-0.978147 4:-0.96857 5:-0.932966 6:-0.990001 7:-0.999575 
-0.125 -0.125 1:-0.0720017 2:-0.471836 3:-0.743748 4:-0.646839 5:-0.384041 6:-0.629319 7:-0.983627 
-0.125 -0.125 1:-0.0636403 2:0.155578 3:-0.0134226 4:0.0593497 5:0.145703 6:0.168583 7:-0.746531 
-0.125 -0.125 1:-0.389775 2:-0.520335 3:-0.905423 4:-0.896771 5:-0.483534 6:-0.885676 7:-0.994971 
-0.125 -0.125 1:-0.552578 2:-0.553743 3:-0.741395 4:-0.71633 5:-0.541714 6:-0.80115 7:-0.981604 
-0.125 -0.125 1:-0.167193 2:-0.423437 3:-0.853561 4:-0.774201 5:-0.360868 6:-0.73184 7:-0.989666 
-0.125 0 1:-0.476049 2:-0.408188 3:-0.68969 4:-0.649176 5:-0.405047 6:-0.713023 7:-0.979912 
-0.06808850029303371 -0.02929007191189353 1:-0.0827062 2:-0.199962 3:-0.349938 4:-0.243872 5:-0.157135 6:-0.295174 7:-0.912056 
-0.125 -0.125 1:-0.77051 2:-0.785999 3:-0.851785 4:-0.838883 5:-0.777474 6:-0.924085 7:-0.994746 
0 -0.1090537927801171 1:-0.495717 2:-0.416523 3:-0.398347 4:-0.324247 5:-0.415695 6:-0.549131 7:-0.976324 
-0.125 -0.08593364212190377 1:-0.0580342 2:-0.339895 3:-0.726856 4:-0.637251 5:-0.270385 6:-0.598437 7:-0.971043 
-0.125 0 1:-0.43943 2:-0.404004 3:-0.744097 4:-0.717549 5:-0.394765 6:-0.745158 7:-0.982873 
-0.125 -0.125 1:-0.432668 2:-0.257798 3:-0.576516 4:-0.531419 5:-0.27043 6:-0.600191 7:-0.976315 
-0.125 0 1:-0.281955 2:-0.211014 3:-0.315992 4:-0.26049 5:-0.203222 6:-0.349174 7:-0.908714 
-0.125 -0.125 1:-0.475465 2:-0.333814 3:-0.210425 4:-0.148257 5:-0.342327 6:-0.424409 7:-0.96003 
-0.125 0 1:-0.376579 2:-0.458971 3:-0.518137 4:-0.431828 5:-0.429437 6:-0.615767 7:-0.965815 
-0.125 0 1:-0.639514 2:-0.454313 3:-0.58068 4:-0.54347 5:-0.474056 6:-0.70407 7:-0.989005 
-0.125 -0.125 1:0.713175 2:1 3:-0.309479 4:-0.223831 5:1 6:0.525826 7:-0.693256 
-0.125 -0.125 1:0.698389 2:-0.0804564 3:-0.100595 4:0.0716092 5:0.0876688 6:0.258909 7:-0.85363 
-0.125 -0.125 1:-0.562065 2:-0.48082 3:-0.868108 4:-0.841137 5:-0.482073 6:-0.833531 7:-0.990337 
-0.125 -0.125 1:-0.821119 2:-0.808737 3:-0.877682 4:-0.85831 5:-0.80596 6:-0.933616 7:-0.996003 
-0.125 -0.1145303807573252 1:0.0583578 2:0.0809073 3:-0.371533 4:-0.291154 5:0.105361 6:-0.18279 7:-0.879572 
-0.125 0 1:-0.468881 2:-0.453473 3:-0.733463 4:-0.719208 5:-0.441848 6:-0.774674 7:-0.984681 
-0.125 -0.125 1:-0.0680554 2:-0.00543594 3:-0.147374 4:-0.0939379 5:0.00933509 6:-0.0849492 7:-0.843811 
-0.125 -0.04734929744168307 1:-0.250297 2:-0.112182 3:-0.402053 4:-0.37093 5:-0.114174 6:-0.410648 7:-0.912254 
-0.125 -0.125 1:-0.407975 2:-0.562268 3:-0.669132 4:-0.589074 5:-0.522195 6:-0.711684 7:-0.976764 
-0.125 -0.125 1:-0.921804 2:-0.906565 3:-0.941688 4:-0.926703 5:-0.906904 6:-0.9708 7:-0.998193 
-0.125 -0.02976597461764608 1:-0.215726 2:-0.0871728 3:-0.694533 4:-0.666865 5:-0.0867376 6:-0.600013 7:-0.969151 
-0.125 -0.125 1:-0.692519 2:-0.546497 3:-0.5163 4:-0.444917 5:-0.561447 6:-0.701183 7:-0.990636 
-0.125 -0.125 1:-0.643967 2:-0.498644 3:-0.885069 4:-0.85142 5:-0.512198 6:-0.849419 7:-0.993486 
-0.125 -0.08444571640730721 1:-0.158807 2:-0.154789 3:-0.803096 4:-0.770296 5:-0.133153 6:-0.664675 7:-0.970887 
-0.125 -0.125 1:-0.700981 2:-0.631915 3:-0.868754 4:-0.852437 5:-0.634921 6:-0.901619 7:-0.997075 
-0.01964029862346034 0 1:-0.0462192 2:-0.0448239 3:-0.241391 4:-0.198089 5:-0.0197933 6:-0.206096 7:-0.872027 
-0.125 -0.125 1:-0.757176 2:-0.751089 3:-0.906341 4:-0.893912 5:-0.745622 6:-0.943638 7:-0.99823 
-0.125 -0.125 1:-0.863112 2:-0.900031 3:-0.982439 4:-0.976355 5:-0.890569 6:-0.982683 7:-0.999375 
-0.06516992324134337 -0.1087210467384405 1:-0.132932 2:-0.266446 3:-0.445095 4:-0.331773 5:-0.222378 6:-0.425734 7:-0.935854 
-0.125 -0.125 1:0.137551 2:-0.0487626 3:-0.306522 4:-0.140455 5:0.0108161 6:-0.063355 7:-0.878471 
-0.125 -0.125 1:-0.547424 2:-0.628738 3:-0.925328 4:-0.924195 5:-0.603897 6:-0.91186 7:-0.995982 
-0.125 0 1:-0.114095 2:-0.173132 3:-0.578985 4:-0.518589 5:-0.140342 6:-0.498747 7:-0.941886 
-0.1006374301537236 -0.03799585185930615 1:0.0467764 2:-0.0541145 3:-0.440213 4:-0.317564 5:-0.010447 6:-0.266342 7:-0.93553 
-0.125 -0.125 1:-0.780468 2:-0.837791 3:-0.963095 4:-0.956715 5:-0.822915 6:-0.971659 7:-0.998971 
-0.125 -0.125 1:-0.209434 2:-0.511156 3:-0.729295 4:-0.646494 5:-0.442513 6:-0.702556 7:-0.981359 
-0.125 -0.125 1:-0.863515 2:-0.831066 3:-0.907884 4:-0.887024 5:-0.832584 6:-0.946981 7:-0.997295 
-0.125 -0.125 1:1 2:0.455007 3:-0.278316 4:-0.167852 5:0.594138 6:0.410226 7:-0.657122 
-0.125 -0.02014575998791857 1:-0.349568 2:-0.286049 3:-0.791368 4:-0.748755 5:-0.278874 6:-0.723585 7:-0.979785 
-0.125 -0.125 1:-0.17577 2:-0.0484236 3:-0.647586 4:-0.59931 5:-0.0467397 6:-0.491998 7:-0.959073 
-0.125 -0.125 1:0.365554 2:0.149411 3:-0.549509 4:-0.434921 5:0.219743 6:-0.215387 7:-0.920259 
-0.125 -0.125 1:-0.77117 2:-0.778766 3:-0.900043 4:-0.862553 5:-0.771507 6:-0.914399 7:-0.995197 
-0.125 0 1:-0.372913 2:-0.419459 3:-0.750292 4:-0.70534 5:-0.395497 6:-0.733512 7:-0.978484 
-0.125 -0.125 1:-0.121845 2:0.0820934 3:1 4:1 5:0.0730932 6:1 7:1 
-0.125 -0.06864339217948738 1:-0.285715 2:-0.269606 3:-0.296345 4:-0.238335 5:-0.253242 6:-0.363123 7:-0.891667 
-0.125 -0.125 1:-0.269975 2:0.00276975 3:-0.842813 4:-0.808391 5:-0.0210325 6:-0.688296 7:-0.986909 
-0.125 -0.125 1:-0.55302 2:-0.497059 3:-0.867529 4:-0.851875 5:-0.494074 6:-0.864386 7:-0.994062 
-0.125 -0.125 1:-0.530025 2:-0.562633 3:-0.713099 4:-0.699825 5:-0.545034 6:-0.802482 7:-0.983981 
-0.125 -0.125 1:-0.923345 2:-0.914241 3:-0.886173 4:-0.870615 5:-0.913651 6:-0.965472 7:-0.997496 
-0.125 -0.09359033440575351 1:-0.539834 2:-0.508558 3:-0.679552 4:-0.640161 5:-0.501321 6:-0.75226 7:-0.983467 
-0.125 -0.125 1:-0.416521 2:-0.357952 3:-0.808565 4:-0.789065 5:-0.351766 6:-0.800593 7:-0.992215 
-0.125 -0.125 1:-0.561406 2:-0.62418 3:-0.732204 4:-0.678599 5:-0.602642 6:-0.806327 7:-0.986056 
-0.125 -0.125 1:-0.792327 2:-0.776888 3:-0.808282 4:-0.786705 5:-0.773832 6:-0.904354 7:-0.993543 
-0.125 -0.125 1:-0.637734 2:-0.594297 3:-0.77965 4:-0.760141 5:-0.591575 6:-0.836972 7:-0.990316 
-0.125 0 1:-0.516442 2:-0.484965 3:-0.450219 4:-0.424539 5:-0.47714 6:-0.644048 7:-0.957911 
-0.125 -0.125 1:-0.852924 2:-0.823647 3:-0.887682 4:-0.860771 5:-0.824382 6:-0.937502 7:-0.996047 
-0.125 -0.125 1:-0.781195 2:-0.821115 3:-0.905581 4:-0.899767 5:-0.80901 6:-0.953784 7:-0.997543 
-0.125 -0.125 1:-0.773817 2:-0.802629 3:-0.944991 4:-0.934197 5:-0.792084 6:-0.967978 7:-0.999333 
-0.125 0 1:-0.225022 2:-0.250383 3:-0.555975 4:-0.465165 5:-0.225855 6:-0.491288 7:-0.933109 
-0.009536643847897076 0 1:-0.172272 2:-0.127223 3:-0.412408 4:-0.298425 5:-0.112433 6:-0.278589 7:-0.887616 
-0.125 -0.125 1:-0.730177 2:-0.729798 3:-0.814958 4:-0.783454 5:-0.722715 6:-0.889102 7:-0.992286 
-0.125 -0.125 1:-0.577559 2:-0.590049 3:-0.808128 4:-0.794274 5:-0.57689 6:-0.848774 7:-0.988936 
-0.125 0 1:-0.373189 2:-0.335962 3:-0.553586 4:-0.469036 5:-0.325254 6:-0.563217 7:-0.972691 
-0.125 -0.125 1:-0.597059 2:-0.608113 3:-0.84337 4:-0.826152 5:-0.595697 6:-0.860412 7:-0.990405 
