svm_type c_svc
kernel_type rbf
gamma 0.5
nr_class 3
total_sv 178
rho -2.29827 -0.713157 0.992362
label 3 2 1
nr_sv 59 67 52
SV
15.56592431014778 0 1:-0.511479 2:-0.311804 3:-0.42305 4:-0.374862 5:-0.330321 6:-0.537612 7:-0.970298 
0 10.52583227994928 1:-0.0770533 2:-0.472574 3:-0.743748 4:-0.646839 5:-0.385851 6:-0.62971 7:-0.983627 
32 32 1:-0.547947 2:-0.632068 3:-0.743 4:-0.68028 5:-0.606868 6:-0.80052 7:-0.987101 
12.75621843478249 6.67810711965313 1:-0.0686526 2:0.155155 3:-0.0134226 4:0.0593497 5:0.144586 6:0.168384 7:-0.746531 
32 8.051754634539398 1:-0.456521 2:-0.502192 3:-0.7009 4:-0.602893 5:-0.48062 6:-0.698248 7:-0.976299 
32 32 1:-0.396324 2:-0.521098 3:-0.905423 4:-0.896771 5:-0.485474 6:-0.886129 7:-0.994971 
12.81328110737995 32 1:-0.172693 2:-0.424151 3:-0.853561 4:-0.774201 5:-0.362648 6:-0.732255 7:-0.989666 
32 0 1:-0.483004 2:-0.408894 3:-0.68969 4:-0.649176 5:-0.406885 6:-0.713434 7:-0.979912 
32 32 1:-0.778853 2:-0.786895 3:-0.851785 4:-0.838883 5:-0.779799 6:-0.924547 7:-0.994746 
32 32 1:-0.60095 2:-0.561936 3:-0.820662 4:-0.789611 5:-0.55753 6:-0.835248 7:-0.989137 
32 32 1:-0.522949 2:-0.496996 3:-0.777128 4:-0.748448 5:-0.488464 6:-0.795543 7:-0.985521 
32 0 1:-0.439419 2:-0.258429 3:-0.576516 4:-0.531419 5:-0.272092 6:-0.600575 7:-0.976315 
1.884502153998135 3.18516641087989 1:0.711824 2:1 3:-0.309479 4:-0.223831 5:1 6:0.525712 7:-0.693256 
0 0.7721504509597947 1:0.696967 2:-0.0809982 3:-0.100595 4:0.0716092 5:0.0864756 6:0.258731 7:-0.85363 
32 32 1:-0.569426 2:-0.481563 3:-0.868108 4:-0.841137 5:-0.484011 6:-0.83397 7:-0.990337 
32 32 1:-0.618235 2:-0.567224 3:-0.768459 4:-0.743263 5:-0.565165 6:-0.812607 7:-0.988573 
32 32 1:-0.829701 2:-0.809644 3:-0.877682 4:-0.85831 5:-0.808321 6:-0.93408 7:-0.996003 
32 32 1:-0.643991 2:-0.556562 3:-0.796875 4:-0.76396 5:-0.56092 6:-0.827587 7:-0.990395 
32 32 1:-0.764053 2:-0.783237 3:-0.900761 4:-0.890162 5:-0.773994 6:-0.95155 7:-0.998491 
32 10.23000502240426 1:-0.475803 2:-0.454202 3:-0.733463 4:-0.719208 5:-0.443734 6:-0.775099 7:-0.984681 
32 0 1:-0.415336 2:-0.357483 3:-0.627962 4:-0.576191 5:-0.351119 6:-0.619579 7:-0.961229 
32 0 1:-0.256189 2:-0.11274 3:-0.402053 4:-0.37093 5:-0.115632 6:-0.410986 7:-0.912254 
32 32 1:-0.930861 2:-0.907521 3:-0.941688 4:-0.926703 5:-0.909398 6:-0.971272 7:-0.998193 
31.35950852878284 0 1:-0.221455 2:-0.087718 3:-0.694533 4:-0.666865 5:-0.0881589 6:-0.600397 7:-0.969151 
23.5371060052998 0 1:-0.700494 2:-0.547273 3:-0.5163 4:-0.444917 5:-0.56349 6:-0.701591 7:-0.990636 
32 32 1:-0.651714 2:-0.499395 3:-0.885069 4:-0.85142 5:-0.514176 6:-0.849863 7:-0.993486 
32 32 1:-0.812608 2:-0.777019 3:-0.885785 4:-0.858397 5:-0.777688 6:-0.916809 7:-0.995716 
32 32 1:-0.708997 2:-0.632734 3:-0.868754 4:-0.852437 5:-0.637059 6:-0.902075 7:-0.997075 
32 32 1:-0.871891 2:-0.900984 3:-0.982439 4:-0.976355 5:-0.893041 6:-0.983159 7:-0.999375 
8.751637385148653 3.123923166375208 1:0.133486 2:-0.0492885 3:-0.306522 4:-0.140455 5:0.00952238 6:-0.0636101 7:-0.878471 
32 0 1:-0.341398 2:-0.413021 3:-0.59941 4:-0.495423 5:-0.384309 6:-0.615765 7:-0.976879 
32 32 1:-0.554716 2:-0.629554 3:-0.925328 4:-0.924195 5:-0.605995 6:-0.912318 7:-0.995982 
16.83278724291086 0 1:0.0422845 2:-0.0546431 3:-0.440213 4:-0.317564 5:-0.0117686 6:-0.266646 7:-0.93553 
32 32 1:-0.788858 2:-0.838713 3:-0.963095 4:-0.956715 5:-0.825299 6:-0.972132 7:-0.998971 
32 0 1:-0.28601 2:-0.129361 3:-0.729307 4:-0.680347 5:-0.135122 6:-0.618512 7:-0.976116 
32 0 1:-0.327074 2:-0.239366 3:-0.776116 4:-0.746663 5:-0.235361 6:-0.728361 7:-0.987299 
32 32 1:-0.872296 2:-0.831984 3:-0.907884 4:-0.887024 5:-0.834981 6:-0.947448 7:-0.997295 
0 4.056758302868134 1:1 2:0.454733 3:-0.278316 4:-0.167852 5:0.593607 6:0.410084 7:-0.657122 
32 0 1:-0.355928 2:-0.286694 3:-0.791368 4:-0.748755 5:-0.280546 6:-0.723999 7:-0.979785 
32 32 1:-0.779517 2:-0.779658 3:-0.900043 4:-0.862553 5:-0.773824 6:-0.914859 7:-0.995197 
32 32 1:-0.702517 2:-0.606424 3:-0.865072 4:-0.832884 5:-0.613699 6:-0.873743 7:-0.993711 
32 0 1:-0.379383 2:-0.420171 3:-0.750292 4:-0.70534 5:-0.397322 6:-0.733928 7:-0.978484 
0 0.6574253366251831 1:-0.127132 2:0.0816331 3:1 4:1 5:0.071881 6:1 7:1 
32 32 1:-0.560338 2:-0.497809 3:-0.867529 4:-0.851875 5:-0.496028 6:-0.864833 7:-0.994062 
32 32 1:-0.537235 2:-0.563417 3:-0.713099 4:-0.699825 5:-0.547055 6:-0.802914 7:-0.983981 
32 32 1:-0.932408 2:-0.915201 3:-0.886173 4:-0.870615 5:-0.916154 6:-0.965943 7:-0.997496 
32 0 1:-0.547091 2:-0.509314 3:-0.679552 4:-0.640161 5:-0.503284 6:-0.752681 7:-0.983467 
32 32 1:-0.423197 2:-0.358633 3:-0.808565 4:-0.789065 5:-0.353534 6:-0.801025 7:-0.992215 
32 32 1:-0.568764 2:-0.624995 3:-0.732204 4:-0.678599 5:-0.604738 6:-0.80676 7:-0.986056 
32 32 1:-0.695261 2:-0.692345 3:-0.866179 4:-0.814189 5:-0.684757 6:-0.8767 7:-0.993251 
32 32 1:-0.645452 2:-0.595096 3:-0.77965 4:-0.760141 5:-0.593656 6:-0.837413 7:-0.990316 
32 32 1:-0.861656 2:-0.824561 3:-0.887682 4:-0.860771 5:-0.826768 6:-0.937966 7:-0.996047 
32 32 1:-0.782176 2:-0.803533 3:-0.944991 4:-0.934197 5:-0.794428 6:-0.96845 7:-0.999333 
32 32 1:-0.712513 2:-0.659676 3:-0.843855 4:-0.791556 5:-0.660405 6:-0.864532 7:-0.992377 
15.8304406132011 0 1:-0.177796 2:-0.127789 3:-0.412408 4:-0.298425 5:-0.113888 6:-0.278896 7:-0.887616 
32 32 1:-0.738331 2:-0.730666 3:-0.814958 4:-0.783454 5:-0.724968 6:-0.889555 7:-0.992286 
32 32 1:-0.584993 2:-0.590847 3:-0.808128 4:-0.794274 5:-0.578953 6:-0.849218 7:-0.988936 
32 0 1:-0.37966 2:-0.336632 3:-0.553586 4:-0.469036 5:-0.326987 6:-0.563591 7:-0.972691 
32 32 1:-0.604585 2:-0.60892 3:-0.84337 4:-0.826152 5:-0.597784 6:-0.860858 7:-0.990405 
-32 0 1:-0.327129 2:-0.0670192 3:-0.649476 4:-0.617243 5:-0.0901612 6:-0.593482 7:-0.986044 
-32 32 1:-0.375921 2:-0.445145 3:-0.720542 4:-0.646287 5:-0.417726 6:-0.710384 7:-0.981038 
-32 32 1:-0.85356 2:-0.808794 3:-0.890136 4:-0.864676 5:-0.811994 6:-0.939203 7:-0.997168 
-32 0 1:-0.534281 2:-0.451113 3:-0.672613 4:-0.609709 5:-0.45189 6:-0.711746 7:-0.982972 
0 32 1:-0.784321 2:-0.736372 3:-0.916263 4:-0.891757 5:-0.738237 6:-0.91654 7:-0.995238 
0 32 1:-0.73351 2:-0.637153 3:-0.929234 4:-0.901511 5:-0.645292 6:-0.894449 7:-0.995141 
-32 32 1:-0.693706 2:-0.706309 3:-0.914409 4:-0.90483 5:-0.696236 6:-0.925585 7:-0.996489 
-32 0 1:-0.639486 2:-0.507074 3:-0.751484 4:-0.716631 5:-0.518396 6:-0.788867 7:-0.989604 
-32 0 1:-0.56743 2:-0.500411 3:-0.703637 4:-0.67921 5:-0.499525 6:-0.774002 7:-0.98643 
0 32 1:-0.974979 2:-0.912394 3:-0.94714 4:-0.915299 5:-0.921621 6:-0.970625 7:-0.998393 
0 32 1:-0.887683 2:-0.824708 3:-0.946714 4:-0.912265 5:-0.831681 6:-0.943568 7:-0.997495 
-32 0 1:-0.543037 2:-0.494018 3:-0.682051 4:-0.598737 5:-0.489651 6:-0.694051 7:-0.988016 
-32 32 1:-0.458106 2:-0.616651 3:-0.751944 4:-0.666522 5:-0.577349 6:-0.770605 7:-0.986895 
-32 0 1:-0.507553 2:-0.446993 3:-0.839402 4:-0.805222 5:-0.443502 6:-0.801564 7:-0.987525 
0 14.13728443613973 1:-0.665762 2:-0.572767 3:-0.890137 4:-0.861318 5:-0.578579 6:-0.876503 7:-0.994575 
0 32 1:-0.850724 2:-0.765873 3:-0.907364 4:-0.880812 5:-0.77531 6:-0.927269 7:-0.995821 
0 32 1:-0.922924 2:-0.914097 3:-0.958825 4:-0.943407 5:-0.913479 6:-0.98126 7:-0.999103 
-32 32 1:-0.662194 2:-0.58023 3:-0.834373 4:-0.795953 5:-0.584211 6:-0.844818 7:-0.99165 
-32 0 1:-0.422083 2:-0.431953 3:-0.83308 4:-0.774936 5:-0.415105 6:-0.75994 7:-0.988096 
-32 0 1:-0.281674 2:-0.132118 3:-0.328752 4:-0.244741 5:-0.136647 6:-0.306125 7:-0.915495 
0 32 1:-0.713569 2:-0.654474 3:-0.913515 4:-0.895596 5:-0.656217 6:-0.914004 7:-0.996441 
-32 32 1:-0.799986 2:-0.737521 3:-0.869847 4:-0.850756 5:-0.742087 6:-0.921639 7:-0.996297 
-32 0 1:-0.46557 2:-0.346849 3:-0.662922 4:-0.608259 5:-0.351401 6:-0.668611 7:-0.977952 
-32 32 1:-0.72564 2:-0.696394 3:-0.877286 4:-0.863596 5:-0.693757 6:-0.910201 7:-0.995256 
0 32 1:-0.776264 2:-0.771833 3:-0.95107 4:-0.939382 5:-0.766632 6:-0.950402 7:-0.997911 
-32 27.36116121541515 1:-0.235403 2:-0.337625 3:-0.661989 4:-0.582864 5:-0.301284 6:-0.618804 7:-0.968289 
-32 32 1:-0.287242 2:-0.441646 3:-0.751292 4:-0.670292 5:-0.398463 6:-0.720195 7:-0.978308 
-32 32 1:-0.636879 2:-0.568108 3:-0.839468 4:-0.806588 5:-0.56934 6:-0.845541 7:-0.990783 
-32 26.37206132366813 1:-0.527862 2:-0.502587 3:-0.777859 4:-0.749329 5:-0.494078 6:-0.798375 7:-0.984681 
-32 0 1:-0.548215 2:-0.430984 3:-0.82983 4:-0.780555 5:-0.437494 6:-0.779598 7:-0.988461 
-32 0 1:-0.244315 2:-0.241692 3:-0.41516 4:-0.313407 5:-0.222095 6:-0.421251 7:-0.959755 
-32 0 1:-0.501827 2:-0.488224 3:-0.718102 4:-0.699766 5:-0.477187 6:-0.766563 7:-0.98195 
-32 0 1:-0.486189 2:-0.383721 3:-0.836444 4:-0.823861 5:-0.386262 6:-0.819408 7:-0.992988 
0 32 1:-0.644454 2:-0.575503 3:-0.905423 4:-0.887642 5:-0.576964 6:-0.887189 7:-0.99465 
-25.32797313374293 32 1:-0.985912 2:-0.991777 3:-0.964575 4:-0.957597 5:-0.990517 6:-0.997385 7:-0.999667 
-32 6.162361165048093 1:0.065506 2:0.223406 3:-0.297508 4:-0.200589 5:0.226773 6:-0.00390514 7:-0.869554 
-32 32 1:-0.886036 2:-0.866864 3:-0.89183 4:-0.878195 5:-0.866896 6:-0.960121 7:-0.997833 
-11.61049908751657 32 1:-0.919244 2:-0.964579 3:-0.987629 4:-0.977966 5:-0.955336 6:-0.999601 7:-1 
0 32 1:-0.683979 2:-0.678694 3:-0.96319 4:-0.950832 5:-0.671179 6:-0.934371 7:-0.997519 
-32 32 1:-0.610282 2:-0.566519 3:-0.824717 4:-0.808498 5:-0.563108 6:-0.846272 7:-0.990588 
-32 32 1:-0.60294 2:-0.561569 3:-0.849008 4:-0.805702 5:-0.557586 6:-0.836438 7:-0.989939 
0 32 1:-0.946025 2:-0.959409 3:-0.995642 4:-0.991796 5:-0.955907 6:-0.99662 7:-0.999899 
-32 0 1:-0.432945 2:-0.330175 3:-0.839713 4:-0.825785 5:-0.33135 6:-0.817296 7:-0.994359 
0 32 1:-0.880311 2:-0.857862 3:-0.935182 4:-0.916414 5:-0.858258 6:-0.966346 7:-0.998414 
-32 0 1:-0.22067 2:-0.114897 3:-0.553491 4:-0.519847 5:-0.110914 6:-0.515219 7:-0.944424 
-32 32 1:-0.671595 2:-0.717962 3:-0.936511 4:-0.931322 5:-0.701986 6:-0.945413 7:-0.99816 
-32 32 1:-0.807189 2:-0.856668 3:-0.958949 4:-0.954802 5:-0.843799 6:-0.979715 7:-0.999509 
-32 0 1:-0.665922 2:-0.554014 3:-0.73008 4:-0.679567 5:-0.562809 6:-0.780622 7:-0.990511 
0 32 1:-0.775048 2:-0.723324 3:-0.911322 4:-0.893447 5:-0.725538 6:-0.92071 7:-0.995943 
-32 32 1:-0.757967 2:-0.716839 3:-0.865437 4:-0.842978 5:-0.716931 6:-0.910636 7:-0.995599 
-32 32 1:-0.718278 2:-0.652821 3:-0.826858 4:-0.793475 5:-0.65569 6:-0.874054 7:-0.993165 
-32 18.04223455088354 1:-0.464598 2:-0.488422 3:-0.602709 4:-0.543055 5:-0.470504 6:-0.692969 7:-0.974183 
-32 32 1:-0.754188 2:-0.763934 3:-0.854225 4:-0.842649 5:-0.755915 6:-0.919614 7:-0.994815 
-32 32 1:-0.910222 2:-0.899528 3:-0.928385 4:-0.912588 5:-0.898867 6:-0.972304 7:-0.998501 
-32 32 1:-0.726964 2:-0.68238 3:-0.819959 4:-0.793134 5:-0.682194 6:-0.87776 7:-0.992589 
0 32 1:-0.750467 2:-0.650848 3:-0.889977 4:-0.854491 5:-0.659951 6:-0.889782 7:-0.994881 
-32 32 1:-0.52735 2:-0.555923 3:-0.751326 4:-0.693599 5:-0.538923 6:-0.782051 7:-0.985328 
-32 32 1:-0.922629 2:-0.920944 3:-0.9177 4:-0.906593 5:-0.919193 6:-0.974954 7:-0.998382 
-6.392933560392121 32 1:-0.701062 2:-0.644415 3:-0.881868 4:-0.868781 5:-0.645441 6:-0.892424 7:-0.993427 
-32 32 1:-0.510334 2:-0.544058 3:-0.813583 4:-0.798374 5:-0.525795 6:-0.843198 7:-0.990514 
-32 0 1:-0.452959 2:-0.295951 3:-0.763006 4:-0.731463 5:-0.306197 6:-0.73468 7:-0.986714 
-32 32 1:-0.836475 2:-0.800531 3:-0.8821 4:-0.860935 5:-0.801889 6:-0.939585 7:-0.99682 
-32 32 1:-0.650023 2:-0.679612 3:-0.929882 4:-0.919607 5:-0.665705 6:-0.926507 7:-0.996765 
-32 32 1:-0.585252 2:-0.532498 3:-0.786684 4:-0.765192 5:-0.529838 6:-0.819953 7:-0.988194 
-32 32 1:-0.890036 2:-0.856309 3:-0.901589 4:-0.876504 5:-0.858739 6:-0.955874 7:-0.997701 
-32 0 1:-0.294139 2:-0.333365 3:-0.596016 4:-0.544261 5:-0.3085 6:-0.606466 7:-0.961815 
-32 32 1:-0.611286 2:-0.59795 3:-0.892571 4:-0.881759 5:-0.589775 6:-0.887928 7:-0.994046 
-32 -32 1:-0.65744 2:-0.677422 3:-0.930356 4:-0.917053 5:-0.665225 6:-0.924875 7:-0.996622 
-32 -32 1:-0.423809 2:-0.508344 3:-0.711476 4:-0.645401 5:-0.479786 6:-0.744512 7:-0.980038 
-32 -32 1:-0.515859 2:-0.384398 3:-0.727968 4:-0.702876 5:-0.39229 6:-0.74562 7:-0.985235 
0 -32 1:-0.801233 2:-0.824643 3:-0.941657 4:-0.929589 5:-0.81572 6:-0.962479 7:-0.998494 
-32 -32 1:-0.667165 2:-0.638469 3:-0.836968 4:-0.800162 5:-0.634195 6:-0.855761 7:-0.991944 
-32 -32 1:-0.79747 2:-0.788115 3:-0.905553 4:-0.867468 5:-0.784252 6:-0.915028 7:-0.99567 
-32 -32 1:-0.801656 2:-0.678605 3:-0.926483 4:-0.881619 5:-0.692755 6:-0.898978 7:-0.995651 
-22.50991658218379 0 1:-0.89502 2:-0.868696 3:-0.881981 4:-0.864416 5:-0.870093 6:-0.956704 7:-0.997589 
-13.62061986414372 -32 1:-0.81571 2:-0.779592 3:-0.907937 4:-0.882111 5:-0.780427 6:-0.933581 7:-0.996423 
-32 -32 1:-0.528085 2:-0.480863 3:-0.916873 4:-0.898823 5:-0.475817 6:-0.877662 7:-0.995641 
0 -0.5008588257202832 1:-0.999087 2:-0.984437 3:-0.991601 4:-0.966271 5:-0.986756 6:-0.990047 7:-0.999751 
0 -32 1:-0.906033 2:-0.878188 3:-0.916199 4:-0.89313 5:-0.880116 6:-0.9629 7:-0.998125 
0 -32 1:-0.853489 2:-0.840656 3:-0.947294 4:-0.932983 5:-0.838827 6:-0.964422 7:-0.998544 
-32 -32 1:-0.71578 2:-0.642512 3:-0.901802 4:-0.88082 5:-0.646545 6:-0.898108 7:-0.994963 
-32 -32 1:-0.740186 2:-0.708518 3:-0.831108 4:-0.788377 5:-0.706648 6:-0.882947 7:-0.993047 
0 -9.228732448681182 1:-0.873264 2:-0.860975 3:-0.886796 4:-0.871299 5:-0.859585 6:-0.949917 7:-0.996552 
-32 -32 1:-0.680185 2:-0.686294 3:-0.837525 4:-0.821288 5:-0.676885 6:-0.882219 7:-0.991664 
-32 -32 1:-0.768281 2:-0.723748 3:-0.890927 4:-0.872134 5:-0.724649 6:-0.912739 7:-0.995043 
0 -32 1:-0.839715 2:-0.880611 3:-0.97253 4:-0.962828 5:-0.869956 6:-0.982708 7:-0.999461 
-32 -32 1:-0.784135 2:-0.754637 3:-0.855718 4:-0.832408 5:-0.753592 6:-0.91716 7:-0.995373 
-32 -32 1:-0.330462 2:-0.197772 3:-0.722469 4:-0.685583 5:-0.200939 6:-0.662186 7:-0.977081 
-32 -32 1:-0.816273 2:-0.79115 3:-0.894367 4:-0.874721 5:-0.790268 6:-0.938168 7:-0.996736 
0 -32 1:-0.941106 2:-0.943571 3:-0.978334 4:-0.960141 5:-0.941658 6:-0.989761 7:-0.999567 
-32 -32 1:-0.85875 2:-0.816227 3:-0.866143 4:-0.835758 5:-0.819212 6:-0.934373 7:-0.996086 
-32 -15.86379804184269 1:-0.374864 2:-0.663777 3:-1 4:-1 5:-0.601739 6:-0.967355 7:-0.999584 
0 -32 1:-0.850367 2:-0.782371 3:-0.94325 4:-0.919884 5:-0.789144 6:-0.937018 7:-0.996924 
-32 -32 1:-0.819252 2:-0.812791 3:-0.872741 4:-0.858182 5:-0.80905 6:-0.930311 7:-0.995468 
0 -32 1:-0.90861 2:-0.895993 3:-0.94376 4:-0.926081 5:-0.895592 6:-0.97398 7:-0.99868 
-11.15058627792678 -2.481713374910464 1:0.554962 2:0.533946 3:0.0118671 4:0.138469 5:0.578468 6:0.601702 7:-0.485816 
-32 -32 1:-0.451937 2:-0.657823 3:-0.838342 4:-0.770976 5:-0.610904 6:-0.828215 7:-0.990941 
-32 -32 1:-0.189058 2:-0.433079 3:-0.59975 4:-0.507257 5:-0.373181 6:-0.587516 7:-0.964867 
-32 -32 1:-0.737364 2:-0.67234 3:-0.908027 4:-0.885174 5:-0.675648 6:-0.903576 7:-0.99464 
0 -32 1:-0.887255 2:-0.862839 3:-0.890279 4:-0.866026 5:-0.863729 6:-0.947905 7:-0.997079 
-32 -32 1:-0.729153 2:-0.752955 3:-0.835383 4:-0.798141 5:-0.742059 6:-0.891185 7:-0.992781 
-32 -32 1:-0.515882 2:-0.637478 3:-0.774185 4:-0.705837 5:-0.605527 6:-0.817255 7:-0.986651 
-32 -32 1:-0.834858 2:-0.778593 3:-0.857283 4:-0.843021 5:-0.783108 6:-0.925378 7:-0.99571 
-32 -32 1:-0.524344 2:-0.426466 3:-0.787116 4:-0.76218 5:-0.429295 6:-0.791696 7:-0.989133 
0 -32 1:-0.864598 2:-0.809802 3:-0.916097 4:-0.891399 5:-0.814875 6:-0.939852 7:-0.996984 
-32 -32 1:-0.667106 2:-0.562132 3:-0.783736 4:-0.73743 5:-0.569867 6:-0.818594 7:-0.99064 
-32 -32 1:-0.79851 2:-0.733951 3:-0.919038 4:-0.897224 5:-0.738808 6:-0.920719 7:-0.995786 
0 -32 1:-0.765972 2:-0.792695 3:-0.917841 4:-0.90852 5:-0.782315 6:-0.949463 7:-0.997733 
-32 -32 1:-0.38252 2:-0.515145 3:-0.809466 4:-0.739165 5:-0.477919 6:-0.778409 7:-0.985662 
0 -32 1:-0.98748 2:-0.941259 3:-0.971344 4:-0.953862 5:-0.948241 6:-0.984791 7:-0.999148 
-32 -32 1:-0.572307 2:-0.534479 3:-0.889865 4:-0.87157 5:-0.529126 6:-0.877102 7:-0.994723 
-32 -32 1:-0.567891 2:-0.563234 3:-0.946939 4:-0.934989 5:-0.552542 6:-0.895413 7:-0.995435 
-32 -32 1:-0.610184 2:-0.538184 3:-0.830156 4:-0.802459 5:-0.539216 6:-0.837487 7:-0.99056 
0 -32 1:-0.848327 2:-0.819036 3:-0.939694 4:-0.924333 5:-0.819661 6:-0.957448 7:-0.998019 
-32 -32 1:-0.665432 2:-0.676617 3:-0.884368 4:-0.875878 5:-0.666017 6:-0.90956 7:-0.995331 
-32 0 1:-0.937079 2:-0.918413 3:-0.880342 4:-0.85926 5:-0.919719 6:-0.966043 7:-0.99759 
-32 -32 1:-0.81216 2:-0.807192 3:-0.858499 4:-0.847194 5:-0.803028 6:-0.93288 7:-0.995902 
0 -32 1:-0.855264 2:-0.883393 3:-0.965808 4:-0.956764 5:-0.875161 6:-0.978965 7:-0.999155 
-32 -32 1:-0.807508 2:-0.814492 3:-0.87825 4:-0.86688 5:-0.808323 6:-0.950466 7:-0.997897 
