svm_type c_svc
kernel_type rbf
gamma 0.125
nr_class 3
total_sv 176
rho 2.89139 0.354441 1.09247
label 2 3 1
nr_sv 68 54 54
SV
128 128 1:-0.721645 2:-0.668491 3:-0.924071 4:-0.908331 5:-0.666941 6:-0.93848 7:-0.997301 
0 128 1:-0.781442 2:-0.576689 3:-0.896704 4:-0.859063 5:-0.606412 6:-0.904035 7:-0.996046 
128 128 1:-0.319798 2:-0.212016 3:-0.773471 4:-0.70359 5:-0.204033 6:-0.723909 7:-0.981474 
128 128 1:-0.942474 2:-0.901728 3:-0.911142 4:-0.886828 5:-0.907056 6:-0.971005 7:-0.998163 
0 128 1:-0.844866 2:-0.749556 3:-0.890136 4:-0.864676 5:-0.761159 6:-0.938738 7:-0.997269 
128 0 1:-0.527085 2:-0.283507 3:-0.672613 4:-0.609709 5:-0.309964 6:-0.711336 7:-0.983072 
0 128 1:-0.775952 2:-0.655192 3:-0.916263 4:-0.891757 5:-0.668744 6:-0.916081 7:-0.995339 
0 128 1:-0.725379 2:-0.525913 3:-0.929234 4:-0.901511 5:-0.552289 6:-0.893995 7:-0.995243 
128 128 1:-0.761292 2:-0.7166 3:-0.861326 4:-0.832712 5:-0.715101 6:-0.913379 7:-0.994182 
128 128 1:-0.685762 2:-0.616021 3:-0.914409 4:-0.90483 5:-0.616119 6:-0.925123 7:-0.99659 
128 0 1:-0.631796 2:-0.356423 3:-0.751484 4:-0.716631 5:-0.393293 6:-0.788438 7:-0.989705 
128 0 1:-0.560079 2:-0.347742 3:-0.703637 4:-0.67921 5:-0.369649 6:-0.773576 7:-0.98653 
0 128 1:-0.965716 2:-0.884545 3:-0.94714 4:-0.915299 5:-0.898517 6:-0.970153 7:-0.998495 
128 0 1:-0.474488 2:-0.269405 3:-0.805134 4:-0.772057 5:-0.286356 6:-0.776474 7:-0.984467 
128 0 1:-0.5358 2:-0.339411 3:-0.682051 4:-0.598737 5:-0.357276 6:-0.693644 7:-0.988117 
128 128 1:-0.451267 2:-0.499199 3:-0.751944 4:-0.666522 5:-0.467158 6:-0.770181 7:-0.986996 
128 0 1:-0.500482 2:-0.278139 3:-0.839402 4:-0.805222 5:-0.299453 6:-0.801132 7:-0.987626 
0 128 1:-0.842044 2:-0.693632 3:-0.907364 4:-0.880812 5:-0.715196 6:-0.926807 7:-0.995923 
128 128 1:-0.654398 2:-0.451743 3:-0.834373 4:-0.795953 5:-0.475756 6:-0.844375 7:-0.991751 
128 0 1:-0.415413 2:-0.258543 3:-0.83308 4:-0.774936 5:-0.263874 6:-0.759518 7:-0.988197 
0 128 1:-0.705532 2:-0.548481 3:-0.913515 4:-0.895596 5:-0.565977 6:-0.913545 7:-0.996542 
128 128 1:-0.791544 2:-0.65669 3:-0.869847 4:-0.850756 5:-0.673569 6:-0.921178 7:-0.996398 
128 0 1:-0.458697 2:-0.147653 3:-0.662922 4:-0.608259 5:-0.184055 6:-0.66821 7:-0.978053 
128 128 1:-0.717547 2:-0.603102 3:-0.877286 4:-0.863596 5:-0.613013 6:-0.909743 7:-0.995357 
0 128 1:-0.767933 2:-0.701397 3:-0.95107 4:-0.939382 5:-0.704323 6:-0.949935 7:-0.998012 
128 68.39043237995966 1:-0.229609 2:-0.135636 3:-0.661989 4:-0.582864 5:-0.12126 6:-0.618416 7:-0.968389 
128 128 1:-0.962741 2:-0.984217 3:-0.957657 4:-0.953983 5:-0.978583 6:-0.997002 7:-0.999761 
128 128 1:-0.520696 2:-0.350576 3:-0.777859 4:-0.749329 5:-0.362824 6:-0.797944 7:-0.984782 
128 0 1:-0.540953 2:-0.257279 3:-0.82983 4:-0.780555 5:-0.291926 6:-0.779172 7:-0.988562 
128 0 1:-0.238479 2:-0.0106363 3:-0.41516 4:-0.313407 5:-0.0220396 6:-0.42091 7:-0.959855 
128 0 1:-0.0564829 2:0.0562868 3:-0.686137 4:-0.598617 5:0.0743333 6:-0.544901 7:-0.964729 
128 0 1:-0.479219 2:-0.195697 3:-0.836444 4:-0.823861 5:-0.227734 6:-0.818972 7:-0.993089 
0 128 1:-0.636741 2:-0.445584 3:-0.905423 4:-0.887642 5:-0.466677 6:-0.886736 7:-0.994751 
128 0 1:-0.667255 2:-0.430337 3:-0.758137 4:-0.72417 5:-0.46139 6:-0.828155 7:-0.99101 
0 128 1:-0.976598 2:-0.987979 3:-0.964575 4:-0.957597 5:-0.98484 6:-0.996906 7:-0.999769 
128 24.63414748632574 1:0.069889 2:0.595374 3:-0.297508 4:-0.200589 5:0.540372 6:-0.00366439 7:-0.869649 
128 128 1:-0.815129 2:-0.761594 3:-0.882572 4:-0.861064 5:-0.764025 6:-0.93981 7:-0.996618 
0 128 1:-0.937599 2:-0.887197 3:-0.931395 4:-0.913558 5:-0.894154 6:-0.974482 7:-0.998548 
0 128 1:-0.676081 2:-0.580039 3:-0.96319 4:-0.950832 5:-0.584724 6:-0.933907 7:-0.99762 
128 128 1:-0.595422 2:-0.427428 3:-0.849008 4:-0.805702 5:-0.442397 6:-0.835997 7:-0.99004 
128 126.7015618084596 1:-0.26973 2:-0.197509 3:-0.954034 4:-0.942528 5:-0.180683 6:-0.890977 7:-0.997091 
0 128 1:-0.854363 2:-0.633762 3:-0.925364 4:-0.894761 5:-0.669542 6:-0.922818 7:-0.996707 
0 128 1:-0.936898 2:-0.945804 3:-0.995642 4:-0.991796 5:-0.941476 6:-0.996141 7:-1 
0 128 1:-0.871492 2:-0.813491 3:-0.935182 4:-0.916414 5:-0.819126 6:-0.965874 7:-0.998515 
128 0 1:-0.214945 2:0.154574 3:-0.553491 4:-0.519847 5:0.117265 6:-0.514855 7:-0.944522 
128 128 1:-0.662855 2:-0.475091 3:-0.728658 4:-0.682398 5:-0.496631 6:-0.80974 7:-0.990783 
7.641825526182799 128 1:-0.798713 2:-0.811935 3:-0.958949 4:-0.954802 5:-0.80101 6:-0.97924 7:-0.99961 
128 0 1:-0.658108 2:-0.417585 3:-0.73008 4:-0.679567 5:-0.44894 6:-0.780195 7:-0.990612 
128 128 1:-0.749722 2:-0.629742 3:-0.865437 4:-0.842978 5:-0.642049 6:-0.910178 7:-0.9957 
128 128 1:-0.710219 2:-0.546327 3:-0.826858 4:-0.793475 5:-0.565317 6:-0.873604 7:-0.993266 
128 128 1:-0.670776 2:-0.629115 3:-0.84871 4:-0.826024 5:-0.623257 6:-0.906587 7:-0.994742 
128 128 1:-0.457729 2:-0.33212 3:-0.602709 4:-0.543055 5:-0.333287 6:-0.692563 7:-0.974283 
128 128 1:-0.745961 2:-0.691105 3:-0.854225 4:-0.842649 5:-0.690895 6:-0.919153 7:-0.994916 
128 128 1:-0.806359 2:-0.744567 3:-0.903605 4:-0.889314 5:-0.748198 6:-0.945279 7:-0.997243 
0 128 1:-0.901262 2:-0.86778 3:-0.928385 4:-0.912588 5:-0.870007 6:-0.971831 7:-0.998603 
0 128 1:-0.742257 2:-0.543757 3:-0.889977 4:-0.854491 5:-0.570655 6:-0.889328 7:-0.994983 
128 128 1:-0.520187 2:-0.420072 3:-0.751326 4:-0.693599 5:-0.419012 6:-0.781624 7:-0.985428 
20.4502047869645 128 1:-0.693083 2:-0.535374 3:-0.881868 4:-0.868781 5:-0.552474 6:-0.89197 7:-0.993528 
128 128 1:-0.503251 2:-0.404613 3:-0.813583 4:-0.798374 5:-0.402564 6:-0.842756 7:-0.990615 
128 0 1:-0.446144 2:-0.0813344 3:-0.763006 4:-0.731463 5:-0.127416 6:-0.734264 7:-0.986815 
128 128 1:-0.827862 2:-0.73879 3:-0.8821 4:-0.860935 5:-0.748498 6:-0.93912 7:-0.996922 
128 128 1:-0.550963 2:-0.360017 3:-0.822661 4:-0.7876 5:-0.377483 6:-0.815566 7:-0.988193 
128 128 1:-0.642284 2:-0.581235 3:-0.929882 4:-0.919607 5:-0.577866 6:-0.926045 7:-0.996866 
128 128 1:-0.577816 2:-0.38955 3:-0.786684 4:-0.765192 5:-0.40763 6:-0.819516 7:-0.988294 
0 128 1:-0.961112 2:-0.972043 3:-0.984773 4:-0.980618 5:-0.968343 6:-0.995541 7:-0.999842 
88.22869120697668 128 1:-0.881171 2:-0.811468 3:-0.901589 4:-0.876504 5:-0.819729 6:-0.955405 7:-0.997802 
128 0 1:-0.556206 2:-0.270439 3:-0.744032 4:-0.696228 5:-0.306121 6:-0.758703 7:-0.986483 
128 0 1:-0.288069 2:-0.130084 3:-0.596016 4:-0.544261 5:-0.130302 6:-0.606081 7:-0.961914 
-128 0 1:-0.50439 2:-0.101991 3:-0.42305 4:-0.374862 5:-0.157642 6:-0.537243 7:-0.970398 
-128 128 1:-0.540687 2:-0.519287 3:-0.743 4:-0.68028 5:-0.504144 6:-0.800088 7:-0.987202 
-128 0 1:-0.449689 2:-0.350062 3:-0.7009 4:-0.602893 5:-0.345962 6:-0.697841 7:-0.9764 
-128 128 1:-0.389775 2:-0.374696 3:-0.905423 4:-0.896771 5:-0.352043 6:-0.885676 7:-0.995072 
-128 128 1:-0.552578 2:-0.418247 3:-0.741395 4:-0.71633 5:-0.425035 6:-0.80115 7:-0.981704 
-128 128 1:-0.77051 2:-0.721022 3:-0.851785 4:-0.838883 5:-0.720819 6:-0.924085 7:-0.994848 
-128 128 1:-0.593442 2:-0.427906 3:-0.820662 4:-0.789611 5:-0.442326 6:-0.834808 7:-0.989238 
0 122.132948061204 1:-0.0580342 2:-0.139469 3:-0.726856 4:-0.637251 5:-0.0846279 6:-0.598437 7:-0.971143 
-128 57.09637190854765 1:-0.43943 2:-0.223043 3:-0.744097 4:-0.717549 5:-0.240674 6:-0.745158 7:-0.982973 
-128 128 1:-0.515806 2:-0.343292 3:-0.777128 4:-0.748448 5:-0.355789 6:-0.795112 7:-0.985622 
-128 0 1:-0.639514 2:-0.288627 3:-0.58068 4:-0.54347 5:-0.340152 6:-0.70407 7:-0.989106 
0 14.84185977723993 1:0.698389 2:0.198743 3:-0.100595 4:0.0716092 5:0.364586 6:0.258909 7:-0.853724 
-128 128 1:-0.562065 2:-0.323182 3:-0.868108 4:-0.841137 5:-0.35021 6:-0.833531 7:-0.990438 
-128 128 1:-0.610645 2:-0.434797 3:-0.768459 4:-0.743263 5:-0.451892 6:-0.812173 7:-0.988674 
-128 128 1:-0.821119 2:-0.750665 3:-0.877682 4:-0.85831 5:-0.756557 6:-0.933616 7:-0.996105 
-128 128 1:-0.63628 2:-0.420904 3:-0.796875 4:-0.76396 5:-0.446574 6:-0.827149 7:-0.990496 
-128 128 1:-0.755779 2:-0.716257 3:-0.900761 4:-0.890162 5:-0.713547 6:-0.951082 7:-0.998592 
-128 0 1:-0.468881 2:-0.287532 3:-0.733463 4:-0.719208 5:-0.299744 6:-0.774674 7:-0.984782 
-128 0 1:-0.408697 2:-0.161509 3:-0.627962 4:-0.576191 5:-0.183701 6:-0.619191 7:-0.961329 
-16.20580759379503 0 1:-0.250297 2:0.157384 3:-0.402053 4:-0.37093 5:0.111354 6:-0.410648 7:-0.912351 
-128 0 1:-0.407975 2:-0.42936 3:-0.669132 4:-0.589074 5:-0.400548 6:-0.711684 7:-0.976864 
-128 0 1:-0.215726 2:0.189987 3:-0.694533 4:-0.666865 5:0.145776 6:-0.600013 7:-0.969251 
-128 128 1:-0.643967 2:-0.346418 3:-0.885069 4:-0.85142 5:-0.388005 6:-0.849419 7:-0.993587 
-128 128 1:-0.804106 2:-0.708155 3:-0.885785 4:-0.858397 5:-0.718176 6:-0.91635 7:-0.995817 
-128 128 1:-0.700981 2:-0.520155 3:-0.868754 4:-0.852437 5:-0.541972 6:-0.901619 7:-0.997176 
-128 128 1:-0.757176 2:-0.675512 3:-0.906341 4:-0.893912 5:-0.680859 6:-0.943638 7:-0.998331 
-128 128 1:-0.863112 2:-0.869678 3:-0.982439 4:-0.976355 5:-0.862708 6:-0.982683 7:-0.999476 
-97.97176511572525 0 1:0.137551 2:0.24006 3:-0.306522 4:-0.140455 5:0.268167 6:-0.063355 7:-0.878566 
-128 0 1:-0.335107 2:-0.233875 3:-0.59941 4:-0.495423 5:-0.225288 6:-0.615378 7:-0.976979 
-128 128 1:-0.547424 2:-0.516012 3:-0.925328 4:-0.924195 5:-0.503051 6:-0.91186 7:-0.996083 
-128 128 1:-0.780468 2:-0.78854 3:-0.963095 4:-0.956715 5:-0.777829 6:-0.971659 7:-0.999072 
-45.73360299435266 128 1:-0.209434 2:-0.362729 3:-0.729295 4:-0.646494 5:-0.300579 6:-0.702556 7:-0.98146 
-128 0 1:-0.279978 2:0.135728 3:-0.729307 4:-0.680347 5:0.0869334 6:-0.618124 7:-0.976216 
-128 0 1:-0.320849 2:-0.00760572 3:-0.776116 4:-0.746663 5:-0.0386619 6:-0.727947 7:-0.987399 
-9.469870176981983 14.97542989605134 1:1 2:0.896788 3:-0.278316 4:-0.167852 5:1 6:0.410226 7:-0.657206 
-128 128 1:-0.349568 2:-0.0692736 3:-0.791368 4:-0.748755 5:-0.095277 6:-0.723585 7:-0.979885 
-87.69633522481898 0 1:-0.17577 2:0.240502 3:-0.647586 4:-0.59931 5:0.195957 6:-0.491998 7:-0.959173 
-128 128 1:-0.77117 2:-0.711593 3:-0.900043 4:-0.862553 5:-0.713333 6:-0.914399 7:-0.995298 
-128 128 1:-0.694532 2:-0.485873 3:-0.865072 4:-0.832884 5:-0.512704 6:-0.873293 7:-0.993813 
0 8.037261047666394 1:-0.121845 2:0.410648 3:1 4:1 5:0.346299 6:1 7:1 
-115.2433404144501 23.8251398497741 1:-0.269975 2:0.307239 3:-0.842813 4:-0.808391 5:0.22821 6:-0.688296 7:-0.98701 
-128 0 1:-0.530025 2:-0.429836 3:-0.713099 4:-0.699825 5:-0.429201 6:-0.802482 7:-0.984081 
-128 0 1:-0.539834 2:-0.359342 3:-0.679552 4:-0.640161 5:-0.374359 6:-0.75226 7:-0.983568 
-128 128 1:-0.561406 2:-0.510071 3:-0.732204 4:-0.678599 5:-0.501476 6:-0.806327 7:-0.986157 
-128 128 1:-0.792327 2:-0.709145 3:-0.808282 4:-0.786705 5:-0.71625 6:-0.904354 7:-0.993644 
-128 128 1:-0.687309 2:-0.597827 3:-0.866179 4:-0.814189 5:-0.601736 6:-0.87625 7:-0.993352 
-128 128 1:-0.637734 2:-0.471114 3:-0.77965 4:-0.760141 5:-0.487591 6:-0.836972 7:-0.990417 
-128 128 1:-0.852924 2:-0.770101 3:-0.887682 4:-0.860771 5:-0.779671 6:-0.937502 7:-0.996148 
-128 128 1:-0.781195 2:-0.766801 3:-0.905581 4:-0.899767 5:-0.760384 6:-0.953784 7:-0.997645 
-128 0 1:-0.225022 2:-0.0227784 3:-0.555975 4:-0.465165 5:-0.0287604 6:-0.491288 7:-0.933207 
-128 128 1:-0.704481 2:-0.555259 3:-0.843855 4:-0.791556 5:-0.571225 6:-0.864084 7:-0.992478 
-128 128 1:-0.730177 2:-0.647757 3:-0.814958 4:-0.783454 5:-0.652119 6:-0.889102 7:-0.992387 
-128 128 1:-0.577559 2:-0.465577 3:-0.808128 4:-0.794274 5:-0.469168 6:-0.848774 7:-0.989037 
-128 128 1:-0.597059 2:-0.489125 3:-0.84337 4:-0.826152 5:-0.492763 6:-0.860412 7:-0.990506 
-128 -63.59165684657124 1:-0.649667 2:-0.578382 3:-0.930356 4:-0.917053 5:-0.577263 6:-0.924414 7:-0.996724 
-128 -128 1:-0.417131 2:-0.358078 3:-0.711476 4:-0.645401 5:-0.344916 6:-0.744093 7:-0.980138 
-128 0 1:-0.868674 2:-0.766188 3:-0.926222 4:-0.897928 5:-0.780149 6:-0.94473 7:-0.99733 
-128 -128 1:-0.50875 2:-0.196579 3:-0.727968 4:-0.702876 5:-0.235288 6:-0.745201 7:-0.985336 
-128 0 1:-0.792785 2:-0.770207 3:-0.941657 4:-0.929589 5:-0.765828 6:-0.962008 7:-0.998595 
-128 -128 1:-0.659346 2:-0.527628 3:-0.836968 4:-0.800162 5:-0.538384 6:-0.855316 7:-0.992045 
-128 -128 1:-0.789039 2:-0.722613 3:-0.905553 4:-0.867468 5:-0.7264 6:-0.914569 7:-0.995771 
-128 -128 1:-0.793206 2:-0.579924 3:-0.926483 4:-0.881619 5:-0.611757 6:-0.898523 7:-0.995752 
-128 -128 1:-0.807194 2:-0.711507 3:-0.907937 4:-0.882111 5:-0.721607 6:-0.933118 7:-0.996524 
-128 -128 1:-0.520918 2:-0.322271 3:-0.916873 4:-0.898823 5:-0.339943 6:-0.877212 7:-0.995742 
-128 -128 1:-0.680306 2:-0.490163 3:-0.804919 4:-0.752021 5:-0.512884 6:-0.84035 7:-0.991053 
-128 0 1:-0.897093 2:-0.839975 3:-0.916199 4:-0.89313 5:-0.846513 6:-0.962429 7:-0.998226 
-128 0 1:-0.844796 2:-0.791073 3:-0.947294 4:-0.932983 5:-0.79478 6:-0.963951 7:-0.998645 
-128 -128 1:-0.846453 2:-0.794203 3:-0.87172 4:-0.836847 5:-0.7977 6:-0.934919 7:-0.995704 
-128 -128 1:-0.707732 2:-0.532895 3:-0.901802 4:-0.88082 5:-0.553858 6:-0.897653 7:-0.995064 
-128 -128 1:-0.864478 2:-0.817547 3:-0.886796 4:-0.871299 5:-0.820788 6:-0.949449 7:-0.996653 
-11.44405824087348 -21.91503757755141 1:0.128964 2:0.544194 3:0.22352 4:0.35396 5:0.512588 6:0.513927 7:-0.70697 
-128 -128 1:-0.672304 2:-0.589942 3:-0.837525 4:-0.821288 5:-0.591873 6:-0.881768 7:-0.991765 
-128 -128 1:-0.759987 2:-0.638744 3:-0.890927 4:-0.872134 5:-0.65172 6:-0.91228 7:-0.995144 
0 -128 1:-0.338244 2:-0.570638 3:-0.907773 4:-0.842798 5:-0.498862 6:-0.845339 7:-0.993779 
-128 -128 1:-0.324222 2:0.0465903 3:-0.722469 4:-0.685583 5:0.00446684 6:-0.661787 7:-0.977181 
-128 -128 1:-0.783838 2:-0.683847 3:-0.906178 4:-0.884712 5:-0.693787 6:-0.929345 7:-0.996473 
-128 -128 1:-0.850032 2:-0.759242 3:-0.866143 4:-0.835758 5:-0.770203 6:-0.933909 7:-0.996187 
-35.39789872814797 0 1:-0.907049 2:-0.89195 3:-0.955271 4:-0.948077 5:-0.890929 6:-0.979864 7:-0.999075 
-44.88418470572368 0 1:-0.368415 2:-0.560602 3:-1 4:-1 5:-0.497719 6:-0.966883 7:-0.999686 
-128 0 1:-0.841688 2:-0.715127 3:-0.94325 4:-0.919884 5:-0.732529 6:-0.936553 7:-0.997026 
-128 -128 1:-0.810719 2:-0.754764 3:-0.872741 4:-0.858182 5:-0.75747 6:-0.929849 7:-0.99557 
-128 0 1:-0.807964 2:-0.815309 3:-0.965294 4:-0.959031 5:-0.805886 6:-0.971974 7:-0.999015 
-128 0 1:-0.899659 2:-0.863175 3:-0.94376 4:-0.926081 5:-0.865904 6:-0.973507 7:-0.998782 
-128 -128 1:-0.845214 2:-0.787025 3:-0.853923 4:-0.82924 5:-0.791597 6:-0.934207 7:-0.995835 
0 -12.34412355757244 1:0.557049 2:1 3:0.0118671 4:0.138469 5:0.981032 6:0.601798 7:-0.485892 
-128 -128 1:-0.183481 2:-0.260009 3:-0.59975 4:-0.507257 5:-0.211344 6:-0.587135 7:-0.964967 
-128 -128 1:-0.729215 2:-0.571761 3:-0.908027 4:-0.885174 5:-0.590323 6:-0.90312 7:-0.994741 
-128 -15.05819255878831 1:-0.878404 2:-0.819976 3:-0.890279 4:-0.866026 5:-0.825981 6:-0.947437 7:-0.99718 
-128 -128 1:-0.721042 2:-0.6768 3:-0.835383 4:-0.798141 5:-0.673534 6:-0.890731 7:-0.992882 
-128 -128 1:-0.508772 2:-0.526336 3:-0.774185 4:-0.705837 5:-0.502464 6:-0.816819 7:-0.986751 
-128 -128 1:-0.517194 2:-0.251392 3:-0.787116 4:-0.76218 5:-0.281654 6:-0.791266 7:-0.989234 
-128 -128 1:-0.659287 2:-0.428163 3:-0.783736 4:-0.73743 5:-0.457783 6:-0.818158 7:-0.990741 
-128 0 1:-0.757689 2:-0.728579 3:-0.917841 4:-0.90852 5:-0.723973 6:-0.948995 7:-0.997834 
-128 0 1:-0.877785 2:-0.843694 3:-0.900649 4:-0.887071 5:-0.845054 6:-0.957723 7:-0.997253 
-128 -128 1:-0.376036 2:-0.366939 3:-0.809466 4:-0.739165 5:-0.342577 6:-0.777983 7:-0.985763 
-128 0 1:-0.978159 2:-0.922155 3:-0.971344 4:-0.953862 5:-0.931871 6:-0.984315 7:-0.99925 
-128 0 1:-0.782061 2:-0.778984 3:-0.984405 4:-0.981253 5:-0.770456 6:-0.968524 7:-0.999054 
0 -128 1:-0.102906 2:-0.468292 3:-0.8406 4:-0.743083 5:-0.361434 6:-0.762302 7:-0.987957 
-128 -128 1:-0.564932 2:-0.392131 3:-0.889865 4:-0.87157 5:-0.406737 6:-0.876652 7:-0.994824 
-128 -128 1:-0.560538 2:-0.429599 3:-0.946939 4:-0.934989 5:-0.436076 6:-0.894959 7:-0.995536 
-128 -128 1:-0.602632 2:-0.396959 3:-0.830156 4:-0.802459 5:-0.41938 6:-0.837046 7:-0.990661 
-128 0 1:-0.786976 2:-0.758953 3:-0.924543 4:-0.916329 5:-0.755365 6:-0.947825 7:-0.99723 
-128 0 1:-0.839658 2:-0.762902 3:-0.939694 4:-0.924333 5:-0.770766 6:-0.956979 7:-0.998121 
-128 -128 1:-0.657621 2:-0.577333 3:-0.884368 4:-0.875878 5:-0.578256 6:-0.909103 7:-0.995432 
-128 0 1:-0.927994 2:-0.892387 3:-0.880342 4:-0.85926 5:-0.896134 6:-0.965571 7:-0.997691 
-128 0 1:-0.846562 2:-0.846758 3:-0.965808 4:-0.956764 5:-0.840305 6:-0.97849 7:-0.999257 
-128 -128 1:-0.660941 2:-0.45775 3:-0.888332 4:-0.873474 5:-0.482139 6:-0.879179 7:-0.993536 
-128 -128 1:-0.79903 2:-0.756981 3:-0.87825 4:-0.86688 5:-0.756559 6:-0.949999 7:-0.997999 
