svm_type c_svc
kernel_type rbf
gamma 2
nr_class 3
total_sv 163
rho 0.158875 -0.102564 -0.09427
label 1 3 2
nr_sv 51 46 66
SV
0 0.5 1:-0.668424 2:-0.482086 
0.5 0.5 1:-0.351705 2:-0.403872 
0.5 0.5 1:-0.164634 2:0.717046 
0 0.5 1:-0.564411 2:-0.524513 
0.2361102740796756 0.5 1:-0.783288 2:-0.523237 
0.4058556593104227 0.5 1:-0.487829 2:-0.431056 
0.5 0.5 1:-0.114783 2:-0.0133288 
0 0.5 1:-0.936099 2:-0.859253 
0 0.5 1:-0.478926 2:-0.509245 
0 0.5 1:-0.573234 2:-0.44649 
0.5 0.5 1:-0.993474 2:-1 
0.5 0.5 1:-0.940777 2:-0.962188 
0 0.5 1:-0.91538 2:-0.918542 
0.5 0.5 1:-0.635075 2:-0.294956 
0.5 0.5 1:-0.781894 2:-0.465053 
0.5 0.5 1:-0.372396 2:0.669546 
0 0.5 1:-0.472648 2:-0.452857 
0 0.5 1:-0.286146 2:-0.554707 
0 0.5 1:-0.665479 2:-0.484302 
0.5 0.5 1:-0.388711 2:-0.307749 
0.5 0.5 1:-0.593125 2:-0.420569 
0 0.5 1:-0.587512 2:-0.520882 
0 0.5 1:-0.588782 2:-0.545159 
0.04273774769293984 0.5 1:-0.943139 2:-0.915666 
0.5 0.5 1:-0.59734 2:-0.288659 
0.5 0.5 1:-0.418861 2:-0.109179 
0 0.4677109768371706 1:-0.929956 2:-0.869366 
0.5 0.5 1:-0.623137 2:-0.396463 
0.5 0.5 1:-0.264382 2:-0.158088 
0.5 0.5 1:-0.446965 2:-0.0314348 
0.5 0.5 1:-0.672355 2:-0.334178 
0 0.2830562652889435 1:-0.666024 2:-0.580666 
0 0.5 1:-0.769225 2:-0.551063 
0.5 0.5 1:-0.664008 2:-0.405288 
0 0.5 1:-0.631316 2:-0.54048 
0.5 0.5 1:-0.362538 2:-0.120924 
0.5 0.5 1:-0.115087 2:-0.387036 
0.5 0.5 1:-0.404591 2:-0.268642 
0.5 0.5 1:-0.761566 2:-0.266934 
0.5 0.5 1:-0.261 2:-0.225941 
0 0.2639966252717556 1:-0.794531 2:-0.610269 
0.5 0.5 1:-0.155741 2:-0.249374 
0.5 0.5 1:-0.419188 2:-0.230373 
0 0.5 1:-0.593793 2:-0.50755 
0.5 0.5 1:-0.349637 2:-0.246371 
0 0.5 1:-0.605349 2:-0.509791 
0.5 0.5 1:-0.328004 2:-0.332045 
0.5 0.5 1:1 2:0.0908952 
0.5 0.5 1:-0.577043 2:-0.283446 
0.5 0.5 1:-0.445949 2:-0.197157 
0.5 0.5 1:-0.38391 2:-0.420696 
-0 0.5 1:0.126956 2:0.782391 
-0.5 0.5 1:-0.781368 2:-0.573588 
-0.5 0.5 1:-0.724641 2:-0.390819 
-0.5 0.5 1:-0.538424 2:0.0596223 
-0.5 0.5 1:-0.496723 2:-0.624236 
-0.5 0.5 1:-0.474277 2:-0.205944 
-0.5 0.5 1:-0.708729 2:-0.151333 
-0.5 0.5 1:-0.506251 2:-0.325886 
-0 0.5 1:-0.236552 2:0.319932 
-0 0.5 1:0.222182 2:0.36001 
-0 0.5 1:0.028274 2:0.513956 
-0.5 0.5 1:0.0321812 2:-0.0505439 
-0.5 0.5 1:-0.30953 2:-0.148191 
-0.5 0.4414943952681845 1:0.762505 2:0.454762 
-0 0.5 1:-0.141857 2:0.292296 
-0.5 0.5 1:-0.307479 2:-0.154406 
-0.2918226015922685 0.5 1:0.387686 2:0.0851942 
-0 0.5 1:-0.431609 2:0.385652 
-0 0.5 1:0.594307 2:0.452997 
-0 0.5 1:-0.0383134 2:0.586012 
-0 0.5 1:-0.385898 2:0.429609 
-0.5 0.5 1:0.200685 2:0.0709354 
-0.5 0.5 1:-0.220497 2:-0.19917 
-0.5 0.5 1:-0.566166 2:-0.374173 
-0.5 0.4982909300796978 1:-0.0955605 2:0.860542 
-0.5 0.5 1:-0.623788 2:-0.187031 
-0.5 0.5 1:-0.373904 2:-0.0345202 
-0.5 0.2254242379446902 1:-0.437165 2:0.799938 
-0.5 0.5 1:-0.603772 2:-0.407103 
-0.5 0.5 1:-0.382554 2:-0.0991991 
-0.5 0.5 1:-0.312117 2:-0.476112 
-0.5 0.5 1:-0.849904 2:-0.587897 
-0 0.5 1:-0.350289 2:0.414817 
-0.5 0.5 1:-0.503691 2:-0.18606 
-0.5 0.5 1:-0.340626 2:-0.153193 
-0.5 0.5 1:-0.203967 2:0.0690499 
-0.3928810794907697 0.3782428155934978 1:0.34364 2:1 
-0.5 0.5 1:-0.423201 2:-0.0855117 
-0.5 0.5 1:-0.556492 2:-0.129317 
-0.5 0.5 1:-0.62169 2:-0.467561 
-0 0.5 1:-0.0492247 2:0.249736 
-0 0.5 1:-0.0563629 2:0.500909 
-0 0.5 1:0.338693 2:0.476087 
-0 0.5 1:-0.325775 2:0.359858 
-0.5 0.5 1:-0.393696 2:-0.00875781 
-0.5 0.5 1:-0.501991 2:-0.191932 
-0.5 -0.5 1:-1 2:-0.93866 
-0.5 -0.5 1:-0.483537 2:-0.6477 
-0.5 -0 1:-0.96605 2:-0.829878 
-0.5 -0 1:-0.89397 2:-0.843248 
-0.5 -0.5 1:-0.452498 2:-0.209067 
-0.3443922896332831 -0.5 1:0.310336 2:0.362359 
-0 -0.5 1:-0.00838536 2:0.341771 
-0.5 -0 1:-0.66209 2:-0.487724 
-0.5 -0.5 1:-0.988654 2:-0.911914 
-0.5 -0.5 1:-0.624694 2:-0.429165 
-0.5 -0 1:-0.850069 2:-0.664562 
-0.5 -0 1:-0.696453 2:-0.601464 
-0.5 -0.5 1:-0.203441 2:0.605508 
-0.5 -0 1:-0.796325 2:-0.704729 
-0.5 -0 1:-0.334321 2:-0.313043 
-0.5 -0.008632108189489217 1:-0.144727 2:-0.141258 
-0.5 -0 1:-0.175805 2:-0.208711 
-0.5 -0 1:-0.561562 2:-0.402621 
-0.5 -0.5 1:-0.46074 2:-0.565049 
-0 -0.5 1:-0.426712 2:0.191596 
-0.5 -0 1:-0.53498 2:-0.399726 
-0 -0.5 1:-0.142796 2:0.505271 
-0.5 -0.5 1:-0.487456 2:-0.182536 
-0.5 -0.5 1:-0.616751 2:-0.139214 
-0.5 -0 1:-0.226025 2:-0.153568 
-0 -0.5 1:0.0734377 2:0.384128 
-0 -0.5 1:0.0858 2:0.344056 
-0 -0.5 1:-0.361226 2:0.0146302 
-0 -0.5 1:0.00729976 2:0.0156714 
-0.5 -0 1:-0.560673 2:-0.48446 
-0 -0.5 1:-0.265834 2:0.163916 
-0.5 -0.5 1:0.193506 2:0.980967 
-0.5 -0 1:-0.451131 2:-0.376383 
-0.5 -0 1:-0.551323 2:-0.509201 
-0 -0.5 1:-0.31232 2:0.0275368 
-0 -0.5 1:0.0351369 2:0.12027 
-0.5 -0.5 1:-0.550811 2:-0.268832 
-0.5 -0 1:-0.865739 2:-0.805716 
-0.5 -0.5 1:-0.653194 2:-0.300232 
-0.08004229322405212 -0.5 1:-0.021387 2:0.568261 
-0 -0.5 1:-0.0673964 2:0.383068 
-0.5 -0.2466646462143335 1:-0.512752 2:-0.518971 
-0.5 -0.5 1:-0.864408 2:-0.624541 
-0.5 -0.5 1:-0.425914 2:-0.11295 
-0.5 -0.5 1:-0.357186 2:-0.124841 
-0.5 -0.5 1:0.268707 2:0.133729 
-0.5 -0.5 1:-0.345025 2:-0.00844673 
-0.5 -0.5 1:-0.48908 2:-0.197309 
-0.5 -0 1:-0.451704 2:-0.273759 
-0.5 -0.5 1:-0.553892 2:-0.23495 
-0.5 -0.5 1:-0.456805 2:-0.113991 
-0 -0.5 1:-0.117139 2:0.218501 
-0.5 -0.5 1:-0.568645 2:-0.231934 
-0.5 -0 1:-0.55274 2:-0.487787 
-0.5 -0.5 1:-0.309419 2:-0.0496361 
-0.09032928454053438 -0.5 1:-0.233271 2:-0.0158618 
-0 -0.5 1:0.09419 2:0.338038 
-0.5 -0.5 1:-0.643522 2:-0.397587 
-0.5 -0.5 1:-0.595451 2:-0.389404 
-0.5 -0 1:-0.379956 2:-0.206648 
-0.5 -0 1:-0.593251 2:-0.514464 
-0.5 -0.2881556244822475 1:-0.706077 2:-0.523009 
-0 -0.5 1:0.0517717 2:0.159136 
-0.5 -0.5 1:-0.455969 2:-0.179216 
-0.5 -0.5 1:-0.532728 2:-0.0636092 
-0.5 -0.5 1:-0.140349 2:-0.127806 
