svm_type c_svc
kernel_type rbf
gamma 0.0078125
nr_class 3
total_sv 120
rho 11.2822 15.0148 -1.86221
label 1 3 2
nr_sv 46 25 49
SV
512 512 1:-0.126597 2:-0.240734 3:-0.17777 4:-0.354995 5:-0.13116 6:-0.616388 7:-0.95595 
462.1312690509365 512 1:0.534532 2:-0.18058 3:-0.77176 4:-0.818419 5:0.0799443 6:-0.816451 7:-0.998125 
0 237.7750433898565 1:-0.526383 2:-0.527005 3:-0.685096 4:-0.706708 5:-0.475685 6:-0.885031 7:-0.998457 
512 512 1:-0.513285 2:-0.26923 3:-0.643829 4:-0.637471 5:-0.248829 6:-0.770745 7:-0.996004 
512 512 1:-0.421143 2:-0.168472 3:-0.56082 4:-0.590199 5:-0.139242 6:-0.772237 7:-0.993846 
512 512 1:-0.630042 2:-0.516503 3:-0.593644 4:-0.627885 5:-0.491484 6:-0.870402 7:-0.998313 
0.06191985044553153 512 1:-0.505564 2:-0.551703 3:-0.613678 4:-0.65401 5:-0.492115 6:-0.8658 7:-0.997696 
283.0929911368502 512 1:-0.515363 2:-0.175507 3:-0.700521 4:-0.663765 5:-0.167992 6:-0.80255 7:-0.99834 
0 512 1:-0.511514 2:-0.259987 3:-0.746282 4:-0.738515 5:-0.240382 6:-0.799767 7:-0.997526 
512 512 1:-0.322314 2:-0.14942 3:-0.698796 4:-0.680209 5:-0.0989542 6:-0.754398 7:-0.996238 
512 512 1:-0.621008 2:-0.39927 3:-0.498644 4:-0.572793 5:-0.387574 6:-0.806368 7:-0.993986 
0 512 1:-0.383123 2:-0.5221 3:-0.698284 4:-0.704855 5:-0.436995 6:-0.845437 7:-0.996997 
0 512 1:-0.390046 2:-0.180275 3:-0.737501 4:-0.714758 5:-0.14201 6:-0.791544 7:-0.997431 
0 512 1:-0.582994 2:-0.710766 3:-0.607327 4:-0.685356 5:-0.648765 6:-0.884297 7:-0.997874 
0 512 1:-0.62284 2:-0.719962 3:-0.63768 4:-0.711139 5:-0.666323 6:-0.909973 7:-0.998326 
512 512 1:-0.979443 2:-0.0339097 3:0.0611074 4:-0.0585811 5:-0.156649 6:-0.426076 7:-0.958096 
0 286.969199571091 1:-0.994734 2:-0.995255 3:-0.997299 4:-0.997507 5:-0.994616 6:-0.999141 7:-1 
0 512 1:-0.297841 2:-0.259392 3:-0.765584 4:-0.780507 5:-0.188511 6:-0.823981 7:-0.997888 
0 512 1:0.136878 2:-0.32675 3:-0.766541 4:-0.702633 5:-0.142483 6:-0.776713 7:-0.997597 
512 512 1:-0.0744909 2:-0.117647 3:-0.635586 4:-0.70928 5:-0.0118175 6:-0.738175 7:-0.995475 
0 512 1:0.0246057 2:-0.525144 3:-0.708932 4:-0.671333 5:-0.341641 6:-0.81228 7:-0.998185 
512 512 1:0.0774379 2:-0.247266 3:-0.305333 4:-0.439465 5:-0.0877896 6:-0.66291 7:-0.97929 
0 512 1:-0.629005 2:-0.686678 3:-0.678927 4:-0.720121 5:-0.63892 6:-0.905451 7:-0.998398 
512 512 1:-0.160265 2:-0.281457 3:-0.540738 4:-0.47378 5:-0.174593 6:-0.731506 7:-0.995416 
0 512 1:-0.640016 2:-0.77102 3:-0.680849 4:-0.75707 5:-0.714762 6:-0.908483 7:-0.998627 
512 512 1:-0.405475 2:-0.20279 3:-0.191803 4:-0.259324 5:-0.165258 6:-0.679325 7:-0.976568 
512 512 1:-0.616992 2:-0.738473 3:-0.20892 4:-0.384795 5:-0.680982 6:-0.867623 7:-0.995287 
0 512 1:-0.526365 2:-0.650698 3:-0.758678 4:-0.813667 5:-0.583026 6:-0.870422 7:-0.998329 
0 512 1:-0.601725 2:-0.553542 3:-0.652553 4:-0.680088 5:-0.516822 6:-0.881699 7:-0.998418 
0 512 1:-0.325583 2:-0.531163 3:-0.78405 4:-0.819232 5:-0.431032 6:-0.88071 7:-0.998755 
512 512 1:-0.519089 2:-0.628801 3:-0.472604 4:-0.512185 5:-0.562274 6:-0.854629 7:-0.99677 
512 512 1:-0.674946 2:-0.638448 3:-0.49841 4:-0.547306 5:-0.608105 6:-0.879409 7:-0.997664 
512 512 1:-0.228614 2:0.130221 3:-0.730764 4:-0.691579 5:0.166249 6:-0.652772 7:-0.994034 
0 288.3842187886397 1:0.00286804 2:-0.413174 3:-0.900399 4:-0.883085 5:-0.249693 6:-0.916907 7:-0.999599 
512 512 1:0.0927995 2:-0.302233 3:-0.651192 4:-0.581501 5:-0.1318 6:-0.773314 7:-0.996781 
512 512 1:0.142131 2:-0.249867 3:-0.301674 4:-0.309769 5:-0.0744985 6:-0.681192 7:-0.993815 
208.7597619701355 512 1:-0.998006 2:-0.996754 3:-0.998284 4:-0.997864 5:-0.996704 6:-0.999485 7:-1 
0 512 1:-0.324287 2:-0.23178 3:-0.780385 4:-0.771676 5:-0.170904 6:-0.780656 7:-0.997218 
0 367.9763048048706 1:-0.318173 2:-0.60524 3:-0.865979 4:-0.873386 5:-0.493537 6:-0.894674 7:-0.999149 
0 512 1:-0.34639 2:-0.574163 3:-0.808748 4:-0.836252 5:-0.473349 6:-0.886472 7:-0.998803 
512 512 1:-0.352001 2:-0.277719 3:-0.338681 4:-0.428643 5:-0.217432 6:-0.684459 7:-0.971999 
512 512 1:-1 2:-1 3:-0.999719 4:-0.999688 5:-1 6:-1 7:-1 
0 11.84608419463146 1:-0.822384 2:-0.709027 3:-0.841472 4:-0.755484 5:-0.704793 6:-0.906715 7:-0.999202 
512 512 1:0.450844 2:0.176613 3:-0.360534 4:-0.373276 5:0.369816 6:-0.503981 7:-0.980935 
0 512 1:-0.419114 2:-0.553262 3:-0.734734 4:-0.735652 5:-0.472689 6:-0.868828 7:-0.998242 
0 512 1:-0.255427 2:-0.379234 3:-0.772386 4:-0.802229 5:-0.28232 6:-0.849831 7:-0.998175 
-512 512 1:-0.121339 2:-0.203216 3:-0.758697 4:-0.714049 5:-0.0973369 6:-0.777013 7:-0.997564 
-512 512 1:-0.436175 2:-0.371817 3:-0.752512 4:-0.79825 5:-0.319325 6:-0.887155 7:-0.999143 
0 24.98617223723777 1:0.0997588 2:1 3:0.839695 4:0.493671 5:1 6:0.22521 7:1 
-512 512 1:-0.320754 2:-0.37955 3:-0.651135 4:-0.684481 5:-0.298295 6:-0.835937 7:-0.997473 
-512 512 1:-0.214077 2:-0.299856 3:-0.69069 4:-0.689542 5:-0.203494 6:-0.789122 7:-0.997026 
-512 512 1:-0.75462 2:-0.453781 3:0.0729489 4:0.0883077 5:-0.466994 6:-0.787013 7:-0.982506 
-512 512 1:-0.327901 2:-0.199408 3:-0.25317 4:-0.318465 5:-0.143679 6:-0.685137 7:-0.991269 
-512 512 1:-0.259003 2:-0.0961641 3:-0.235946 4:-0.33905 5:-0.0375204 6:-0.604279 7:-0.983798 
0 512 1:0.193525 2:0.539792 3:0.833932 4:0.516248 5:0.62315 6:0.0111733 7:-0.74946 
-442.0459420083678 512 1:-0.153696 2:0.319844 3:0.364908 4:0.179808 5:0.348818 6:-0.185047 7:-0.887796 
0 512 1:1 2:0.514512 3:0.07381 4:0.186097 5:0.795045 6:0.0505379 7:-0.957928 
-512 512 1:0.240757 2:0.409825 3:-0.441325 4:-0.393036 5:0.521712 6:-0.435991 7:-0.98068 
-512 512 1:-0.562792 2:-0.387196 3:-0.622093 4:-0.688293 5:-0.363104 6:-0.801394 7:-0.995634 
-512 512 1:-0.614623 2:-0.573786 3:-0.852 4:-0.809187 5:-0.537491 6:-0.912151 7:-0.999244 
-512 512 1:-0.991701 2:-0.866872 3:-0.991087 4:-0.99 5:-0.882472 6:-0.997639 7:-0.999999 
-512 512 1:-0.561183 2:-0.527552 3:-0.676914 4:-0.667075 5:-0.484523 6:-0.859324 7:-0.998004 
-512 512 1:-0.65923 2:-0.502678 3:-0.681547 4:-0.669181 5:-0.486502 6:-0.857333 7:-0.997913 
-512 512 1:-0.627262 2:-0.603765 3:-0.700515 4:-0.733548 5:-0.566546 6:-0.884079 7:-0.998313 
-512 512 1:0.346022 2:-0.103007 3:-0.433143 4:-0.549898 5:0.101957 6:-0.609176 7:-0.984152 
-512 512 1:-0.152697 2:-0.460338 3:-0.52359 4:-0.613924 5:-0.328014 6:-0.798786 7:-0.994879 
-512 512 1:-0.136912 2:0.262331 3:0.268799 4:-4.18873e-005 5:0.30294 6:-0.350145 7:-0.860935 
-512 512 1:0.421804 2:-0.616791 3:-0.917026 4:-0.923164 5:-0.325711 6:-0.93855 7:-0.999731 
-512 512 1:-0.0530217 2:-0.0326286 3:-0.219371 4:-0.205247 5:0.0671251 6:-0.590523 7:-0.985839 
-512 512 1:-0.776299 2:-0.732573 3:-0.362886 4:-0.471528 5:-0.714151 6:-0.899453 7:-0.997758 
-512 512 1:-0.38034 2:-0.323231 3:-0.64862 4:-0.651727 5:-0.26374 6:-0.834017 7:-0.997731 
-343.5150355219293 -512 1:-0.717556 2:-0.229056 3:0.449627 4:0.337776 5:-0.263061 6:-0.471364 7:-0.97499 
-512 0 1:-0.637966 2:-0.770093 3:-0.965106 4:-0.956826 5:-0.713464 6:-0.968137 7:-0.99992 
-512 0 1:-0.201054 2:0.0266665 3:-0.678276 4:-0.68443 5:0.0830046 6:-0.690011 7:-0.994143 
-512 0 1:-0.148498 2:-0.331566 3:-0.695319 4:-0.727755 5:-0.215252 6:-0.799898 7:-0.99683 
-512 0 1:-0.0962943 2:-0.343486 3:-0.719497 4:-0.672812 5:-0.213049 6:-0.787222 7:-0.997418 
-512 -512 1:-0.311614 2:-0.515008 3:-0.407536 4:-0.491067 5:-0.413654 6:-0.803661 7:-0.993764 
-512 -512 1:-0.0594552 2:-0.583366 3:-0.481608 4:-0.347359 5:-0.412372 6:-0.712162 7:-0.997042 
-512 -512 1:-0.665076 2:-0.613296 3:-0.804559 4:-0.778557 5:-0.583906 6:-0.905195 7:-0.999061 
-512 -65.48047588275004 1:-0.823625 2:-0.77196 3:-0.884411 4:-0.88157 5:-0.759707 6:-0.949217 7:-0.999641 
-512 -512 1:-0.98352 2:-0.979635 3:-0.989487 4:-0.989599 5:-0.978365 6:-0.995867 7:-0.999997 
-512 -512 1:-0.817909 2:-0.731924 3:-0.888026 4:-0.845319 5:-0.723588 6:-0.946758 7:-0.999635 
-222.8364344130588 -512 1:0.190607 2:0.410726 3:-0.243774 4:-0.348668 5:0.510441 6:-0.399389 7:-0.96001 
0 -146.3283352310997 1:-0.326697 2:0.967129 3:1 4:1 5:0.868976 6:1 7:-0.760679 
-512 -512 1:-0.0519578 2:-0.191374 3:-0.760275 4:-0.814529 5:-0.0703846 6:-0.842603 7:-0.998863 
-512 0 1:-0.373051 2:-0.482686 3:-0.796808 4:-0.824548 5:-0.40037 6:-0.853179 7:-0.998498 
-512 0 1:-0.529339 2:-0.585045 3:-0.526122 4:-0.611294 5:-0.526764 6:-0.847063 7:-0.996838 
-512 -512 1:0.1598 2:-0.0479418 3:0.028728 4:-0.188384 5:0.104987 6:-0.509139 7:-0.919357 
-512 -512 1:-0.0144686 2:0.0744106 3:-0.461437 4:-0.411309 5:0.169284 6:-0.577264 7:-0.990138 
-512 -512 1:-0.0436448 2:-0.11605 3:-0.421018 4:-0.501027 5:-0.00301726 6:-0.704635 7:-0.992341 
-512 0 1:-0.278186 2:-0.108137 3:-0.738 4:-0.745185 5:-0.0525213 6:-0.764914 7:-0.996661 
-512 -110.0770438706051 1:0.31997 2:0.301692 3:-0.550229 4:-0.571992 5:0.446909 6:-0.545675 7:-0.986565 
-512 -512 1:0.0996931 2:-0.141376 3:-0.201999 4:-0.32546 5:0.00945443 6:-0.617804 7:-0.982721 
-512 0 1:-0.535647 2:-0.667778 3:-0.812388 4:-0.833762 5:-0.600079 6:-0.921228 7:-0.999317 
-512 -512 1:-0.333505 2:-0.513307 3:-0.343656 4:-0.452382 5:-0.417439 6:-0.793749 7:-0.994129 
0 -512 1:0.196468 2:0.268132 3:-0.0752339 4:-0.134504 5:0.3881 6:-0.322869 7:-0.956644 
-512 0 1:-0.691706 2:-0.829135 3:-0.962768 4:-0.962321 5:-0.777619 6:-0.971783 7:-0.999927 
-512 -512 1:-0.638262 2:-0.466059 3:-0.765258 4:-0.720528 5:-0.449683 6:-0.869585 7:-0.998827 
-512 0 1:-0.547736 2:-0.501842 3:-0.712205 4:-0.728081 5:-0.458979 6:-0.867892 7:-0.998127 
-512 0 1:-0.415224 2:-0.459457 3:-0.645658 4:-0.681717 5:-0.390347 6:-0.844788 7:-0.997577 
-114.5993808141015 0 1:0.798129 2:-0.0560983 3:-0.643638 4:-0.4398 5:0.251329 6:-0.463734 7:-0.993357 
-512 0 1:-0.548628 2:-0.549759 3:-0.724557 4:-0.751677 5:-0.500778 6:-0.878572 7:-0.998395 
-512 -512 1:-0.241959 2:-0.192497 3:-0.553487 4:-0.588565 5:-0.117025 6:-0.758305 7:-0.995866 
-512 0 1:-0.525434 2:-0.427715 3:-0.169688 4:-0.340727 5:-0.389289 6:-0.732536 7:-0.98826 
-512 0 1:-0.434195 2:-0.790099 3:-0.956175 4:-0.964626 5:-0.68185 6:-0.969894 7:-0.999933 
-512 -281.7204331997521 1:0.576978 2:-0.331975 3:-0.625165 4:-0.473911 5:-0.0412408 6:-0.631203 7:-0.995838 
-512 0 1:-0.595718 2:0.0406035 3:-0.0854536 4:-0.166782 5:0.000243388 6:-0.456049 7:-0.971466 
-512 0 1:-0.821657 2:-0.764087 3:-0.887012 4:-0.871382 5:-0.752401 6:-0.938261 7:-0.999541 
-512 -377.5614946553537 1:-0.312058 2:-0.297124 3:-0.645085 4:-0.656831 5:-0.224672 6:-0.799609 7:-0.996925 
-512 0 1:-0.344682 2:-0.322879 3:-0.602265 4:-0.645196 5:-0.254864 6:-0.804222 7:-0.996696 
-512 -512 1:-0.738343 2:-0.700876 3:-0.699887 4:-0.690304 5:-0.67752 6:-0.908973 7:-0.998616 
-512 0 1:-0.544256 2:-0.6472 3:-0.793645 4:-0.821676 5:-0.58429 6:-0.926855 7:-0.999393 
-512 -297.3645650618673 1:-0.322085 2:-0.518221 3:-0.392603 4:-0.498896 5:-0.418959 6:-0.812316 7:-0.994564 
-512 0 1:-0.74938 2:-0.77099 3:-0.863214 4:-0.86782 5:-0.741021 6:-0.935516 7:-0.999492 
-512 -282.4538243358099 1:0.00416941 2:-0.147369 3:-0.356476 4:-0.469245 5:-0.018705 6:-0.683124 7:-0.986086 
-512 -512 1:-0.563317 2:-0.497644 3:-0.649814 4:-0.693715 5:-0.459081 6:-0.866572 7:-0.998091 
-512 -512 1:-0.761245 2:-0.205267 3:-0.908144 4:-0.900833 5:-0.252916 6:-0.923208 7:-0.999783 
0 -512 1:0.697514 2:0.324183 3:-0.104365 4:-0.288392 5:0.557169 6:-0.41489 7:-0.931258 
0 -512 1:-0.124522 2:0.516142 3:0.740758 4:0.396618 5:0.526184 6:-0.0174007 7:-0.750809 
-512 0 1:-0.275441 2:-0.539095 3:-0.734916 4:-0.73522 5:-0.425863 6:-0.871081 7:-0.997573 
