svm_type c_svc
kernel_type rbf
gamma 0.000488281
nr_class 3
total_sv 109
rho 58.7955 99.982 -31.6104
label 1 3 2
nr_sv 49 18 42
SV
32768 32768 1:-0.184705 2:-0.240734 3:-0.106124 4:-0.136349 5:-0.13116 6:-0.373802 7:-0.95595 
32768 32768 1:-0.73685 2:-0.313347 3:0.446863 4:0.362547 5:-0.336342 6:-0.420141 7:-0.970389 
0 32768 1:0.43244 2:-0.18058 3:-0.751872 4:-0.756866 5:0.0799443 6:-0.70038 7:-0.998125 
0 32768 1:-0.545666 2:-0.26923 3:-0.612794 4:-0.51458 5:-0.248829 6:-0.625771 7:-0.996004 
0 9103.555021812254 1:0.757609 2:-0.156135 3:-0.889522 4:-0.879761 5:0.184882 6:-0.818733 7:-0.999528 
32768 0 1:-0.459655 2:-0.168472 3:-0.522551 4:-0.451283 5:-0.139242 6:-0.628205 7:-0.993846 
32768 0 1:-0.532095 2:-0.346212 3:-0.841016 4:-0.778117 5:-0.312143 6:-0.823815 7:-0.999332 
24311.5780153661 32768 1:-0.0369594 2:-0.206978 3:-0.697754 4:-0.51873 5:-0.0638243 6:-0.624756 7:-0.996906 
0 32711.211332667 1:-0.628958 2:-0.545986 3:-0.832171 4:-0.774739 5:-0.510454 6:-0.784296 7:-0.999078 
32768 0 1:-0.547606 2:-0.175507 3:-0.674425 4:-0.549787 5:-0.167992 6:-0.677687 7:-0.99834 
0 32768 1:-0.367401 2:-0.14942 3:-0.67255 4:-0.571805 5:-0.0989542 6:-0.599087 7:-0.996238 
32768 0 1:-0.646222 2:-0.39927 3:-0.454958 4:-0.427977 5:-0.387574 6:-0.68392 7:-0.993986 
0 32768 1:-0.0362359 2:-0.0343522 3:-0.545087 4:-0.518431 5:0.086173 6:-0.507267 7:-0.994785 
17489.46700094594 32768 1:-0.826838 2:-0.706188 3:-0.856027 4:-0.732242 5:-0.700434 6:-0.874909 7:-0.999404 
0 32768 1:-0.424164 2:-0.5221 3:-0.671994 4:-0.604806 5:-0.436995 6:-0.747695 7:-0.996997 
0 32768 1:-0.678786 2:-0.512221 3:-0.899145 4:-0.752805 5:-0.493981 6:-0.785354 7:-0.999348 
0 32768 1:-0.608566 2:-0.802706 3:-0.879108 4:-0.86765 5:-0.727996 6:-0.88449 7:-0.999482 
0 32768 1:-0.610738 2:-0.710766 3:-0.573111 4:-0.578698 5:-0.648765 6:-0.81113 7:-0.997874 
0 32768 1:0.474452 2:-0.134166 3:-0.725903 4:-0.639608 5:0.131041 6:-0.647346 7:-0.995283 
32768 32768 1:-0.980811 2:-0.0339097 3:0.153569 4:0.260544 5:-0.156649 6:-0.0631422 7:-0.958096 
0 32768 1:-0.684547 2:-0.442767 3:-0.868489 4:-0.687912 5:-0.43519 6:-0.746167 7:-0.999023 
0 32768 1:-0.591313 2:-0.672518 3:-0.771342 4:-0.775377 5:-0.610572 6:-0.788711 7:-0.998523 
0 32768 1:-0.136065 2:-0.117647 3:-0.603832 4:-0.61073 5:-0.0118175 6:-0.572604 7:-0.995475 
0 32768 1:-0.0435616 2:-0.525144 3:-0.683569 4:-0.559921 5:-0.341641 6:-0.693572 7:-0.998185 
4846.206862374281 32768 1:0.0057557 2:-0.247266 3:-0.244802 4:-0.249453 5:-0.0877896 6:-0.449744 7:-0.97929 
32768 32768 1:-0.216133 2:-0.281457 3:-0.500719 4:-0.2954 5:-0.174593 6:-0.561717 7:-0.995416 
32768 32768 1:-0.445029 2:-0.20279 3:-0.12138 4:-0.00824782 5:-0.165258 6:-0.476539 7:-0.976568 
1880.817476148641 32768 1:-0.642474 2:-0.738473 3:-0.139987 4:-0.176252 5:-0.680982 6:-0.783911 7:-0.995287 
0 32768 1:-0.557876 2:-0.650698 3:-0.73765 4:-0.750504 5:-0.583026 6:-0.788481 7:-0.998329 
0 32768 1:-0.639841 2:-0.636851 3:-0.790638 4:-0.772247 5:-0.592113 6:-0.801478 7:-0.998672 
0 15078.07917014465 1:-0.614267 2:-0.740143 3:-0.560607 4:-0.594097 5:-0.675169 6:-0.834129 7:-0.997944 
0 32768 1:-0.688703 2:-0.698638 3:-0.749343 4:-0.724468 5:-0.658314 6:-0.835718 7:-0.998787 
32768 26354.24163439795 1:-0.696572 2:-0.638448 3:-0.454703 4:-0.393851 5:-0.608105 6:-0.803151 7:-0.997664 
302.652512129457 32768 1:-0.279934 2:0.130221 3:-0.707304 4:-0.587029 5:0.166249 6:-0.433195 7:-0.994034 
32768 32768 1:-0.120125 2:-0.251037 3:-0.229926 4:-0.0651127 5:-0.123474 6:-0.417748 7:-0.990862 
0 32768 1:-0.459735 2:-0.320265 3:-0.579389 4:-0.531709 5:-0.270994 6:-0.663393 7:-0.995504 
0 25999.28724303715 1:-0.718051 2:-0.956645 3:-0.994694 4:-0.993814 5:-0.88978 6:-0.997726 7:-0.999999 
0 32768 1:0.0200953 2:-0.302233 3:-0.620798 4:-0.439637 5:-0.1318 6:-0.629965 7:-0.996781 
32768 0 1:-0.762796 2:-0.734615 3:-0.381712 4:-0.346095 5:-0.708614 6:-0.832276 7:-0.997976 
16705.2781330356 0 1:-0.0868013 2:0.109258 3:-0.74575 4:-0.691634 5:0.197784 6:-0.566457 7:-0.996451 
32768 32768 1:0.0661446 2:-0.249867 3:-0.240824 4:-0.0757929 5:-0.0744985 6:-0.479586 7:-0.993815 
0 32768 1:-0.396115 2:-0.644314 3:-0.611 4:-0.629573 5:-0.535835 6:-0.802063 7:-0.998306 
0 16019.53135803164 1:-0.780489 2:-0.74038 3:-0.704778 4:-0.653693 5:-0.718173 6:-0.855063 7:-0.998784 
0 32768 1:-0.369243 2:-0.23178 3:-0.761248 4:-0.694278 5:-0.170904 6:-0.64195 7:-0.997218 
32768 32768 1:-0.835525 2:-0.692353 3:-0.855624 4:-0.725505 5:-0.690664 6:-0.862119 7:-0.999312 
0 32768 1:-0.363536 2:-0.60524 3:-0.854301 4:-0.830465 5:-0.493537 6:-0.828069 7:-0.999149 
0 32768 1:-0.586089 2:-0.768253 3:-0.742574 4:-0.759852 5:-0.692308 6:-0.836109 7:-0.998696 
32768 32768 1:-0.834201 2:-0.709027 3:-0.827658 4:-0.672598 5:-0.704793 6:-0.847724 7:-0.999202 
32768 32768 1:0.354319 2:0.176613 3:-0.304812 4:-0.160828 5:0.369816 6:-0.190312 7:-0.980935 
-32768 32768 1:-0.768017 2:-0.370246 3:-0.587834 4:-0.194237 5:-0.393745 6:-0.763534 7:-0.992897 
-32768 32768 1:-0.179796 2:-0.203216 3:-0.737671 4:-0.617117 5:-0.0973369 6:-0.636003 7:-0.997564 
-32768 32768 1:-0.473686 2:-0.371817 3:-0.730947 4:-0.72986 5:-0.319325 6:-0.815795 7:-0.999143 
-32768 32768 1:-0.266364 2:-0.299856 3:-0.663737 4:-0.584302 5:-0.203494 6:-0.655768 7:-0.997026 
-32768 23525.53263722138 1:-0.770945 2:-0.453781 3:0.166442 4:0.457226 5:-0.466994 6:-0.652325 7:-0.982506 
-32768 32768 1:-0.372616 2:-0.199408 3:-0.188093 4:-0.0874366 5:-0.143679 6:-0.486027 7:-0.991269 
-32768 32768 1:-0.308302 2:-0.0961641 3:-0.169369 4:-0.114999 5:-0.0375204 6:-0.354035 7:-0.983798 
-32768 32768 1:-0.21 2:0.319844 3:0.483841 4:0.579743 5:0.348818 6:0.330308 7:-0.887796 
-32768 32768 1:-0.640263 2:-0.573786 3:-0.839104 4:-0.744504 5:-0.537491 6:-0.856598 7:-0.999244 
-32768 32768 1:-0.992253 2:-0.866872 3:-0.99031 4:-0.98661 5:-0.882472 6:-0.996147 7:-0.999999 
-32768 32768 1:-0.590377 2:-0.527552 3:-0.648762 4:-0.554219 5:-0.484523 6:-0.770364 7:-0.998004 
-32768 32768 1:-0.65206 2:-0.603765 3:-0.674419 4:-0.643225 5:-0.566546 6:-0.810773 7:-0.998313 
-32768 32768 1:0.256471 2:-0.103007 3:-0.383749 4:-0.397321 5:0.101957 6:-0.36203 7:-0.984152 
-32768 32768 1:-0.640641 2:-0.629131 3:-0.667804 4:-0.584183 5:-0.585619 6:-0.831277 7:-0.998422 
-32768 32768 1:-0.194334 2:0.262331 3:0.379359 4:0.338927 5:0.30294 6:0.0608065 7:-0.860935 
-32768 32768 1:-0.116024 2:-0.0326286 3:-0.15135 4:0.0641602 5:0.0671251 6:-0.33158 7:-0.985839 
-32768 32768 1:-0.791182 2:-0.732573 3:-0.30737 4:-0.292384 5:-0.714151 6:-0.835869 7:-0.997758 
-32768 32768 1:-0.421566 2:-0.323231 3:-0.618002 4:-0.533668 5:-0.26374 6:-0.729054 7:-0.997731 
-31916.08023652522 -32768 1:-0.736347 2:-0.229056 3:0.575943 4:0.791259 5:-0.263061 6:-0.137069 7:-0.97499 
-32768 0 1:0.324344 2:-0.50424 3:-0.801597 4:-0.620839 5:-0.228773 6:-0.63198 7:-0.998221 
-32768 0 1:-0.662053 2:-0.770093 3:-0.962065 4:-0.942191 5:-0.713464 6:-0.947987 7:-0.99992 
-32768 0 1:-0.205149 2:-0.331566 3:-0.66877 4:-0.635469 5:-0.215252 6:-0.673358 7:-0.99683 
-32768 -32768 1:-0.12203 2:-0.583366 3:-0.436437 4:-0.126125 5:-0.412372 6:-0.530141 7:-0.997042 
-32768 -32768 1:-0.687359 2:-0.613296 3:-0.787529 4:-0.703492 5:-0.583906 6:-0.845242 7:-0.999061 
-32768 0 1:-0.835359 2:-0.77196 3:-0.874339 4:-0.841424 5:-0.759707 6:-0.917103 7:-0.999641 
-32768 0 1:-0.830024 2:-0.731924 3:-0.878269 4:-0.792885 5:-0.723588 6:-0.913089 7:-0.999635 
-32768 0 1:0.111395 2:0.410726 3:-0.177879 4:-0.127877 5:0.510441 6:-0.0195779 7:-0.96001 
-32768 0 1:-0.38818 2:-0.417207 3:-0.723666 4:-0.694924 5:-0.336701 6:-0.749132 7:-0.998105 
-32768 0 1:-0.983664 2:-0.982557 3:-0.989046 4:-0.987853 5:-0.980656 6:-0.994132 7:-0.999997 
-32768 -24095.83617820933 1:-0.560652 2:-0.585045 3:-0.48483 4:-0.479529 5:-0.526764 6:-0.75035 7:-0.996838 
-32768 0 1:0.0826387 2:-0.0479418 3:0.118368 4:0.0867406 5:0.104987 6:-0.198732 7:-0.919357 
-32768 -32768 1:-0.0800362 2:0.0744106 3:-0.414509 4:-0.211752 5:0.169284 6:-0.309938 7:-0.990138 
-32768 -32768 1:-0.107271 2:-0.11605 3:-0.370568 4:-0.331883 5:-0.00301726 6:-0.517853 7:-0.992341 
-32768 0 1:0.232152 2:0.301692 3:-0.511038 4:-0.426905 5:0.446909 6:-0.258372 7:-0.986565 
-32768 -4947.171241003337 1:0.0265302 2:-0.141376 3:-0.132464 4:-0.0968021 5:0.00945443 6:-0.376114 7:-0.982721 
-32768 0 1:-0.56654 2:-0.667778 3:-0.79604 4:-0.77741 5:-0.600079 6:-0.871415 7:-0.999317 
-32768 -32768 1:-0.377847 2:-0.513307 3:-0.286465 4:-0.266749 5:-0.417439 6:-0.663322 7:-0.994129 
-32768 0 1:0.932702 2:-0.5812 3:-0.650826 4:-0.494679 5:-0.138923 6:-0.638017 7:-0.997742 
-32768 0 1:-0.712217 2:-0.829135 3:-0.959523 4:-0.949548 5:-0.777619 6:-0.953939 7:-0.999927 
-32768 0 1:-0.789386 2:-0.679031 3:-0.904777 4:-0.797093 5:-0.667223 6:-0.883771 7:-0.999493 
-32768 -32768 1:-0.662328 2:-0.466059 3:-0.744803 4:-0.625792 5:-0.449683 6:-0.787113 7:-0.998827 
-32768 -32768 1:-0.45413 2:-0.459457 3:-0.614782 4:-0.573824 5:-0.390347 6:-0.746636 7:-0.997577 
-32768 0 1:-0.578658 2:-0.549759 3:-0.700556 4:-0.6675 5:-0.500778 6:-0.801784 7:-0.998395 
-32768 -32768 1:-0.292391 2:-0.192497 3:-0.514579 4:-0.449096 5:-0.117025 6:-0.605464 7:-0.995866 
-32768 0 1:-0.471838 2:-0.790099 3:-0.952356 4:-0.952635 5:-0.68185 6:-0.950856 7:-0.999933 
-27813.82552356545 0 1:0.472061 2:-0.331975 3:-0.592503 4:-0.295576 5:-0.0412408 6:-0.397986 7:-0.995838 
-32768 -25889.14640970544 1:-0.622615 2:0.0406035 3:-0.00576293 4:0.115665 5:0.000243388 6:-0.112069 7:-0.971466 
-32768 -2470.45464977639 1:-0.319416 2:0.190601 3:-0.301483 4:-0.259858 5:0.208484 6:-0.279899 7:-0.970508 
-32768 0 1:-0.833522 2:-0.764087 3:-0.877167 4:-0.827783 5:-0.752401 6:-0.89922 7:-0.999541 
-32768 -32768 1:-0.357827 2:-0.297124 3:-0.614159 4:-0.540503 5:-0.224672 6:-0.672888 7:-0.996925 
-32768 -32768 1:-0.38828 2:-0.322879 3:-0.567608 4:-0.524924 5:-0.254864 6:-0.680417 7:-0.996696 
-32768 0 1:-0.574576 2:-0.6472 3:-0.775664 4:-0.761228 5:-0.58429 6:-0.880601 7:-0.999393 
-32768 -32768 1:-0.367187 2:-0.518221 3:-0.339677 4:-0.32903 5:-0.418959 6:-0.693629 7:-0.994564 
-32768 0 1:-0.0626382 2:-0.147369 3:-0.300401 4:-0.289328 5:-0.018705 6:-0.48274 7:-0.986086 
-32768 -10139.70713687277 1:-0.644324 2:-0.614656 3:-0.758445 4:-0.699738 5:-0.574006 6:-0.847426 7:-0.998863 
-32768 -32768 1:-0.59237 2:-0.497644 3:-0.6193 4:-0.58989 5:-0.459081 6:-0.782196 7:-0.998091 
-32768 -32768 1:-0.77713 2:-0.205267 3:-0.90014 4:-0.867217 5:-0.252916 6:-0.874646 7:-0.999783 
0 -21519.21702165411 1:-0.182768 2:0.516142 3:0.892443 4:0.870047 5:0.526184 6:0.603969 7:-0.750809 
-32768 0 1:-0.592311 2:-0.757819 3:-0.955481 4:-0.918777 5:-0.684856 6:-0.961217 7:-0.999935 
-32768 -32768 1:-0.655046 2:-0.510133 3:-0.649039 4:-0.557065 5:-0.486057 6:-0.766725 7:-0.997807 
