svm_type c_svc
kernel_type rbf
gamma 0.5
nr_class 3
total_sv 166
rho -0.046791 -0.384902 -0.0753883
label 1 3 2
nr_sv 48 58 60
SV
0.5 0.5 1:-0.593086 2:-0.623343 
0.5 0.5 1:0.0550669 2:0.432102 
0.5 0.5 1:-0.686619 2:-0.542001 
0 0.07803659928742088 1:-0.839898 2:-0.799546 
0.5 0.5 1:-0.645258 2:-0.649511 
0 0.5 1:-0.801963 2:-0.788648 
0.5 0.5 1:-0.437558 2:-0.270952 
0 0.5 1:-0.78538 2:-0.826616 
0.5 0.5 1:-0.752888 2:-0.60907 
0.5 0.5 1:-0.55376 2:-0.62407 
0 0.5 1:-0.8036 2:-0.772129 
0.5 0.5 1:-0.535111 2:-0.452094 
0.5 0.5 1:-0.586315 2:-0.614344 
0.5 0.5 1:-0.662845 2:-0.739111 
0.5 0.5 1:-0.534572 2:-0.515419 
0.5 0.5 1:-0.335455 2:-0.467786 
0.5 0.5 1:1 2:1 
0.5 0.5 1:-0.755901 2:-0.65691 
0.5 0.5 1:-0.495956 2:-0.578606 
0.5 0.5 1:-0.741957 2:-0.675548 
0.5 0.5 1:-0.644925 2:-0.669678 
0.5 0.5 1:-0.370702 2:-0.151323 
0.5 0.5 1:-0.712191 2:-0.462307 
0.5 0.5 1:-0.240097 2:-0.190363 
0.5 0.5 1:-0.628098 2:-0.420803 
0.5 0.5 1:-0.482584 2:-0.606047 
0.5 0.5 1:-0.542451 2:-0.51042 
0.5 0.5 1:-0.675918 2:-0.581371 
0 0.5 1:-0.642252 2:-0.825991 
0.5 0.5 1:-0.628875 2:-0.621851 
0.5 0.5 1:-0.462575 2:-0.311553 
0.5 0.5 1:-0.665436 2:-0.680312 
0.5 0.5 1:-0.537395 2:-0.39956 
0.5 0.5 1:-0.638234 2:-0.535122 
0.5 0.5 1:-0.57283 2:-0.559564 
0.5 0.5 1:-0.499423 2:-0.550414 
0.5 0.5 1:-0.72628 2:-0.688382 
0.5 0.5 1:-0.713512 2:-0.585323 
0.5 0.5 1:-0.696363 2:-0.651136 
0.5 0.5 1:-0.671643 2:-0.584503 
0 0.5 1:-0.762624 2:-0.776891 
0.5 0.5 1:-0.391349 2:-0.794674 
0.5 0.5 1:-0.726295 2:-0.594086 
0.5 0.5 1:-0.504682 2:-0.433662 
0 0.5 1:-0.732562 2:-0.777805 
0 0.5 1:-0.805773 2:-0.786615 
0 0.5 1:-0.81615 2:-0.76056 
0.5 0.5 1:-0.724556 2:-0.641395 
-0 0.5 1:0.428249 2:-0.2053 
-0.5 0.5 1:-0.742856 2:-0.542052 
-0.5 0.5 1:-0.386612 2:-0.467412 
-0.5 0.5 1:-0.374171 2:-0.307954 
-0 0.5 1:-0.40474 2:-0.0210061 
-0.5 0.5 1:-0.820084 2:-0.784746 
-0 0.5 1:-0.0912709 2:-0.0511658 
-0.5 0.5 1:-0.584241 2:-0.457402 
-0.5 0.5 1:-0.100881 2:-0.290035 
-0 0.5 1:-0.112803 2:-0.0616641 
-0 0.5 1:-0.0561805 2:-0.0634878 
-0.5 0.5 1:-0.624264 2:-0.4445 
-0.5 0.5 1:-0.49254 2:-0.348315 
-0.5 0.5 1:-0.473389 2:-0.287969 
-0.5 0.5 1:-0.373635 2:-0.255513 
-0 0.5 1:-0.182434 2:-0.167207 
-0.5 0.5 1:-0.319237 2:-0.188522 
-0 0.5 1:-0.0473365 2:-0.128625 
-0.5 0.5 1:-0.580295 2:-0.510339 
-0.4580200811032496 0.5 1:-0.539588 2:0.000356865 
-0.5 0.5 1:-0.517456 2:-0.300124 
-0.5 0.5 1:-0.549384 2:-0.404552 
-0.5 0.5 1:-0.328897 2:-0.164695 
-0.5 0.5 1:-0.487871 2:-0.365165 
-0.0419799188967504 0.3690960599484051 1:0.787987 2:0.622862 
-0.5 0.5 1:-0.513915 2:-0.474969 
-0.5 0.5 1:0.848436 2:0.897987 
-0.5 0.5 1:-0.217399 2:-0.231806 
-0.5 0.5 1:-0.192614 2:-0.227005 
-0.5 0.5 1:-0.339547 2:-0.136836 
-0 0.4524757197669206 1:-0.0223208 2:0.00209757 
-0.5 0.5 1:-0.755433 2:-0.579389 
-0.5 0.5 1:-0.455228 2:-0.25332 
-0.5 0.5 1:-0.797069 2:-0.713508 
-0 0.5 1:-0.2484 2:-0.130789 
-0.5 0.5 1:-0.90602 2:-0.857123 
-0.5 0.5 1:-0.441643 2:-0.473612 
-0.5 0.5 1:-0.624478 2:-0.47011 
-0 0.5 1:-0.103347 2:-0.109144 
-0.5 0.5 1:-0.650946 2:-0.599097 
-0 0.5 1:-0.320169 2:-0.00973295 
-0.5 0.5 1:-0.478339 2:-0.270334 
-0.5 0.5 1:-0.44109 2:-0.0764169 
-0 0.5 1:0.0108932 2:-0.111952 
-0 0.5 1:-0.0700337 2:-0.021563 
-0.5 0.5 1:-0.359682 2:-0.337553 
-0.5 0.5 1:-0.525847 2:-0.401275 
-0 0.5 1:-0.277904 2:-0.151395 
-0.5 0.5 1:-0.591046 2:-0.560588 
-0.5 0.5 1:-0.752958 2:-0.595868 
-0 0.5 1:-0.147723 2:0.0156381 
-0 0.5 1:-0.298889 2:-0.0354701 
-0 0.5 1:-0.0652865 2:-0.0770265 
-0.5 0.5 1:-0.435279 2:-0.450025 
-0.5 0.5 1:-0.515514 2:-0.473607 
-0 0.5 1:-0.283608 2:-0.0651481 
-0.5 0.5 1:-0.501075 2:-0.353914 
-0.5 0.5 1:-0.491618 2:-0.356658 
-0.5 -0.5 1:-0.473865 2:-0.411882 
-0.5 -0.5 1:-0.108741 2:-0.367928 
-0.5 -0 1:-0.836794 2:-0.748017 
-0.5 -0.5 1:-0.610051 2:-0.514144 
-0.5 -0.5 1:-0.578853 2:-0.603644 
-0 -0.5 1:-0.26388 2:-0.117336 
-0 -0.5 1:-0.172803 2:0.114615 
-0.5 -0.5 1:-0.524868 2:-0.479948 
-0.5 -0.5 1:-0.584466 2:-0.583007 
-0.5 -0.5 1:-0.342478 2:-0.204838 
-0.5 -0.5 1:-0.414203 2:-0.183249 
-0.5 -0.5 1:-0.584679 2:-0.399476 
-0.5 -0.5 1:-0.674642 2:-0.505276 
-0.5 -0.5 1:-0.683401 2:-0.733949 
-0.5 -0.5 1:-0.574637 2:-0.463758 
-0.5 -0.5 1:-0.280579 2:-0.248009 
-0 -0.5 1:-0.144652 2:-0.00474966 
-0.5 -0.5 1:-0.398223 2:-0.281662 
-0.5 -0 1:-0.866613 2:-0.865145 
-0.5 -0.5 1:-0.549238 2:-0.484096 
-0 -0.5 1:0.22906 2:0.000674067 
-0 -0.5 1:-0.183998 2:-0.0472366 
-0.5 -0.5 1:-0.603898 2:-0.365087 
-0.5 -0.5 1:-0.433066 2:-0.326026 
-0.4291887785200608 -0.5 1:0.364572 2:0.456826 
-0.5 -0.5 1:-0.553521 2:-0.390545 
-0 -0.5 1:0.200167 2:0.154995 
-0.5 -0.5 1:-0.618127 2:-0.539537 
-0 -0.5 1:-0.114267 2:0.0279012 
-0.5 -0.5 1:-0.718847 2:-0.668767 
-0 -0.5 1:0.125236 2:0.367111 
-0.5 -0.5 1:-0.542983 2:-0.468638 
-0.5 -0.5 1:-0.683022 2:-0.669824 
-0.5 -0.5 1:-0.267272 2:-0.227295 
-0.5 -0.5 1:-0.676157 2:-0.753132 
-0.5 -0.5 1:-0.473645 2:-0.341256 
-0.5 -0.5 1:-0.749431 2:-0.717572 
-0.5 -0.5 1:-0.56811 2:-0.492033 
-0.5 -0.5 1:-0.218219 2:-0.264806 
-0.5 -0.5 1:-0.679424 2:-0.594357 
-0.5 -0.5 1:-0.611499 2:-0.450671 
-0.5 -0.3215717797153256 1:-0.824142 2:-0.718436 
-0 -0.5 1:0.0901239 2:-0.0643247 
-0.5 -0.5 1:-0.664173 2:-0.564503 
-0.5 -0.5 1:-0.551519 2:-0.589923 
-0.5 -0.5 1:-0.381522 2:-0.497296 
-0 -0.5 1:-0.285916 2:-0.0921117 
-0.5 -0.5 1:-0.642126 2:-0.576506 
-0.1488478207673601 -0.5 1:-0.174757 2:-0.217306 
-0.5 -0.5 1:-0.484248 2:-0.142914 
-0.5 -0.5 1:-0.353221 2:-0.362212 
-0.5 -0.5 1:-0.637783 2:-0.54341 
-0.5 -0.5 1:-0.448781 2:-0.567602 
-0.5 -0.5 1:-0.336506 2:-0.305008 
-0.5 -0.5 1:-0.498893 2:-0.343623 
-0.5 -0.5 1:-0.642959 2:-0.804118 
-0 -0.5 1:0.13721 2:0.178068 
-0.5 -0.5 1:-0.726186 2:-0.704528 
-0 -0.5 1:0.282585 2:0.303969 
-0.5 -0.5 1:-0.552015 2:-0.499162 
