svm_type c_svc
kernel_type rbf
gamma 0.00012207
nr_class 3
total_sv 182
rho 2.59107 0.889032 -1.0232
label 2 3 1
nr_sv 67 55 60
SV
32768 32768 1:-0.448797 2:-0.456183 
32768 32768 1:-0.208391 2:-0.495454 
32768 32768 1:-0.572384 2:0.301938 
32768 32768 1:-0.427076 2:-0.449746 
0 32768 1:-0.566013 2:-0.544349 
0 32768 1:-0.410278 2:-0.65058 
32768 0 1:0.177463 2:0.36119 
32768 32768 1:0.0579782 2:-0.202427 
32768 32768 1:-0.280736 2:-0.453615 
32768 32768 1:0.00881269 2:-0.325357 
32768 32768 1:-0.069365 2:-0.369834 
0 32768 1:-0.633749 2:-0.590492 
32768 32768 1:-0.428799 2:-0.04372 
32768 0 1:0.0376384 2:0.96961 
32768 32768 1:-0.101497 2:0.20929 
0 32768 1:-0.655791 2:-0.71068 
32768 32768 1:-0.15331 2:-0.431478 
32768 32768 1:0.0154731 2:-0.265284 
32768 32768 1:0.0416748 2:-0.052895 
0 32768 1:-0.615997 2:-0.555822 
32768 0 1:1 2:0.0731775 
32768 16527.84755108209 1:-0.377469 2:0.657672 
0 32768 1:-0.881255 2:-0.941106 
32768 13308.44647429693 1:0.709575 2:-0.269438 
32768 32768 1:-0.0905715 2:-0.182975 
32768 0 1:0.355345 2:0.115607 
32768 32768 1:-0.443358 2:-0.194997 
0 32768 1:-0.317223 2:-0.900358 
32768 32768 1:-0.0827283 2:0.0197684 
32768 32768 1:-0.235235 2:-0.480903 
32768 32768 1:0.0875299 2:-0.21785 
32768 32768 1:-0.30044 2:-0.315963 
32768 32768 1:0.0129197 2:0.0745652 
32768 32768 1:-0.154988 2:0.105049 
0 32768 1:-0.945252 2:-1 
32768 32768 1:-0.386873 2:-0.528542 
32768 32768 1:0.205687 2:0.079174 
32768 32768 1:-0.0935843 2:-0.223198 
32768 32768 1:-0.144745 2:-0.398256 
32768 32768 1:-0.0521372 2:-0.332771 
891.9822852136882 32768 1:-0.422278 2:-0.624705 
32768 32768 1:0.0280266 2:-0.109481 
32768 32768 1:-0.421926 2:-0.53178 
32768 0 1:0.199723 2:0.523273 
0 32768 1:-0.395235 2:-0.743357 
32768 32768 1:-0.368243 2:-0.629355 
32768 32768 1:-0.224867 2:-0.382067 
32768 32768 1:-0.261446 2:-0.228564 
32768 32768 1:-0.395052 2:-0.562538 
32768 32768 1:0.0456123 2:0.175671 
0 32768 1:-0.432574 2:-0.731687 
32768 32768 1:-0.278879 2:-0.179718 
0 32768 1:-0.560557 2:-0.510905 
32768 32768 1:0.144338 2:-0.584256 
32768 32768 1:0.170211 2:0.176207 
32768 32768 1:-0.183362 2:-0.428337 
32768 32768 1:-0.111115 2:-0.221137 
32768 0 1:0.287784 2:0.361093 
32768 32768 1:-0.461176 2:-0.496333 
0 32768 1:-0.487316 2:-0.685234 
32768 32768 1:-0.031464 2:-0.300161 
32768 32768 1:0.0604515 2:-0.00142799 
32768 32768 1:-0.327634 2:-0.451476 
32768 32768 1:-0.315769 2:-0.224822 
32768 32768 1:-0.0183541 2:-0.167196 
32768 32768 1:0.0385552 2:-0.232991 
32768 32768 1:-0.345497 2:-0.358887 
-32768 32768 1:-0.567869 2:-0.331585 
-32768 32768 1:-0.158344 2:0.551928 
-32768 32768 1:-0.378982 2:-0.40226 
-32768 32768 1:-0.172424 2:0.158204 
-32768 32768 1:-0.167766 2:-0.35647 
-32768 32768 1:-0.171336 2:-0.482246 
-32768 32768 1:-0.38439 2:-0.0705933 
-32768 32768 1:-0.109715 2:-0.0601179 
-32768 32768 1:-0.105764 2:-0.133125 
-32768 32768 1:-0.176543 2:-0.426174 
-32768 32768 1:-0.600757 2:-0.506374 
-32768 32768 1:-0.343344 2:-0.311668 
-11190.41840063111 0 1:-0.187559 2:1 
-32768 0 1:-0.0781219 2:0.763736 
-32768 32768 1:-0.778563 2:-0.732807 
-32768 32768 1:-0.285492 2:0.469292 
-32768 32768 1:-0.326904 2:-0.460924 
-32768 32768 1:-0.0346316 2:-0.289878 
-32768 0 1:0.0642507 2:0.571595 
-32768 32768 1:-0.399823 2:-0.217062 
-32768 32768 1:-0.564685 2:-0.694493 
-32768 0 1:0.221114 2:0.101308 
-32768 32768 1:0.0458423 2:-0.56702 
-32768 32768 1:0.0752662 2:0.0726979 
-32768 0 1:0.371266 2:0.119318 
-32768 4807.817372133878 1:0.588472 2:-0.503822 
-32768 32768 1:0.0841614 2:-0.105877 
-32768 32768 1:0.0287725 2:-0.151472 
-32768 32768 1:0.205604 2:-0.021313 
-32768 32768 1:-0.116693 2:-0.197484 
-32768 32768 1:-0.343055 2:-0.240398 
-32768 32768 1:0.0407673 2:-0.324136 
-32768 32768 1:-0.492788 2:-0.665748 
-32768 32768 1:0.27299 2:-0.25464 
-32768 32768 1:-0.169746 2:-0.250189 
-32768 32768 1:0.0165952 2:-0.0184047 
-32768 32768 1:-0.196788 2:-0.0825497 
-32768 32768 1:-0.401818 2:-0.619354 
-32768 32768 1:0.120406 2:0.226176 
-32768 32768 1:0.139016 2:-0.184447 
-32768 32768 1:0.0444455 2:-0.0387938 
-32768 32768 1:-0.141246 2:-0.0886739 
-32768 32768 1:0.226259 2:-0.0192179 
-32768 0 1:0.213314 2:0.248079 
-32768 32768 1:-0.525092 2:-0.750527 
-32768 32768 1:-0.0947437 2:-0.332783 
-32768 0 1:0.327344 2:0.267392 
-32768 32768 1:0.333214 2:-0.33393 
-32768 22947.64365416067 1:0.195704 2:0.127644 
-32768 0 1:0.255414 2:0.0599217 
-22469.56388458257 0 1:0.432587 2:0.123546 
-32768 32768 1:-0.334191 2:-0.382998 
-32768 32768 1:0.0595809 2:-0.069282 
-32768 32768 1:-0.132557 2:-0.361644 
-32768 32768 1:-0.351167 2:-0.588791 
-32768 -32768 1:0.61703 2:-0.31883 
-32768 -32768 1:-0.402725 2:-0.553546 
-32768 -32768 1:-0.220855 2:-0.461772 
-32768 -0 1:-0.585965 2:-0.432183 
-32768 -32768 1:-0.477789 2:-0.514168 
-32768 -0 1:-0.56802 2:-0.619331 
-32768 -32768 1:-0.330594 2:-0.335046 
-32768 -32768 1:-0.0280348 2:-0.211243 
-32768 -0 1:-0.566518 2:-0.674579 
-32768 -0 1:-0.544777 2:-0.66356 
-32768 -32768 1:-0.381336 2:-0.225661 
-32768 -0 1:-0.400083 2:-0.641274 
-32768 -32768 1:-0.187509 2:-0.222375 
-32768 -32768 1:-0.0930579 2:-0.100447 
-32768 -32768 1:-0.383378 2:-0.51559 
-32768 -32768 1:-0.22789 2:-0.226993 
-32768 -32768 1:-0.16715 2:-0.429981 
-32768 -32768 1:-0.292207 2:0.858585 
-32768 -0 1:-0.467323 2:-0.758127 
-32768 -32768 1:0.428021 2:0.0504615 
-32768 -32768 1:-0.35434 2:-0.407722 
-32768 -0 1:-0.535073 2:-0.597936 
-32768 -32768 1:-0.40198 2:-0.28003 
-32768 -32768 1:0.0835251 2:-0.170307 
-32768 -0 1:-0.465575 2:-0.620472 
-32768 -27755.46102629453 1:-0.534303 2:-0.433969 
-32768 -0 1:-0.522562 2:-0.646319 
-32768 -0 1:-0.53415 2:-0.677763 
-32768 -0 1:-0.649744 2:-0.486528 
-32768 -32768 1:-0.287116 2:-0.318101 
-32768 -0 1:-0.435188 2:-0.597777 
-32768 -32768 1:-0.203345 2:-0.0849241 
-32768 -32768 1:-0.0327638 2:-0.111422 
-29836.29402537901 -0 1:-0.280825 2:-0.920671 
-32768 -32768 1:-0.437715 2:0.53646 
-32768 -32768 1:0.337508 2:-0.143966 
-32768 -32768 1:0.178639 2:0.0607514 
-32768 -0 1:-0.441135 2:-0.716006 
-32768 -32768 1:-0.212683 2:-0.212041 
-32768 -32768 1:-0.224432 2:-0.61196 
-32768 -0 1:-0.472821 2:-0.693898 
-32768 -32768 1:-0.0830951 2:-0.240166 
-32768 -32768 1:0.0588016 2:0.0263633 
-32768 -32768 1:0.00132119 2:-0.279649 
-32768 -32768 1:-0.0709067 2:-0.0296094 
-32768 -32768 1:-0.568005 2:-0.308043 
-32768 -32768 1:0.275103 2:0.0541182 
-32768 -32768 1:0.0767193 2:-0.434712 
-32768 -32768 1:-0.187206 2:-0.352039 
-32768 -32768 1:-0.326476 2:-0.179164 
-32768 -32768 1:-0.106018 2:-0.15609 
-32768 -32768 1:-0.422996 2:-0.321892 
-32768 -32768 1:-0.409847 2:-0.469218 
-32768 -32768 1:-0.049596 2:-0.313172 
-32768 -32768 1:-0.364913 2:-0.578622 
-32768 -32768 1:-0.309579 2:-0.504325 
-32768 -32768 1:0.23517 2:-0.104507 
-32768 -32768 1:-0.0931784 2:-0.265064 
-32768 -32768 1:-0.402062 2:-0.539078 
-32768 -32768 1:-0.442065 2:-0.461592 
