svm_type c_svc
kernel_type rbf
gamma 0.0078125
nr_class 3
total_sv 178
rho 10.5497 19.9567 8.37677
label 2 1 3
nr_sv 66 62 50
SV
512 0 1:-0.448797 2:-0.483285 
512 512 1:-0.463297 2:0.169682 
512 512 1:-0.208391 2:-0.523287 
512 0 1:-0.427076 2:-0.476728 
512 0 1:-0.566013 2:-0.573091 
512 512 1:-0.040296 2:-0.280438 
512 512 1:0.0579782 2:-0.224806 
512 512 1:-0.280736 2:-0.480668 
512 0 1:-0.427826 2:-0.741221 
512 512 1:-0.069365 2:-0.395328 
512 512 1:0.269484 2:0.0036449 
512 0 1:-0.633749 2:-0.620093 
512 512 1:-0.428799 2:-0.0631451 
512 512 1:-0.454424 2:-0.0810094 
479.2257887029871 512 1:-0.101497 2:0.194573 
512 0 1:-0.655791 2:-0.742518 
512 512 1:0.0950574 2:-0.259415 
512 512 1:-0.15331 2:-0.45812 
512 512 1:0.0154731 2:-0.288833 
512 512 1:0.0416748 2:-0.0724909 
0 512 1:1 2:0.055928 
512 0 1:-0.881255 2:-0.977233 
512 512 1:-0.0905715 2:-0.204992 
176.4646351470313 512 1:0.355345 2:0.0991469 
512 0 1:-0.317223 2:-0.935726 
512 512 1:-0.0827283 2:0.00152487 
512 512 1:0.197119 2:0.116793 
512 512 1:-0.299103 2:-0.365691 
512 512 1:-0.30044 2:-0.340455 
512 512 1:0.0129197 2:0.0573415 
512 512 1:-0.154988 2:0.0883925 
512 512 1:-0.476415 2:-0.0839687 
512 0 1:-0.386873 2:-0.55699 
512 512 1:0.205687 2:0.0620361 
512 512 1:-0.231022 2:-0.357091 
512 512 1:-0.144745 2:-0.424279 
512 0 1:-0.324672 2:-0.593367 
512 512 1:-0.0521372 2:-0.357575 
512 512 1:-0.364469 2:-0.435051 
512 512 1:0.0280266 2:-0.13013 
512 346.1202938047235 1:-0.330587 2:-0.501638 
0 512 1:0.199723 2:0.5144 
512 512 1:-0.0406219 2:-0.570143 
512 0 1:-0.395235 2:-0.775804 
512 0 1:-0.368243 2:-0.65968 
512 512 1:-0.224867 2:-0.40779 
512 512 1:-0.261446 2:-0.25143 
512 512 1:-0.301549 2:-0.435423 
512 0 1:-0.395052 2:-0.591619 
0 512 1:0.0456123 2:0.160329 
512 512 1:-0.278879 2:-0.201674 
512 0 1:-0.560557 2:-0.539025 
512 512 1:-0.100853 2:-0.576241 
512 0 1:-0.721917 2:-0.792165 
0 512 1:0.170211 2:0.160875 
512 512 1:-0.183362 2:-0.45492 
512 512 1:-0.111115 2:-0.243864 
512 0 1:-0.461176 2:-0.524182 
512 0 1:-0.487316 2:-0.716598 
512 512 1:-0.031464 2:-0.324359 
512 512 1:0.0604515 2:-0.020066 
512 512 1:0.197696 2:0.124097 
512 512 1:-0.315769 2:-0.247618 
512 512 1:-0.0183541 2:-0.18892 
512 512 1:0.0385552 2:-0.255938 
512 512 1:-0.345497 2:-0.384178 
-512 512 1:0.61703 2:-0.343375 
-512 0 1:-0.625643 2:-0.733278 
-512 0 1:-0.402725 2:-0.582459 
-512 0 1:-0.585965 2:-0.458838 
-512 0 1:-0.477789 2:-0.542349 
-512 0 1:-0.56802 2:-0.649469 
-512 0 1:-0.417781 2:-0.669692 
-512 512 1:-0.330594 2:-0.359893 
-512 512 1:-0.0280348 2:-0.233786 
-512 0 1:-0.566518 2:-0.705746 
-512 512 1:-0.0704787 2:-0.488081 
-512 0 1:-0.400083 2:-0.671821 
-512 512 1:-0.187509 2:-0.245125 
-512 512 1:-0.0930579 2:-0.120928 
-512 512 1:-0.383378 2:-0.543797 
-512 512 1:-0.22789 2:-0.249829 
-512 512 1:-0.292207 2:0.855953 
-512 512 1:0.428021 2:0.0327893 
-143.6904238500185 0 1:-0.675821 2:-0.73189 
-512 512 1:-0.326158 2:-0.573498 
-512 0 1:-0.535073 2:-0.627676 
-512 512 1:0.0235476 2:-0.440682 
-512 0 1:-0.465575 2:-0.650631 
-512 512 1:-0.534303 2:-0.460657 
-512 512 1:-0.265626 2:-0.384594 
-512 0 1:-0.522562 2:-0.676959 
-512 0 1:-0.53415 2:-0.708988 
-512 512 1:-0.335774 2:-0.409206 
-512 0 1:-0.649744 2:-0.514195 
-512 512 1:0.50147 2:0.105112 
-512 512 1:-0.287116 2:-0.342633 
-512 0 1:-0.435188 2:-0.627514 
-512 512 1:-0.203345 2:-0.105116 
-512 512 1:-0.0327638 2:-0.132107 
-512 0 1:-0.587371 2:-0.759087 
-512 512 1:-0.437715 2:0.527833 
-512 512 1:0.337508 2:-0.165257 
-512 512 1:0.178639 2:0.0432706 
-512 512 1:-0.178358 2:-0.429045 
-512 512 1:-0.212683 2:-0.234599 
-512 512 1:-0.224432 2:-0.641961 
-512 512 1:-0.0830951 2:-0.263247 
-512 512 1:0.0588016 2:0.00824259 
-512 512 1:-0.27515 2:-0.516963 
-512 512 1:-0.0709067 2:-0.0487719 
-512 512 1:-0.568005 2:-0.332387 
-512 512 1:0.113482 2:-0.0018766 
-512 512 1:0.275103 2:0.036514 
-512 512 1:0.0767193 2:-0.461414 
-512 512 1:-0.187206 2:-0.377202 
-512 512 1:-0.1137 2:-0.165087 
-512 512 1:-0.106018 2:-0.177607 
-512 0 1:-0.658295 2:-0.676437 
-512 512 1:0.156067 2:0.186485 
-512 512 1:-0.409847 2:-0.496562 
-512 512 1:-0.049596 2:-0.337612 
-512 452.0527624932077 1:-0.364913 2:-0.608002 
-512 512 1:-0.309579 2:-0.532323 
-512 512 1:-0.0931784 2:-0.288608 
-512 0 1:-0.416369 2:-0.602796 
-512 512 1:-0.145986 2:-0.212014 
-512 512 1:-0.402062 2:-0.567722 
-512 -491.0689122568232 1:-0.158344 2:0.543589 
-512 -512 1:-0.378982 2:-0.428358 
-512 -512 1:-0.167766 2:-0.381715 
-512 -512 1:-0.171336 2:-0.509833 
-512 -512 1:-0.81735 2:-0.878259 
-512 -512 1:-0.38439 2:-0.0905186 
-512 -512 1:-0.109715 2:-0.0798482 
-512 -0 1:0.421266 2:0.0926594 
-512 -512 1:-0.105764 2:-0.154214 
-512 -512 1:0.631498 2:-0.348924 
-512 -512 1:-0.176543 2:-0.452717 
-512 -512 1:-0.343344 2:-0.33608 
-261.1888382399585 -0 1:-0.0781219 2:0.759338 
-512 -512 1:-0.778563 2:-0.765057 
-512 -512 1:-0.285492 2:0.459415 
-512 -512 1:-0.0346316 2:-0.313885 
-512 -0 1:0.0642507 2:0.563622 
-512 -512 1:-0.539424 2:-0.716219 
-512 -512 1:-0.399823 2:-0.239713 
-512 -512 1:0.221114 2:0.0845823 
-512 -512 1:0.0458423 2:-0.596185 
-512 -512 1:0.0752662 2:0.0554395 
-512 -0 1:0.371266 2:0.102927 
-512 -512 1:0.0841614 2:-0.126459 
-512 -512 1:0.0287725 2:-0.172902 
-512 -512 1:0.205604 2:-0.0403211 
-512 -512 1:-0.343055 2:-0.263484 
-512 -512 1:-0.845222 2:-0.694108 
-512 -512 1:-0.492788 2:-0.69675 
-512 -512 1:0.27299 2:-0.277991 
-512 -512 1:-0.169746 2:-0.273457 
-512 -512 1:0.0165952 2:-0.0373586 
-512 -512 1:-0.401818 2:-0.649493 
-512 -512 1:0.499596 2:-0.0145717 
-512 -512 1:0.120406 2:0.211774 
-512 -512 1:0.139016 2:-0.206491 
-512 -512 1:-0.141246 2:-0.108936 
-512 -512 1:0.226259 2:-0.038187 
-512 -472.9838502363848 1:0.213314 2:0.234085 
-512 -512 1:-0.285679 2:-0.156035 
-512 -512 1:-0.0947437 2:-0.357588 
-512 -0 1:0.327344 2:0.253758 
-512 -512 1:0.195704 2:0.111408 
-512 -512 1:0.255414 2:0.0424255 
-84.93145556476513 -0 1:0.432587 2:0.107234 
-512 -512 1:-0.334191 2:-0.408737 
-512 -512 1:0.347114 2:0.00898098 
-512 -512 1:-0.132557 2:-0.386987 
-512 -512 1:-0.351167 2:-0.618361 
-512 -512 1:-0.00450248 2:-0.144369 
