svm_type c_svc
kernel_type rbf
gamma 0.0078125
nr_class 3
total_sv 190
rho -5.49225 -4.43889 -0.221589
label 3 2 1
nr_sv 52 72 66
SV
128 128 1:-0.611995 2:-0.331585 
128 0 1:0.154926 2:0.491612 
128 128 1:-0.205421 2:0.158204 
128 128 1:-0.200632 2:-0.35647 
128 128 1:-0.868498 2:-0.84394 
128 128 1:-0.423353 2:-0.0705933 
128 128 1:-0.140947 2:-0.0601179 
128 113.8191066292883 1:0.404978 2:0.109238 
128 128 1:0.621127 2:-0.324277 
128 128 1:-0.645809 2:-0.506374 
128 128 1:-0.381151 2:-0.311668 
128 19.59624679994339 1:-0.220982 2:1 
128 128 1:-0.108465 2:0.763736 
92.66863278877022 0 1:0.0778091 2:0.830208 
128 128 1:-0.321671 2:0.469292 
128 128 1:-0.364248 2:-0.460924 
128 128 1:-0.58275 2:-0.684862 
128 0 1:-0.0569032 2:0.933323 
128 128 1:-0.43922 2:-0.217062 
128 128 1:-0.608722 2:-0.694493 
128 128 1:0.199193 2:0.101308 
128 128 1:0.0189883 2:-0.56702 
128 128 1:0.353571 2:0.119318 
128 128 1:0.57689 2:-0.503822 
128 128 1:0.0583858 2:-0.105877 
128 128 1:0.183246 2:-0.021313 
128 128 1:-0.148121 2:-0.197484 
128 128 1:-0.380855 2:-0.240398 
128 128 1:0.0137704 2:-0.324136 
128 128 1:-0.897154 2:-0.663154 
105.2361545470936 0 1:0.550395 2:0.027333 
128 128 1:-0.534802 2:-0.665748 
128 128 1:-0.202668 2:-0.250189 
128 128 1:-0.230471 2:-0.0825497 
128 128 1:-0.441271 2:-0.619354 
128 0 1:0.485513 2:0.00396586 
128 128 1:0.0956505 2:0.226176 
128 128 1:0.114784 2:-0.184447 
128 128 1:0.0175521 2:-0.0387938 
128 128 1:0.204483 2:-0.0192179 
128 0 1:0.452898 2:0.177359 
128 128 1:0.191173 2:0.248079 
128 128 1:-0.568015 2:-0.750527 
128 128 1:-0.321863 2:-0.134913 
128 128 1:-0.125554 2:-0.332783 
128 128 1:0.314448 2:-0.33393 
128 128 1:0.173067 2:0.127644 
128 0 1:0.416617 2:0.123546 
128 128 1:0.0331134 2:-0.069282 
128 128 1:0.328739 2:0.0270882 
128 128 1:-0.164432 2:-0.361644 
128 128 1:-0.0327735 2:-0.12346 
-128 128 1:-0.50448 2:0.184854 
-128 128 1:-0.2424 2:-0.495454 
-128 128 1:-0.616637 2:0.301938 
-0 128 1:-0.46724 2:-0.449746 
-0 128 1:-0.449969 2:-0.65058 
-128 128 1:-0.0695744 2:-0.257043 
-128 0 1:0.154313 2:0.36119 
-128 128 1:0.0314657 2:-0.202427 
-128 128 1:-0.316782 2:-0.453615 
-128 128 1:-0.0190836 2:-0.325357 
-0 128 1:-0.468011 2:-0.709406 
-128 128 1:-0.0994615 2:-0.369834 
-128 128 1:0.248924 2:0.0218497 
-0 128 1:-0.67973 2:-0.590492 
-128 128 1:-0.469012 2:-0.04372 
-128 128 1:-0.495358 2:-0.0612579 
-128 0 1:0.0105534 2:0.96961 
-128 128 1:-0.132498 2:0.20929 
-0 128 1:-0.702392 2:-0.71068 
-128 128 1:0.0695884 2:-0.236403 
-128 128 1:-0.18577 2:-0.431478 
-128 128 1:-0.0122357 2:-0.265284 
-128 128 1:0.0147035 2:-0.052895 
-0 128 1:-0.661478 2:-0.555822 
-128 0 1:1 2:0.0731775 
-128 84.67645577430551 1:-0.416237 2:0.657672 
-0 128 1:-0.934201 2:-0.941106 
-128 80.7375541813749 1:0.701401 2:-0.269438 
-128 128 1:-0.121265 2:-0.182975 
-128 0 1:0.337202 2:0.115607 
-128 128 1:-0.48398 2:-0.194997 
-0 128 1:-0.354295 2:-0.900358 
-128 128 1:-0.27 2:-0.480903 
-128 128 1:0.174522 2:0.132931 
-128 128 1:0.0618491 2:-0.21785 
-128 128 1:-0.335665 2:-0.340738 
-128 128 1:-0.33704 2:-0.315963 
-128 128 1:-0.014861 2:0.0745652 
-0 128 1:-1 2:-1 
-128 128 1:-0.517968 2:-0.0641631 
-0 128 1:-0.425906 2:-0.528542 
-128 128 1:0.183332 2:0.079174 
-128 128 1:-0.124362 2:-0.223198 
-128 128 1:-0.265668 2:-0.332295 
-0 128 1:-0.361954 2:-0.564254 
-0 128 1:-0.462307 2:-0.624705 
-0 128 1:-0.402871 2:-0.408831 
-0 128 1:-0.461945 2:-0.53178 
-69.90478733586386 128 1:-0.368035 2:-0.474201 
-128 0 1:0.1772 2:0.523273 
-128 128 1:-0.0699094 2:-0.541455 
-128 128 1:-0.25934 2:-0.382067 
-128 128 1:-0.296949 2:-0.228564 
-128 128 1:-0.33818 2:-0.409196 
-0 128 1:-0.434315 2:-0.562538 
-0 128 1:-0.472893 2:-0.731687 
-128 128 1:-0.314872 2:-0.179718 
-0 128 1:-0.604478 2:-0.510905 
-128 128 1:0.120256 2:-0.584256 
-128 128 1:-0.131835 2:-0.547441 
-0 128 1:-0.770379 2:-0.75942 
-128 128 1:0.146857 2:0.176207 
-128 128 1:-0.216667 2:-0.428337 
-128 0 1:0.267739 2:0.361093 
-0 128 1:-0.5023 2:-0.496333 
-0 128 1:-0.529176 2:-0.685234 
-128 128 1:0.0340086 2:-0.00142799 
-128 128 1:-0.364999 2:-0.451476 
-128 128 1:0.175116 2:0.140101 
-128 128 1:-0.3528 2:-0.224822 
-128 128 1:-0.0470149 2:-0.167196 
-128 128 1:-0.383365 2:-0.358887 
-128 -128 1:0.606252 2:-0.31883 
-0 -128 1:-0.671395 2:-0.701608 
-128 -128 1:-0.255215 2:-0.461772 
-0 -128 1:-0.630601 2:-0.432183 
-0 -128 1:-0.519381 2:-0.514168 
-0 -128 1:-0.612151 2:-0.619331 
-0 -128 1:-0.457683 2:-0.639185 
-128 -128 1:-0.368042 2:-0.335046 
-128 -128 1:-0.0569681 2:-0.211243 
-0 -128 1:-0.588254 2:-0.66356 
-128 -128 1:-0.100607 2:-0.460892 
-128 -128 1:-0.420213 2:-0.225661 
-0 -128 1:-0.439487 2:-0.641274 
-128 -128 1:-0.123821 2:-0.100447 
-128 -128 1:-0.422313 2:-0.51559 
-128 -128 1:-0.199998 2:-0.429981 
-128 -128 1:-0.328575 2:0.858585 
-0 -128 1:-0.50862 2:-0.758127 
-0 -128 1:-0.722985 2:-0.700246 
-128 -128 1:-0.392457 2:-0.407722 
-128 -128 1:-0.363482 2:-0.544748 
-128 -128 1:-0.441437 2:-0.28003 
-128 -128 1:0.0577316 2:-0.170307 
-128 -128 1:-0.00393397 2:-0.414359 
-0 -128 1:-0.506822 2:-0.620472 
-128 -128 1:-0.301246 2:-0.359295 
-0 -128 1:-0.565414 2:-0.646319 
-128 -128 1:-0.373369 2:-0.383458 
-0 -128 1:-0.696174 2:-0.486528 
-128 -128 1:0.487439 2:0.121463 
-128 -128 1:-0.323341 2:-0.318101 
-128 -128 1:-0.237212 2:-0.0849241 
-128 -128 1:-0.0618301 2:-0.111422 
-128 -128 1:-0.478178 2:0.53646 
-128 -128 1:0.155523 2:0.0607514 
-0 -128 1:-0.481695 2:-0.716006 
-128 -128 1:-0.211522 2:-0.402934 
-128 -128 1:-0.246814 2:-0.212041 
-0 -128 1:-0.514272 2:-0.693898 
-128 -128 1:-0.113578 2:-0.240166 
-128 -128 1:0.0323122 2:0.0263633 
-128 -128 1:-0.0267859 2:-0.279649 
-128 -128 1:-0.311038 2:-0.489246 
-128 -128 1:-0.101047 2:-0.0296094 
-0 -128 1:-0.612136 2:-0.308043 
-0 -37.41400995568042 1:-0.645902 2:-0.775917 
-128 -128 1:0.088532 2:0.016429 
-128 -128 1:0.254702 2:0.0541182 
-128 -128 1:0.0507342 2:-0.434712 
-128 -128 1:-0.220619 2:-0.352039 
-0 -128 1:-0.650706 2:-0.73097 
-128 -128 1:-0.145044 2:-0.143799 
-128 -128 1:-0.363809 2:-0.179164 
-0 -128 1:-0.704966 2:-0.645806 
-128 -128 1:0.132315 2:0.201349 
-128 -128 1:-0.463045 2:-0.321892 
-128 -128 1:-0.449526 2:-0.469218 
-128 -128 1:-0.403327 2:-0.578622 
-128 -128 1:-0.346436 2:-0.504325 
-128 -128 1:0.213644 2:-0.104507 
-128 -128 1:-0.123945 2:-0.265064 
-0 -128 1:-0.456231 2:-0.573511 
-0 -128 1:-0.670362 2:-0.68174 
-128 -128 1:-0.178239 2:-0.189869 
-0 -128 1:-0.441522 2:-0.539078 
-5.415353429231673 -128 1:-0.482651 2:-0.461592 
