svm_type c_svc
kernel_type rbf
gamma 2
nr_class 3
total_sv 163
rho -0.0243692 0.749886 0.250562
label 2 3 1
nr_sv 52 54 57
SV
8 8 1:-0.534007 2:-0.584894 
8 8 1:-0.918178 2:-0.91178 
8 8 1:-0.894676 2:-0.898458 
8 8 1:-0.839127 2:-0.865019 
8 8 1:-0.806766 2:-0.817228 
5.720068341064065 8 1:-0.928304 2:-0.93989 
8 8 1:-0.614002 2:-0.727458 
8 8 1:-0.536874 2:-0.819328 
0 8 1:-0.958443 2:-0.954461 
8 8 1:-0.622681 2:-0.75688 
8 8 1:-0.770884 2:-0.793436 
0 8 1:-0.950935 2:-0.93171 
8 8 1:-0.920823 2:-0.915441 
8 8 1:-0.781794 2:-0.825852 
8 8 1:-0.755361 2:-0.807701 
8 8 1:-0.92921 2:-0.914852 
8 8 1:-0.794626 2:-0.810529 
0 8 1:-0.940303 2:-0.952272 
8 8 1:-0.812799 2:-0.815777 
8 8 1:-0.802916 2:-0.848956 
8 8 1:-0.667537 2:-0.649556 
8 8 1:-0.672351 2:-0.669784 
8 8 1:-0.680234 2:-0.740979 
8 8 1:-0.725885 2:-0.836167 
8 8 1:-0.894737 2:-0.867683 
0 8 1:-0.972686 2:-0.968153 
8 5.664405931724318 1:-0.505145 2:-0.826351 
8 8 1:-0.858504 2:-0.878346 
0 8 1:-0.949976 2:-0.975508 
8 8 1:-0.854935 2:-0.872028 
8 8 1:-0.891953 2:-0.900141 
8 8 1:-0.854328 2:-0.857048 
8 8 1:-0.29342 2:-0.309579 
0 8 1:-0.972863 2:-0.950871 
8 8 1:-0.37098 2:-0.341238 
8 8 1:-0.818077 2:-0.868853 
8 8 1:-0.914706 2:-0.917326 
8 8 1:-0.924508 2:-0.909463 
8 8 1:-0.824821 2:-0.831243 
8 8 1:-0.816416 2:-0.804677 
8 8 1:-0.782487 2:-0.778542 
8 8 1:-0.929346 2:-0.931733 
8 8 1:-0.820894 2:-0.852589 
8 8 1:-0.915512 2:-0.911381 
8 8 1:-0.868833 2:-0.891996 
8 8 1:-0.865905 2:-0.890649 
8 8 1:-0.84714 2:-0.857763 
8 8 1:-0.885623 2:-0.894976 
8 8 1:-0.915775 2:-0.906397 
8 8 1:-0.931623 2:-0.925928 
8 8 1:-0.872173 2:-0.868324 
8 8 1:-0.801364 2:-0.860154 
-0 8 1:-0.529161 2:-0.452028 
-8 8 1:-0.986112 2:-0.995055 
-8 8 1:-0.827309 2:-0.891748 
-8 8 1:-0.71627 2:-0.75997 
-8 0 1:-0.676319 2:-0.737916 
-8 8 1:-0.816778 2:-0.849486 
-0 5.51669081451791 1:-0.66791 2:-0.611033 
-8 8 1:-0.822876 2:-0.806397 
-8 0.2254739691763142 1:-0.263331 2:-0.244454 
-8 0 1:-0.669932 2:-0.753912 
-8 0 1:-0.6262 2:-0.76311 
-8 8 1:-0.781185 2:-0.824101 
-8 8 1:-0.941586 2:-0.922816 
-7.212518043708935 8 1:-0.187008 2:-0.418535 
-8 8 1:-0.798282 2:-0.823659 
-0 0.9353551285730961 1:-0.46982 2:-0.494092 
-0.8206139988981151 0 1:-0.686605 2:-0.718728 
-8 8 1:-0.722702 2:-0.754792 
-8 8 1:-0.797537 2:-0.83867 
-8 8 1:-0.902874 2:-0.909731 
-8 8 1:-0.939589 2:-0.918198 
-8 8 1:-0.768345 2:-0.842762 
-8 8 1:-0.912365 2:-0.91335 
-1.255220615611546 3.904480466841494 1:-0.346127 2:-0.552943 
-0 8 1:-0.012371 2:-0.24325 
-8 8 1:-0.925042 2:-0.923022 
-1.014314901546765 1.837820568553493 1:1 2:1 
-8 8 1:-0.743012 2:-0.787979 
-8 8 1:-0.912644 2:-0.928982 
-8 8 1:-0.724578 2:-0.776288 
-8 8 1:-0.858007 2:-0.873803 
-8 8 1:-0.750188 2:-0.744378 
-8 8 1:-0.886723 2:-0.876712 
-8 8 1:-0.802831 2:-0.815708 
-8 8 1:-0.716002 2:-0.773256 
-8 8 1:-0.743386 2:-0.761739 
-8 8 1:-0.742865 2:-0.86432 
-8 8 1:-0.711618 2:-0.748079 
-0 8 1:-0.661662 2:-0.590554 
-8 8 1:-0.864201 2:-0.909117 
-8 8 1:-0.781791 2:-0.850643 
-8 8 1:-0.822902 2:-0.852157 
-8 8 1:-0.919821 2:-0.941298 
-8 8 1:-0.826411 2:-0.85918 
-8 8 1:-0.767796 2:-0.896612 
-8 8 1:-0.919421 2:-0.90971 
-8 8 1:-0.733691 2:-0.673151 
-8 8 1:-0.868314 2:-0.886293 
-8 8 1:-0.785882 2:-0.786983 
-8 8 1:-0.850857 2:-0.865064 
-8 8 1:-0.886113 2:-0.892811 
-3.417400781298705 8 1:-0.36835 2:-0.383095 
-8 8 1:-0.823179 2:-0.85139 
-8 8 1:-0.819653 2:-0.823556 
-8 -8 1:-0.858379 2:-0.846515 
-0.09999556256342504 -1.586267744708773 1:0.871297 2:0.316706 
-8 -8 1:-0.833535 2:-0.864173 
-8 -8 1:-0.901961 2:-0.902549 
-8 -8 1:-0.870253 2:-0.881698 
-8 -8 1:-0.879966 2:-0.851422 
-6.579517442133847 -8 1:-0.372358 2:-0.429428 
-8 -8 1:-0.731667 2:-0.750133 
-0 -8 1:-0.903364 2:-0.88122 
-8 -8 1:-0.875545 2:-0.881728 
-8 -0 1:-0.928212 2:-0.92784 
-8 -8 1:-0.901168 2:-0.920104 
-8 -8 1:-0.904612 2:-0.910711 
-8 -8 1:-0.820269 2:-0.824601 
-8 -8 1:-0.881826 2:-0.891565 
-8 -8 1:-0.584805 2:-0.653843 
-8 -8 1:-0.531962 2:-0.563658 
-8 -8 1:-0.872663 2:-0.900207 
-8 -0 1:-0.933852 2:-0.944536 
-8 -8 1:-0.761712 2:-0.81457 
-8 -8 1:-0.713132 2:-0.802333 
-8 -8 1:-0.792669 2:-0.769987 
-8 -8 1:-0.871305 2:-0.882 
-8 -8 1:-0.898307 2:-0.910762 
-8 -0 1:-0.932924 2:-0.943691 
-8 -8 1:-0.780362 2:-0.817748 
-0 -8 1:-0.406929 2:-0.407701 
-8 -8 1:-0.914907 2:-0.920482 
-8 -8 1:-0.865074 2:-0.873337 
-8 -8 1:-0.876114 2:-0.910137 
-8 -8 1:-0.670825 2:-0.665735 
-8 -8 1:-0.533949 2:-0.617348 
-8 -8 1:-0.896855 2:-0.888107 
-0 -3.324426427205217 1:-0.925714 2:-0.91337 
-8 -8 1:-0.474979 2:-0.564511 
-8 -0 1:-0.925105 2:-0.924342 
-8 -8 1:-0.917898 2:-0.930417 
-5.053533776079282 -8 1:-0.892531 2:-0.865077 
-8 -8 1:-0.577544 2:-0.595008 
-8 -8 1:-0.806222 2:-0.828028 
-8 -0 1:-0.922766 2:-0.934933 
-8 -8 1:-0.918585 2:-0.934646 
-3.132246688422442 -8 1:0.0926103 2:-0.357877 
-8 -8 1:-0.772854 2:-0.748265 
-8 -8 1:-0.84753 2:-0.941857 
-8 -8 1:-0.807028 2:-0.853224 
-8 -8 1:-0.869893 2:-0.879589 
-8 -8 1:-0.757186 2:-0.760382 
-8 -0 1:-0.93002 2:-0.936602 
-8 -0 1:-0.93233 2:-0.942985 
-8 -8 1:-0.658656 2:-0.653014 
-8 -8 1:-0.868427 2:-0.884843 
-8 -7.509126775748319 1:-0.916118 2:-0.953671 
-8 -8 1:-0.794682 2:-0.800237 
-6.799112462525318 -0 1:-0.947921 2:-0.970716 
-8 -0 1:-0.93702 2:-0.962951 
-8 -8 1:-0.895852 2:-0.907026 
