svm_type c_svc
kernel_type rbf
gamma 0.125
nr_class 3
total_sv 172
rho 2.70484 3.03089 -3.29334
label 3 1 2
nr_sv 45 60 67
SV
32 32 1:-0.822592 2:-0.812389 
15.43314235629684 32 1:-0.343026 2:0.0411605 
32 32 1:-0.476179 2:-0.1649 
32 32 1:-0.410527 2:-0.380117 
0 32 1:-0.00252173 2:0.343468 
32 32 1:-0.525927 2:-0.26324 
32 32 1:-0.539767 2:-0.431943 
32 32 1:-0.75129 2:-0.599706 
32 32 1:-0.472073 2:-0.385419 
32 32 1:-0.717829 2:-0.551506 
0 32 1:-0.238442 2:0.131348 
0 32 1:-0.249563 2:0.0322505 
32 32 1:-0.523343 2:-0.155982 
0 32 1:-0.25803 2:0.17928 
32 32 1:-0.374637 2:-0.283271 
32 32 1:-0.612626 2:-0.47162 
0.3253305036610295 0 1:-0.32901 2:-0.332833 
32 32 1:-0.822517 2:-0.733744 
32 32 1:-0.423892 2:-0.360812 
32 32 1:-0.64574 2:-0.424807 
32 32 1:-0.795768 2:-0.702329 
0 22.22051361276846 1:0.106653 2:0.357615 
0 32 1:-0.164005 2:0.0413975 
10.67247454814073 0 1:1 2:1 
32 32 1:-0.900629 2:-0.809771 
32 32 1:-0.501999 2:-0.344729 
32 32 1:-0.568854 2:-0.337474 
32 32 1:-0.840965 2:-0.79133 
32 32 1:-0.725246 2:-0.661589 
32 32 1:-0.523934 2:-0.125068 
32 32 1:-0.570293 2:-0.41148 
32 32 1:-0.590017 2:-0.299844 
32 32 1:-0.525784 2:-0.418247 
32 32 1:-0.632556 2:-0.344233 
32 32 1:-0.676569 2:-0.597868 
32 32 1:-0.504369 2:-0.239677 
32 32 1:-0.605493 2:-0.480169 
32 32 1:-0.67042 2:-0.5261 
32 32 1:-0.526451 2:-0.3553 
0 32 1:-0.279673 2:-0.134838 
32 32 1:-0.858121 2:-0.765382 
32 32 1:-0.800949 2:-0.741129 
32 27.00321401868345 1:-0.387738 2:-0.343999 
32 32 1:-0.76553 2:-0.570175 
32 32 1:-0.782892 2:-0.649522 
-32 32 1:-0.511271 2:-0.578582 
-32 32 1:-0.658516 2:-0.437341 
-0 32 1:-0.865616 2:-0.786772 
-32 32 1:-0.403854 2:-0.18085 
-32 32 1:-0.509237 2:-0.324514 
-0 32 1:-0.890547 2:-0.758715 
-0 32 1:-0.795927 2:-0.758762 
-0 32 1:-0.787239 2:-0.770942 
-32 32 1:-0.292251 2:0.0929734 
-0 32 1:-0.847234 2:-0.718868 
-32 32 1:-0.754457 2:-0.635329 
-32 32 1:-0.75431 2:-0.712079 
-0 32 1:-0.812075 2:-0.715413 
-32 32 1:-0.757138 2:-0.602234 
-32 32 1:-0.743698 2:-0.474064 
-0 32 1:-0.87531 2:-0.800954 
-0 32 1:-0.776687 2:-0.716759 
-0 32 1:-0.808843 2:-0.65874 
-0 32 1:-0.881929 2:-0.801535 
-32 32 1:-0.695801 2:-0.548462 
-32 32 1:-0.643449 2:-0.660223 
-32 32 1:0.190435 2:0.848529 
-32 32 1:-0.224621 2:0.0299728 
-0 32 1:-0.887387 2:-0.777227 
-0 32 1:-0.804166 2:-0.769809 
-32 32 1:-0.763708 2:-0.564914 
-32 32 1:-0.724803 2:-0.574828 
-0 32 1:-0.77941 2:-0.783899 
-32 32 1:-0.470708 2:-0.218248 
-0 32 1:-0.888513 2:-0.816748 
-32 32 1:-0.573154 2:-0.462168 
-26.4309474080986 32 1:-0.780449 2:-0.687309 
-0 32 1:-0.803034 2:-0.655391 
-32 32 1:-0.568976 2:-0.262504 
-32 32 1:-0.66441 2:-0.542169 
-32 32 1:-0.806181 2:-0.566306 
-32 32 1:-0.601566 2:-0.461156 
-32 32 1:-0.645094 2:-0.674072 
-32 32 1:-0.779062 2:-0.635835 
-0 32 1:-0.863806 2:-0.752243 
-32 32 1:-0.730046 2:-0.612442 
-0 32 1:-0.835741 2:-0.737472 
-0 32 1:-0.819328 2:-0.688158 
-32 32 1:-0.685833 2:-0.507929 
-32 32 1:-0.714456 2:-0.490437 
-0 32 1:-0.882972 2:-0.831707 
-32 32 1:-0.416815 2:-0.366054 
-32 32 1:-0.69052 2:-0.568462 
-32 32 1:-0.629126 2:-0.411826 
-32 32 1:-0.753927 2:-0.591314 
-32 32 1:-0.59467 2:-0.577685 
-32 32 1:-0.65173 2:-0.282489 
-0 32 1:-0.83733 2:-0.758318 
-0 32 1:-0.775221 2:-0.708301 
-32 32 1:-0.772005 2:-0.693014 
-32 32 1:-0.750876 2:-0.638221 
-0 32 1:-0.799352 2:-0.778823 
-0 32 1:-0.874266 2:-0.780751 
-0 32 1:-0.842933 2:-0.7988 
-32 32 1:-0.759301 2:-0.698681 
-32 -32 1:-0.601134 2:-0.379183 
-0 -32 1:-0.774204 2:-0.529206 
-32 -32 1:-0.676121 2:-0.496988 
-32 -32 1:-0.709026 2:-0.505715 
-0 -32 1:-0.775104 2:-0.612178 
-0 -32 1:-0.819191 2:-0.595811 
-32 -32 1:-0.574918 2:-0.265035 
-32 -32 1:-0.672753 2:-0.434416 
-32 -25.77879706420208 1:0.00164177 2:0.558644 
-32 -32 1:-0.488418 2:-0.332434 
-32 -0 1:-0.544635 2:-0.182204 
-0 -32 1:-0.793524 2:-0.667383 
-32 -32 1:-0.546952 2:-0.384143 
-0 -32 1:-0.773606 2:-0.616582 
-32 -32 1:-0.697486 2:-0.576097 
-32 -32 1:-0.644216 2:-0.48134 
-32 -32 1:-0.585181 2:-0.350171 
-32 -32 1:-0.722747 2:-0.592081 
-0 -32 1:-0.782085 2:-0.613805 
-0 -32 1:-0.919682 2:-0.92377 
-0 -32 1:-0.914708 2:-0.890149 
-32 -32 1:-0.44707 2:-0.154311 
-32 -32 1:-0.814573 2:-0.892234 
-32 -32 1:-0.747334 2:-0.613004 
-32 -32 1:-0.75693 2:-0.645293 
-0 -32 1:-0.786072 2:-0.637101 
-32 -32 1:-0.720124 2:-0.589565 
-32 -32 1:-0.393751 2:-0.153654 
-0 -32 1:-0.844671 2:-0.771527 
-0 -32 1:-0.866849 2:-0.757341 
-32 -32 1:-0.522163 2:-0.205262 
-0 -32 1:-0.860796 2:-0.793591 
-32 -32 1:-0.783469 2:-0.726241 
-32 -0 1:-0.233483 2:0.192281 
-32 -32 1:-0.648024 2:-0.452286 
-0 -32 1:-0.93831 2:-0.906335 
-32 -0 1:-0.402635 2:0.0655883 
-32 -32 1:-0.440464 2:-0.252363 
-32 -0 1:-0.120031 2:0.403717 
-32 -32 1:-0.735873 2:-0.568518 
-0 -32 1:-0.863748 2:-0.755509 
-0 -32 1:-0.865906 2:-0.780379 
-32 -0 1:-0.0467451 2:0.48325 
-32 -32 1:-0.868795 2:-0.953559 
-0 -32 1:-0.907006 2:-0.804407 
-32 -0 1:-0.445257 2:-0.0509695 
-32 -32 1:-0.63023 2:-0.440261 
-32 -32 1:-0.630961 2:-0.477315 
-32 -32 1:-0.671899 2:-0.469912 
-32 -32 1:-0.631181 2:-0.563716 
-32 -32 1:-0.623059 2:-0.492469 
-0 -32 1:-0.841769 2:-0.721454 
-32 -32 1:-0.759899 2:-0.631021 
-4.518091643435017 -32 1:-0.877347 2:-0.895859 
-0 -32 1:-0.869456 2:-0.814679 
-32 -32 1:-0.39776 2:-0.10383 
-32 -32 1:-0.752217 2:-0.598965 
-0 -32 1:-0.842734 2:-0.760406 
-0 -32 1:-0.839517 2:-0.686032 
-0 -32 1:-0.841689 2:-0.737843 
-0 -32 1:-0.901264 2:-0.862908 
-32 -8.302440649666519 1:-0.171538 2:0.180381 
-12.70563598801691 -29.91876228613139 1:-0.601277 2:-0.258276 
-0 -32 1:-0.909441 2:-0.84388 
-32 -32 1:-0.720366 2:-0.591965 
-32 -32 1:-0.602467 2:-0.502373 
-32 -32 1:-0.63571 2:-0.490784 
