svm_type c_svc
kernel_type rbf
gamma 0.03125
nr_class 3
total_sv 166
rho 0.144375 12.6495 7.74413
label 3 2 1
nr_sv 45 63 58
SV
128 128 1:-0.727324 2:-0.786702 
128 83.41670481292037 1:0.00976869 2:0.131488 
128 128 1:0.213698 2:0.540584 
0 128 1:-0.0939809 2:-0.321694 
128 128 1:-0.553023 2:-0.559214 
128 0 1:0.0738648 2:0.182316 
128 128 1:-0.152961 2:-0.237065 
128 128 1:-0.27135 2:-0.195965 
128 128 1:-0.292622 2:-0.377444 
128 128 1:-0.188577 2:-0.327397 
128 128 1:-0.566304 2:-0.506061 
128 15.65725157781201 1:0.402319 2:0.566106 
128 0 1:0.170514 2:0.228506 
128 0 1:0.153421 2:0.121903 
128 128 1:0.0320422 2:0.204558 
128 128 1:-0.267379 2:-0.0805843 
128 0 1:0.140407 2:0.280067 
128 0 1:-0.0470227 2:-0.195611 
128 128 1:-0.404606 2:-0.420126 
128 128 1:-0.727209 2:-0.702101 
15.65896764970167 128 1:-0.114522 2:-0.300926 
128 128 1:-0.455502 2:-0.369768 
128 128 1:-0.686095 2:-0.668306 
128 128 1:-0.467048 2:-0.43481 
128 128 1:-0.847266 2:-0.783886 
128 128 1:-0.337329 2:-0.275821 
128 128 1:-0.755563 2:-0.764048 
128 128 1:-0.539755 2:-0.441655 
128 128 1:-0.577703 2:-0.624482 
128 128 1:-0.56784 2:-0.643517 
128 128 1:-0.33954 2:-0.355432 
128 128 1:-0.369856 2:-0.235341 
128 128 1:-0.271129 2:-0.362711 
128 128 1:-0.435239 2:-0.283092 
128 0 1:-0.0404883 2:-0.0968129 
128 128 1:-0.238216 2:-0.170618 
128 128 1:-0.393643 2:-0.429323 
128 128 1:-0.493435 2:-0.478731 
128 128 1:-0.272156 2:-0.294996 
128 128 1:-0.352614 2:-0.359412 
128 128 1:-0.694058 2:-0.710045 
0 67.85887978349905 1:-0.0589527 2:-0.28284 
128 128 1:-0.324962 2:-0.478597 
128 128 1:-0.639619 2:-0.526145 
128 128 1:-0.666306 2:-0.611501 
-128 0 1:-0.0676715 2:0.236059 
-128 128 1:-0.386944 2:-0.320689 
-0 128 1:-0.652952 2:-0.482073 
-128 128 1:-0.502198 2:-0.447415 
-128 128 1:-0.552773 2:-0.456803 
-128 128 1:-0.555692 2:-0.573116 
-0 128 1:-0.654335 2:-0.571328 
-128 128 1:-0.346649 2:-0.197896 
-128 128 1:0.539523 2:0.688161 
-128 128 1:-0.300104 2:-0.108792 
-128 46.05937621005685 1:-0.118022 2:0.0253579 
-128 128 1:-0.682646 2:-0.630714 
-128 128 1:-0.303665 2:-0.326024 
-89.87845031201657 128 1:-0.652032 2:-0.576066 
-128 128 1:-0.334037 2:-0.369994 
-128 128 1:-0.45316 2:-0.430582 
-128 128 1:-0.362423 2:-0.289479 
-0 128 1:-0.665065 2:-0.573078 
-53.7805173376851 128 1:-0.876552 2:-0.906518 
-0 128 1:-0.868906 2:-0.870351 
-128 128 1:-0.150147 2:-0.0787862 
-128 128 1:-0.611652 2:-0.572217 
-128 128 1:-0.400046 2:-0.440788 
-0 128 1:-0.671192 2:-0.598139 
-0 128 1:-0.769028 2:-0.704798 
-128 128 1:-0.068196 2:-0.0780794 
-128 128 1:-0.761259 2:-0.742746 
-0 128 1:-0.795346 2:-0.727485 
-128 128 1:-0.265564 2:-0.133596 
-0 128 1:-0.786043 2:-0.76648 
-128 0 1:0.178137 2:0.294054 
-128 128 1:-0.459014 2:-0.399328 
-128 128 1:-0.251588 2:-0.315257 
-128 0 1:-0.0818508 2:0.157766 
-128 0 1:0.352513 2:0.521501 
-128 128 1:-0.594037 2:-0.524362 
-0 128 1:-0.790581 2:-0.725515 
-0 128 1:-0.793897 2:-0.752268 
-128 128 1:-0.594405 2:-0.507122 
-128 128 1:-0.798337 2:-0.938563 
-0 128 1:-0.857068 2:-0.778115 
-128 0 1:-0.14736 2:0.032381 
-128 128 1:-0.432787 2:-0.426252 
-128 128 1:-0.468553 2:-0.466208 
-128 128 1:-0.433125 2:-0.519197 
-128 128 1:-0.420642 2:-0.442553 
-0 128 1:-0.756799 2:-0.68888 
-0 128 1:-0.745415 2:-0.664163 
-0 128 1:-0.799354 2:-0.789165 
-128 128 1:-0.704279 2:-0.690325 
-128 128 1:-0.0743569 2:-0.0244831 
-128 128 1:-0.619158 2:-0.557115 
-0 128 1:-0.758282 2:-0.730782 
-0 128 1:-0.753337 2:-0.650775 
-0 128 1:-0.848243 2:-0.841046 
-0 128 1:-0.740446 2:-0.643226 
-128 128 1:0.273346 2:0.281252 
-128 128 1:-0.387163 2:-0.190625 
-0 128 1:-0.860811 2:-0.820577 
-128 128 1:-0.469792 2:-0.427838 
-128 128 1:-0.388992 2:-0.453207 
-128 128 1:-0.440086 2:-0.440741 
-0 128 1:-0.935104 2:-0.895784 
-128 -128 1:-0.475138 2:-0.383251 
-0 -128 1:-0.793452 2:-0.759145 
-128 -128 1:-0.0837243 2:-0.107335 
-0 -128 1:-0.68634 2:-0.729013 
-0 -128 1:-0.739178 2:-0.717142 
-128 -128 1:0.0878094 2:0.187225 
-0 -128 1:-0.765199 2:-0.686098 
-128 -128 1:-0.6226 2:-0.596232 
-128 -128 1:-0.622375 2:-0.678796 
-0 -128 1:-0.71116 2:-0.682381 
-128 -128 1:-0.626721 2:-0.560631 
-128 -128 1:-0.606065 2:-0.422755 
-0 -128 1:-0.808352 2:-0.774401 
-128 -128 1:-0.661957 2:-0.642397 
-0 -128 1:-0.706193 2:-0.621417 
-0 -128 1:-0.818525 2:-0.775026 
-128 -128 1:-0.532447 2:-0.502788 
-128 -128 1:-0.451981 2:-0.623012 
-128 -128 1:-0.367172 2:-0.370767 
-128 -128 1:0.829699 2:1 
-128 -128 1:0.191757 2:0.119453 
-0 -128 1:-0.699003 2:-0.740897 
-128 -128 1:-0.615759 2:-0.603067 
-128 -128 1:-0.63682 2:-0.520485 
-0 -128 1:-0.765741 2:-0.755406 
-128 -128 1:-0.186478 2:-0.147566 
-0 -128 1:-0.828645 2:-0.791391 
-128 -128 1:-0.580544 2:-0.49269 
-128 -128 1:-0.343938 2:-0.409958 
-38.9328361742314 -128 1:-0.66255 2:-0.65215 
-0 -128 1:-0.762245 2:-0.669601 
-128 -128 1:-0.484198 2:-0.496017 
-0 -128 1:-0.7021 2:-0.521983 
-128 -128 1:0.574731 2:0.258027 
-128 -84.04408970913738 1:-0.45451 2:-0.63791 
-128 -128 1:-0.660419 2:-0.596777 
-0 -128 1:-0.79067 2:-0.722001 
-0 -128 1:-0.761249 2:-0.737067 
-0 -90.01528650091942 1:-0.797793 2:-0.792975 
-128 -128 1:-0.58508 2:-0.571612 
-0 -128 1:-0.747534 2:-0.706111 
-128 -128 1:-0.635227 2:-0.51161 
-128 -128 1:-0.517125 2:-0.459185 
-0 -128 1:-0.840925 2:-0.808929 
-128 -128 1:-0.218021 2:-0.103717 
-128 -128 1:-0.103645 2:-0.306566 
-128 -128 1:-0.52433 2:-0.524302 
-128 -128 1:-0.515244 2:-0.371909 
-128 -128 1:-0.429966 2:-0.355804 
-128 -128 1:-0.621786 2:-0.548884 
-128 -128 1:-0.382384 2:-0.26269 
-128 -128 1:-0.464709 2:-0.216672 
-0 -128 1:-0.749976 2:-0.728536 
-128 -128 1:-0.654514 2:-0.674731 
-128 -128 1:-0.649571 2:-0.658286 
-128 -128 1:-0.58053 2:-0.61952 
-0 -128 1:-0.806747 2:-0.752667 
-128 -128 1:-0.630046 2:-0.664382 
