svm_type c_svc
kernel_type rbf
gamma 0.00195313
nr_class 3
total_sv 178
rho 225.429 97.9648 -206.778
label 2 1 3
nr_sv 69 55 54
SV
32768 32768 1:-0.721645 2:-0.745702 
0 32768 1:-0.320904 2:-0.0664843 
32768 11277.34423326147 1:-0.781442 2:-0.675283 
32768 32768 1:-0.319798 2:-0.395546 
32768 0 1:-0.942474 2:-0.924616 
32768 32768 1:-0.369468 2:-0.44442 
32768 0 1:-0.844866 2:-0.807887 
32768 32768 1:-0.775952 2:-0.735501 
32768 32768 1:-0.725379 2:-0.636333 
32768 32768 1:-0.761292 2:-0.782607 
0 32768 1:-0.560079 2:-0.499659 
32768 0 1:-0.965716 2:-0.911435 
0 32768 1:-0.474488 2:-0.439568 
32768 0 1:-0.87883 2:-0.823794 
0 32768 1:-0.5358 2:-0.493269 
32768 32768 1:-0.451267 2:-0.615841 
0 32768 1:-0.657949 2:-0.571979 
32768 0 1:-0.913905 2:-0.913138 
0 32768 1:-0.275663 2:-0.131551 
32768 32768 1:-0.705532 2:-0.653645 
32768 32768 1:-0.791544 2:-0.736651 
0 32768 1:-0.458697 2:-0.346174 
32768 32768 1:-0.717547 2:-0.695544 
32768 32768 1:-0.229609 2:-0.336955 
32768 0 1:-0.962741 2:-0.987893 
32768 32768 1:-0.281205 2:-0.440923 
32768 32768 1:-0.629202 2:-0.567322 
24447.02416386232 32768 1:-0.520696 2:-0.501833 
0 32768 1:-0.238479 2:-0.241069 
32768 32768 1:-0.0564829 2:-0.189733 
32768 32768 1:-0.494783 2:-0.487478 
0 32768 1:-0.479219 2:-0.383028 
32768 32768 1:-0.636741 2:-0.574713 
0 32768 1:-0.667255 2:-0.563017 
32768 0 1:-0.87719 2:-0.865928 
32768 0 1:-0.815129 2:-0.817121 
32768 0 1:-0.910242 2:-0.963595 
32768 0 1:-0.937599 2:-0.91347 
32768 32768 1:-0.602729 2:-0.565734 
32768 32768 1:-0.595422 2:-0.560786 
32768 32768 1:-0.26973 2:-0.384417 
32768 0 1:-0.854363 2:-0.719063 
0 32768 1:-0.426224 2:-0.329508 
32768 0 1:-0.871492 2:-0.85693 
0 32768 1:-0.214945 2:-0.114338 
32768 32768 1:-0.662855 2:-0.597348 
32768 32768 1:-0.663755 2:-0.717101 
32768 32768 1:-0.798713 2:-0.855738 
32768 32768 1:-0.766723 2:-0.72246 
32768 32768 1:-0.749722 2:-0.715979 
32768 32768 1:-0.710219 2:-0.651992 
32768 32768 1:-0.670776 2:-0.715498 
32768 32768 1:-0.745961 2:-0.76305 
32768 2316.394014523909 1:-0.806359 2:-0.80406 
32768 0 1:-0.901262 2:-0.898576 
32768 32768 1:-0.718864 2:-0.681537 
32768 32768 1:-0.742257 2:-0.65002 
32768 0 1:-0.913612 2:-0.919981 
32768 32768 1:-0.693083 2:-0.643591 
32768 32768 1:-0.503251 2:-0.543284 
0 32768 1:-0.446144 2:-0.295301 
32768 0 1:-0.827862 2:-0.799628 
0 32768 1:-0.550963 2:-0.509076 
0 32768 1:-0.577816 2:-0.53173 
32768 0 1:-0.961112 2:-0.978555 
32768 0 1:-0.881171 2:-0.855379 
0 32768 1:-0.556206 2:-0.440361 
0 32768 1:-0.288069 2:-0.332696 
32768 32768 1:-0.603729 2:-0.597149 
-32768 32768 1:-0.649667 2:-0.676581 
-32768 32768 1:-0.417131 2:-0.507588 
-32768 32768 1:-0.868674 2:-0.820645 
-32768 32768 1:-0.792785 2:-0.823728 
-32768 32768 1:-0.659346 2:-0.637648 
-32768 32768 1:-0.789039 2:-0.787219 
-32768 32768 1:-0.793206 2:-0.677764 
-32768 0 1:-0.886132 2:-0.86776 
-32768 32768 1:-0.807194 2:-0.7787 
-32768 32768 1:-0.520918 2:-0.480121 
-32768 32768 1:-0.680306 2:-0.608909 
-32768 0 1:-0.897093 2:-0.877247 
-32768 0 1:-0.844796 2:-0.839734 
-32768 0 1:-0.846453 2:-0.842135 
-32768 32768 1:-0.732025 2:-0.707661 
-32768 0 1:-0.864478 2:-0.860042 
-32768 32768 1:0.128964 2:0.184535 
-32768 32768 1:-0.672304 2:-0.685449 
-32768 32768 1:-0.759987 2:-0.722884 
-32768 0 1:-0.9292 2:-0.937431 
-32768 0 1:-0.831086 2:-0.879668 
-0 32768 1:-0.338244 2:-0.670641 
-32768 32768 1:-0.775767 2:-0.753757 
-32768 32768 1:-0.324222 2:-0.197171 
-32768 32768 1:-0.783838 2:-0.757482 
-32768 32768 1:-0.807754 2:-0.790252 
-32768 0 1:-0.950089 2:-0.948019 
-32768 0 1:-0.932001 2:-0.942597 
-32768 0 1:-0.907049 2:-0.917116 
-3359.702972707868 32768 1:-0.368415 2:-0.662943 
-32768 32768 1:-0.810719 2:-0.811882 
-32768 0 1:-0.807964 2:-0.858325 
-32768 0 1:-0.899659 2:-0.895043 
-32768 3666.429220328067 1:-0.845214 2:-0.836629 
-32768 32768 1:0.557049 2:0.53418 
-32768 32768 1:-0.445128 2:-0.656992 
-32768 32768 1:-0.183481 2:-0.43236 
-32768 0 1:-0.878404 2:-0.861905 
-32768 32768 1:-0.721042 2:-0.752077 
-32768 32768 1:-0.826252 2:-0.777702 
-32768 32768 1:-0.517194 2:-0.425751 
-32768 32768 1:-0.855853 2:-0.808895 
-32768 32768 1:-0.659287 2:-0.561349 
-32768 32768 1:-0.790075 2:-0.733082 
-32768 32768 1:-0.757689 2:-0.791796 
-32768 32768 1:-0.376036 2:-0.514385 
-32768 32768 1:-0.782061 2:-0.830461 
-0 32768 1:-0.102906 2:-0.592132 
-32768 32768 1:-0.602632 2:-0.537413 
-32768 32768 1:-0.786976 2:-0.815095 
-32768 32768 1:-0.839658 2:-0.818124 
-32768 32768 1:-0.80366 2:-0.806286 
-32768 0 1:-0.846562 2:-0.882449 
-32768 32768 1:-0.660941 2:-0.584046 
-21087.32119115446 0 1:-0.913571 2:-0.939327 
-0 -32768 1:-0.0720017 2:-0.471836 
-32768 -32768 1:-0.389775 2:-0.520335 
-32768 -32768 1:-0.552578 2:-0.553743 
-0 -32768 1:-0.167193 2:-0.423437 
-32768 -28845.61780275781 1:-0.476049 2:-0.408188 
-32768 -32768 1:-0.77051 2:-0.785999 
-32768 -32768 1:-0.495717 2:-0.416523 
-32768 -0 1:-0.43943 2:-0.404004 
-32768 -0 1:-0.432668 2:-0.257798 
-32768 -0 1:-0.281955 2:-0.211014 
-32768 -0 1:-0.475465 2:-0.333814 
-32768 -32768 1:-0.376579 2:-0.458971 
-32768 -32768 1:-0.639514 2:-0.454313 
-0 -7588.811417570293 1:0.698389 2:-0.0804564 
-32768 -32768 1:-0.562065 2:-0.48082 
-32768 -32768 1:-0.821119 2:-0.808737 
-32768 -32768 1:-0.468881 2:-0.453473 
-32768 -0 1:-0.250297 2:-0.112182 
-32768 -32768 1:-0.407975 2:-0.562268 
-32768 -32768 1:-0.921804 2:-0.906565 
-32768 -0 1:-0.215726 2:-0.0871728 
-32768 -32768 1:-0.692519 2:-0.546497 
-32768 -32768 1:-0.643967 2:-0.498644 
-32768 -32768 1:-0.700981 2:-0.631915 
-32768 -32768 1:-0.757176 2:-0.751089 
-32768 -32768 1:-0.863112 2:-0.900031 
-32768 -32768 1:-0.547424 2:-0.628738 
-32768 -32768 1:-0.780468 2:-0.837791 
-32768 -32768 1:-0.209434 2:-0.511156 
-32768 -32768 1:-0.863515 2:-0.831066 
-32768 -0 1:-0.349568 2:-0.286049 
-32768 -0 1:-0.17577 2:-0.0484236 
-32768 -32768 1:-0.77117 2:-0.778766 
-32768 -32768 1:-0.372913 2:-0.419459 
-32768 -0 1:-0.285715 2:-0.269606 
-32768 -0 1:-0.269975 2:0.00276975 
-32768 -32768 1:-0.55302 2:-0.497059 
-32768 -32768 1:-0.530025 2:-0.562633 
-32768 -32768 1:-0.923345 2:-0.914241 
-32768 -32768 1:-0.539834 2:-0.508558 
-32768 -0 1:-0.416521 2:-0.357952 
-32768 -32768 1:-0.561406 2:-0.62418 
-32768 -32768 1:-0.792327 2:-0.776888 
-32768 -32768 1:-0.637734 2:-0.594297 
-32768 -32768 1:-0.516442 2:-0.484965 
-32768 -32768 1:-0.852924 2:-0.823647 
-32768 -32768 1:-0.781195 2:-0.821115 
-32768 -32768 1:-0.773817 2:-0.802629 
-32768 -0 1:-0.225022 2:-0.250383 
-13593.73824778541 -0 1:-0.172272 2:-0.127223 
-32768 -32768 1:-0.730177 2:-0.729798 
-32768 -32768 1:-0.577559 2:-0.590049 
-32768 -0 1:-0.373189 2:-0.335962 
-32768 -32768 1:-0.597059 2:-0.608113 
