svm_type c_svc
kernel_type rbf
gamma 8
nr_class 3
total_sv 170
rho -0.143188 -0.243205 0.0502662
label 1 3 2
nr_sv 74 39 57
SV
8 0 1:-0.146075 2:0.144385 
1.377600568936954 3.448032486101053 1:-0.451851 2:0.365548 
2.130587466291363 8 1:-0.565081 2:-0.364426 
0 8 1:-0.219715 2:0.356617 
8 0 1:-0.37101 2:0.312969 
8 8 1:-0.14856 2:0.519252 
0 8 1:-0.37219 2:0.190595 
0 8 1:-0.265108 2:0.5349 
4.185926761565204 0 1:-0.261249 2:0.113729 
0 8 1:-0.277441 2:0.448136 
0 3.289830665892859 1:-0.378368 2:0.434553 
0 3.128867904729592 1:-0.285876 2:0.142412 
0 4.653726082075798 1:0.14541 2:-0.148948 
4.976725513177378 0 1:-0.362981 2:-0.0511749 
0 8 1:-0.282359 2:0.467214 
7.51734757346747 0.5707987136068245 1:0.111569 2:-0.33742 
6.618858626120972 6.05067785262095 1:-0.314953 2:-0.312899 
0 1.75773333217327 1:-0.455624 2:-0.364113 
8 8 1:-0.330068 2:0.600871 
0.5320798833998643 0.4660413771108765 1:0.984646 2:-1 
0.2974499014443957 0.30913114204551 1:1 2:-0.812832 
0 8 1:-0.284239 2:0.491559 
6.786503539212444 0 1:-0.201849 2:-0.0464723 
7.328434622524817 6.460861174781985 1:-0.50397 2:-0.123401 
0 8 1:-0.486246 2:-0.212855 
8 8 1:-0.121242 2:0.562933 
0.5386298086836988 8 1:-0.417938 2:0.248002 
0 8 1:-0.306076 2:0.523866 
0 8 1:-0.381903 2:0.164629 
3.475967888069682 0 1:-0.253015 2:-0.159171 
0 8 1:-0.260252 2:0.435482 
8 8 1:-0.15915 2:0.550196 
8 6.722627228598131 1:0.0477343 2:0.125149 
0 6.831440592998749 1:-0.423647 2:0.211553 
0 1.835404852644098 1:-0.153246 2:-0.211066 
8 8 1:-0.237065 2:0.527448 
1.318590510323836 0.2808222774778229 1:-0.0168644 2:-0.643677 
0 0.9747394509998413 1:-0.357728 2:0.117808 
1.181343169594074 8 1:-0.334807 2:-0.19247 
8 8 1:-0.0616074 2:0.288909 
8 8 1:-0.181912 2:0.258414 
5.675062575905399 8 1:-0.234982 2:0.502553 
0 5.672862975691429 1:-0.390235 2:-0.234483 
8 5.266559470833722 1:-0.279482 2:-0.145776 
7.05770329228208 0 1:-0.233575 2:0.267998 
0 8 1:-0.218065 2:0.39672 
0 8 1:-0.371969 2:0.440054 
8 2.348916838724123 1:-0.419358 2:0.286252 
0 8 1:-0.399658 2:0.21498 
8 1.530672364990591 1:-0.230999 2:0.247424 
0.4172830987844723 0 1:-0.439064 2:-0.0415598 
8 8 1:-0.153504 2:0.73872 
8 0 1:-0.356684 2:0.323824 
8 8 1:-0.317345 2:0.636379 
3.774931000071245 0 1:0.0690642 2:-0.0857923 
8 0 1:-0.40002 2:0.298323 
8 8 1:-0.113167 2:0.817274 
0 8 1:-0.339362 2:0.258487 
8 0 1:-0.403499 2:0.331741 
1.51531098272656 4.818569812374623 1:-0.114384 2:-0.316707 
1.000771486802942 0.5626624489001697 1:0.543645 2:-0.698022 
0 8 1:-0.314313 2:0.117572 
0 8 1:-0.34298 2:0.152189 
0 8 1:-0.391815 2:0.178724 
0 3.077593853785308 1:-0.242279 2:0.393174 
0 8 1:-0.255248 2:0.434026 
0 8 1:-0.291193 2:0.458926 
8 8 1:-0.24607 2:0.520553 
8 8 1:-0.216558 2:0.539169 
0 8 1:-0.451546 2:-0.199704 
8 8 1:-0.228627 2:0.539382 
0 8 1:-0.219889 2:0.34508 
0 8 1:-0.316973 2:0.511517 
1.988410346589694 8 1:-0.366326 2:0.227471 
-8 8 1:-0.339403 2:0.352408 
-5.466166841908588 8 1:0.081325 2:0.180307 
-8 8 1:-0.249391 2:0.79861 
-8 8 1:-0.430527 2:-0.250643 
-8 4.534198709705842 1:0.11458 2:-0.375811 
-8 8 1:-0.471557 2:-0.0723404 
-8 0 1:0.00353703 2:0.122436 
-8 8 1:-0.120217 2:0.64055 
-8 8 1:-0.410964 2:0.338249 
-8 8 1:-0.0481834 2:0.268464 
-8 8 1:-0.257739 2:0.456789 
-8 8 1:-0.166601 2:0.675726 
-8 8 1:-0.347658 2:0.368735 
-8 8 1:-0.237732 2:0.542073 
-8 8 1:-0.329188 2:0.494708 
-0 5.762976278675714 1:-0.172212 2:0.891425 
-8 8 1:-0.346148 2:0.451277 
-8 3.946402999085236 1:-0.129192 2:0.107966 
-8 8 1:-0.288955 2:0.200772 
-8 8 1:-0.265714 2:-0.25872 
-8 8 1:-0.404001 2:0.241637 
-8 8 1:-0.31381 2:0.105205 
-8 8 1:-0.241107 2:-0.0216559 
-8 8 1:-0.135849 2:0.441582 
-1.63911417354388 1.680069864281579 1:0.540579 2:-0.17376 
-8 8 1:-0.195387 2:0.535932 
-1.525401514228561 1.285307141554771 1:-1 2:-0.393827 
-0.8830915870148836 5.525164264113832 1:0.0450979 2:0.965878 
-0 8 1:-0.213803 2:0.933591 
-3.665012339001175 8 1:0.015581 2:0.525412 
-8 8 1:-0.26094 2:0.301572 
-8 8 1:-0.277255 2:0.526855 
-0 8 1:-0.20753 2:0.831588 
-0.5167321602774707 8 1:-0.146184 2:0.764065 
-8 8 1:-0.172473 2:-0.178763 
-0 2.011189593681036 1:0.163543 2:0.826824 
-8 8 1:-0.141731 2:0.584941 
-8 8 1:-0.173915 2:0.761827 
-8 8 1:-0.320049 2:0.310092 
-8 -8 1:-0.319078 2:0.357398 
-8 -8 1:-0.204149 2:-0.30337 
-8 -8 1:-0.121001 2:0.589912 
-8 -8 1:-0.233126 2:0.58984 
-8 -8 1:-0.0312934 2:0.481029 
-8 -0 1:-0.206107 2:0.389594 
-8 -8 1:-0.37448 2:-0.0867794 
-8 -8 1:-0.298576 2:0.236231 
-2.217735304930993 -1.332482492018811 1:0.400288 2:0.12914 
-8 -6.645410343100559 1:-0.326616 2:0.303637 
-8 -0 1:-0.346343 2:0.548423 
-8 -0 1:-0.327311 2:0.274499 
-8 -8 1:-0.242153 2:0.603482 
-0 -8 1:-0.167199 2:0.708374 
-8 -0 1:-0.232972 2:0.548238 
-8 -8 1:-0.347268 2:0.308324 
-8 -0 1:-0.312833 2:0.493695 
-8 -8 1:-0.382247 2:0.288699 
-8 -0.955843889766251 1:-0.465869 2:-0.203066 
-8 -6.927886959784531 1:-0.413184 2:0.239824 
-8 -0 1:-0.467428 2:0.164051 
-8 -0 1:-0.287999 2:0.510181 
-8 -0 1:-0.211161 2:0.444761 
-1.195133493582162 -8 1:-0.239125 2:1 
-8 -0 1:-0.420751 2:0.203885 
-8 -8 1:-0.335132 2:-0.255832 
-8 -3.213005216310332 1:-0.558934 2:-0.266724 
-8 -0 1:-0.271717 2:0.463709 
-8 -8 1:-0.351529 2:0.420797 
-2.454307792779262 -8 1:0.0885352 2:0.905352 
-8 -0 1:-0.504473 2:-0.334996 
-8 -0 1:-0.424983 2:0.0402786 
-8 -8 1:-0.167327 2:0.657548 
-8 -8 1:0.00657005 2:0.267856 
-8 -0 1:-0.307032 2:0.47969 
-8 -8 1:-0.331568 2:0.0466815 
-8 -2.598518382378104 1:-0.393663 2:-0.252258 
-0 -8 1:-0.296392 2:0.725012 
-8 -8 1:-0.341196 2:0.468661 
-8 -8 1:0.0606583 2:-0.155873 
-8 -0 1:-0.249603 2:0.401345 
-8 -0 1:-0.333054 2:0.26968 
-8 -5.942731985072575 1:-0.248728 2:0.607964 
-8 -8 1:-0.164553 2:0.495992 
-8 -8 1:-0.202953 2:0.613824 
-8 -8 1:-0.192308 2:0.647393 
-0 -1.762698305613476 1:-0.338092 2:0.824896 
-8 -8 1:-0.158663 2:0.252457 
-8 -8 1:-0.31182 2:0.0480135 
-8 -0 1:-0.294668 2:0.524838 
-8 -0 1:-0.286467 2:0.280197 
-8 -6.972053573963279 1:-0.297785 2:0.362704 
-0.9482039114059634 -8 1:-0.112715 2:0.919804 
-0 -4.394677703090093 1:0.179776 2:0.340197 
-0 -8 1:-0.215594 2:0.869812 
-8 -8 1:-0.188651 2:0.317177 
-7.243192396458949 -0 1:-0.301233 2:0.696594 
