svm_type c_svc
kernel_type rbf
gamma 8
nr_class 3
total_sv 155
rho -0.458802 -0.681071 -0.0461316
label 1 3 2
nr_sv 64 43 48
SV
0.5 0 1:-0.464557 2:0.0763047 
0.5 0.2588963215262906 1:-0.855304 2:0.324983 
0.5 0.4052329869143813 1:-1 2:-0.495808 
0.5 0.5 1:-0.467732 2:0.497809 
0.2765822836348288 0.1520454212458054 1:-0.753507 2:0.128263 
0.5 0.5 1:-0.371647 2:-0.38266 
0.5 0.5 1:-0.559382 2:0.482525 
0.5 0.5 1:-0.0920712 2:-0.253522 
0.04175807048898779 0.5 1:-0.741738 2:-0.143585 
0.4634876018026938 0 1:-0.557793 2:0.00741874 
0.142911943926965 0.5 1:-0.680364 2:-0.43787 
0.5 0 1:-0.492526 2:0.300932 
0.02803670631924173 0.2532778624929689 1:-0.860127 2:-0.495455 
0.5 0.5 1:-0.699679 2:0.589583 
0.5 0.3190843056670186 1:1 2:-1 
0 0.5 1:-0.641114 2:0.46667 
0.5 0.5 1:-0.363808 2:0.572556 
0 0.5 1:-0.779616 2:-0.353184 
0.5 0.5 1:-0.274159 2:0.56141 
0.5 0.1168101086639769 1:-0.921907 2:-0.224797 
0.05358519682500645 0.329264858471505 1:-0.899258 2:-0.32538 
0.5 0.5 1:-0.432823 2:0.546924 
0.5 0.5 1:-0.811968 2:0.192812 
0.5 0.5 1:-0.66902 2:0.502996 
0.5 0.4153667851884433 1:0.073401 2:-0.922295 
0 0.04592918810838691 1:-0.818272 2:0.146631 
0.2730972597028294 0.1490179740313492 1:-0.589178 2:-0.917885 
0 0.5 1:-0.823734 2:0.15791 
0.5 0.4195166437890668 1:-0.898139 2:-0.130278 
0.5 0.5 1:-0.21689 2:0.0546757 
0.5 0.5 1:-0.585709 2:0.520539 
0.5 0.3143102323673146 1:-0.29944 2:-0.8098 
0.3067641998159387 0.2452997377137096 1:-0.676679 2:-0.171251 
0 0.349924473937139 1:-0.604008 2:0.231258 
0 0.5 1:-0.659423 2:0.121722 
0.5 0.5 1:-0.705735 2:-0.302458 
0.5 0.1505705362324243 1:-0.476412 2:0.437549 
0.5 0.5 1:-0.356616 2:0.238809 
0.1270042809287849 0 1:-0.875232 2:0.00644237 
0.5 0.3498135457142726 1:-0.510352 2:0.20452 
0.5 0.5 1:-0.57817 2:0.479033 
0 0.5 1:-0.619077 2:0.455227 
0 0.5 1:-0.576372 2:0.215296 
0 0.5 1:-0.634558 2:0.461104 
0.5 0.2451243270046033 1:-0.813782 2:0.235821 
0.3384013646420138 0.5 1:-0.788608 2:0.155682 
0.2369036587772768 0.5 1:-0.604098 2:0.464731 
0.5 0.5 1:-0.838964 2:-0.132774 
0.5 0.5 1:-0.68342 2:0.629508 
0 0.5 1:-0.711556 2:0.204602 
0.03530803120580596 0.0166479678190144 1:-0.56297 2:0.109989 
0.5 0.3221057497383613 1:-0.424059 2:-0.442152 
0.5 0.5 1:-0.665952 2:0.523964 
0.07427164923508509 0 1:-0.716179 2:0.0850798 
0.3622370705029581 0 1:-0.650853 2:-0.214959 
0 0.5 1:-0.661405 2:0.451801 
0 0.1417609733739679 1:-0.650001 2:0.429977 
0.5 0.5 1:-0.592339 2:0.499272 
0.5 0.5 1:-0.554627 2:0.520203 
0 0.5 1:-0.854914 2:-0.310593 
0.5 0.5 1:-0.570049 2:0.520443 
0.5 0.5 1:-0.519579 2:0.640643 
0.00757392609549656 0.5 1:-0.682945 2:0.489112 
0.5 0.5 1:-0.746013 2:0.169727 
-0.5 0.5 1:-0.711608 2:0.310208 
-0.5 0.5 1:-0.173965 2:0.116696 
-0.5 0.5 1:-0.596583 2:0.811922 
-0.5 0.5 1:-0.694946 2:0.746153 
-0.5 0.5 1:-0.828055 2:-0.367869 
-0.5 0.5 1:-0.131469 2:-0.508609 
-0.5 0.5 1:-0.880487 2:-0.167384 
-0.5 0.5 1:-0.273369 2:0.0516247 
-0.5 0.5 1:-0.431512 2:0.634197 
-0.5 0.5 1:-0.312682 2:0.332075 
-0.5 0.5 1:-0.803055 2:0.294287 
-0.5 0.5 1:-0.607251 2:0.427574 
-0.5 0.5 1:-0.490787 2:0.67375 
-0.5 0.5 1:-0.722158 2:0.328566 
-0.5 0.5 1:-0.581684 2:0.523469 
-0.5 0.5 1:-0.720228 2:0.421377 
-0.5 0.5 1:-0.727438 2:0.451259 
-0.5 0.5 1:-0.430808 2:0.332224 
-0.5 0.5 1:-0.647141 2:0.139707 
-0.5 0.5 1:-0.617442 2:-0.376951 
-0.5 0.5 1:0.859916 2:-0.876625 
-0.5 0.5 1:-0.678904 2:0.0322501 
-0.5 0.5 1:-0.585996 2:-0.110394 
-0.5 0.5 1:-0.451489 2:0.410475 
-0.5 0.5 1:0.41291 2:-0.281421 
-0.5 0.5 1:-0.542683 2:0.395588 
-0.5 0.5 1:-0.527572 2:0.516564 
-0.5 0.5 1:-0.52192 2:0.512223 
-0.5 0.5 1:-0.154039 2:-0.607475 
-0.4093994707678536 0.4781823365763844 1:-0.220259 2:1 
-0.5 0.5 1:-0.729226 2:0.0714395 
-0.5 0.5 1:-0.926131 2:-0.144842 
-0 0.4425171733805761 1:-0.551105 2:0.963696 
-0.5 0.5 1:-0.257978 2:0.504735 
-0.5 0.5 1:-0.368519 2:0.633551 
-0.5 0.5 1:-0.63219 2:0.506357 
-0.3585237731360593 0.5 1:-0.54309 2:0.849003 
-0.5 0.5 1:-0.464696 2:0.773079 
-0.5 0.5 1:-0.498291 2:-0.287047 
-0.5 0.5 1:-0.864212 2:-0.115335 
-0.5 0.5 1:-0.421873 2:0.759527 
-0.5 0.5 1:-0.0688986 2:0.843646 
-0.5 0.5 1:-0.686876 2:0.262627 
-0.5 -0.5 1:-0.188558 2:-0.580456 
-0.5 -0.5 1:-0.538769 2:-0.427156 
-0.5 -0.5 1:-0.432515 2:0.57726 
-0.5 -0.5 1:-0.79035 2:-0.20122 
-0.5 -0.5 1:-0.426296 2:0.730635 
-0.5 -0.5 1:-0.541271 2:0.35202 
-0.5 -0.5 1:-0.756433 2:-0.183619 
-0.5 -0.5 1:-0.610968 2:0.322075 
-0.5 -0.5 1:0.233634 2:0.0591625 
-0.5 -0.5 1:-0.720477 2:0.530609 
-0.5 -0.5 1:-0.587334 2:0.592518 
-0.5 -0.5 1:-0.49155 2:0.71046 
-0.5 -0.5 1:-0.721658 2:0.260639 
-0.5 -0 1:-0.677655 2:0.469072 
-0.5 -0.5 1:-0.553142 2:0.445606 
-0.5 -0.5 1:-0.873218 2:-0.314373 
-0.5 -0.5 1:-0.805892 2:0.183617 
-0.5 -0.5 1:-0.87521 2:0.0984167 
-0.5 -0.2958964651431945 1:-0.64592 2:0.487609 
-0.5 -0.5 1:-0.54773 2:0.414051 
-0.5 -0.5 1:-0.815562 2:0.143207 
-0.5 -0.5 1:-0.706151 2:-0.373704 
-0.5 -0.2250773786825929 1:-0.625113 2:0.435355 
-0.5 -0.5 1:-0.164751 2:0.931944 
-0.5 -0.5 1:-0.92255 2:-0.462717 
-0.5 -0.5 1:-0.820971 2:-0.0407539 
-0.5 -0.5 1:-0.491715 2:0.65331 
-0.5 -0.5 1:-0.269493 2:0.215136 
-0.5 -0.5 1:-0.687813 2:0.263892 
-0.5 -0.09668752383777306 1:-0.780947 2:-0.369685 
-0.5 -0.5 1:-0.656645 2:0.729167 
-0.5 -0 1:-0.7139 2:0.440924 
-0.5 -0.5 1:-0.200374 2:-0.261309 
-0.5 -0.5 1:-0.810448 2:-0.270549 
-0.5 -0.5 1:-0.596854 2:0.365233 
-0.5 -0.5 1:0.207719 2:-0.491184 
-0.5 -0.5 1:-0.595735 2:0.597558 
-0.5 -0.5 1:-0.488169 2:0.471655 
-0.5 -0.5 1:-0.537241 2:0.604147 
-0.5 -0.5 1:-0.523638 2:0.641892 
-0.5 -0.5 1:-0.480642 2:0.197822 
-0.5 -0.5 1:-0.67636 2:-0.0320567 
-0.5 -0.5 1:-0.657637 2:0.276367 
-0.5 -0.5 1:-0.654443 2:0.504089 
-0.5 -0 1:-0.658426 2:0.321784 
-0.5 -0.5 1:-0.0481553 2:0.296478 
-0.5 -0.3030381422933999 1:-0.706892 2:0.27656 
-0.5 -0.5 1:-0.662831 2:0.697214 
