svm_type c_svc
kernel_type rbf
gamma 2
nr_class 3
total_sv 151
rho 0.0695386 -0.222698 -0.245866
label 1 2 3
nr_sv 57 57 37
SV
1.532273327870949 0 1:0.0731622 2:-0.754525 
2 2 1:0.144385 2:-0.420934 
2 0 1:-0.364426 2:-0.94041 
2 2 1:0.356617 2:-0.24385 
2 0 1:0.5349 2:-0.663035 
2 2 1:-0.263797 2:-0.491207 
2 0 1:0.113729 2:-0.446043 
2 0 1:0.0178767 2:-0.757194 
2 2 1:0.50566 2:-0.547919 
2 2 1:-0.0511749 2:-0.44744 
2 0 1:0.410368 2:-0.586933 
0 0.5726544873631249 1:-0.33742 2:-0.534635 
2 2 1:0.094459 2:-0.335457 
0.203330900790873 0 1:0.344158 2:-0.593623 
2 2 1:0.377877 2:-0.290609 
0.3534719002460446 1.440127824931951 1:-1 2:-0.331566 
2 2 1:-0.0464723 2:-0.470724 
2 1.192009784895854 1:0.585729 2:1 
2 2 1:0.575816 2:-0.399633 
2 0 1:-0.123401 2:-0.840253 
2 2 1:0.562933 2:-0.476577 
1.164539604992043 0 1:-0.307459 2:-0.785328 
2 0 1:0.164629 2:-0.449204 
2 2 1:0.550196 2:-0.107566 
2 0 1:-0.0393399 2:-0.807821 
0 2 1:-0.211066 2:-0.511408 
2 0 1:0.539467 2:-0.676885 
2 2 1:0.527448 2:0.00761834 
1.006213258330358 0 1:-0.07578 2:-0.504915 
2 2 1:0.184777 2:-0.391535 
2 1.413345784040697 1:0.433391 2:-0.835531 
2 0 1:0.465659 2:-0.538517 
2 2 1:0.288909 2:-0.38521 
2 2 1:0.502553 2:-0.568769 
2 0 1:0.481382 2:-0.645049 
0.8506650833779272 0 1:0.267998 2:-0.564916 
2 0 1:0.39672 2:-0.61194 
2 0 1:0.440054 2:-0.583479 
2 0 1:0.486609 2:-0.682757 
2 2 1:0.489834 2:-0.491205 
2 2 1:0.73872 2:-0.600935 
2 2 1:-0.0857923 2:-0.483643 
2 2 1:0.817274 2:-0.386231 
2 2 1:-0.316707 2:0.305393 
2 2 1:-0.698022 2:-0.312686 
2 2 1:0.542513 2:-0.652423 
2 0 1:0.152189 2:-0.785548 
2 0 1:0.178724 2:-0.806178 
2 2 1:0.393174 2:-0.320599 
2 0 1:0.434026 2:-0.537079 
2 0 1:0.520553 2:-0.634115 
2 0 1:0.296075 2:-0.835983 
2 2 1:0.539169 2:-0.543604 
2 0.9823310295652325 1:0.539382 2:-0.675672 
2 2 1:0.646283 2:-0.458274 
2 0 1:0.511517 2:-0.609693 
2 0 1:0.227471 2:-0.788608 
-2 2 1:-0.439708 2:-0.0542577 
-2 0 1:0.357398 2:-0.683872 
-2 2 1:0.589912 2:-0.493847 
-2 0 1:0.58984 2:-0.614107 
-2 2 1:-0.102433 2:-0.622268 
-2 2 1:0.726317 2:-0.263644 
-0 2 1:0.481029 2:0.0647279 
-2 2 1:0.389594 2:-0.274239 
-2 0 1:0.236231 2:-0.705338 
-2 2 1:0.362962 2:-0.102561 
-1.713122391307006 2 1:0.12914 2:0.576577 
-2 0 1:0.303637 2:-0.604769 
-2 2 1:0.548423 2:-0.689714 
-2 0 1:0.274499 2:-0.696982 
-2 0 1:0.603482 2:-0.575809 
-2 2 1:0.708374 2:-0.437387 
-2 2 1:0.548238 2:-0.692205 
-2 2 1:0.308324 2:-0.833359 
-2 0 1:0.493695 2:-0.691402 
-0.07204832067585035 2 1:0.472825 2:-0.0727511 
-2 0 1:0.288699 2:-0.554523 
-2 1.031332803767825 1:-0.203066 2:-0.688658 
-2 0.1319512665932984 1:0.239824 2:-0.859091 
-2 2 1:0.510181 2:-0.261337 
-2 1.542275951202107 1:0.444761 2:-0.745758 
-0 2 1:1 2:-0.286223 
-2 0 1:0.203885 2:-0.7198 
-2 2 1:-0.255832 2:-0.356941 
-2 0 1:-0.266724 2:-0.86681 
-2 0 1:0.463709 2:-0.69064 
-2 0 1:0.420797 2:-0.713202 
-1.325323363625337 2 1:0.905352 2:-0.285768 
-2 0 1:0.0402786 2:-0.729346 
-2 2 1:0.267856 2:-0.433692 
-2 0 1:0.311217 2:-0.757299 
-2 0 1:0.47969 2:-0.617051 
-2 0 1:0.0466815 2:-0.621244 
-0 2 1:0.725012 2:0.196946 
-2 2 1:-0.155873 2:-0.512069 
-2 0 1:-0.164091 2:-1 
-2 1.72308464420543 1:0.26968 2:-0.496642 
-2 2 1:-0.360314 2:-0.422573 
-2 2 1:0.607964 2:-0.300729 
-2 2 1:0.495992 2:-0.308354 
-2 0.3820834125525597 1:0.647393 2:-0.572571 
-0 2 1:0.824896 2:-0.216355 
-2 2 1:0.252457 2:-0.18346 
-2 2 1:0.0480135 2:-0.548261 
-2 2 1:0.322312 2:-0.458314 
-2 0 1:0.524838 2:-0.683153 
-2 2 1:0.280197 2:-0.41546 
-2 0 1:0.362704 2:-0.54886 
-2 2 1:0.919804 2:-0.320105 
-2 2 1:0.340197 2:-0.227282 
-2 1.299321830087812 1:0.869812 2:0.974154 
-2 0 1:0.322483 2:-0.52152 
-2 2 1:0.317177 2:-0.121021 
-2 -2 1:0.180307 2:-0.00889792 
-2 -2 1:0.79861 2:-0.367896 
-2 -2 1:0.740118 2:-0.197481 
-1.627599829647817 -0 1:-0.375811 2:-0.00531355 
-2 -2 1:-0.0723404 2:-0.58638 
-2 -2 1:0.64055 2:-0.678011 
-2 -2 1:0.371855 2:-0.373675 
-0.6111549905624543 -2 1:0.338249 2:0.0858139 
-0 -1.141228832177464 1:0.268464 2:0.303686 
-2 -2 1:0.675726 2:-0.385196 
-0.5496462021730942 -2 1:0.494708 2:0.0517558 
-2 -2 1:0.107966 2:0.0112891 
-2 -2 1:0.477853 2:-0.854327 
-2 -2 1:0.371988 2:-0.317792 
-2 -2 1:0.200772 2:-0.26182 
-2 -2 1:-0.25872 2:-0.308562 
-2 -2 1:0.241637 2:-0.814347 
-0 -2 1:0.808245 2:0.0905154 
-2 -2 1:-0.703107 2:-0.209439 
-2 -2 1:0.105205 2:-0.62904 
-0 -0.3518470948931918 1:-0.17376 2:0.259057 
-2 -2 1:0.428341 2:-0.337522 
-0 -2 1:0.535932 2:0.0474205 
-2 -2 1:0.532071 2:-0.352497 
-2 -2 1:-0.463738 2:-0.217744 
-0 -2 1:0.965878 2:0.0870883 
-2 -2 1:0.140058 2:-0.59006 
-2 -2 1:-0.052293 2:-0.348633 
-0.8120678884134948 -0.6169739813383769 1:0.914391 2:0.348521 
-2 -2 1:0.525412 2:-0.32366 
-2 -2 1:0.301572 2:-0.516504 
-2 -2 1:0.639975 2:-0.353429 
-2 -2 1:0.764065 2:-0.559307 
-2 -2 1:-0.0260506 2:-0.507206 
-0 -2 1:0.752013 2:-0.0517345 
-2 -2 1:0.584941 2:-0.50259 
-2 -2 1:0.761827 2:-0.446053 
