svm_type c_svc
kernel_type rbf
gamma 8
nr_class 3
total_sv 168
rho -0.655808 -0.784745 -0.0388943
label 1 3 2
nr_sv 75 43 50
SV
0.5 0 1:-0.146075 2:0.144385 
0.5 0 1:-0.451851 2:0.365548 
0 0.1007638044754231 1:-0.219715 2:0.356617 
0 0.5 1:-0.37101 2:0.312969 
0.5 0 1:-0.14856 2:0.519252 
0.5 0.5 1:-0.265108 2:0.5349 
0 0.1006418475860788 1:-0.0733694 2:-0.263797 
0.1259949305621475 0 1:-0.261249 2:0.113729 
0 0.5 1:-0.285876 2:0.142412 
0 0.2236793627910237 1:0.14541 2:-0.148948 
0.5 0 1:-0.219036 2:0.0831211 
0.4069390694984832 0.5 1:0.111569 2:-0.33742 
0.2527231628038898 0.2608733400244858 1:-0.314953 2:-0.312899 
0 0.5 1:-0.299744 2:0.375268 
0.5 0.2313653336780288 1:-0.167962 2:0.344158 
0 0.4976390308912322 1:-0.455624 2:-0.364113 
0.5 0.5 1:-0.330068 2:0.600871 
0.1561677040932042 0.1339301039556052 1:0.984646 2:-1 
0.5 0.0715197968884719 1:1 2:-0.812832 
0 0.5 1:-0.284239 2:0.491559 
0.5 0.5 1:-0.0672347 2:0.585729 
0.5 0.3986984053649628 1:0.00291921 2:0.575816 
0.5 0.5 1:-0.50397 2:-0.123401 
0.3401454054270548 0.5 1:-0.486246 2:-0.212855 
0.5 0.2578123268916023 1:-0.121242 2:0.562933 
0.3995362756513353 0.5 1:-0.487971 2:-0.307459 
0.5 0.5 1:-0.417938 2:0.248002 
0.3838082249218521 0.5 1:-0.306076 2:0.523866 
0.08041563548061065 0.1121961574541097 1:0.274899 2:-0.743725 
0 0.06411346536852429 1:-0.422872 2:0.20693 
0.5 0 1:-0.253015 2:-0.159171 
0.1577284965915065 0.03208832124947378 1:-0.243597 2:-0.739803 
0.3774931058887603 0.1267358092412154 1:-0.427146 2:0.216961 
0.5 0.5 1:-0.15915 2:0.550196 
0.5 0.5 1:-0.485371 2:-0.0393399 
0.5 0.1191008387125855 1:0.0477343 2:0.125149 
0 0.04171707097056332 1:-0.423647 2:0.211553 
0 0.5 1:-0.328903 2:0.301682 
0.5 0.5 1:-0.240882 2:0.539467 
0.5 0.5 1:-0.237065 2:0.527448 
0.3359462400196688 0.3098496940775447 1:-0.0168644 2:-0.643677 
0.411050587863385 0.5 1:-0.255202 2:0.282194 
0 0.5 1:-0.298565 2:0.184777 
0 0.5 1:-0.334807 2:-0.19247 
0.5 0 1:-0.155352 2:0.465659 
0.5 0.5 1:-0.0616074 2:0.288909 
0.4727503259962371 0 1:-0.467445 2:0.0822528 
0.5 0.5 1:-0.181912 2:0.258414 
0 0.5 1:-0.390235 2:-0.234483 
0.3080497996654873 0.09937508186667343 1:-0.279482 2:-0.145776 
0 0.5 1:-0.386695 2:-0.0724892 
0 0.4923882248420688 1:-0.381275 2:0.133316 
0.5 0.5 1:-0.419358 2:0.286252 
0.5 0.5 1:-0.230999 2:0.247424 
0.1683478544919468 0.2196609425327978 1:-0.439064 2:-0.0415598 
0.5 0.5 1:-0.153504 2:0.73872 
0 0.5 1:-0.356684 2:0.323824 
0.5 0.5 1:-0.317345 2:0.636379 
0.4850821718879882 0 1:0.0690642 2:-0.0857923 
0 0.5 1:-0.40002 2:0.298323 
0.5 0.5 1:-0.113167 2:0.817274 
0 0.5 1:-0.326169 2:0.375867 
0 0.5 1:-0.339362 2:0.258487 
0 0.02112269216673258 1:-0.403499 2:0.331741 
0.5 0.3058143719377678 1:-0.223087 2:0.174342 
0.3919627792283429 0.2684663329766779 1:0.543645 2:-0.698022 
0.5 0.5 1:-0.303675 2:0.542513 
0 0.5 1:-0.34298 2:0.152189 
0 0.01044764405635024 1:-0.300116 2:0.478334 
0.2458582299280994 0 1:-0.187064 2:-0.186592 
0 0.5 1:-0.366691 2:0.296075 
0.5 0.5 1:-0.216558 2:0.539169 
0.5 0.5 1:-0.228627 2:0.539382 
0.5 0.5 1:-0.189132 2:0.646283 
0 0.5 1:-0.316973 2:0.511517 
-0.5 0.5 1:-0.339403 2:0.352408 
-0.5 0.3185925482918187 1:0.081325 2:0.180307 
-0.5 0.5 1:-0.326364 2:0.740118 
-0.5 0.5 1:-0.430527 2:-0.250643 
-0.5 0.5 1:-0.471557 2:-0.0723404 
-0.5 0.5 1:0.00353703 2:0.122436 
-0.5 0.5 1:-0.0272268 2:0.371855 
-0.5 0.5 1:-0.0481834 2:0.268464 
-0.5 0.5 1:-0.257739 2:0.456789 
-0.5 0.5 1:-0.166601 2:0.675726 
-0.5 0.5 1:-0.347658 2:0.368735 
-0.5 0.5 1:-0.237732 2:0.542073 
-0.5 0.5 1:-0.329188 2:0.494708 
-0.5 0.5 1:-0.172212 2:0.891425 
-0.5 0.5 1:-0.346148 2:0.451277 
-0.5 0.5 1:-0.129192 2:0.107966 
-0.5 0.5 1:-0.351791 2:0.477853 
-0.5 0.5 1:-0.119666 2:0.371988 
-0.5 0.5 1:-0.265714 2:-0.25872 
-0.5 0.5 1:-0.404001 2:0.241637 
-0.5 0.5 1:0.890379 2:-0.703107 
-0.5 0.5 1:-0.31381 2:0.105205 
-0.5 0.5 1:-0.241107 2:-0.0216559 
-0.5 0.5 1:-0.135849 2:0.441582 
-0.5 0.5 1:-0.207212 2:0.428341 
-0.5 0.5 1:-0.190964 2:0.532071 
-0.5 0.5 1:0.0969173 2:-0.463738 
-0.5 0.5 1:-1 2:-0.393827 
-0.5 0.5 1:-0.353189 2:0.140058 
-0.5 0.5 1:-0.507276 2:-0.052293 
-0.5 0.5 1:-0.213803 2:0.933591 
-0.5 0.5 1:0.015581 2:0.525412 
-0.5 0.5 1:-0.26094 2:0.301572 
-0.5 0.5 1:-0.0709215 2:0.639975 
-0.5 0.5 1:-0.277255 2:0.526855 
-0.5 0.5 1:-0.20753 2:0.831588 
-0.5 0.5 1:-0.172473 2:-0.178763 
-0.5 0.5 1:-0.458821 2:-0.0260506 
-0.5 0.5 1:-0.112673 2:0.752013 
-0.5 0.5 1:0.163543 2:0.826824 
-0.5 0.5 1:-0.141731 2:0.584941 
-0.5 0.5 1:-0.173915 2:0.761827 
-0.5 0.5 1:-0.320049 2:0.310092 
-0.5 -0.5 1:0.0699051 2:-0.439708 
-0.5 -0.5 1:-0.319078 2:0.357398 
-0.5 -0.5 1:-0.204149 2:-0.30337 
-0.5 -0.5 1:-0.233126 2:0.58984 
-0.5 -0.5 1:-0.401022 2:-0.102433 
-0.5 -0.5 1:-0.116134 2:0.726317 
-0.5 -0.5 1:-0.0312934 2:0.481029 
-0.5 -0.5 1:-0.206107 2:0.389594 
-0.5 -0.5 1:-0.37448 2:-0.0867794 
-0.5 -0.5 1:-0.298576 2:0.236231 
-0.5 -0.5 1:-0.260648 2:0.362962 
-0.5 -0.03193368866541857 1:-0.326616 2:0.303637 
-0.5 -0.5 1:-0.327311 2:0.274499 
-0.5 -0.5 1:-0.242153 2:0.603482 
-0.5 -0.5 1:-0.232972 2:0.548238 
-0.5 -0 1:-0.347268 2:0.308324 
-0.5 -0.5 1:-0.312833 2:0.493695 
-0.5 -0.5 1:-0.215396 2:0.472825 
-0.5 -0 1:-0.382247 2:0.288699 
-0.5 -0.03015624673774505 1:-0.465869 2:-0.203066 
-0.5 -0.5 1:-0.467428 2:0.164051 
-0.5 -0.5 1:-0.239125 2:1 
-0.5 -0 1:-0.420751 2:0.203885 
-0.5 -0.5 1:-0.558934 2:-0.266724 
-0.5 -0.1529493856035053 1:-0.351529 2:0.420797 
-0.5 -0.5 1:-0.504473 2:-0.334996 
-0.5 -0.5 1:-0.424983 2:0.0402786 
-0.5 -0.5 1:-0.167327 2:0.657548 
-0.5 -0.5 1:-0.320782 2:0.311217 
-0.5 -0.5 1:-0.307032 2:0.47969 
-0.5 -0.5 1:-0.331568 2:0.0466815 
-0.5 -0.5 1:-0.393663 2:-0.252258 
-0.5 -0.5 1:-0.341196 2:0.468661 
-0.5 -0.5 1:-0.416749 2:-0.164091 
-0.5 -0.5 1:-0.249603 2:0.401345 
-0.5 -0.1035532272851497 1:-0.333054 2:0.26968 
-0.5 -0.5 1:0.380008 2:-0.360314 
-0.5 -0.5 1:-0.248728 2:0.607964 
-0.5 -0.5 1:-0.202953 2:0.613824 
-0.5 -0.5 1:-0.338092 2:0.824896 
-0.5 -0.5 1:-0.158663 2:0.252457 
-0.5 -0.5 1:-0.31182 2:0.0480135 
-0.5 -0.5 1:-0.297168 2:0.322312 
-0.5 -0.5 1:-0.286467 2:0.280197 
-0.5 -0.5 1:-0.112715 2:0.919804 
-0.5 -0.5 1:0.179776 2:0.340197 
-0.5 -0.5 1:-0.215594 2:0.869812 
-0.5 -0 1:-0.335712 2:0.322483 
-0.5 -0.5 1:-0.188651 2:0.317177 
-0.5 -0.5 1:-0.301233 2:0.696594 
