svm_type c_svc
kernel_type rbf
gamma 2
nr_class 3
total_sv 143
rho 9.62348 -20.494 -0.389212
label 1 3 2
nr_sv 60 27 56
SV
21905.46311487271 0 1:0.365548 2:-0.42953 
0 20598.33428573909 1:-0.364426 2:-1 
21447.6583056356 32768 1:0.356617 2:-0.272356 
32768 32768 1:0.519252 2:-0.410993 
0 32768 1:0.5349 2:-0.710248 
0 32768 1:0.448136 2:-0.772182 
0 32768 1:0.434553 2:-0.815852 
32768 32768 1:0.142412 2:-0.654283 
15330.54435299144 4803.440928899834 1:-0.148948 2:-0.286193 
0 32768 1:0.467214 2:-0.794295 
3514.355265612928 15402.60810528369 1:-0.33742 2:-0.576118 
32768 32768 1:0.600871 2:-0.468071 
0 32768 1:0.377877 2:-0.321203 
0 4259.582227003941 1:0.491559 2:-0.124921 
0 10687.52118157651 1:-0.237583 2:-0.709017 
0 10073.75738071903 1:-0.123401 2:-0.895374 
0 32768 1:-0.212855 2:-0.849412 
32768 32768 1:0.562933 2:-0.515469 
0 31628.58543830498 1:0.523866 2:-0.18789 
11125.65830800654 32768 1:0.20693 2:-0.874789 
0 32768 1:0.435482 2:-0.54625 
0 32768 1:0.398482 2:-0.808489 
0 32768 1:0.125149 2:-0.589531 
0 4806.957765959379 1:-0.363304 2:-0.816187 
32768 32768 1:-0.211066 2:-0.551854 
32768 0 1:0.527448 2:-0.00966662 
17582.93189865164 0 1:-0.19247 2:-0.627407 
31442.13287124388 20424.89529157771 1:0.288909 2:-0.420024 
0 32768 1:0.123159 2:-0.576406 
15323.22286438241 28295.57596663596 1:0.0822528 2:-0.717917 
32768 32768 1:0.258414 2:-0.294189 
0 32768 1:0.502553 2:-0.611775 
0 32768 1:-0.234483 2:-0.734309 
3945.900302292378 0 1:-0.145776 2:-0.715669 
0 19973.09371649974 1:0.267998 2:-0.60775 
6695.262682984403 32768 1:0.133316 2:-0.644298 
0 32768 1:0.440054 2:-0.627142 
27961.12731880957 32768 1:0.286252 2:-0.827788 
7577.554815269371 0 1:0.247424 2:-0.655052 
32768 19896.96237822226 1:0.73872 2:-0.645377 
0 5454.619668629701 1:0.323824 2:-0.800794 
23982.62705230837 32768 1:0.636379 2:-0.733301 
0 32768 1:0.0749264 2:-0.598946 
0 32768 1:0.401194 2:-0.812876 
32768 32768 1:0.817274 2:-0.421091 
0 32768 1:0.375867 2:-0.764382 
7.303796463613009 42.23461933427638 1:-0.316707 2:0.301396 
573.9828184172586 0 1:-0.698022 2:-0.344265 
0 32768 1:0.117572 2:-0.619082 
0 21849.92561595015 1:0.178724 2:-0.859778 
0 20613.29529187073 1:0.393174 2:-0.35253 
0 32768 1:0.434026 2:-0.578671 
32768 2895.410207462026 1:-0.186592 2:-0.562952 
0 32768 1:0.458926 2:-0.599361 
0 32768 1:0.520553 2:-0.680037 
13777.17641589834 32768 1:0.539169 2:-0.585487 
0 32768 1:-0.199704 2:-0.754071 
0 32768 1:0.539382 2:-0.723448 
0 32768 1:0.511517 2:-0.654525 
0 15702.71586042035 1:0.227471 2:-0.841425 
-0 1910.739088326375 1:0.180307 2:-0.0269199 
-11735.13184280378 32768 1:0.79861 2:-0.401938 
-32768 32768 1:-0.250643 2:-0.606213 
-32768 32768 1:-0.0723404 2:-0.630172 
-39.27900857407983 0 1:0.122436 2:-0.123835 
-32768 21508.52234069094 1:0.64055 2:-0.725892 
-32768 32768 1:0.675726 2:-0.42001 
-32768 32768 1:0.368735 2:-0.61302 
-25027.94572653358 14764.9965174315 1:0.542073 2:0.0273982 
-0 32768 1:0.494708 2:0.0364404 
-0 832.7960232551881 1:0.451277 2:0.4827 
-32768 32768 1:0.200772 2:-0.291129 
-14838.37785592654 20639.47845138406 1:-0.25872 2:-0.339957 
-32768 32768 1:0.241637 2:-0.868311 
-32768 32768 1:0.105205 2:-0.674736 
-32768 32768 1:0.441582 2:-0.376208 
-0 1956.847531447128 1:0.914391 2:0.346448 
-4025.993233761834 0 1:0.933591 2:-0.431057 
-32768 32768 1:0.525412 2:-0.355728 
-32768 32768 1:0.301572 2:-0.557178 
-0 2238.444415713921 1:0.526855 2:0.192717 
-35.75714036672896 16818.67768016761 1:0.831588 2:-0.0954022 
-32768 0 1:0.764065 2:-0.601891 
-32768 32768 1:-0.178763 2:-0.539026 
-32768 32768 1:0.584941 2:-0.542643 
-2650.417375873272 32768 1:0.761827 2:-0.483583 
-32768 32768 1:0.310092 2:-0.259311 
-32768 -0 1:0.357398 2:-0.732014 
-14933.10462497137 -554.1378919392866 1:-0.30337 2:-0.474472 
-32768 -0 1:0.589912 2:-0.53351 
-32768 -1632.033401530069 1:0.58984 2:-0.659136 
-1875.47759995019 -32768 1:0.481029 2:0.0499914 
-32768 -0 1:0.389594 2:-0.304102 
-32768 -23907.945570272 1:-0.0867794 2:-0.676658 
-32768 -12184.83807563443 1:0.236231 2:-0.754439 
-0 -317.3962030226739 1:0.12914 2:0.584681 
-32768 -0 1:0.303637 2:-0.649382 
-32768 -0 1:0.548423 2:-0.738117 
-32768 -0 1:0.274499 2:-0.74571 
-32768 -0 1:0.603482 2:-0.619129 
-0 -32768 1:0.708374 2:-0.47453 
-32768 -0 1:0.548238 2:-0.74072 
-32768 -16993.10633512354 1:0.308324 2:-0.888172 
-32768 -0 1:0.493695 2:-0.739881 
-32768 -15040.52120036722 1:0.288699 2:-0.596893 
-32768 -0 1:-0.203066 2:-0.737014 
-32768 -4879.72519056779 1:0.239824 2:-0.915053 
-32768 -0 1:0.164051 2:-0.651093 
-32768 -32768 1:0.510181 2:-0.290624 
-32768 -0 1:0.444761 2:-0.796662 
-370.5500478543433 -0 1:1 2:-0.31662 
-32768 -19252.92357166624 1:0.203885 2:-0.769546 
-0 -32768 1:-0.255832 2:-0.390494 
-32768 -0 1:-0.266724 2:-0.923116 
-32768 -0 1:0.463709 2:-0.739085 
-32768 -0 1:0.420797 2:-0.762653 
-32768 -0 1:-0.334996 2:-0.905652 
-32768 -0 1:0.0402786 2:-0.779517 
-0 -12820.69480840212 1:0.657548 2:-0.323117 
-32768 -0 1:0.267856 2:-0.470671 
-32768 -0 1:0.47969 2:-0.662212 
-32768 -0 1:0.0466815 2:-0.666591 
-32768 -24191.2028996025 1:-0.252258 2:-0.645338 
-383.6264076000015 -11977.65598467766 1:0.725012 2:0.18811 
-21162.28739089139 -0 1:0.468661 2:-0.843547 
-32768 -32768 1:-0.155873 2:-0.552545 
-32768 -12372.90448604181 1:0.401345 2:-0.510095 
-32768 -32768 1:0.26968 2:-0.536429 
-32768 -7720.678695001659 1:0.607964 2:-0.331774 
-32768 -29339.38407859648 1:0.495992 2:-0.339739 
-32768 -16946.05678471136 1:0.613824 2:-0.601279 
-25372.63117024252 -32768 1:0.647393 2:-0.615747 
-0 -26226.3181127395 1:0.824896 2:-0.243635 
-19779.06304353703 -32768 1:0.252457 2:-0.209272 
-32768 -24463.94862153322 1:0.0480135 2:-0.590352 
-32768 -0 1:0.524838 2:-0.731263 
-32768 -27442.71611953485 1:0.280197 2:-0.451625 
-32768 -0 1:0.362704 2:-0.590978 
-9692.775645043652 -8634.095934059627 1:0.919804 2:-0.352015 
-32768 -0 1:0.340197 2:-0.255049 
-0 -30.69170128678822 1:0.869812 2:1 
-0 -13117.52638210769 1:0.317177 2:-0.144047 
-32768 -32768 1:0.696594 2:-0.530533 
