svm_type c_svc
kernel_type rbf
gamma 0.5
nr_class 3
total_sv 147
rho -0.121516 -0.47183 0.151078
label 1 3 2
nr_sv 57 40 50
SV
0 1.733822067667499 1:0.0731622 2:-0.754525 
2 2 1:0.144385 2:-0.420934 
2 2 1:0.365548 2:-0.394309 
2 2 1:0.356617 2:-0.24385 
2 2 1:0.519252 2:-0.376564 
0 2 1:0.5349 2:-0.663035 
2 0.03011689535709088 1:-0.263797 2:-0.491207 
2 2 1:0.113729 2:-0.446043 
0 2 1:0.0178767 2:-0.757194 
2 2 1:0.0339343 2:-0.303734 
2 2 1:0.50566 2:-0.547919 
2 2 1:-0.148948 2:-0.257095 
2 0.6256004567521311 1:-0.0511749 2:-0.44744 
0 2 1:-0.312899 2:-0.629779 
0 2 1:-0.364113 2:-0.74027 
2 2 1:0.600871 2:-0.431204 
2 0.2574374300613604 1:-1 2:-0.331566 
1.789507670186218 0 1:-0.812832 2:-0.490187 
2 2 1:0.491559 2:-0.102712 
2 2 1:0.585729 2:1 
2 2 1:0.575816 2:-0.399633 
0 2 1:-0.123401 2:-0.840253 
0 2 1:-0.212855 2:-0.796255 
2 2 1:0.562933 2:-0.476577 
0 2 1:-0.307459 2:-0.785328 
2 2 1:0.523866 2:-0.162992 
0 2 1:0.20693 2:-0.820548 
2 2 1:0.435482 2:-0.506043 
2 2 1:0.550196 2:-0.107566 
0 2 1:-0.0393399 2:-0.807821 
0 2 1:0.539467 2:-0.676885 
2 2 1:0.527448 2:0.00761834 
2 0 1:-0.07578 2:-0.504915 
2 2 1:0.184777 2:-0.391535 
2 2 1:0.465659 2:-0.538517 
2 2 1:0.288909 2:-0.38521 
2 2 1:0.258414 2:-0.264749 
0 2 1:-0.234483 2:-0.686069 
0 2 1:-0.145776 2:-0.668225 
1.282282522714979 1.353023150161918 1:0.440054 2:-0.583479 
2 2 1:0.489834 2:-0.491205 
0 2 1:-0.0415598 2:-0.805827 
2 2 1:0.73872 2:-0.600935 
0 2 1:0.636379 2:-0.685104 
2 0 1:-0.0857923 2:-0.483643 
2 0 1:-0.0194102 2:-0.509372 
2 2 1:0.817274 2:-0.386231 
2 2 1:-0.698022 2:-0.312686 
0 2 1:0.542513 2:-0.652423 
2 2 1:0.393174 2:-0.320599 
2 2 1:0.434026 2:-0.537079 
2 2 1:0.458926 2:-0.556886 
0 2 1:0.296075 2:-0.835983 
2 2 1:0.539169 2:-0.543604 
0 2 1:0.539382 2:-0.675672 
2 2 1:0.646283 2:-0.458274 
0 2 1:0.511517 2:-0.609693 
-0 0.06917136915789755 1:0.352408 2:0.911257 
-2 2 1:0.180307 2:-0.00889792 
-2 2 1:0.740118 2:-0.197481 
-2 2 1:-0.250643 2:-0.563445 
-2 2 1:-0.0723404 2:-0.58638 
-2 2 1:0.122436 2:-0.101673 
-2 2 1:0.371855 2:-0.373675 
-0 0.1819404990577839 1:0.456789 2:0.102085 
-2 2 1:0.675726 2:-0.385196 
-2 2 1:0.368735 2:-0.56996 
-2 2 1:0.542073 2:0.0430998 
-1.617646046276504 2 1:0.494708 2:0.0517558 
-2 2 1:0.891425 2:-0.529775 
-2 2 1:0.107966 2:0.0112891 
-2 2 1:0.477853 2:-0.854327 
-2 2 1:0.371988 2:-0.317792 
-2 2 1:-0.25872 2:-0.308562 
-2 2 1:0.241637 2:-0.814347 
-2 2 1:-0.703107 2:-0.209439 
-2 2 1:0.105205 2:-0.62904 
-2 0 1:-0.0216559 2:0.102159 
-2 2 1:0.441582 2:-0.343265 
-2 2 1:0.428341 2:-0.337522 
-2 2 1:0.532071 2:-0.352497 
-2 2 1:-0.463738 2:-0.217744 
-2 0 1:-0.393827 2:0.0323615 
-2 2 1:0.140058 2:-0.59006 
-2 2 1:-0.052293 2:-0.348633 
-2 2 1:0.933591 2:-0.395771 
-2 2 1:0.525412 2:-0.32366 
-2 2 1:0.301572 2:-0.516504 
-2 2 1:0.639975 2:-0.353429 
-2 2 1:0.831588 2:-0.0744548 
-2 2 1:-0.178763 2:-0.499128 
-2 2 1:-0.0260506 2:-0.507206 
-2 2 1:0.752013 2:-0.0517345 
-1.454144146624694 2 1:0.826824 2:-0.0193448 
-2 2 1:0.584941 2:-0.50259 
-2 2 1:0.761827 2:-0.446053 
-2 2 1:0.310092 2:-0.231361 
-2 -2 1:-0.439708 2:-0.0542577 
-2 -0 1:0.357398 2:-0.683872 
-2 -2 1:-0.30337 2:-0.437332 
-2 -2 1:0.58984 2:-0.614107 
-2 -2 1:-0.102433 2:-0.622268 
-2 -2 1:0.726317 2:-0.263644 
-2 -2 1:0.481029 2:0.0647279 
-2 -2 1:0.389594 2:-0.274239 
-2 -2 1:-0.0867794 2:-0.63088 
-2 -0 1:0.236231 2:-0.705338 
-2 -2 1:0.362962 2:-0.102561 
-2 -2 1:0.303637 2:-0.604769 
-2 -0 1:0.274499 2:-0.696982 
-2 -2 1:0.603482 2:-0.575809 
-2 -0.7917895112492436 1:0.548238 2:-0.692205 
-2 -0 1:0.308324 2:-0.833359 
-2 -0 1:0.493695 2:-0.691402 
-2 -2 1:0.472825 2:-0.0727511 
-2 -2 1:0.288699 2:-0.554523 
-2 -1.459322356966438 1:-0.203066 2:-0.688658 
-2 -2 1:0.164051 2:-0.606408 
-2 -2 1:1 2:-0.286223 
-2 -0 1:0.203885 2:-0.7198 
-2 -0 1:-0.266724 2:-0.86681 
-2 -0 1:0.420797 2:-0.713202 
-2 -0 1:-0.334996 2:-0.850092 
-2 -0 1:0.0402786 2:-0.729346 
-2 -2 1:0.657548 2:-0.292442 
-2 -0 1:0.311217 2:-0.757299 
-2 -2 1:0.47969 2:-0.617051 
-2 -2 1:0.0466815 2:-0.621244 
-2 -2 1:-0.252258 2:-0.600899 
-2 -0 1:0.468661 2:-0.79064 
-2 -0 1:-0.164091 2:-1 
-2 -2 1:0.401345 2:-0.471433 
-2 -2 1:0.26968 2:-0.496642 
-2 -2 1:-0.360314 2:-0.422573 
-2 -2 1:0.607964 2:-0.300729 
-2 -2 1:0.613824 2:-0.558722 
-2 -2 1:0.824896 2:-0.216355 
-2 -2 1:0.252457 2:-0.18346 
-2 -2 1:0.0480135 2:-0.548261 
-2 -2 1:0.322312 2:-0.458314 
-2 -2 1:0.280197 2:-0.41546 
-2 -2 1:0.919804 2:-0.320105 
-2 -2 1:0.340197 2:-0.227282 
-2 -2 1:0.869812 2:0.974154 
-2 -2 1:0.322483 2:-0.52152 
-2 -2 1:0.317177 2:-0.121021 
-2 -2 1:0.696594 2:-0.490998 
