svm_type c_svc
kernel_type rbf
gamma 0.125
nr_class 3
total_sv 158
rho 12.7033 9.60951 -6.61269
label 1 3 2
nr_sv 57 45 56
SV
0 2048 1:-0.44761 2:0.365548 
2048 2048 1:-0.561717 2:-0.364426 
2048 2048 1:-0.141973 2:0.519252 
2048 2048 1:-0.259423 2:0.5349 
0 2048 1:-0.0662008 2:-0.263797 
0 1581.324524225532 1:-0.261206 2:0.395011 
2048 2048 1:-0.271851 2:0.448136 
0 2048 1:-0.373559 2:0.434553 
2048 2048 1:-0.214248 2:0.50566 
2048 2048 1:0.154271 2:-0.148948 
2048 2048 1:-0.276807 2:0.467214 
1954.767229922556 2048 1:0.120168 2:-0.33742 
1213.137674675743 2048 1:-0.161525 2:0.344158 
2048 2048 1:-0.324885 2:0.600871 
446.6257362019598 0 1:1 2:-1 
2048 2048 1:-0.278701 2:0.491559 
2048 2048 1:-0.0600187 2:0.585729 
0 2048 1:-0.387923 2:-0.237583 
2048 2048 1:0.0106779 2:0.575816 
2048 2048 1:-0.482272 2:-0.212855 
773.5985522800768 2048 1:-0.48401 2:-0.307459 
2048 2048 1:-0.300707 2:0.523866 
1170.449618177408 2048 1:-0.254529 2:0.435482 
0 2048 1:-0.327139 2:0.398482 
2048 2048 1:-0.152645 2:0.550196 
2048 2048 1:-0.48139 2:-0.0393399 
2048 2048 1:0.0558397 2:0.125149 
0 265.7153278416131 1:-0.462816 2:-0.363304 
0 2048 1:-0.146696 2:-0.211066 
2048 2048 1:-0.235009 2:0.539467 
2048 2048 1:-0.231163 2:0.527448 
2048 2048 1:-0.191195 2:0.43213 
0 2048 1:-0.346689 2:0.433391 
2048 2048 1:-0.148818 2:0.465659 
2048 2048 1:-0.229063 2:0.502553 
0 1039.555844359643 1:-0.385517 2:-0.234483 
2048 2048 1:-0.261323 2:0.481382 
0 2048 1:-0.367111 2:0.440054 
2048 2048 1:-0.273531 2:0.486609 
0 255.7291388411917 1:-0.414866 2:0.286252 
2048 2048 1:-0.24951 2:0.489834 
2048 2048 1:-0.434724 2:-0.0415598 
2048 2048 1:-0.146955 2:0.73872 
2048 2048 1:-0.312064 2:0.636379 
2048 2048 1:0.0773347 2:-0.0857923 
0 2048 1:-0.244923 2:0.401194 
2048 2048 1:-0.106306 2:0.817274 
0 2048 1:-0.398884 2:0.331741 
1500.774843975312 1123.276489748895 1:0.555586 2:-0.698022 
2048 2048 1:-0.298288 2:0.542513 
0 2048 1:-0.236418 2:0.393174 
2048 2048 1:-0.294702 2:0.478334 
2048 2048 1:-0.285709 2:0.458926 
2048 2048 1:-0.240237 2:0.520553 
253.5673545747958 2048 1:-0.44862 2:0.0562709 
2048 2048 1:-0.447303 2:-0.199704 
2048 2048 1:-0.182859 2:0.646283 
-2048 2048 1:-0.334292 2:0.352408 
-2048 2048 1:-0.243584 2:0.79861 
-2048 2048 1:-0.321153 2:0.740118 
-2048 2048 1:-0.426122 2:-0.250643 
-2048 2048 1:0.123202 2:-0.375811 
-2048 2048 1:0.0113005 2:0.122436 
-2048 2048 1:-0.11341 2:0.64055 
-2048 2048 1:-0.0197013 2:0.371855 
-2048 2048 1:-0.406407 2:0.338249 
-2048 2048 1:-0.04082 2:0.268464 
-2048 2048 1:-0.251997 2:0.456789 
-2048 2048 1:-0.342612 2:0.368735 
-2048 2048 1:-0.231835 2:0.542073 
-2048 2048 1:-0.323998 2:0.494708 
-1258.548133156769 2048 1:-0.165808 2:0.891425 
-2048 2048 1:-0.34109 2:0.451277 
-2048 2048 1:-0.122455 2:0.107966 
-2048 2048 1:-0.346776 2:0.477853 
-2048 2048 1:-0.112855 2:0.371988 
-2048 2048 1:-0.283454 2:0.200772 
-2048 2048 1:-0.39939 2:0.241637 
-0 2048 1:0.0813343 2:0.808245 
-1320.61162587633 0 1:0.905003 2:-0.703107 
-2048 2048 1:-0.129164 2:0.441582 
-0 1719.309354505014 1:0.552497 2:-0.17376 
-2048 2048 1:-0.201079 2:0.428341 
-2048 2048 1:-0.189163 2:0.535932 
-2048 2048 1:-0.184705 2:0.532071 
-2048 2048 1:0.105403 2:-0.463738 
-637.761250774754 600.6684333143023 1:-1 2:-0.393827 
-0 135.5984826247075 1:0.0531829 2:0.965878 
-2048 2048 1:-0.348186 2:0.140058 
-2048 2048 1:-0.503464 2:-0.052293 
-0 2048 1:-0.146592 2:0.914391 
-0 2048 1:-0.207721 2:0.933591 
-2048 2048 1:-0.255222 2:0.301572 
-2048 2048 1:-0.063734 2:0.639975 
-2048 2048 1:-0.2014 2:0.831588 
-2048 2048 1:-0.139579 2:0.764065 
-2048 2048 1:-0.166071 2:-0.178763 
-2048 2048 1:-0.454635 2:-0.0260506 
-2048 2048 1:-0.105809 2:0.752013 
-2048 2048 1:-0.135092 2:0.584941 
-2048 2048 1:-0.167524 2:0.761827 
-2048 2048 1:-0.314789 2:0.310092 
-2048 -2048 1:0.0781821 2:-0.439708 
-2048 -2048 1:-0.31381 2:0.357398 
-2048 -0 1:-0.197992 2:-0.30337 
-2048 -2048 1:-0.114201 2:0.589912 
-2048 -2048 1:-0.227193 2:0.58984 
-2048 -2048 1:-0.396388 2:-0.102433 
-2048 -2048 1:-0.109297 2:0.726317 
-2048 -2048 1:-0.0237994 2:0.481029 
-2048 -0 1:-0.369641 2:-0.0867794 
-2048 -2048 1:-0.29315 2:0.236231 
-2048 -2048 1:-0.254928 2:0.362962 
-1911.163299570716 -2048 1:0.41112 2:0.12914 
-2048 -0 1:-0.321407 2:0.303637 
-2048 -0 1:-0.341286 2:0.548423 
-2048 -1246.818014799916 1:-0.322107 2:0.274499 
-2048 -2048 1:-0.160756 2:0.708374 
-2048 -2048 1:-0.227039 2:0.548238 
-2048 -2048 1:-0.209326 2:0.472825 
-2048 -0 1:-0.377468 2:0.288699 
-2048 -0 1:-0.408644 2:0.239824 
-2048 -0 1:-0.463308 2:0.164051 
-2048 -2048 1:-0.282491 2:0.510181 
-2048 -2048 1:-0.205059 2:0.444761 
-0 -2048 1:-0.233239 2:1 
-2048 -0 1:-0.329989 2:-0.255832 
-2048 -2048 1:-0.555522 2:-0.266724 
-2048 -2048 1:-0.266083 2:0.463709 
-2048 -0 1:-0.346513 2:0.420797 
-0 -2048 1:0.0969563 2:0.905352 
-2048 -2048 1:-0.50064 2:-0.334996 
-2048 -2048 1:-0.160886 2:0.657548 
-2048 -2048 1:0.014357 2:0.267856 
-2048 -2048 1:-0.315528 2:0.311217 
-2048 -2048 1:-0.301672 2:0.47969 
-2048 -2048 1:-0.326397 2:0.0466815 
-2048 -0 1:-0.388973 2:-0.252258 
-2048 -2048 1:-0.290949 2:0.725012 
-2048 -0 1:-0.3361 2:0.468661 
-2048 -2048 1:0.0688637 2:-0.155873 
-2048 -1917.922602584797 1:-0.412237 2:-0.164091 
-2048 -2048 1:-0.243798 2:0.401345 
-2048 -0 1:-0.327895 2:0.26968 
-2048 -2048 1:0.390684 2:-0.360314 
-2048 -2048 1:-0.15809 2:0.495992 
-2048 -2048 1:-0.196787 2:0.613824 
-2048 -2048 1:-0.18606 2:0.647393 
-2048 -1338.835653059316 1:-0.332972 2:0.824896 
-2048 -2048 1:-0.291731 2:0.322312 
-2048 -2048 1:-0.289212 2:0.524838 
-2048 -2048 1:-0.280947 2:0.280197 
-2048 -2048 1:-0.292353 2:0.362704 
-306.4380254461672 -2048 1:-0.105851 2:0.919804 
-2048 -2048 1:-0.209525 2:0.869812 
-2048 -0 1:-0.330573 2:0.322483 
-2048 -2048 1:-0.182375 2:0.317177 
-2048 -2048 1:-0.295827 2:0.696594 
