svm_type c_svc
kernel_type rbf
gamma 0.03125
nr_class 3
total_sv 164
rho -4.6472 -4.3892 3.30557
label 1 3 2
nr_sv 47 56 61
SV
30.58954526472365 32 1:-0.607893 2:-0.623343 3:-0.824282 4:-0.807701 5:-0.618233 6:-0.910446 7:-0.989278 
32 32 1:0.0166743 2:0.432102 3:-0.605236 4:-0.568783 5:0.368433 6:-0.521429 7:-0.94941 
32 32 1:-0.60177 2:-0.520676 3:-0.918979 4:-0.887972 5:-0.531831 6:-0.904328 7:-0.986936 
32 32 1:-0.619725 2:-0.528202 3:-0.792929 4:-0.787112 5:-0.541232 6:-0.873258 7:-0.983156 
0 32 1:-0.837075 2:-0.740181 3:-0.647501 4:-0.617473 5:-0.755504 6:-0.859442 7:-0.972326 
32 0 1:-0.809169 2:-0.788648 3:-0.34176 4:-0.296201 5:-0.790897 6:-0.779556 7:-0.942052 
32 32 1:-0.76188 2:-0.60907 3:-0.637136 4:-0.585486 5:-0.633356 6:-0.82413 7:-0.975626 
32 32 1:-0.552028 2:-0.452094 3:-0.477128 4:-0.420491 5:-0.466113 6:-0.677429 7:-0.928642 
32 32 1:-0.662204 2:-0.590813 3:-0.363177 4:-0.350012 5:-0.600714 6:-0.738933 7:-0.963495 
0 32 1:-0.675113 2:-0.739111 3:-0.841352 4:-0.828153 5:-0.726233 6:-0.938133 7:-0.990831 
32 32 1:-0.551509 2:-0.515419 3:-0.801561 4:-0.795934 5:-0.518654 6:-0.860288 7:-0.976025 
32 32 1:-0.359637 2:-0.467786 3:-0.293427 4:-0.171134 5:-0.445439 6:-0.504379 7:-0.917338 
32 32 1:-0.507985 2:-0.474385 3:-0.357094 4:-0.308704 5:-0.476921 6:-0.646599 7:-0.908208 
32 9.075928286051825 1:0.927222 2:1 3:0.597411 4:0.650056 5:1 6:1 7:0.835 
32 32 1:-0.662937 2:-0.610349 3:-0.695142 4:-0.683968 5:-0.61708 6:-0.848741 7:-0.973806 
0 32 1:-0.764783 2:-0.65691 3:-0.76896 4:-0.750208 5:-0.673626 6:-0.890289 7:-0.984789 
32 32 1:-0.514298 2:-0.578606 3:-0.784629 4:-0.776718 5:-0.56465 6:-0.881268 7:-0.980485 
32 32 1:-0.751347 2:-0.675548 3:-0.601534 4:-0.583441 5:-0.686763 6:-0.83204 7:-0.964148 
0 32 1:-0.657846 2:-0.669678 3:-0.833026 4:-0.828086 5:-0.665498 6:-0.919972 7:-0.988667 
32 32 1:-0.722664 2:-0.462307 3:-0.793038 4:-0.706727 5:-0.504504 6:-0.761826 7:-0.974027 
32 32 1:-0.267749 2:-0.190363 3:-0.730303 4:-0.723862 5:-0.198761 6:-0.751314 7:-0.956125 
32 32 1:-0.641631 2:-0.420803 3:-0.711763 4:-0.665756 5:-0.455808 6:-0.785307 7:-0.969567 
0 32 1:-0.501412 2:-0.606047 3:-0.904328 4:-0.901841 5:-0.585198 6:-0.923478 7:-0.987911 
32 32 1:-0.5591 2:-0.51042 3:-0.689289 4:-0.682616 5:-0.515829 6:-0.821993 7:-0.966583 
32 32 1:-0.705847 2:-0.388497 3:-0.767559 4:-0.706733 5:-0.440211 6:-0.78619 7:-0.96714 
32 32 1:-0.687711 2:-0.581371 3:-0.634854 4:-0.624022 5:-0.597337 6:-0.828019 7:-0.973692 
32 32 1:-0.52233 2:-0.427835 3:-0.43434 4:-0.427145 5:-0.440746 6:-0.678161 7:-0.930464 
0 32 1:-0.65527 2:-0.825991 3:-0.489819 4:-0.506188 5:-0.794964 6:-0.850909 7:-0.937505 
32 32 1:-0.534955 2:-0.33571 3:-0.655858 4:-0.628735 5:-0.36639 6:-0.743901 7:-0.95461 
0 32 1:-0.64238 2:-0.621851 3:-0.913293 4:-0.899986 5:-0.623037 6:-0.936754 7:-0.992026 
32 32 1:-0.482131 2:-0.311553 3:-0.275199 4:-0.211391 5:-0.337056 6:-0.535374 7:-0.910469 
32 32 1:-0.677611 2:-0.680312 3:-0.660757 4:-0.640123 5:-0.6778 6:-0.85238 7:-0.969803 
32 32 1:-0.554228 2:-0.39956 3:-0.357073 4:-0.280713 5:-0.422835 6:-0.563892 7:-0.928628 
32 32 1:-0.651398 2:-0.535122 3:-0.848392 4:-0.815147 5:-0.552534 6:-0.882522 7:-0.982625 
32 32 1:-0.725539 2:-0.584207 3:-0.742941 4:-0.713298 5:-0.606323 6:-0.854596 7:-0.978375 
32 32 1:-0.517639 2:-0.550414 3:-0.695079 4:-0.696571 5:-0.541803 6:-0.8411 7:-0.974664 
32 32 1:-0.736241 2:-0.688382 3:-0.495111 4:-0.48525 5:-0.694782 6:-0.817406 7:-0.961609 
32 32 1:-0.40998 2:-0.258254 3:-0.609547 4:-0.584887 5:-0.280113 6:-0.693147 7:-0.940744 
0 32 1:-0.707412 2:-0.651136 3:-0.806319 4:-0.800341 5:-0.658773 6:-0.900538 7:-0.98434 
0 32 1:-0.413497 2:-0.794674 3:-1 4:-1 5:-0.726566 6:-1 7:-1 
32 32 1:-0.736255 2:-0.594086 3:-0.766925 4:-0.742148 5:-0.616412 6:-0.868192 7:-0.979845 
0 18.87182191711859 1:-0.742294 2:-0.777805 3:-0.87989 4:-0.866311 5:-0.770165 6:-0.945545 7:-0.989481 
0 32 1:-0.550855 2:-0.673272 3:-0.942139 4:-0.934049 5:-0.649736 6:-0.96943 7:-0.997185 
32 32 1:-0.165032 2:-0.0618945 3:-0.52567 4:-0.525967 5:-0.0739865 6:-0.595348 7:-0.915844 
32 0 1:-0.82284 2:-0.76056 3:-0.398138 4:-0.377744 5:-0.769947 6:-0.814253 7:-0.954256 
32 32 1:-0.734579 2:-0.641395 3:-0.63288 4:-0.614732 5:-0.655438 6:-0.834457 7:-0.972452 
0 32 1:-0.680893 2:-0.674317 3:-0.810966 4:-0.7846 5:-0.673392 6:-0.909275 7:-0.987514 
-6.032939158759809 32 1:0.376277 2:-0.2053 3:-0.567308 4:-0.433976 5:-0.098315 6:-0.427748 7:-0.894288 
-32 32 1:-0.752213 2:-0.542052 3:-0.739981 4:-0.679784 5:-0.575961 6:-0.822566 7:-0.972327 
-32 0 1:-0.408932 2:-0.467412 3:0.0796103 4:0.087107 5:-0.453767 6:-0.464288 7:-0.752733 
-32 32 1:-0.506399 2:-0.501538 3:-0.762551 4:-0.744178 5:-0.499211 6:-0.846551 7:-0.974685 
-32 32 1:-0.426401 2:-0.0210061 3:-0.747351 4:-0.69012 5:-0.0858059 6:-0.667434 7:-0.954056 
-32 32 1:-0.487395 2:-0.418309 3:-0.424352 4:-0.392799 5:-0.426707 6:-0.662619 7:-0.917157 
-32 32 1:-0.826631 2:-0.784746 3:-0.765897 4:-0.75161 5:-0.790714 6:-0.919237 7:-0.985682 
0 32 1:0.0250603 2:0.203431 3:-0.403349 4:-0.376762 5:0.179846 6:-0.377406 7:-0.844021 
-32 32 1:-0.514069 2:-0.351364 3:-0.555071 4:-0.440118 5:-0.375741 6:-0.636502 7:-0.942708 
-32 32 1:-0.59937 2:-0.457402 3:-0.650175 4:-0.624289 5:-0.478821 6:-0.775526 7:-0.962375 
0 14.6063869898143 1:-0.145087 2:-0.0616641 3:-0.222036 4:-0.235056 5:-0.0702997 6:-0.426992 7:-0.844878 
-32 32 1:-0.637936 2:-0.4445 3:-0.470319 4:-0.427267 5:-0.474856 6:-0.673262 7:-0.941312 
-32 13.85426123121106 1:-0.511006 2:-0.348315 3:-0.183371 4:-0.162823 5:-0.372669 6:-0.538652 7:-0.911883 
-32 32 1:-0.492552 2:-0.287969 3:-0.674363 4:-0.639053 5:-0.319281 6:-0.722653 7:-0.947891 
0 32 1:-0.0250036 2:0.138229 3:-0.466652 4:-0.462321 5:0.116882 6:-0.477665 7:-0.875406 
0 32 1:-0.212184 2:-0.167207 3:-0.282885 4:-0.259164 5:-0.169778 6:-0.472646 7:-0.862372 
-32 32 1:-0.595568 2:-0.510339 3:-0.608904 4:-0.587503 5:-0.522152 6:-0.795047 7:-0.967742 
-32 32 1:-0.565782 2:-0.404552 3:-0.453133 4:-0.442167 5:-0.42901 6:-0.670461 7:-0.909271 
-32 32 1:-0.353317 2:-0.164695 3:-0.680425 4:-0.642782 5:-0.192423 6:-0.640904 7:-0.891575 
-32 32 1:-0.531603 2:-0.474969 3:-0.79039 4:-0.780899 5:-0.481546 6:-0.855321 7:-0.978386 
-32 32 1:-0.710422 2:-0.781533 3:-0.91255 4:-0.904262 5:-0.767678 6:-0.965846 7:-0.994207 
-6.083070466836977 12.24075282282524 1:0.781173 2:0.897987 3:0.154287 4:0.169666 5:0.889619 6:0.494907 7:0.667544 
0 32 1:-0.245877 2:-0.231806 3:-0.394755 4:-0.321935 5:-0.229373 6:-0.461998 7:-0.871702 
-32 32 1:-0.36358 2:-0.136836 3:-0.689981 4:-0.661915 5:-0.171067 6:-0.686473 7:-0.945449 
0 1.838139528461061 1:1 2:0.877597 3:0.103948 4:0.219587 5:0.911021 6:0.543645 7:-0.0285131 
0 32 1:-0.0578973 2:0.00209757 3:-0.416735 4:-0.308997 5:-0.00202587 6:-0.404856 7:-0.874527 
0 32 1:0.186218 2:0.362593 3:-0.382902 4:-0.353009 5:0.340373 6:-0.286677 7:-0.790756 
0 32 1:-0.0945821 2:0.0953795 3:-0.479498 4:-0.44228 5:0.0690751 6:-0.477556 7:-0.892477 
-32 32 1:-0.764333 2:-0.579389 3:-0.739836 4:-0.709401 5:-0.609117 6:-0.838046 7:-0.967891 
0 32 1:0.0394238 2:0.179376 3:-0.459559 4:-0.425068 5:0.162371 6:-0.407821 7:-0.838664 
-32 32 1:-0.804453 2:-0.713508 3:-0.456676 4:-0.426742 5:-0.727618 6:-0.800684 7:-0.961712 
0 32 1:-0.27575 2:-0.130789 3:-0.535056 4:-0.45606 5:-0.15065 6:-0.545093 7:-0.900417 
-32 32 1:-0.90944 2:-0.857123 3:-0.534871 4:-0.472476 5:-0.86538 6:-0.868333 7:-0.970377 
-32 32 1:-0.324562 2:-0.341373 3:-0.843483 4:-0.832351 5:-0.334227 6:-0.868363 7:-0.988106 
-32 32 1:-0.638143 2:-0.47011 3:-0.477492 4:-0.420354 5:-0.496178 6:-0.688575 7:-0.943676 
0 32 1:-0.135975 2:-0.109144 3:-0.509548 4:-0.485208 5:-0.108165 6:-0.556321 7:-0.870652 
-18.47353563912686 0 1:0.413339 2:0.461999 3:1 4:1 5:0.462795 6:0.861943 7:1 
-32 32 1:-0.663648 2:-0.599097 3:-0.778092 4:-0.769476 5:-0.607852 6:-0.860749 7:-0.969026 
0 32 1:-0.344908 2:-0.00973295 3:-0.502634 4:-0.426133 5:-0.0621553 6:-0.5206 7:-0.920345 
0 32 1:-0.120788 2:0.095075 3:-0.834954 4:-0.806948 5:0.0642297 6:-0.76486 7:-0.978112 
-32 32 1:-0.461428 2:-0.0764169 3:-0.685786 4:-0.630224 5:-0.137998 6:-0.66545 7:-0.955677 
0 32 1:-0.103874 2:-0.021563 3:-0.349211 4:-0.323935 5:-0.0297481 6:-0.446448 7:-0.848991 
-32 32 1:-0.382982 2:-0.337553 3:-0.40097 4:-0.363748 5:-0.34129 6:-0.601298 7:-0.897781 
-32 32 1:-0.5431 2:-0.401275 3:-0.423625 4:-0.422516 5:-0.422311 6:-0.6802 7:-0.940642 
0 32 1:-0.190727 2:0.248508 3:-0.51515 4:-0.507793 5:0.179496 6:-0.508361 7:-0.952127 
-32 32 1:-0.713859 2:-0.567386 3:-0.590381 4:-0.581052 5:-0.590296 6:-0.803451 7:-0.970515 
0 32 1:0.163837 2:-0.0031455 3:-0.40672 4:-0.292175 5:0.0324738 6:-0.340275 7:-0.846628 
-32 32 1:-0.61229 2:-0.414266 3:-0.746064 4:-0.708152 5:-0.445234 6:-0.792192 7:-0.963947 
0 32 1:-0.178927 2:0.0533463 3:-0.539299 4:-0.464238 5:0.019359 6:-0.485426 7:-0.881939 
-32 32 1:-0.605927 2:-0.560588 3:-0.624451 4:-0.628478 5:-0.565731 6:-0.807791 7:-0.965593 
-32 32 1:-0.761947 2:-0.595868 3:-0.734366 4:-0.707419 5:-0.622395 6:-0.851342 7:-0.975506 
0 32 1:-0.324402 2:-0.0354701 3:-0.671961 4:-0.597745 5:-0.0799528 6:-0.567367 7:-0.933059 
-32 32 1:-0.455829 2:-0.450025 3:-0.815699 4:-0.810598 5:-0.447535 6:-0.86058 7:-0.978828 
-32 32 1:-0.51923 2:-0.353914 3:-0.385143 4:-0.339285 5:-0.378765 6:-0.607077 7:-0.920669 
-32 32 1:-0.510118 2:-0.356658 3:-0.448701 4:-0.422248 5:-0.379448 6:-0.671435 7:-0.93754 
-32 32 1:-0.542767 2:-0.523593 3:-0.816482 4:-0.81269 5:-0.523915 6:-0.894155 7:-0.98767 
-32 -32 1:-0.49301 2:-0.411882 3:-0.632321 4:-0.626068 5:-0.422349 6:-0.771618 7:-0.963567 
-32 -32 1:-0.635846 2:-0.480356 3:-0.684154 4:-0.650201 5:-0.504291 6:-0.807834 7:-0.972933 
-32 -32 1:-0.842732 2:-0.748017 3:-0.709027 4:-0.681807 5:-0.763009 6:-0.885848 7:-0.977137 
-32 -32 1:-0.624241 2:-0.514144 3:-0.654835 4:-0.542699 5:-0.53034 6:-0.735733 7:-0.958165 
0 -32 1:-0.202903 2:0.114615 3:-0.624348 4:-0.603361 5:0.0660796 6:-0.57316 7:-0.924969 
0 -32 1:0.0802834 2:0.235951 3:-0.571818 4:-0.548729 5:0.216552 6:-0.481699 7:-0.865557 
-32 -32 1:-0.599587 2:-0.583007 3:-0.211201 4:-0.203535 5:-0.583254 6:-0.655315 7:-0.896266 
-32 -32 1:-0.366404 2:-0.204838 3:0.0565106 4:0.10481 5:-0.228081 6:-0.342235 7:-0.799204 
-1.030164757508868 -32 1:-0.43552 2:-0.183249 3:-0.667741 4:-0.633864 5:-0.222249 6:-0.701036 7:-0.95003 
-32 -32 1:-0.686481 2:-0.505276 3:-0.649395 4:-0.62694 5:-0.533876 6:-0.789981 7:-0.95888 
-32 -32 1:-0.590116 2:-0.463758 3:-0.559527 4:-0.499725 5:-0.482482 6:-0.714095 7:-0.93965 
-32 -32 1:-0.516035 2:-0.394749 3:-0.846047 4:-0.820123 5:-0.412144 6:-0.83779 7:-0.971894 
0 -32 1:-0.175777 2:-0.00474966 3:-0.552308 4:-0.534322 5:-0.0283744 6:-0.530791 7:-0.892381 
-32 -32 1:-0.821067 2:-0.79218 3:-0.470143 4:-0.461733 5:-0.795917 6:-0.81037 7:-0.943256 
-32 -32 1:-0.342847 2:-0.226053 3:-0.62023 4:-0.615418 5:-0.241585 6:-0.693921 7:-0.9373 
-32 0 1:-0.871467 2:-0.865145 3:-0.724712 4:-0.716319 5:-0.865393 6:-0.934086 7:-0.98745 
-32 -32 1:-0.565641 2:-0.484096 3:-0.801377 4:-0.783531 5:-0.495096 6:-0.848532 7:-0.975023 
0 -32 1:0.184336 2:0.000674067 3:-0.234971 4:-0.0907286 5:0.0392409 6:-0.253213 7:-0.828249 
-32 -32 1:-0.618312 2:-0.365087 3:-0.76968 4:-0.704056 5:-0.405414 6:-0.751003 7:-0.961709 
-32 0 1:-0.337348 2:-0.761665 3:-0.986837 4:-0.986168 5:-0.685786 6:-0.994603 7:-0.999444 
0 -32 1:0.314917 2:0.456826 3:-0.438235 4:-0.36671 5:0.441247 6:-0.234428 7:-0.788871 
-32 -32 1:-0.569768 2:-0.390545 3:-0.66446 4:-0.639659 5:-0.418066 6:-0.74542 7:-0.945627 
0 -32 1:0.156494 2:0.154995 3:-0.17955 4:-0.190467 5:0.162623 6:-0.271659 7:-0.772537 
-32 -32 1:-0.391888 2:-0.27748 3:-0.796618 4:-0.78377 5:-0.292921 6:-0.83525 7:-0.986176 
-32 -32 1:-0.632023 2:-0.539537 3:-0.778016 4:-0.773527 5:-0.552808 6:-0.866221 7:-0.978034 
-32 -32 1:-0.507503 2:-0.330063 3:-0.793127 4:-0.772761 5:-0.356886 6:-0.83215 7:-0.982163 
0 -32 1:-0.146498 2:0.0279012 3:-0.530833 4:-0.522216 5:0.00389371 6:-0.586968 7:-0.940586 
-32 -32 1:-0.729078 2:-0.668767 3:-0.758857 4:-0.74406 5:-0.677224 6:-0.881731 7:-0.980515 
-32 0 1:-0.733763 2:-0.793308 3:-0.860673 4:-0.850213 5:-0.781555 6:-0.956591 7:-0.993292 
0 -32 1:0.0842901 2:0.367111 3:0.127048 4:0.200019 5:0.326266 6:0.0949684 7:-0.639657 
-32 -32 1:-0.559613 2:-0.468638 3:-0.73754 4:-0.716889 5:-0.481192 6:-0.83298 7:-0.979992 
0 -32 1:0.719592 2:0.7169 3:-0.0247254 4:-0.00533921 5:0.728321 6:0.193161 7:-0.200718 
-21.48885530867537 -32 1:-0.293935 2:-0.227295 3:-0.455661 4:-0.460617 5:-0.234046 6:-0.63014 7:-0.92027 
-32 0 1:-0.687941 2:-0.753132 3:-0.744908 4:-0.76019 5:-0.740133 6:-0.915041 7:-0.985029 
-32 -32 1:-0.758549 2:-0.717572 3:-0.450211 4:-0.449363 5:-0.722952 6:-0.804883 7:-0.950296 
-32 0 1:-0.583826 2:-0.492033 3:-0.863254 4:-0.844382 5:-0.50488 6:-0.882832 7:-0.983398 
-32 -32 1:-0.458158 2:-0.324473 3:-0.534554 4:-0.455539 5:-0.343593 6:-0.640125 7:-0.923464 
-5.428730136986181 -32 1:-0.246667 2:-0.264806 3:-0.813102 4:-0.802546 5:-0.256939 6:-0.816465 7:-0.972524 
-32 -32 1:-0.69109 2:-0.594357 3:-0.784877 4:-0.767044 5:-0.608722 6:-0.875123 7:-0.9809 
-32 -10.53954057231165 1:-0.830541 2:-0.718436 3:-0.768368 4:-0.737439 5:-0.736286 6:-0.895184 7:-0.980501 
0 -32 1:0.0504556 2:-0.0643247 3:-0.814118 4:-0.812299 5:-0.0382435 6:-0.804512 7:-0.981537 
-32 -32 1:-0.560577 2:-0.357873 3:-0.780154 4:-0.768958 5:-0.389301 6:-0.790028 7:-0.951681 
0 -32 1:-0.128536 2:0.026012 3:-0.277884 4:-0.26177 5:0.00547135 6:-0.402543 7:-0.864884 
-32 0 1:-0.567839 2:-0.589923 3:-0.835323 4:-0.82084 5:-0.583438 6:-0.89703 7:-0.984585 
-32 -32 1:-0.394874 2:-0.442554 3:-0.33007 4:-0.202863 5:-0.430643 6:-0.55881 7:-0.912463 
-32 0 1:-0.404028 2:-0.497296 3:-0.842397 4:-0.849067 5:-0.477745 6:-0.888385 7:-0.984032 
-32 -32 1:-0.441219 2:-0.277727 3:-0.639114 4:-0.615023 5:-0.301772 6:-0.698222 7:-0.941695 
0 -32 1:-0.3119 2:-0.0921117 3:-0.514912 4:-0.504575 5:-0.124839 6:-0.616541 7:-0.944467 
-32 -32 1:-0.655148 2:-0.576506 3:-0.692317 4:-0.689109 5:-0.587587 6:-0.848181 7:-0.974495 
0 -32 1:-0.204787 2:-0.217306 3:-0.609888 4:-0.626336 5:-0.210121 6:-0.687865 7:-0.931702 
-32 -32 1:-0.376756 2:-0.362212 3:-0.251687 4:-0.138024 5:-0.360693 6:-0.48278 7:-0.896005 
-32 -32 1:-0.650964 2:-0.54341 3:-0.711695 4:-0.691553 5:-0.559347 6:-0.843492 7:-0.980442 
-32 -32 1:-0.36065 2:-0.305008 3:-0.767667 4:-0.756841 5:-0.310327 6:-0.79708 7:-0.968224 
-32 -32 1:-0.525118 2:-0.459032 3:-0.670072 4:-0.667162 5:-0.467164 6:-0.80753 7:-0.971114 
-32 -32 1:-0.517128 2:-0.343623 3:-0.640538 4:-0.619624 5:-0.369843 6:-0.744781 7:-0.956769 
-32 -32 1:-0.453205 2:-0.306869 3:-0.623126 4:-0.63089 5:-0.328093 6:-0.738464 7:-0.960555 
-32 0 1:-0.655951 2:-0.804118 3:-0.898437 4:-0.89939 5:-0.776904 6:-0.962123 7:-0.992682 
0 -32 1:0.0958285 2:0.178068 3:-0.630332 4:-0.605567 5:0.171168 6:-0.557729 7:-0.894758 
-32 0 1:-0.736149 2:-0.704528 3:-0.841782 4:-0.833543 5:-0.708185 6:-0.931924 7:-0.990021 
0 -32 1:-0.245267 2:-0.105639 3:-0.613071 4:-0.599821 5:-0.124405 6:-0.66303 7:-0.944703 
-32 -32 1:-0.568317 2:-0.499162 3:-0.807622 4:-0.789158 5:-0.508087 6:-0.85214 7:-0.975427 
