svm_type c_svc
kernel_type rbf
gamma 0.00012207
nr_class 3
total_sv 167
rho -3.65224 -4.17957 1.24304
label 1 3 2
nr_sv 51 54 62
SV
2048 2048 1:-0.636308 2:-0.700722 3:-0.824282 4:-0.807701 5:-0.703106 6:-0.910446 7:-0.989278 
2048 2048 1:-0.000703437 2:0.405032 3:-0.605236 4:-0.568783 5:0.335309 6:-0.521429 7:-0.94941 
2048 2048 1:-0.630077 2:-0.593161 3:-0.918979 4:-0.887972 5:-0.612172 6:-0.904328 7:-0.986936 
2048 2048 1:-0.72803 2:-0.615502 3:-0.626575 4:-0.60479 5:-0.648577 6:-0.790996 7:-0.958756 
2048 2048 1:-0.64835 2:-0.601046 3:-0.792929 4:-0.787112 5:-0.622067 6:-0.873258 7:-0.983156 
0 2048 1:-0.869541 2:-0.823129 3:-0.647501 4:-0.617473 5:-0.847577 6:-0.859442 7:-0.972326 
0 2048 1:-0.68747 2:-0.728137 3:-0.891217 4:-0.877131 5:-0.735268 6:-0.938125 7:-0.991669 
391.7961131420846 2048 1:-0.841142 2:-0.873907 3:-0.34176 4:-0.296201 5:-0.884825 6:-0.779556 7:-0.942052 
2048 2048 1:-0.483791 2:-0.331534 3:-0.754149 4:-0.736783 5:-0.367221 6:-0.771761 7:-0.966792 
2048 2048 1:-0.597744 2:-0.701483 3:-0.833112 4:-0.828251 5:-0.696753 6:-0.91218 7:-0.987726 
2048 2048 1:-0.579456 2:-0.52131 3:-0.477128 4:-0.420491 5:-0.543008 6:-0.677429 7:-0.928642 
2048 2048 1:-0.691579 2:-0.666641 3:-0.363177 4:-0.350012 5:-0.684668 6:-0.738933 7:-0.963495 
2048 2048 1:-0.629669 2:-0.691294 3:-0.843246 4:-0.829547 5:-0.694032 6:-0.901973 7:-0.984512 
0 2048 1:-0.704717 2:-0.822009 3:-0.841352 4:-0.828153 5:-0.81677 6:-0.938133 7:-0.990831 
2048 2048 1:-0.383665 2:-0.53775 3:-0.293427 4:-0.171134 5:-0.52125 6:-0.504379 7:-0.917338 
2048 2048 1:-0.534635 2:-0.544663 3:-0.357094 4:-0.308704 5:-0.554382 6:-0.646599 7:-0.908208 
2048 2048 1:0.925936 2:1 3:0.597411 4:0.650056 5:1 6:1 7:0.835 
2048 2048 1:-0.692325 2:-0.687109 3:-0.695142 4:-0.683968 5:-0.701893 6:-0.848741 7:-0.973806 
0 2048 1:-0.795971 2:-0.735888 3:-0.76896 4:-0.750208 5:-0.761404 6:-0.890289 7:-0.984789 
2048 2048 1:-0.541059 2:-0.653853 3:-0.784629 4:-0.776718 5:-0.646712 6:-0.881268 7:-0.980485 
2048 2048 1:-0.782297 2:-0.755416 3:-0.601534 4:-0.583441 5:-0.77523 6:-0.83204 7:-0.964148 
0 2048 1:-0.687144 2:-0.749266 3:-0.833026 4:-0.828086 5:-0.75285 6:-0.919972 7:-0.988667 
2048 2048 1:-0.41823 2:-0.206202 3:-0.537954 4:-0.505577 5:-0.250696 6:-0.604101 7:-0.919973 
2048 2048 1:-0.753108 2:-0.53201 3:-0.793038 4:-0.706727 5:-0.583412 6:-0.761826 7:-0.974027 
2048 2048 1:-0.290153 2:-0.247103 3:-0.730303 4:-0.723862 5:-0.261634 6:-0.751314 7:-0.956125 
2048 2048 1:-0.670643 2:-0.488527 3:-0.711763 4:-0.665756 5:-0.532162 6:-0.785307 7:-0.969567 
2048 2048 1:-0.586653 2:-0.582416 3:-0.689289 4:-0.682616 5:-0.595331 6:-0.821993 7:-0.966583 
2048 2048 1:-0.735994 2:-0.454682 3:-0.767559 4:-0.706733 5:-0.515747 6:-0.78619 7:-0.96714 
2048 2048 1:-0.717537 2:-0.656749 3:-0.634854 4:-0.624022 5:-0.681114 6:-0.828019 7:-0.973692 
2048 2048 1:-0.549233 2:-0.495895 3:-0.43434 4:-0.427145 5:-0.51631 6:-0.678161 7:-0.930464 
0 2048 1:-0.684523 2:-0.91303 3:-0.489819 4:-0.506188 5:-0.889106 6:-0.850909 7:-0.937505 
2048 2048 1:-0.562082 2:-0.399378 3:-0.655858 4:-0.628735 5:-0.438054 6:-0.743901 7:-0.95461 
1263.77465933481 2048 1:-0.671405 2:-0.699159 3:-0.913293 4:-0.899986 5:-0.708162 6:-0.936754 7:-0.992026 
2048 2048 1:-0.508324 2:-0.37407 3:-0.275199 4:-0.211391 5:-0.407181 6:-0.535374 7:-0.910469 
2048 2048 1:-0.581695 2:-0.466271 3:-0.357073 4:-0.280713 5:-0.49746 6:-0.563892 7:-0.928628 
2048 2048 1:-0.756033 2:-0.65972 3:-0.742941 4:-0.713298 5:-0.690571 6:-0.854596 7:-0.978375 
2048 2048 1:-0.616445 2:-0.633903 3:-0.661672 4:-0.670818 5:-0.643717 6:-0.824179 7:-0.966555 
2048 2048 1:-0.544459 2:-0.624317 3:-0.695079 4:-0.696571 5:-0.622668 6:-0.8411 7:-0.974664 
2048 2048 1:-0.766924 2:-0.768861 3:-0.495111 4:-0.48525 5:-0.78367 6:-0.817406 7:-0.961609 
2048 2048 1:-0.434897 2:-0.318231 3:-0.609547 4:-0.584887 5:-0.347252 6:-0.693147 7:-0.940744 
2048 2048 1:-0.754404 2:-0.660889 3:-0.761227 4:-0.722768 5:-0.691252 6:-0.861904 7:-0.980624 
0 2048 1:-0.737586 2:-0.72984 3:-0.806319 4:-0.800341 5:-0.745773 6:-0.900538 7:-0.98434 
2048 2048 1:-0.713345 2:-0.66003 3:-0.874192 4:-0.848918 5:-0.683094 6:-0.900904 7:-0.984679 
0 2048 1:-0.438477 2:-0.88022 3:-1 4:-1 5:-0.817121 6:-1 7:-1 
2048 2048 1:-0.766939 2:-0.670071 3:-0.766925 4:-0.742148 5:-0.701189 6:-0.868192 7:-0.979845 
2048 2048 1:-0.549616 2:-0.501999 3:-0.641163 4:-0.623053 5:-0.521476 6:-0.781311 7:-0.966666 
0 1183.304347824751 1:-0.773084 2:-0.862546 3:-0.87989 4:-0.866311 5:-0.863006 6:-0.945545 7:-0.989481 
0 2048 1:-0.578263 2:-0.75303 3:-0.942139 4:-0.934049 5:-0.736261 6:-0.96943 7:-0.997185 
2048 2048 1:-0.185621 2:-0.112511 3:-0.52567 4:-0.525967 5:-0.130315 6:-0.595348 7:-0.915844 
2048 2048 1:-0.765233 2:-0.719635 3:-0.63288 4:-0.614732 5:-0.742263 6:-0.834457 7:-0.972452 
0 2048 1:-0.710599 2:-0.754125 3:-0.810966 4:-0.7846 5:-0.761158 6:-0.909275 7:-0.987514 
0 2048 1:0.365254 2:-0.262753 3:-0.567308 4:-0.433976 5:-0.155919 6:-0.427748 7:-0.894288 
-2048 2048 1:-0.433831 2:-0.537358 3:0.0796103 4:0.087107 5:-0.530014 6:-0.464288 7:-0.752733 
-2048 2048 1:-0.533021 2:-0.57311 3:-0.762551 4:-0.744178 5:-0.577841 6:-0.846551 7:-0.974685 
-2048 2048 1:-0.421631 2:-0.370299 3:-0.140838 4:-0.145299 5:-0.388322 6:-0.504455 7:-0.843382 
-2048 2048 1:-0.451608 2:-0.0696738 3:-0.747351 4:-0.69012 5:-0.142754 6:-0.667434 7:-0.954056 
-2048 2048 1:-0.513681 2:-0.485915 3:-0.424352 4:-0.392799 5:-0.501535 6:-0.662619 7:-0.917157 
-2048 2048 1:-0.858912 2:-0.869819 3:-0.765897 4:-0.75161 5:-0.884633 6:-0.919237 7:-0.985682 
0 2048 1:0.00783079 2:0.165461 3:-0.403349 4:-0.376762 5:0.136831 6:-0.377406 7:-0.844021 
-2048 2048 1:-0.540827 2:-0.415779 3:-0.555071 4:-0.440118 5:-0.447896 6:-0.636502 7:-0.942708 
0 2048 1:-0.144208 2:-0.101271 3:-0.118425 4:-0.0733936 5:-0.113425 6:-0.311234 7:-0.771108 
-2048 2048 1:-0.627635 2:-0.526871 3:-0.650175 4:-0.624289 5:-0.556382 6:-0.775526 7:-0.962375 
0 2048 1:-0.165323 2:-0.11227 3:-0.222036 4:-0.235056 5:-0.126435 6:-0.426992 7:-0.844878 
0 2048 1:-0.109797 2:-0.11418 3:-0.217243 4:-0.11478 5:-0.117967 6:-0.285339 7:-0.834849 
-2048 2048 1:-0.537709 2:-0.412584 3:-0.183371 4:-0.162823 5:-0.444663 6:-0.538652 7:-0.911883 
-2048 2048 1:-0.421106 2:-0.315359 3:-0.555997 4:-0.544615 5:-0.342355 6:-0.668649 7:-0.925408 
-1655.570772476895 2048 1:-0.36776 2:-0.245175 3:-0.0134268 4:0.00311109 5:-0.274089 6:-0.416433 7:-0.840125 
0 2048 1:0.0790549 2:-0.0288552 3:-0.415819 4:-0.432427 5:-0.0125005 6:-0.502404 7:-0.892212 
-2048 2048 1:-0.583846 2:-0.0472925 3:-0.483115 4:-0.336348 5:-0.148033 6:-0.42329 7:-0.946204 
-2048 2048 1:-0.562142 2:-0.362096 3:-0.740113 4:-0.71288 5:-0.406938 6:-0.751052 7:-0.949511 
-2048 2048 1:-0.377234 2:-0.220211 3:-0.680425 4:-0.642782 5:-0.254963 6:-0.640904 7:-0.891575 
-2048 2048 1:-0.533131 2:-0.430237 3:-0.614916 4:-0.603306 5:-0.458572 6:-0.736132 7:-0.950487 
-2048 2048 1:-0.55867 2:-0.545276 3:-0.79039 4:-0.780899 5:-0.55925 6:-0.855321 7:-0.978386 
-2048 2048 1:-0.740649 2:-0.866453 3:-0.91255 4:-0.904262 5:-0.860389 6:-0.965846 7:-0.994207 
-2048 2048 1:-0.24359 2:-0.285491 3:-0.798963 4:-0.792355 5:-0.285246 6:-0.808407 7:-0.974604 
0 1748.292682926722 1:0.0500185 2:0.0180981 3:-0.193961 4:-0.180747 5:0.0214398 6:-0.310297 7:-0.739211 
-2048 2048 1:-0.387678 2:-0.191025 3:-0.689981 4:-0.661915 5:-0.232487 6:-0.686473 7:-0.945449 
0 2048 1:-0.0765929 2:-0.0454688 3:-0.416735 4:-0.308997 5:-0.05458 6:-0.404856 7:-0.874527 
-2048 2048 1:-0.795513 2:-0.654672 3:-0.739836 4:-0.709401 5:-0.693511 6:-0.838046 7:-0.967891 
-2048 2048 1:-0.501119 2:-0.313061 3:-0.640374 4:-0.584043 5:-0.354937 6:-0.681713 7:-0.944195 
0 2048 1:0.0224481 2:0.140259 3:-0.459559 4:-0.425068 5:0.118439 6:-0.407821 7:-0.838664 
-2048 2048 1:-0.298296 2:-0.18469 3:-0.535056 4:-0.45606 5:-0.210999 6:-0.545093 7:-0.900417 
-2048 2048 1:-0.943184 2:-0.945646 3:-0.534871 4:-0.472476 5:-0.963216 6:-0.868333 7:-0.970377 
-2048 2048 1:-0.34797 2:-0.405312 3:-0.843483 4:-0.832351 5:-0.404205 6:-0.868363 7:-0.988106 
-2048 2048 1:-0.487797 2:-0.543854 3:-0.730853 4:-0.64904 5:-0.545218 6:-0.743653 7:-0.951702 
-2048 2048 1:-0.156051 2:-0.162013 3:-0.509548 4:-0.485208 5:-0.166286 6:-0.556321 7:-0.870652 
-2048 2048 1:-0.693048 2:-0.67532 3:-0.778092 4:-0.769476 5:-0.692181 6:-0.860749 7:-0.969026 
-2048 2048 1:-0.523782 2:-0.330886 3:-0.609495 4:-0.586058 5:-0.373928 6:-0.71213 7:-0.960124 
0 2048 1:-0.140595 2:0.0519406 3:-0.834954 4:-0.806948 5:0.0151506 6:-0.76486 7:-0.978112 
-2048 2048 1:-0.487255 2:-0.127726 3:-0.685786 4:-0.630224 5:-0.197684 6:-0.66545 7:-0.955677 
0 2048 1:-0.0440219 2:-0.164955 3:-0.242067 4:-0.252617 5:-0.148439 6:-0.43975 7:-0.808024 
-2048 2048 1:-0.407423 2:-0.40131 3:-0.40097 4:-0.363748 5:-0.411638 6:-0.601298 7:-0.897781 
0 2048 1:-0.21177 2:0.212687 3:-0.51515 4:-0.507793 5:0.136462 6:-0.508361 7:-0.952127 
-2048 2048 1:-0.744147 2:-0.642098 3:-0.590381 4:-0.581052 5:-0.673703 6:-0.803451 7:-0.970515 
-2048 2048 1:-0.640783 2:-0.481679 3:-0.746064 4:-0.708152 5:-0.521033 6:-0.792192 7:-0.963947 
0 2048 1:0.147427 2:0.141414 3:-0.403897 4:-0.379901 5:0.142053 6:-0.364143 7:-0.794043 
0 2048 1:-0.199762 2:0.00822276 3:-0.539299 4:-0.464238 5:-0.0320736 6:-0.485426 7:-0.881939 
-2048 2048 1:-0.634308 2:-0.634976 3:-0.624451 4:-0.628478 5:-0.647851 6:-0.807791 7:-0.965593 
-2048 2048 1:-0.793085 2:-0.671937 3:-0.734366 4:-0.707419 5:-0.707486 6:-0.851342 7:-0.975506 
0 2048 1:-0.199568 2:-0.0312828 3:-0.512255 4:-0.508048 5:-0.0650226 6:-0.570037 7:-0.929166 
-2048 2048 1:-0.118727 2:-0.128364 3:-0.578097 4:-0.569214 5:-0.131428 6:-0.632185 7:-0.930342 
-2048 2048 1:-0.560238 2:-0.543848 3:-0.654758 4:-0.65129 5:-0.558342 6:-0.797172 7:-0.965548 
-2048 2048 1:-0.332822 2:-0.11592 3:-0.408128 4:-0.37615 5:-0.159838 6:-0.508228 7:-0.896529 
-2048 2048 1:-0.536805 2:-0.421325 3:-0.448701 4:-0.422248 5:-0.451797 6:-0.671435 7:-0.93754 
-2048 2048 1:-0.570032 2:-0.596217 3:-0.816482 4:-0.81269 5:-0.603841 6:-0.894155 7:-0.98767 
-2048 -2048 1:-0.16134 2:-0.433132 3:-0.484615 4:-0.354427 5:-0.393609 6:-0.523819 7:-0.919949 
-2048 -2048 1:-0.664755 2:-0.550919 3:-0.684154 4:-0.650201 5:-0.583188 6:-0.807834 7:-0.972933 
-2048 0 1:-0.875298 2:-0.831339 3:-0.709027 4:-0.681807 5:-0.855475 6:-0.885848 7:-0.977137 
-2048 -2048 1:-0.652945 2:-0.586318 3:-0.654835 4:-0.542699 5:-0.610603 6:-0.735733 7:-0.958165 
-2048 -2048 1:-0.622351 2:-0.680084 3:-0.739492 4:-0.729937 5:-0.683346 6:-0.835244 7:-0.954013 
-2048 -2048 1:-0.313476 2:-0.170595 3:-0.642063 4:-0.622633 5:-0.201982 6:-0.651893 7:-0.924959 
0 -2048 1:0.0640298 2:0.199531 3:-0.571818 4:-0.548729 5:0.175462 6:-0.481699 7:-0.865557 
-2048 -2048 1:-0.569411 2:-0.550491 3:-0.393928 4:-0.331853 5:-0.565551 6:-0.658608 7:-0.918234 
-2048 -2048 1:-0.390552 2:-0.262268 3:0.0565106 4:0.10481 5:-0.292491 6:-0.342235 7:-0.799204 
-2048 -2048 1:-0.460889 2:-0.23965 3:-0.667741 4:-0.633864 5:-0.286354 6:-0.701036 7:-0.95003 
-2048 -2048 1:-0.628064 2:-0.466183 3:-0.758217 4:-0.730322 5:-0.50579 6:-0.809355 7:-0.970457 
-2048 0 1:-0.724875 2:-0.816601 3:-0.885984 4:-0.873829 5:-0.815908 6:-0.954251 7:-0.993722 
-2048 -2048 1:-0.618217 2:-0.53353 3:-0.559527 4:-0.499725 5:-0.560235 6:-0.714095 7:-0.93965 
-2048 -2048 1:-0.542827 2:-0.461232 3:-0.846047 4:-0.820123 5:-0.486208 6:-0.83779 7:-0.971894 
-2048 -2048 1:-0.329852 2:-0.307497 3:-0.626121 4:-0.617816 5:-0.319253 6:-0.712119 7:-0.951448 
-2048 -2048 1:-0.853249 2:-0.877607 3:-0.470143 4:-0.461733 5:-0.890109 6:-0.81037 7:-0.943256 
-2048 -2048 1:-0.366578 2:-0.284494 3:-0.62023 4:-0.615418 5:-0.306703 6:-0.693921 7:-0.9373 
-2048 -2048 1:-0.445218 2:-0.342754 3:-0.616378 4:-0.543351 5:-0.369598 6:-0.642544 7:-0.915306 
-2048 0 1:-0.90454 2:-0.954049 3:-0.724712 4:-0.716319 5:-0.963229 6:-0.934086 7:-0.98745 
0 -2048 1:0.169922 2:-0.0469602 3:-0.234971 4:-0.0907286 5:-0.0111489 6:-0.253213 7:-0.828249 
0 -2048 1:-0.235141 2:-0.0971546 3:-0.500078 4:-0.490004 5:-0.126468 6:-0.564193 7:-0.903033 
-2048 0 1:-0.360982 2:-0.845637 3:-0.986837 4:-0.986168 5:-0.774202 6:-0.994603 7:-0.999444 
-2048 -2048 1:-0.479387 2:-0.389233 3:0.000675128 4:0.019819 5:-0.414597 6:-0.451086 7:-0.875252 
0 -2048 1:0.30281 2:0.430935 3:-0.438235 4:-0.36671 5:0.411942 6:-0.234428 7:-0.788871 
0 -2048 1:0.141588 2:0.114717 3:-0.17955 4:-0.190467 5:0.118704 6:-0.271659 7:-0.772537 
-2048 -2048 1:-0.416486 2:-0.338372 3:-0.796618 4:-0.78377 5:-0.360732 6:-0.83525 7:-0.986176 
-2048 -2048 1:-0.660865 2:-0.612921 3:-0.778016 4:-0.773527 5:-0.63425 6:-0.866221 7:-0.978034 
-2048 -2048 1:-0.534145 2:-0.393462 3:-0.793127 4:-0.772761 5:-0.428052 6:-0.83215 7:-0.982163 
0 -2048 1:-0.166759 2:-0.0184353 3:-0.530833 4:-0.522216 5:-0.0483499 6:-0.586968 7:-0.940586 
-2048 0 1:-0.764403 2:-0.878788 3:-0.860673 4:-0.850213 5:-0.874994 6:-0.956591 7:-0.993292 
-2048 -2048 1:-0.587175 2:-0.538642 3:-0.73754 4:-0.716889 5:-0.558877 6:-0.83298 7:-0.979992 
0 -2048 1:0.714636 2:0.703406 3:-0.0247254 4:-0.00533921 5:0.714072 6:0.193161 7:-0.200718 
-2048 -1748.292682926722 1:-0.724503 2:-0.749418 3:-0.739579 4:-0.726533 5:-0.759748 6:-0.883863 7:-0.982625 
-2048 -2048 1:-0.316802 2:-0.285796 3:-0.455661 4:-0.460617 5:-0.298769 6:-0.63014 7:-0.92027 
-2048 0 1:-0.717771 2:-0.836697 3:-0.744908 4:-0.76019 5:-0.8314 6:-0.915041 7:-0.985029 
-2048 -2048 1:-0.51918 2:-0.405189 3:-0.462559 4:-0.436198 5:-0.435131 6:-0.66374 7:-0.936292 
-2048 -2048 1:-0.789626 2:-0.799442 3:-0.450211 4:-0.449363 5:-0.813317 6:-0.804883 7:-0.950296 
-2048 -2048 1:-0.483927 2:-0.387606 3:-0.534554 4:-0.455539 5:-0.414061 6:-0.640125 7:-0.923464 
-2048 -2048 1:-0.268698 2:-0.325095 3:-0.813102 4:-0.802546 5:-0.322863 6:-0.816465 7:-0.972524 
-2048 -2048 1:-0.720975 2:-0.670354 3:-0.784877 4:-0.767044 5:-0.693096 6:-0.875123 7:-0.9809 
-2048 -2048 1:-0.654365 2:-0.519819 3:-0.697 4:-0.672196 5:-0.555339 6:-0.802228 7:-0.971716 
0 -2048 1:0.0336749 2:-0.115057 3:-0.814118 4:-0.812299 5:-0.0926971 6:-0.804512 7:-0.981537 
-2048 -2048 1:-0.588157 2:-0.422598 3:-0.780154 4:-0.768958 5:-0.462167 6:-0.790028 7:-0.951681 
0 -2048 1:-0.148479 2:-0.0204144 3:-0.277884 4:-0.26177 5:-0.0466895 6:-0.402543 7:-0.864884 
-2048 -2048 1:-0.706019 2:-0.639077 3:-0.492148 4:-0.430338 5:-0.664272 6:-0.737787 7:-0.945498 
-2048 0 1:-0.595547 2:-0.665709 3:-0.835323 4:-0.82084 5:-0.666486 6:-0.89703 7:-0.984585 
-2048 -2048 1:-0.419525 2:-0.511315 3:-0.33007 4:-0.202863 5:-0.505678 6:-0.55881 7:-0.912463 
-2048 -2048 1:-0.466688 2:-0.338632 3:-0.639114 4:-0.615023 5:-0.370047 6:-0.698222 7:-0.941695 
-2048 -2048 1:-0.335085 2:-0.144169 3:-0.514912 4:-0.504575 5:-0.183834 6:-0.616541 7:-0.944467 
-2048 -2048 1:-0.684399 2:-0.651652 3:-0.692317 4:-0.689109 5:-0.670852 6:-0.848181 7:-0.974495 
-2048 -2048 1:-0.226078 2:-0.275331 3:-0.609888 4:-0.626336 5:-0.273589 6:-0.687865 7:-0.931702 
-2048 -2048 1:-0.529578 2:-0.197392 3:-0.655111 4:-0.622764 5:-0.26352 6:-0.694206 7:-0.963837 
-2048 -2048 1:-0.680141 2:-0.616979 3:-0.711695 4:-0.691553 5:-0.641131 6:-0.843492 7:-0.980442 
-2048 -2048 1:-0.494797 2:-0.642324 3:-0.734038 4:-0.722935 5:-0.628702 6:-0.862066 7:-0.977881 
-2048 -2048 1:-0.552071 2:-0.528579 3:-0.670072 4:-0.667162 5:-0.544113 6:-0.80753 7:-0.971114 
-2048 -2048 1:-0.543939 2:-0.407668 3:-0.640538 4:-0.619624 5:-0.441688 6:-0.744781 7:-0.956769 
-2048 -2048 1:-0.478887 2:-0.369162 3:-0.623126 4:-0.63089 5:-0.397749 6:-0.738464 7:-0.960555 
-2048 0 1:-0.685216 2:-0.890114 3:-0.898437 4:-0.89939 5:-0.870099 6:-0.962123 7:-0.992682 
0 -2048 1:0.0798496 2:0.138889 3:-0.630332 4:-0.605567 5:0.127698 6:-0.557729 7:-0.894758 
-1183.304347824751 -2048 1:-0.267274 2:-0.158341 3:-0.613071 4:-0.599821 5:-0.183378 6:-0.66303 7:-0.944703 
0 -2048 1:0.22241 2:0.270792 3:-0.080287 4:-0.0221791 5:0.263663 6:-0.0903961 7:-0.648288 
-2048 -2048 1:-0.596033 2:-0.570622 3:-0.807622 4:-0.789158 5:-0.587183 6:-0.85214 7:-0.975427 
