svm_type c_svc
kernel_type rbf
gamma 2
nr_class 3
total_sv 142
rho 5.02695 -0.518502 -1.35807
label 2 3 1
nr_sv 48 52 42
SV
414.7027273787359 512 1:-0.584894 2:-0.632417 
512 0 1:-0.811299 2:-0.268977 
512 512 1:-0.91178 2:-0.732021 
512 0 1:-0.848432 2:-0.185091 
512 0 1:-0.865019 2:-0.167789 
512 512 1:-0.93989 2:-0.551247 
512 0 1:-0.727458 2:-0.307514 
351.0577138246373 512 1:-0.911529 2:-0.743126 
512 0 1:-0.75688 2:-0.0448697 
512 512 1:-0.793436 2:-0.55594 
512 512 1:-0.727494 2:-0.566702 
0 512 1:-0.93171 2:-0.728554 
512 512 1:-0.915441 2:-0.688503 
0 512 1:-0.95963 2:-0.789158 
512 0 1:-0.825852 2:-0.00305062 
512 512 1:-0.914852 2:-0.630985 
0 512 1:-0.952272 2:-0.787891 
512 512 1:-0.672203 2:-0.587578 
512 512 1:-0.848956 2:-0.782528 
512 512 1:-0.649556 2:-0.460564 
512 29.445248272233 1:-0.669784 2:0.251626 
512 512 1:-0.740979 2:-0.496508 
512 245.0852840430187 1:-0.622716 2:-0.329694 
506.7344449917163 0 1:-0.836167 2:-0.0572017 
512 0 1:-0.867683 2:-0.267454 
512 512 1:-0.968153 2:-0.662426 
512 512 1:-0.872028 2:-0.758087 
0 512 1:-0.912272 2:-0.781726 
512 512 1:-0.900141 2:-0.652311 
0 269.7410538345956 1:-0.309579 2:-0.73497 
0 512 1:-0.950871 2:-0.864578 
512 512 1:-0.909463 2:-0.444161 
512 512 1:-0.831243 2:-0.40343 
512 512 1:-0.804677 2:-0.538374 
512 512 1:-0.834755 2:-0.58292 
512 512 1:-0.778542 2:-0.527552 
512 512 1:-0.852589 2:-0.42637 
512 512 1:-0.889978 2:-0.587303 
512 512 1:-0.911381 2:-0.609224 
512 512 1:-0.891996 2:-0.462716 
512 512 1:-0.890649 2:-0.535342 
0 512 1:-0.934091 2:-0.717871 
512 512 1:-0.857763 2:-0.561725 
512 512 1:-0.894976 2:-0.601163 
0 512 1:-0.906397 2:-0.83287 
512 512 1:-0.925928 2:-0.568437 
512 0 1:-0.868324 2:-0.313439 
512 454.7089611040818 1:-0.860154 2:-0.325212 
-0 276.8227697310061 1:-0.452028 2:0.148933 
-512 0 1:-0.970367 2:-0.370293 
-0 193.271565495487 1:-0.745033 2:0.927496 
-512 512 1:-0.995055 2:-0.561796 
-512 0 1:-0.891748 2:-0.326985 
-151.1019919823308 0 1:-0.737916 2:0.163474 
-512 512 1:-0.865764 2:-0.546996 
-512 512 1:-0.849486 2:-0.551656 
-512 439.5767171185586 1:-0.611033 2:-0.468705 
-408.6402954995204 438.540282616554 1:-0.806397 2:-0.386065 
-2.717281951632723 37.68695220976846 1:-0.244454 2:0.967315 
-1.923309886543295 0 1:-0.573307 2:0.615394 
-512 512 1:-0.824101 2:-0.781999 
-0 512 1:-0.922816 2:-0.489601 
-0 46.44431154838468 1:-0.251757 2:-0.243796 
-85.8704090555845 0 1:-0.418535 2:-0.444687 
-512 512 1:-0.823659 2:-0.682343 
-512 0 1:-0.718728 2:-0.0419818 
-512 0 1:-0.754792 2:-0.149522 
-512 0 1:-0.83867 2:0.113358 
-512 512 1:-0.739009 2:-0.471798 
-512 512 1:-0.909731 2:-0.615378 
-512 512 1:-0.759565 2:-0.507186 
-512 512 1:-0.918198 2:-0.580837 
-104.4617082421654 0 1:-0.842762 2:0.230204 
-512 512 1:-0.91335 2:-0.52727 
-0 138.038509289218 1:-0.552943 2:-0.076386 
-512 512 1:-0.923022 2:-0.675172 
-512 512 1:-0.787979 2:-0.703857 
-512 512 1:-0.928982 2:-0.852357 
-512 512 1:-0.836901 2:-0.518079 
-512 0 1:-0.873803 2:-0.354025 
-0 82.55763741221487 1:-0.171257 2:-0.381069 
-512 0 1:-0.744378 2:-0.236912 
-512 512 1:-0.876712 2:-0.615184 
-512 512 1:-0.815708 2:-0.648006 
-512 0 1:-0.750736 2:-0.00953582 
-512 512 1:-0.890079 2:-0.742015 
-512 512 1:-0.86432 2:-0.490187 
-512 512 1:-0.590554 2:-0.555038 
-512 512 1:-0.909117 2:-0.502016 
-512 0 1:-0.850643 2:-0.292234 
-512 0 1:-0.797589 2:-0.120085 
-3.387572596294789 22.37913675042854 1:-0.345033 2:-0.464158 
-512 512 1:-0.85918 2:-0.47418 
-512 512 1:-0.90971 2:-0.56112 
-512 512 1:-0.757458 2:-0.439901 
-512 512 1:-0.786983 2:-0.570604 
-456.6141461803862 512 1:-0.892811 2:-0.488087 
-512 512 1:-0.85139 2:-0.594026 
-57.77817080063109 0 1:-0.555452 2:0.453249 
-512 0 1:-0.817105 2:-0.32176 
-512 -512 1:-0.864173 2:-0.583527 
-512 -512 1:-0.902549 2:-0.613898 
-512 -512 1:-0.851422 2:-0.631617 
-512 -358.047353988063 1:-0.888416 2:-0.673616 
-512 -400.1146679465745 1:-0.429428 2:-0.610817 
-492.8392064234815 -0 1:-0.983744 2:-0.820073 
-512 -512 1:-0.750133 2:-0.281648 
-512 -512 1:-0.92784 2:-0.640391 
-512 -0 1:-0.947293 2:-0.816113 
-156.1830261194025 -0 1:-0.948194 2:-0.708161 
-55.70723803842692 -512 1:-0.824601 2:-0.668644 
-512 -512 1:-0.708968 2:-0.426446 
-512 -4.37466809419541 1:-0.943541 2:-0.685777 
-416.3322201660027 -0 1:-0.891565 2:-0.870475 
-434.4272503592876 -0 1:-0.563658 2:-0.728278 
-512 -512 1:-0.900207 2:-0.549724 
-442.612092619818 -0 1:-0.944536 2:-0.798385 
-512 -512 1:-0.802333 2:-0.356664 
-512 -512 1:-0.805922 2:-0.508287 
-512 -512 1:-0.717683 2:-0.62684 
-512 -512 1:-0.847066 2:-0.637594 
-512 -0 1:-0.910137 2:-0.897148 
-512 -0 1:-0.953992 2:-0.709358 
-5.664720099037193 -233.6209464109354 1:-0.665735 2:0.949801 
-512 -512 1:-0.890224 2:-0.587448 
-512 -512 1:-0.896791 2:-0.366083 
-512 -512 1:-0.888107 2:-0.600721 
-512 -512 1:-0.930417 2:-0.681096 
-512 -512 1:-0.83672 2:-0.52988 
-512 -512 1:-0.865077 2:-0.59228 
-512 -512 1:-0.828028 2:-0.619062 
-512 -512 1:-0.845162 2:-0.593662 
-512 -0 1:-0.961374 2:-0.816269 
-19.21479342847466 -379.7028677472129 1:-0.357877 2:0.0419016 
-0 -299.4573779846394 1:-0.941857 2:-1 
-512 -512 1:-0.853224 2:-0.59067 
-512 -512 1:-0.879589 2:-0.523582 
-512 -512 1:-0.850741 2:-0.487207 
-512 -512 1:-0.942985 2:-0.633007 
-512 -512 1:-0.899027 2:-0.643157 
-512 -512 1:-0.653014 2:-0.558235 
-512 -512 1:-0.907026 2:-0.518072 
