svm_type c_svc
kernel_type rbf
gamma 2
nr_class 3
total_sv 152
rho 0.202342 0.351561 0.393201
label 2 3 1
nr_sv 49 51 52
SV
8 6.729980505213632 1:-0.534007 2:-0.584894 
8 8 1:-0.8637 2:-0.811299 
8 8 1:-0.918178 2:-0.91178 
8 8 1:-0.76452 2:-0.848432 
8 8 1:-0.839127 2:-0.865019 
8 8 1:-0.928304 2:-0.93989 
8 8 1:-0.614002 2:-0.727458 
8 8 1:-0.914409 2:-0.911529 
8 8 1:-0.622681 2:-0.75688 
8 8 1:-0.770884 2:-0.793436 
8 8 1:-0.767644 2:-0.727494 
0 8 1:-0.950935 2:-0.93171 
8 8 1:-0.920823 2:-0.915441 
0 8 1:-0.969813 2:-0.95963 
8 8 1:-0.781794 2:-0.825852 
8 8 1:-0.92921 2:-0.914852 
6.392047644269701 8 1:-0.940303 2:-0.952272 
8 8 1:-0.669962 2:-0.672203 
8 8 1:-0.802916 2:-0.848956 
8 8 1:-0.667537 2:-0.649556 
8 8 1:-0.672351 2:-0.669784 
8 8 1:-0.680234 2:-0.740979 
8 8 1:-0.588639 2:-0.622716 
8 8 1:-0.725885 2:-0.836167 
8 8 1:-0.894737 2:-0.867683 
0 8 1:-0.972686 2:-0.968153 
8 8 1:-0.854935 2:-0.872028 
8 8 1:-0.946245 2:-0.912272 
8 8 1:-0.891953 2:-0.900141 
8 8 1:-0.29342 2:-0.309579 
0 8 1:-0.972863 2:-0.950871 
8 8 1:-0.818077 2:-0.868853 
8 8 1:-0.924508 2:-0.909463 
8 8 1:-0.824821 2:-0.831243 
8 8 1:-0.816416 2:-0.804677 
8 8 1:-0.797806 2:-0.834755 
8 8 1:-0.782487 2:-0.778542 
8 8 1:-0.820894 2:-0.852589 
8 8 1:-0.86907 2:-0.889978 
8 8 1:-0.915512 2:-0.911381 
8 8 1:-0.868833 2:-0.891996 
8 8 1:-0.865905 2:-0.890649 
8 8 1:-0.930783 2:-0.934091 
8 8 1:-0.84714 2:-0.857763 
8 8 1:-0.885623 2:-0.894976 
8 8 1:-0.915775 2:-0.906397 
8 8 1:-0.931623 2:-0.925928 
8 8 1:-0.872173 2:-0.868324 
8 8 1:-0.801364 2:-0.860154 
-3.924547294135782 0 1:-0.529161 2:-0.452028 
-8 8 1:-0.93344 2:-0.970367 
-8 8 1:-0.78089 2:-0.745033 
-8 8 1:-0.986112 2:-0.995055 
-8 8 1:-0.827309 2:-0.891748 
-8 8 1:-0.883049 2:-0.865764 
-8 8 1:-0.816778 2:-0.849486 
-8 8 1:-0.822876 2:-0.806397 
-2.267070143570871 0 1:-0.263331 2:-0.244454 
-8 8 1:-0.781185 2:-0.824101 
-8 8 1:-0.941586 2:-0.922816 
-0 8 1:-0.224895 2:-0.251757 
-0.9400316507571512 8 1:-0.187008 2:-0.418535 
-8 8 1:-0.798282 2:-0.823659 
-8 8 1:-0.722702 2:-0.754792 
-8 8 1:-0.797537 2:-0.83867 
-8 8 1:-0.902874 2:-0.909731 
-8 8 1:-0.72363 2:-0.759565 
-8 8 1:-0.939589 2:-0.918198 
-8 8 1:-0.768345 2:-0.842762 
-8 8 1:-0.912365 2:-0.91335 
-8 8 1:-0.925042 2:-0.923022 
-0.7913355595239747 1.758026216505109 1:1 2:1 
-8 8 1:-0.743012 2:-0.787979 
-8 8 1:-0.912644 2:-0.928982 
-8 8 1:-0.823507 2:-0.836901 
-8 8 1:-0.858007 2:-0.873803 
-0 0.99389843104751 1:-0.192056 2:-0.171257 
-8 8 1:-0.750188 2:-0.744378 
-8 8 1:-0.843185 2:-0.866851 
-8 8 1:-0.886723 2:-0.876712 
-8 8 1:-0.802831 2:-0.815708 
-8 8 1:-0.743386 2:-0.761739 
-8 8 1:-0.880404 2:-0.890079 
-8 8 1:-0.742865 2:-0.86432 
-0.7712969357153943 0 1:-0.358552 2:-0.442386 
-8 8 1:-0.711618 2:-0.748079 
-5.697766060566523 1.983685329446576 1:-0.661662 2:-0.590554 
-8 8 1:-0.864201 2:-0.909117 
-8 8 1:-0.781791 2:-0.850643 
-8 6.871327180671298 1:-0.716691 2:-0.797589 
-8 1.14838166744266 1:-0.244425 2:-0.345033 
-8 8 1:-0.826411 2:-0.85918 
-8 8 1:-0.767796 2:-0.896612 
-8 8 1:-0.919421 2:-0.90971 
-8 8 1:-0.733691 2:-0.673151 
-8 8 1:-0.785882 2:-0.786983 
-8 8 1:-0.723123 2:-0.74686 
-8 8 1:-0.886113 2:-0.892811 
-8 8 1:-0.823179 2:-0.85139 
-8 8 1:-0.769683 2:-0.817105 
-0.3317392839787183 -0.9284614311675342 1:0.871297 2:0.316706 
-8 -8 1:-0.833535 2:-0.864173 
-3.532919330318584 -0 1:-1 2:-0.997609 
-8 -8 1:-0.901961 2:-0.902549 
-8 -8 1:-0.879966 2:-0.851422 
-8 -8 1:-0.879766 2:-0.888416 
-8 -8 1:-0.372358 2:-0.429428 
-8 -8 1:-0.731667 2:-0.750133 
-8 -8 1:-0.875545 2:-0.881728 
-1.5545660915509 -0 1:-0.928212 2:-0.92784 
-8 -8 1:-0.904612 2:-0.910711 
-8 -8 1:-0.820269 2:-0.824601 
-8 -8 1:-0.679237 2:-0.708968 
-8 -8 1:-0.881826 2:-0.891565 
-8 -8 1:-0.584805 2:-0.653843 
-8 -0 1:-0.927897 2:-0.91276 
-8 -8 1:-0.531962 2:-0.563658 
-8 -8 1:-0.872663 2:-0.900207 
-8 -8 1:-0.908584 2:-0.924803 
-8 -8 1:-0.713132 2:-0.802333 
-8 -8 1:-0.792669 2:-0.769987 
-8 -8 1:-0.800763 2:-0.805922 
-8 -8 1:-0.871305 2:-0.882 
-8 -8 1:-0.898307 2:-0.910762 
-8 -8 1:-0.727993 2:-0.717683 
-8 -8 1:-0.838815 2:-0.847066 
-8 -8 1:-0.865074 2:-0.873337 
-8 -8 1:-0.876114 2:-0.910137 
-8 -8 1:-0.670825 2:-0.665735 
-8 -8 1:-0.898667 2:-0.890224 
-8 -8 1:-0.829307 2:-0.896791 
-8 -8 1:-0.896855 2:-0.888107 
-8 -0 1:-0.925714 2:-0.91337 
-8 -0 1:-0.925105 2:-0.924342 
-8 -8 1:-0.917898 2:-0.930417 
-8 -8 1:-0.830645 2:-0.83672 
-8 -8 1:-0.892531 2:-0.865077 
-8 -8 1:-0.806222 2:-0.828028 
-8 -3.826857393945618 1:-0.922766 2:-0.934933 
-8 -8 1:-0.834184 2:-0.845162 
-8 -8 1:-0.918585 2:-0.934646 
-3.785841659966457 -8 1:0.0926103 2:-0.357877 
-8 -8 1:-0.772854 2:-0.748265 
-8 -8 1:-0.84753 2:-0.941857 
-8 -8 1:-0.807028 2:-0.853224 
-8 -8 1:-0.869893 2:-0.879589 
-8 -8 1:-0.781512 2:-0.850741 
-8 -8 1:-0.905846 2:-0.899027 
-8 -8 1:-0.658656 2:-0.653014 
-8 -8 1:-0.868427 2:-0.884843 
-5.524914139398973 -0 1:-0.935132 2:-0.898052 
-8 -8 1:-0.895852 2:-0.907026 
