svm_type c_svc
kernel_type rbf
gamma 2
nr_class 3
total_sv 163
rho 0.458182 0.713943 -0.418758
label 2 3 1
nr_sv 52 52 59
SV
0.5 0.5 1:-0.534007 2:-0.584894 
0.5 0.5 1:-0.8637 2:-0.811299 
0.5 0.5 1:-0.894676 2:-0.898458 
0.5 0.5 1:-0.76452 2:-0.848432 
0.5 0.5 1:-0.806766 2:-0.817228 
0.5 0.5 1:-0.928304 2:-0.93989 
0.5 0.5 1:-0.614002 2:-0.727458 
0.5 0.5 1:-0.914409 2:-0.911529 
0.5 0.5 1:-0.536874 2:-0.819328 
0.5 0.5 1:-0.958443 2:-0.954461 
0.5 0.5 1:-0.770884 2:-0.793436 
0.5 0.5 1:-0.767644 2:-0.727494 
0.5 0.5 1:-0.920823 2:-0.915441 
0.5 0.5 1:-0.969813 2:-0.95963 
0.5 0.5 1:-0.781794 2:-0.825852 
0.5 0.5 1:-0.755361 2:-0.807701 
0.5 0.5 1:-0.794626 2:-0.810529 
0.5 0.5 1:-0.940303 2:-0.952272 
0.5 0.5 1:-0.669962 2:-0.672203 
0.5 0.5 1:-0.812799 2:-0.815777 
0.5 0.5 1:-0.802916 2:-0.848956 
0.5 0.5 1:-0.667537 2:-0.649556 
0.5 0.5 1:-0.680234 2:-0.740979 
0.5 0.5 1:-0.588639 2:-0.622716 
0.5 0.5 1:-0.725885 2:-0.836167 
0.5 0.5 1:-0.894737 2:-0.867683 
0.01167986984475229 0.5 1:-0.972686 2:-0.968153 
0.5 0.5 1:-0.505145 2:-0.826351 
0.5 0.5 1:-0.858504 2:-0.878346 
0.5 0.5 1:-0.949976 2:-0.975508 
0.5 0.5 1:-0.946245 2:-0.912272 
0.5 0.5 1:-0.891953 2:-0.900141 
0.5 0.5 1:-0.854328 2:-0.857048 
0.5 0.5 1:-0.29342 2:-0.309579 
0.5 0.5 1:-0.972863 2:-0.950871 
0.5 0.5 1:-0.37098 2:-0.341238 
0.5 0.5 1:-0.818077 2:-0.868853 
0.5 0.5 1:-0.914706 2:-0.917326 
0.5 0.5 1:-0.924508 2:-0.909463 
0.5 0.5 1:-0.816416 2:-0.804677 
0.5 0.5 1:-0.797806 2:-0.834755 
0.5 0.5 1:-0.782487 2:-0.778542 
0.5 0.5 1:-0.929346 2:-0.931733 
0.5 0.5 1:-0.820894 2:-0.852589 
0.5 0.5 1:-0.86907 2:-0.889978 
0.5 0.5 1:-0.868833 2:-0.891996 
0.5 0.5 1:-0.865905 2:-0.890649 
0.5 0.5 1:-0.930783 2:-0.934091 
0.5 0.5 1:-0.885623 2:-0.894976 
0.5 0.5 1:-0.915775 2:-0.906397 
0.5 0.5 1:-0.872173 2:-0.868324 
0.5 0.5 1:-0.801364 2:-0.860154 
-0.5 0.5 1:-0.93344 2:-0.970367 
-0.5 0.5 1:-0.78089 2:-0.745033 
-0.5 0.5 1:-0.986112 2:-0.995055 
-0.5 0.5 1:-0.827309 2:-0.891748 
-0.5 0.5 1:-0.71627 2:-0.75997 
-0.5 0.5 1:-0.676319 2:-0.737916 
-0.5 0.5 1:-0.883049 2:-0.865764 
-0.3271030894592182 0.08501139972652906 1:-0.00427157 2:-0.185325 
-0.5 0.5 1:-0.66791 2:-0.611033 
-0.5 0.5 1:-0.822876 2:-0.806397 
-0.5 0.5 1:-0.6262 2:-0.76311 
-0.5 0.5 1:-0.661472 2:-0.709563 
-0.5 0.5 1:-0.941586 2:-0.922816 
-0.5 0.5 1:-0.798282 2:-0.823659 
-0.5 0.5 1:-0.62628 2:-0.68663 
-0.5 0.5 1:-0.722702 2:-0.754792 
-0.5 0.5 1:-0.625706 2:-0.739009 
-0.5 0.5 1:-0.683133 2:-0.688321 
-0.5 0.5 1:-0.902874 2:-0.909731 
-0.5 0.5 1:-0.72363 2:-0.759565 
-0.5 0.5 1:-0.912365 2:-0.91335 
-0.5 0.5 1:-0.925042 2:-0.923022 
-0.5 0.5 1:1 2:1 
-0.5 0.5 1:-0.912644 2:-0.928982 
-0.5 0.5 1:-0.823507 2:-0.836901 
-0.5 0.5 1:-0.724578 2:-0.776288 
-0.5 0.5 1:-0.858007 2:-0.873803 
-0.5 0.5 1:-0.750188 2:-0.744378 
-0.5 0.5 1:-0.843185 2:-0.866851 
-0.5 0.5 1:-0.802831 2:-0.815708 
-0.5 0.5 1:-0.716002 2:-0.773256 
-0.5 0.5 1:-0.743386 2:-0.761739 
-0.5 0.5 1:-0.669371 2:-0.750736 
-0.5 0.5 1:-0.880404 2:-0.890079 
-0.5 0.5 1:0.108153 2:0.203731 
-0.5 0.5 1:-0.661662 2:-0.590554 
-0.5 0.5 1:-0.781791 2:-0.850643 
-0.5 0.5 1:-0.716691 2:-0.797589 
-0.5 0.5 1:-0.822902 2:-0.852157 
-0.1845767803855341 0.5 1:-0.633235 2:-0.605235 
-0.5 0.5 1:-0.919821 2:-0.941298 
-0.5 0.5 1:-0.826411 2:-0.85918 
-0.5 0.5 1:-0.767796 2:-0.896612 
-0.5 0.5 1:-0.614088 2:-0.681842 
-0.5 0.5 1:-0.733691 2:-0.673151 
-0.5 0.5 1:-0.868314 2:-0.886293 
-0.5 0.5 1:-0.597366 2:-0.757458 
-0.5 0.5 1:-0.785882 2:-0.786983 
-0.5 0.5 1:-0.723123 2:-0.74686 
-0.5 0.5 1:-0.850857 2:-0.865064 
-0.5 0.5 1:-0.819653 2:-0.823556 
-0.5 0.5 1:-0.769683 2:-0.817105 
-0.5 -0.5 1:-0.858379 2:-0.846515 
-0.5 -0.5 1:-0.833535 2:-0.864173 
-0.5 -0.5 1:-0.901961 2:-0.902549 
-0.5 -0.5 1:-0.870253 2:-0.881698 
-0.5 -0.5 1:-0.879766 2:-0.888416 
-0.5 -0 1:-0.95406 2:-0.976904 
-0.5 -0.5 1:-0.731667 2:-0.750133 
-0.05450544739844189 -0.5 1:-0.903364 2:-0.88122 
-0.293926640143836 -0.5 1:-0.928212 2:-0.92784 
-0.5 -0.5 1:-0.901168 2:-0.920104 
-0.5 -0.5 1:-0.820269 2:-0.824601 
-0.5 -0.5 1:-0.679237 2:-0.708968 
-0.5 -0.5 1:-0.881826 2:-0.891565 
-0.5 -0.5 1:-0.584805 2:-0.653843 
-0 -0.5 1:-0.927897 2:-0.91276 
-0.5 -0.5 1:-0.531962 2:-0.563658 
-0.5 -0.5 1:-0.872663 2:-0.900207 
-0.5 -0 1:-0.933852 2:-0.944536 
-0.5 -0.5 1:-0.908584 2:-0.924803 
-0.5 -0.5 1:-0.761712 2:-0.81457 
-0.5 -0.5 1:-0.792669 2:-0.769987 
-0.5 -0.5 1:-0.800763 2:-0.805922 
-0.5 -0.5 1:-0.898307 2:-0.910762 
-0.5 -0.5 1:-0.727993 2:-0.717683 
-0.5 -0.5 1:-0.838815 2:-0.847066 
-0.5 -0 1:-0.932924 2:-0.943691 
-0.5 -0.5 1:-0.780362 2:-0.817748 
-0.5 -0.5 1:-0.406929 2:-0.407701 
-0.5 -0.5 1:-0.914907 2:-0.920482 
-0.5 -0.5 1:-0.876114 2:-0.910137 
-0.5 -0.5 1:-0.670825 2:-0.665735 
-0.5 -0.5 1:-0.898667 2:-0.890224 
-0.5 -0.5 1:-0.533949 2:-0.617348 
-0 -0.5 1:-0.930967 2:-0.931069 
-0.5 -0.5 1:-0.829307 2:-0.896791 
-0.5 -0.5 1:-0.896855 2:-0.888107 
-0 -0.5 1:-0.925714 2:-0.91337 
-0.5 -0.5 1:-0.474979 2:-0.564511 
-0.5 -0.5 1:-0.917898 2:-0.930417 
-0.5 -0.5 1:-0.830645 2:-0.83672 
-0.1515679124577221 -0 1:-0.969504 2:-0.983871 
-0.5 -0.5 1:-0.577544 2:-0.595008 
-0.5 -0.5 1:-0.834184 2:-0.845162 
-0.5 -0.5 1:-0.772854 2:-0.748265 
-0.5 -0.5 1:-0.84753 2:-0.941857 
-0.5 -0.5 1:-0.807028 2:-0.853224 
-0.5 -0.5 1:-0.869893 2:-0.879589 
-0.5 -0.5 1:-0.781512 2:-0.850741 
-0.5 -0.5 1:-0.757186 2:-0.760382 
-0.5 -0 1:-0.93002 2:-0.936602 
-0.5 -0.5 1:-0.905846 2:-0.899027 
-0.5 -0.5 1:-0.868427 2:-0.884843 
-0.5 -0.5 1:-0.916118 2:-0.953671 
-0.5 -0.5 1:-0.794682 2:-0.800237 
-0.5 -0 1:-0.947921 2:-0.970716 
-0 -0.5 1:-0.935132 2:-0.898052 
-0.5 -0 1:-0.93702 2:-0.962951 
-0.5 -0.5 1:-0.895852 2:-0.907026 
-0 -0.08501139972652903 1:-0.93364 2:-0.928634 
