svm_type c_svc
kernel_type rbf
gamma 0.5
nr_class 3
total_sv 161
rho 22.3261 -0.591498 -24.2385
label 3 2 1
nr_sv 52 48 61
SV
8192 0 1:-0.533114 2:-0.452028 
8192 8192 1:-0.938438 2:-0.970367 
8192 8192 1:-0.785493 2:-0.745033 
8192 8192 1:-0.832032 2:-0.891748 
0 3441.654977981832 1:-0.720707 2:-0.75997 
8192 8192 1:-0.887916 2:-0.865764 
8192 8192 1:-0.821474 2:-0.849486 
8192 8192 1:-0.672221 2:-0.611033 
7901.848146044728 1120.648285286465 1:-0.318867 2:-0.561968 
3015.000697457521 8192 1:-0.602018 2:-0.563406 
8192 0 1:-0.630404 2:-0.76311 
8192 8192 1:-0.785789 2:-0.824101 
8192 8192 1:-0.946605 2:-0.922816 
0 8192 1:-0.190076 2:-0.418535 
8192 0 1:-0.577792 2:-0.679838 
8192 8192 1:-0.80293 2:-0.823659 
0 8192 1:-0.727155 2:-0.754792 
8192 8192 1:-0.802183 2:-0.83867 
1123.323562425828 0 1:-0.629908 2:-0.739009 
0 8192 1:-0.687484 2:-0.688321 
8192 8192 1:-0.907793 2:-0.909731 
0 8192 1:-0.728086 2:-0.759565 
8192 8192 1:-0.944602 2:-0.918198 
8192 4205.084525287454 1:-0.772916 2:-0.842762 
0 304.6279345501713 1:-0.0149878 2:-0.24325 
6448.037922410385 8192 1:-0.747518 2:-0.787979 
8192 8192 1:-0.917588 2:-0.928982 
8192 8192 1:-0.82822 2:-0.836901 
8192 8192 1:-0.754712 2:-0.744378 
8192 8192 1:-0.847949 2:-0.866851 
8192 8192 1:-0.8916 2:-0.876712 
8192 8192 1:-0.885264 2:-0.890079 
0 8192 1:-0.362063 2:-0.442386 
245.7550350923675 0 1:0.105848 2:0.203731 
0 8192 1:-0.716042 2:-0.748079 
8192 8192 1:-0.869019 2:-0.909117 
8192 8192 1:-0.786396 2:-0.850643 
8192 8192 1:-0.827614 2:-0.852157 
0 8192 1:-0.637457 2:-0.605235 
0 2992.251599676711 1:-0.247642 2:-0.345033 
8192 8192 1:-0.924783 2:-0.941298 
8192 8192 1:-0.924382 2:-0.90971 
8192 8192 1:-0.738173 2:-0.673151 
8192 8192 1:-0.873143 2:-0.886293 
8192 8192 1:-0.790498 2:-0.786983 
0 8192 1:-0.727577 2:-0.74686 
8192 8192 1:-0.855641 2:-0.865064 
8192 8192 1:-0.890989 2:-0.892811 
237.3087933931793 0 1:-0.371887 2:-0.383095 
8192 8192 1:-0.827892 2:-0.85139 
8192 8192 1:-0.824357 2:-0.823556 
8192 8192 1:-0.774258 2:-0.817105 
-8192 8192 1:-0.868517 2:-0.811299 
-8192 8192 1:-0.923136 2:-0.91178 
-8192 8192 1:-0.899573 2:-0.898458 
-8192 8192 1:-0.769081 2:-0.848432 
-8192 8192 1:-0.843881 2:-0.865019 
-8192 8192 1:-0.811437 2:-0.817228 
-8192 8192 1:-0.618174 2:-0.727458 
-8192 8192 1:-0.919358 2:-0.911529 
-8192 400.8755337232112 1:-0.540846 2:-0.819328 
-0 8192 1:-0.963505 2:-0.954461 
-8192 8192 1:-0.626875 2:-0.75688 
-8192 8192 1:-0.775461 2:-0.793436 
-8192 8192 1:-0.772213 2:-0.727494 
-0 8192 1:-0.955978 2:-0.93171 
-8192 8192 1:-0.925788 2:-0.915441 
-0 8192 1:-0.974905 2:-0.95963 
-8192 8192 1:-0.759898 2:-0.807701 
-0 8192 1:-0.934196 2:-0.914852 
-8192 8192 1:-0.799264 2:-0.810529 
-8192 8192 1:-0.945318 2:-0.952272 
-8192 8192 1:-0.674278 2:-0.672203 
-8192 8192 1:-0.817485 2:-0.815777 
-8192 8192 1:-0.671847 2:-0.649556 
-8192 8192 1:-0.676674 2:-0.669784 
-8192 8192 1:-0.592745 2:-0.622716 
-0 8192 1:-0.977785 2:-0.968153 
-1658.893110477728 0 1:-0.509035 2:-0.826351 
-8192 8192 1:-0.863308 2:-0.878346 
-324.6936600433945 8192 1:-0.955016 2:-0.975508 
-8192 8192 1:-0.85973 2:-0.872028 
-0 8192 1:-0.951275 2:-0.912272 
-8192 8192 1:-0.859121 2:-0.857048 
-0 8192 1:-0.977962 2:-0.950871 
-8192 8192 1:-0.374523 2:-0.341238 
-8192 8192 1:-0.919655 2:-0.917326 
-603.6873863029284 8192 1:-0.929483 2:-0.909463 
-8192 8192 1:-0.829538 2:-0.831243 
-8192 8192 1:-0.821111 2:-0.804677 
-8192 8192 1:-0.802453 2:-0.834755 
-8192 8192 1:-0.934333 2:-0.931733 
-8192 8192 1:-0.825601 2:-0.852589 
-8192 8192 1:-0.873901 2:-0.889978 
-8192 8192 1:-0.920463 2:-0.911381 
-8192 8192 1:-0.870728 2:-0.890649 
-8192 8192 1:-0.935773 2:-0.934091 
-8192 8192 1:-0.851914 2:-0.857763 
-8192 8192 1:-0.920727 2:-0.906397 
-0 8192 1:-0.936616 2:-0.925928 
-8192 -7802.407664791326 1:-0.863183 2:-0.846515 
-0 -29.29597869732907 1:0.870964 2:0.316706 
-0 -3097.203073624406 1:-1 2:-1 
-8192 -0 1:-0.906877 2:-0.902549 
-8192 -8192 1:-0.875088 2:-0.881698 
-8192 -8192 1:-0.884825 2:-0.851422 
-8192 -8192 1:-0.884624 2:-0.888416 
-8192 -3164.297000463101 1:-0.375906 2:-0.429428 
-8192 -8192 1:-0.736143 2:-0.750133 
-0 -8192 1:-0.908284 2:-0.88122 
-8192 -869.2518084387067 1:-0.880393 2:-0.881728 
-0 -8192 1:-0.964129 2:-0.947293 
-8192 -8192 1:-0.906082 2:-0.920104 
-8192 -0 1:-0.909535 2:-0.910711 
-8192 -0 1:-0.824975 2:-0.824601 
-8192 -8192 1:-0.683577 2:-0.708968 
-0 -8192 1:-0.954133 2:-0.943541 
-8192 -8192 1:-0.886691 2:-0.891565 
-0 -8192 1:-0.93288 2:-0.91276 
-8192 -8192 1:-0.877504 2:-0.900207 
-8192 -0 1:-0.913518 2:-0.924803 
-8192 -8192 1:-0.766266 2:-0.81457 
-8192 -8192 1:-0.71756 2:-0.802333 
-8192 -8192 1:-0.805417 2:-0.805922 
-8192 -8192 1:-0.876142 2:-0.882 
-8192 -8192 1:-0.73246 2:-0.717683 
-8192 -8192 1:-0.843568 2:-0.847066 
-0 -8192 1:-0.966108 2:-0.944694 
-8192 -8192 1:-0.784964 2:-0.817748 
-8192 -8192 1:-0.410566 2:-0.407701 
-0 -8192 1:-0.965202 2:-0.945741 
-8192 -8192 1:-0.869895 2:-0.873337 
-8192 -8192 1:-0.675144 2:-0.665735 
-8192 -0 1:-0.903574 2:-0.890224 
-8192 -5487.037210504235 1:-0.537914 2:-0.617348 
-8192 -8192 1:-0.834035 2:-0.896791 
-0 -8192 1:-0.930691 2:-0.91337 
-8192 -0 1:-0.478792 2:-0.564511 
-8192 -8192 1:-0.835376 2:-0.83672 
-8192 -8192 1:-0.897423 2:-0.865077 
-8192 -1357.722019226921 1:-0.581622 2:-0.595008 
-8192 -8192 1:-0.810891 2:-0.828028 
-0 -8192 1:-0.965082 2:-0.957525 
-8192 -8192 1:-0.838925 2:-0.845162 
-0 -1745.575564530006 1:-0.923545 2:-0.934646 
-0 -8192 1:-0.972771 2:-0.961374 
-2823.45047896164 -0 1:0.0902649 2:-0.357877 
-8192 -8192 1:-0.777436 2:-0.748265 
-8192 -8192 1:-0.811699 2:-0.853224 
-8192 -8192 1:-0.786117 2:-0.850741 
-0 -8192 1:-0.967624 2:-0.959973 
-8192 -0 1:-0.761728 2:-0.760382 
-1048.816843820977 -0 1:-0.910772 2:-0.899027 
-8192 -8192 1:-0.662943 2:-0.653014 
-8192 -8192 1:-0.921071 2:-0.953671 
-8192 -8192 1:-0.799321 2:-0.800237 
-0 -8192 1:-0.977425 2:-0.96355 
-0 -8192 1:-0.940134 2:-0.898052 
-0 -1424.085213447212 1:-0.9644 2:-0.95816 
-8192 -8192 1:-0.900753 2:-0.907026 
-0 -8192 1:-0.938638 2:-0.928634 
