svm_type c_svc
kernel_type rbf
gamma 2
nr_class 3
total_sv 150
rho -9.52025 -31.8289 16.4207
label 3 2 1
nr_sv 50 48 52
SV
6891.408084357226 0 1:-0.452028 2:-0.663205 
1950.790049606653 0 1:-0.970367 2:-0.828167 
0 6278.456834709156 1:-0.745033 2:-0.415849 
6889.733338332656 0 1:-0.891748 2:-0.814408 
8192 8192 1:-0.75997 2:-0.908028 
8192 8192 1:-0.865764 2:-0.884307 
8192 8192 1:-0.552454 2:-0.789717 
862.9646550516255 805.4848491081185 1:-0.185325 2:-0.594035 
8192 8192 1:-0.849486 2:-0.885788 
632.4262217056092 8192 1:-0.611033 2:-0.859433 
1471.285602117713 0 1:-0.242691 2:-0.44243 
0 7493.605363698215 1:-0.573307 2:-0.515006 
8192 8192 1:-0.824101 2:-0.958969 
8192 8192 1:-0.922816 2:-0.866072 
80.08160893653826 8192 1:-0.418535 2:-0.851802 
8192 8192 1:-0.823659 2:-0.927308 
8192 0 1:-0.718728 2:-0.72386 
8192 0 1:-0.754792 2:-0.758026 
4057.266584558666 8192 1:-0.739009 2:-0.860416 
0 7376.220392044397 1:-0.606031 2:-0.775189 
8192 8192 1:-0.909731 2:-0.906032 
8192 8192 1:-0.759565 2:-0.871659 
8192 8192 1:-0.918198 2:-0.895059 
8192 8192 1:-0.787979 2:-0.934143 
8192 8192 1:-0.928982 2:-0.981322 
8192 8192 1:-0.836901 2:-0.87512 
6457.525396852823 0 1:-0.776288 2:-0.60683 
8192 0 1:-0.744378 2:-0.785791 
8192 8192 1:-0.866851 2:-0.846966 
0 4307.805944250139 1:-0.539621 2:-0.363835 
8192 8192 1:-0.876712 2:-0.905971 
8192 8192 1:-0.773256 2:-0.808451 
8192 0 1:-0.750736 2:-0.713552 
8192 8192 1:-0.890079 2:-0.946266 
8192 8192 1:-0.86432 2:-0.866258 
1400.670309191011 2562.946733504228 1:-0.442386 2:-0.785378 
8192 8192 1:-0.909117 2:-0.870017 
6029.875854206278 0 1:-0.797589 2:-0.748674 
2018.812590763787 0 1:-0.677876 2:-0.715865 
0 8192 1:-0.345033 2:-0.857989 
8192 8192 1:-0.941298 2:-0.916072 
8192 8192 1:-0.896612 2:-0.846588 
8192 8192 1:-0.90971 2:-0.888794 
8192 8192 1:-0.886293 2:-0.870592 
8192 8192 1:-0.786983 2:-0.891807 
8192 8192 1:-0.865064 2:-0.891134 
8192 8192 1:-0.892811 2:-0.865591 
8192 8192 1:-0.85139 2:-0.899249 
8192 8192 1:-0.823556 2:-0.906125 
8192 1392.913906539807 1:-0.817105 2:-0.812748 
-8192 4327.230601813667 1:-0.811299 2:-0.795978 
-8192 8192 1:-0.91178 2:-0.943091 
-8192 8192 1:-0.898458 2:-0.96141 
-8192 0 1:-0.848432 2:-0.769327 
-8192 0 1:-0.865019 2:-0.76383 
-8192 8192 1:-0.817228 2:-0.833926 
-8192 0 1:-0.727458 2:-0.808222 
-8192 8192 1:-0.911529 2:-0.946619 
-8192 0 1:-0.819328 2:-0.679594 
-0 8192 1:-0.954461 2:-0.947365 
-8192 0 1:-0.75688 2:-0.724777 
-8192 8192 1:-0.793436 2:-0.887149 
-8192 8192 1:-0.727494 2:-0.890568 
-0 8192 1:-0.93171 2:-0.941989 
-8192 8192 1:-0.915441 2:-0.929265 
-0 8192 1:-0.95963 2:-0.961244 
-8192 8192 1:-0.807701 2:-0.863765 
-8192 8192 1:-0.914852 2:-0.910991 
-8192 8192 1:-0.810529 2:-0.850934 
-0 8192 1:-0.952272 2:-0.960841 
-8192 8192 1:-0.672203 2:-0.8972 
-8192 8192 1:-0.815777 2:-0.832346 
-8192 8192 1:-0.649556 2:-0.856847 
-8192 0 1:-0.669784 2:-0.630578 
-8192 6600.719765600174 1:-0.622716 2:-0.815268 
-0 8192 1:-0.968153 2:-0.92098 
-8192 8192 1:-0.826351 2:-0.833972 
-8192 8192 1:-0.878346 2:-0.870308 
-0 8192 1:-0.975508 2:-1 
-8192 8192 1:-0.872028 2:-0.951372 
-0 8192 1:-0.912272 2:-0.958883 
-8192 8192 1:-0.857048 2:-0.879492 
-0 8192 1:-0.950871 2:-0.985205 
-8192 1093.355131022715 1:-0.341238 2:-0.597207 
-8192 8192 1:-0.917326 2:-0.942485 
-8192 8192 1:-0.909463 2:-0.851635 
-8192 8192 1:-0.831243 2:-0.838695 
-8192 8192 1:-0.804677 2:-0.881568 
-8192 8192 1:-0.834755 2:-0.89572 
-0 8192 1:-0.931733 2:-0.955612 
-8192 8192 1:-0.852589 2:-0.845983 
-8192 8192 1:-0.889978 2:-0.897113 
-8192 8192 1:-0.911381 2:-0.904077 
-8192 8192 1:-0.890649 2:-0.880604 
-5974.840295680534 8192 1:-0.934091 2:-0.938595 
-8192 8192 1:-0.857763 2:-0.888987 
-0 8192 1:-0.906397 2:-0.975131 
-8192 8192 1:-0.925928 2:-0.891119 
-82.50045061698158 -0 1:0.316706 2:-0.679852 
-8192 -8192 1:-0.902549 2:-0.905562 
-8192 -8192 1:-0.881698 2:-0.902228 
-8192 -8192 1:-0.851422 2:-0.911192 
-8192 -8192 1:-0.888416 2:-0.924535 
-8192 -0 1:-0.429428 2:-0.904584 
-0 -8192 1:-0.976904 2:-0.99571 
-8192 -8192 1:-0.750133 2:-0.800004 
-8192 -8192 1:-0.920104 2:-0.89542 
-4560.721622205934 -0 1:-0.824601 2:-0.922956 
-8192 -8192 1:-0.708968 2:-0.846007 
-7496.658350345621 -8192 1:-0.943541 2:-0.928399 
-280.3322499387037 -4639.197519845111 1:-0.891565 2:-0.987079 
-0 -8192 1:-0.948477 2:-0.931901 
-0 -8192 1:-0.91276 2:-0.936136 
-8192 -8192 1:-0.900207 2:-0.885174 
-8192 -8192 1:-0.81457 2:-0.86066 
-8192 -8192 1:-0.802333 2:-0.823837 
-8192 -8192 1:-0.805922 2:-0.872009 
-0 -58.27191090852592 1:-0.882 2:-0.930991 
-0 -7571.396175790624 1:-0.717683 2:-0.909674 
-8192 -8192 1:-0.847066 2:-0.913091 
-0 -8192 1:-0.943691 2:-0.989356 
-5944.180330745038 -0 1:-0.817748 2:-0.990937 
-8192 -0 1:-0.407701 2:-0.812306 
-0 -8192 1:-0.945741 2:-0.940001 
-638.6307221244761 -8192 1:-0.873337 2:-0.92682 
-8016.397837738937 -0 1:-0.665735 2:-0.408763 
-8192 -8192 1:-0.890224 2:-0.897159 
-8192 -413.9327088871945 1:-0.617348 2:-0.44158 
-8192 -8192 1:-0.896791 2:-0.826829 
-8192 -1980.853631729571 1:-0.564511 2:-0.863626 
-8192 -8192 1:-0.930417 2:-0.926912 
-8192 -8192 1:-0.83672 2:-0.878869 
-8192 -8192 1:-0.865077 2:-0.898694 
-0 -6829.985548031181 1:-0.983871 2:-0.983571 
-3198.012460138385 -0 1:-0.595008 2:-0.893191 
-8192 -8192 1:-0.828028 2:-0.907203 
-8192 -8192 1:-0.845162 2:-0.899133 
-8192 -1739.091298268328 1:-0.357877 2:-0.69721 
-8192 -8192 1:-0.853224 2:-0.898183 
-8192 -8192 1:-0.850741 2:-0.865311 
-8192 -8192 1:-0.760382 2:-0.844785 
-8192 -8192 1:-0.942985 2:-0.911633 
-8192 -8192 1:-0.899027 2:-0.914858 
-8192 -8192 1:-0.653014 2:-0.887878 
-0 -8192 1:-0.953671 2:-0.988106 
-8192 -8192 1:-0.800237 2:-0.822022 
-0 -8192 1:-0.962951 2:-0.986683 
-0 -8192 1:-0.937597 2:-0.940678 
-8192 -8192 1:-0.907026 2:-0.875117 
-0 -5172.57670497596 1:-0.928634 2:-0.9418 
