svm_type c_svc
kernel_type rbf
gamma 0.125
nr_class 3
total_sv 159
rho -57.677 -74.4806 -52.8091
label 2 1 3
nr_sv 51 55 53
SV
32768 32768 1:-0.501957 2:-0.3699 
32768 32768 1:-0.854326 2:-0.713902 
32768 32768 1:-0.912551 2:-0.866574 
32768 32768 1:-0.887432 2:-0.846332 
32768 32768 1:-0.748325 2:-0.770322 
32768 32768 1:-0.828063 2:-0.795524 
32768 32768 1:-0.793476 2:-0.72291 
32768 5332.64488936092 1:-0.923373 2:-0.909285 
32768 32768 1:-0.908522 2:-0.866192 
7578.232935729658 32768 1:-0.505021 2:-0.726101 
32768 0 1:-0.955584 2:-0.931424 
32768 32768 1:-0.59673 2:-0.631218 
32768 32768 1:-0.751663 2:-0.586567 
32768 0 1:-0.94756 2:-0.896855 
32768 0 1:-0.967737 2:-0.939277 
32768 32768 1:-0.766786 2:-0.736013 
32768 32768 1:-0.738535 2:-0.708436 
32768 32768 1:-0.924341 2:-0.871241 
32768 32768 1:-0.780501 2:-0.712731 
32768 32768 1:-0.647263 2:-0.502557 
32768 32768 1:-0.799924 2:-0.720706 
32768 32768 1:-0.789361 2:-0.771119 
32768 32768 1:-0.649816 2:-0.498883 
32768 32768 1:-0.658241 2:-0.607057 
32768 32768 1:-0.560347 2:-0.427367 
32768 32768 1:-0.707032 2:-0.751686 
32768 32768 1:-0.887497 2:-0.799573 
0 15675.73732694252 1:-0.47111 2:-0.736771 
32768 32768 1:-0.848772 2:-0.815773 
32768 0 1:-0.946536 2:-0.963403 
32768 32768 1:-0.844958 2:-0.806174 
32768 0 1:-0.942547 2:-0.867322 
32768 32768 1:-0.884522 2:-0.848889 
32768 32768 1:-0.844309 2:-0.783413 
26397.4518298113 32768 1:-0.244824 2:0.0484169 
27774.86764715297 32768 1:-0.327717 2:0.00031285 
32768 32768 1:-0.805565 2:-0.80135 
32768 32768 1:-0.90884 2:-0.875 
32768 32768 1:-0.812773 2:-0.744205 
32768 32768 1:-0.783899 2:-0.749541 
32768 32768 1:-0.767527 2:-0.66413 
32768 32768 1:-0.924486 2:-0.896891 
32768 32768 1:-0.860065 2:-0.833447 
32768 32768 1:-0.909701 2:-0.865967 
32768 32768 1:-0.859811 2:-0.836514 
32768 0 1:-0.926022 2:-0.900473 
32768 32768 1:-0.836626 2:-0.7845 
32768 32768 1:-0.877756 2:-0.841041 
32768 32768 1:-0.926921 2:-0.88807 
32768 32768 1:-0.863381 2:-0.800545 
32768 32768 1:-0.787702 2:-0.788132 
-32768 32768 1:-0.848639 2:-0.76741 
-597.1746292449695 1482.596589298771 1:1 2:1 
-32768 32768 1:-0.822086 2:-0.794239 
-32768 32768 1:-0.86133 2:-0.820867 
-32768 32768 1:-0.87171 2:-0.774865 
-32768 32768 1:-0.871496 2:-0.831074 
-32768 32768 1:-0.329191 2:-0.133683 
-32768 32768 1:-0.896718 2:-0.820141 
-32768 32768 1:-0.866985 2:-0.820912 
-32768 0 1:-0.923274 2:-0.890975 
-32768 32768 1:-0.894371 2:-0.879221 
-32768 32768 1:-0.898051 2:-0.864949 
-0 32768 1:-0.657176 2:-0.558418 
-1125.607188595542 32768 1:-0.556249 2:-0.474662 
-32768 32768 1:-0.499772 2:-0.337634 
-32768 0 1:-0.929303 2:-0.916343 
-32768 32768 1:-0.902297 2:-0.88636 
-32768 32768 1:-0.745323 2:-0.718872 
-32768 32768 1:-0.693402 2:-0.700278 
-32768 32768 1:-0.778409 2:-0.651133 
-32768 32768 1:-0.78706 2:-0.705732 
-32768 32768 1:-0.862454 2:-0.821325 
-32768 32768 1:-0.891313 2:-0.865027 
-20182.21099562127 32768 1:-0.709285 2:-0.571661 
-32768 32768 1:-0.827729 2:-0.768246 
-90.46962363241776 0 1:-0.928311 2:-0.915059 
-32768 32768 1:-0.765255 2:-0.7237 
-32768 32768 1:-0.366139 2:-0.100671 
-32768 0 1:-0.909055 2:-0.879795 
-32768 32768 1:-0.855794 2:-0.808163 
-32768 32768 1:-0.867593 2:-0.864077 
-32768 32768 1:-0.891697 2:-0.833821 
-32768 32768 1:-0.501895 2:-0.419211 
-32768 32768 1:-0.817567 2:-0.843799 
-32768 32768 1:-0.889761 2:-0.830604 
-6987.089975599771 32768 1:-0.43887 2:-0.33893 
-32768 0 1:-0.919954 2:-0.88566 
-32768 32768 1:-0.818997 2:-0.752527 
-32768 32768 1:-0.885139 2:-0.795613 
-32768 32768 1:-0.548489 2:-0.385266 
-32768 32768 1:-0.792895 2:-0.739321 
-32768 0 1:-0.917454 2:-0.901753 
-32768 32768 1:-0.82278 2:-0.765353 
-32768 0 1:-0.912986 2:-0.901317 
-0 9965.354526680987 1:0.167757 2:-0.0249677 
-32768 32768 1:-0.837043 2:-0.912273 
-32768 32768 1:-0.860944 2:-0.817662 
-32768 32768 1:-0.766485 2:-0.773831 
-32768 32768 1:-0.740486 2:-0.636538 
-32768 0 1:-0.925207 2:-0.904289 
-32768 32768 1:-0.89937 2:-0.847197 
-32768 32768 1:-0.635179 2:-0.473402 
-32768 32768 1:-0.859378 2:-0.825646 
-32768 0 1:-0.910349 2:-0.930223 
-32768 32768 1:-0.78056 2:-0.697094 
-32768 -32768 1:-0.928862 2:-0.955591 
-32768 -32768 1:-0.76582 2:-0.613217 
-32768 -32768 1:-0.985157 2:-0.993102 
-32768 -32768 1:-0.696756 2:-0.635911 
-32768 -32768 1:-0.875006 2:-0.796656 
-32768 -32768 1:-0.804176 2:-0.771923 
-32206.10640397757 -18106.96833186393 1:-0.268387 2:-0.335065 
-32768 -32768 1:-0.810694 2:-0.706454 
-32768 -32768 1:-0.570232 2:-0.337251 
-32768 -0 1:-0.212665 2:0.147369 
-173.5724125649041 -0 1:-0.154416 2:0.150047 
-3377.440084872246 -32768 1:-0.57307 2:-0.352294 
-32768 -32768 1:-0.766135 2:-0.733353 
-0 -27297.44817027622 1:-0.433356 2:-0.231935 
-0 -32768 1:-0.66505 2:-0.573249 
-32768 -32768 1:-0.783612 2:-0.75549 
-0 -32768 1:-0.66134 2:-0.527048 
-32768 -32768 1:-0.704622 2:-0.635297 
-32768 -32768 1:-0.935434 2:-0.876325 
-32768 -32768 1:-0.752412 2:-0.761707 
-32768 -32768 1:-0.906338 2:-0.868959 
-0 -30774.91011034795 1:0.0555556 2:0.149198 
-32768 -32768 1:-0.919887 2:-0.883654 
-32768 -32768 1:-0.725337 2:-0.678469 
-32768 -32768 1:-0.811368 2:-0.752802 
-32768 -32768 1:-0.705636 2:-0.660705 
-32768 -32768 1:-0.848242 2:-0.80887 
-32768 -32768 1:-0.832399 2:-0.798308 
-32768 -32768 1:-0.878932 2:-0.813291 
-32768 -32768 1:-0.78927 2:-0.720601 
-32768 -21686.46894598668 1:-0.696469 2:-0.656098 
-32768 -32768 1:-0.725737 2:-0.6386 
-32768 -32768 1:-0.872178 2:-0.8336 
-32768 -0 1:-0.725179 2:-0.794463 
-0 -11886.15555750503 1:-0.314435 2:-0.153371 
-603.349620926341 -0 1:0.184369 2:0.828345 
-8627.430365666751 -32768 1:-0.691784 2:-0.617844 
-32768 -32768 1:-0.638392 2:-0.3785 
-32768 -32768 1:-0.854861 2:-0.862527 
-32768 -0 1:-0.697206 2:-0.693071 
-32768 -32768 1:-0.810722 2:-0.775982 
-32768 -32768 1:-0.914306 2:-0.911424 
-32768 -32768 1:-0.814472 2:-0.786652 
-32768 -32768 1:-0.913879 2:-0.863428 
-32768 -32768 1:-0.859257 2:-0.827848 
-32768 -0 1:-0.569673 2:-0.632095 
-32768 -32768 1:-0.70408 2:-0.615992 
-32768 -32768 1:-0.840599 2:-0.795593 
-32768 -32768 1:-0.87828 2:-0.837751 
-8788.483328296003 -0 1:-0.324906 2:-0.0632839 
-32768 -32768 1:-0.811018 2:-0.774816 
-32768 -32768 1:-0.80725 2:-0.732525 
-32768 -32768 1:-0.753843 2:-0.722724 
