svm_type c_svc
kernel_type rbf
gamma 8
nr_class 3
total_sv 160
rho 0.742963 0.853051 -0.0581557
label 2 3 1
nr_sv 52 58 50
SV
2 2 1:-0.584894 2:-0.884841 
2 2 1:-0.91178 2:-0.916046 
2 2 1:-0.898458 2:-0.93411 
2 0 1:-0.865019 2:-0.73928 
2 2 1:-0.817228 2:-0.8084 
2 2 1:-0.93989 2:-0.859412 
2 2 1:-0.727458 2:-0.783054 
2 0 1:-0.819328 2:-0.656217 
0 2 1:-0.954461 2:-0.92026 
2 0 1:-0.75688 2:-0.700771 
2 2 1:-0.793436 2:-0.860882 
0.3853424592369498 2 1:-0.93171 2:-0.91496 
2 2 1:-0.915441 2:-0.902412 
2 0 1:-0.825852 2:-0.68767 
2 2 1:-0.807701 2:-0.837824 
2 2 1:-0.914852 2:-0.884393 
2 2 1:-0.810529 2:-0.825171 
0 2 1:-0.952272 2:-0.933549 
2 2 1:-0.815777 2:-0.806842 
2 2 1:-0.848956 2:-0.931869 
2 2 1:-0.649556 2:-0.831002 
2 2 1:-0.669784 2:-0.607883 
2 2 1:-0.740979 2:-0.842263 
2 0 1:-0.836167 2:-0.704635 
2 0 1:-0.867683 2:-0.770503 
0 2 1:-0.968153 2:-0.894243 
2 2 1:-0.826351 2:-0.808446 
2 2 1:-0.878346 2:-0.844276 
0 2 1:-0.975508 2:-0.972163 
2 2 1:-0.872028 2:-0.924212 
2 2 1:-0.900141 2:-0.891074 
2 2 1:-0.857048 2:-0.853332 
2 2 1:-0.309579 2:-0.91697 
0 2 1:-0.950871 2:-0.957574 
2 2 1:-0.341238 2:-0.574976 
2 0 1:-0.868853 2:-0.705194 
2 2 1:-0.917326 2:-0.915449 
2 2 1:-0.909463 2:-0.825863 
2 2 1:-0.831243 2:-0.813103 
2 2 1:-0.804677 2:-0.855379 
2 2 1:-0.778542 2:-0.851989 
0 2 1:-0.931733 2:-0.928393 
2 2 1:-0.852589 2:-0.82029 
2 2 1:-0.911381 2:-0.877575 
2 2 1:-0.891996 2:-0.831677 
2 2 1:-0.890649 2:-0.854429 
2 2 1:-0.857763 2:-0.862695 
2 2 1:-0.894976 2:-0.87505 
2 2 1:-0.906397 2:-0.94764 
2 2 1:-0.925928 2:-0.864797 
2 1.456376661566125 1:-0.868324 2:-0.78491 
2 2 1:-0.860154 2:-0.788598 
-0 0.00797637495969683 1:-0.452028 2:-0.640055 
-2 2 1:-0.995055 2:-0.862717 
-2 0.9622584992087958 1:-0.891748 2:-0.789154 
-2 2 1:-0.75997 2:-0.881471 
-2 0 1:-0.737916 2:-0.6355 
-2 2 1:-0.849486 2:-0.85954 
-0.9725696222531806 2 1:-0.611033 2:-0.833553 
-2 2 1:-0.806397 2:-0.807663 
-0.2232498239447325 0 1:-0.244454 2:-0.383668 
-0.7664123072197609 0 1:-0.242691 2:-0.422354 
-2 2 1:-0.824101 2:-0.931703 
-2 2 1:-0.922816 2:-0.840099 
-1.995514236654563 2 1:-0.251757 2:-0.763092 
-0.1986281451793926 2 1:-0.418535 2:-0.826028 
-2 2 1:-0.823659 2:-0.900482 
-2 0 1:-0.718728 2:-0.699866 
-2 0 1:-0.754792 2:-0.733557 
-2 0 1:-0.83867 2:-0.651201 
-0 2 1:-0.606031 2:-0.750481 
-2 2 1:-0.909731 2:-0.879503 
-2 2 1:-0.918198 2:-0.868682 
-2 0 1:-0.842762 2:-0.614594 
-2 2 1:-0.91335 2:-0.8519 
-0 0.8955933122338657 1:-0.24325 2:-0.349229 
-2 2 1:-0.923022 2:-0.898236 
-0.2567501012847625 0.9706654111058605 1:1 2:-0.562609 
-2 2 1:-0.787979 2:-0.907223 
-2 2 1:-0.928982 2:-0.953745 
-1.370702974458331 0 1:-0.776288 2:-0.584465 
-2 2 1:-0.873803 2:-0.797625 
-0.3441377382406765 0.5050285288373915 1:-0.171257 2:-0.806098 
-2 0 1:-0.744378 2:-0.760935 
-0 2 1:-0.539621 2:-0.344853 
-2 2 1:-0.876712 2:-0.879443 
-2 2 1:-0.815708 2:-0.889725 
-2 0 1:-0.773256 2:-0.78328 
-2 2 1:-0.761739 2:-0.800844 
-2 2 1:-0.86432 2:-0.840283 
-0.2573775100015493 0.9422855651029834 1:0.203731 2:1 
-0 0.5697517620303826 1:-0.748079 2:-0.516144 
-2 2 1:-0.590554 2:-0.8606 
-2 2 1:-0.909117 2:-0.843989 
-2 0 1:-0.850643 2:-0.778267 
-2 0 1:-0.852157 2:-0.714929 
-2 2 1:-0.941298 2:-0.889403 
-2 2 1:-0.85918 2:-0.835268 
-2 2 1:-0.896612 2:-0.820886 
-2 2 1:-0.90971 2:-0.862505 
-2 2 1:-0.681842 2:-0.796498 
-0 2 1:-0.673151 2:-0.51802 
-2 2 1:-0.886293 2:-0.844556 
-2 2 1:-0.757458 2:-0.824529 
-2 2 1:-0.786983 2:-0.865476 
-2 2 1:-0.865064 2:-0.864812 
-2 2 1:-0.892811 2:-0.839625 
-0 2 1:-0.383095 2:-0.713634 
-2 2 1:-0.85139 2:-0.872814 
-2 2 1:-0.823556 2:-0.879595 
-0.1880104257842921 -1.279444829362042 1:0.316706 2:-0.65647 
-2 -2 1:-0.864173 2:-0.869525 
-2 -2 1:-0.902549 2:-0.87904 
-2 -2 1:-0.881698 2:-0.875752 
-2 -2 1:-0.851422 2:-0.884591 
-0 -2 1:-0.429428 2:-0.878075 
-2 -2 1:-0.750133 2:-0.774951 
-2 -0.4952418762947834 1:-0.88122 2:-0.917058 
-2 -2 1:-0.92784 2:-0.88734 
-2 -2 1:-0.920104 2:-0.869038 
-2 -1.078872747822151 1:-0.948194 2:-0.908571 
-2 -2 1:-0.824601 2:-0.896191 
-2 -2 1:-0.943541 2:-0.901558 
-0 -2 1:-0.653843 2:-0.373428 
-2 -2 1:-0.948477 2:-0.905012 
-2 -2 1:-0.91276 2:-0.909188 
-0 -2 1:-0.563658 2:-0.914873 
-2 -2 1:-0.900207 2:-0.858935 
-2 -2 1:-0.81457 2:-0.834762 
-2 -2 1:-0.802333 2:-0.798452 
-2 -2 1:-0.769987 2:-0.91252 
-2 -2 1:-0.882 2:-0.904115 
-2 -0 1:-0.910762 2:-0.914248 
-1.184342026790349 -2 1:-0.407701 2:-0.787081 
-1.66010367208159 -0 1:-0.945741 2:-0.912999 
-2 -2 1:-0.873337 2:-0.900001 
-2 -0 1:-0.953992 2:-0.908946 
-0.7335861558883908 -2 1:-0.665735 2:-0.389155 
-2 -2 1:-0.617348 2:-0.421515 
-2 -2 1:-0.888107 2:-0.874911 
-2 -2 1:-0.564511 2:-0.837687 
-2 -0 1:-0.924342 2:-0.914897 
-2 -2 1:-0.930417 2:-0.900092 
-2 -2 1:-0.865077 2:-0.872267 
-2 -2 1:-0.595008 2:-0.86684 
-2 -2 1:-0.828028 2:-0.880657 
-1.924895349339878 -2 1:-0.357877 2:-0.673587 
-1.765439031681625 -2 1:-0.748265 2:-0.921783 
-2 -2 1:-0.853224 2:-0.871763 
-2 -2 1:-0.879589 2:-0.850745 
-2 -2 1:-0.760382 2:-0.819108 
-2 -2 1:-0.936602 2:-0.908732 
-2 -2 1:-0.942985 2:-0.885026 
-2 -2 1:-0.653014 2:-0.861601 
-2 -2 1:-0.884843 2:-0.910082 
-2 -2 1:-0.800237 2:-0.796663 
-2 -0 1:-0.898052 2:-0.917121 
-2 -0 1:-0.937597 2:-0.913667 
-2 -2 1:-0.907026 2:-0.849019 
-2 -0 1:-0.928634 2:-0.914773 
