svm_type c_svc
kernel_type rbf
gamma 0.5
nr_class 3
total_sv 120
rho 1.9382 4.358 1.31407
label 1 3 2
nr_sv 57 19 44
SV
0 512 1:-0.759771 2:-0.71714 
0 512 1:-0.73685 2:-0.313347 
0 512 1:0.43244 2:-0.18058 
80.24916812520119 512 1:-0.790977 2:-0.670117 
0 512 1:-0.712208 2:-0.648853 
512 0 1:-0.557893 2:-0.527005 
0 512 1:-0.512884 2:-0.81393 
0 512 1:-0.545666 2:-0.26923 
25.58996921987512 182.4202372014819 1:0.757609 2:-0.156135 
512 512 1:-0.459655 2:-0.168472 
438.0958479876398 512 1:-0.547606 2:-0.175507 
0 59.06370808420357 1:-0.714082 2:-0.624607 
0 512 1:-0.544013 2:-0.259987 
0 425.1170030932269 1:-0.565964 2:-0.746886 
22.33152149740383 0 1:-0.590909 2:-0.556307 
0 82.64407058072103 1:-0.803138 2:-0.759439 
512 0 1:-0.558265 2:-0.53512 
100.3012501575161 0 1:-0.628133 2:-0.558623 
169.5947668672606 0 1:-0.962923 2:-0.906434 
302.8929084730796 0 1:-0.616328 2:-0.554763 
0 512 1:-0.825292 2:-0.730702 
0 31.72528267536327 1:-0.866775 2:-0.771874 
512 512 1:-0.367401 2:-0.14942 
512 512 1:-0.0362359 2:-0.0343522 
254.5413861498404 52.5739517402484 1:-0.826838 2:-0.706188 
75.9813352660028 512 1:-0.424164 2:-0.5221 
512 512 1:-0.430626 2:-0.180275 
13.66763598221118 241.8995040634161 1:-0.980811 2:-0.0339097 
0 416.3444883419599 1:-0.591313 2:-0.672518 
512 285.6835883223952 1:-0.136065 2:-0.117647 
21.12620394116392 512 1:-0.0435616 2:-0.525144 
0 512 1:-0.445029 2:-0.20279 
0 512 1:-0.557876 2:-0.650698 
512 0 1:-0.790233 2:-0.597805 
0 512 1:-0.744357 2:-0.703676 
0 6.749686568193645 1:-0.696572 2:-0.638448 
324.3702283625504 512 1:-0.371982 2:-0.497004 
512 512 1:-0.279934 2:0.130221 
0 512 1:-0.832266 2:-0.722268 
0 512 1:-0.721804 2:-0.663671 
443.9807649588829 512 1:-0.063853 2:-0.413174 
0 512 1:0.0200953 2:-0.302233 
512 512 1:-0.0868013 2:0.109258 
0 267.1484349541353 1:0.0661446 2:-0.249867 
0 512 1:-0.396115 2:-0.644314 
0 129.8764059924269 1:-0.780489 2:-0.74038 
0 25.89807178068093 1:-0.998139 2:-0.996754 
0 512 1:-0.530638 2:-0.618233 
375.4509829732058 0 1:-0.791817 2:-0.587888 
512 0 1:-0.835525 2:-0.692353 
0 512 1:-0.363536 2:-0.60524 
0 512 1:-0.389875 2:-0.574163 
0 512 1:-0.744768 2:-0.653958 
0 512 1:-0.525259 2:-0.665887 
0 512 1:-1 2:-1 
512 0 1:-0.834201 2:-0.709027 
174.3541420564908 512 1:0.354319 2:0.176613 
-512 512 1:-0.768017 2:-0.370246 
-512 512 1:-0.179796 2:-0.203216 
-512 512 1:-0.473686 2:-0.371817 
-0 97.35642666662166 1:0.0265916 2:1 
-512 512 1:-0.266364 2:-0.299856 
-512 512 1:-0.770945 2:-0.453781 
-512 512 1:-0.372616 2:-0.199408 
-512 512 1:-0.308302 2:-0.0961641 
-262.5281120183259 512 1:-0.21 2:0.319844 
-512 512 1:-0.640263 2:-0.573786 
-512 512 1:-0.992253 2:-0.866872 
-512 512 1:-0.590377 2:-0.527552 
-512 512 1:-0.65206 2:-0.603765 
-512 512 1:0.256471 2:-0.103007 
-512 512 1:-0.640641 2:-0.629131 
-512 512 1:-0.194334 2:0.262331 
-512 512 1:-0.116024 2:-0.0326286 
-512 512 1:-0.791182 2:-0.732573 
-512 512 1:-0.421566 2:-0.323231 
-512 -512 1:-0.736347 2:-0.229056 
-284.0589938966413 -0 1:0.324344 2:-0.50424 
-512 -0 1:-0.662053 2:-0.770093 
-512 -0 1:-0.205149 2:-0.331566 
-0 -10.97140145671478 1:1 2:0.705322 
-512 -0 1:-0.12203 2:-0.583366 
-512 -512 1:-0.687359 2:-0.613296 
-512 -0 1:-0.835359 2:-0.77196 
-512 -512 1:-0.830024 2:-0.731924 
-0 -61.25189201739614 1:0.111395 2:0.410726 
-512 -512 1:-0.38818 2:-0.417207 
-512 -196.9843900476328 1:-0.983664 2:-0.982557 
-512 -0 1:-0.560652 2:-0.585045 
-512 -424.4276259425156 1:0.0826387 2:-0.0479418 
-512 -512 1:-0.0800362 2:0.0744106 
-512 -512 1:-0.107271 2:-0.11605 
-512 -6.666990136917528 1:0.0265302 2:-0.141376 
-512 -0 1:-0.56654 2:-0.667778 
-512 -0 1:-0.377847 2:-0.513307 
-48.4792593135731 -0 1:0.116866 2:0.268132 
-0 -22.08432616881942 1:0.932702 2:-0.5812 
-512 -0 1:-0.712217 2:-0.829135 
-512 -512 1:-0.789386 2:-0.679031 
-512 -512 1:-0.662328 2:-0.466059 
-512 -175.8483115007713 1:-0.45413 2:-0.459457 
-512 -0 1:-0.578658 2:-0.549759 
-512 -512 1:-0.292391 2:-0.192497 
-512 -0 1:-0.471838 2:-0.790099 
-512 -0 1:0.472061 2:-0.331975 
-512 -0 1:-0.622615 2:0.0406035 
-512 -258.7707661374559 1:-0.319416 2:0.190601 
-512 -343.4856496309123 1:-0.833522 2:-0.764087 
-512 -512 1:-0.357827 2:-0.297124 
-512 -512 1:-0.38828 2:-0.322879 
-512 -0 1:-0.574576 2:-0.6472 
-512 -0 1:-0.367187 2:-0.518221 
-512 -512 1:-0.0626382 2:-0.147369 
-512 -0 1:-0.644324 2:-0.614656 
-512 -512 1:-0.59237 2:-0.497644 
-512 -132.8650736274856 1:-0.77713 2:-0.205267 
-338.6061801882416 -0 1:0.584578 2:0.324183 
-0 -512 1:-0.182768 2:0.516142 
-512 -0 1:-0.592311 2:-0.757819 
-512 -512 1:-0.655046 2:-0.510133 
