svm_type c_svc
kernel_type rbf
gamma 0.0078125
nr_class 3
total_sv 108
rho 12.4879 26.5157 1.35858
label 1 3 2
nr_sv 44 19 45
SV
2048 2048 1:-0.240734 2:-0.136349 
0 2048 1:-0.312834 2:-0.520832 
2048 2048 1:-0.313347 2:0.362547 
0 575.7267219168286 1:-0.527005 2:-0.607287 
0 2048 1:-0.26923 2:-0.51458 
2048 2048 1:-0.168472 2:-0.451283 
824.7665281828414 2048 1:-0.206978 2:-0.51873 
0 2048 1:-0.551703 2:-0.536725 
0 2048 1:-0.175507 2:-0.549787 
0 2048 1:-0.259987 2:-0.649876 
0 2048 1:-0.14942 2:-0.571805 
2048 2048 1:-0.39927 2:-0.427977 
2048 2048 1:-0.0343522 2:-0.518431 
0 2048 1:-0.5221 2:-0.604806 
0 2048 1:-0.180275 2:-0.618066 
0 922.0782892390539 1:-0.710766 2:-0.578698 
0 2048 1:-0.134166 2:-0.639608 
2048 2048 1:-0.0339097 2:0.260544 
0 2048 1:-0.995255 2:-0.996662 
0 1865.259436294564 1:-0.259392 2:-0.706103 
0 2048 1:-0.117647 2:-0.61073 
0 2048 1:-0.525144 2:-0.559921 
0 2048 1:-0.485808 2:-0.599303 
2048 2048 1:-0.247266 2:-0.249453 
2048 2048 1:-0.281457 2:-0.2954 
2048 2048 1:-0.20279 2:-0.00824782 
2048 2048 1:-0.738473 2:-0.176252 
0 2048 1:-0.553542 2:-0.571643 
0 2048 1:-0.638448 2:-0.393851 
2048 2048 1:0.130221 2:-0.587029 
2048 2048 1:-0.251037 2:-0.0651127 
0 2048 1:-0.320265 2:-0.531709 
2048 2048 1:-0.302233 2:-0.439637 
573.1952878826327 2048 1:-0.734615 2:-0.346095 
0 2048 1:-0.989902 2:-0.998647 
0 2048 1:0.109258 2:-0.691634 
2048 2048 1:-0.249867 2:-0.0757929 
2048 2048 1:-0.996754 2:-0.99714 
0 1913.151382545783 1:-0.974962 2:-1 
0 2048 1:-0.23178 2:-0.694278 
0 2048 1:-0.490633 2:-0.615492 
2048 2048 1:-1 2:-0.999583 
719.5002954138614 2048 1:-0.990058 2:-0.997408 
2048 2048 1:0.176613 2:-0.160828 
-2048 2048 1:-0.370246 2:-0.194237 
-2048 2048 1:-0.203216 2:-0.617117 
-2048 2048 1:-0.371817 2:-0.72986 
-69.46211147933487 2048 1:1 2:1 
-2048 2048 1:-0.299856 2:-0.584302 
-2048 2048 1:-0.453781 2:0.457226 
-2048 2048 1:-0.199408 2:-0.0874366 
-2048 2048 1:-0.0961641 2:-0.114999 
-2048 2048 1:0.319844 2:0.579743 
-2048 2048 1:-0.573786 2:-0.744504 
-2048 2048 1:-0.866872 2:-0.98661 
-2048 2048 1:-0.527552 2:-0.554219 
-2048 2048 1:-0.603765 2:-0.643225 
-2048 2048 1:-0.103007 2:-0.397321 
-2048 2048 1:-0.629131 2:-0.584183 
-2048 2048 1:0.262331 2:0.338927 
-2048 2048 1:-0.0326286 2:0.0641602 
-2048 2048 1:-0.732573 2:-0.292384 
-2048 2048 1:-0.323231 2:-0.533668 
-1180.21582999623 -2048 1:-0.229056 2:0.791259 
-2048 -0 1:-0.50424 2:-0.620839 
-2048 -2048 1:-0.770093 2:-0.942191 
-2048 -0 1:-0.331566 2:-0.635469 
-0 -1580.95742137662 1:0.705322 2:0.0601051 
-2048 -0 1:-0.583366 2:-0.126125 
-2048 -0 1:-0.613296 2:-0.703492 
-2048 -0 1:-0.77196 2:-0.841424 
-2048 -0 1:-0.731924 2:-0.792885 
-2048 -0 1:0.410726 2:-0.127877 
-2048 -0 1:-0.417207 2:-0.694924 
-2048 -0 1:-0.982557 2:-0.987853 
-2048 -0 1:-0.585045 2:-0.479529 
-2048 -2048 1:-0.0479418 2:0.0867406 
-2048 -77.27274807817338 1:0.0744106 2:-0.211752 
-2048 -0 1:-0.11605 2:-0.331883 
-2048 -0 1:0.301692 2:-0.426905 
-2048 -2048 1:-0.141376 2:-0.0968021 
-2048 -0 1:-0.667778 2:-0.77741 
-2048 -1814.498587464056 1:-0.513307 2:-0.266749 
-2048 -2048 1:0.268132 2:0.158885 
-2048 -1848.271795893825 1:-0.5812 2:-0.494679 
-2048 -2048 1:-0.829135 2:-0.949548 
-2048 -0 1:-0.679031 2:-0.797093 
-2048 -0 1:-0.466059 2:-0.625792 
-2048 -31.72783135190631 1:-0.459457 2:-0.573824 
-2048 -2048 1:-0.549759 2:-0.6675 
-2048 -0 1:-0.192497 2:-0.449096 
-2048 -2048 1:-0.790099 2:-0.952635 
-2048 -2048 1:-0.331975 2:-0.295576 
-2048 -2048 1:0.0406035 2:0.115665 
-2048 -0 1:0.190601 2:-0.259858 
-2048 -0 1:-0.764087 2:-0.827783 
-2048 -0 1:-0.297124 2:-0.540503 
-2048 -1361.135200518462 1:-0.322879 2:-0.524924 
-2048 -1204.607255110009 1:-0.6472 2:-0.761228 
-2048 -2048 1:-0.518221 2:-0.32903 
-2048 -2048 1:-0.147369 2:-0.289328 
-2048 -0 1:-0.614656 2:-0.699738 
-2048 -227.7536690779526 1:-0.497644 2:-0.58989 
-2048 -0 1:-0.205267 2:-0.867217 
-2048 -2048 1:0.324183 2:-0.0471684 
-0 -2048 1:0.516142 2:0.870047 
-2048 -60.27466827804914 1:-0.757819 2:-0.918777 
-2048 -2033.500822850955 1:-0.510133 2:-0.557065 
