svm_type c_svc
kernel_type rbf
gamma 0.5
nr_class 3
total_sv 122
rho -0.0294491 0.406533 0.912794
label 1 3 2
nr_sv 48 25 49
SV
2 2 1:-0.240734 2:-0.354995 
0 2 1:-0.463388 2:-0.722784 
0 2 1:-0.430422 2:-0.792704 
0 2 1:-0.18058 2:-0.818419 
0 2 1:-0.527005 2:-0.706708 
2 2 1:-0.26923 2:-0.637471 
2 2 1:-0.168472 2:-0.590199 
0 2 1:-0.346212 2:-0.83429 
0 2 1:-0.516503 2:-0.627885 
0 2 1:-0.551703 2:-0.65401 
2 2 1:-0.175507 2:-0.663765 
0 2 1:-0.259987 2:-0.738515 
2 2 1:-0.14942 2:-0.680209 
2 2 1:-0.39927 2:-0.572793 
0 2 1:-0.5221 2:-0.704855 
1.963691463580654 2 1:-0.180275 2:-0.714758 
0 2 1:-0.710766 2:-0.685356 
0 1.779782606876826 1:-0.719962 2:-0.711139 
2 2 1:-0.0339097 2:-0.0585811 
0 2 1:-0.995255 2:-0.997507 
0 2 1:-0.442767 2:-0.766921 
0 0.159688516481364 1:-0.978591 2:-0.983693 
0 2 1:-0.259392 2:-0.780507 
0 2 1:-0.32675 2:-0.702633 
2 2 1:-0.117647 2:-0.70928 
0 2 1:-0.525144 2:-0.671333 
2 2 1:-0.247266 2:-0.439465 
2 2 1:-0.281457 2:-0.47378 
2 2 1:-0.20279 2:-0.259324 
2 2 1:-0.738473 2:-0.384795 
0 2 1:-0.553542 2:-0.680088 
2 2 1:-0.628801 2:-0.512185 
0 2 1:-0.335994 2:-0.842616 
0.1049502670818355 2 1:-0.638448 2:-0.547306 
2 2 1:0.130221 2:-0.691579 
2 2 1:-0.302233 2:-0.581501 
2 2 1:-0.989902 2:-0.998989 
2 2 1:-0.249867 2:-0.309769 
0.708995018057438 0 1:-0.942104 2:-0.998136 
0 2 1:-0.996754 2:-0.997864 
2 0 1:-0.974962 2:-1 
0 2 1:-0.23178 2:-0.771676 
2 2 1:-0.277719 2:-0.428643 
2 2 1:-1 2:-0.999688 
0.02225927947396717 2 1:-0.990058 2:-0.998064 
2 2 1:0.176613 2:-0.373276 
0 2 1:-0.553262 2:-0.735652 
0 2 1:-0.379234 2:-0.802229 
-2 2 1:-0.203216 2:-0.714049 
-2 2 1:-0.371817 2:-0.79825 
-0 2 1:1 2:0.493671 
-2 2 1:-0.37955 2:-0.684481 
-2 2 1:-0.299856 2:-0.689542 
-2 2 1:-0.453781 2:0.0883077 
-2 2 1:-0.199408 2:-0.318465 
-2 2 1:-0.0961641 2:-0.33905 
-0 2 1:0.539792 2:0.516248 
-2 2 1:0.319844 2:0.179808 
-0.7998960281938945 2 1:0.514512 2:0.186097 
-2 2 1:0.409825 2:-0.393036 
-2 2 1:-0.387196 2:-0.688293 
-2 2 1:-0.573786 2:-0.809187 
-2 2 1:-0.866872 2:-0.99 
-2 2 1:-0.527552 2:-0.667075 
-2 2 1:-0.502678 2:-0.669181 
-2 2 1:-0.603765 2:-0.733548 
-2 2 1:-0.103007 2:-0.549898 
-2 2 1:-0.460338 2:-0.613924 
-2 2 1:0.262331 2:-4.18873e-05 
-2 2 1:-0.616791 2:-0.923164 
-2 2 1:-0.0326286 2:-0.205247 
-2 2 1:-0.732573 2:-0.471528 
-2 2 1:-0.323231 2:-0.651727 
-0.8866538979486748 -2 1:-0.229056 2:0.337776 
-2 -2 1:-0.770093 2:-0.956826 
-2 -0 1:0.0266665 2:-0.68443 
-2 -0 1:-0.331566 2:-0.727755 
-2 -0 1:-0.343486 2:-0.672812 
-2 -0 1:-0.515008 2:-0.491067 
-2 -1.707266043192331 1:-0.583366 2:-0.347359 
-2 -2 1:-0.613296 2:-0.778557 
-2 -0 1:-0.77196 2:-0.88157 
-2 -0 1:-0.979635 2:-0.989599 
-2 -0.5221399042824721 1:-0.731924 2:-0.845319 
-1.052817225409515 -2 1:0.410726 2:-0.348668 
-0 -2 1:0.967129 2:1 
-2 -0 1:-0.191374 2:-0.814529 
-2 -2 1:-0.482686 2:-0.824548 
-2 -0 1:-0.585045 2:-0.611294 
-2 -2 1:-0.0479418 2:-0.188384 
-2 -2 1:0.0744106 2:-0.411309 
-2 -0 1:-0.11605 2:-0.501027 
-2 -0 1:-0.108137 2:-0.745185 
-2 -1.106704804971714 1:0.301692 2:-0.571992 
-2 -2 1:-0.141376 2:-0.32546 
-2 -2 1:-0.667778 2:-0.833762 
-2 -0 1:-0.513307 2:-0.452382 
-0 -2 1:0.268132 2:-0.134504 
-2 -0 1:-0.829135 2:-0.962321 
-2 -2 1:-0.466059 2:-0.720528 
-2 -2 1:-0.501842 2:-0.728081 
-2 -0 1:-0.459457 2:-0.681717 
-2 -2 1:-0.0560983 2:-0.4398 
-2 -2 1:-0.549759 2:-0.751677 
-2 -0 1:-0.192497 2:-0.588565 
-2 -2 1:-0.427715 2:-0.340727 
-2 -0.6032186950260451 1:-0.790099 2:-0.964626 
-2 -0 1:-0.331975 2:-0.473911 
-2 -2 1:0.0406035 2:-0.166782 
-2 -0 1:-0.764087 2:-0.871382 
-2 -0 1:-0.297124 2:-0.656831 
-2 -0 1:-0.322879 2:-0.645196 
-2 -0 1:-0.700876 2:-0.690304 
-2 -2 1:-0.6472 2:-0.821676 
-2 -0 1:-0.518221 2:-0.498896 
-2 -0 1:-0.77099 2:-0.86782 
-2 -1.771743840709304 1:-0.147369 2:-0.469245 
-2 -2 1:-0.497644 2:-0.693715 
-2 -0.2889267118181332 1:-0.205267 2:-0.900833 
-2 -2 1:0.324183 2:-0.288392 
-0 -2 1:0.516142 2:0.396618 
-2 -2 1:-0.539095 2:-0.73522 
