svm_type c_svc
kernel_type rbf
gamma 0.0078125
nr_class 3
total_sv 122
rho 5.87322 6.75788 0.935238
label 1 3 2
nr_sv 48 25 49
SV
128 128 1:-0.126597 2:-0.240734 
0 128 1:-0.420387 2:-0.601871 
0 128 1:-0.584532 2:-0.463388 
0 128 1:-0.525937 2:-0.430422 
128 128 1:0.534532 2:-0.18058 
0 128 1:-0.526383 2:-0.527005 
128 128 1:-0.513285 2:-0.26923 
128 128 1:-0.421143 2:-0.168472 
128 128 1:-0.498746 2:-0.346212 
0 128 1:-0.630042 2:-0.516503 
0 128 1:-0.505564 2:-0.551703 
128 128 1:-0.515363 2:-0.175507 
128 128 1:-0.511514 2:-0.259987 
0 128 1:-0.561752 2:-0.556307 
0 60.52370287061972 1:-0.601629 2:-0.558623 
0 128 1:-0.588983 2:-0.554763 
128 128 1:-0.322314 2:-0.14942 
115.8803861549255 128 1:-0.621008 2:-0.39927 
0 128 1:-0.383123 2:-0.5221 
0 128 1:-0.655892 2:-0.512221 
128 128 1:-0.390046 2:-0.180275 
128 128 1:-0.979443 2:-0.0339097 
0 128 1:-0.662064 2:-0.442767 
128 128 1:-0.297841 2:-0.259392 
128 128 1:0.136878 2:-0.32675 
128 128 1:-0.0744909 2:-0.117647 
0 128 1:0.0246057 2:-0.525144 
128 128 1:0.0774379 2:-0.247266 
128 128 1:-0.160265 2:-0.281457 
128 128 1:-0.405475 2:-0.20279 
0 128 1:-0.601725 2:-0.553542 
0 128 1:-0.325583 2:-0.531163 
0 128 1:-0.486056 2:-0.464414 
128 128 1:-0.343051 2:-0.335994 
0 128 1:-0.327222 2:-0.497004 
128 128 1:-0.228614 2:0.130221 
12.11961384507449 128 1:0.00286804 2:-0.413174 
128 128 1:0.0927995 2:-0.302233 
128 128 1:0.142131 2:-0.249867 
0 128 1:-0.497186 2:-0.618233 
128 128 1:-0.324287 2:-0.23178 
0 128 1:-0.318173 2:-0.60524 
0 128 1:-0.34639 2:-0.574163 
128 128 1:-0.352001 2:-0.277719 
0 128 1:-0.538068 2:-0.586173 
128 128 1:0.450844 2:0.176613 
0 128 1:-0.419114 2:-0.553262 
128 128 1:-0.255427 2:-0.379234 
-128 128 1:-0.121339 2:-0.203216 
-128 128 1:-0.436175 2:-0.371817 
-128 128 1:0.0997588 2:1 
-128 128 1:-0.320754 2:-0.37955 
-128 128 1:-0.214077 2:-0.299856 
-128 128 1:-0.75462 2:-0.453781 
-128 128 1:-0.327901 2:-0.199408 
-128 128 1:-0.259003 2:-0.0961641 
-128 128 1:0.193525 2:0.539792 
-128 128 1:-0.153696 2:0.319844 
-128 128 1:1 2:0.514512 
-128 128 1:0.240757 2:0.409825 
-128 128 1:-0.562792 2:-0.387196 
-128 128 1:-0.614623 2:-0.573786 
-128 128 1:-0.991701 2:-0.866872 
-128 128 1:-0.561183 2:-0.527552 
-128 128 1:-0.65923 2:-0.502678 
-128 128 1:-0.627262 2:-0.603765 
-128 128 1:0.346022 2:-0.103007 
-128 128 1:-0.152697 2:-0.460338 
-128 128 1:-0.136912 2:0.262331 
-128 128 1:0.421804 2:-0.616791 
-128 128 1:-0.0530217 2:-0.0326286 
-128 128 1:-0.776299 2:-0.732573 
-128 128 1:-0.38034 2:-0.323231 
-128 -0 1:-0.717556 2:-0.229056 
-128 -0 1:-0.637966 2:-0.770093 
-128 -0 1:-0.201054 2:0.0266665 
-128 -128 1:-0.148498 2:-0.331566 
-128 -59.64387476512514 1:-0.0962943 2:-0.343486 
-128 -0 1:-0.311614 2:-0.515008 
-128 -0 1:-0.0594552 2:-0.583366 
-128 -125.9906383157511 1:-0.665076 2:-0.613296 
-128 -113.6533927288734 1:-0.823625 2:-0.77196 
-128 -128 1:-0.98352 2:-0.979635 
-128 -128 1:-0.817909 2:-0.731924 
-128 -128 1:0.190607 2:0.410726 
-60.52370287061972 -128 1:-0.326697 2:0.967129 
-128 -78.99132829063994 1:-0.0519578 2:-0.191374 
-128 -0 1:-0.373051 2:-0.482686 
-128 -0 1:-0.529339 2:-0.585045 
-128 -127.5496516824996 1:0.1598 2:-0.0479418 
-128 -128 1:-0.0144686 2:0.0744106 
-128 -128 1:-0.0436448 2:-0.11605 
-128 -123.8948826044914 1:-0.278186 2:-0.108137 
-128 -128 1:0.31997 2:0.301692 
-128 -0 1:0.0996931 2:-0.141376 
-128 -0 1:-0.535647 2:-0.667778 
-128 -0 1:-0.333505 2:-0.513307 
-128 -85.11103511953726 1:0.196468 2:0.268132 
-128 -29.1609586261775 1:-0.691706 2:-0.829135 
-128 -104.4038199226371 1:-0.638262 2:-0.466059 
-128 -121.0677860171277 1:-0.547736 2:-0.501842 
-128 -106.5928650785493 1:-0.415224 2:-0.459457 
-128 -124.8325076950733 1:0.798129 2:-0.0560983 
-128 -109.2161730184988 1:-0.548628 2:-0.549759 
-128 -120.9853080179913 1:-0.241959 2:-0.192497 
-128 -109.5502582080654 1:-0.525434 2:-0.427715 
-128 -0 1:-0.434195 2:-0.790099 
-128 -0 1:0.576978 2:-0.331975 
-128 -3.432187273646527 1:-0.595718 2:0.0406035 
-128 -0 1:-0.821657 2:-0.764087 
-128 -125.5660387716587 1:-0.312058 2:-0.297124 
-128 -124.2115419559891 1:-0.344682 2:-0.322879 
-128 -0 1:-0.738343 2:-0.700876 
-128 -0 1:-0.544256 2:-0.6472 
-128 -0 1:-0.322085 2:-0.518221 
-128 -0 1:-0.74938 2:-0.77099 
-128 -0 1:0.00416941 2:-0.147369 
-128 -125.9399006472098 1:-0.563317 2:-0.497644 
-128 -0.2058512604574865 1:-0.761245 2:-0.205267 
-0 -128 1:0.697514 2:0.324183 
-128 -128 1:-0.124522 2:0.516142 
-128 -0 1:-0.275441 2:-0.539095 
