svm_type c_svc
kernel_type rbf
gamma 0.03125
nr_class 3
total_sv 110
rho -3.55967 0.606618 10.5811
label 3 1 2
nr_sv 24 44 42
SV
128 128 1:-0.768017 2:-0.370246 
128 128 1:-0.179796 2:-0.203216 
17.59542216180301 128 1:0.0265916 2:1 
128 128 1:-0.365944 2:-0.37955 
128 128 1:-0.266364 2:-0.299856 
128 128 1:-0.770945 2:-0.453781 
128 128 1:-0.372616 2:-0.199408 
128 128 1:-0.308302 2:-0.0961641 
128 128 1:0.114119 2:0.539792 
128 128 1:-0.21 2:0.319844 
128 128 1:0.866939 2:0.514512 
128 128 1:0.158209 2:0.409825 
128 128 1:-0.591879 2:-0.387196 
128 128 1:-0.640263 2:-0.573786 
128 128 1:-0.590377 2:-0.527552 
128 128 1:-0.681901 2:-0.502678 
128 128 1:-0.65206 2:-0.603765 
128 128 1:0.256471 2:-0.103007 
128 128 1:-0.209068 2:-0.460338 
128 128 1:-0.640641 2:-0.629131 
128 128 1:-0.194334 2:0.262331 
128 128 1:0.327211 2:-0.616791 
128 128 1:-0.791182 2:-0.732573 
128 128 1:-0.421566 2:-0.323231 
-128 128 1:-0.184705 2:-0.240734 
-128 128 1:-0.424319 2:-0.312834 
-128 0 1:-0.73685 2:-0.313347 
-18.48307060372112 128 1:0.43244 2:-0.18058 
-128 128 1:0.757609 2:-0.156135 
-128 0 1:-0.532095 2:-0.346212 
-128 128 1:-0.0369594 2:-0.206978 
-128 128 1:-0.547606 2:-0.175507 
-128 128 1:-0.367401 2:-0.14942 
-128 128 1:-0.0362359 2:-0.0343522 
-128 128 1:-0.430626 2:-0.180275 
-128 128 1:0.474452 2:-0.134166 
-128 128 1:-0.980811 2:-0.0339097 
-24.71062637586791 128 1:-0.981079 2:-0.978591 
-128 128 1:-0.344556 2:-0.259392 
-0 128 1:0.0612416 2:-0.32675 
-128 128 1:-0.136065 2:-0.117647 
-0 94.98426793297989 1:-0.461631 2:-0.374636 
-0 128 1:-0.972071 2:-0.953497 
-0 128 1:-0.0435616 2:-0.525144 
-0 128 1:0.0057557 2:-0.247266 
-0 128 1:-0.906962 2:-0.942524 
-0 128 1:-0.370452 2:-0.531163 
-0 128 1:-0.386758 2:-0.335994 
-0 128 1:-0.371982 2:-0.497004 
-128 128 1:-0.279934 2:0.130221 
-102.4017251822141 128 1:-0.120125 2:-0.251037 
-128 128 1:-0.459735 2:-0.320265 
-0 128 1:-0.063853 2:-0.413174 
-0 128 1:-0.718051 2:-0.956645 
-0 94.37818179723901 1:-0.963042 2:-0.930001 
-0 128 1:0.0200953 2:-0.302233 
-128 128 1:-0.0868013 2:0.109258 
-0 128 1:0.0661446 2:-0.249867 
-0 128 1:-0.700367 2:-0.942104 
-0 128 1:-0.396115 2:-0.644314 
-128 128 1:-0.998139 2:-0.996754 
-128 128 1:-0.369243 2:-0.23178 
-0 128 1:-0.363536 2:-0.60524 
-0 51.41223345947484 1:-0.389875 2:-0.574163 
-128 128 1:-0.395113 2:-0.277719 
-128 128 1:-1 2:-1 
-128 128 1:0.354319 2:0.176613 
-0 128 1:-0.304964 2:-0.379234 
-0 -128 1:0.324344 2:-0.50424 
-0 -128 1:-0.662053 2:-0.770093 
-128 -128 1:-0.254208 2:0.0266665 
-128 -128 1:-0.205149 2:-0.331566 
-0 -128 1:-0.156418 2:-0.343486 
-122.2855152623943 -0 1:1 2:0.705322 
-0 -128 1:-0.357412 2:-0.515008 
-0 -128 1:-0.12203 2:-0.583366 
-0 -128 1:-0.984616 2:-0.979635 
-128 -128 1:0.111395 2:0.410726 
-128 -112.7746831896938 1:-0.371492 2:0.967129 
-128 -128 1:-0.115031 2:-0.191374 
-128 -128 1:-0.38818 2:-0.417207 
-128 -128 1:-0.414762 2:-0.482686 
-5.05132237076481 -128 1:-0.983664 2:-0.982557 
-128 -128 1:-0.0800362 2:0.0744106 
-128 -128 1:-0.107271 2:-0.11605 
-128 -128 1:-0.326209 2:-0.108137 
-128 -128 1:0.232152 2:0.301692 
-128 -128 1:0.0265302 2:-0.141376 
-0 -128 1:-0.56654 2:-0.667778 
-28.36509798943903 -128 1:0.932702 2:-0.5812 
-0 -128 1:-0.712217 2:-0.829135 
-128 -128 1:-0.789386 2:-0.679031 
-128 -128 1:-0.577825 2:-0.501842 
-0 -128 1:0.678499 2:-0.0560983 
-128 -128 1:-0.578658 2:-0.549759 
-128 -128 1:-0.557007 2:-0.427715 
-0 -128 1:-0.471838 2:-0.790099 
-0 -128 1:0.472061 2:-0.331975 
-128 -128 1:-0.319416 2:0.190601 
-69.14387175900271 -128 1:-0.833522 2:-0.764087 
-128 -128 1:-0.38828 2:-0.322879 
-123.7663395777025 -128 1:-0.755751 2:-0.700876 
-0 -128 1:-0.367187 2:-0.518221 
-0 -128 1:-0.766054 2:-0.77099 
-128 -128 1:-0.644324 2:-0.614656 
-128 -128 1:-0.59237 2:-0.497644 
-35.38785304069662 -128 1:0.584578 2:0.324183 
-0 -128 1:-0.592311 2:-0.757819 
-128 -128 1:-0.655046 2:-0.510133 
-0 -128 1:-0.323646 2:-0.539095 
