svm_type c_svc
kernel_type rbf
gamma 2
nr_class 3
total_sv 196
rho 0.289814 -0.100236 -0.312937
label 1 3 2
nr_sv 63 56 77
SV
0.5 0.5 1:-0.937512 2:-0.793909 
0.5 0.5 1:-0.789964 2:-0.604573 
0.5 0.5 1:-0.724422 2:0.100639 
0 0.5 1:-0.965957 2:-0.871969 
0.5 0.5 1:-0.783468 2:-0.592383 
0.5 0.5 1:-0.816113 2:-0.713886 
0.5 0.5 1:-0.91139 2:-0.738033 
0.5 0.5 1:-0.922658 2:-0.743242 
0.5 0.5 1:-0.812112 2:-0.519346 
0.5 0.5 1:-0.729365 2:-0.440013 
0 0.5 1:-0.94408 2:-0.930017 
0.5 0.5 1:-0.876472 2:-0.769401 
0.5 0.5 1:-0.739155 2:-0.597088 
0.5 0.5 1:-0.902568 2:-0.818501 
0 0.5 1:-0.939684 2:-0.867134 
0 0.5 1:-0.971228 2:-0.892636 
0.5 0.5 1:-0.949054 2:-0.811233 
0.1284854098934461 0.5 1:-0.915886 2:-0.822649 
0 0.5 1:-0.920618 2:-0.878425 
0 0.2723017321965594 1:-0.994204 2:-0.961657 
0.5 0.5 1:-0.8377 2:-0.575718 
0 0.5 1:-0.973303 2:-0.833187 
0 0.5 1:-0.972083 2:-0.928746 
0.5 0.5 1:-0.412428 2:0.300249 
0 0.5 1:-0.933879 2:-0.879404 
0.5 0.5 1:-0.918623 2:-0.727572 
0.5 0.5 1:-0.926582 2:-0.813066 
0 0.5 1:-0.966028 2:-0.843358 
0.5 0.5 1:-0.929408 2:-0.711939 
0.5 0.5 1:-0.908184 2:-0.747649 
0 0.5 1:-0.941167 2:-0.857374 
0 0.5 1:-0.983551 2:-0.939823 
0.5 0.5 1:-0.896073 2:-0.636604 
0 0.5 1:-0.916069 2:-0.840754 
0 0.5 1:-0.983693 2:-0.950057 
0.5 0.5 1:-0.82079 2:-0.427085 
0.5 0.5 1:-0.828162 2:-0.669181 
0.5 0.5 1:-0.884156 2:-0.746545 
0 0.5 1:-0.956843 2:-0.949542 
0 0.5 1:-0.974505 2:-0.90937 
0.5 0.5 1:-0.853405 2:-0.618717 
0.5 0.5 1:-0.933046 2:-0.748258 
0.5 0.5 1:-0.930161 2:-0.816035 
0 0.5 1:-0.983203 2:-0.956561 
0.5 0.5 1:-0.949587 2:-0.77076 
0.5 0.5 1:-0.731432 2:-0.545201 
0.5 0.5 1:-0.74251 2:-0.611909 
0.5 0.5 1:-0.762205 2:-0.664095 
0 0.5 1:-0.9838 2:-0.951609 
0.5 0.5 1:-0.89871 2:-0.428605 
0 0.5 1:-0.981935 2:-0.947307 
0.5 0.5 1:-0.854001 2:-0.639971 
0.5 0.5 1:-0.700099 2:-0.585221 
0.5 0.5 1:-0.876439 2:-0.608777 
0 0.5 1:-0.97632 2:-0.919511 
0.5 0.5 1:-0.834511 2:-0.698658 
0.5 0.5 1:-0.917511 2:-0.804797 
0 0.5 1:-0.910446 2:-0.858995 
0.5 0.5 1:-0.879523 2:-0.695222 
0 0.5 1:-0.952725 2:-0.867163 
0 0.5 1:-0.941058 2:-0.884092 
0 0.5 1:-0.954451 2:-0.883774 
0.5 0.5 1:-0.918165 2:-0.821472 
-0 0.5 1:-0.511246 2:-0.0674419 
-0.4543708453736752 0.5 1:-0.848024 2:-0.380688 
-0 0.5 1:-0.787054 2:-0.304704 
-0.5 0.5 1:-0.884558 2:-0.40492 
-0.5 0.5 1:-0.763627 2:-0.515711 
-0 0.5 1:-0.789065 2:-0.237113 
-0 0.5 1:-0.748251 2:-0.207537 
-0.5 0.5 1:-0.851166 2:-0.614536 
-0 0.5 1:-0.660049 2:-0.357581 
-0.5 0.5 1:-0.918783 2:-0.669044 
-0.5 0.5 1:-0.755 2:-0.441602 
-0 0.5 1:-0.813979 2:-0.268828 
-0 0.5 1:-0.789813 2:-0.246172 
-0 0.004825599460119024 1:-0.676149 2:-0.181649 
-0 0.5 1:-0.728652 2:-0.282482 
-0.5 0.5 1:-0.800387 2:-0.753363 
-0 0.5 1:-0.749849 2:-0.336814 
-0.5 0.5 1:-0.878105 2:-0.594056 
-0 0.5 1:-0.738813 2:-0.356554 
-0.5 0.5 1:-0.734639 2:-0.707598 
-0 0.5 1:-0.834736 2:-0.341731 
-0.5 0.5 1:-0.768986 2:-0.692256 
-0 0.5 1:-0.809171 2:-0.224252 
-0 0.5 1:-0.842506 2:-0.25791 
-0.5 0.5 1:-0.792904 2:-0.614804 
-0.5 0.5 1:-0.851967 2:-0.63505 
-0.5 0.5 1:-0.564005 2:0.359318 
-0.5 0.5 1:-0.907984 2:-0.587372 
-0.5 0.5 1:-0.706077 2:-0.380616 
-0.5 0.5 1:1 2:1 
-0.5 0.5 1:-0.793054 2:-0.444601 
-0.5 0.5 1:-0.930875 2:-0.768005 
-0.5 0.5 1:-0.809136 2:-0.40489 
-0.5 0.5 1:-0.944412 2:-0.734083 
-0.5 0.5 1:-0.756245 2:-0.594584 
-0.5 0.5 1:-0.935516 2:-0.646225 
-0.1741145645197709 0 1:-0.678638 2:0.294873 
-0.5 0.5 1:-0.898938 2:-0.559715 
-0 0.5 1:-0.656808 2:-0.355271 
-0.5 0.5 1:-0.782576 2:-0.485865 
-0.5 0.5 1:-0.800851 2:-0.386821 
-0.5 0.5 1:-0.815809 2:-0.412691 
-0.5 0.5 1:-0.945816 2:-0.828481 
-0.5 0.5 1:-0.907767 2:-0.69889 
-0.5 0.5 1:-0.926457 2:-0.664533 
-0.5 0.5 1:-0.809446 2:-0.63139 
-0 0.5 1:-0.749401 2:-0.236289 
-0 0.5 1:-0.560578 2:-0.109551 
-0.5 0.5 1:-0.902768 2:-0.49337 
-0.5 0.5 1:-0.952838 2:-0.850829 
-0.5 0.5 1:-0.872262 2:-0.433909 
-0.5 0.5 1:-0.907805 2:-0.70421 
-0.5 0.5 1:-0.905303 2:-0.593657 
-0.5 0.5 1:-0.872188 2:-0.71334 
-0.5 0.5 1:-0.867949 2:-0.607055 
-0.5 0.5 1:-0.915859 2:-0.760688 
-0.5 -0 1:-0.908488 2:-0.818491 
-0.5 -0 1:-0.932863 2:-0.819536 
-0.5 -0 1:-0.95159 2:-0.842034 
-0.5 -0 1:-0.965396 2:-0.879587 
-0 -0.5 1:-0.76629 2:-0.432042 
-0 -0.5 1:-0.750331 2:-0.35017 
-0 -0.5 1:-0.734885 2:-0.25034 
-0.5 -0.5 1:-0.906946 2:-0.596492 
-0 -0.5 1:-0.835931 2:-0.234207 
-0.5 -0.5 1:-0.933652 2:-0.752961 
-0.5 -0 1:-0.906965 2:-0.822227 
-0 -0.5 1:-0.734111 2:-0.13986 
-0.5 -0.5 1:-0.906862 2:-0.653107 
-0.5 -0.5 1:-0.384849 2:0.130738 
-0.5 -0.5 1:-0.85008 2:-0.635172 
-0.5 -0.5 1:-0.880358 2:-0.697595 
-0.5 -0.004825599460119024 1:-0.878667 2:-0.789805 
-0.5 -0.5 1:-0.817283 2:-0.594681 
-0.5 -0.5 1:-0.668305 2:-0.487529 
-0.5 -0.5 1:-0.846465 2:-0.691753 
-0.5 -0.5 1:-0.874531 2:-0.68279 
-0.5 -0.5 1:-0.841799 2:-0.572976 
-0.5 -0.5 1:-0.886524 2:-0.636088 
-0.5 -0 1:-0.94899 2:-0.902808 
-0.5 -0 1:-0.95696 2:-0.951859 
-0 -0.5 1:-0.845528 2:-0.405002 
-0 -0.5 1:-0.732402 2:-0.362159 
-0.5 -0 1:-0.957102 2:-0.894046 
-0.5 -0.5 1:-0.809202 2:-0.610303 
-0.5 -0 1:-0.809238 2:-0.831905 
-0.5 -0.5 1:-0.857242 2:-0.472711 
-0.5 -0.5 1:-0.919254 2:-0.620198 
-0.5 -0 1:-0.995715 2:-0.963828 
-0.5 -0.5 1:-0.862478 2:-0.713799 
-0 -0.5 1:-0.757823 2:-0.327154 
-0.5 -0.5 1:-0.862627 2:-0.756784 
-0.5 -0 1:-0.973466 2:-0.872345 
-0.5 -0.5 1:-0.903324 2:-0.597233 
-0.5 -0.5 1:-0.694033 2:-0.520014 
-0.5 -0 1:-0.951366 2:-0.859184 
-0.5 -0 1:-0.938859 2:-0.887567 
-0.5 -0.5 1:-0.918665 2:-0.7004 
-0 -0.5 1:-0.724932 2:-0.21009 
-0 -0.5 1:-0.759983 2:-0.246677 
-0.5 -0 1:-0.975257 2:-0.963753 
-0.5 -0.5 1:-0.920701 2:-0.779348 
-0.5 -0.5 1:-0.857402 2:-0.689767 
-0.5 -0.5 1:-0.885333 2:-0.571236 
-0.5 -0 1:-0.956 2:-0.926719 
-0.2723017321965594 -0.5 1:-0.516789 2:-0.073296 
-0.5 -0 1:-0.958784 2:-0.804459 
-0 -0.5 1:-0.769134 2:-0.246683 
-0.5 -0.5 1:-0.490359 2:0.15242 
-0.5 -0.5 1:-0.804824 2:-0.630612 
-0.5 -0 1:-0.927002 2:-0.935809 
-0.5 -0 1:-0.982554 2:-0.84748 
-0 -0.5 1:-0.718694 2:-0.435647 
-0.5 -0 1:-0.971119 2:-0.936815 
-0.5 -0.5 1:-0.834308 2:-0.659437 
-0.5 -0.5 1:-0.87262 2:-0.673368 
-0.5 -0.5 1:-0.853175 2:-0.497428 
-0.5 -0.5 1:-0.766156 2:-0.445425 
-0.5 -0.5 1:-0.90806 2:-0.775564 
-0.5 -0.5 1:-0.879422 2:-0.736905 
-0.5 -0.5 1:-0.871573 2:-0.635619 
-0.5 -0.5 1:-0.892356 2:-0.687942 
-0.5 -0.5 1:-0.84509 2:-0.627491 
-0 -0.5 1:-0.551985 2:-0.210277 
-0.5 -0 1:-0.908435 2:-0.794125 
-0.5 -0 1:-0.944019 2:-0.851634 
-0.5 -0.5 1:-0.89984 2:-0.703403 
-0.5 -0 1:-0.954532 2:-0.872056 
-0.5 -0.5 1:-0.864826 2:-0.670956 
-0 -0.5 1:-0.693988 2:-0.316935 
-0.5 -0.5 1:-0.874336 2:-0.532035 
-0.5 -0.5 1:-0.919071 2:-0.653351 
-0.5 -0.5 1:-0.858084 2:-0.783488 
