svm_type c_svc
kernel_type rbf
gamma 0.5
nr_class 3
total_sv 174
rho -0.60018 -0.654752 -0.900762
label 1 2 3
nr_sv 55 68 51
SV
8 0 1:-0.813269 2:-0.87287 
8 8 1:-0.62189 2:-0.857327 
8 8 1:0.0909333 2:-0.0513402 
8 0 1:-0.892172 2:-0.885379 
8 0 1:-0.732383 2:-0.893981 
8 8 1:-0.75679 2:-0.876319 
8 8 1:-0.762056 2:-0.776505 
8 8 1:-0.535743 2:-0.729944 
8 0 1:-0.895238 2:-0.908896 
8 8 1:-0.455554 2:-0.786049 
8 6.084606803405059 1:-0.788497 2:-0.860975 
8 0 1:-0.838127 2:-0.932813 
8 0 1:-0.913062 2:-0.910086 
8 0 1:-0.83078 2:-0.898077 
8 0 1:-0.84232 2:-0.892927 
8 8 1:-0.852971 2:-0.818243 
8 0 1:-0.949562 2:-0.874745 
8 8 1:0.292697 2:0.406876 
8 8 1:-0.56682 2:-0.739344 
8 0 1:-0.899687 2:-0.909054 
8 8 1:-0.746217 2:-0.849266 
8 0 1:-0.849695 2:-0.911938 
8 0 1:-0.832633 2:-0.887261 
8 0 1:-0.863252 2:-0.855449 
8 0 1:-0.823711 2:-0.923501 
8 8 1:-0.730415 2:-0.784379 
8 8 1:-0.76651 2:-0.841119 
8 8 1:-0.757877 2:-0.794838 
8 0 1:-0.87742 2:-0.897651 
8 8 1:-0.759465 2:-0.815068 
8 8 1:-0.654267 2:-0.691007 
8 0 1:-0.879596 2:-0.891341 
8 0 1:-0.86062 2:-0.933867 
8 8 1:-0.442487 2:-0.359432 
8 8 1:-0.687195 2:-0.81507 
8 0 1:-0.765394 2:-0.877672 
8 0 1:-0.823134 2:-0.872258 
8 8 1:-0.811353 2:-0.783608 
8 8 1:-0.636186 2:-0.774222 
8 6.878124584192641 1:-0.835634 2:-0.834099 
8 8 1:-0.739973 2:-0.870371 
8 8 1:-0.561877 2:-0.75525 
8 8 1:-0.682055 2:-0.829701 
8 0 1:-0.894859 2:-0.889593 
8 8 1:-0.301894 2:-0.75711 
8 8 1:-0.444023 2:-0.427073 
8 8 1:-0.777349 2:-0.867164 
8 8 1:-0.626139 2:-0.678062 
8 8 1:-0.551803 2:-0.655981 
8 8 1:-0.716991 2:-0.839923 
8 8 1:-0.824275 2:-0.840488 
4.308953091684513 0 1:-0.879057 2:-0.93475 
8 0 1:-0.769276 2:-0.904494 
8 8 1:-0.785256 2:-0.805038 
8 0 1:-0.84113 2:-0.877509 
-0 8 1:-0.0834022 2:-0.617041 
-8 0 1:-0.838117 2:-0.898498 
-8 0 1:-0.839173 2:-0.928173 
-8 0 1:-0.861914 2:-0.894687 
-8 8 1:-0.611135 2:-0.564152 
-8 0 1:-0.899872 2:-0.922236 
-5.487117900683582 8 1:-0.447497 2:-0.598134 
-8 8 1:-0.364741 2:-0.679711 
-8 0 1:-0.859966 2:-0.925878 
-0 8 1:-0.263834 2:-0.399839 
-8 8 1:-0.537207 2:-0.715871 
-0 8 1:-0.247527 2:-0.476134 
-0 8 1:-0.152162 2:-0.227092 
-8 8 1:0.121356 2:0.63139 
-8 8 1:-0.65282 2:-0.780759 
-8 8 1:-0.298498 2:-0.691123 
-8 8 1:-0.809121 2:-0.83611 
-8 8 1:-0.611891 2:-0.690023 
-8 8 1:-0.710011 2:-0.793272 
-8 8 1:-0.700951 2:-0.783249 
-8 8 1:-0.589952 2:-0.736105 
-8 0 1:-0.923343 2:-0.948878 
-8 0 1:-0.972924 2:-0.982465 
-0 8 1:-0.420166 2:-0.515569 
-0 8 1:-0.376859 2:-0.616308 
-8 0 1:-0.914487 2:-0.91857 
-8 0 1:-0.851675 2:-0.994547 
-0 8 1:-0.488605 2:-0.55358 
-8 8 1:-0.560195 2:-0.556065 
-8 8 1:-0.637684 2:-0.613892 
-8 8 1:-0.729352 2:-0.818601 
-8 0.7806526916242681 1:-0.732295 2:-0.869635 
-0 8 1:-0.341477 2:-0.611767 
-8 8 1:-0.775744 2:-0.838826 
-8 8 1:-0.614471 2:-0.715758 
-8 8 1:-0.536419 2:-0.798834 
-8 0 1:-0.907939 2:-0.917595 
-8 8 1:-0.718751 2:-0.675713 
-0 8 1:-0.260132 2:-0.123778 
-8 0 1:-0.984947 2:-0.972554 
-8 0 1:-0.923041 2:-0.970307 
-8 8 1:-0.798551 2:-0.826512 
-8 8 1:-0.576911 2:-0.685689 
-8 8 1:-0.588194 2:-0.740391 
-8 0 1:-0.947513 2:-0.942679 
-6.123511457241979 7.267356328819347 1:-0.0848793 2:-0.758173 
-0 8 1:-0.260137 2:-0.407568 
-0.6983237337589537 8 1:0.143272 2:-0.436189 
-8 8 1:-0.64821 2:-0.799923 
-8 0 1:-0.956701 2:-1 
-8 8 1:-0.867418 2:-0.770433 
-8 0 1:-0.957718 2:-0.943067 
-8 8 1:-0.677346 2:-0.817844 
-8 8 1:-0.691427 2:-0.748163 
-8 8 1:-0.794726 2:-0.824165 
-8 8 1:-0.75565 2:-0.850072 
-8 0 1:-0.899267 2:-0.902289 
-8 8 1:-0.706159 2:-0.712286 
-8 8 1:-0.645055 2:-0.681719 
-0 8 1:-0.223339 2:-0.631894 
-8 8 1:-0.813488 2:-0.866279 
-8 0 1:-0.871617 2:-0.899321 
-8 0 1:-0.89226 2:-0.911302 
-8 8 1:-0.688989 2:-0.752803 
-0 8 1:-0.331148 2:-0.604945 
-8 8 1:-0.548569 2:-0.598684 
-8 8 1:-0.671195 2:-0.680574 
-8 0 1:-0.896565 2:-0.910864 
-0 -8 1:-0.250915 2:-0.404324 
-8 -1.573353463816624 1:0.493019 2:0.565263 
-8 -8 1:-0.532069 2:-0.769094 
-0 -8 1:-0.386957 2:-0.437096 
-0 -8 1:-0.218995 2:-0.555749 
-0 -8 1:-0.22057 2:-0.512686 
-8 -8 1:-0.631961 2:-0.764438 
-0 -8 1:-0.332885 2:-0.488917 
-8 -8 1:-0.787461 2:-0.800253 
-8 -8 1:-0.45716 2:-0.644257 
-0 -4.443594563633749 1:-0.259621 2:-0.369106 
-0 -8 1:-0.194401 2:-0.393255 
-8 -8 1:-0.364443 2:-0.662713 
-0 -8 1:-0.351241 2:-0.578234 
-0 -8 1:-0.371194 2:-0.560128 
-0 -8 1:-0.0286905 2:-0.554065 
-8 -8 1:-0.726027 2:-0.837257 
-8 -8 1:-0.710519 2:-0.842773 
-8 -8 1:-0.632231 2:-0.840414 
-8 -8 1:-0.652696 2:-0.776815 
-0 -3.875139398677938 1:0.352403 2:0.0493355 
-8 -8 1:-0.604504 2:-0.651848 
-8 -8 1:-0.658032 2:-0.67604 
-0 -1.872582486217741 1:1 2:1 
-8 -8 1:-0.460191 2:-0.658761 
-8 -8 1:-0.787086 2:-0.816794 
-0 -8 1:-0.420052 2:-0.537178 
-8 -8 1:-0.752797 2:-0.729826 
-8 -8 1:-0.611793 2:-0.71167 
-8 -8 1:-0.652919 2:-0.815838 
-8 -8 1:-0.663992 2:-0.712563 
-0 -8 1:-0.451325 2:-0.54072 
-3.500911901087564 -4.283339108097564 1:0.287263 2:0.547086 
-8 -8 1:-0.576547 2:-0.561654 
-8 -8 1:-0.369897 2:-0.661969 
-8 -8 1:-0.748772 2:-0.805806 
-0 -8 1:-0.501901 2:-0.554164 
-8 -8 1:-0.88854 2:-0.824486 
-0 -8 1:-0.401788 2:-0.43052 
-0 -8 1:-0.427937 2:-0.500799 
-8 -8 1:-0.342343 2:-0.741137 
-8 -8 1:-0.848214 2:-0.771696 
-8 -8 1:-0.717225 2:-0.702953 
-8 -8 1:-0.648996 2:-0.669054 
-0 -8 1:-0.496923 2:-0.452055 
-1.461819486510135 -8 1:-0.509487 2:-0.55541 
-8 -8 1:-0.870804 2:-0.823786 
-8 -8 1:-0.610857 2:-0.733811 
-8 -8 1:-0.731831 2:-0.756941 
-8 -8 1:-0.624399 2:-0.664723 
-8 -8 1:-0.77969 2:-0.790131 
