svm_type c_svc
kernel_type rbf
gamma 0.0078125
nr_class 3
total_sv 172
rho -36.3855 -36.7105 5.49223
label 1 3 2
nr_sv 57 49 66
SV
2048 2048 1:-0.848825 2:-0.724924 
2048 2048 1:-0.333306 2:0.469055 
0 2048 1:-0.917641 2:-0.829114 
2048 2048 1:-0.476153 2:-0.455942 
2048 2048 1:-0.78563 2:-0.650345 
2048 2048 1:-0.545451 2:-0.358457 
0 2048 1:-0.820215 2:-0.833163 
2048 2048 1:-0.345264 2:-0.25257 
2048 2048 1:-0.701154 2:-0.692213 
2048 2048 1:-0.368949 2:-0.462222 
0 2048 1:-0.764287 2:-0.757748 
0 2048 1:-0.854079 2:-0.82266 
0 2048 1:-0.930392 2:-0.856698 
2048 2048 1:-0.876749 2:-0.748047 
0 2048 1:-0.807954 2:-0.83773 
2048 2048 1:-0.607355 2:-0.433699 
0 2048 1:-0.935412 2:-0.77735 
2048 2048 1:0.421487 2:0.735479 
2048 2048 1:-0.577544 2:-0.399493 
2048 2048 1:-0.803129 2:-0.636383 
0 2048 1:-0.835733 2:-0.773024 
0 2048 1:-0.822384 2:-0.750494 
0 2048 1:-0.917813 2:-0.790926 
0 2048 1:-0.670809 2:-0.738713 
2048 2048 1:-0.777873 2:-0.66318 
2048 2048 1:-0.782784 2:-0.65178 
0 2048 1:-0.857668 2:-0.809633 
2048 2048 1:-0.747861 2:-0.653877 
2048 2048 1:-0.748573 2:-0.514965 
0 2048 1:-0.897315 2:-0.812507 
2048 2048 1:-0.566444 2:-0.235314 
2048 2048 1:-0.719744 2:-0.661706 
417.2551262738397 2048 1:-0.811016 2:-0.737951 
2048 2048 1:-0.828619 2:-0.722394 
0 2048 1:-0.938322 2:-0.879034 
2048 2048 1:-0.64535 2:-0.49109 
2048 2048 1:-0.838022 2:-0.663992 
2048 2048 1:-0.878038 2:-0.694026 
2048 2048 1:-0.59912 2:-0.628138 
2048 2048 1:-0.350266 2:-0.392967 
2048 2048 1:-0.377065 2:-0.482004 
0 447.3894153396882 1:-0.958323 2:-0.923545 
0 2048 1:-0.91399 2:-0.832661 
2048 2048 1:0.408014 2:-0.0496649 
2048 2048 1:-0.754953 2:-0.237343 
2048 2048 1:-0.64679 2:-0.51946 
2048 2048 1:-0.746881 2:-0.677493 
2048 2048 1:-0.274462 2:-0.446382 
0 2048 1:-0.942712 2:-0.892569 
2048 2048 1:-0.683621 2:-0.379664 
2048 2048 1:-0.599639 2:-0.59779 
0 2048 1:-0.800437 2:-0.739458 
2048 2048 1:-0.708535 2:-0.593205 
0 2048 1:-0.352785 2:-0.666832 
2048 2048 1:-0.886601 2:-0.687934 
0 2048 1:-0.885629 2:-0.822699 
0 2048 1:-0.889804 2:-0.84487 
-0 422.8810684648545 1:0.182423 2:0.244712 
-0 2048 1:-0.632332 2:-0.173386 
-151.7318222868489 0 1:1 2:1 
-0 1186.190961975087 1:-0.720717 2:-0.20573 
-0 2048 1:-0.120032 2:0.0598019 
-2048 2048 1:-0.639931 2:-0.485511 
-2048 2048 1:-0.177572 2:-0.142545 
-0 2048 1:-0.34395 2:-0.0905872 
-2048 2048 1:-0.803516 2:-0.558264 
-2048 2048 1:-0.808398 2:-0.690845 
-2048 2048 1:-0.407281 2:-0.25469 
-0 2048 1:-0.343538 2:-0.0423079 
-2048 2048 1:-0.517085 2:-0.670806 
-0 2048 1:-0.46846 2:-0.132259 
-0 2048 1:-0.394819 2:-0.114827 
-2048 2048 1:-0.705104 2:-0.458175 
-0 2048 1:-0.368122 2:-0.141174 
-1298.251665458841 2048 1:0.454223 2:0.311094 
-2048 2048 1:-0.358022 2:-0.609722 
-2048 2048 1:-0.441117 2:-0.589245 
-2048 2048 1:-0.498981 2:-0.485868 
-2048 2048 1:-0.641871 2:-0.512891 
-2048 2048 1:-0.777389 2:-0.449254 
-2048 2048 1:-0.288923 2:-0.17329 
-2048 2048 1:-0.785132 2:-0.519937 
-2048 2048 1:-0.499344 2:-0.258693 
-2048 2048 1:-0.832768 2:-0.69035 
-2048 2048 1:-0.865519 2:-0.645073 
-2048 2048 1:-0.410295 2:-0.458879 
-2048 2048 1:-0.524658 2:-0.513186 
-2048 2048 1:-0.843997 2:-0.527807 
-1015.271638528152 2048 1:-0.58817 2:-0.246985 
-2048 2048 1:-0.755504 2:-0.412338 
-2048 2048 1:-0.16973 2:-0.139461 
-2048 2048 1:-0.699013 2:-0.639757 
-2048 2048 1:-0.473995 2:-0.31377 
-2048 2048 1:-0.939038 2:-0.824317 
-0 2048 1:-0.554394 2:-0.216102 
-2048 2048 1:-0.0453133 2:-0.103077 
-2048 2048 1:-0.776865 2:-0.5981 
-2048 2048 1:-0.82208 2:-0.552242 
-2048 2048 1:-0.539 2:-0.508005 
-2048 2048 1:-0.72727 2:-0.307197 
-2048 2048 1:-0.885903 2:-0.800898 
-0 2048 1:-0.69097 2:-0.244422 
-2048 2048 1:-0.776957 2:-0.605201 
-0 2048 1:-0.774227 2:-0.286816 
-2048 2048 1:-0.770904 2:-0.457643 
-2048 2048 1:-0.680535 2:-0.475526 
-2048 -2048 1:0.431367 2:0.238849 
-2048 -0 1:-0.77861 2:-0.757735 
-2048 -0 1:-0.882884 2:-0.789158 
-2048 -2048 1:-0.665436 2:-0.45801 
-0 -2048 1:-0.395987 2:-0.132653 
-2048 -0 1:-0.813967 2:-0.786586 
-2048 -2048 1:-0.774879 2:-0.461427 
-2048 -2048 1:-0.530869 2:-0.36039 
-0 -2048 1:-0.603076 2:0.0221256 
-2048 -2048 1:-0.839486 2:-0.67027 
-2048 -0 1:-0.774924 2:-0.762721 
-2048 -2048 1:-0.774675 2:-0.536993 
-2048 -2048 1:-0.637304 2:-0.513054 
-2048 -2048 1:-0.710556 2:-0.596372 
-1782.597314635005 -2048 1:-0.131345 2:-0.04518 
-2048 -2048 1:-0.557961 2:-0.459009 
-2048 -2048 1:-0.197545 2:-0.315991 
-2048 -2048 1:-0.62856 2:-0.588573 
-2048 -2048 1:-0.61727 2:-0.430038 
-2048 -2048 1:-0.725471 2:-0.514276 
-2048 -0 1:-0.876593 2:-0.870275 
-2048 -0 1:-0.895876 2:-0.935745 
-0 -2048 1:-0.626293 2:-0.20584 
-2048 -0 1:-0.896219 2:-0.85858 
-2048 -2048 1:-0.538411 2:-0.479861 
-0 -2048 1:-0.65463 2:-0.296213 
-2048 -2048 1:-0.618145 2:-0.390745 
-2048 -2048 1:-0.804655 2:-0.493067 
-2048 -0 1:-0.989633 2:-0.95172 
-2048 -2048 1:-0.707266 2:-0.614114 
-0 -2048 1:-0.41411 2:-0.101933 
-2048 -821.0441915231904 1:-0.66766 2:-0.675373 
-2048 -0 1:-0.935809 2:-0.829615 
-2048 -2048 1:-0.259787 2:-0.35935 
-2048 -0 1:-0.882341 2:-0.81205 
-2048 -2048 1:-0.803229 2:-0.600115 
-0 -2048 1:-0.334539 2:0.0543157 
-2048 -0 1:-0.829126 2:-0.869875 
-2048 -2048 1:-0.808155 2:-0.705489 
-2048 -2048 1:-0.655019 2:-0.585924 
-2048 -2048 1:-0.63743 2:-0.412818 
-2048 -0 1:-0.893553 2:-0.90219 
-0 -2048 1:0.169011 2:0.236898 
-2048 -2048 1:-0.900288 2:-0.739005 
-0 -2048 1:-0.441476 2:0.00547389 
-2048 -0 1:-0.823399 2:-0.914322 
-2048 -788.027838916751 1:-0.957793 2:-0.796427 
-2048 -2048 1:-0.319449 2:-0.246742 
-2048 -2048 1:-0.599149 2:-0.54544 
-2048 -2048 1:-0.691834 2:-0.564035 
-712.7921007046815 -2048 1:-0.644792 2:-0.329203 
-2048 -2048 1:-0.43427 2:-0.259793 
-2048 -2048 1:-0.777574 2:-0.700439 
-2048 -2048 1:-0.689302 2:-0.513651 
-2048 -0 1:-0.877336 2:-0.838482 
-2048 -2048 1:-0.739581 2:-0.583488 
-2048 -2048 1:0.0838638 2:0.0540654 
-2048 -0 1:-0.864568 2:-0.801971 
-2048 -2048 1:-0.757688 2:-0.604123 
-2048 -0 1:-0.890001 2:-0.82923 
-2048 -2048 1:-0.672978 2:-0.560815 
-0 -2048 1:-0.259678 2:-0.0882941 
-2048 -2048 1:-0.695985 2:-0.375394 
-2048 -2048 1:-0.804213 2:-0.537318 
-2048 -0 1:-0.656669 2:-0.711016 
-2048 -0 1:-0.852754 2:-0.834915 
