svm_type c_svc
kernel_type rbf
gamma 0.125
nr_class 3
total_sv 172
rho -2.34367 -3.70342 0.291014
label 1 3 2
nr_sv 57 49 66
SV
0 8 1:-0.724924 2:-0.837561 
8 8 1:0.469055 2:0.212141 
0 8 1:-0.829114 2:-0.853544 
8 8 1:-0.455942 2:-0.777457 
8 8 1:-0.650345 2:-0.841968 
8 8 1:-0.358457 2:-0.654939 
0 8 1:-0.833163 2:-0.883593 
8 8 1:-0.25257 2:-0.726626 
8 8 1:-0.692213 2:-0.822362 
8 8 1:-0.462222 2:-0.654952 
0 8 1:-0.757748 2:-0.914152 
0 8 1:-0.82266 2:-0.88683 
0 8 1:-0.856698 2:-0.885113 
0 8 1:-0.748047 2:-0.869769 
0 8 1:-0.83773 2:-0.932982 
8 8 1:-0.433699 2:-0.651464 
8 8 1:-0.77735 2:-0.767762 
8 7.930455892822819 1:0.735479 2:0.797623 
8 8 1:-0.399493 2:-0.666949 
8 8 1:-0.636383 2:-0.807401 
0 8 1:-0.773024 2:-0.88748 
0 8 1:-0.750494 2:-0.855949 
0 8 1:-0.790926 2:-0.815302 
0 8 1:-0.738713 2:-0.902255 
8 8 1:-0.66318 2:-0.796991 
8 8 1:-0.65178 2:-0.737856 
0 8 1:-0.809633 2:-0.869224 
8 8 1:-0.653877 2:-0.763705 
8 8 1:-0.514965 2:-0.605187 
0 8 1:-0.812507 2:-0.861162 
0 6.646226268152124 1:-0.93334 2:-0.902902 
8 8 1:-0.235314 2:-0.18152 
8 8 1:-0.661706 2:-0.843697 
0 8 1:-0.737951 2:-0.836778 
8 8 1:-0.722394 2:-0.723507 
0 8 1:-0.879034 2:-0.905686 
8 8 1:-0.49109 2:-0.711514 
8 8 1:-0.663992 2:-0.800758 
8 8 1:-0.694026 2:-0.62005 
8 8 1:-0.628138 2:-0.834368 
8 8 1:-0.392967 2:-0.687274 
8 8 1:-0.482004 2:-0.749949 
0 8 1:-0.832661 2:-0.858929 
8 8 1:-0.0496649 2:-0.689649 
8 8 1:-0.237343 2:-0.267948 
8 8 1:-0.51946 2:-0.707018 
8 8 1:-0.677493 2:-0.83027 
8 8 1:-0.446382 2:-0.791618 
0 8 1:-0.892569 2:-0.889113 
8 8 1:-0.379664 2:-0.560433 
8 8 1:-0.59779 2:-0.795464 
8 8 1:-0.739458 2:-0.796185 
8 8 1:-0.593205 2:-0.666131 
6.864014491010132 8 1:-0.666832 2:-0.877968 
8 8 1:-0.687934 2:-0.750889 
0 8 1:-0.822699 2:-0.806906 
0 8 1:-0.84487 2:-0.858354 
-4.627849456883869 0 1:1 2:1 
-8 8 1:-0.20573 2:-0.470116 
-0 8 1:-0.161988 2:-0.280754 
-0 8 1:0.0598019 2:-0.432362 
-8 8 1:-0.485511 2:-0.699013 
-8 8 1:-0.142545 2:-0.563277 
-0 8 1:-0.0905872 2:-0.346969 
-8 8 1:-0.558264 2:-0.682253 
-8 8 1:-0.690845 2:-0.744776 
-8 8 1:-0.25469 2:-0.545453 
-0 8 1:-0.0423079 2:-0.533746 
-8 8 1:-0.670806 2:-0.836248 
-8 8 1:-0.132259 2:-0.569034 
-0 8 1:-0.114827 2:-0.461093 
-8 8 1:-0.458175 2:-0.384108 
-0 8 1:-0.141174 2:-0.437957 
-8 8 1:-0.609722 2:-0.792057 
-8 8 1:-0.589245 2:-0.799104 
-8 8 1:-0.485868 2:-0.796091 
-8 8 1:-0.512891 2:-0.714828 
-8 8 1:-0.449254 2:-0.555152 
-0 7.75570943703541 1:0.0985177 2:-0.362783 
-8 8 1:-0.17329 2:-0.530261 
-8 8 1:-0.519937 2:-0.586063 
-8 8 1:-0.258693 2:-0.563985 
-8 8 1:-0.69035 2:-0.76591 
-8 8 1:-0.645073 2:-0.654788 
-8 8 1:-0.458879 2:-0.63159 
-8 8 1:-0.513186 2:-0.764689 
-8 8 1:-0.527807 2:-0.63273 
-2.236165034126263 8 1:-0.246985 2:-0.413159 
-8 8 1:-0.412338 2:-0.439907 
-8 8 1:-0.139461 2:-0.568084 
-8 8 1:-0.639757 2:-0.751871 
-8 8 1:-0.31377 2:-0.430337 
-8 8 1:-0.824317 2:-0.775738 
-0 8 1:-0.216102 2:-0.36215 
-8 8 1:-0.103077 2:-0.669241 
-8 8 1:-0.5981 2:-0.620451 
-8 8 1:-0.552242 2:-0.722885 
-8 8 1:-0.508005 2:-0.577137 
-0 8 1:0.188508 2:-0.413541 
-0 8 1:-0.307197 2:-0.299869 
-8 8 1:-0.800898 2:-0.774845 
-0 4.899468057611985 1:-0.244422 2:-0.151141 
-8 8 1:-0.605201 2:-0.697125 
-0 8 1:-0.286816 2:-0.14521 
-8 8 1:-0.457643 2:-0.65988 
-8 8 1:-0.475526 2:-0.571603 
-0 -8 1:0.238849 2:-0.510678 
-8 -0 1:-0.757735 2:-0.870307 
-8 -0 1:-0.789158 2:-0.865437 
-8 -8 1:-0.45801 2:-0.443099 
-8 -8 1:-0.132653 2:-0.590754 
-8 -0 1:-0.786586 2:-0.905292 
-8 -8 1:-0.461427 2:-0.285086 
-8 -8 1:-0.36039 2:-0.636957 
-0 -8 1:0.0221256 2:-0.330635 
-8 -8 1:-0.67027 2:-0.828948 
-8 -0 1:-0.762721 2:-0.85013 
-8 -8 1:-0.536993 2:-0.648148 
-8 -8 1:-0.513054 2:-0.719867 
-8 -8 1:-0.596372 2:-0.736929 
-8 -8 1:-0.04518 2:-0.605336 
-8 -8 1:-0.459009 2:-0.60393 
-8 -8 1:-0.315991 2:-0.515345 
-8 -8 1:-0.588573 2:-0.735856 
-8 -8 1:-0.430038 2:-0.662811 
-8 -8 1:-0.514276 2:-0.630001 
-8 -0 1:-0.870275 2:-0.93468 
-8 -0 1:-0.935745 2:-0.977595 
-0 -8 1:-0.20584 2:-0.381023 
-8 -0 1:-0.85858 2:-0.895954 
-8 -8 1:-0.479861 2:-0.749733 
-8 -8 1:-0.296213 2:-0.429591 
-8 -8 1:-0.390745 2:-0.432767 
-8 -8 1:-0.493067 2:-0.506655 
-8 -0 1:-0.95172 2:-0.936211 
-8 -8 1:-0.614114 2:-0.768219 
-0 -8 1:-0.101933 2:-0.503939 
-8 -8 1:-0.675373 2:-0.794062 
-8 -0 1:-0.829615 2:-0.810223 
-8 -8 1:-0.35935 2:-0.742962 
-8 -0 1:-0.81205 2:-0.867627 
-8 -8 1:-0.600115 2:-0.585645 
-0 -8 1:0.0543157 2:-0.149973 
-8 -0 1:-0.869875 2:-0.96206 
-8 -8 1:-0.705489 2:-0.778328 
-8 -8 1:-0.585924 2:-0.792701 
-8 -8 1:-0.412818 2:-0.598392 
-8 -0 1:-0.90219 2:-0.926758 
-6.576682160974942 -8 1:0.236898 2:-0.691008 
-8 -0 1:-0.739005 2:-0.829557 
-0 -8 1:0.00547389 2:-0.243026 
-8 -0 1:-0.914322 2:-1 
-8 -8 1:-0.796427 2:-0.706673 
-8 -8 1:-0.246742 2:-0.557179 
-8 -8 1:-0.54544 2:-0.767253 
-8 -8 1:-0.564035 2:-0.678217 
-8 -8 1:-0.329203 2:-0.479135 
-0 -8 1:-0.259793 2:-0.23124 
-8 -8 1:-0.700439 2:-0.775329 
-8 -8 1:-0.513651 2:-0.663052 
-8 -0 1:-0.838482 2:-0.875151 
-8 -8 1:-0.583488 2:-0.632376 
-0 -8 1:0.0540654 2:-0.529656 
-8 -0 1:-0.801971 2:-0.871359 
-8 -8 1:-0.604123 2:-0.750962 
-8 -0 1:-0.82923 2:-0.886668 
-8 -8 1:-0.560815 2:-0.684146 
-0 -8 1:-0.0882941 2:-0.495222 
-8 -8 1:-0.375394 2:-0.487223 
-8 -8 1:-0.537318 2:-0.591857 
-8 -4.655177494647395 1:-0.711016 2:-0.835117 
-8 -0 1:-0.834915 2:-0.886107 
