svm_type c_svc
kernel_type rbf
gamma 0.5
nr_class 3
total_sv 190
rho 0.132819 -0.116296 -0.0720999
label 1 3 2
nr_sv 64 53 73
SV
0.5 0.5 1:-0.793909 2:-0.87287 
0.5 0.5 1:-0.604573 2:-0.857327 
0 0.5 1:-0.871969 2:-0.885379 
0.5 0.5 1:-0.592383 2:-0.825831 
0.5 0.5 1:-0.713886 2:-0.893981 
0.5 0.5 1:-0.743242 2:-0.776505 
0 0.5 1:-0.875003 2:-0.908896 
0 0.5 1:-0.930017 2:-0.954533 
0.5 0.5 1:-0.597088 2:-0.729954 
0 0.142523010107504 1:-0.978646 2:-0.984288 
0 0.5 1:-0.867134 2:-0.91143 
0 0.5 1:-0.892636 2:-0.910086 
0 0.5 1:-0.822649 2:-0.892927 
0 0.5 1:-0.961657 2:-0.967362 
0.5 0.5 1:-0.575718 2:-0.727225 
0 0.5 1:-0.928746 2:-0.874745 
0.5 0.5 1:0.300249 2:0.406876 
0.5 0.5 1:-0.550091 2:-0.739344 
0 0.5 1:-0.879404 2:-0.909054 
0 0.5 1:-0.829946 2:-0.911938 
0.5 0.5 1:-0.813066 2:-0.887261 
0.5 0.5 1:-0.843358 2:-0.855449 
0 0.5 1:-0.80424 2:-0.923501 
0.5 0.5 1:-0.711939 2:-0.784379 
0.5 0.5 1:-0.747649 2:-0.841119 
0.5 0.5 1:-0.739108 2:-0.794838 
0 0.5 1:-0.857374 2:-0.897651 
0.5 0.5 1:-0.740679 2:-0.815068 
0 0.5 1:-0.939823 2:-0.960333 
0 0.5 1:-0.859527 2:-0.891341 
0 0.5 1:-0.840754 2:-0.933867 
0 0.5 1:-0.950057 2:-0.924008 
0.5 0.5 1:-0.669181 2:-0.81507 
0.5 0.5 1:-0.746545 2:-0.877672 
0.5 0.5 1:-0.803668 2:-0.872258 
0 0.5 1:-0.949542 2:-0.973445 
0.5 0.5 1:-0.792013 2:-0.783608 
0.5 0.5 1:-0.618717 2:-0.774222 
0.5 0.5 1:-0.748258 2:-0.844067 
0.5 0.5 1:-0.816035 2:-0.834099 
0.5 0.5 1:-0.77076 2:-0.702639 
0.5 0.5 1:-0.721395 2:-0.870371 
0.5 0.5 1:-0.611909 2:-0.804302 
0 0.5 1:-0.942719 2:-0.936236 
0.5 0.5 1:-0.664095 2:-0.829701 
0 0.5 1:-0.874627 2:-0.889593 
0.5 0.5 1:-0.287994 2:-0.75711 
0 0.5 1:-0.947307 2:-0.967618 
0.5 0.5 1:-0.639971 2:-0.770703 
0.5 0.5 1:-0.758372 2:-0.867164 
0.5 0.5 1:-0.585221 2:-0.836914 
0.5 0.5 1:-0.608777 2:-0.678062 
0 0.5 1:-0.919511 2:-0.913216 
0.5 0.5 1:-0.535234 2:-0.655981 
0.5 0.5 1:-0.804797 2:-0.840488 
0 0.5 1:-0.858995 2:-0.93475 
0.5 0.5 1:-0.695222 2:-0.738704 
0.5 0.5 1:-0.750385 2:-0.904494 
0.5 0.5 1:-0.766195 2:-0.805038 
0.5 0.5 1:-0.867163 2:-0.848878 
0 0.5 1:-0.955804 2:-0.975033 
0 0.5 1:-0.884092 2:-0.929885 
0 0.5 1:-0.883774 2:-0.889143 
0.5 0.5 1:-0.821472 2:-0.877509 
-0 0.4001145309545419 1:-0.0674419 2:-0.361701 
-0 0.5 1:-0.237559 2:-0.404324 
-0 0.5 1:-0.380688 2:-0.276059 
-0.5 0.5 1:-0.40492 2:-0.585296 
-0.5 0.5 1:-0.515711 2:-0.769094 
-0 0.5 1:-0.237113 2:-0.323118 
-0.5 0.5 1:-0.372148 2:-0.437096 
-0 0.5 1:-0.205979 2:-0.555749 
-0 0.5 1:-0.207537 2:-0.512686 
-0.5 0.5 1:-0.357581 2:-0.658207 
-0.5 0.5 1:-0.318653 2:-0.488917 
-0.5 0.5 1:-0.669044 2:-0.751321 
-0.5 0.5 1:-0.768376 2:-0.800253 
-0.5 0.5 1:-0.441602 2:-0.644257 
-0 0.5 1:-0.268828 2:-0.309653 
-0 0.5 1:-0.181649 2:-0.393255 
-0.5 0.5 1:-0.282482 2:-0.635095 
-0.5 0.5 1:-0.753363 2:-0.871842 
-0.5 0.5 1:-0.349875 2:-0.662713 
-0.5 0.5 1:-0.594056 2:-0.517984 
-0 0.5 1:-0.0177071 2:-0.554065 
-0 0.5 1:-0.236866 2:-0.273242 
-0.5 0.5 1:-0.692256 2:-0.842773 
-0 0.5 1:-0.224252 2:-0.266307 
-0.5 0.5 1:-0.63505 2:-0.776815 
-0.5 0.5 1:-0.587372 2:-0.651848 
-0 0.5 1:-0.176973 2:-0.501294 
-0.5 0.5 1:-0.380616 2:-0.632367 
-0.5 0.5 1:-0.640329 2:-0.67604 
-0.5 0.5 1:1 2:1 
-0.5 0.5 1:-0.768005 2:-0.816794 
-0.5 0.5 1:-0.40489 2:-0.537178 
-0.5 0.5 1:-0.594584 2:-0.71167 
-0.5 0.5 1:-0.635271 2:-0.815838 
-0.5 0.5 1:-0.435829 2:-0.54072 
-0.5 0.5 1:-0.355271 2:-0.661969 
-0.5 0.5 1:-0.7301 2:-0.805806 
-0.5 0.5 1:-0.868376 2:-0.824486 
-0.5 0.5 1:-0.386821 2:-0.43052 
-0.5 0.5 1:-0.328011 2:-0.741137 
-0.5 0.5 1:-0.828481 2:-0.771696 
-0.5 0.5 1:-0.69889 2:-0.702953 
-0.5 0.5 1:-0.664533 2:-0.783121 
-0 0.5 1:-0.236289 2:-0.302064 
-0 0.5 1:-0.109551 2:-0.541018 
-0.5 0.5 1:-0.480941 2:-0.452055 
-0.5 0.5 1:-0.49337 2:-0.55541 
-0.5 0.5 1:-0.850829 2:-0.823786 
-0 0.5 1:-0.433909 2:-0.335656 
-0.5 0.5 1:-0.70421 2:-0.76296 
-0.5 0.5 1:-0.465671 2:-0.331014 
-0.5 0.5 1:-0.71334 2:-0.756941 
-0.5 0.5 1:-0.760688 2:-0.790131 
-0 -0.5 1:-0.0718346 2:-0.617041 
-0.5 -0 1:-0.818491 2:-0.898498 
-0.5 -0 1:-0.819536 2:-0.928173 
-0.5 -0 1:-0.842034 2:-0.894687 
-0.5 -0.5 1:-0.593932 2:-0.564152 
-0.5 -0 1:-0.879587 2:-0.922236 
-0.5 -0.5 1:-0.432042 2:-0.598134 
-0.5 -0.5 1:-0.35017 2:-0.679711 
-0.5 -0 1:-0.840107 2:-0.925878 
-0 -0.5 1:-0.25034 2:-0.399839 
-0.5 -0.5 1:-0.596492 2:-0.440486 
-0.5 -0.5 1:-0.520794 2:-0.715871 
-0.5 -0.5 1:-0.752961 2:-0.866129 
-0.5 -0.4001145309545419 1:-0.822227 2:-0.882707 
-0 -0.5 1:-0.13986 2:-0.227092 
-0.5 -0.5 1:-0.653107 2:-0.724629 
-0.1425230101075039 -0.5 1:0.130738 2:0.63139 
-0.5 -0.5 1:-0.697595 2:-0.794112 
-0.5 -0.5 1:-0.284634 2:-0.691123 
-0.5 -0.5 1:-0.789805 2:-0.83611 
-0.5 -0.5 1:-0.487529 2:-0.620694 
-0.5 -0.5 1:-0.68279 2:-0.783249 
-0.5 -0.5 1:-0.636088 2:-0.710427 
-0.5 -0 1:-0.902808 2:-0.948878 
-0.5 -0.5 1:-0.405002 2:-0.515569 
-0.5 -0.5 1:-0.362159 2:-0.616308 
-0.5 -0 1:-0.894046 2:-0.91857 
-0.5 -0.5 1:-0.610303 2:-0.804133 
-0.5 -0 1:-0.831905 2:-0.994547 
-0.5 -0.5 1:-0.472711 2:-0.55358 
-0.5 -0.5 1:-0.543536 2:-0.556065 
-0.5 -0.5 1:-0.620198 2:-0.613892 
-0.5 -0 1:-0.963828 2:-0.950077 
-0.5 -0.5 1:-0.710888 2:-0.818601 
-0.5 -0.5 1:-0.713799 2:-0.869635 
-0.5 -0.5 1:-0.756784 2:-0.838826 
-0.5 -0 1:-0.872345 2:-0.851474 
-0.5 -0.5 1:-0.597233 2:-0.715758 
-0.5 -0 1:-0.859184 2:-0.896401 
-0.5 -0 1:-0.887567 2:-0.917595 
-0.5 -0.5 1:-0.7004 2:-0.675713 
-0 -0.5 1:-0.21009 2:-0.334742 
-0 -0.5 1:-0.246677 2:-0.123778 
-0.5 -0 1:-0.963753 2:-0.972554 
-0.5 -0 1:-0.902509 2:-0.970307 
-0.5 -0.5 1:-0.779348 2:-0.826512 
-0.5 -0.5 1:-0.689767 2:-0.837761 
-0.5 -0.5 1:-0.560074 2:-0.685689 
-0.5 -0.5 1:-0.571236 2:-0.740391 
-0 -0.5 1:-0.073296 2:-0.758173 
-0.5 -0.5 1:-0.804459 2:-0.866606 
-0 -0.5 1:-0.246683 2:-0.407568 
-0 -0.5 1:0.15242 2:-0.436189 
-0.5 -0.5 1:-0.630612 2:-0.799923 
-0.5 -0 1:-0.935809 2:-1 
-0.5 -0.5 1:-0.84748 2:-0.770433 
-0.5 -0.5 1:-0.435647 2:-0.653434 
-0.5 -0 1:-0.936815 2:-0.943067 
-0.5 -0.5 1:-0.673368 2:-0.748163 
-0.5 -0.5 1:-0.497428 2:-0.592355 
-0 -0.5 1:-0.445425 2:-0.398344 
-0.5 -0.5 1:-0.736905 2:-0.850072 
-0.5 -0.5 1:-0.635619 2:-0.736294 
-0.5 -0 1:-0.878988 2:-0.902289 
-0.5 -0.5 1:-0.627491 2:-0.681719 
-0.5 -0.5 1:-0.794125 2:-0.866279 
-0.5 -0 1:-0.851634 2:-0.899321 
-0.5 -0.5 1:-0.703403 2:-0.805095 
-0.5 -0 1:-0.872056 2:-0.911302 
-0.5 -0.5 1:-0.316935 2:-0.604945 
-0.5 -0.5 1:-0.653351 2:-0.680574 
-0.5 -0.5 1:-0.783488 2:-0.870957 
-0.5 -0 1:-0.876315 2:-0.910864 
