svm_type c_svc
kernel_type rbf
gamma 0.5
nr_class 3
total_sv 145
rho 5.8511 -5.15543 -4.08962
label 2 3 1
nr_sv 50 49 46
SV
2048 2048 1:-0.534007 2:-0.584894 3:-0.929286 4:-0.884841 5:-0.577419 6:-0.89949 7:-0.999046 
0 2048 1:-0.918178 2:-0.91178 3:-0.933653 4:-0.916046 5:-0.913589 6:-0.983261 7:-0.999839 
2048 2048 1:-0.894676 2:-0.898458 3:-0.94547 4:-0.93411 5:-0.898636 6:-0.98304 7:-0.999837 
2048 0 1:-0.839127 2:-0.865019 3:-0.785626 4:-0.73928 5:-0.861652 6:-0.942433 7:-0.999352 
2048 2048 1:-0.806766 2:-0.817228 3:-0.842423 4:-0.8084 5:-0.816305 6:-0.945004 7:-0.999335 
2048 2048 1:-0.928304 2:-0.93989 3:-0.885923 4:-0.859412 5:-0.938839 6:-0.980525 7:-0.999754 
2048 2048 1:-0.614002 2:-0.727458 3:-0.836085 4:-0.783054 5:-0.71005 6:-0.908054 7:-0.998875 
1706.831462550942 0 1:-0.536874 2:-0.819328 3:-0.758869 4:-0.656217 5:-0.774967 6:-0.885051 7:-0.999101 
0 2048 1:-0.958443 2:-0.954461 3:-0.932483 4:-0.92026 5:-0.955902 6:-0.990012 7:-0.999866 
2048 0 1:-0.622681 2:-0.75688 3:-0.777748 4:-0.700771 5:-0.736171 6:-0.894995 7:-0.998921 
2048 2048 1:-0.770884 2:-0.793436 3:-0.88009 4:-0.860882 5:-0.790573 6:-0.948386 7:-0.999365 
0 2048 1:-0.950935 2:-0.93171 3:-0.944952 4:-0.91496 5:-0.935576 6:-0.983287 7:-0.99983 
2048 2048 1:-0.920823 2:-0.915441 3:-0.918067 4:-0.902412 5:-0.917089 6:-0.98199 7:-0.999801 
2048 0 1:-0.781794 2:-0.825852 3:-0.754966 4:-0.68767 5:-0.819567 6:-0.92401 7:-0.999217 
2048 2048 1:-0.755361 2:-0.807701 3:-0.877387 4:-0.837824 5:-0.800087 6:-0.937299 7:-0.999422 
2048 2048 1:-0.92921 2:-0.914852 3:-0.902609 4:-0.884393 5:-0.917934 6:-0.980363 7:-0.999813 
2048 2048 1:-0.794626 2:-0.810529 3:-0.851319 4:-0.825171 5:-0.808734 6:-0.94644 7:-0.999381 
2048 2048 1:-0.940303 2:-0.952272 3:-0.942405 4:-0.933549 5:-0.951164 6:-0.99097 7:-0.99989 
2048 2048 1:-0.812799 2:-0.815777 3:-0.836051 4:-0.806842 5:-0.816049 6:-0.94573 7:-0.999316 
2048 2048 1:-0.802916 2:-0.848956 3:-0.938162 4:-0.931869 5:-0.842365 6:-0.975798 7:-0.999779 
2048 2048 1:-0.667537 2:-0.649556 3:-0.865806 4:-0.831002 5:-0.653107 6:-0.907352 7:-0.999082 
2048 842.10417296809 1:-0.672351 2:-0.669784 3:-0.647944 4:-0.607883 5:-0.670882 6:-0.853265 7:-0.998179 
2048 2048 1:-0.680234 2:-0.740979 3:-0.879379 4:-0.842263 5:-0.731995 6:-0.927797 7:-0.999213 
2048 157.9083992431564 1:-0.894737 2:-0.867683 3:-0.797985 4:-0.770503 5:-0.872773 6:-0.955012 7:-0.999496 
0 2048 1:-0.972686 2:-0.968153 3:-0.91812 4:-0.894243 5:-0.969688 6:-0.98977 7:-0.99986 
588.1607447534261 0 1:-0.505145 2:-0.826351 3:-0.879537 4:-0.808446 5:-0.775803 6:-0.924114 7:-0.999356 
2048 2048 1:-0.858504 2:-0.878346 3:-0.871012 4:-0.844276 5:-0.87595 6:-0.964343 7:-0.999555 
977.4421883645891 2048 1:-0.949976 2:-0.975508 3:-0.978621 4:-0.972163 5:-0.972244 6:-0.998316 7:-0.999975 
2048 2048 1:-0.854935 2:-0.872028 3:-0.939026 4:-0.924212 5:-0.870069 6:-0.974643 7:-0.999767 
2048 2048 1:-0.891953 2:-0.900141 3:-0.905443 4:-0.891074 5:-0.899615 6:-0.975709 7:-0.999706 
1899.774450367764 2048 1:-0.854328 2:-0.857048 3:-0.885936 4:-0.853332 5:-0.857378 6:-0.961664 7:-0.999592 
1304.06007106742 1262.556376010735 1:-0.29342 2:-0.309579 3:-0.929131 4:-0.91697 5:-0.307537 6:-0.887313 7:-0.99921 
0 2048 1:-0.972863 2:-0.950871 3:-0.972186 4:-0.957574 5:-0.955186 6:-0.991217 7:-0.999913 
2048 977.345676326345 1:-0.37098 2:-0.341238 3:-0.617751 4:-0.574976 5:-0.346541 6:-0.714047 7:-0.994464 
2048 0 1:-0.818077 2:-0.868853 3:-0.766868 4:-0.705194 5:-0.861513 6:-0.938137 7:-0.999411 
2048 2048 1:-0.914706 2:-0.917326 3:-0.926391 4:-0.915449 5:-0.917697 6:-0.986941 7:-0.999907 
2048 2048 1:-0.924508 2:-0.909463 3:-0.847353 4:-0.825863 5:-0.912652 6:-0.973225 7:-0.999755 
2048 2048 1:-0.824821 2:-0.831243 3:-0.841814 4:-0.813103 5:-0.830971 6:-0.949754 7:-0.999428 
2048 2048 1:-0.816416 2:-0.804677 3:-0.874717 4:-0.855379 5:-0.807295 6:-0.954403 7:-0.999569 
2048 2048 1:-0.782487 2:-0.778542 3:-0.868159 4:-0.851989 5:-0.779904 6:-0.948635 7:-0.999506 
0 2048 1:-0.929346 2:-0.931733 3:-0.944372 4:-0.928393 5:-0.932148 6:-0.987835 7:-0.999883 
2048 69.69666953556845 1:-0.820894 2:-0.852589 3:-0.86213 4:-0.82029 5:-0.84829 6:-0.953845 7:-0.999515 
0 2048 1:-0.915512 2:-0.911381 3:-0.904137 4:-0.877575 5:-0.912828 6:-0.976897 7:-0.999746 
2048 2048 1:-0.868833 2:-0.891996 3:-0.844541 4:-0.831677 5:-0.889076 6:-0.968674 7:-0.999568 
2048 2048 1:-0.865905 2:-0.890649 3:-0.869471 4:-0.854429 5:-0.887476 6:-0.970581 7:-0.999638 
2048 2048 1:-0.84714 2:-0.857763 3:-0.874584 4:-0.862695 5:-0.856832 6:-0.968267 7:-0.999745 
2048 2048 1:-0.885623 2:-0.894976 3:-0.894943 4:-0.87505 5:-0.894262 6:-0.972031 7:-0.999646 
0 2048 1:-0.915775 2:-0.906397 3:-0.961367 4:-0.94764 5:-0.908679 6:-0.985736 7:-0.999879 
0 2048 1:-0.931623 2:-0.925928 3:-0.895167 4:-0.864797 5:-0.927631 6:-0.977983 7:-0.999782 
2048 0 1:-0.801364 2:-0.860154 3:-0.827728 4:-0.788598 5:-0.851531 6:-0.950449 7:-0.999353 
-2048 2048 1:-0.986112 2:-0.995055 3:-0.89252 4:-0.862717 5:-0.994448 6:-0.993404 7:-0.999876 
-2048 0 1:-0.827309 2:-0.891748 3:-0.83377 4:-0.789154 5:-0.882235 6:-0.957128 7:-0.999436 
-1404.005793469682 2048 1:-0.71627 2:-0.75997 3:-0.895148 4:-0.881471 5:-0.753715 6:-0.953525 7:-0.999617 
-2048 2048 1:-0.816778 2:-0.849486 3:-0.875397 4:-0.85954 5:-0.845024 6:-0.961259 7:-0.999494 
-2048 2048 1:-0.66791 2:-0.611033 3:-0.855778 4:-0.833553 5:-0.62078 6:-0.898226 7:-0.999175 
-2048 462.4788431380763 1:-0.822876 2:-0.806397 3:-0.831871 4:-0.807663 5:-0.809773 6:-0.945054 7:-0.999487 
-341.5341446622226 0 1:-0.263331 2:-0.244454 3:-0.445059 4:-0.383668 5:-0.247981 6:-0.512411 7:-0.984631 
-2048 0 1:-0.669932 2:-0.753912 3:-0.656541 4:-0.581325 5:-0.741222 6:-0.869334 7:-0.998266 
-165.5099155862028 291.343361100779 1:-0.6262 2:-0.76311 3:-0.650136 4:-0.570755 5:-0.74197 6:-0.852684 7:-0.998096 
-2048 2048 1:-0.781185 2:-0.824101 3:-0.937581 4:-0.931703 5:-0.817998 6:-0.971117 7:-0.999751 
-2048 2048 1:-0.941586 2:-0.922816 3:-0.862946 4:-0.840099 5:-0.926605 6:-0.977691 7:-0.999806 
-64.60243025101956 2048 1:-0.187008 2:-0.418535 3:-0.851934 4:-0.826028 5:-0.382142 6:-0.8357 7:-0.997417 
-2048 2048 1:-0.798282 2:-0.823659 3:-0.910182 4:-0.900482 5:-0.820357 6:-0.970248 7:-0.999804 
-1988.084070347527 2048 1:-0.53745 2:-0.606031 3:-0.793584 4:-0.750481 5:-0.595739 6:-0.860239 7:-0.998387 
-2048 2048 1:-0.902874 2:-0.909731 3:-0.901328 4:-0.879503 5:-0.909422 6:-0.974487 7:-0.999711 
-2048 2048 1:-0.939589 2:-0.918198 3:-0.888901 4:-0.868682 5:-0.922404 6:-0.981529 7:-0.99988 
-712.882516792008 0 1:-0.768345 2:-0.842762 3:-0.676802 4:-0.614594 5:-0.831636 6:-0.914602 7:-0.99891 
-2048 2048 1:-0.912365 2:-0.91335 3:-0.866896 4:-0.8519 5:-0.913981 6:-0.978501 7:-0.999808 
-1514.588503205667 864.3416723603158 1:-0.346127 2:-0.552943 3:-0.767803 4:-0.710645 5:-0.520552 6:-0.821725 7:-0.996781 
-2048 2048 1:-0.925042 2:-0.923022 3:-0.913643 4:-0.898236 5:-0.924136 6:-0.9826 7:-0.999791 
0 2048 1:-0.743012 2:-0.787979 3:-0.911785 4:-0.907223 5:-0.781534 6:-0.95794 7:-0.999534 
-2048 2048 1:-0.912644 2:-0.928982 3:-0.963015 4:-0.953745 5:-0.927167 6:-0.990385 7:-0.999919 
-2048 0 1:-0.724578 2:-0.776288 3:-0.662966 4:-0.584465 5:-0.768761 6:-0.878782 7:-0.998427 
-2048 0 1:-0.858007 2:-0.873803 3:-0.828712 4:-0.797625 5:-0.872051 6:-0.957149 7:-0.999468 
-1086.936023687484 618.3590529998905 1:-0.192056 2:-0.171257 3:-0.841322 4:-0.806098 5:-0.175061 6:-0.777424 7:-0.997564 
-2048 0 1:-0.750188 2:-0.744378 3:-0.791432 4:-0.760935 5:-0.746024 6:-0.919385 7:-0.999173 
0 1647.284895323186 1:-0.504478 2:-0.539621 3:-0.396278 4:-0.344853 5:-0.534643 6:-0.683349 7:-0.99153 
-2048 2048 1:-0.886723 2:-0.876712 3:-0.89699 4:-0.879443 5:-0.879083 6:-0.97217 7:-0.99974 
-2048 2048 1:-0.802831 2:-0.815708 3:-0.910027 4:-0.889725 5:-0.814399 6:-0.956565 7:-0.999477 
-2048 0 1:-0.716002 2:-0.773256 3:-0.821654 4:-0.78328 5:-0.764842 6:-0.92529 7:-0.999005 
-2048 2048 1:-0.743386 2:-0.761739 3:-0.832002 4:-0.800844 5:-0.759534 6:-0.926058 7:-0.999184 
-2048 2048 1:-0.742865 2:-0.86432 3:-0.888691 4:-0.840283 5:-0.84569 6:-0.955323 7:-0.999471 
0 2048 1:-0.711618 2:-0.748079 3:-0.575765 4:-0.516144 5:-0.742975 6:-0.851623 7:-0.997208 
-2048 2048 1:-0.661662 2:-0.590554 3:-0.886443 4:-0.8606 5:-0.602566 6:-0.911783 7:-0.999343 
-542.7090933251465 0 1:-0.864201 2:-0.909117 3:-0.852305 4:-0.843989 5:-0.902729 6:-0.971538 7:-0.999536 
-2048 0 1:-0.781791 2:-0.850643 3:-0.809426 4:-0.778267 5:-0.840409 6:-0.944597 7:-0.999118 
-703.4164257771843 824.6679684351125 1:-0.633235 2:-0.605235 3:-0.642771 4:-0.580589 5:-0.610367 6:-0.836548 7:-0.995549 
-2048 2048 1:-0.919821 2:-0.941298 3:-0.900945 4:-0.889403 5:-0.938668 6:-0.984273 7:-0.999777 
-2048 0 1:-0.826411 2:-0.85918 3:-0.849333 4:-0.835268 5:-0.854712 6:-0.95974 7:-0.999447 
-2048 0 1:-0.767796 2:-0.896612 3:-0.877141 4:-0.820886 5:-0.87682 6:-0.957263 7:-0.999493 
-2048 2048 1:-0.919421 2:-0.90971 3:-0.875945 4:-0.862505 5:-0.912047 6:-0.976621 7:-0.999756 
-2048 2048 1:-0.868314 2:-0.886293 3:-0.878612 4:-0.844556 5:-0.884198 6:-0.965206 7:-0.999547 
-2048 0 1:-0.597366 2:-0.757458 3:-0.88004 4:-0.824529 5:-0.732613 6:-0.925823 7:-0.999202 
-2048 2048 1:-0.785882 2:-0.786983 3:-0.894322 4:-0.865476 5:-0.787543 6:-0.947251 7:-0.999399 
-2048 2048 1:-0.850857 2:-0.865064 3:-0.89277 4:-0.864812 5:-0.863563 6:-0.963519 7:-0.999574 
-2048 2048 1:-0.886113 2:-0.892811 3:-0.868929 4:-0.839625 5:-0.89252 6:-0.969125 7:-0.999622 
-2048 2048 1:-0.823179 2:-0.85139 3:-0.880332 4:-0.872814 5:-0.847646 6:-0.963565 7:-0.99955 
-2048 2048 1:-0.819653 2:-0.823556 3:-0.896994 4:-0.879595 5:-0.823684 6:-0.957663 7:-0.999497 
0 127.8493034255463 1:-0.463841 2:-0.555075 3:-0.709682 4:-0.653912 5:-0.541144 6:-0.806083 7:-0.997297 
-36.43308191412805 -7.377642881861324 1:0.871297 2:0.316706 3:-0.740339 4:-0.65647 5:0.404997 6:-0.440097 7:-0.987449 
-2048 -2048 1:-0.833535 2:-0.864173 3:-0.899674 4:-0.869525 5:-0.860048 6:-0.961542 7:-0.999589 
-2048 -2048 1:-0.901961 2:-0.902549 3:-0.900689 4:-0.87904 5:-0.903239 6:-0.976107 7:-0.99972 
-2048 -2048 1:-0.870253 2:-0.881698 3:-0.907359 4:-0.875752 5:-0.880645 6:-0.96776 7:-0.999663 
-2048 -454.0792102767742 1:-0.879966 2:-0.851422 3:-0.91708 4:-0.884591 5:-0.856743 6:-0.96584 7:-0.999675 
-903.9111607605488 -1172.289191231897 1:-0.372358 2:-0.429428 3:-0.891054 4:-0.878075 5:-0.420902 6:-0.887891 7:-0.998965 
-2048 -2048 1:-0.731667 2:-0.750133 3:-0.816623 4:-0.774951 5:-0.747904 6:-0.918205 7:-0.999143 
-2048 -2048 1:-0.928212 2:-0.92784 3:-0.910904 4:-0.88734 5:-0.928693 6:-0.980939 7:-0.999792 
-2048 -2048 1:-0.901168 2:-0.920104 3:-0.879403 4:-0.869038 5:-0.917871 6:-0.977231 7:-0.999675 
-2048 0 1:-0.9485 2:-0.948194 3:-0.92358 4:-0.908571 5:-0.949045 6:-0.987575 7:-0.999839 
-2048 -2048 1:-0.820269 2:-0.824601 3:-0.910553 4:-0.896191 5:-0.82466 6:-0.961169 7:-0.999549 
-2048 0 1:-0.949095 2:-0.943541 3:-0.937902 4:-0.901558 5:-0.945228 6:-0.982514 7:-0.999856 
-2048 -2005.097584255361 1:-0.941346 2:-0.948477 3:-0.917437 4:-0.905012 5:-0.948141 6:-0.987412 7:-0.999828 
-2048 0 1:-0.927897 2:-0.91276 3:-0.929789 4:-0.909188 5:-0.915965 6:-0.980314 7:-0.999777 
-2048 -2048 1:-0.872663 2:-0.900207 3:-0.872474 4:-0.858935 5:-0.896591 6:-0.972955 7:-0.999665 
-2048 -2048 1:-0.761712 2:-0.81457 3:-0.862807 4:-0.834762 5:-0.806876 6:-0.946071 7:-0.999312 
-2048 -2048 1:-0.713132 2:-0.802333 3:-0.840556 4:-0.798452 5:-0.788829 6:-0.926541 7:-0.999192 
-2048 0 1:-0.792669 2:-0.769987 3:-0.933248 4:-0.91252 5:-0.774339 6:-0.955614 7:-0.9996 
-2048 -2048 1:-0.871305 2:-0.882 3:-0.91573 4:-0.904115 5:-0.881066 6:-0.974583 7:-0.999738 
-2048 -582.0450998149273 1:-0.898307 2:-0.910762 3:-0.924526 4:-0.914248 5:-0.90956 6:-0.98275 7:-0.999825 
-310.5876864396665 0 1:-0.961039 2:-0.944694 3:-0.944834 4:-0.922196 5:-0.948106 6:-0.987783 7:-0.999885 
-2048 -2048 1:-0.406929 2:-0.407701 3:-0.809195 4:-0.787081 5:-0.408157 6:-0.837303 7:-0.998262 
-2048 0 1:-0.960136 2:-0.945741 3:-0.932532 4:-0.912999 5:-0.948841 6:-0.985973 7:-0.999826 
-2048 0 1:-0.914907 2:-0.920482 3:-0.936123 4:-0.922959 5:-0.920382 6:-0.986545 7:-0.999873 
-2048 -2048 1:-0.865074 2:-0.873337 3:-0.91038 4:-0.900001 5:-0.872789 6:-0.974011 7:-0.99975 
-2048 0 1:-0.962772 2:-0.953992 3:-0.924537 4:-0.908946 5:-0.956199 6:-0.989655 7:-0.99988 
-652.2207485637323 -1911.22709248219 1:-0.670825 2:-0.665735 3:-0.449706 4:-0.389155 5:-0.667234 6:-0.786643 7:-0.996454 
-255.2218325186464 -2048 1:-0.533949 2:-0.617348 3:-0.512426 4:-0.421515 5:-0.604695 6:-0.753006 7:-0.995933 
-2048 -2048 1:-0.896855 2:-0.888107 3:-0.89354 4:-0.874911 5:-0.890281 6:-0.972538 7:-0.999731 
-1669.261156036288 0 1:-0.925714 2:-0.91337 3:-0.94253 4:-0.92291 5:-0.916129 6:-0.982686 7:-0.99982 
-2048 -2048 1:-0.474979 2:-0.564511 3:-0.87762 4:-0.837687 5:-0.550856 6:-0.882282 7:-0.998698 
-2048 0 1:-0.925105 2:-0.924342 3:-0.928517 4:-0.914897 5:-0.925256 6:-0.983736 7:-0.999817 
-2048 0 1:-0.917898 2:-0.930417 3:-0.927253 4:-0.900092 5:-0.929213 6:-0.981088 7:-0.999781 
-2048 -2048 1:-0.892531 2:-0.865077 3:-0.895122 4:-0.872267 5:-0.87023 6:-0.970661 7:-0.999772 
0 -2048 1:-0.577544 2:-0.595008 3:-0.888342 4:-0.86684 5:-0.592875 6:-0.904559 7:-0.998948 
-2048 -2048 1:-0.806222 2:-0.828028 3:-0.908219 4:-0.880657 5:-0.825299 6:-0.956953 7:-0.999492 
0 -752.2092758398867 1:0.0926103 2:-0.357877 3:-0.765357 4:-0.673587 5:-0.286489 6:-0.721226 7:-0.996011 
-2048 -2048 1:-0.807028 2:-0.853224 3:-0.881713 4:-0.871763 5:-0.846609 6:-0.966847 7:-0.999644 
-2048 -2048 1:-0.869893 2:-0.879589 3:-0.874239 4:-0.850745 5:-0.878814 6:-0.966827 7:-0.999587 
-2048 -2048 1:-0.757186 2:-0.760382 3:-0.850898 4:-0.819108 5:-0.760597 6:-0.93173 7:-0.999288 
-1529.975627850886 -2048 1:-0.93002 2:-0.936602 3:-0.917087 4:-0.908732 5:-0.936348 6:-0.985656 7:-0.999816 
-2048 -2048 1:-0.93233 2:-0.942985 3:-0.908961 4:-0.885026 5:-0.942083 6:-0.983038 7:-0.999788 
-2048 -2048 1:-0.658656 2:-0.653014 3:-0.876208 4:-0.861601 5:-0.654596 6:-0.920235 7:-0.999117 
-2048 -2048 1:-0.868427 2:-0.884843 3:-0.91773 4:-0.910082 5:-0.882998 6:-0.974407 7:-0.999695 
-2048 -2048 1:-0.794682 2:-0.800237 3:-0.814157 4:-0.796663 5:-0.800091 6:-0.941406 7:-0.999323 
-2048 -2048 1:-0.895852 2:-0.907026 3:-0.864789 4:-0.849019 5:-0.906027 6:-0.976505 7:-0.999772 
