svm_type c_svc
kernel_type rbf
gamma 8
nr_class 3
total_sv 148
rho 1.44331 -0.488596 -3.03569
label 2 3 1
nr_sv 50 47 51
SV
3.971375982086695 128 1:-0.534007 2:-0.584894 3:-0.929286 4:-0.884841 5:-0.577419 6:-0.89949 7:-0.999046 
128 128 1:-0.894676 2:-0.898458 3:-0.94547 4:-0.93411 5:-0.898636 6:-0.98304 7:-0.999837 
128 0 1:-0.76452 2:-0.848432 3:-0.80901 4:-0.744701 5:-0.835792 6:-0.939313 7:-0.999321 
128 128 1:-0.806766 2:-0.817228 3:-0.842423 4:-0.8084 5:-0.816305 6:-0.945004 7:-0.999335 
128 128 1:-0.928304 2:-0.93989 3:-0.885923 4:-0.859412 5:-0.938839 6:-0.980525 7:-0.999754 
128 0 1:-0.614002 2:-0.727458 3:-0.836085 4:-0.783054 5:-0.71005 6:-0.908054 7:-0.998875 
13.08678009736457 128 1:-0.914409 2:-0.911529 3:-0.939798 4:-0.919525 5:-0.912776 6:-0.979544 7:-0.9998 
0 8.824700389932357 1:-0.536874 2:-0.819328 3:-0.758869 4:-0.656217 5:-0.774967 6:-0.885051 7:-0.999101 
0 128 1:-0.958443 2:-0.954461 3:-0.932483 4:-0.92026 5:-0.955902 6:-0.990012 7:-0.999866 
128 128 1:-0.770884 2:-0.793436 3:-0.88009 4:-0.860882 5:-0.790573 6:-0.948386 7:-0.999365 
72.74090561932125 128 1:-0.767644 2:-0.727494 3:-0.894882 4:-0.864254 5:-0.734617 6:-0.938163 7:-0.999471 
0 128 1:-0.920823 2:-0.915441 3:-0.918067 4:-0.902412 5:-0.917089 6:-0.98199 7:-0.999801 
0 128 1:-0.969813 2:-0.95963 3:-0.951679 4:-0.933946 5:-0.962063 6:-0.992835 7:-0.999923 
96.95708952291814 0 1:-0.781794 2:-0.825852 3:-0.754966 4:-0.68767 5:-0.819567 6:-0.92401 7:-0.999217 
128 128 1:-0.755361 2:-0.807701 3:-0.877387 4:-0.837824 5:-0.800087 6:-0.937299 7:-0.999422 
128 128 1:-0.794626 2:-0.810529 3:-0.851319 4:-0.825171 5:-0.808734 6:-0.94644 7:-0.999381 
0 128 1:-0.940303 2:-0.952272 3:-0.942405 4:-0.933549 5:-0.951164 6:-0.99097 7:-0.99989 
128 121.3905069769704 1:-0.669962 2:-0.672203 3:-0.886993 4:-0.870794 5:-0.672533 6:-0.928666 7:-0.999291 
128 128 1:-0.812799 2:-0.815777 3:-0.836051 4:-0.806842 5:-0.816049 6:-0.94573 7:-0.999316 
128 128 1:-0.802916 2:-0.848956 3:-0.938162 4:-0.931869 5:-0.842365 6:-0.975798 7:-0.999779 
128 16.37978900168317 1:-0.667537 2:-0.649556 3:-0.865806 4:-0.831002 5:-0.653107 6:-0.907352 7:-0.999082 
128 76.95665179730834 1:-0.680234 2:-0.740979 3:-0.879379 4:-0.842263 5:-0.731995 6:-0.927797 7:-0.999213 
128 93.84178773274172 1:-0.588639 2:-0.622716 3:-0.815639 4:-0.790003 5:-0.617942 6:-0.889551 7:-0.998636 
28.27722931966746 0 1:-0.725885 2:-0.836167 3:-0.782726 4:-0.704635 5:-0.81931 6:-0.916419 7:-0.998992 
70.77963912371237 0 1:-0.894737 2:-0.867683 3:-0.797985 4:-0.770503 5:-0.872773 6:-0.955012 7:-0.999496 
128 128 1:-0.972686 2:-0.968153 3:-0.91812 4:-0.894243 5:-0.969688 6:-0.98977 7:-0.99986 
39.77786738346124 0 1:-0.505145 2:-0.826351 3:-0.879537 4:-0.808446 5:-0.775803 6:-0.924114 7:-0.999356 
128 128 1:-0.858504 2:-0.878346 3:-0.871012 4:-0.844276 5:-0.87595 6:-0.964343 7:-0.999555 
0 128 1:-0.949976 2:-0.975508 3:-0.978621 4:-0.972163 5:-0.972244 6:-0.998316 7:-0.999975 
0 128 1:-0.946245 2:-0.912272 3:-0.958225 4:-0.931618 5:-0.918485 6:-0.982506 7:-0.999854 
128 128 1:-0.891953 2:-0.900141 3:-0.905443 4:-0.891074 5:-0.899615 6:-0.975709 7:-0.999706 
21.30097838624808 128 1:-0.854328 2:-0.857048 3:-0.885936 4:-0.853332 5:-0.857378 6:-0.961664 7:-0.999592 
10.41554731830644 6.43164512162601 1:-0.29342 2:-0.309579 3:-0.929131 4:-0.91697 5:-0.307537 6:-0.887313 7:-0.99921 
0 128 1:-0.972863 2:-0.950871 3:-0.972186 4:-0.957574 5:-0.955186 6:-0.991217 7:-0.999913 
6.686068018313538 1.250613273178294 1:-0.37098 2:-0.341238 3:-0.617751 4:-0.574976 5:-0.346541 6:-0.714047 7:-0.994464 
42.57051348060143 0 1:-0.818077 2:-0.868853 3:-0.766868 4:-0.705194 5:-0.861513 6:-0.938137 7:-0.999411 
121.6070328372404 128 1:-0.914706 2:-0.917326 3:-0.926391 4:-0.915449 5:-0.917697 6:-0.986941 7:-0.999907 
128 89.32536337274675 1:-0.924508 2:-0.909463 3:-0.847353 4:-0.825863 5:-0.912652 6:-0.973225 7:-0.999755 
128 128 1:-0.816416 2:-0.804677 3:-0.874717 4:-0.855379 5:-0.807295 6:-0.954403 7:-0.999569 
128 128 1:-0.797806 2:-0.834755 3:-0.877453 4:-0.869335 5:-0.829609 6:-0.961872 7:-0.999601 
128 128 1:-0.782487 2:-0.778542 3:-0.868159 4:-0.851989 5:-0.779904 6:-0.948635 7:-0.999506 
0 128 1:-0.929346 2:-0.931733 3:-0.944372 4:-0.928393 5:-0.932148 6:-0.987835 7:-0.999883 
128 128 1:-0.820894 2:-0.852589 3:-0.86213 4:-0.82029 5:-0.84829 6:-0.953845 7:-0.999515 
128 128 1:-0.86907 2:-0.889978 3:-0.899182 4:-0.870708 5:-0.887417 6:-0.968109 7:-0.99964 
128 128 1:-0.868833 2:-0.891996 3:-0.844541 4:-0.831677 5:-0.889076 6:-0.968674 7:-0.999568 
128 128 1:-0.865905 2:-0.890649 3:-0.869471 4:-0.854429 5:-0.887476 6:-0.970581 7:-0.999638 
93.4665850634738 128 1:-0.930783 2:-0.934091 3:-0.923406 4:-0.911613 5:-0.934359 6:-0.98959 7:-0.999932 
128 128 1:-0.885623 2:-0.894976 3:-0.894943 4:-0.87505 5:-0.894262 6:-0.972031 7:-0.999646 
0 128 1:-0.915775 2:-0.906397 3:-0.961367 4:-0.94764 5:-0.908679 6:-0.985736 7:-0.999879 
128 80.52861782271702 1:-0.801364 2:-0.860154 3:-0.827728 4:-0.788598 5:-0.851531 6:-0.950449 7:-0.999353 
-72.8765495399909 50.32251154093142 1:-0.986112 2:-0.995055 3:-0.89252 4:-0.862717 5:-0.994448 6:-0.993404 7:-0.999876 
-128 0 1:-0.827309 2:-0.891748 3:-0.83377 4:-0.789154 5:-0.882235 6:-0.957128 7:-0.999436 
-128 128 1:-0.71627 2:-0.75997 3:-0.895148 4:-0.881471 5:-0.753715 6:-0.953525 7:-0.999617 
-128 128 1:-0.883049 2:-0.865764 3:-0.905854 4:-0.85808 5:-0.869293 6:-0.964192 7:-0.99972 
-23.53908765976233 1.210358210924496 1:-0.503574 2:-0.552454 3:-0.807015 4:-0.764806 5:-0.545287 6:-0.857336 7:-0.998304 
-103.0263875828239 0 1:-0.66791 2:-0.611033 3:-0.855778 4:-0.833553 5:-0.62078 6:-0.898226 7:-0.999175 
-5.943668246810495 0 1:-0.315467 2:-0.561968 3:-0.798849 4:-0.737156 5:-0.523243 6:-0.811582 7:-0.997895 
-128 128 1:-0.822876 2:-0.806397 3:-0.831871 4:-0.807663 5:-0.809773 6:-0.945054 7:-0.999487 
-1.790505122889321 0 1:-0.208831 2:-0.242691 3:-0.481875 4:-0.422354 5:-0.237795 6:-0.570664 7:-0.989965 
0 6.923259506421037 1:-0.600544 2:-0.573307 3:-0.551775 4:-0.49392 5:-0.578305 6:-0.76965 7:-0.996705 
-128 128 1:-0.941586 2:-0.922816 3:-0.862946 4:-0.840099 5:-0.926605 6:-0.977691 7:-0.999806 
-128 128 1:-0.798282 2:-0.823659 3:-0.910182 4:-0.900482 5:-0.820357 6:-0.970248 7:-0.999804 
-34.14426085523802 9.554803665261533 1:-0.625706 2:-0.739009 3:-0.850719 4:-0.834522 5:-0.72163 6:-0.925122 7:-0.998764 
0 2.263682716100934 1:-0.683133 2:-0.688321 3:-0.607968 4:-0.527229 5:-0.688188 6:-0.830946 7:-0.998809 
-128 128 1:-0.902874 2:-0.909731 3:-0.901328 4:-0.879503 5:-0.909422 6:-0.974487 7:-0.999711 
-128 128 1:-0.72363 2:-0.759565 3:-0.876106 4:-0.845608 5:-0.754551 6:-0.935305 7:-0.999188 
-128 128 1:-0.912365 2:-0.91335 3:-0.866896 4:-0.8519 5:-0.913981 6:-0.978501 7:-0.999808 
-128 128 1:-0.925042 2:-0.923022 3:-0.913643 4:-0.898236 5:-0.924136 6:-0.9826 7:-0.999791 
-128 128 1:-0.912644 2:-0.928982 3:-0.963015 4:-0.953745 5:-0.927167 6:-0.990385 7:-0.999919 
-128 128 1:-0.823507 2:-0.836901 3:-0.866429 4:-0.849021 5:-0.835518 6:-0.956468 7:-0.999501 
-1.722427713024751 0 1:-0.724578 2:-0.776288 3:-0.662966 4:-0.584465 5:-0.768761 6:-0.878782 7:-0.998427 
-128 38.45436723251212 1:-0.858007 2:-0.873803 3:-0.828712 4:-0.797625 5:-0.872051 6:-0.957149 7:-0.999468 
-2.620752671879558 0 1:-0.192056 2:-0.171257 3:-0.841322 4:-0.806098 5:-0.175061 6:-0.777424 7:-0.997564 
-37.08653543550298 29.9222337969205 1:-0.750188 2:-0.744378 3:-0.791432 4:-0.760935 5:-0.746024 6:-0.919385 7:-0.999173 
-128 128 1:-0.843185 2:-0.866851 3:-0.851908 4:-0.821259 5:-0.86384 6:-0.957319 7:-0.999481 
-0.2344176445956863 5.155629616674332 1:-0.504478 2:-0.539621 3:-0.396278 4:-0.344853 5:-0.534643 6:-0.683349 7:-0.99153 
-128 128 1:-0.802831 2:-0.815708 3:-0.910027 4:-0.889725 5:-0.814399 6:-0.956565 7:-0.999477 
-128 36.48293846363325 1:-0.716002 2:-0.773256 3:-0.821654 4:-0.78328 5:-0.764842 6:-0.92529 7:-0.999005 
-128 128 1:-0.743386 2:-0.761739 3:-0.832002 4:-0.800844 5:-0.759534 6:-0.926058 7:-0.999184 
-128 128 1:-0.880404 2:-0.890079 3:-0.93351 4:-0.919177 5:-0.889312 6:-0.982666 7:-0.999871 
0 32.71484594163922 1:-0.358552 2:-0.442386 3:-0.796044 4:-0.760528 5:-0.429591 6:-0.813346 7:-0.99738 
-85.18581541846412 109.5150914033597 1:-0.661662 2:-0.590554 3:-0.886443 4:-0.8606 5:-0.602566 6:-0.911783 7:-0.999343 
-128 0 1:-0.781791 2:-0.850643 3:-0.809426 4:-0.778267 5:-0.840409 6:-0.944597 7:-0.999118 
-59.74096952871311 0 1:-0.716691 2:-0.797589 3:-0.770549 4:-0.724335 5:-0.78541 6:-0.916558 7:-0.998648 
-128 0 1:-0.822902 2:-0.852157 3:-0.748028 4:-0.714929 5:-0.848248 6:-0.937742 7:-0.999196 
-4.187783429537947 2.977475492645635 1:-0.244425 2:-0.345033 3:-0.847915 4:-0.832128 5:-0.329519 6:-0.851227 7:-0.998774 
-128 128 1:-0.919821 2:-0.941298 3:-0.900945 4:-0.889403 5:-0.938668 6:-0.984273 7:-0.999777 
-128 128 1:-0.826411 2:-0.85918 3:-0.849333 4:-0.835268 5:-0.854712 6:-0.95974 7:-0.999447 
-53.03515160452143 128 1:-0.767796 2:-0.896612 3:-0.877141 4:-0.820886 5:-0.87682 6:-0.957263 7:-0.999493 
-128 56.21760040417588 1:-0.614088 2:-0.681842 3:-0.819482 4:-0.796498 5:-0.671714 6:-0.903697 7:-0.998661 
-128 128 1:-0.868314 2:-0.886293 3:-0.878612 4:-0.844556 5:-0.884198 6:-0.965206 7:-0.999547 
-128 0 1:-0.597366 2:-0.757458 3:-0.88004 4:-0.824529 5:-0.732613 6:-0.925823 7:-0.999202 
-128 128 1:-0.785882 2:-0.786983 3:-0.894322 4:-0.865476 5:-0.787543 6:-0.947251 7:-0.999399 
-128 128 1:-0.850857 2:-0.865064 3:-0.89277 4:-0.864812 5:-0.863563 6:-0.963519 7:-0.999574 
-0.3688145542728554 0 1:-0.519227 2:-0.555452 3:-0.638676 4:-0.544718 5:-0.550307 6:-0.766854 7:-0.998075 
-128 128 1:-0.819653 2:-0.823556 3:-0.896994 4:-0.879595 5:-0.823684 6:-0.957663 7:-0.999497 
-8.134485144687869 63.49213339366984 1:-0.769683 2:-0.817105 3:-0.805512 4:-0.787517 5:-0.81028 6:-0.939717 7:-0.999163 
-111.4775199743327 -128 1:-0.833535 2:-0.864173 3:-0.899674 4:-0.869525 5:-0.860048 6:-0.961542 7:-0.999589 
0 -3.627045201597856 1:-0.991404 2:-0.999595 3:-0.935168 4:-0.929328 5:-0.99911 6:-0.998733 7:-0.999951 
0 -37.57960142586943 1:-1 2:-0.997609 3:-0.95158 4:-0.93667 5:-0.998814 6:-0.997624 7:-0.99995 
-128 -85.02210233321253 1:-0.901961 2:-0.902549 3:-0.900689 4:-0.87904 5:-0.903239 6:-0.976107 7:-0.99972 
-128 -128 1:-0.870253 2:-0.881698 3:-0.907359 4:-0.875752 5:-0.880645 6:-0.96776 7:-0.999663 
-20.04664399845753 0 1:-0.95406 2:-0.976904 3:-0.97336 4:-0.967932 5:-0.974069 6:-0.997852 7:-0.999969 
-128 -128 1:-0.731667 2:-0.750133 3:-0.816623 4:-0.774951 5:-0.747904 6:-0.918205 7:-0.999143 
-4.888290685893995 0 1:-0.903364 2:-0.88122 3:-0.936137 4:-0.917058 5:-0.885531 6:-0.976484 7:-0.999754 
-128 0 1:-0.965303 2:-0.952638 3:-0.938408 4:-0.927224 5:-0.955465 6:-0.989783 7:-0.99986 
-128 -128 1:-0.928212 2:-0.92784 3:-0.910904 4:-0.88734 5:-0.928693 6:-0.980939 7:-0.999792 
-128 -128 1:-0.901168 2:-0.920104 3:-0.879403 4:-0.869038 5:-0.917871 6:-0.977231 7:-0.999675 
-31.06088051544031 0 1:-0.820269 2:-0.824601 3:-0.910553 4:-0.896191 5:-0.82466 6:-0.961169 7:-0.999549 
-128 -128 1:-0.679237 2:-0.708968 3:-0.85308 4:-0.820314 5:-0.704923 6:-0.918827 7:-0.999033 
-35.22158179081261 0 1:-0.881826 2:-0.891565 3:-0.968605 4:-0.959422 5:-0.890789 6:-0.98346 7:-0.999871 
-128 0 1:-0.927897 2:-0.91276 3:-0.929789 4:-0.909188 5:-0.915965 6:-0.980314 7:-0.999777 
-35.8207072429037 0 1:-0.531962 2:-0.563658 3:-0.926914 4:-0.914873 5:-0.55924 6:-0.922173 7:-0.999285 
-128 -128 1:-0.872663 2:-0.900207 3:-0.872474 4:-0.858935 5:-0.896591 6:-0.972955 7:-0.999665 
-128 -128 1:-0.761712 2:-0.81457 3:-0.862807 4:-0.834762 5:-0.806876 6:-0.946071 7:-0.999312 
-29.74413208069964 -75.79365501713698 1:-0.792669 2:-0.769987 3:-0.933248 4:-0.91252 5:-0.774339 6:-0.955614 7:-0.9996 
-128 -128 1:-0.800763 2:-0.805922 3:-0.880352 4:-0.845953 5:-0.805841 6:-0.94762 7:-0.999435 
-128 -128 1:-0.727993 2:-0.717683 3:-0.903608 4:-0.883094 5:-0.720037 6:-0.938093 7:-0.999366 
-128 0 1:-0.838815 2:-0.847066 3:-0.900593 4:-0.886463 5:-0.846509 6:-0.965232 7:-0.999626 
-128 0 1:-0.932924 2:-0.943691 3:-0.969891 4:-0.961667 5:-0.942771 6:-0.992483 7:-0.999929 
0 -78.63791444956777 1:-0.780362 2:-0.817748 3:-0.969977 4:-0.963226 5:-0.812525 6:-0.980557 7:-0.999899 
0 -37.31278486916487 1:-0.406929 2:-0.407701 3:-0.809195 4:-0.787081 5:-0.408157 6:-0.837303 7:-0.998262 
-84.3920871122898 0 1:-0.960136 2:-0.945741 3:-0.932532 4:-0.912999 5:-0.948841 6:-0.985973 7:-0.999826 
-128 -118.8186509760194 1:-0.962772 2:-0.953992 3:-0.924537 4:-0.908946 5:-0.956199 6:-0.989655 7:-0.99988 
0 -1.79880147253967 1:-0.670825 2:-0.665735 3:-0.449706 4:-0.389155 5:-0.667234 6:-0.786643 7:-0.996454 
-128 -128 1:-0.898667 2:-0.890224 3:-0.892675 4:-0.870753 5:-0.892351 6:-0.973485 7:-0.999747 
-2.534103012025305 -15.15172891172244 1:-0.533949 2:-0.617348 3:-0.512426 4:-0.421515 5:-0.604695 6:-0.753006 7:-0.995933 
-128 -128 1:-0.829307 2:-0.896791 3:-0.848164 4:-0.801403 5:-0.886794 6:-0.95543 7:-0.999576 
-128 -128 1:-0.896855 2:-0.888107 3:-0.89354 4:-0.874911 5:-0.890281 6:-0.972538 7:-0.999731 
-72.63237352942565 0 1:-0.925714 2:-0.91337 3:-0.94253 4:-0.92291 5:-0.916129 6:-0.982686 7:-0.99982 
-53.69793231267295 0 1:-0.474979 2:-0.564511 3:-0.87762 4:-0.837687 5:-0.550856 6:-0.882282 7:-0.998698 
-128 -128 1:-0.830645 2:-0.83672 3:-0.869012 4:-0.852718 5:-0.836506 6:-0.958241 7:-0.999524 
-128 -76.14427364998203 1:-0.577544 2:-0.595008 3:-0.888342 4:-0.86684 5:-0.592875 6:-0.904559 7:-0.998948 
-128 -108.9879911673337 1:-0.834184 2:-0.845162 3:-0.881005 4:-0.8727 5:-0.844168 6:-0.970605 7:-0.999832 
-128 0 1:-0.967685 2:-0.961374 3:-0.959083 4:-0.94244 5:-0.963189 6:-0.992825 7:-0.999921 
-103.6818078914319 0 1:-0.772854 2:-0.748265 3:-0.941627 4:-0.921783 5:-0.752912 6:-0.952047 7:-0.999564 
-44.71221677441422 -26.53873824746446 1:-0.84753 2:-0.941857 3:-1 4:-1 5:-0.927592 6:-0.998187 7:-1 
-128 -128 1:-0.807028 2:-0.853224 3:-0.881713 4:-0.871763 5:-0.846609 6:-0.966847 7:-0.999644 
-128 -128 1:-0.869893 2:-0.879589 3:-0.874239 4:-0.850745 5:-0.878814 6:-0.966827 7:-0.999587 
-128 -128 1:-0.781512 2:-0.850741 3:-0.874772 4:-0.839349 5:-0.840447 6:-0.953404 7:-0.999443 
-128 0 1:-0.962551 2:-0.959973 3:-0.959735 4:-0.948937 5:-0.961192 6:-0.992569 7:-0.999918 
-128 -128 1:-0.757186 2:-0.760382 3:-0.850898 4:-0.819108 5:-0.760597 6:-0.93173 7:-0.999288 
-128 0 1:-0.905846 2:-0.899027 3:-0.904473 4:-0.888206 5:-0.900898 6:-0.977292 7:-0.99979 
-128 -128 1:-0.794682 2:-0.800237 3:-0.814157 4:-0.796663 5:-0.800091 6:-0.941406 7:-0.999323 
-121.0193985681037 0 1:-0.972327 2:-0.96355 3:-0.941811 4:-0.924697 5:-0.96576 6:-0.991979 7:-0.999897 
-128 0 1:-0.947921 2:-0.970716 3:-0.979335 4:-0.973366 5:-0.967887 6:-0.997276 7:-0.999967 
-128 -35.79364366325861 1:-0.935132 2:-0.898052 3:-0.945028 4:-0.917121 5:-0.904756 6:-0.975553 7:-0.999743 
-128 -128 1:-0.895852 2:-0.907026 3:-0.864789 4:-0.849019 5:-0.906027 6:-0.976505 7:-0.999772 
