svm_type c_svc
kernel_type rbf
gamma 0.03125
nr_class 3
total_sv 171
rho 2.20291 -4.03708 -7.54983
label 3 1 2
nr_sv 46 57 68
SV
32 32 1:-0.422316 2:-0.487939 3:-0.8973 4:-0.875808 5:-0.473495 6:-0.898026 7:-0.983541 
0 32 1:0.12957 2:0.162825 3:-0.0167265 4:-0.0239113 5:0.155505 6:-0.259144 7:-0.724836 
9.644641429995639 32 1:-0.169082 2:0.00241695 3:0.530193 4:0.467466 5:-0.0353305 6:-0.133294 7:-0.582501 
32 32 1:-0.163108 2:-0.0614213 3:-0.303741 4:-0.303155 5:-0.0838027 6:-0.504857 7:-0.854595 
32 32 1:-0.29462 2:-0.0777568 3:-0.649773 4:-0.643655 5:-0.125489 6:-0.676321 7:-0.922271 
32 32 1:0.0310503 2:0.090145 3:-0.203254 4:-0.149348 5:0.0771381 6:-0.354525 7:-0.793349 
32 32 1:-0.0937058 2:0.074832 3:-0.265402 4:-0.291252 5:0.0377363 6:-0.481625 7:-0.866344 
32 32 1:0.48504 2:0.634231 3:-0.474395 4:-0.504674 5:0.601394 6:-0.38062 7:-0.839839 
0 32 1:0.323047 2:0.55597 3:-0.0358508 4:-0.0400412 5:0.504703 6:-0.0945741 7:-0.659687 
32 32 1:-0.302207 2:-0.322814 3:-0.544424 4:-0.571749 5:-0.318278 6:-0.747332 7:-0.937546 
0 16.51070825618777 1:0.475068 2:0.561744 3:0.209642 4:0.147113 5:0.542667 6:0.0515589 7:-0.340009 
32 32 1:-0.165743 2:-0.218303 3:-0.120439 4:-0.078949 5:-0.206734 6:-0.446307 7:-0.805361 
32 32 1:-0.854937 2:-0.871463 3:-0.719398 4:-0.731496 5:-0.867826 6:-0.93914 7:-0.975476 
32 32 1:-0.425712 2:-0.111735 3:-0.661903 4:-0.615839 5:-0.180842 6:-0.677399 7:-0.937604 
32 32 1:-0.378788 2:-0.134131 3:-0.135918 4:-0.169677 5:-0.187981 6:-0.535957 7:-0.907905 
9.258062042509129 0 1:1 2:1 3:1 4:1 5:1 6:1 7:1 
32 32 1:-0.147587 2:0.0785402 3:-0.279277 4:-0.293196 5:0.0287689 6:-0.490957 7:-0.871229 
32 32 1:0.217275 2:0.0757163 3:-0.511797 4:-0.400662 5:0.106874 6:-0.468647 7:-0.853497 
32 32 1:0.124545 2:0.168147 3:-0.678459 4:-0.70974 5:0.15855 6:-0.612987 7:-0.913325 
32 32 1:0.110998 2:0.422922 3:-0.568528 4:-0.578752 5:0.354267 6:-0.475391 7:-0.870939 
32 32 1:0.0216123 2:-0.0827988 3:-0.850922 4:-0.849289 5:-0.0598176 6:-0.831832 7:-0.977905 
0 32 1:0.111555 2:0.200139 3:-0.16926 4:-0.0930273 5:0.180641 6:-0.250626 7:-0.76947 
3.907095866521751 32 1:0.225955 2:0.696814 3:-0.312412 4:-0.297464 5:0.593177 6:-0.232397 7:-0.800402 
32 32 1:-0.0773261 2:0.27459 3:-0.358556 4:-0.316482 5:0.197133 6:-0.363575 7:-0.831871 
32 32 1:-0.515109 2:-0.348428 3:-0.742028 4:-0.725632 5:-0.385115 6:-0.790437 7:-0.952669 
9.041874424243826 32 1:0.54873 2:-0.272332 3:-0.607279 4:-0.419931 5:-0.0916135 6:-0.422684 7:-0.891657 
32 32 1:-0.341489 2:-0.0716832 3:-0.482882 4:-0.465282 5:-0.131068 6:-0.599452 7:-0.913801 
32 32 1:0.0455913 2:0.73568 3:-0.656109 4:-0.61625 5:0.58379 6:-0.506023 7:-0.941438 
0 32 1:0.200992 2:0.283916 3:-0.0812455 4:-0.114939 5:0.265664 6:-0.252942 7:-0.629462 
32 32 1:-0.191646 2:-0.0850513 3:-0.676657 4:-0.599354 5:-0.108513 6:-0.608331 7:-0.906849 
32 32 1:-0.708454 2:-0.569453 3:-0.718784 4:-0.729093 5:-0.600048 6:-0.837156 7:-0.95279 
32 32 1:-0.00305495 2:-0.0782489 3:0.160362 4:0.0546685 5:-0.0616985 6:-0.342723 7:-0.651013 
0 32 1:0.0541469 2:0.518156 3:0.0867015 4:0.0410258 5:0.416026 6:-0.118238 7:-0.79241 
32 32 1:0.135398 2:0.230582 3:-0.247761 4:-0.279262 5:0.209632 6:-0.368825 7:-0.777111 
32 32 1:0.0450875 2:0.0806458 3:-0.510814 4:-0.397381 5:0.0728193 6:-0.473513 7:-0.861907 
32 32 1:0.0144813 2:0.470115 3:-0.280573 4:-0.254483 5:0.369828 6:-0.290502 7:-0.83699 
32 32 1:0.145478 2:0.222873 3:-0.23734 4:-0.20564 5:0.205838 6:-0.32539 7:-0.790816 
32 32 1:-0.229539 2:-0.208609 3:0.225069 4:0.130947 5:-0.213216 6:-0.403537 7:-0.711809 
0 32 1:0.359817 2:0.0795343 3:-0.310129 4:-0.103542 5:0.141225 6:-0.288106 7:-0.841489 
32 32 1:0.311565 2:0.169194 3:-0.41829 4:-0.346901 5:0.20053 6:-0.389201 7:-0.787585 
32 32 1:0.217896 2:0.288653 3:-0.297361 4:-0.353388 5:0.273079 6:-0.390156 7:-0.781237 
32 32 1:-0.0990826 2:-0.151834 3:-0.810275 4:-0.809104 5:-0.140223 6:-0.810836 7:-0.970238 
32 32 1:-0.285809 2:-0.133848 3:-0.619305 4:-0.626489 5:-0.167295 6:-0.679702 7:-0.926489 
32 32 1:-0.589641 2:-0.454838 3:-0.739306 4:-0.719239 5:-0.484509 6:-0.819245 7:-0.957513 
0 32 1:-0.155507 2:-0.0460695 3:0.346727 4:0.379322 5:-0.0701569 6:-0.192282 7:-0.703561 
32 32 1:-0.0363498 2:0.117981 3:-0.59851 4:-0.606079 5:0.0840123 6:-0.584467 7:-0.891206 
-32 32 1:0.0701147 2:0.466433 3:0.293728 4:0.233219 5:0.379202 6:-0.0745186 7:-0.764337 
-32 32 1:-0.379817 2:-0.225068 3:-0.518441 4:-0.520238 5:-0.259128 6:-0.667143 7:-0.911327 
0 32 1:-0.681366 2:-0.573829 3:-0.860728 4:-0.838594 5:-0.597498 6:-0.887745 7:-0.977165 
-32 32 1:0.881602 2:0.613589 3:-0.446647 4:-0.490732 5:0.67258 6:-0.360077 7:-0.812287 
0 32 1:-0.567208 2:-0.492026 3:-0.761889 4:-0.747738 5:-0.508574 6:-0.862689 7:-0.971985 
0 32 1:-0.631517 2:-0.590806 3:-0.631115 4:-0.614049 5:-0.599766 6:-0.837565 7:-0.957757 
-32 32 1:-0.366968 2:-0.120363 3:-0.784845 4:-0.753814 5:-0.174642 6:-0.755153 7:-0.958531 
-32 32 1:-0.162698 2:0.0461647 3:-0.518029 4:-0.537119 5:0.000193378 6:-0.611735 7:-0.916123 
0 32 1:-0.517583 2:-0.322509 3:-0.777743 4:-0.740288 5:-0.365445 6:-0.789396 7:-0.95725 
0 32 1:-0.703063 2:-0.687074 3:-0.65135 4:-0.611446 5:-0.690593 6:-0.826581 7:-0.958572 
-32 32 1:-0.305629 2:-0.221509 3:-0.0219099 4:-0.0567907 5:-0.240024 6:-0.504892 7:-0.836578 
-32 32 1:-0.453928 2:-0.419052 3:-0.399376 4:-0.382755 5:-0.426729 6:-0.676466 7:-0.908138 
-32 32 1:-0.3282 2:-0.245655 3:-0.831469 4:-0.828798 5:-0.263823 6:-0.795573 7:-0.961334 
-31.85167376327034 32 1:-0.483412 2:-0.419454 3:-0.684788 4:-0.684808 5:-0.433531 6:-0.783606 7:-0.945614 
0 32 1:-0.597722 2:-0.599577 3:-0.806348 4:-0.794643 5:-0.599169 6:-0.892086 7:-0.978494 
-32 32 1:-0.316617 2:-0.240283 3:-0.766909 4:-0.755485 5:-0.257084 6:-0.789861 7:-0.962084 
-32 32 1:-0.0794047 2:0.151872 3:-0.539147 4:-0.515441 5:0.100967 6:-0.505908 7:-0.85979 
-32 32 1:-0.460241 2:-0.473282 3:-0.528 4:-0.547148 5:-0.470411 6:-0.760901 7:-0.92852 
-32 31.83814308508478 1:0.278586 2:0.609849 3:0.961819 4:0.934567 5:0.536937 6:0.57282 7:0.155356 
0 32 1:-0.518055 2:-0.37385 3:-0.795612 4:-0.766119 5:-0.40559 6:-0.844697 7:-0.97491 
0 32 1:-0.552732 2:-0.369309 3:-0.679846 4:-0.653366 5:-0.409681 6:-0.765907 7:-0.942114 
0 32 1:-0.247384 2:-0.395782 3:-0.868295 4:-0.863641 5:-0.36312 6:-0.896196 7:-0.984399 
0 32 1:-0.641242 2:-0.289282 3:-0.858584 4:-0.794529 5:-0.366749 6:-0.781513 7:-0.959834 
-32 1.285254272494961 1:-0.0670093 2:-0.356058 3:-0.936845 4:-0.93716 5:-0.292438 6:-0.929907 7:-0.993404 
0 4.040691560193073 1:-0.749594 2:-0.725816 3:-0.805107 4:-0.772293 5:-0.731049 6:-0.929677 7:-0.98161 
0 32 1:-0.562067 2:-0.318032 3:-0.820341 4:-0.755436 5:-0.371745 6:-0.767255 7:-0.961395 
-32 32 1:-0.0217519 2:0.0161509 3:-0.656034 4:-0.661258 5:0.00780837 6:-0.672134 7:-0.934045 
-32 32 1:-0.17767 2:-0.0204445 3:-0.607025 4:-0.611396 5:-0.0550502 6:-0.643835 7:-0.918536 
-32 32 1:-0.398302 2:-0.22658 3:-0.722458 4:-0.715209 5:-0.264376 6:-0.752695 7:-0.943606 
0 32 1:-0.40863 2:-0.481821 3:-0.764751 4:-0.776182 5:-0.465711 6:-0.861607 7:-0.970079 
-32 32 1:0.350053 2:0.378145 3:-0.34198 4:-0.439418 5:0.371962 6:-0.367242 7:-0.762201 
-32 32 1:-0.147551 2:0.0287553 3:-0.370641 4:-0.338534 5:-0.0100502 6:-0.482765 7:-0.860526 
0 32 1:-0.218042 2:-0.270614 3:-0.91082 4:-0.897692 5:-0.259043 6:-0.885672 7:-0.986343 
-32 32 1:-0.424624 2:-0.303461 3:-0.690461 4:-0.684682 5:-0.33013 6:-0.78131 7:-0.954377 
-32 32 1:0.0262947 2:0.109172 3:0.227936 4:0.218398 5:0.0909304 6:-0.181946 7:-0.647942 
-32 32 1:-0.0466181 2:0.188512 3:-0.568494 4:-0.564766 5:0.136759 6:-0.570637 7:-0.904647 
0 32 1:-0.605347 2:-0.625478 3:-0.827015 4:-0.829139 5:-0.621047 6:-0.919142 7:-0.980875 
-32 32 1:-0.277725 2:-0.169185 3:-0.657749 4:-0.65769 5:-0.193075 6:-0.729084 7:-0.944864 
0 32 1:-0.458376 2:-0.409467 3:-0.82625 4:-0.818653 5:-0.420232 6:-0.849539 7:-0.970494 
-32 32 1:-0.447965 2:-0.414386 3:-0.511697 4:-0.445122 5:-0.421777 6:-0.696712 7:-0.91594 
-32 32 1:-0.202007 2:-0.0287814 3:-0.605108 4:-0.607869 5:-0.0669089 6:-0.624407 7:-0.897353 
-32 32 1:-0.105618 2:0.0136781 3:-0.263517 4:-0.282596 5:-0.0125794 6:-0.478705 7:-0.86366 
-32 32 1:-0.458161 2:-0.612914 3:-0.173215 4:-0.2343 5:-0.578852 6:-0.702233 7:-0.882567 
0 32 1:-0.496008 2:-0.546705 3:-0.834931 4:-0.830473 5:-0.535546 6:-0.890588 7:-0.977278 
-32 32 1:0.0918368 2:0.412007 3:-0.293523 4:-0.309633 5:0.341536 6:-0.343099 7:-0.827109 
0 32 1:-0.418741 2:-0.387201 3:-0.870968 4:-0.853881 5:-0.394143 6:-0.855849 7:-0.974587 
-32 32 1:-0.196189 2:0.127222 3:-0.649484 4:-0.625709 5:0.0560385 6:-0.605793 7:-0.907861 
-32 32 1:0.254437 2:0.519218 3:-0.2722 4:-0.302066 5:0.460939 6:-0.353109 7:-0.888331 
-32 32 1:0.0924378 2:0.238731 3:-0.612733 4:-0.622118 5:0.206531 6:-0.558218 7:-0.895774 
0 32 1:-0.680618 2:-0.493645 3:-0.770083 4:-0.693515 5:-0.534799 6:-0.827057 7:-0.963803 
0 32 1:-0.574063 2:-0.53165 3:-0.867456 4:-0.840615 5:-0.540985 6:-0.889549 7:-0.977688 
-32 32 1:-0.152454 2:0.10828 3:-0.448433 4:-0.464626 5:0.0508919 6:-0.540966 7:-0.890914 
0 32 1:-0.574762 2:-0.430681 3:-0.791196 4:-0.754622 5:-0.462394 6:-0.829204 7:-0.965089 
-32 32 1:-0.117913 2:0.114138 3:-0.499624 4:-0.517339 5:0.0630627 6:-0.56581 7:-0.888195 
-32 32 1:0.408126 2:0.701543 3:-0.422584 4:-0.442225 5:0.636961 6:-0.325334 7:-0.823399 
0 32 1:-0.376231 2:-0.419684 3:-0.884027 4:-0.884228 5:-0.41012 6:-0.880168 7:-0.979013 
-32 32 1:-0.39035 2:-0.269993 3:-0.604194 4:-0.596807 5:-0.296484 6:-0.71175 7:-0.922238 
-32 -32 1:-0.11965 2:-0.269713 3:-0.242725 4:-0.139866 5:-0.236683 6:-0.474902 7:-0.838057 
0 -32 1:-0.719574 2:-0.440696 3:-0.759294 4:-0.726854 5:-0.502078 6:-0.802026 7:-0.9505 
-32 0 1:0.142677 2:0.29757 3:-0.093456 4:-0.09619 5:0.263478 6:-0.208543 7:-0.719561 
0 -32 1:-0.562284 2:-0.107113 3:-0.655861 4:-0.593681 5:-0.207298 6:-0.7204 7:-0.971488 
-27.10417634055568 -32 1:-0.871832 2:-0.898812 3:-0.946893 4:-0.947032 5:-0.892873 6:-0.991146 7:-0.993961 
0 -32 1:-0.641747 2:-0.675807 3:-0.555213 4:-0.527494 5:-0.66831 6:-0.817015 7:-0.94534 
-32 -32 1:-0.292917 2:-0.0958885 3:-0.529187 4:-0.506475 5:-0.139255 6:-0.6168 7:-0.9102 
-32 0 1:0.202522 2:0.264179 3:0.147093 4:0.198297 5:0.250608 6:-0.0714244 7:-0.62079 
-32 0 1:0.150695 2:0.332627 3:-0.416922 4:-0.376368 5:0.292583 6:-0.365619 7:-0.811785 
0 -32 1:-0.615559 2:-0.494423 3:-0.670294 4:-0.670081 5:-0.521085 6:-0.798264 7:-0.94474 
-32 -32 1:0.040551 2:-0.303113 3:-0.555654 4:-0.443544 5:-0.227471 6:-0.558854 7:-0.902194 
0 -32 1:-0.697076 2:-0.615498 3:-0.796393 4:-0.776314 5:-0.633453 6:-0.892955 7:-0.974722 
-32 -4.996028605015343 1:-0.142293 2:-0.0770066 3:-0.319943 4:-0.261178 5:-0.0913762 6:-0.489195 7:-0.847902 
-32 -32 1:-0.160688 2:0.0332403 3:-0.467776 4:-0.42474 5:-0.00944381 6:-0.500863 7:-0.876252 
-32 -32 1:-0.0187392 2:0.309797 3:-0.52287 4:-0.504875 5:0.237485 6:-0.497159 7:-0.887642 
-32 0 1:-0.26711 2:-0.131601 3:0.323711 4:0.287357 5:-0.161427 6:-0.307781 7:-0.733049 
-32 -32 1:0.476948 2:0.578327 3:-0.34735 4:-0.400523 5:0.556013 6:-0.289521 7:-0.782026 
-1.088721624463173 -32 1:-0.382444 2:-0.101025 3:-0.539027 4:-0.48848 5:-0.162966 6:-0.640721 7:-0.925937 
-20.31781029116893 -32 1:-0.309291 2:-0.273842 3:-0.349596 4:-0.338493 5:-0.281644 6:-0.586735 7:-0.856124 
-32 0 1:0.088479 2:0.187343 3:-0.303966 4:-0.30346 5:0.165583 6:-0.396797 7:-0.798147 
-32 -32 1:-0.103763 2:-0.161616 3:-0.120488 4:-0.124778 5:-0.148882 6:-0.451673 7:-0.812592 
-32 -22.92609490559136 1:0.335046 2:0.4137 3:-0.205865 4:-0.204809 5:0.396388 6:-0.221839 7:-0.724239 
-32 -32 1:-0.347006 2:-0.340758 3:-0.74204 4:-0.749192 5:-0.342133 6:-0.818432 7:-0.963804 
0 -32 1:-0.463976 2:-0.383041 3:-0.544233 4:-0.537504 5:-0.400855 6:-0.745195 7:-0.936545 
-32 -32 1:-0.392813 2:-0.17768 3:-0.677729 4:-0.586112 5:-0.225031 6:-0.660016 7:-0.928284 
-32 -32 1:-0.079738 2:-0.238738 3:-0.841847 4:-0.853471 5:-0.203742 6:-0.827727 7:-0.972493 
0 -32 1:-0.475627 2:-0.480756 3:-0.851479 4:-0.854412 5:-0.479627 6:-0.883715 7:-0.977605 
0 -32 1:-0.451205 2:-0.278292 3:-0.740901 4:-0.705084 5:-0.316351 6:-0.760389 7:-0.94688 
-32 0 1:-0.308181 2:-0.14931 3:0.1334 4:0.113504 5:-0.184278 6:-0.398346 7:-0.80045 
-32 -32 1:-0.394848 2:0.0779802 3:-0.69747 4:-0.634394 5:-0.0260907 6:-0.631125 7:-0.926218 
-32 -32 1:-0.318945 2:-0.273187 3:-0.455983 4:-0.44298 5:-0.283258 6:-0.64264 7:-0.89611 
-32 0 1:0.145826 2:0.314068 3:-0.0965865 4:-0.131282 5:0.277037 6:-0.267233 7:-0.760082 
0 -32 1:-0.420774 2:-0.149235 3:-0.747555 4:-0.696508 5:-0.209002 6:-0.729354 7:-0.946594 
-32 -32 1:0.223303 2:0.25006 3:-0.436572 4:-0.466407 5:0.244171 6:-0.429008 7:-0.815565 
-32 -32 1:0.220592 2:0.23426 3:-0.297188 4:-0.333669 5:0.231252 6:-0.422876 7:-0.786296 
-32 0 1:-0.0592908 2:-0.0796659 3:0.370772 4:0.370829 5:-0.0751813 6:-0.198315 7:-0.631561 
0 -32 1:-0.67748 2:-0.563074 3:-0.785097 4:-0.787705 5:-0.588255 6:-0.861965 7:-0.964983 
0 -32 1:-0.527864 2:-0.329159 3:-0.656071 4:-0.63152 5:-0.372894 6:-0.75442 7:-0.942309 
-32 -32 1:-0.162542 2:0.288621 3:-0.661276 4:-0.640764 5:0.189319 6:-0.604961 7:-0.933889 
-32 -32 1:-0.165365 2:-0.0517024 3:-0.63002 4:-0.633361 5:-0.0767198 6:-0.700501 7:-0.940711 
0 -32 1:-0.537248 2:-0.493418 3:-0.903652 4:-0.878715 5:-0.503065 6:-0.888503 7:-0.980427 
0 -32 1:-0.661416 2:-0.247046 3:-0.785655 4:-0.74307 5:-0.33825 6:-0.737998 7:-0.939273 
-32 -32 1:-0.167608 2:-0.167235 3:-0.647711 4:-0.623126 5:-0.167317 6:-0.738172 7:-0.952551 
0 -32 1:-0.525908 2:-0.655666 3:-0.532714 4:-0.478794 5:-0.627106 6:-0.770642 7:-0.934089 
-32 -32 1:0.0531356 2:0.252473 3:-0.772747 4:-0.76341 5:0.208598 6:-0.726291 7:-0.96729 
0 -32 1:-0.471815 2:-0.278178 3:-0.652899 4:-0.643632 5:-0.320798 6:-0.739372 7:-0.935228 
0 -32 1:-0.793586 2:-0.585196 3:-0.755993 4:-0.701218 5:-0.631063 6:-0.842174 7:-0.959892 
-32 0 1:-0.147462 2:0.00665283 3:0.107497 4:0.118913 5:-0.0272682 6:-0.3053 7:-0.787167 
-32 -32 1:-0.105766 2:-0.113808 3:-0.395297 4:-0.407774 5:-0.112038 6:-0.557886 7:-0.847717 
-32 -32 1:-0.268166 2:-0.108768 3:-0.614871 4:-0.602098 5:-0.143852 6:-0.690107 7:-0.939422 
-32 -32 1:0.249312 2:0.334379 3:-0.339941 4:-0.35807 5:0.315655 6:-0.406791 7:-0.801765 
-32 -32 1:-0.347233 2:-0.25252 3:-0.665836 4:-0.67551 5:-0.273366 6:-0.749984 7:-0.944607 
0 -32 1:-0.483631 2:-0.333156 3:-0.627391 4:-0.624199 5:-0.366276 6:-0.744708 7:-0.938359 
-32 -32 1:-0.188119 2:-0.00976313 3:-0.571815 4:-0.588051 5:-0.0490199 6:-0.645866 7:-0.921888 
-32 -32 1:-0.20381 2:-0.0994312 3:-0.493414 4:-0.472939 5:-0.122405 6:-0.611539 7:-0.897258 
-32 -32 1:0.00744425 2:-0.104959 3:-0.366686 4:-0.275714 5:-0.080219 6:-0.484476 7:-0.85303 
0 -32 1:-0.723643 2:-0.655579 3:-0.81919 4:-0.792594 5:-0.67056 6:-0.903073 7:-0.977326 
0 -32 1:-0.543192 2:-0.27723 3:-0.772787 4:-0.715847 5:-0.335769 6:-0.773977 7:-0.957806 
-32 -32 1:0.16299 2:0.39927 3:0.402898 4:0.290563 5:0.347264 6:0.0124756 7:-0.340761 
0 -32 1:-0.428167 2:-0.167153 3:-0.525397 4:-0.518434 5:-0.224603 6:-0.70959 7:-0.955001 
-32 0 1:-0.00236452 2:0.220328 3:-0.179794 4:-0.216348 5:0.171312 6:-0.377022 7:-0.833671 
-32 -9.241965407166109 1:-0.0639592 2:0.402333 3:-0.596204 4:-0.529192 5:0.299701 6:-0.464274 7:-0.881187 
0 -32 1:-0.475253 2:-0.444148 3:-0.845316 4:-0.834013 5:-0.450994 6:-0.872119 7:-0.975448 
0 -32 1:-0.58979 2:-0.549847 3:-0.893088 4:-0.878843 5:-0.558639 6:-0.898799 7:-0.981116 
-32 -32 1:-0.209183 2:0.200692 3:-0.64656 4:-0.603781 5:0.110477 6:-0.584317 7:-0.918418 
-32 0 1:-0.0207161 2:0.0353201 3:-0.251618 4:-0.182334 5:0.0229864 6:-0.37193 7:-0.835335 
-32 -32 1:0.441057 2:0.591151 3:0.13382 4:0.159864 5:0.558115 6:0.0631781 7:-0.527156 
-32 -32 1:-0.0517743 2:0.17479 3:-0.612957 4:-0.624736 5:0.124923 6:-0.57745 7:-0.892038 
