svm_type c_svc
kernel_type rbf
gamma 2
nr_class 3
total_sv 153
rho -1.62941 -2.37168 2.12066
label 3 1 2
nr_sv 42 53 58
SV
128 128 1:-0.423464 2:-0.459931 3:-0.909384 4:-0.891248 5:-0.435308 6:-0.874779 7:-0.986009 
0 39.55505013296959 1:0.127324 2:0.226427 3:-0.203368 4:-0.150495 5:0.239313 6:-0.206424 7:-0.767456 
10.95323318518578 8.125089207843148 1:-0.170734 2:0.0572454 3:0.235135 4:0.276774 5:0.0346362 6:-0.0747691 7:-0.647212 
3.229907108682579 0 1:0.382964 2:0.932905 3:-0.448532 4:-0.435005 5:0.860077 6:-0.189386 7:-0.851206 
0 128 1:-0.164771 2:-0.0100845 3:-0.433487 4:-0.393307 5:-0.0173517 6:-0.463472 7:-0.877076 
36.8000367530017 128 1:-0.246147 2:-0.153408 3:-0.673161 4:-0.599469 5:-0.150268 6:-0.589316 7:-0.917679 
0 6.765559475704974 1:0.649429 2:0.586292 3:-0.242497 4:-0.134673 5:0.648213 6:0.0113564 7:-0.636718 
1.002104894361868 0 1:-0.0407776 2:0.486513 3:1 4:1 5:0.405821 6:0.665293 7:0.284002 
8.34319900899426 0 1:0.270251 2:0.712366 3:0.565395 4:0.625224 5:0.658511 6:0.546957 7:-0.248624 
57.53451947232926 97.11949783304189 1:-0.0955073 2:0.133621 3:-0.402748 4:-0.382957 5:0.113003 6:-0.439169 7:-0.887001 
128 0 1:0.482088 2:0.723617 3:-0.570312 4:-0.568534 5:0.717541 6:-0.333504 7:-0.86461 
128 128 1:-0.303594 2:-0.285774 3:-0.626459 4:-0.626858 5:-0.268833 6:-0.717133 7:-0.947153 
0 128 1:-0.167401 2:-0.175547 3:-0.286521 4:-0.198352 5:-0.1492 6:-0.402222 7:-0.835483 
128 29.99670479200898 1:-0.855225 2:-0.864433 3:-0.766748 4:-0.765764 5:-0.858239 6:-0.91779 7:-0.979196 
98.91282511411035 128 1:-0.426854 2:-0.0631501 3:-0.72065 4:-0.665196 5:-0.121429 6:-0.643974 7:-0.947201 
0 128 1:-0.149282 2:0.137532 3:-0.413873 4:-0.384647 5:0.103385 6:-0.448931 7:-0.891129 
16.8961620793893 76.16627786082276 1:-0.327752 2:-0.401228 3:-0.500805 4:-0.380046 5:-0.366112 6:-0.568226 7:-0.92254 
43.91247116645782 128 1:0.10879 2:0.50075 3:-0.645785 4:-0.632948 5:0.452491 6:-0.432647 7:-0.890883 
30.82689310844901 53.91446318580157 1:0.0195816 2:-0.0326314 3:-0.8722 4:-0.868189 5:0.00837306 6:-0.805531 7:-0.981248 
0 6.061163565297792 1:0.370654 2:0.493317 3:-0.000471135 4:0.149656 5:0.508536 6:0.17848 7:-0.585279 
0 111.576928408152 1:0.109346 2:0.265782 3:-0.325664 4:-0.210594 5:0.266272 6:-0.197513 7:-0.805162 
71.64453663704744 0 1:0.223518 2:0.789624 3:-0.440439 4:-0.388359 5:0.708729 6:-0.178443 7:-0.831294 
85.73219301525748 47.02374752451202 1:-0.0791602 2:0.344306 3:-0.477436 4:-0.404895 5:0.28396 6:-0.315673 7:-0.857879 
0.1775918476175854 0 1:0.454576 2:0.451627 3:0.0845607 4:0.296479 5:0.495323 6:0.299956 7:-0.619061 
128 128 1:-0.516073 2:-0.312789 3:-0.784891 4:-0.760665 5:-0.340518 6:-0.762226 7:-0.959929 
2.845047957136342 0 1:0.610618 2:0.793267 3:-0.395667 4:-0.30511 5:0.803182 6:-0.0208415 7:-0.715267 
0 128 1:-0.342798 2:-0.0209078 3:-0.577116 4:-0.534282 5:-0.0680454 6:-0.562432 7:-0.927093 
115.3529203048727 128 1:-0.193253 2:-0.035007 3:-0.732479 4:-0.650862 5:-0.0438544 6:-0.57172 7:-0.92122 
128 128 1:-0.709034 2:-0.545904 3:-0.766256 4:-0.763674 5:-0.57104 6:-0.811101 7:-0.960031 
0 60.19197505907663 1:-0.00503662 2:-0.0278326 3:-0.0613834 4:-0.0821676 5:0.00635575 6:-0.293859 7:-0.705091 
0 35.76259788608973 1:0.0520515 2:0.601194 3:-0.120442 4:-0.0940304 5:0.51873 6:-0.0590179 7:-0.824543 
123.873754172528 128 1:0.133141 2:0.29789 3:-0.388604 4:-0.372532 5:0.297365 6:-0.321165 7:-0.811618 
0 128 1:0.0430102 2:0.139753 3:-0.599512 4:-0.47524 5:0.15063 6:-0.430682 7:-0.883253 
0 128 1:0.143201 2:0.289759 3:-0.380249 4:-0.308515 5:0.293296 6:-0.275726 7:-0.823196 
0 34.82692685078621 1:-0.23107 2:-0.165323 3:-0.00950347 4:-0.0158405 5:-0.156151 6:-0.357479 7:-0.756451 
0 128 1:-0.253317 2:0.370989 3:-0.701331 4:-0.618909 5:0.263928 6:-0.461496 7:-0.903123 
128 128 1:-0.100873 2:-0.105442 3:-0.83961 4:-0.833246 5:-0.0778642 6:-0.783567 7:-0.974771 
128 128 1:0.234414 2:0.4293 3:-0.366111 4:-0.380051 5:0.425539 6:-0.274805 7:-0.813042 
128 128 1:-0.590457 2:-0.42502 3:-0.782709 4:-0.755106 5:-0.447121 6:-0.792363 7:-0.964021 
1.902511998945672 128 1:-0.157185 2:0.00610692 3:0.0880383 4:0.20013 5:-0.00271612 6:-0.136478 7:-0.749483 
128 128 1:-0.421195 2:-0.0660076 3:-0.745993 4:-0.699724 5:-0.122357 6:-0.650366 7:-0.939625 
128 128 1:-0.0382653 2:0.17913 3:-0.669824 4:-0.656709 5:0.162635 6:-0.546755 7:-0.908005 
-4.930526217341977 0.5932758245500638 1:0.0679876 2:0.546641 3:0.0455452 4:0.0730884 5:0.479234 6:-0.0132819 7:-0.800826 
-22.63663840911021 128 1:-0.681999 2:-0.550519 3:-0.880062 4:-0.858889 5:-0.568305 6:-0.864024 7:-0.980623 
-9.583558706345359 0 1:0.877862 2:0.701847 3:-0.548064 4:-0.556411 5:0.793891 6:-0.312014 7:-0.841334 
0 128 1:-0.632249 2:-0.568424 3:-0.695965 4:-0.66364 5:-0.570738 6:-0.811529 7:-0.964227 
-87.87383008203388 3.856875234934096 1:-0.908412 2:-0.860893 3:-0.803369 4:-0.773368 5:-0.868012 6:-0.914449 7:-0.981397 
0 128 1:-0.584804 2:-0.599663 3:-0.874688 4:-0.875844 5:-0.58429 6:-0.89263 7:-0.983613 
-41.04354553514911 128 1:-0.703653 2:-0.669959 3:-0.712189 4:-0.661376 5:-0.668152 6:-0.800038 7:-0.964915 
-22.03961275371733 56.54658134896888 1:-0.455014 2:-0.387277 3:-0.510164 4:-0.462522 5:-0.38515 6:-0.642998 7:-0.922309 
-128 128 1:0.0814131 2:0.209006 3:-0.382414 4:-0.373772 5:0.214637 6:-0.364722 7:-0.820893 
0 121.1926247291753 1:-0.877198 2:-0.78971 3:-0.895521 4:-0.862587 5:-0.804175 6:-0.910193 7:-0.986185 
-128 116.126366550103 1:-0.0812346 2:0.214875 3:-0.622228 4:-0.577897 5:0.180819 6:-0.464572 7:-0.881465 
-10.12228283787679 3.401038357481589 1:0.276044 2:0.697902 3:0.5812 4:0.682933 5:0.64841 6:0.66392 7:-0.0238731 
0 112.4451138855035 1:-0.391626 2:-0.243766 3:-0.881264 4:-0.86392 5:-0.25634 6:-0.795683 7:-0.975319 
0 73.29252933162552 1:-0.553621 2:-0.334813 3:-0.735036 4:-0.697827 5:-0.366866 6:-0.736565 7:-0.951012 
0 72.71051376970732 1:-0.24888 2:-0.362734 3:-0.886129 4:-0.880668 5:-0.316927 6:-0.872864 7:-0.986734 
-46.8336915580029 128 1:-0.641955 2:-0.250408 3:-0.878343 4:-0.820573 5:-0.32082 6:-0.752891 7:-0.965982 
-56.66819281740283 79.19659920391484 1:-0.0688638 2:-0.320837 3:-0.94109 4:-0.944596 5:-0.241119 6:-0.908131 7:-0.994341 
-21.09168738624415 128 1:-0.560956 2:-0.307684 3:-0.72748 4:-0.690159 5:-0.347085 6:-0.72512 7:-0.946847 
-76.30843245023222 128 1:-0.562937 2:-0.280731 3:-0.84768 4:-0.786581 5:-0.326178 6:-0.737976 7:-0.9673 
0 7.893758742907126 1:-0.0236964 2:0.0717305 3:-0.715945 4:-0.704689 5:0.0809039 6:-0.638466 7:-0.944195 
-120.7214755353385 128 1:-0.399498 2:-0.184277 3:-0.769201 4:-0.751601 5:-0.211022 6:-0.722743 7:-0.952272 
0 28.7193844546432 1:-0.822709 2:-0.898805 3:-0.977191 4:-0.968192 5:-0.877808 6:-1 7:-0.999305 
-30.87915499960564 0 1:-0.0342152 2:0.539162 3:-0.385246 4:-0.343312 5:0.449128 6:-0.276859 7:-0.880662 
-86.12794956852223 57.01368628903625 1:0.347369 2:0.453525 3:-0.464146 4:-0.511792 5:0.471469 6:-0.319509 7:-0.799022 
0 44.2898288564647 1:-0.906369 2:-0.794054 3:-0.915954 4:-0.892592 5:-0.814521 6:-0.937732 7:-0.989732 
0 128 1:-0.219597 2:-0.230719 3:-0.920224 4:-0.910276 5:-0.205302 6:-0.861855 7:-0.988376 
0 128 1:-0.564252 2:-0.39272 3:-0.725283 4:-0.703223 5:-0.415306 6:-0.757443 7:-0.95214 
0 101.6457390203401 1:-0.425768 2:-0.265363 3:-0.743547 4:-0.725058 5:-0.281544 6:-0.752679 7:-0.961372 
-24.75955897272333 28.19276382764731 1:0.0242547 2:0.169839 3:-0.00720504 4:0.0602005 5:0.170055 6:-0.125665 7:-0.702497 
0 128 1:-0.0485131 2:0.253519 3:-0.645758 4:-0.620786 5:0.219207 6:-0.532287 7:-0.91936 
-14.53033467196415 128 1:-0.606131 2:-0.604993 3:-0.853032 4:-0.850668 5:-0.593562 6:-0.896869 7:-0.983757 
-8.590612186543378 0 1:-1 2:-1 3:-0.796189 4:-0.762789 5:-1 6:-0.961003 7:-0.986992 
-38.92843691455344 128 1:-0.27916 2:-0.123743 3:-0.717319 4:-0.701587 5:-0.13455 6:-0.698044 7:-0.953335 
-128 128 1:-0.623448 2:-0.496938 3:-0.784278 4:-0.759837 5:-0.511961 6:-0.834691 7:-0.97391 
-35.25127803732713 105.5243293935068 1:-0.449062 2:-0.382355 3:-0.60022 4:-0.516752 5:-0.379838 6:-0.664178 7:-0.9289 
-128 128 1:-0.203593 2:0.0243406 3:-0.675114 4:-0.658266 5:0.000767427 6:-0.588537 7:-0.913198 
0 12.14831601687372 1:-0.459238 2:-0.591742 3:-0.328835 4:-0.333435 5:-0.548307 6:-0.669954 7:-0.900707 
-73.15211812974134 0 1:-0.497009 2:-0.521911 3:-0.859378 4:-0.851827 5:-0.501859 6:-0.866998 7:-0.980718 
-128 126.9757066832354 1:0.0896665 2:0.489238 3:-0.425294 4:-0.39894 5:0.438837 6:-0.294252 7:-0.853856 
0 128 1:-0.15634 2:-0.0107449 3:-0.643412 4:-0.636951 5:-0.0158811 6:-0.6259 7:-0.936666 
-12.76337310803811 0 1:0.251943 2:0.602313 3:-0.408198 4:-0.392361 5:0.566899 6:-0.304724 7:-0.905576 
0 128 1:-0.57491 2:-0.506033 3:-0.885456 4:-0.860647 5:-0.507693 6:-0.865911 7:-0.981065 
-41.48632874503158 128 1:-0.154138 2:0.168899 3:-0.549497 4:-0.533711 5:0.127112 6:-0.501248 7:-0.907758 
0 20.29950090140431 1:-0.575607 2:-0.399542 3:-0.824313 4:-0.785872 5:-0.423402 6:-0.802782 7:-0.970421 
-128 128 1:-0.302337 2:-0.163416 3:-0.723068 4:-0.694414 5:-0.171496 6:-0.696765 7:-0.950943 
0 128 1:-0.119666 2:0.175077 3:-0.59054 4:-0.579547 5:0.140166 6:-0.527238 7:-0.905461 
-128 128 1:-0.0590412 2:0.0164943 3:-0.796661 4:-0.796038 5:0.0287366 6:-0.711956 7:-0.959416 
-128 0 1:0.405327 2:0.794611 3:-0.528772 4:-0.514233 5:0.755689 6:-0.275667 7:-0.850722 
-33.31624239006378 0 1:0.438362 2:0.589275 3:-0.471196 4:-0.474821 5:0.600654 6:-0.29085 7:-0.812953 
-28.6717124430711 7.330583584618652 1:-0.740863 2:-0.788205 3:-0.790907 4:-0.78154 5:-0.770734 6:-0.920992 7:-0.983789 
-17.62933336838663 0 1:-0.4153 2:-0.498446 3:-0.896844 4:-0.900291 5:-0.463922 6:-0.882875 7:-0.985321 
-128 128 1:-0.391562 2:-0.230065 3:-0.674381 4:-0.648647 5:-0.245459 6:-0.67991 7:-0.934221 
0 77.06842147583295 1:0.0789946 2:0.2758 3:-0.619665 4:-0.607171 5:0.267039 6:-0.497251 7:-0.906371 
-6.4531927264622 0 1:-0.1214 2:-0.229769 3:-0.384566 4:-0.251322 5:-0.181321 6:-0.432135 7:-0.863105 
0 -95.22527005694676 1:-0.720131 2:-0.410105 3:-0.798736 4:-0.761728 5:-0.465964 6:-0.77435 7:-0.958096 
-128 0 1:0.140405 2:0.368542 3:-0.264887 4:-0.213344 5:0.355117 6:-0.153489 7:-0.763 
-27.67641817033017 -111.8571792170047 1:-0.207867 2:-0.0878316 3:-0.886361 4:-0.87514 5:-0.0892054 6:-0.789334 7:-0.976434 
-0.0172743739058145 0 1:-0.563154 2:-0.0582756 3:-0.715805 4:-0.645929 5:-0.149804 6:-0.688958 7:-0.975827 
-128 -90.05346377401816 1:-0.258857 2:0.0345086 3:-0.667154 4:-0.622764 5:-0.00424032 6:-0.557191 7:-0.909623 
-14.22982132070935 -128 1:-0.872086 2:-0.893277 3:-0.949146 4:-0.95318 5:-0.885103 6:-0.972194 7:-0.994812 
-46.21411674200456 0 1:-0.294322 2:-0.046437 3:-0.614242 4:-0.570101 5:-0.0768258 6:-0.580579 7:-0.924051 
-128 -88.14848247743856 1:0.148408 2:0.405517 3:-0.524232 4:-0.456968 5:0.386333 6:-0.317811 7:-0.840911 
-81.23294140324609 -128 1:-0.616323 2:-0.46677 3:-0.727377 4:-0.712362 5:-0.48635 6:-0.770414 7:-0.95323 
-73.41872813065851 0 1:-0.366961 2:-0.236833 3:-0.508418 4:-0.43782 5:-0.245008 6:-0.583543 7:-0.911363 
-13.10518625426402 -128 1:-0.697678 2:-0.594467 3:-0.82848 4:-0.804735 5:-0.606868 6:-0.869474 7:-0.978559 
-81.2661111295273 -128 1:-0.742262 2:-0.604672 3:-0.797841 4:-0.770311 5:-0.625507 6:-0.839704 7:-0.970157 
-128 -69.33781433498515 1:-0.162356 2:0.0897547 3:-0.565005 4:-0.499029 5:0.0624005 6:-0.459294 7:-0.895372 
0 -88.94196104546123 1:-0.0206897 2:0.381437 3:-0.609178 4:-0.568709 5:0.327239 6:-0.455419 7:-0.904994 
-59.24040012130304 0 1:-0.268567 2:-0.0841023 3:0.0695847 4:0.120163 5:-0.100605 6:-0.257305 7:-0.774394 
-15.53376864537304 0 1:-0.383672 2:-0.0518547 3:-0.622132 4:-0.554453 5:-0.102257 6:-0.605604 7:-0.937346 
-85.04127728289679 0 1:-0.310664 2:-0.234124 3:-0.470252 4:-0.424035 5:-0.229543 6:-0.549127 7:-0.878368 
-128 -128 1:-0.135945 2:0.152552 3:-0.479713 4:-0.445483 5:0.118451 6:-0.449453 7:-0.885854 
-128 0 1:-0.105544 2:-0.11576 3:-0.286561 4:-0.238202 5:-0.0871514 6:-0.407835 7:-0.841592 
0 -1.191433604020459 1:0.332393 2:0.491024 3:-0.355013 4:-0.307792 5:0.497667 6:-0.167399 7:-0.766952 
-128 -128 1:-0.063532 2:0.281029 3:-0.57557 4:-0.528609 5:0.237472 6:-0.468415 7:-0.904171 
-25.06440259492965 -128 1:-0.348304 2:-0.3047 3:-0.784901 4:-0.781151 5:-0.294418 6:-0.791513 7:-0.969335 
-6.15210356837109 -128 1:-0.465042 2:-0.349295 3:-0.626306 4:-0.597081 5:-0.357399 6:-0.714898 7:-0.946307 
-128 -128 1:-0.0815673 2:-0.1971 3:-0.864923 4:-0.871825 5:-0.14599 6:-0.801236 7:-0.976676 
0 -128 1:-0.712616 2:-0.629144 3:-0.739072 4:-0.714609 5:-0.637904 6:-0.833314 7:-0.967097 
-128 -128 1:-0.452296 2:-0.238818 3:-0.783988 4:-0.742797 5:-0.266766 6:-0.730793 7:-0.955038 
-11.9946302264457 0 1:0.559266 2:0.0428803 3:-1 4:-1 5:0.195915 6:-0.91944 7:-1 
-91.71760934233507 0 1:-0.396051 2:0.136942 3:-0.749166 4:-0.681331 5:0.0445462 6:-0.595566 7:-0.937583 
-55.70318479966894 -108.3156827669184 1:-0.320299 2:-0.233433 3:-0.55555 4:-0.51489 5:-0.231274 6:-0.607612 7:-0.912148 
-128 -54.12602622114731 1:0.143549 2:0.385942 3:-0.267397 4:-0.243858 5:0.36966 6:-0.214886 7:-0.797232 
-9.000092476958379 -68.78758897352122 1:-0.421925 2:-0.102701 3:-0.789323 4:-0.735341 5:-0.151631 6:-0.698325 7:-0.954796 
-128 -128 1:0.218166 2:0.301769 3:-0.428233 4:-0.41984 5:0.320553 6:-0.37771 7:-0.819377 
-94.11891394741156 -14.73401743789424 1:-0.0611607 2:-0.0293271 3:0.107317 4:0.192744 5:-0.00810489 6:-0.14279 7:-0.688658 
-5.125972414624838 0 1:0.445891 2:0.346618 3:-0.26324 4:-0.127671 5:0.409988 6:-0.0923775 7:-0.732505 
0 -128 1:-0.322459 2:-0.389523 3:-0.944141 4:-0.926744 5:-0.355577 6:-0.899099 7:-0.991454 
-84.26030450439045 -128 1:-0.528803 2:-0.292466 3:-0.715974 4:-0.678831 5:-0.327411 6:-0.724548 7:-0.951176 
0 -128 1:-0.538168 2:-0.46571 3:-0.914477 4:-0.893776 5:-0.467023 6:-0.864816 7:-0.983378 
-28.85266071803851 -128 1:-0.662089 2:-0.205863 3:-0.819871 4:-0.775828 5:-0.290254 6:-0.707368 7:-0.948612 
-128 -128 1:-0.169262 2:-0.121686 3:-0.709271 4:-0.671532 5:-0.106923 6:-0.70755 7:-0.959829 
-35.42877061284089 0 1:0.221412 2:0.404223 3:-0.349687 4:-0.333234 5:0.402575 6:-0.257098 7:-0.79167 
-38.13909172411473 -128 1:-0.526851 2:-0.636833 3:-0.61707 4:-0.546031 5:-0.600061 6:-0.741518 7:-0.944233 
-27.59319303984702 0 1:0.0510422 2:0.320979 3:-0.809521 4:-0.793514 5:0.296257 6:-0.695121 7:-0.97228 
-4.183941632068669 -128 1:-0.0357599 2:0.0999271 3:-0.724969 4:-0.716107 5:0.100413 6:-0.693697 7:-0.968182 
-17.26751191411416 -128 1:-0.472865 2:-0.238697 3:-0.713431 4:-0.689363 5:-0.271536 6:-0.708806 7:-0.945195 
-100.1556476708332 0 1:-0.149156 2:0.061713 3:-0.103769 4:-0.0263046 5:0.0432832 6:-0.254709 7:-0.820113 
-22.43731154195764 -3.902622509113987 1:0.246828 2:0.407364 3:-0.462511 4:-0.441057 5:0.411078 6:-0.360882 7:-0.832446 
-128 -73.97575619428798 1:-0.313135 2:-0.0557991 3:-0.701951 4:-0.660248 5:-0.0887007 6:-0.620295 7:-0.921741 
0 -128 1:-0.189733 2:0.0443991 3:-0.648421 4:-0.641034 5:0.019954 6:-0.610986 7:-0.933925 
-92.56852869106669 0 1:0.00544171 2:-0.056004 3:-0.483954 4:-0.369446 5:-0.013508 6:-0.442152 7:-0.875754 
0 -128 1:-0.724193 2:-0.636741 3:-0.846758 4:-0.818891 5:-0.646666 6:-0.880058 7:-0.980758 
-6.000664858482853 -3.86623886971614 1:0.160678 2:0.475805 3:0.133075 4:0.122951 5:0.44498 6:0.0777254 7:-0.442991 
-107.772565036304 0 1:-0.0658198 2:0.479035 3:-0.667975 4:-0.589853 5:0.393967 6:-0.421017 7:-0.899541 
0 -128 1:-0.361656 2:-0.239618 3:-0.79851 4:-0.783994 5:-0.245962 6:-0.762457 7:-0.963787 
-127.26967042783 -128 1:-0.476296 2:-0.413745 3:-0.867705 4:-0.854906 5:-0.411175 6:-0.847676 7:-0.979172 
-47.7112819200291 -128 1:-0.590605 2:-0.525226 3:-0.906007 4:-0.893887 5:-0.526627 6:-0.875587 7:-0.983961 
-128 0 1:-0.0226627 2:0.0919482 3:-0.391697 4:-0.288249 5:0.0971828 6:-0.324413 7:-0.860805 
-89.13869181876349 -128 1:-0.0536591 2:0.239047 3:-0.681407 4:-0.672933 5:0.206512 6:-0.539414 7:-0.908708 
