svm_type c_svc
kernel_type rbf
gamma 0.5
nr_class 3
total_sv 174
rho -0.485965 -0.355702 -0.0278241
label 3 1 2
nr_sv 47 58 69
SV
0.5 0.5 1:-0.423464 2:-0.487939 3:-0.909384 4:-0.891248 5:-0.473495 6:-0.881352 7:-0.986009 
0 0.5 1:-0.170734 2:0.00241695 3:0.235135 4:0.276774 5:-0.0353305 6:-0.123339 7:-0.647212 
0 0.5 1:0.382964 2:0.832665 3:-0.448532 4:-0.435005 5:0.734291 6:-0.231939 7:-0.851206 
0.5 0.5 1:-0.164771 2:-0.0614213 3:-0.433487 4:-0.393307 5:-0.0838027 6:-0.491637 7:-0.877076 
0.5 0.5 1:-0.246147 2:-0.197312 3:-0.673161 4:-0.599469 5:-0.20773 6:-0.610875 7:-0.917679 
0.5 0.5 1:-0.296022 2:-0.0777568 3:-0.710924 4:-0.689383 5:-0.125489 6:-0.661595 7:-0.934248 
0.5 0.5 1:0.0290008 2:0.090145 3:-0.35292 4:-0.259566 5:0.0771381 6:-0.342626 7:-0.825336 
0 0.2064807988126658 1:0.649429 2:0.504027 3:-0.242497 4:-0.134673 5:0.536754 6:-0.0417343 7:-0.636718 
0.3376441033823476 0.3617779830565051 1:-0.0407776 2:0.409423 3:1 4:1 5:0.310753 6:0.577874 7:0.284002 
0.4524004047801031 0 1:0.270251 2:0.623563 3:0.565395 4:0.625224 5:0.546355 6:0.46575 7:-0.248624 
0.5 0.5 1:0.286451 2:-0.529381 3:-0.3353 4:-0.0754326 5:-0.34925 6:-0.379002 7:-0.905254 
0.4254526183466207 0.5 1:0.482088 2:0.634231 3:-0.570312 4:-0.568534 5:0.601394 6:-0.368492 7:-0.86461 
0 0.5 1:0.320417 2:0.55597 3:-0.218701 4:-0.164521 5:0.504703 6:-0.0849586 7:-0.712418 
0.5 0.5 1:-0.167401 2:-0.218303 3:-0.286521 4:-0.198352 5:-0.206734 6:-0.433602 7:-0.835483 
0.5 0.5 1:-0.426854 2:-0.111735 3:-0.72065 4:-0.665196 5:-0.180842 6:-0.662663 7:-0.947201 
0.5 0.5 1:-0.380023 2:-0.134131 3:-0.298932 4:-0.277244 5:-0.187981 6:-0.522464 7:-0.922112 
0.3783774352194512 0.4175778463715368 1:0.996025 2:1 3:0.611812 4:0.73983 5:1 6:1 7:0.689679 
0.5 0.5 1:-0.149282 2:0.0785402 3:-0.413873 4:-0.384647 5:0.0287689 6:-0.477859 7:-0.891129 
0.5 0.5 1:0.214855 2:0.0757163 3:-0.6003 4:-0.478093 5:0.106874 6:-0.455746 7:-0.876148 
0.5 0.5 1:-0.327752 2:-0.43228 3:-0.500805 4:-0.380046 5:-0.408978 6:-0.590891 7:-0.92254 
0.5 0.5 1:0.122309 2:0.168147 3:-0.733924 4:-0.746846 5:0.15855 6:-0.598817 7:-0.926691 
0.5 0.5 1:0.10879 2:0.422922 3:-0.645785 4:-0.632948 5:0.354267 6:-0.46243 7:-0.890883 
0 0.5 1:0.370654 2:0.415874 3:-0.000471135 4:0.149656 5:0.406522 6:0.116616 7:-0.585279 
0 0.5 1:0.109346 2:0.200139 3:-0.325664 4:-0.210594 5:0.180641 6:-0.23964 7:-0.805162 
0.5 0.5 1:-0.0791602 2:0.27459 3:-0.477436 4:-0.404895 5:0.197133 6:-0.351596 7:-0.857879 
0 0.0831583800492295 1:0.454576 2:0.376346 3:0.0845607 4:0.296479 5:0.394202 6:0.231715 7:-0.619061 
0.5 0.5 1:-0.516073 2:-0.348428 3:-0.784891 4:-0.760665 5:-0.385115 6:-0.774708 7:-0.959929 
0.5 0.5 1:0.545652 2:-0.272332 3:-0.676855 4:-0.494847 5:-0.0916135 6:-0.410186 7:-0.908386 
0.5 0.5 1:-0.342798 2:-0.0716832 3:-0.577116 4:-0.534282 5:-0.131068 6:-0.585402 7:-0.927093 
0.1965908814877076 0.2021740548766629 1:-0.0333925 2:0.727828 3:0.728035 4:0.839567 5:0.560705 6:0.895011 7:1 
0.5 0.5 1:0.043513 2:0.73568 3:-0.716005 4:-0.665554 5:0.58379 6:-0.492793 7:-0.95044 
0 0.5 1:0.198604 2:0.283916 3:-0.255097 4:-0.229647 5:0.265664 6:-0.241936 7:-0.686884 
0.5 0.5 1:-0.709034 2:-0.569453 3:-0.766256 4:-0.763674 5:-0.600048 6:-0.821017 7:-0.960031 
0.04050422994420277 0 1:1 2:0.787423 3:-0.0686876 4:-0.0639704 5:0.835089 6:0.195345 7:-0.262878 
0 0.5 1:0.0520515 2:0.518156 3:-0.120442 4:-0.0940304 5:0.416026 6:-0.108414 7:-0.824543 
0.5 0.5 1:0.133141 2:0.230582 3:-0.388604 4:-0.372532 5:0.209632 6:-0.3568 7:-0.811618 
0.5 0.5 1:0.0124648 2:0.470115 3:-0.414912 4:-0.350985 5:0.369828 6:-0.279165 7:-0.862203 
0.5 0.5 1:0.143201 2:0.222873 3:-0.380249 4:-0.308515 5:0.205838 6:-0.313747 7:-0.823196 
0.5 0.5 1:-0.253317 2:0.29989 3:-0.701331 4:-0.618909 5:0.178455 6:-0.489765 7:-0.903123 
0 0.5 1:0.357114 2:0.0795343 3:-0.438609 4:-0.219737 5:0.141225 6:-0.27679 7:-0.866004 
0.5 0.5 1:0.308957 2:0.169194 3:-0.525329 4:-0.431346 5:0.20053 6:-0.376997 7:-0.820466 
0.5 0.5 1:0.215476 2:0.288653 3:-0.428371 4:-0.436986 5:0.273079 6:-0.377943 7:-0.815104 
0.1363951345181695 0.5 1:0.234414 2:0.355177 3:-0.366111 4:-0.380051 5:0.329138 6:-0.312874 7:-0.813042 
0.5 0.5 1:-0.287228 2:-0.133848 3:-0.686496 4:-0.674457 5:-0.167295 6:-0.664946 7:-0.937812 
0 0.5 1:-0.157185 2:-0.0460695 3:0.0880383 4:0.20013 5:-0.0701569 6:-0.181809 7:-0.749483 
0.5 0.5 1:-0.421195 2:-0.114444 3:-0.745993 4:-0.699724 5:-0.181707 6:-0.66872 7:-0.939625 
0.5 0.5 1:-0.0382653 2:0.117981 3:-0.669824 4:-0.656709 5:0.0840123 6:-0.570548 7:-0.908005 
-0.5 0.5 1:0.0679876 2:0.466433 3:0.0455452 4:0.0730884 5:0.379202 6:-0.0650792 7:-0.800826 
-0.5 0.5 1:0.0429342 2:-0.443243 3:-0.9467 4:-0.957289 5:-0.335777 6:-0.930435 7:-0.99561 
-0.5 0.5 1:-0.38105 2:-0.225068 3:-0.605627 4:-0.582068 5:-0.259128 6:-0.652498 7:-0.925003 
0 0.5 1:-0.568068 2:-0.492026 3:-0.800816 4:-0.779886 5:-0.508574 6:-0.846326 7:-0.976247 
-0.05097930261007184 0.5 1:-0.908412 2:-0.868107 3:-0.803369 4:-0.773368 5:-0.876938 6:-0.91894 7:-0.981397 
-0.5 0.5 1:-0.368227 2:-0.120363 3:-0.819221 4:-0.78517 5:-0.174642 6:-0.739734 7:-0.964881 
-0.5 0.002062891494716672 1:-0.857214 2:-0.975987 3:-0.813378 4:-0.807605 5:-0.949782 6:-0.975284 7:-0.990464 
-0.5 0.5 1:-0.164363 2:0.0461647 3:-0.605296 4:-0.596747 5:0.000193378 6:-0.597576 7:-0.929055 
0 0.5 1:-0.518542 2:-0.322509 3:-0.813527 4:-0.773409 5:-0.365445 6:-0.773676 7:-0.963799 
0 0.5 1:-0.703653 2:-0.687074 3:-0.712189 4:-0.661376 5:-0.690593 6:-0.810535 7:-0.964915 
-0.5 0.5 1:-0.30701 2:-0.221509 3:-0.207524 4:-0.179085 5:-0.240024 6:-0.491672 7:-0.861855 
0 0.5 1:-0.329535 2:-0.245655 3:-0.856603 4:-0.850371 5:-0.263823 6:-0.7798 7:-0.967249 
-0.5 0.5 1:0.0814131 2:0.146307 3:-0.382414 4:-0.373772 5:0.132498 6:-0.39807 7:-0.820893 
0 0.5 1:-0.598522 2:-0.599577 3:-0.836462 4:-0.820672 5:-0.599169 6:-0.875464 7:-0.981746 
0 0.5 1:-0.420436 2:-0.319621 3:-0.845644 4:-0.822757 5:-0.341556 6:-0.81375 7:-0.973538 
-0.5 0.5 1:-0.317975 2:-0.240283 3:-0.804841 4:-0.786623 5:-0.257084 6:-0.774138 7:-0.967882 
-0.5 0.5 1:-0.461314 2:-0.473282 3:-0.613291 4:-0.605467 5:-0.470411 6:-0.745432 7:-0.939528 
-0.5 0.5 1:0.276044 2:0.609849 3:0.5812 4:0.682933 5:0.536937 6:0.576573 7:-0.0238731 
0 0.5 1:-0.391626 2:-0.282984 3:-0.881264 4:-0.86392 5:-0.30663 6:-0.806408 7:-0.975319 
0 0.5 1:-0.519013 2:-0.37385 3:-0.827854 4:-0.795869 5:-0.40559 6:-0.828492 7:-0.978718 
0 0.5 1:-0.24888 2:-0.395782 3:-0.886129 4:-0.880668 5:-0.36312 6:-0.879538 7:-0.986734 
0 0.5 1:-0.641955 2:-0.289282 3:-0.878343 4:-0.820573 5:-0.366749 6:-0.765863 7:-0.965982 
0 0.5 1:-0.0688638 2:-0.356058 3:-0.94109 4:-0.944596 5:-0.292438 6:-0.912953 7:-0.994341 
-0.0443243963742849 0.5 1:-0.560956 2:-0.343587 3:-0.72748 4:-0.690159 5:-0.391238 6:-0.73955 7:-0.946847 
0 0.5 1:-0.562937 2:-0.318032 3:-0.84768 4:-0.786581 5:-0.371745 6:-0.75173 7:-0.9673 
-0.5 0.5 1:-0.0236964 2:0.0161509 3:-0.715945 4:-0.704689 5:0.00780837 6:-0.657444 7:-0.944195 
-0.5 0.5 1:-0.179304 2:-0.0204445 3:-0.67665 4:-0.661333 5:-0.0550502 6:-0.629395 7:-0.931093 
-0.5 0.5 1:-0.399498 2:-0.22658 3:-0.769201 4:-0.751601 5:-0.264376 6:-0.737298 7:-0.952272 
-0.5 0.5 1:-0.0342152 2:0.459341 3:-0.385246 4:-0.343312 5:0.351131 6:-0.31482 7:-0.880662 
0 0.5 1:-0.504546 2:-0.572288 3:-0.831726 4:-0.820899 5:-0.55716 6:-0.899293 7:-0.986525 
-0.5 0.5 1:-0.149245 2:0.0287553 3:-0.487125 4:-0.42407 5:-0.0100502 6:-0.469739 7:-0.882087 
0 0.5 1:-0.219597 2:-0.270614 3:-0.920224 4:-0.910276 5:-0.259043 6:-0.869107 7:-0.988376 
0 0.5 1:-0.564252 2:-0.424213 3:-0.725283 4:-0.703223 5:-0.454845 6:-0.770176 7:-0.95214 
-0.3720611086942456 0.5 1:-0.425768 2:-0.303461 3:-0.743547 4:-0.725058 5:-0.33013 6:-0.765662 7:-0.961372 
-0.5 0.5 1:-0.0485131 2:0.188512 3:-0.645758 4:-0.620786 5:0.136759 6:-0.556839 7:-0.91936 
-0.5 0.5 1:-1 2:-1 3:-0.796189 4:-0.762789 5:-1 6:-0.96305 7:-0.986992 
-0.5 0.5 1:-0.27916 2:-0.169185 3:-0.717319 4:-0.701587 5:-0.193075 6:-0.713895 7:-0.953335 
0 0.5 1:-0.623448 2:-0.523027 3:-0.784278 4:-0.759837 5:-0.544965 6:-0.843369 7:-0.97391 
-0.5 0.5 1:-0.203593 2:-0.0287814 3:-0.675114 4:-0.658266 5:-0.0669089 6:-0.610137 7:-0.913198 
-0.5 0.5 1:-0.107396 2:0.0136781 3:-0.401237 4:-0.37543 5:-0.0125794 6:-0.465715 7:-0.884734 
0 0.5 1:-0.497009 2:-0.546705 3:-0.859378 4:-0.851827 5:-0.535546 6:-0.87398 7:-0.980718 
-0.5 0.5 1:-0.534932 2:-0.401637 3:-0.681847 4:-0.642259 5:-0.430771 6:-0.748302 7:-0.952613 
-0.5 0.5 1:0.0896665 2:0.412007 3:-0.425294 4:-0.39894 5:0.341536 6:-0.3313 7:-0.853856 
0 0.5 1:-0.419897 2:-0.387201 3:-0.888272 4:-0.872181 5:-0.394143 6:-0.839545 7:-0.978445 
-0.5 0.5 1:-0.15634 2:-0.0620474 3:-0.643412 4:-0.636951 5:-0.0824316 6:-0.645538 7:-0.936666 
-0.5 0.5 1:-0.197786 2:0.127222 3:-0.710693 4:-0.673778 5:0.0560385 6:-0.591686 7:-0.922075 
-0.5 0.5 1:0.251943 2:0.519218 3:-0.408198 4:-0.392361 5:0.460939 6:-0.341222 7:-0.905576 
-0.5 0.5 1:0.0902663 2:0.238731 3:-0.681227 4:-0.670656 5:0.206531 6:-0.54453 7:-0.911864 
0 0.5 1:-0.681253 2:-0.493645 3:-0.807386 4:-0.732738 5:-0.534799 6:-0.811007 7:-0.969335 
0 0.5 1:-0.57491 2:-0.53165 3:-0.885456 4:-0.860647 5:-0.540985 6:-0.87295 7:-0.981065 
0 0.5 1:-0.575607 2:-0.430681 3:-0.824313 4:-0.785872 5:-0.462394 6:-0.813135 7:-0.970421 
-0.5 0.5 1:-0.302337 2:-0.206801 3:-0.723068 4:-0.694414 5:-0.227523 6:-0.712683 7:-0.950943 
-0.5 0.5 1:-0.119666 2:0.114138 3:-0.59054 4:-0.579547 5:0.0630627 6:-0.552055 7:-0.905461 
-0.5 0.5 1:-0.0590412 2:-0.0362208 3:-0.796661 4:-0.796038 5:-0.0408312 6:-0.727077 7:-0.959416 
-0.5 0.5 1:0.438362 2:0.506856 3:-0.471196 4:-0.474821 5:0.492411 6:-0.328077 7:-0.812953 
0 0.5 1:-0.377471 2:-0.419684 3:-0.898742 4:-0.89857 5:-0.41012 6:-0.863652 7:-0.982184 
0 0.4608660411505628 1:-0.4153 2:-0.524456 3:-0.896844 4:-0.900291 5:-0.500174 6:-0.889024 7:-0.985321 
-0.5 0.5 1:0.0789946 2:0.209638 3:-0.619665 4:-0.607171 5:0.181356 6:-0.523643 7:-0.906371 
-0.5 -0.5 1:-0.1214 2:-0.269713 3:-0.384566 4:-0.251322 5:-0.236683 6:-0.461945 7:-0.863105 
0 -0.5 1:-0.720131 2:-0.440696 3:-0.798736 4:-0.761728 5:-0.502078 6:-0.786195 7:-0.958096 
0 -0.5 1:-0.207867 2:-0.135136 3:-0.886361 4:-0.87514 5:-0.150797 6:-0.800393 7:-0.976434 
0 -0.5 1:-0.563154 2:-0.107113 3:-0.715805 4:-0.645929 5:-0.207298 6:-0.705286 7:-0.975827 
-0.5 -0.5 1:-0.258857 2:-0.0191407 3:-0.667154 4:-0.622764 5:-0.071578 6:-0.580436 7:-0.909623 
-0.5 -0.5 1:-0.872086 2:-0.898812 3:-0.949146 4:-0.95318 5:-0.892873 6:-0.973654 7:-0.994812 
-0.5 -0.5 1:-0.64246 2:-0.675807 3:-0.635109 4:-0.588378 5:-0.66831 6:-0.801053 7:-0.953737 
-0.5 -0.5 1:0.200131 2:0.264179 3:-0.0720227 4:0.0427222 5:0.250608 6:-0.0620122 7:-0.679558 
-0.5 0 1:0.148408 2:0.332627 3:-0.524232 4:-0.456968 5:0.292583 6:-0.353623 7:-0.840911 
0 -0.5 1:-0.616323 2:-0.494423 3:-0.727377 4:-0.712362 5:-0.521085 6:-0.782466 7:-0.95323 
-0.5 -0.5 1:-0.366961 2:-0.276411 3:-0.508418 4:-0.43782 5:-0.296064 6:-0.605405 7:-0.911363 
-0.5 -0.5 1:0.0384827 2:-0.303113 3:-0.635463 4:-0.51538 5:-0.227471 6:-0.54516 7:-0.917287 
-0.3353526650873771 -0.5 1:-0.742262 2:-0.625173 3:-0.797841 4:-0.770311 5:-0.650832 6:-0.848119 7:-0.970157 
-0.5 -0.5 1:-0.143997 2:-0.0770066 3:-0.446477 4:-0.356807 5:-0.0913762 6:-0.476112 7:-0.871422 
-0.5 -0.5 1:-0.0206897 2:0.309797 3:-0.609178 4:-0.568709 5:0.237485 6:-0.484007 7:-0.904994 
-0.5 0 1:-0.268567 2:-0.131601 3:0.0695847 4:0.120163 5:-0.161427 6:-0.296292 7:-0.774394 
-0.5 -0.5 1:0.474012 2:0.578327 3:-0.468452 4:-0.477972 5:0.556013 6:-0.278192 7:-0.81577 
-0.5 -0.5 1:-0.310664 2:-0.273842 3:-0.470252 4:-0.424035 5:-0.281644 6:-0.572796 7:-0.878368 
-0.5 -0.3368942720684187 1:-0.135945 2:0.092781 3:-0.479713 4:-0.445483 5:0.0428165 6:-0.478354 7:-0.885854 
-0.5 0 1:0.0863154 2:0.187343 3:-0.433667 4:-0.393572 5:0.165583 6:-0.384527 7:-0.829389 
-0.5 -0.5 1:-0.063532 2:0.214595 3:-0.57557 4:-0.528609 5:0.153789 6:-0.49632 7:-0.904171 
0 -0.5 1:-0.465042 2:-0.383041 3:-0.626306 4:-0.597081 5:-0.400855 6:-0.729864 7:-0.946307 
0 -0.5 1:-0.39402 2:-0.17768 3:-0.733339 4:-0.639347 5:-0.225031 6:-0.645433 7:-0.939329 
0 -0.5 1:-0.0815673 2:-0.238738 3:-0.864923 4:-0.871825 5:-0.203742 6:-0.81167 7:-0.976676 
0 -0.5 1:-0.476669 2:-0.480756 3:-0.872646 4:-0.872643 5:-0.479627 6:-0.867167 7:-0.980995 
0 -0.5 1:-0.712616 2:-0.648377 3:-0.739072 4:-0.714609 5:-0.66239 6:-0.842064 7:-0.967097 
0 -0.5 1:-0.452296 2:-0.278292 3:-0.783988 4:-0.742797 5:-0.316351 6:-0.744925 7:-0.955038 
-0.5 -0.5 1:0.559266 2:-0.0112031 3:-1 4:-1 5:0.115042 6:-0.923669 7:-1 
-0.5 0 1:-0.309556 2:-0.14931 3:-0.0830009 4:-0.0310086 5:-0.184278 6:-0.386062 7:-0.831334 
-0.5 -0.5 1:-0.396051 2:0.0779802 3:-0.749166 4:-0.681331 5:-0.0260907 6:-0.616796 7:-0.937583 
-0.5 0 1:0.143549 2:0.314068 3:-0.267397 4:-0.243858 5:0.277037 6:-0.2561 7:-0.797232 
0 -0.5 1:-0.421925 2:-0.149235 3:-0.789323 4:-0.735341 5:-0.209002 6:-0.714162 7:-0.954796 
-0.5 -0.5 1:-0.120283 2:0.183873 3:-0.699264 4:-0.67573 5:0.117313 6:-0.605191 7:-0.93729 
-0.5 -0.5 1:0.220871 2:0.25006 3:-0.539987 4:-0.53526 5:0.244171 6:-0.416455 7:-0.844103 
-0.5 0 1:0.218166 2:0.23426 3:-0.428233 4:-0.41984 5:0.231252 6:-0.410377 7:-0.819377 
-0.5 0 1:-0.0611607 2:-0.0796659 3:0.107317 4:0.192744 5:-0.0751813 6:-0.187789 7:-0.688658 
-0.5 -0.1260346605768608 1:0.445891 2:0.276783 3:-0.26324 4:-0.127671 5:0.314638 6:-0.140023 7:-0.732505 
0 -0.5 1:-0.322459 2:-0.421182 3:-0.944141 4:-0.926744 5:-0.399156 6:-0.904396 7:-0.991454 
0 -0.5 1:-0.678121 2:-0.563074 3:-0.819423 4:-0.814639 5:-0.588255 6:-0.845609 7:-0.970331 
0 -0.5 1:-0.528803 2:-0.329159 3:-0.715974 4:-0.678831 5:-0.372894 6:-0.739008 7:-0.951176 
-0.5 -0.5 1:-0.164206 2:0.288621 3:-0.720147 4:-0.68687 5:0.189319 6:-0.590862 7:-0.944063 
-0.1462226979475961 -0.5 1:-0.167024 2:-0.0517024 3:-0.695087 4:-0.680432 5:-0.0767198 6:-0.685562 7:-0.949827 
0 -0.5 1:-0.169262 2:-0.167235 3:-0.709271 4:-0.671532 5:-0.167317 6:-0.722902 7:-0.959829 
-0.5 0 1:0.221412 2:0.3314 3:-0.349687 4:-0.333234 5:0.307727 6:-0.296096 7:-0.79167 
-0.1259560289515318 -0.5 1:-0.526851 2:-0.655666 3:-0.61707 4:-0.546031 5:-0.627106 6:-0.755087 7:-0.944233 
-0.5 -0.5 1:0.0510422 2:0.252473 3:-0.809521 4:-0.793514 5:0.208598 6:-0.711126 7:-0.97228 
-0.5 -0.5 1:-0.0357599 2:0.0428852 3:-0.724969 4:-0.716107 5:0.0259979 6:-0.709776 7:-0.968182 
-0.1636376711800953 -0.5 1:-0.793997 2:-0.585196 3:-0.796089 4:-0.739436 5:-0.631063 6:-0.825991 7:-0.966031 
-0.5 -0.5 1:-0.107544 2:-0.113808 3:-0.506893 4:-0.484277 5:-0.112038 6:-0.5442 7:-0.871265 
0 -0.5 1:-0.269621 2:-0.108768 3:-0.682941 4:-0.653248 5:-0.143852 6:-0.67526 7:-0.948738 
-0.5 -0.5 1:-0.28263 2:-0.129941 3:-0.596543 4:-0.578234 5:-0.163234 6:-0.608541 7:-0.914136 
-0.5 0 1:0.246828 2:0.334379 3:-0.462511 4:-0.441057 5:0.315655 6:-0.394433 7:-0.832446 
0 -0.5 1:-0.34853 2:-0.25252 3:-0.723803 4:-0.717082 5:-0.273366 6:-0.73461 7:-0.953118 
0 -0.5 1:-0.313135 2:-0.104765 3:-0.701951 4:-0.660248 5:-0.150327 6:-0.640227 7:-0.921741 
0 -0.5 1:-0.484657 2:-0.333156 3:-0.692979 4:-0.672466 5:-0.366276 6:-0.729381 7:-0.94784 
-0.5 -0.5 1:-0.189733 2:-0.00976313 3:-0.648421 4:-0.641034 5:-0.0490199 6:-0.631407 7:-0.933925 
-0.5 -0.5 1:-0.205393 2:-0.0994312 3:-0.585561 4:-0.54094 5:-0.122405 6:-0.597382 7:-0.913117 
-0.5 -0.5 1:-0.724193 2:-0.655579 3:-0.846758 4:-0.818891 5:-0.67056 6:-0.886355 7:-0.980758 
0 -0.5 1:-0.5441 2:-0.27723 3:-0.809554 4:-0.752156 5:-0.335769 6:-0.758393 7:-0.964268 
-0.5 -0.5 1:0.160678 2:0.39927 3:0.133075 4:0.122951 5:0.347264 6:0.0211507 7:-0.442991 
0 -0.5 1:-0.429303 2:-0.167153 3:-0.611203 4:-0.580499 5:-0.224603 6:-0.694572 7:-0.961899 
-0.5 0 1:-0.00434757 2:0.220328 3:-0.33411 4:-0.317826 5:0.171312 6:-0.364925 7:-0.8594 
0 -0.5 1:-0.361656 2:-0.279052 3:-0.79851 4:-0.783994 5:-0.296953 6:-0.774926 7:-0.963787 
0 -0.5 1:-0.476296 2:-0.444148 3:-0.867705 4:-0.854906 5:-0.450994 6:-0.855673 7:-0.979172 
0 -0.5 1:-0.590605 2:-0.549847 3:-0.906007 4:-0.893887 5:-0.558639 6:-0.882118 7:-0.983961 
-0.5 -0.5 1:-0.210755 2:0.200692 3:-0.708348 4:-0.654711 5:0.110477 6:-0.570399 7:-0.930994 
-0.5 0 1:-0.0226627 2:0.0353201 3:-0.391697 4:-0.288249 5:0.0229864 6:-0.359878 7:-0.860805 
-0.5 -0.5 1:0.438192 2:0.591151 3:-0.0826645 4:0.00930372 5:0.558115 6:0.0714078 7:-0.600457 
-0.5 -0.5 1:-0.0536591 2:0.17479 3:-0.681407 4:-0.672933 5:0.124923 6:-0.563592 7:-0.908708 
