svm_type c_svc
kernel_type rbf
gamma 0.125
nr_class 3
total_sv 161
rho -4.6981 -4.26366 3.65219
label 1 3 2
nr_sv 46 54 61
SV
2.353981697573832 32 1:-0.623343 2:-0.807701 
32 32 1:0.432102 2:-0.568783 
32 32 1:-0.520676 2:-0.887972 
32 32 1:-0.528202 2:-0.787112 
0 32 1:-0.740181 2:-0.617473 
32 0 1:-0.788648 2:-0.296201 
32 32 1:-0.60907 2:-0.585486 
0 32 1:-0.772129 2:-0.755489 
32 32 1:-0.452094 2:-0.420491 
32 32 1:-0.590813 2:-0.350012 
0 32 1:-0.739111 2:-0.828153 
32 32 1:-0.515419 2:-0.795934 
32 32 1:-0.467786 2:-0.171134 
32 32 1:-0.474385 2:-0.308704 
32 23.22029776144966 1:1 2:0.650056 
32 32 1:-0.610349 2:-0.683968 
0 32 1:-0.65691 2:-0.750208 
32 32 1:-0.578606 2:-0.776718 
32 32 1:-0.675548 2:-0.583441 
0 32 1:-0.669678 2:-0.828086 
32 32 1:-0.462307 2:-0.706727 
32 32 1:-0.190363 2:-0.723862 
32 32 1:-0.420803 2:-0.665756 
0 32 1:-0.606047 2:-0.901841 
32 32 1:-0.51042 2:-0.682616 
32 32 1:-0.388497 2:-0.706733 
32 32 1:-0.581371 2:-0.624022 
32 32 1:-0.427835 2:-0.427145 
32 32 1:-0.33571 2:-0.628735 
0 32 1:-0.621851 2:-0.899986 
32 32 1:-0.311553 2:-0.211391 
32 32 1:-0.680312 2:-0.640123 
32 32 1:-0.39956 2:-0.280713 
32 32 1:-0.535122 2:-0.815147 
32 32 1:-0.584207 2:-0.713298 
32 32 1:-0.550414 2:-0.696571 
32 32 1:-0.688382 2:-0.48525 
32 32 1:-0.258254 2:-0.584887 
0 32 1:-0.651136 2:-0.800341 
32 32 1:-0.594086 2:-0.742148 
0 10.80084433456572 1:-0.777805 2:-0.866311 
0 32 1:-0.673272 2:-0.934049 
32 32 1:-0.0618945 2:-0.525967 
32 17.63380033728087 1:-0.76056 2:-0.377744 
32 32 1:-0.641395 2:-0.614732 
0 32 1:-0.674317 2:-0.7846 
-17.26271068489355 32 1:-0.2053 2:-0.433976 
-32 32 1:-0.542052 2:-0.679784 
-32 0 1:-0.467412 2:0.087107 
-32 32 1:-0.501538 2:-0.744178 
-0 32 1:-0.0210061 2:-0.69012 
-32 32 1:-0.418309 2:-0.392799 
-32 32 1:-0.784746 2:-0.75161 
-0 32 1:0.203431 2:-0.376762 
-32 32 1:-0.351364 2:-0.440118 
-32 32 1:-0.457402 2:-0.624289 
-32 32 1:-0.4445 2:-0.427267 
-32 0 1:-0.348315 2:-0.162823 
-32 32 1:-0.287969 2:-0.639053 
-0 32 1:0.138229 2:-0.462321 
-32 32 1:-0.510339 2:-0.587503 
-0 32 1:0.000356865 2:-0.336348 
-32 32 1:-0.404552 2:-0.442167 
-32 32 1:-0.164695 2:-0.642782 
-32 32 1:-0.474969 2:-0.780899 
-32 32 1:-0.781533 2:-0.904262 
-18.32106540018023 5.858687049005452 1:0.897987 2:0.169666 
-0 32 1:-0.231806 2:-0.321935 
-32 32 1:-0.136836 2:-0.661915 
-0 32 1:0.00209757 2:-0.308997 
-0 32 1:0.362593 2:-0.353009 
-0 32 1:0.0953795 2:-0.44228 
-32 32 1:-0.579389 2:-0.709401 
-0 32 1:0.179376 2:-0.425068 
-32 32 1:-0.713508 2:-0.426742 
-0 32 1:-0.130789 2:-0.45606 
-32 32 1:-0.857123 2:-0.472476 
-32 32 1:-0.341373 2:-0.832351 
-32 32 1:-0.47011 2:-0.420354 
-0 32 1:-0.109144 2:-0.485208 
-10.88423648012686 10.35448138618865 1:0.461999 2:1 
-32 32 1:-0.599097 2:-0.769476 
-0 32 1:-0.00973295 2:-0.426133 
-0 32 1:0.095075 2:-0.806948 
-19.88596913237319 32 1:-0.0764169 2:-0.630224 
-0 32 1:-0.021563 2:-0.323935 
-32 32 1:-0.337553 2:-0.363748 
-32 32 1:-0.401275 2:-0.422516 
-0 32 1:0.248508 2:-0.507793 
-32 32 1:-0.567386 2:-0.581052 
-0 27.29357717869657 1:-0.0031455 2:-0.292175 
-32 32 1:-0.414266 2:-0.708152 
-0 32 1:0.0533463 2:-0.464238 
-32 32 1:-0.560588 2:-0.628478 
-32 32 1:-0.595868 2:-0.707419 
-0 32 1:-0.0354701 2:-0.597745 
-32 32 1:-0.450025 2:-0.810598 
-32 32 1:-0.353914 2:-0.339285 
-32 32 1:-0.356658 2:-0.422248 
-32 32 1:-0.523593 2:-0.81269 
-32 -32 1:-0.411882 2:-0.626068 
-32 -32 1:-0.480356 2:-0.650201 
-32 -32 1:-0.748017 2:-0.681807 
-32 -32 1:-0.514144 2:-0.542699 
-0 -32 1:0.114615 2:-0.603361 
-0 -32 1:0.235951 2:-0.548729 
-32 -32 1:-0.583007 2:-0.203535 
-32 -32 1:-0.204838 2:0.10481 
-0 -32 1:-0.183249 2:-0.633864 
-32 -32 1:-0.505276 2:-0.62694 
-32 -32 1:-0.463758 2:-0.499725 
-32 -23.68394545735969 1:-0.394749 2:-0.820123 
-0 -32 1:-0.00474966 2:-0.534322 
-32 -32 1:-0.79218 2:-0.461733 
-0 -32 1:-0.226053 2:-0.615418 
-32 -0 1:-0.865145 2:-0.716319 
-32 -32 1:-0.484096 2:-0.783531 
-0 -32 1:0.000674067 2:-0.0907286 
-32 -32 1:-0.365087 2:-0.704056 
-32 -0 1:-0.761665 2:-0.986168 
-0 -32 1:0.456826 2:-0.36671 
-32 -32 1:-0.390545 2:-0.639659 
-0 -32 1:0.154995 2:-0.190467 
-32 -32 1:-0.27748 2:-0.78377 
-32 -32 1:-0.539537 2:-0.773527 
-32 -32 1:-0.330063 2:-0.772761 
-0 -32 1:0.0279012 2:-0.522216 
-32 -32 1:-0.668767 2:-0.74406 
-32 -0 1:-0.793308 2:-0.850213 
-32 -32 1:0.367111 2:0.200019 
-32 -32 1:-0.468638 2:-0.716889 
-0 -32 1:0.7169 2:-0.00533921 
-19.65494243329624 -32 1:-0.227295 2:-0.460617 
-32 -0 1:-0.753132 2:-0.76019 
-32 -32 1:-0.717572 2:-0.449363 
-32 -0 1:-0.492033 2:-0.844382 
-32 -32 1:-0.324473 2:-0.455539 
-0 -32 1:-0.264806 2:-0.802546 
-32 -19.82280015653096 1:-0.594357 2:-0.767044 
-32 -0 1:-0.718436 2:-0.737439 
-0 -32 1:-0.0643247 2:-0.812299 
-32 -32 1:-0.357873 2:-0.768958 
-0 -32 1:0.026012 2:-0.26177 
-32 -0 1:-0.589923 2:-0.82084 
-32 -32 1:-0.442554 2:-0.202863 
-32 -0 1:-0.497296 2:-0.849067 
-32 -32 1:-0.277727 2:-0.615023 
-0 -32 1:-0.0921117 2:-0.504575 
-32 -32 1:-0.576506 2:-0.689109 
-0 -32 1:-0.217306 2:-0.626336 
-32 -32 1:-0.362212 2:-0.138024 
-32 -32 1:-0.54341 2:-0.691553 
-32 -32 1:-0.305008 2:-0.756841 
-32 -32 1:-0.459032 2:-0.667162 
-32 -32 1:-0.343623 2:-0.619624 
-32 -32 1:-0.306869 2:-0.63089 
-32 -0 1:-0.804118 2:-0.89939 
-0 -32 1:0.178068 2:-0.605567 
-32 -0 1:-0.704528 2:-0.833543 
-0 -32 1:-0.105639 2:-0.599821 
-32 -32 1:-0.499162 2:-0.789158 
