svm_type c_svc
kernel_type rbf
gamma 2
nr_class 3
total_sv 161
rho 0.364396 0.0262775 -0.482754
label 1 3 2
nr_sv 45 56 60
SV
0.4778579570872253 0.5 1:-0.623343 2:-0.777568 
0.5 0.5 1:0.432102 2:-0.501214 
0.5 0.5 1:-0.542001 2:-0.542863 
0 0.5 1:-0.649511 2:-0.857879 
0.5 0.5 1:-0.788648 2:-0.18592 
0.5 0.5 1:-0.270952 2:-0.695539 
0 0.1005835760988009 1:-0.826616 2:-0.497694 
0.5 0.5 1:-0.60907 2:-0.520534 
0 0.5 1:-0.62407 2:-0.80134 
0 0.5 1:-0.772129 2:-0.717176 
0.5 0.5 1:-0.452094 2:-0.329685 
0.5 0.5 1:-0.614344 2:-0.802838 
0 0.5 1:-0.739111 2:-0.801225 
0.5 0.5 1:-0.515419 2:-0.763958 
0.5 0.5 1:-0.467786 2:-0.0412554 
0.5 0.5 1:1 2:0.90861 
0 0.5 1:-0.65691 2:-0.711067 
0.5 0.5 1:-0.578606 2:-0.741731 
0.5 0.5 1:-0.675548 2:-0.518169 
0 0.5 1:-0.669678 2:-0.801148 
0.5 0.5 1:-0.151323 2:-0.428104 
0.5 0.5 1:-0.462307 2:-0.660773 
0.5 0.5 1:-0.190363 2:-0.680592 
0.5 0.5 1:-0.420803 2:-0.613382 
0 0.5 1:-0.606047 2:-0.88646 
0.5 0.5 1:-0.51042 2:-0.632884 
0.5 0.5 1:-0.581371 2:-0.565108 
0.3451976692394377 0.5 1:-0.825991 2:-0.428811 
0 0.5 1:-0.621851 2:-0.884314 
0.5 0.5 1:-0.311553 2:-0.0878207 
0.5 0.5 1:-0.680312 2:-0.583733 
0.5 0.5 1:-0.39956 2:-0.168005 
0.5 0.5 1:-0.535122 2:-0.786182 
0.5 0.5 1:-0.559564 2:-0.619237 
0.5 0.5 1:-0.550414 2:-0.649025 
0.5 0.5 1:-0.688382 2:-0.404592 
0.5 0.5 1:-0.585323 2:-0.679327 
0 0.5 1:-0.651136 2:-0.769056 
0.5 0.5 1:-0.584503 2:-0.825245 
0 0.5 1:-0.776891 2:-0.562916 
0 0.4257486091199353 1:-0.794674 2:-1 
0.5 0.5 1:-0.594086 2:-0.701745 
0.5 0.5 1:-0.433662 2:-0.563987 
0.5 0.5 1:-0.76056 2:-0.28024 
0.5 0.5 1:-0.641395 2:-0.554362 
-0 0.5 1:-0.2053 2:-0.345283 
-0.5 0.5 1:-0.542052 2:-0.629608 
-0.5 0.5 1:-0.467412 2:0.25745 
-0 0.5 1:-0.0210061 2:-0.641564 
-0.5 0.5 1:-0.784746 2:-0.712689 
-0.5 0.5 1:-0.457402 2:-0.565417 
-0.1312454415048778 0.5 1:-0.290035 2:0.327937 
-0.5 0.5 1:-0.4445 2:-0.337523 
-0 0.2003847249144196 1:0.358295 2:0.523047 
-0.2859170541987582 0.3420799526161016 1:0.443932 2:1 
-0 0.5 1:-0.348315 2:-0.031642 
-0.5 0.5 1:-0.287969 2:-0.582494 
-0.5 0.5 1:-0.255513 2:-0.473258 
-0.5 0 1:0.67942 2:0.876905 
-0 0.3042895765166218 1:-0.128625 2:0.325408 
-0.5 0.5 1:-0.510339 2:-0.522867 
-0 0.2059894933789768 1:0.0179553 2:-0.343491 
-0.5 0.5 1:-0.300124 2:-0.66789 
-0.5 0.5 1:-0.404552 2:-0.354758 
-0.05396043188400718 0.5 1:-0.164695 2:-0.586808 
-0.5 0.5 1:-0.365165 2:-0.541147 
-0 0.08641614640239188 1:0.622862 2:0.322227 
-0.5 0.5 1:-0.474969 2:-0.746567 
-0.5 0.3869956442694586 1:0.897987 2:0.352946 
-0 0.5 1:-0.231806 2:-0.215686 
-0.5 0.5 1:-0.227005 2:-0.759818 
-0 0.5 1:-0.136836 2:-0.60894 
-0 0.5 1:0.362593 2:-0.251629 
-0.5 0.5 1:-0.579389 2:-0.663866 
-0.5 0.5 1:-0.25332 2:-0.518865 
-0.5 0.5 1:-0.713508 2:-0.336916 
-0 0.5 1:-0.130789 2:-0.370828 
-0.5 0.5 1:-0.857123 2:-0.389816 
-0.5 0.5 1:-0.473612 2:-0.594047 
-0.5 0.5 1:-0.47011 2:-0.329527 
-0 0.5 1:-0.109144 2:-0.404543 
-0.5 0.5 1:-0.599097 2:-0.733354 
-0 0.5 1:-0.00973295 2:-0.336211 
-0.5 0.5 1:-0.270334 2:-0.521195 
-0.3519326987390199 0.5 1:0.095075 2:-0.776698 
-0 0.5 1:-0.0764169 2:-0.572282 
-0.5 0.5 1:-0.337553 2:-0.264051 
-0.5 0.5 1:-0.401275 2:-0.332027 
-0 0.5 1:0.248508 2:-0.430667 
-0 0.3734924191348029 1:0.24453 2:0.17058 
-0 0.5 1:0.388364 2:0.27443 
-0.5 0.5 1:-0.560588 2:-0.570262 
-0.5 0.5 1:-0.595868 2:-0.661574 
-0 0.5 1:0.0156381 2:-0.430962 
-0 0.5 1:-0.0354701 2:-0.534714 
-0 0.5 1:-0.0770265 2:-0.501712 
-0.5 0.5 1:-0.450025 2:-0.780919 
-0.5 0.5 1:-0.473607 2:-0.59665 
-0 0.04213584389720122 1:0.367194 2:-0.155515 
-0.5 0.5 1:-0.353914 2:-0.235755 
-0.5 0.5 1:-0.356658 2:-0.331718 
-0.5 -0.5 1:-0.411882 2:-0.567476 
-0.5 -0.5 1:-0.367928 2:-0.25327 
-0.5 -0.5 1:-0.748017 2:-0.631949 
-0.5 -0.5 1:-0.514144 2:-0.471042 
-0.5 -0.5 1:-0.603644 2:-0.687619 
-0 -0.5 1:-0.117336 2:-0.563502 
-0 -0.5 1:0.114615 2:-0.54121 
-0.5 -0.5 1:-0.479948 2:-0.227158 
-0.5 -0.5 1:-0.583007 2:-0.0787338 
-0.003663106291162835 -0.5 1:-0.204838 2:0.277928 
-0 -0.5 1:-0.183249 2:-0.576493 
-0.5 -0.5 1:-0.399476 2:-0.688065 
-0.5 -0.5 1:-0.505276 2:-0.568484 
-0.5 -0 1:-0.733949 2:-0.854059 
-0.5 -0.5 1:-0.463758 2:-0.421335 
-0.2896865878585468 -0.5 1:-0.248009 2:-0.55793 
-0 -0.5 1:-0.00474966 2:-0.461353 
-0.5 -0.5 1:-0.281662 2:-0.471797 
-0.5 -0.5 1:-0.865145 2:-0.671867 
-0.5 -0.5 1:-0.484096 2:-0.749612 
-0 -0.5 1:0.000674067 2:0.0517487 
-0 -0.5 1:-0.0472366 2:-0.41009 
-0.5 -0.5 1:-0.365087 2:-0.657683 
-0.5 -0.5 1:-0.326026 2:0.179619 
-0.5 -0.5 1:0.456826 2:-0.267477 
-0.5 -0.5 1:-0.390545 2:-0.583195 
-0 -0.5 1:0.154995 2:-0.0636175 
-0.5 -0.5 1:-0.539537 2:-0.738041 
-0 -0.5 1:0.0279012 2:-0.44735 
-0.5 -0 1:-0.668767 2:-0.703955 
-0.5 -0.5 1:0.367111 2:0.388055 
-0.5 -0.5 1:-0.468638 2:-0.672528 
-0.5 -0.5 1:-0.669824 2:-0.683682 
-0 -0.5 1:-0.227295 2:-0.376099 
-0.5 -0 1:-0.753132 2:-0.722613 
-0.5 -0.5 1:-0.341256 2:-0.347853 
-0.5 -0.5 1:-0.717572 2:-0.363082 
-0.5 -0.4417838011299744 1:-0.492033 2:-0.819997 
-0.5 -0.5 1:-0.264806 2:-0.771606 
-0.5 -0 1:-0.594357 2:-0.730541 
-0.5 -0.5 1:-0.450671 2:-0.620831 
-0.5 -0 1:-0.718436 2:-0.696297 
-0.2329824910690266 -0.5 1:-0.0643247 2:-0.782887 
-0.5 -0.5 1:-0.564503 2:-0.341076 
-0.5 -0 1:-0.589923 2:-0.792767 
-0.5 -0 1:-0.497296 2:-0.825416 
-0 -0.5 1:-0.0921117 2:-0.426945 
-0.5 -0.5 1:-0.576506 2:-0.640394 
-0 -0.5 1:-0.217306 2:-0.567785 
-0 -0.5 1:-0.142914 2:-0.563653 
-0.5 -0.5 1:-0.362212 2:-0.00295708 
-0.5 -0.5 1:-0.54341 2:-0.643221 
-0.5 -0.5 1:-0.567602 2:-0.67952 
-0.5 -0.5 1:-0.305008 2:-0.71874 
-0.5 -0.5 1:-0.343623 2:-0.560022 
-0.5 -0 1:-0.804118 2:-0.883625 
-0 -0.5 1:0.178068 2:-0.543762 
-0.5 -0 1:-0.704528 2:-0.80746 
-0 -0.5 1:0.303969 2:0.13104 
-0.5 -0.5 1:-0.499162 2:-0.756121 
