svm_type c_svc
kernel_type rbf
gamma 0.00012207
nr_class 3
total_sv 174
rho 0.322388 0.749329 -0.435913
label 3 1 2
nr_sv 59 50 65
SV
0 2048 1:-0.195826 2:0.215109 
0 2048 1:0.376277 2:-0.153493 
2048 2048 1:-0.752213 2:-0.512198 
0 2048 1:0.113871 2:0.00753675 
2048 2048 1:-0.506399 2:-0.469042 
0 2048 1:-0.426401 2:0.0428157 
2048 2048 1:-0.487395 2:-0.380388 
2048 2048 1:-0.514069 2:-0.309079 
0 2048 1:-0.124338 2:0.0106899 
2048 2048 1:-0.133599 2:-0.243751 
0 2048 1:-0.0905249 2:-0.00243541 
2048 2048 1:-0.637936 2:-0.408286 
2048 2048 1:-0.492552 2:-0.241551 
0 2048 1:-0.0250036 2:0.212432 
2048 2048 1:-0.396427 2:-0.206979 
2048 2048 1:-0.212184 2:-0.112916 
2048 2048 1:-0.344009 2:-0.135621 
2048 2048 1:-0.595568 2:-0.478418 
0 2048 1:0.0950476 2:0.084317 
2048 2048 1:-0.556342 2:0.0655713 
2048 2048 1:-0.535015 2:-0.254498 
2048 2048 1:-0.565782 2:-0.365734 
2048 2048 1:-0.353317 2:-0.11024 
2048 2048 1:-0.506507 2:-0.323779 
2048 2048 1:-0.710422 2:-0.767291 
2048 2048 1:-0.245877 2:-0.181726 
2048 2048 1:-0.221994 2:-0.176612 
2048 2048 1:-0.36358 2:-0.0805656 
0 2048 1:-0.0945821 2:0.166789 
2048 2048 1:-0.475051 2:-0.204643 
2048 2048 1:-0.804453 2:-0.694831 
418.7286821705426 2048 1:-0.27575 2:-0.0741243 
2048 2048 1:-0.324562 2:-0.298437 
2048 2048 1:-0.461961 2:-0.439297 
2048 2048 1:-0.638143 2:-0.435566 
0 2048 1:-0.135975 2:-0.0510685 
0 2048 1:-0.344908 2:0.0548237 
2048 2048 1:-0.497321 2:-0.222766 
2048 2048 1:-0.461428 2:-0.0162074 
0 2048 1:-0.025892 2:-0.0540592 
0 2048 1:-0.103874 2:0.0422225 
2048 2048 1:-0.382982 2:-0.294368 
2048 2048 1:-0.5431 2:-0.362244 
0 194.0337387211737 1:-0.190727 2:0.329899 
2048 2048 1:-0.713859 2:-0.539183 
0 2048 1:0.163837 2:0.0618406 
2048 2048 1:-0.61229 2:-0.376082 
2048 2048 1:-0.30418 2:-0.0960739 
0 2048 1:-0.178927 2:0.122015 
2048 2048 1:-0.761947 2:-0.569522 
0 2048 1:-0.178737 2:0.0818488 
0 2048 1:-0.324402 2:0.0274088 
0 2048 1:-0.0992996 2:-0.0168568 
2048 2048 1:-0.455829 2:-0.414171 
2048 2048 1:-0.533144 2:-0.43929 
0 2048 1:-0.309677 2:-0.00420399 
2048 2048 1:-0.51923 2:-0.311795 
2048 2048 1:-0.510118 2:-0.314718 
2048 2048 1:-0.542767 2:-0.492535 
-2048 2048 1:0.0166743 2:0.525462 
-2048 2048 1:-0.60177 2:-0.489429 
-2048 2048 1:-0.698022 2:-0.512143 
-2048 2048 1:-0.619725 2:-0.497445 
-0 2048 1:-0.837075 2:-0.723243 
-2048 2048 1:-0.658166 2:-0.626662 
-0 2048 1:-0.809169 2:-0.77487 
-2048 2048 1:-0.458024 2:-0.223425 
-0 2048 1:-0.79319 2:-0.815313 
-2048 2048 1:-0.76188 2:-0.583585 
-2048 2048 1:-0.569998 2:-0.599562 
-0 2048 1:-0.810746 2:-0.757274 
-0 866.2235649547463 1:-0.797645 2:-0.835637 
-2048 2048 1:-0.662204 2:-0.564137 
-2048 2048 1:-0.601369 2:-0.589203 
-2048 2048 1:-0.551509 2:-0.483829 
-2048 2048 1:-0.359637 2:-0.43309 
-2048 2048 1:-0.507985 2:-0.440119 
-2048 2048 1:-0.662937 2:-0.584948 
-0 2048 1:-0.764783 2:-0.634543 
-0 2048 1:-0.846746 2:-0.789589 
-2048 2048 1:-0.657846 2:-0.648144 
-2048 2048 1:-0.393602 2:-0.0959967 
-2048 2048 1:-0.267749 2:-0.137582 
-2048 2048 1:-0.501412 2:-0.580365 
-2048 2048 1:-0.5591 2:-0.478503 
-2048 2048 1:-0.705847 2:-0.348633 
-2048 2048 1:-0.687711 2:-0.55408 
-2048 2048 1:-0.52233 2:-0.390535 
-2048 2048 1:-0.534955 2:-0.292404 
-418.7286821705426 2048 1:-0.677611 2:-0.659471 
-2048 2048 1:-0.554228 2:-0.360416 
-2048 2048 1:-0.651398 2:-0.504816 
-2048 2048 1:-0.725539 2:-0.557101 
-2048 2048 1:-0.588374 2:-0.530851 
-2048 2048 1:-0.517639 2:-0.521105 
-0 2048 1:-0.736241 2:-0.668068 
-2048 2048 1:-0.40998 2:-0.209899 
-2048 2048 1:-0.723937 2:-0.558289 
-2048 2048 1:-0.707412 2:-0.628393 
-2048 2048 1:-0.683592 2:-0.557416 
-0 2048 1:-0.771262 2:-0.762346 
-2048 2048 1:-0.736255 2:-0.567624 
-2048 2048 1:-0.522706 2:-0.396742 
-2048 2048 1:-0.550855 2:-0.651972 
-2048 2048 1:-0.165032 2:-0.000738297 
-0 2048 1:-0.81284 2:-0.772705 
-0 2048 1:-0.82284 2:-0.744951 
-2048 2048 1:-0.734579 2:-0.618018 
-2048 2048 1:-0.680893 2:-0.653085 
-2048 -2048 1:-0.49301 2:-0.373542 
-2048 -0 1:-0.141173 2:-0.326722 
-2048 -2048 1:-0.635846 2:-0.44648 
-2048 -2048 1:-0.624241 2:-0.482471 
-2048 -2048 1:-0.594178 2:-0.577805 
-2048 -0 1:-0.290667 2:-0.0597936 
-2048 -0 1:-0.202903 2:0.187278 
-2048 -0 1:0.0802834 2:0.316524 
-2048 -2048 1:-0.542157 2:-0.446045 
-2048 -2048 1:-0.599587 2:-0.555823 
-2048 -2048 1:-0.366404 2:-0.153001 
-2048 -2048 1:-0.43552 2:-0.130004 
-2048 -2048 1:-0.599792 2:-0.360327 
-2048 -2048 1:-0.686481 2:-0.473024 
-0 -2048 1:-0.694922 2:-0.716605 
-2048 -2048 1:-0.590116 2:-0.4288 
-2048 -2048 1:-0.516035 2:-0.355292 
-2048 -866.2235649547463 1:-0.306758 2:-0.198985 
-2048 -0 1:-0.175777 2:0.0601319 
-0 -2048 1:-0.821067 2:-0.778632 
-2048 -2048 1:-0.342847 2:-0.175598 
-2048 -2048 1:-0.420121 2:-0.234832 
-2048 -2048 1:-0.565641 2:-0.450463 
-2048 -0 1:0.184336 2:0.0659092 
-2048 -0 1:-0.213692 2:0.0148752 
-2048 -2048 1:-0.618312 2:-0.323696 
-2048 -2048 1:-0.337348 2:-0.746128 
-2048 -2048 1:-0.453696 2:-0.282089 
-2048 -2048 1:-0.569768 2:-0.350814 
-2048 -0 1:0.156494 2:0.230291 
-2048 -2048 1:-0.391888 2:-0.230378 
-2048 -2048 1:-0.632023 2:-0.509519 
-2048 -2048 1:-0.507503 2:-0.286389 
-194.0337387211736 -2048 1:-0.729078 2:-0.647173 
-0 -2048 1:-0.733763 2:-0.779833 
-2048 -0 1:0.0842901 2:0.456234 
-2048 -2048 1:-0.559613 2:-0.433997 
-2048 -0 1:0.719592 2:0.828827 
-2048 -2048 1:-0.694556 2:-0.648299 
-0 -2048 1:-0.687941 2:-0.737038 
-2048 -2048 1:-0.492799 2:-0.298312 
-2048 -2048 1:-0.583826 2:-0.458918 
-2048 -2048 1:-0.458158 2:-0.280435 
-2048 -2048 1:-0.69109 2:-0.567912 
-2048 -2048 1:-0.625636 2:-0.41486 
-0 -2048 1:-0.830541 2:-0.70008 
-2048 -0 1:0.0504556 2:-0.00332688 
-2048 -2048 1:-0.560577 2:-0.316012 
-2048 -0 1:-0.128536 2:0.092899 
-2048 -2048 1:-0.676393 2:-0.536113 
-2048 -2048 1:-0.567839 2:-0.56319 
-2048 -2048 1:-0.394874 2:-0.406213 
-2048 -2048 1:-0.404028 2:-0.464524 
-2048 -2048 1:-0.441219 2:-0.230642 
-2048 -0 1:-0.204787 2:-0.166281 
-2048 -2048 1:-0.503016 2:-0.0870394 
-2048 -2048 1:-0.376756 2:-0.320633 
-2048 -2048 1:-0.650964 2:-0.513645 
-2048 -2048 1:-0.468839 2:-0.539413 
-2048 -2048 1:-0.36065 2:-0.259701 
-2048 -2048 1:-0.525118 2:-0.423766 
-2048 -2048 1:-0.453205 2:-0.261683 
-0 -2048 1:-0.736149 2:-0.685266 
-2048 -0 1:-0.245267 2:-0.0473349 
-2048 -0 1:0.235913 2:0.388976 
