svm_type c_svc
kernel_type rbf
gamma 0.5
nr_class 3
total_sv 177
rho 0.035683 0.114291 -0.0634756
label 3 1 2
nr_sv 60 52 65
SV
0.5 0.5 1:-0.153493 2:-0.443962 
0.5 0.5 1:-0.512198 2:-0.691482 
0.5 0.5 1:-0.469042 2:-0.756324 
0.5 0.5 1:0.0428157 2:-0.70189 
0.5 0.5 1:-0.380388 2:-0.402498 
0.5 0.5 1:-0.309079 2:-0.450147 
0.4038642378051684 0.5 1:-0.243751 2:0.142112 
0 0.5 1:-0.00243541 2:-0.122543 
0.5 0.5 1:-0.408286 2:-0.437207 
0.5 0.5 1:-0.241551 2:-0.650467 
0 0.5 1:0.212432 2:-0.472505 
0.5 0.5 1:-0.206979 2:-0.555371 
0 0.5 1:-0.112916 2:-0.267933 
0 0.1085811880310047 1:0.788903 2:0.620018 
0 0.5 1:-0.135621 2:-0.00383132 
0.5 0.5 1:-0.478418 2:-0.598558 
0 0.5 1:0.084317 2:-0.442402 
0 0.5 1:0.0655713 2:-0.345654 
0.5 0.5 1:-0.254498 2:-0.724809 
0.5 0.5 1:-0.365734 2:-0.45221 
0.5 0.5 1:-0.11024 2:-0.654222 
0.5 0.5 1:-0.323779 2:-0.614472 
0.5 0.5 1:-0.767291 2:-0.917524 
0.5 0.5 1:-0.181726 2:-0.331141 
0.5 0.5 1:-0.176612 2:-0.804837 
0.5 0.5 1:-0.0805656 2:-0.673489 
0 0.06383501569675375 1:1 2:0.214152 
0 0.5 1:0.166789 2:-0.452324 
0.5 0.5 1:-0.204643 2:-0.595075 
0.5 0.5 1:-0.694831 2:-0.436678 
0.5 0.5 1:-0.0741243 2:-0.4662 
0.5 0.5 1:-0.298437 2:-0.845111 
0.5 0.5 1:-0.439297 2:-0.660524 
0.5 0.5 1:-0.435566 2:-0.430246 
0.5 0.5 1:-0.0510685 2:-0.495551 
0.2218223008214878 0.5 1:0.557309 2:1 
0 0.5 1:0.0548237 2:-0.436064 
0.5 0.5 1:-0.222766 2:-0.597103 
0.5 0.5 1:-0.0162074 2:-0.641577 
0 0.5 1:-0.0540592 2:-0.261341 
0 0.5 1:0.0422225 2:-0.333155 
0.5 0.5 1:-0.294368 2:-0.373245 
0.5 0.5 1:-0.362244 2:-0.432422 
0 0.5 1:0.329899 2:-0.518294 
0.5 0.5 1:-0.539183 2:-0.592062 
0 0.5 1:0.0618406 2:-0.301174 
0.5 0.5 1:-0.376082 2:-0.720048 
0 0.1497332947453906 1:0.257435 2:-0.389511 
0 0.5 1:-0.0960739 2:-0.213696 
0 0.5 1:0.122015 2:-0.474435 
0.5 0.5 1:-0.569522 2:-0.71931 
0 0.5 1:0.0818488 2:-0.51855 
0 0.5 1:0.0274088 2:-0.608872 
0.5 0.5 1:-0.0168568 2:-0.580142 
0.5 0.5 1:-0.414171 2:-0.823207 
0.5 0.5 1:-0.43929 2:-0.66279 
0 0.5 1:-0.00420399 2:-0.385734 
0.5 0.5 1:-0.311795 2:-0.348612 
0.5 0.5 1:-0.314718 2:-0.432153 
0.5 0.5 1:-0.492535 2:-0.825314 
-0.5 0.5 1:0.525462 2:-0.579708 
-0.5 0.5 1:-0.489429 2:-0.901119 
-0.5 0.5 1:-0.512143 2:-0.615966 
-0.5 0.5 1:-0.497445 2:-0.799558 
-0.05730738299854981 0.5 1:-0.723243 2:-0.628737 
-0 0.5 1:-0.626662 2:-0.890204 
-0.5 0.5 1:-0.77487 2:-0.305227 
-0.5 0.5 1:-0.223425 2:-0.748878 
-0 0.5 1:-0.815313 2:-0.576644 
-0.5 0.5 1:-0.583585 2:-0.596527 
-0.5 0.5 1:-0.599562 2:-0.840984 
-0 0.5 1:-0.757274 2:-0.767715 
-0 0.5 1:-0.835637 2:-0.730306 
-0.5 0.5 1:-0.564137 2:-0.359413 
-0.5 0.5 1:-0.589203 2:-0.842288 
-0.5 0.5 1:-0.483829 2:-0.808441 
-0.5 0.5 1:-0.43309 2:-0.17929 
-0.5 0.5 1:-0.440119 2:-0.317818 
-0 0.5 1:-0.825553 2:-0.515554 
-0.5 0.5 1:-0.584948 2:-0.695695 
-0.5 0.5 1:-0.634543 2:-0.762396 
-0 0.5 1:-0.789589 2:-0.645676 
-0 0.5 1:-0.648144 2:-0.840816 
-0.5 0.5 1:-0.0959967 2:-0.516062 
-0.5 0.5 1:-0.137582 2:-0.735867 
-0.5 0.5 1:-0.580365 2:-0.915086 
-0.5 0.5 1:-0.478503 2:-0.694334 
-0.5 0.5 1:-0.348633 2:-0.718619 
-0.5 0.5 1:-0.55408 2:-0.635332 
-0.5 0.5 1:-0.390535 2:-0.437083 
-0.5 0.5 1:-0.292404 2:-0.640077 
-0.5 0.5 1:-0.659471 2:-0.651545 
-0.5 0.5 1:-0.360416 2:-0.289632 
-0.5 0.5 1:-0.504816 2:-0.827788 
-0.5 0.5 1:-0.557101 2:-0.725229 
-0.5 0.5 1:-0.530851 2:-0.682453 
-0 0.5 1:-0.826887 2:-0.646687 
-0.5 0.5 1:-0.521105 2:-0.708386 
-0.5 0.5 1:-0.668068 2:-0.495594 
-0.5 0.5 1:-0.209899 2:-0.595924 
-0.5 0.5 1:-0.558289 2:-0.734765 
-0.5 0.5 1:-0.628393 2:-0.812879 
-0.5 0.5 1:-0.557416 2:-0.861794 
-0 0.5 1:-0.762346 2:-0.633423 
-0.5 0.5 1:-0.567624 2:-0.754281 
-0.5 0.5 1:-0.396742 2:-0.634356 
-0 0.5 1:-0.651972 2:-0.947517 
-0.5 0.5 1:-0.000738297 2:-0.536594 
-0 0.5 1:-0.772705 2:-0.743906 
-0.5 0.5 1:-0.744951 2:-0.387339 
-0.5 0.5 1:-0.618018 2:-0.625977 
-0.06837915562810648 0.5 1:-0.653085 2:-0.797028 
-0.5 -0.5 1:-0.373542 2:-0.637392 
-0.5 -0.5 1:-0.326722 2:-0.363859 
-0.5 -0.5 1:-0.44648 2:-0.661693 
-0.5 -0.5 1:-0.482471 2:-0.553442 
-0.5 -0.5 1:-0.577805 2:-0.741984 
-0.5 -0 1:-0.0597936 2:-0.633933 
-0.5 -0 1:0.187278 2:-0.614527 
-0.5 -0 1:0.316524 2:-0.559514 
-0.5 -0.5 1:-0.446045 2:-0.341128 
-0.5 -0.5 1:-0.555823 2:-0.211917 
-0.5 -0.3995287168377626 1:-0.153001 2:0.0985762 
-0.5 -0.5 1:-0.130004 2:-0.645242 
-0.5 -0.5 1:-0.360327 2:-0.742372 
-0.5 -0.5 1:-0.473024 2:-0.63827 
-0 -0.5 1:-0.716605 2:-0.886879 
-0.5 -0.5 1:-0.4288 2:-0.510169 
-0.5 -0.5 1:-0.355292 2:-0.832798 
-0.5 -0.5 1:-0.198985 2:-0.629083 
-0.5 -0 1:0.0601319 2:-0.545007 
-0.5 -0.5 1:-0.778632 2:-0.471912 
-0.5 -0.5 1:-0.175598 2:-0.626668 
-0.5 -0.5 1:-0.234832 2:-0.554099 
-0.5 -0.5 1:-0.450463 2:-0.795952 
-0.5 -0 1:0.0659092 2:-0.0983246 
-0.5 -0 1:0.0148752 2:-0.50038 
-0.5 -0.5 1:-0.323696 2:-0.715923 
-0 -0.5 1:-0.746128 2:-1 
-0.5 -0.5 1:-0.282089 2:0.012993 
-0.5 -0.5 1:-0.350814 2:-0.651077 
-0.5 -0 1:0.230291 2:-0.198757 
-0.5 -0.5 1:-0.230378 2:-0.796193 
-0.5 -0.5 1:-0.509519 2:-0.785878 
-0.5 -0.5 1:-0.286389 2:-0.785107 
-0 -0.5 1:-0.647173 2:-0.756205 
-0 -0.5 1:-0.779833 2:-0.863098 
-0.5 -0 1:0.456234 2:0.194448 
-0.5 -0.5 1:-0.433997 2:-0.728846 
-0.5 -0 1:0.828827 2:-0.0123405 
-0.3221494984731492 -0.5 1:-0.648299 2:-0.738556 
-0 -0.5 1:-0.737038 2:-0.772448 
-0.5 -0.5 1:-0.298312 2:-0.446199 
-0.5 -0.5 1:-0.458918 2:-0.857226 
-0.5 -0.5 1:-0.280435 2:-0.465676 
-0.5 -0.5 1:-0.567912 2:-0.77935 
-0.5 -0.5 1:-0.41486 2:-0.683841 
-0 -0.5 1:-0.70008 2:-0.749539 
-0.5 -0.1004712831622374 1:-0.00332688 2:-0.82492 
-0.5 -0.5 1:-0.316012 2:-0.781277 
-0.5 -0 1:0.092899 2:-0.270557 
-0.5 -0.5 1:-0.536113 2:-0.440299 
-0.5 -0.5 1:-0.56319 2:-0.83352 
-0.5 -0.5 1:-0.406213 2:-0.21124 
-0.5 -0.5 1:-0.464524 2:-0.861944 
-0.5 -0.5 1:-0.230642 2:-0.62627 
-0.5 -0.5 1:-0.166281 2:-0.637662 
-0.5 -0.5 1:-0.0870394 2:-0.634065 
-0.5 -0.5 1:-0.320633 2:-0.145949 
-0.5 -0.5 1:-0.513645 2:-0.703333 
-0.5 -0.5 1:-0.539413 2:-0.734933 
-0.5 -0.5 1:-0.259701 2:-0.769076 
-0.5 -0.5 1:-0.423766 2:-0.678772 
-0.5 -0.5 1:-0.261683 2:-0.642247 
-0 -0.5 1:-0.685266 2:-0.846312 
-0.5 -0 1:-0.0473349 2:-0.610962 
-0.5 -0 1:0.388976 2:-0.0292976 
