svm_type c_svc
kernel_type rbf
gamma 0.03125
nr_class 3
total_sv 176
rho -0.97811 -0.955468 0.785684
label 1 3 2
nr_sv 50 62 64
SV
8 8 1:-0.607893 2:-0.623343 
8 8 1:-0.60177 2:-0.520676 
8 8 1:-0.698022 2:-0.542001 
0 8 1:-0.845724 2:-0.799546 
8 8 1:-0.619725 2:-0.528202 
4.255665429002039 8 1:-0.837075 2:-0.740181 
8 8 1:-0.658166 2:-0.649511 
8 8 1:-0.458024 2:-0.270952 
0 8 1:-0.79319 2:-0.826616 
8 8 1:-0.76188 2:-0.60907 
8 8 1:-0.569998 2:-0.62407 
0 8 1:-0.810746 2:-0.772129 
8 8 1:-0.552028 2:-0.452094 
8 8 1:-0.662204 2:-0.590813 
8 8 1:-0.601369 2:-0.614344 
8 8 1:-0.675113 2:-0.739111 
8 8 1:-0.551509 2:-0.515419 
8 8 1:-0.507985 2:-0.474385 
0 8 1:-0.870046 2:-0.836229 
8 8 1:0.927222 2:1 
8 8 1:-0.662937 2:-0.610349 
0 8 1:-0.846746 2:-0.802466 
8 8 1:-0.514298 2:-0.578606 
8 8 1:-0.751347 2:-0.675548 
8 8 1:-0.393602 2:-0.151323 
8 8 1:-0.722664 2:-0.462307 
8 8 1:-0.641631 2:-0.420803 
8 8 1:-0.501412 2:-0.606047 
0 4.778582142756754 1:-0.867862 2:-0.872569 
8 8 1:-0.705847 2:-0.388497 
8 8 1:-0.52233 2:-0.427835 
8 8 1:-0.65527 2:-0.825991 
8 8 1:-0.534955 2:-0.33571 
8 8 1:-0.64238 2:-0.621851 
8 8 1:-0.482131 2:-0.311553 
8 8 1:-0.677611 2:-0.680312 
8 8 1:-0.651398 2:-0.535122 
8 8 1:-0.725539 2:-0.584207 
8 8 1:-0.588374 2:-0.559564 
8 8 1:-0.40998 2:-0.258254 
8 8 1:-0.723937 2:-0.585323 
8 8 1:-0.683592 2:-0.584503 
8 8 1:-0.771262 2:-0.776891 
8 8 1:-0.413497 2:-0.794674 
8 8 1:-0.522706 2:-0.433662 
8 8 1:-0.742294 2:-0.777805 
8 8 1:-0.550855 2:-0.673272 
8 8 1:-0.165032 2:-0.0618945 
0 8 1:-0.82284 2:-0.76056 
8 8 1:-0.680893 2:-0.674317 
-0 8 1:-0.195826 2:0.140742 
-8 8 1:-0.752213 2:-0.542052 
-8 8 1:-0.408932 2:-0.467412 
-0 8 1:0.113871 2:-0.0541259 
-8 8 1:-0.506399 2:-0.501538 
-8 8 1:-0.396944 2:-0.307954 
-8 8 1:-0.487395 2:-0.418309 
-8 8 1:-0.826631 2:-0.784746 
-8 8 1:-0.514069 2:-0.351364 
-8 8 1:-0.59937 2:-0.457402 
-8 8 1:-0.133599 2:-0.290035 
-0 8 1:-0.145087 2:-0.0616641 
-0 8 1:-0.0905249 2:-0.0634878 
-8 8 1:-0.637936 2:-0.4445 
-8 8 1:-0.511006 2:-0.348315 
-8 8 1:-0.492552 2:-0.287969 
-0 8 1:-0.0250036 2:0.138229 
-8 8 1:-0.396427 2:-0.255513 
-8 8 1:-0.212184 2:-0.167207 
-8 8 1:-0.344009 2:-0.188522 
-0 8 1:-0.0820027 2:-0.128625 
-8 8 1:-0.595568 2:-0.510339 
-0 8 1:0.0950476 2:0.0179553 
-8 8 1:-0.535015 2:-0.300124 
-8 8 1:-0.565782 2:-0.404552 
-8 8 1:-0.506507 2:-0.365165 
-8 8 1:-0.531603 2:-0.474969 
-8 8 1:-0.710422 2:-0.781533 
-8 8 1:-0.245877 2:-0.231806 
-8 8 1:-0.221994 2:-0.227005 
-0 8 1:0.0665154 2:0.0627724 
-0 8 1:-0.0578973 2:0.00209757 
-0 8 1:-0.0945821 2:0.0953795 
-8 8 1:-0.764333 2:-0.579389 
-8 8 1:-0.475051 2:-0.25332 
-0 3.889081836661079 1:0.0394238 2:0.179376 
-8 8 1:-0.804453 2:-0.713508 
-8 8 1:-0.90944 2:-0.857123 
-8 8 1:-0.324562 2:-0.341373 
-8 8 1:-0.461961 2:-0.473612 
-8 8 1:-0.638143 2:-0.47011 
-8 8 1:-0.663648 2:-0.599097 
-0 8 1:-0.344908 2:-0.00973295 
-8 8 1:-0.497321 2:-0.270334 
-0 8 1:-0.120788 2:0.095075 
-0 8 1:-0.025892 2:-0.111952 
-0 8 1:-0.103874 2:-0.021563 
-8 8 1:-0.5431 2:-0.401275 
-8 8 1:-0.713859 2:-0.567386 
-0 8 1:0.163837 2:-0.0031455 
-8 8 1:-0.61229 2:-0.414266 
-8 8 1:-0.30418 2:-0.151395 
-0 8 1:-0.178927 2:0.0533463 
-8 8 1:-0.605927 2:-0.560588 
-0 8 1:-0.178737 2:0.0156381 
-4.255665429002039 8 1:-0.324402 2:-0.0354701 
-0 8 1:-0.0992996 2:-0.0770265 
-8 8 1:-0.455829 2:-0.450025 
-8 8 1:-0.533144 2:-0.473607 
-8 8 1:-0.309677 2:-0.0651481 
-8 8 1:-0.51923 2:-0.353914 
-8 8 1:-0.542767 2:-0.523593 
-8 -8 1:-0.49301 2:-0.411882 
-8 -8 1:-0.141173 2:-0.367928 
-8 -8 1:-0.635846 2:-0.480356 
-8 -3.889081836661079 1:-0.842732 2:-0.748017 
-8 -8 1:-0.594178 2:-0.603644 
-0 -8 1:-0.290667 2:-0.117336 
-0 -8 1:-0.202903 2:0.114615 
-0 -8 1:0.0802834 2:0.235951 
-8 -8 1:-0.542157 2:-0.479948 
-8 -8 1:-0.599587 2:-0.583007 
-8 -8 1:-0.599792 2:-0.399476 
-8 -8 1:-0.686481 2:-0.505276 
-8 -8 1:-0.694922 2:-0.733949 
-8 -8 1:-0.516035 2:-0.394749 
-8 -8 1:-0.306758 2:-0.248009 
-0 -8 1:-0.175777 2:-0.00474966 
-8 -0 1:-0.821067 2:-0.79218 
-8 -8 1:-0.342847 2:-0.226053 
-8 -8 1:-0.420121 2:-0.281662 
-8 -0 1:-0.871467 2:-0.865145 
-8 -8 1:-0.565641 2:-0.484096 
-0 -8 1:-0.213692 2:-0.0472366 
-8 -8 1:-0.618312 2:-0.365087 
-8 -8 1:-0.337348 2:-0.761665 
-8 -8 1:-0.453696 2:-0.326026 
-0 -8 1:0.314917 2:0.456826 
-8 -8 1:-0.569768 2:-0.390545 
-8 -8 1:-0.391888 2:-0.27748 
-8 -8 1:-0.507503 2:-0.330063 
-0 -8 1:-0.146498 2:0.0279012 
-8 -8 1:-0.729078 2:-0.668767 
-8 -8 1:-0.733763 2:-0.793308 
-0 -8 1:0.0842901 2:0.367111 
-0 -8 1:0.719592 2:0.7169 
-8 -8 1:-0.694556 2:-0.669824 
-8 -8 1:-0.293935 2:-0.227295 
-8 -8 1:-0.492799 2:-0.341256 
-8 -8 1:-0.758549 2:-0.717572 
-8 -8 1:-0.583826 2:-0.492033 
-8 -8 1:-0.458158 2:-0.324473 
-4.778582142756754 -8 1:-0.246667 2:-0.264806 
-8 -8 1:-0.625636 2:-0.450671 
-8 -8 1:-0.830541 2:-0.718436 
-8 -8 1:-0.560577 2:-0.357873 
-0 -8 1:-0.128536 2:0.026012 
-8 -8 1:-0.676393 2:-0.564503 
-8 -8 1:-0.394874 2:-0.442554 
-8 -8 1:-0.404028 2:-0.497296 
-8 -8 1:-0.441219 2:-0.277727 
-0 -8 1:-0.3119 2:-0.0921117 
-8 -8 1:-0.655148 2:-0.576506 
-8 -8 1:-0.503016 2:-0.142914 
-8 -8 1:-0.376756 2:-0.362212 
-8 -8 1:-0.468839 2:-0.567602 
-8 -8 1:-0.36065 2:-0.305008 
-8 -8 1:-0.525118 2:-0.459032 
-8 -8 1:-0.517128 2:-0.343623 
-8 -8 1:-0.453205 2:-0.306869 
-8 -8 1:-0.655951 2:-0.804118 
-0 -8 1:0.0958285 2:0.178068 
-8 -8 1:-0.736149 2:-0.704528 
-0 -8 1:-0.245267 2:-0.105639 
-0 -8 1:0.235913 2:0.303969 
-8 -8 1:-0.568317 2:-0.499162 
