svm_type c_svc
kernel_type rbf
gamma 0.03125
nr_class 3
total_sv 161
rho -17.9828 -7.51988 33.9065
label 1 3 2
nr_sv 42 56 63
SV
0 8192 1:-0.623343 2:-0.807701 
8192 8192 1:-0.520676 2:-0.887972 
8192 8192 1:-0.542001 2:-0.60479 
8192 8192 1:-0.528202 2:-0.787112 
0 8192 1:-0.740181 2:-0.617473 
0 8192 1:-0.649511 2:-0.877131 
8192 8192 1:-0.270952 2:-0.736783 
8192 8192 1:-0.60907 2:-0.585486 
0 8192 1:-0.62407 2:-0.828251 
8192 8192 1:-0.452094 2:-0.420491 
8192 8192 1:-0.590813 2:-0.350012 
6408.572638168135 8192 1:-0.614344 2:-0.829547 
0 296.8471157376818 1:-0.739111 2:-0.828153 
8192 8192 1:-0.515419 2:-0.795934 
8192 8192 1:-0.474385 2:-0.308704 
8192 290.5862923689575 1:1 2:0.650056 
8192 8192 1:-0.610349 2:-0.683968 
8192 8192 1:-0.578606 2:-0.776718 
8192 8192 1:-0.675548 2:-0.583441 
8192 8192 1:-0.151323 2:-0.505577 
8192 8192 1:-0.462307 2:-0.706727 
8192 8192 1:-0.420803 2:-0.665756 
0 8192 1:-0.606047 2:-0.901841 
8192 8192 1:-0.388497 2:-0.706733 
8192 8192 1:-0.427835 2:-0.427145 
0 7966.974037062516 1:-0.825991 2:-0.506188 
8192 8192 1:-0.33571 2:-0.628735 
0 8192 1:-0.621851 2:-0.899986 
8192 8192 1:-0.311553 2:-0.211391 
6308.054865197586 8192 1:-0.680312 2:-0.640123 
8192 8192 1:-0.535122 2:-0.815147 
8192 8192 1:-0.584207 2:-0.713298 
8192 8192 1:-0.559564 2:-0.670818 
8192 8192 1:-0.258254 2:-0.584887 
8192 8192 1:-0.585323 2:-0.722768 
8192 8192 1:-0.584503 2:-0.848918 
0 8192 1:-0.776891 2:-0.622127 
8192 8192 1:-0.433662 2:-0.623053 
0 8192 1:-0.673272 2:-0.934049 
8192 8192 1:-0.0618945 2:-0.525967 
8192 8192 1:-0.76056 2:-0.377744 
0 8192 1:-0.674317 2:-0.7846 
-8192 8192 1:-0.542052 2:-0.679784 
-0 8192 1:-0.467412 2:0.087107 
-8192 8192 1:-0.501538 2:-0.744178 
-8192 8192 1:-0.418309 2:-0.392799 
-8192 8192 1:-0.784746 2:-0.75161 
-8192 8192 1:-0.351364 2:-0.440118 
-8192 8192 1:-0.457402 2:-0.624289 
-8192 8192 1:-0.4445 2:-0.427267 
-0 6845.230040718631 1:-0.348315 2:-0.162823 
-8192 8192 1:-0.287969 2:-0.639053 
-0 8192 1:0.138229 2:-0.462321 
-0 8192 1:-0.255513 2:-0.544615 
-6697.309321048449 0 1:0.68406 2:0.520504 
-8192 8192 1:-0.510339 2:-0.587503 
-0 8192 1:0.0179553 2:-0.432427 
-8192 8192 1:-0.300124 2:-0.71288 
-8192 8192 1:-0.404552 2:-0.442167 
-8192 8192 1:-0.365165 2:-0.603306 
-8192 8192 1:-0.474969 2:-0.780899 
-8192 8192 1:-0.781533 2:-0.904262 
-0 6135.279000607924 1:0.897987 2:0.169666 
-0 8192 1:-0.231806 2:-0.321935 
-8192 8192 1:-0.227005 2:-0.792355 
-3950.399433374154 0 1:0.877597 2:0.219587 
-0 8192 1:0.00209757 2:-0.308997 
-0 8192 1:0.362593 2:-0.353009 
-0 8192 1:0.0953795 2:-0.44228 
-8192 8192 1:-0.579389 2:-0.709401 
-0 8192 1:-0.25332 2:-0.584043 
-0 8192 1:0.179376 2:-0.425068 
-8192 8192 1:-0.713508 2:-0.426742 
-8192 8192 1:-0.857123 2:-0.472476 
-8192 8192 1:-0.341373 2:-0.832351 
-8192 8192 1:-0.473612 2:-0.64904 
-8192 8192 1:-0.47011 2:-0.420354 
-1290.337461333633 1413.69946623734 1:0.461999 2:1 
-8192 8192 1:-0.599097 2:-0.769476 
-0 8192 1:-0.00973295 2:-0.426133 
-0 8192 1:-0.270334 2:-0.586058 
-0 8192 1:0.095075 2:-0.806948 
-0 8192 1:-0.021563 2:-0.323935 
-8192 8192 1:-0.401275 2:-0.422516 
-8192 8192 1:-0.567386 2:-0.581052 
-0 7965.277545871732 1:-0.0031455 2:-0.292175 
-8192 8192 1:-0.414266 2:-0.708152 
-0 8192 1:0.180478 2:-0.379901 
-0 8192 1:0.0533463 2:-0.464238 
-8192 8192 1:-0.560588 2:-0.628478 
-0 8192 1:0.0156381 2:-0.508048 
-0 8192 1:-0.0354701 2:-0.597745 
-0 8192 1:-0.0770265 2:-0.569214 
-8192 8192 1:-0.450025 2:-0.810598 
-8192 8192 1:-0.473607 2:-0.65129 
-0 8192 1:-0.0651481 2:-0.37615 
-778.5812876094761 8192 1:-0.353914 2:-0.339285 
-8192 8192 1:-0.523593 2:-0.81269 
-8192 -8192 1:-0.411882 2:-0.626068 
-8192 -8192 1:-0.367928 2:-0.354427 
-8192 -8192 1:-0.480356 2:-0.650201 
-8192 -8192 1:-0.748017 2:-0.681807 
-8192 -8192 1:-0.603644 2:-0.729937 
-0 -8192 1:-0.117336 2:-0.622633 
-0 -8192 1:0.114615 2:-0.603361 
-0 -8192 1:0.235951 2:-0.548729 
-8192 -8192 1:-0.479948 2:-0.331853 
-8192 -8192 1:-0.583007 2:-0.203535 
-8192 -8192 1:-0.399476 2:-0.730322 
-8192 -8192 1:-0.505276 2:-0.62694 
-8192 -0 1:-0.733949 2:-0.873829 
-8192 -0 1:-0.394749 2:-0.820123 
-0 -8192 1:-0.248009 2:-0.617816 
-0 -8192 1:-0.00474966 2:-0.534322 
-8192 -8192 1:-0.79218 2:-0.461733 
-0 -8192 1:-0.226053 2:-0.615418 
-0 -8192 1:-0.281662 2:-0.543351 
-8192 -0 1:-0.865145 2:-0.716319 
-8192 -8192 1:-0.484096 2:-0.783531 
-0 -8192 1:-0.0472366 2:-0.490004 
-8192 -8192 1:-0.365087 2:-0.704056 
-8192 -0 1:-0.761665 2:-0.986168 
-0 -8192 1:-0.326026 2:0.019819 
-0 -8192 1:0.456826 2:-0.36671 
-8192 -8192 1:-0.390545 2:-0.639659 
-362.4074451691433 -8192 1:-0.27748 2:-0.78377 
-8192 -8192 1:-0.330063 2:-0.772761 
-0 -8192 1:0.0279012 2:-0.522216 
-8192 -8192 1:-0.668767 2:-0.74406 
-8192 -0 1:-0.793308 2:-0.850213 
-0 -8192 1:0.367111 2:0.200019 
-0 -8192 1:0.7169 2:-0.00533921 
-8192 -8192 1:-0.669824 2:-0.726533 
-0 -8192 1:-0.227295 2:-0.460617 
-8192 -8192 1:-0.341256 2:-0.436198 
-8192 -8192 1:-0.717572 2:-0.449363 
-8192 -0 1:-0.492033 2:-0.844382 
-8192 -8192 1:-0.324473 2:-0.455539 
-8192 -8192 1:-0.450671 2:-0.672196 
-8192 -0 1:-0.718436 2:-0.737439 
-8192 -8192 1:-0.357873 2:-0.768958 
-0 -8192 1:0.026012 2:-0.26177 
-8192 -8192 1:-0.564503 2:-0.430338 
-8192 -8192 1:-0.442554 2:-0.202863 
-8192 -0 1:-0.497296 2:-0.849067 
-0 -8192 1:-0.277727 2:-0.615023 
-0 -8192 1:-0.0921117 2:-0.504575 
-8192 -8192 1:-0.576506 2:-0.689109 
-0 -8192 1:-0.142914 2:-0.622764 
-0 -8192 1:-0.362212 2:-0.138024 
-8192 -8192 1:-0.567602 2:-0.722935 
-8192 -8192 1:-0.305008 2:-0.756841 
-8192 -8192 1:-0.459032 2:-0.667162 
-8192 -8192 1:-0.343623 2:-0.619624 
-8192 -8192 1:-0.306869 2:-0.63089 
-8192 -0 1:-0.804118 2:-0.89939 
-0 -8192 1:0.178068 2:-0.605567 
-8192 -0 1:-0.704528 2:-0.833543 
-0 -8192 1:-0.105639 2:-0.599821 
-0 -8192 1:0.303969 2:-0.0221791 
-8192 -5975.486053435631 1:-0.499162 2:-0.789158 
