svm_type c_svc
kernel_type rbf
gamma 0.0078125
nr_class 3
total_sv 173
rho -0.749813 -1.08433 0.319811
label 1 3 2
nr_sv 54 57 62
SV
32 32 1:-0.700722 2:-0.807701 
32 32 1:0.405032 2:-0.568783 
32 32 1:-0.593161 2:-0.887972 
32 32 1:-0.615502 2:-0.60479 
0 32 1:-0.885324 2:-0.685169 
32 32 1:-0.601046 2:-0.787112 
26.67319169760716 32 1:-0.823129 2:-0.617473 
0 32 1:-0.728137 2:-0.877131 
32 32 1:-0.873907 2:-0.296201 
32 32 1:-0.331534 2:-0.736783 
32 32 1:-0.701483 2:-0.828251 
32 32 1:-0.52131 2:-0.420491 
32 32 1:-0.666641 2:-0.350012 
32 32 1:-0.691294 2:-0.829547 
0 32 1:-0.822009 2:-0.828153 
32 32 1:-0.53775 2:-0.171134 
32 32 1:-0.544663 2:-0.308704 
0 29.46148048851868 1:-0.923756 2:-0.505073 
32 32 1:1 2:0.650056 
32 32 1:-0.687109 2:-0.683968 
32 32 1:-0.735888 2:-0.750208 
32 32 1:-0.653853 2:-0.776718 
32 32 1:-0.755416 2:-0.583441 
0 32 1:-0.749266 2:-0.828086 
32 32 1:-0.206202 2:-0.505577 
32 32 1:-0.53201 2:-0.706727 
32 32 1:-0.247103 2:-0.723862 
32 32 1:-0.488527 2:-0.665756 
32 32 1:-0.582416 2:-0.682616 
32 32 1:-0.454682 2:-0.706733 
32 32 1:-0.656749 2:-0.624022 
32 32 1:-0.495895 2:-0.427145 
0 32 1:-0.91303 2:-0.506188 
32 32 1:-0.399378 2:-0.628735 
32 32 1:-0.699159 2:-0.899986 
32 32 1:-0.37407 2:-0.211391 
32 32 1:-0.466271 2:-0.280713 
32 32 1:-0.65972 2:-0.713298 
32 32 1:-0.633903 2:-0.670818 
32 32 1:-0.624317 2:-0.696571 
32 32 1:-0.768861 2:-0.48525 
32 32 1:-0.318231 2:-0.584887 
32 32 1:-0.660889 2:-0.722768 
32 32 1:-0.72984 2:-0.800341 
32 32 1:-0.66003 2:-0.848918 
0 17.66753346977228 1:-0.88022 2:-1 
32 32 1:-0.670071 2:-0.742148 
32 32 1:-0.501999 2:-0.623053 
0 32 1:-0.862546 2:-0.866311 
0 32 1:-0.75303 2:-0.934049 
32 32 1:-0.112511 2:-0.525967 
0 32 1:-0.871777 2:-0.731845 
32 32 1:-0.719635 2:-0.614732 
0 32 1:-0.754125 2:-0.7846 
-32 32 1:-0.262753 2:-0.433976 
-32 32 1:-0.537358 2:0.087107 
-32 32 1:-0.57311 2:-0.744178 
-32 32 1:-0.370299 2:-0.145299 
-32 32 1:-0.0696738 2:-0.69012 
-32 32 1:-0.485915 2:-0.392799 
-32 32 1:-0.869819 2:-0.75161 
-0 32 1:0.165461 2:-0.376762 
-32 32 1:-0.415779 2:-0.440118 
-0 32 1:-0.101271 2:-0.0733936 
-32 32 1:-0.526871 2:-0.624289 
-32 32 1:-0.351526 2:0.148045 
-0 32 1:-0.11227 2:-0.235056 
-0 32 1:-0.11418 2:-0.11478 
-32 32 1:-0.412584 2:-0.162823 
-32 32 1:-0.315359 2:-0.544615 
-26.67319169760716 32 1:-0.245175 2:0.00311109 
-0 6.411474609768244 1:-0.182422 2:0.145858 
-0 32 1:-0.0288552 2:-0.432427 
-0 32 1:-0.0472925 2:-0.336348 
-32 32 1:-0.362096 2:-0.71288 
-32 32 1:-0.220211 2:-0.642782 
-32 32 1:-0.430237 2:-0.603306 
-32 32 1:-0.545276 2:-0.780899 
-32 32 1:-0.866453 2:-0.904262 
-32 32 1:-0.285491 2:-0.792355 
-0 32 1:0.0180981 2:-0.180747 
-32 32 1:-0.191025 2:-0.661915 
-0 32 1:-0.0454688 2:-0.308997 
-32 32 1:-0.654672 2:-0.709401 
-32 32 1:-0.313061 2:-0.584043 
-0 32 1:0.140259 2:-0.425068 
-32 32 1:-0.18469 2:-0.45606 
-32 32 1:-0.945646 2:-0.472476 
-32 32 1:-0.405312 2:-0.832351 
-32 32 1:-0.543854 2:-0.64904 
-32 32 1:-0.162013 2:-0.485208 
-32 32 1:-0.67532 2:-0.769476 
-32 32 1:-0.330886 2:-0.586058 
-32 32 1:0.0519406 2:-0.806948 
-32 32 1:-0.127726 2:-0.630224 
-32 32 1:-0.164955 2:-0.252617 
-32 32 1:-0.40131 2:-0.363748 
-0 32 1:0.212687 2:-0.507793 
-32 32 1:-0.642098 2:-0.581052 
-32 32 1:-0.481679 2:-0.708152 
-0 32 1:0.141414 2:-0.379901 
-0 32 1:0.00822276 2:-0.464238 
-32 32 1:-0.634976 2:-0.628478 
-32 32 1:-0.671937 2:-0.707419 
-32 32 1:-0.0312828 2:-0.508048 
-32 32 1:-0.128364 2:-0.569214 
-32 32 1:-0.543848 2:-0.65129 
-32 32 1:-0.11592 2:-0.37615 
-0 18.76294821841972 1:0.33703 2:-0.269915 
-32 32 1:-0.421325 2:-0.422248 
-32 32 1:-0.596217 2:-0.81269 
-32 -32 1:-0.433132 2:-0.354427 
-32 -32 1:-0.550919 2:-0.650201 
-32 -32 1:-0.831339 2:-0.681807 
-32 -32 1:-0.586318 2:-0.542699 
-32 -32 1:-0.680084 2:-0.729937 
-32 -32 1:-0.170595 2:-0.622633 
-0 -32 1:0.199531 2:-0.548729 
-32 -32 1:-0.550491 2:-0.331853 
-32 -32 1:-0.262268 2:0.10481 
-32 -32 1:-0.23965 2:-0.633864 
-32 -32 1:-0.466183 2:-0.730322 
-32 -0 1:-0.816601 2:-0.873829 
-32 -32 1:-0.53353 2:-0.499725 
-32 -32 1:-0.461232 2:-0.820123 
-32 -32 1:-0.307497 2:-0.617816 
-32 -32 1:-0.877607 2:-0.461733 
-32 -32 1:-0.284494 2:-0.615418 
-32 -32 1:-0.342754 2:-0.543351 
-32 -0 1:-0.954049 2:-0.716319 
-0 -32 1:-0.0469602 2:-0.0907286 
-32 -32 1:-0.0971546 2:-0.490004 
-32 -0 1:-0.845637 2:-0.986168 
-32 -32 1:-0.389233 2:0.019819 
-0 -32 1:0.430935 2:-0.36671 
-0 -32 1:0.114717 2:-0.190467 
-32 -32 1:-0.338372 2:-0.78377 
-32 -32 1:-0.612921 2:-0.773527 
-32 -32 1:-0.393462 2:-0.772761 
-15.12901395829096 -32 1:-0.0184353 2:-0.522216 
-32 -0 1:-0.878788 2:-0.850213 
-32 -32 1:-0.538642 2:-0.716889 
-0 -32 1:0.703406 2:-0.00533921 
-32 -32 1:-0.749418 2:-0.726533 
-32 -32 1:-0.285796 2:-0.460617 
-32 -0 1:-0.836697 2:-0.76019 
-32 -32 1:-0.405189 2:-0.436198 
-32 -32 1:-0.799442 2:-0.449363 
-32 -32 1:-0.387606 2:-0.455539 
-32 -32 1:-0.325095 2:-0.802546 
-32 -32 1:-0.670354 2:-0.767044 
-32 -32 1:-0.519819 2:-0.672196 
-32 -32 1:-0.115057 2:-0.812299 
-32 -32 1:-0.422598 2:-0.768958 
-0 -32 1:-0.0204144 2:-0.26177 
-32 -32 1:-0.639077 2:-0.430338 
-32 -25.17442282818797 1:-0.665709 2:-0.82084 
-32 -32 1:-0.511315 2:-0.202863 
-32 -32 1:-0.338632 2:-0.615023 
-32 -32 1:-0.144169 2:-0.504575 
-32 -32 1:-0.651652 2:-0.689109 
-32 -32 1:-0.275331 2:-0.626336 
-32 -32 1:-0.197392 2:-0.622764 
-32 -32 1:-0.616979 2:-0.691553 
-32 -32 1:-0.642324 2:-0.722935 
-32 -32 1:-0.528579 2:-0.667162 
-32 -32 1:-0.407668 2:-0.619624 
-32 -32 1:-0.369162 2:-0.63089 
-32 -0 1:-0.890114 2:-0.89939 
-0 -32 1:0.138889 2:-0.605567 
-32 -32 1:-0.158341 2:-0.599821 
-0 -32 1:0.270792 2:-0.0221791 
-32 -32 1:-0.570622 2:-0.789158 
