svm_type c_svc
kernel_type rbf
gamma 8
nr_class 3
total_sv 157
rho 0.246156 -0.553119 0.185232
label 1 3 2
nr_sv 57 43 57
SV
32 32 1:0.247821 2:-0.550642 
31.36328242509553 32 1:0.215461 2:-0.827199 
32 32 1:-0.0274234 2:-0.545543 
32 32 1:-0.571113 2:-0.899748 
0 32 1:-0.605944 2:-0.940303 
0 26.33536414381706 1:-0.662428 2:-0.946834 
9.691566606611135 0 1:-0.596965 2:-0.597709 
32 32 1:-0.378813 2:-0.839301 
12.86154761971665 15.86787337281803 1:-0.697318 2:-0.772798 
32 32 1:-0.314254 2:-0.683821 
32 3.429927923152712 1:-0.29814 2:-0.599139 
2.081213913894643 0 1:-0.682032 2:-0.576683 
32 32 1:-0.135159 2:-0.891861 
0 32 1:-0.509317 2:-0.933479 
0 32 1:-0.701354 2:-0.927201 
27.00531812040075 0 1:-0.385017 2:-0.556953 
0 32 1:-0.650731 2:-0.91727 
8.333465380126425 19.52787301297125 1:0.405933 2:-0.833882 
32 32 1:-0.349515 2:-0.756904 
0 32 1:-0.707369 2:-0.849028 
32 32 1:-0.105568 2:-0.892974 
0 32 1:-0.645435 2:-0.949782 
24.33072939904117 0 1:0.395391 2:-0.44153 
0 32 1:-0.492736 2:-0.754968 
0.4859010500311232 32 1:-0.664112 2:-0.872416 
32 22.23534755162632 1:0.171508 2:-0.448066 
1.828496305582634 32 1:-0.402501 2:-0.893081 
32 32 1:0.139679 2:-0.808585 
0 32 1:-0.528603 2:-0.868915 
2.251238242283857 3.227051997767092 1:0.358139 2:0.356655 
32 32 1:-0.054768 2:-0.787401 
10.39449730024671 32 1:-0.559144 2:-0.892019 
0 32 1:-0.66837 2:-0.882057 
32 32 1:-0.388747 2:-0.881927 
32 32 1:-0.567055 2:-0.817448 
32 32 1:-0.255564 2:-0.873676 
32 31.83106401052793 1:-0.2016 2:-0.900727 
32 32 1:-0.353925 2:-0.828582 
0 32 1:-0.400417 2:-0.927169 
32 1.370455189477849 1:-0.167564 2:-0.885874 
32 32 1:-0.407313 2:-0.766293 
0 22.95774516303369 1:-0.859187 2:-0.966626 
4.616144339830167 13.06770251312289 1:-0.225766 2:-0.935145 
0 26.24133880359889 1:-0.918039 2:-0.963069 
0 32 1:0.0535453 2:-0.85201 
32 32 1:-0.51985 2:-0.838896 
5.940133492313116 32 1:-0.540803 2:-0.747617 
0 32 1:-0.568348 2:-0.936866 
0 32 1:-0.569254 2:-0.948744 
32 6.609764679610954 1:0.317443 2:-0.52943 
32 32 1:0.0553854 2:-0.765463 
0 32 1:-0.518005 2:-0.882336 
32 32 1:-0.0207599 2:-0.825562 
0 9.800913634580667 1:-0.885796 2:-0.944266 
32 32 1:-0.350824 2:-0.871239 
0.2237322265083523 32 1:-0.359968 2:-0.928645 
0 32 1:-0.517651 2:-0.928785 
-0.3584313781945505 2.115918416901784 1:0.203509 2:0.176394 
-21.7113677037113 32 1:0.0422344 2:-0.520116 
-0 32 1:0.0931005 2:-0.656207 
-18.33108269697978 0 1:-0.401843 2:-0.393199 
-32 32 1:-0.493766 2:-0.821819 
-1.467950445655003 32 1:0.242485 2:-0.666408 
-32 32 1:-0.456388 2:-0.78245 
-32 32 1:-0.624553 2:-0.782947 
-32 32 1:-0.521377 2:-0.883773 
-32 0 1:-0.240165 2:-0.659789 
-0 15.51616177658109 1:-0.0666673 2:-0.734986 
-32 0 1:-0.27883 2:-0.657464 
-32 32 1:0.210518 2:-0.796964 
-32 32 1:-0.121434 2:-0.882622 
-32 20.62095073501796 1:-0.485895 2:-0.656338 
-19.93129959262481 0 1:0.348054 2:-0.307713 
-32 0 1:-0.127429 2:-0.828225 
-32 25.18098509932537 1:-0.0219985 2:-0.803661 
-0 32 1:-0.161767 2:-0.592777 
-32 32 1:-0.0612942 2:-0.826471 
-0.4959551720962241 0.8830388437919926 1:0.87588 2:1 
-32 32 1:-0.248904 2:-0.778067 
-0 32 1:0.0414004 2:-0.648017 
-32 32 1:-0.527932 2:-0.889864 
-0 23.44924967507924 1:0.169751 2:-0.644953 
-0 3.824251625522741 1:0.224235 2:-0.0288766 
-32 32 1:0.0817744 2:-0.837148 
-2.888160518059446 18.45095767584702 1:-0.220788 2:-0.656978 
-32 32 1:-0.335894 2:-0.844688 
-0 32 1:-0.204675 2:-0.678153 
-32 32 1:-0.304402 2:-0.874933 
-32 32 1:0.17121 2:-0.741561 
-32 1.82695320720031 1:0.23283 2:-0.606132 
-32 32 1:-0.309984 2:-0.742768 
-32 32 1:-0.230325 2:-0.856211 
-32 0 1:0.328593 2:-0.543274 
-10.9837012355114 25.93566185725226 1:0.553389 2:-0.576007 
-32 32 1:-0.510778 2:-0.842054 
-1.239317678849722 1.571506431974294 1:0.667322 2:0.615162 
-32 32 1:0.149154 2:-0.433197 
-0 4.549402487532214 1:0.105862 2:-0.734881 
-32 32 1:-0.263499 2:-0.932567 
-32 32 1:-0.225585 2:-0.945797 
-32 -0 1:-0.790293 2:-0.967623 
-32 -0 1:-0.766009 2:-0.932274 
-32 -21.91063857049912 1:-0.62197 2:-0.832201 
-32 -0 1:-0.573592 2:-0.873201 
-32 -0 1:-0.794132 2:-0.999593 
-32 -0 1:-0.590193 2:-0.846978 
-32 -0 1:-0.850614 2:-0.909948 
-32 -32 1:-0.388666 2:-0.790987 
-0 -32 1:0.183584 2:-0.701084 
-32 -32 1:-0.606073 2:-0.796203 
-3.156662602676959 -5.251907980047688 1:0.41183 2:0.0424457 
-32 -32 1:-0.194752 2:-0.654573 
-32 -32 1:0.170714 2:-0.743722 
-32 -25.62277870053785 1:0.222933 2:-0.797148 
-2.898600906151969 -1.490566002067311 1:0.285639 2:0.660471 
-32 -32 1:-0.413862 2:-0.890036 
-24.78978324358487 -32 1:0.144533 2:-0.632265 
-32 -0 1:-0.00213283 2:-0.945015 
-7.123362053147376 -0 1:0.291764 2:-0.751204 
-32 -32 1:-0.377809 2:-0.822176 
-32 -0 1:-0.43671 2:-0.904352 
-12.67310709477856 -32 1:0.461216 2:-0.597266 
-32 -0 1:-0.604542 2:-0.888781 
-0 -32 1:-0.0680415 2:-0.593779 
-32 -32 1:-0.132516 2:-0.737056 
-32 -32 1:-0.483327 2:-0.718458 
-32 -32 1:0.237099 2:-0.746557 
-32 -0 1:-0.489647 2:-0.925812 
-32 -16.57494833037527 1:-0.421345 2:-0.841263 
-32 -0 1:-0.525627 2:-0.899206 
-32 -32 1:-0.180312 2:-0.850389 
-0.3372895945311582 -1.380587423273105 1:0.998376 2:-0.175118 
-32 -32 1:-0.441365 2:-0.94748 
-32 -0 1:-0.539777 2:-0.940523 
-32 -32 1:-0.0858734 2:-0.905481 
-32 -0 1:-0.424337 2:-0.898989 
-0 -32 1:-0.450245 2:-0.79939 
-32 -0 1:-0.553838 2:-0.868484 
-18.87250544058337 -32 1:0.0498374 2:-0.66213 
-32 -31.99771815269625 1:0.0879125 2:-0.399898 
-32 -0 1:-0.587764 2:-0.858143 
-1.033155578753143 -0 1:1 2:-0.084671 
-32 -0 1:-0.550027 2:-0.884687 
-28.18033512906864 -0 1:-0.439591 2:-0.863262 
-32 -32 1:-0.392032 2:-0.79386 
-32 -32 1:-0.0575998 2:-0.935116 
-32 -0 1:-0.457617 2:-0.919452 
-0 -32 1:0.0219786 2:-0.556255 
-32 -0 1:-0.531253 2:-0.928762 
-32 -0 1:-0.612895 2:-0.929615 
-7.4376203528293 -32 1:-0.0918079 2:-0.648797 
-32 -32 1:-0.152628 2:-0.799479 
-32 -0 1:-0.622241 2:-0.852241 
-32 -7.695892672529641 1:-0.751134 2:-0.914347 
-32 -32 1:-0.252709 2:-0.900393 
-32 -32 1:-0.0720706 2:-0.888518 
-32 -32 1:-0.397246 2:-0.834276 
