svm_type c_svc
kernel_type rbf
gamma 2
nr_class 3
total_sv 152
rho 1.01902 -0.497698 3.82475
label 1 3 2
nr_sv 54 41 57
SV
2048 1154.910457410388 1:0.496797 2:-0.443576 
0 2048 1:-0.485538 2:-0.875861 
0 2048 1:-0.573897 2:-0.913876 
652.510139931606 0 1:-0.516548 2:-0.501856 
0 2048 1:-0.55562 2:-0.840492 
2048 2048 1:-0.254868 2:-0.801012 
64.0730545589692 0 1:-0.987878 2:-0.97474 
2048 2048 1:0.00158277 2:-0.468157 
1847.640471694135 0 1:-0.158099 2:-0.503627 
2048 2048 1:-0.15769 2:-0.743201 
204.8538058609637 0 1:-0.618588 2:-0.475821 
0 2048 1:-0.411412 2:-0.917629 
0 530.0497915483238 1:-0.641765 2:-0.909856 
0 2048 1:-0.559621 2:-0.859265 
0 749.7326721759016 1:-0.750059 2:-0.959637 
0 2048 1:-0.581041 2:-0.897558 
14.89639228639408 618.8067301571432 1:0.686457 2:-0.794302 
2048 2048 1:-0.257719 2:-0.662182 
107.6414670792131 2048 1:-0.648981 2:-0.813057 
2048 2048 1:-0.0395254 2:-0.489113 
0 1902.104650991843 1:0.0728966 2:-0.867474 
1195.440637888807 2048 1:-0.391523 2:-0.696586 
1954.790233959931 0 1:-0.530556 2:-0.971994 
2048 2048 1:0.367077 2:-0.762978 
1480.423582286668 2048 1:-0.434547 2:-0.837682 
23.38858135132508 21.84833593374125 1:0.629126 2:0.6799 
2048 2048 1:0.133832 2:-0.736746 
0 2048 1:-0.55987 2:-0.810645 
0 2048 1:-0.471181 2:-0.866291 
1445.852515228677 2048 1:-0.602201 2:-0.853955 
0 2048 1:-0.480671 2:-0.773952 
2048 2048 1:-0.107028 2:-0.843577 
944.4741283715449 2048 1:-0.597353 2:-0.846359 
623.6062438376377 2048 1:-0.0422969 2:-0.877074 
0 89.50976515695115 1:-0.941232 2:-0.968513 
2048 2048 1:-0.416368 2:-0.847007 
0 2048 1:-0.280784 2:-0.909816 
586.5037704688414 0 1:-0.695781 2:-0.874093 
2048 2048 1:-0.00146992 2:-0.858681 
2048 2048 1:0.551643 2:-0.638696 
2048 2048 1:-0.289055 2:-0.710609 
0 2048 1:-0.831091 2:-0.958674 
0 1266.74375436256 1:-0.901686 2:-0.954269 
2048 2048 1:0.263757 2:-0.816749 
2048 2048 1:-0.424046 2:-0.80051 
0 2048 1:-0.449181 2:-0.687483 
2048 2048 1:-0.285608 2:-0.836484 
0 1853.72401290976 1:-0.482222 2:-0.921823 
2048 2048 1:0.0166844 2:-0.854637 
1568.19875835403 0 1:0.58031 2:-0.417309 
2048 2048 1:0.174626 2:-0.783999 
984.8307503013516 0 1:-0.659454 2:-1 
2048 2048 1:-0.221296 2:-0.840559 
0 2048 1:-0.421409 2:-0.911817 
-0 78.8759363251469 1:0.443643 2:0.456689 
-0 2048 1:0.25019 2:-0.405776 
-0 2048 1:0.311205 2:-0.574293 
-379.3886885842553 0 1:-0.282494 2:-0.248619 
-2048 2048 1:-0.0803584 2:-0.659341 
-2048 2048 1:-0.00513217 2:-0.443575 
-2048 2048 1:-0.392758 2:-0.779364 
-42.90032762601152 457.4877609891257 1:0.490396 2:-0.586924 
-2048 2048 1:-0.549641 2:-0.731231 
-2048 2048 1:-0.425878 2:-0.856081 
-2048 2048 1:-0.426548 2:-0.959681 
-0 2048 1:0.314397 2:-0.643698 
-2048 1297.851045547241 1:-0.134936 2:-0.575849 
-2048 2048 1:0.452051 2:-0.748588 
-2048 2048 1:0.0538646 2:-0.854655 
-2048 210.7965503623133 1:-0.383317 2:-0.574455 
-20.49670475670858 0 1:0.831733 2:-0.0896692 
-2048 2048 1:0.0466736 2:-0.787297 
-2048 2048 1:0.116981 2:-0.795176 
-542.8869113715888 635.0948852629936 1:0.126004 2:-0.785125 
-2048 2048 1:-0.0990396 2:-0.725188 
-0 2048 1:0.249189 2:-0.564151 
-2048 2048 1:-0.433741 2:-0.863622 
-2048 2048 1:0.297619 2:-0.798346 
-2048 2048 1:-0.720042 2:-0.960213 
-0 2048 1:-0.0431549 2:-0.61289 
-1106.588110141523 2048 1:0.474897 2:-0.693739 
-2048 2048 1:-0.203386 2:-0.807683 
-766.4186928657035 2048 1:-0.0459857 2:-0.601467 
-2048 2048 1:-0.453992 2:-0.862005 
-2048 0 1:0.478814 2:-0.512286 
-2048 2048 1:-0.172306 2:-0.681478 
-2048 2048 1:-0.0767536 2:-0.821951 
-2048 0 1:0.593685 2:-0.434452 
-2048 2048 1:-0.413165 2:-0.804421 
-11.36772894595694 0.8686037070698206 1:1 2:1 
-528.3222807163447 1056.736243180211 1:0.378443 2:-0.298147 
-60.75508845200886 2048 1:0.100367 2:-0.785207 
-0 225.1329148252026 1:0.118131 2:0.099481 
-0 866.481361988028 1:0.326513 2:-0.671712 
-2048 2048 1:-0.116546 2:-0.9165 
-2048 -0 1:-0.748451 2:-0.959909 
-2048 -0 1:-0.719322 2:-0.916137 
-1929.052670517702 -1488.704102319098 1:-0.0109029 2:-0.370073 
-2048 -1096.265483511107 1:-0.753055 2:-0.999496 
-2048 -0 1:-0.508425 2:-0.810518 
-2048 -0 1:-0.540279 2:-0.756786 
-2048 -0 1:-0.820807 2:-0.888492 
-839.3256634268904 -2048 1:-0.266688 2:-0.741186 
-2048 -1382.855165035636 1:-0.527474 2:-0.747645 
-2048 -2048 1:-0.0340825 2:-0.572269 
-0 -2048 1:0.404304 2:-0.68266 
-2048 -2048 1:0.466942 2:-0.748815 
-2048 -0 1:-0.296911 2:-0.863835 
-1314.636559948976 -2048 1:0.3729 2:-0.544646 
-1545.204317147413 -0 1:0.549508 2:-0.691924 
-2048 -0 1:-0.324318 2:-0.881563 
-0 -11.61687286257512 1:0.75277 2:-0.501308 
-2048 -2048 1:-0.525637 2:-0.862281 
-0 -487.1065863732562 1:0.369315 2:0.0650681 
-0 -2048 1:0.11791 2:-0.496991 
-1153.927415731845 -2048 1:0.0405715 2:-0.674405 
-2048 -0 1:-0.422131 2:-0.791117 
-2048 -2048 1:-0.380236 2:-0.651376 
-48.10987576362962 -0 1:0.824463 2:0.195193 
-0 -2048 1:0.483935 2:-0.68617 
-2048 -2048 1:-0.387817 2:-0.908135 
-328.7878207025249 -2048 1:-0.305887 2:-0.803442 
-2048 -2048 1:-0.106916 2:-0.7723 
-2048 -341.5515053296149 1:-0.430976 2:-0.875191 
-2048 -0 1:-0.406132 2:-0.853363 
-2048 -2048 1:-0.0167615 2:-0.814742 
-2048 -2048 1:-0.447949 2:-0.926351 
-887.6723089361212 -0 1:0.671276 2:-0.56285 
-2048 -2048 1:0.0965206 2:-0.88296 
-2048 -0 1:-0.309476 2:-0.874921 
-2048 -2048 1:-0.340554 2:-0.751591 
-0 -2048 1:0.25931 2:-0.581627 
-2048 -0 1:-0.403724 2:-0.810249 
-0 -2048 1:0.254515 2:-0.465632 
-2048 -0 1:-0.505511 2:-0.824344 
-2048 -0 1:-0.353402 2:-0.813383 
-2048 -0 1:-0.327774 2:-0.830682 
-2048 -2048 1:0.0524052 2:-0.79378 
-2048 -740.8636662354025 1:0.130436 2:-0.919656 
-2048 -0 1:-0.369456 2:-0.788563 
-2048 -1698.051994649541 1:-0.349396 2:-0.90026 
-0 -468.9258325947656 1:0.225892 2:-0.450526 
-2048 -0 1:-0.537186 2:-0.810134 
-140.7135384715172 -2048 1:0.0894021 2:-0.565117 
-2048 -2048 1:0.0164462 2:-0.751701 
-2048 -2048 1:0.211264 2:-0.738559 
-2048 -0 1:-0.546868 2:-0.817035 
-2048 -1188.656400348663 1:-0.701478 2:-0.893938 
-0 -20.72769292768809 1:0.914906 2:0.0242105 
-2048 -2048 1:0.113078 2:-0.861956 
-0 -2048 1:-0.151508 2:-0.749426 
-0 -2048 1:-0.276979 2:-0.79479 
