svm_type c_svc
kernel_type rbf
gamma 8
nr_class 3
total_sv 143
rho -0.280239 -1.28965 1.19764
label 3 1 2
nr_sv 39 55 49
SV
423.7269005088006 512 1:0.0373703 2:-0.535781 
0 385.0926509088214 1:0.0884947 2:-0.673274 
512 512 1:-0.239594 2:-0.742665 
512 512 1:-0.176563 2:-0.566621 
292.4333453783255 6.215869401680118 1:0.0254243 2:-0.771531 
0 344.8747840673706 1:0.238638 2:-0.68358 
512 512 1:-0.463785 2:-0.800819 
512 512 1:-0.632804 2:-0.80132 
512 512 1:-0.529103 2:-0.903186 
512 512 1:-0.529665 2:-0.987714 
470.6537172180475 0 1:-0.246463 2:-0.676893 
512 0 1:-0.285325 2:-0.674544 
512 487.5546025055323 1:0.206509 2:-0.815482 
512 512 1:-0.127129 2:-0.902023 
512 0 1:-0.493441 2:-0.673407 
0.9553305115336959 0 1:-0.00615067 2:0.35533 
51.54892286544365 0 1:0.344743 2:-0.321189 
461.4754104739839 296.4240067719717 1:-0.167667 2:-0.609191 
512 512 1:-0.0742442 2:-0.853494 
0.7292087781867063 0 1:0.87525 2:1 
0 512 1:0.036532 2:-0.665 
512 512 1:-0.535692 2:-0.909339 
0 43.89615440264648 1:0.220296 2:-0.0394792 
512 0 1:0.0771111 2:-0.85608 
512 351.6647122361513 1:-0.775582 2:-0.988148 
0 512 1:-0.208422 2:-0.704766 
387.9069223615708 512 1:0.225652 2:-0.770731 
512 512 1:-0.311026 2:-0.894254 
512 512 1:-0.55266 2:-0.908019 
330.7379629491058 0 1:0.228933 2:-0.622683 
512 512 1:-0.236574 2:-0.875339 
0 512 1:-0.0266888 2:-0.74653 
512 0 1:0.325184 2:-0.559178 
18.19962305047358 4.028252749071286 1:0.551121 2:-0.592248 
436.1330751846119 68.4525635983051 1:0.144833 2:-0.447966 
512 512 1:-0.088165 2:-0.84536 
0 40.51733237890985 1:-0.0732809 2:-0.12354 
512 405.8782229619012 1:-0.269916 2:-0.952482 
434.9842692480537 0 1:-0.231809 2:-0.965848 
-512 137.2143392600817 1:0.244001 2:-0.566622 
-512 455.5398245454411 1:0.211477 2:-0.846029 
-512 512 1:-0.0326412 2:-0.56147 
-420.3020341835631 0 1:-0.653128 2:-0.950341 
-512 429.0237054593503 1:-0.6141 2:-0.960298 
-0 512 1:-0.637814 2:-0.890467 
-0 512 1:-0.385815 2:-0.858255 
-0 37.81502929358176 1:-1 2:-1 
-0 15.30059737191127 1:-0.705938 2:-0.791067 
-512 0 1:-0.320929 2:-0.701172 
-512 512 1:-0.170936 2:-0.586678 
-406.3196540227574 0 1:-0.304733 2:-0.615618 
-512 512 1:-0.30439 2:-0.811087 
-512 249.7937155467366 1:-0.140924 2:-0.911356 
-215.5561208938935 512 1:-0.516983 2:-0.953403 
-47.41639151985667 512 1:-0.641166 2:-0.905784 
-126.9260883261755 0 1:-0.742217 2:-0.985695 
-0 44.67681994602176 1:0.402916 2:-0.85278 
-427.5776093886222 512 1:-0.356369 2:-0.775009 
-512 401.5240021171728 1:-0.20538 2:-0.603776 
-0 512 1:-0.111183 2:-0.912482 
-133.6313377507632 0 1:0.39232 2:-0.456385 
-0 512 1:-0.500317 2:-0.773053 
-0 512 1:-0.672563 2:-0.891711 
-512 0 1:-0.577838 2:-0.758499 
-512 0 1:0.167301 2:-0.462989 
-0 512 1:-0.409624 2:-0.912589 
-2.544205333339431 3.01965555686261 1:0.354879 2:0.350026 
-512 512 1:-0.0601248 2:-0.805821 
-0 512 1:-0.641375 2:-0.866115 
-0 478.5391726102371 1:-0.676843 2:-0.901451 
-0 512 1:-0.3958 2:-0.90132 
-410.67945215917 512 1:-0.575014 2:-0.836177 
-512 512 1:-0.261941 2:-0.892984 
-0 512 1:-0.672781 2:-0.895254 
-0 16.97620979292091 1:-0.960915 2:-0.994919 
-0 512 1:-0.360801 2:-0.847426 
-0 512 1:-0.521135 2:-0.895783 
-512 79.08783603656946 1:-0.407529 2:-0.947028 
-512 0 1:-0.173494 2:-0.905308 
-512 512 1:0.289957 2:-0.725821 
-160.5167615844632 0 1:-0.868629 2:-0.986892 
-237.3271815474526 0 1:0.0487387 2:-0.871095 
-273.0743242763792 512 1:-0.524192 2:-0.967827 
-0 512 1:-0.527569 2:-0.857845 
-474.7966992556171 156.4913839168973 1:-0.548628 2:-0.765627 
-0 512 1:-0.411572 2:-0.887197 
-0 512 1:-0.577224 2:-0.968825 
-512 512 1:-0.158283 2:-0.902008 
-65.28222077531785 0 1:0.313977 2:-0.54519 
-512 512 1:0.0505881 2:-0.783657 
-0 512 1:-0.525714 2:-0.901733 
-419.5346075107665 280.4800290563483 1:-0.025944 2:-0.844375 
-0 512 1:-0.357685 2:-0.890522 
-512 0 1:-0.366875 2:-0.94852 
-292.5403346844095 -512 1:-0.774978 2:-0.952186 
-150.8251914493467 -512 1:-0.630208 2:-0.851082 
-428.6641731855547 -484.2021451890551 1:-0.181398 2:-0.50665 
-0 -426.8621990826333 1:-0.581583 2:-0.892505 
-0 -512 1:-0.598269 2:-0.866011 
-512 -512 1:-0.624959 2:-0.822171 
-512 -512 1:-0.395719 2:-0.809443 
-512 -255.5752816154424 1:0.179437 2:-0.718614 
-512 -512 1:-0.20082 2:-0.671623 
-512 -512 1:0.218986 2:-0.815668 
-2.818680662508975 -1.152102641298427 1:0.282011 2:0.656972 
-0 -512 1:-0.421043 2:-0.909513 
-512 -0 1:0.140188 2:-0.649086 
-0 -201.1581109306011 1:-0.00722227 2:-0.965058 
-269.9404559468537 -306.5432786852128 1:0.288167 2:-0.76925 
-0 -512 1:-0.384807 2:-0.840953 
-0 -512 1:-0.612691 2:-0.908244 
-86.66674590741229 -0 1:0.137185 2:-0.151618 
-512 -0 1:-0.138268 2:-0.754956 
-129.145059979013 -0 1:-0.525964 2:-0.850182 
-5.729083345126633 -0.5623744059055803 1:0.518551 2:-0.0454483 
-295.2090377754676 -512 1:-0.497212 2:-0.945657 
-0 -512 1:-0.261847 2:-0.834829 
-0 -311.0598039009849 1:-0.533375 2:-0.918778 
-512 -512 1:-0.186307 2:-0.869457 
-1.317860055149371 -0 1:0.998368 2:-0.187228 
-512 -512 1:-0.448685 2:-0.967549 
-512 -512 1:-0.547597 2:-0.96052 
-0 -127.0889405251464 1:0.390197 2:-0.663938 
-512 -512 1:-0.0913882 2:-0.925117 
-0 -512 1:-0.431571 2:-0.918558 
-512 -512 1:-0.457611 2:-0.817932 
-0 -2.316579165150895 1:0.0832804 2:-0.414324 
-512 -474.7473741892582 1:0.0409943 2:-0.584617 
-0 -512 1:-0.595827 2:-0.877292 
-207.4635911949254 -512 1:-0.399102 2:-0.812346 
-413.1602216849548 -512 1:-0.128352 2:-0.852354 
-292.5460372892904 -0 1:0.0170116 2:-0.572292 
-0 -512 1:-0.539029 2:-0.948637 
-0 -512 1:-0.622367 2:-0.865698 
-422.6708864324546 -512 1:-0.621086 2:-0.9495 
-512 -280.1281726874879 1:-0.0973527 2:-0.665788 
-457.638387344638 -32.99513690575289 1:-0.158482 2:-0.818023 
-512 -512 1:0.0047544 2:-0.807299 
-0 -512 1:-0.63048 2:-0.871329 
-512 -512 1:-0.259071 2:-0.919976 
-2.263405045255684 -3.197973654852288 1:0.594333 2:-0.184954 
-0 -389.8928469313505 1:-0.29921 2:-0.816166 
-0 -512 1:-0.404342 2:-0.853178 
