svm_type c_svc
kernel_type rbf
gamma 8
nr_class 3
total_sv 142
rho 15.0065 8.19647 5.10627
label 1 2 3
nr_sv 52 53 37
SV
0 7556.833451429119 1:0.247821 2:-0.550642 
5837.797700298209 171.1646263178135 1:0.215461 2:-0.827199 
4975.01636214155 8192 1:-0.0274234 2:-0.545543 
8192 4003.44685723354 1:-0.571113 2:-0.899748 
0 367.7035199246603 1:-0.596965 2:-0.597709 
8192 492.1991713247317 1:-0.629538 2:-0.871184 
2640.000473579403 0 1:-0.868987 2:-0.894609 
0 1686.126845567576 1:-0.314254 2:-0.683821 
109.9387882136953 8192 1:-0.165019 2:-0.570494 
8192 8192 1:-0.297799 2:-0.792614 
5351.743995553993 0 1:-0.135159 2:-0.891861 
0 1492.302328128001 1:-0.385017 2:-0.556953 
8192 0 1:-0.632873 2:-0.886345 
8192 3465.03539952663 1:-0.791634 2:-0.967403 
340.2140036387744 0 1:0.405933 2:-0.833882 
5711.723947699546 7355.89271345956 1:-0.349515 2:-0.756904 
0 727.3044595435873 1:-0.381189 2:-0.727185 
0 1721.650891182573 1:-0.750669 2:-0.918721 
4970.837857538448 0 1:-0.707369 2:-0.849028 
0 6841.842003469475 1:-0.19929 2:-0.587418 
8192 0 1:-0.105568 2:-0.892974 
0 1637.737008695789 1:0.395391 2:-0.44153 
4690.171620702155 0 1:-0.664112 2:-0.872416 
3761.929179386501 8192 1:-0.569866 2:-0.740562 
49.6414199647547 586.8080792789954 1:0.171508 2:-0.448066 
8192 0 1:-0.402501 2:-0.893081 
3199.406993687821 1792.824400387476 1:0.139679 2:-0.808585 
8192 8192 1:-0.528603 2:-0.868915 
0 927.6964972067312 1:-0.795635 2:-0.933406 
8192 0 1:-0.633081 2:-0.84708 
8192 8192 1:-0.559144 2:-0.892019 
8192 0 1:-0.388747 2:-0.881927 
2981.706026193096 0 1:-0.815039 2:-0.944357 
0 1828.56189910612 1:-0.255564 2:-0.873676 
8192 0 1:-0.353925 2:-0.828582 
8192 8192 1:-0.513449 2:-0.876446 
8192 4763.101845982292 1:-0.400417 2:-0.927169 
0 8192 1:-0.167564 2:-0.885874 
8192 6721.775737636477 1:0.293545 2:-0.708218 
8192 8192 1:-0.407313 2:-0.766293 
0 8192 1:-0.225766 2:-0.935145 
8192 4730.283791536158 1:-0.516491 2:-0.947755 
8192 8192 1:-0.540803 2:-0.747617 
8192 0 1:-0.404439 2:-0.867948 
4837.926116285617 0 1:-0.568348 2:-0.936866 
8192 5430.189480928775 1:-0.15243 2:-0.882607 
8192 8192 1:0.0553854 2:-0.765463 
8192 8192 1:-0.518005 2:-0.882336 
3455.661944536059 2732.905656874702 1:-0.7161 2:-1 
8192 0 1:-0.831893 2:-0.948395 
2172.589331391033 8192 1:-0.359968 2:-0.928645 
8192 0 1:-0.517651 2:-0.928785 
-8192 0 1:-0.790293 2:-0.967623 
-8192 0 1:-0.62197 2:-0.832201 
-734.3226643713401 2838.425924067086 1:-0.175428 2:-0.491283 
-8192 0 1:-0.573592 2:-0.873201 
-5260.67486256586 4007.089482382831 1:-0.794132 2:-0.999593 
-7628.873469059637 1957.575652030655 1:-0.616749 2:-0.803585 
-8192 223.549484431621 1:-0.850614 2:-0.909948 
-0 8192 1:0.183584 2:-0.701084 
-0 8192 1:-0.606073 2:-0.796203 
-0 8192 1:-0.194752 2:-0.654573 
-1101.855019900519 8192 1:0.170714 2:-0.743722 
-8192 0 1:0.222933 2:-0.797148 
-0 6.429016346791105 1:0.285639 2:0.660471 
-0 8192 1:0.144533 2:-0.632265 
-8192 2758.072601455662 1:-0.377809 2:-0.822176 
-1945.982573786138 0 1:0.395952 2:-0.682311 
-8192 0 1:-0.43671 2:-0.904352 
-0 838.3572002165555 1:0.461216 2:-0.597266 
-8192 1096.360025102633 1:-0.604542 2:-0.888781 
-0 35.52163600022699 1:0.141545 2:-0.139871 
-2212.914148309291 0 1:-0.0680415 2:-0.593779 
-8192 8192 1:-0.483327 2:-0.718458 
-6792.604511218127 7516.105480076694 1:0.237099 2:-0.746557 
-8192 0 1:-0.421345 2:-0.841263 
-7576.817212802043 0 1:-0.425443 2:-0.8371 
-1253.160684177121 0 1:-0.255471 2:-0.816114 
-8192 8192 1:-0.180312 2:-0.850389 
-0 11.36497170494273 1:0.998376 2:-0.175118 
-7886.797970807896 8192 1:-0.441365 2:-0.94748 
-8192 4306.173102318749 1:-0.539777 2:-0.940523 
-8192 6047.796442437802 1:-0.424337 2:-0.898989 
-0 8192 1:0.0498374 2:-0.66213 
-0 5615.081534833107 1:-0.502908 2:-0.84676 
-3326.886787312281 7640.678324015146 1:0.0458401 2:-0.568454 
-226.9095373244016 1579.75777358784 1:0.0130526 2:-0.40202 
-8148.824132032168 0 1:-0.587764 2:-0.858143 
-0 4983.338103762318 1:-0.460956 2:-0.849292 
-8192 8192 1:-0.550027 2:-0.884687 
-8192 8192 1:-0.392032 2:-0.79386 
-0 8192 1:-0.122651 2:-0.833461 
-3123.286165481279 0 1:-0.0575998 2:-0.935116 
-0 7895.803474831285 1:-0.47434 2:-0.829247 
-8192 0 1:-0.457617 2:-0.919452 
-8192 0 1:-0.531253 2:-0.928762 
-8192 0 1:-0.61417 2:-0.846668 
-8192 8192 1:-0.612895 2:-0.929615 
-0 8192 1:-0.152628 2:-0.799479 
-6058.396021662521 8192 1:0.00978333 2:-0.788865 
-8192 2271.163431260898 1:-0.751134 2:-0.914347 
-8192 8192 1:-0.252709 2:-0.900393 
-0 7.954764050229208 1:0.596382 2:-0.172867 
-8192 2465.131824284032 1:-0.0720706 2:-0.888518 
-8192 8192 1:-0.292645 2:-0.797641 
-6479.150773709569 -8192 1:0.0422344 2:-0.520116 
-2160.377961889863 -8192 1:0.0931005 2:-0.656207 
-8192 -6348.457574935132 1:-0.170617 2:-0.550642 
-8192 -8192 1:-0.493766 2:-0.821819 
-0 -4000.673431522235 1:0.242485 2:-0.666408 
-8192 -8192 1:-0.456388 2:-0.78245 
-8192 -8192 1:-0.624553 2:-0.782947 
-8192 -8192 1:-0.521377 2:-0.883773 
-8192 -8192 1:-0.521935 2:-0.967439 
-3448.357458071105 -0 1:-0.240165 2:-0.659789 
-0 -8010.257663059961 1:0.0957613 2:-0.712257 
-0 -6835.154914775306 1:-0.0666673 2:-0.734986 
-7477.240430170759 -2693.183267978446 1:-0.485895 2:-0.656338 
-520.6709192073425 -0 1:0.348054 2:-0.307713 
-0 -8192 1:-0.127429 2:-0.828225 
-8192 -0 1:-0.161767 2:-0.592777 
-8192 -5861.937568289575 1:-0.0688161 2:-0.834588 
-4481.001812293211 -0 1:-0.0612942 2:-0.826471 
-0 -8192 1:-0.248904 2:-0.778067 
-8192 -8192 1:-0.527932 2:-0.889864 
-725.5357250425541 -5264.560020281925 1:0.169751 2:-0.644953 
-8192 -8192 1:-0.76661 2:-0.967869 
-0 -55.77142440105493 1:-0.202315 2:-0.687378 
-8192 -8192 1:0.229565 2:-0.752669 
-8192 -8192 1:-0.335894 2:-0.844688 
-8192 -8192 1:-0.304402 2:-0.874933 
-8192 -8192 1:-0.544815 2:-0.888558 
-0 -8192 1:0.17121 2:-0.741561 
-2710.076078318511 -0 1:0.23283 2:-0.606132 
-8192 -8192 1:-0.309984 2:-0.742768 
-6208.871388323361 -0 1:0.328593 2:-0.543274 
-54.10411771442071 -439.3315423626432 1:0.553389 2:-0.576007 
-8192 -8192 1:-0.510778 2:-0.842054 
-0 -8192 1:-0.0826665 2:-0.826537 
-0 -187.1442621239818 1:-0.0678577 2:-0.11208 
-8192 -8021.258579466753 1:-0.263499 2:-0.932567 
-8192 -0 1:-0.225585 2:-0.945797 
