svm_type c_svc
kernel_type rbf
gamma 8
nr_class 3
total_sv 133
rho 16.1408 -5.13365 -9.58132
label 3 1 2
nr_sv 35 49 49
SV
60.18783522354332 19.18608523942814 1:0.540321 2:0.0373703 
0 4358.541334037021 1:-0.00174712 2:0.0884947 
2871.786233251766 0 1:0.0967608 2:-0.176563 
0 31619.0893260009 1:-0.361942 2:0.0254243 
32768 32768 1:-0.670829 2:-0.463785 
0 32768 1:-0.187017 2:0.141851 
32768 32768 1:-0.679703 2:-0.632804 
32768 32768 1:-0.597061 2:-0.529103 
32768 19602.70874676164 1:-0.484196 2:-0.529665 
773.474197857857 0 1:0.0101098 2:0.091169 
32768 32768 1:-0.540762 2:-0.493441 
4.056517563867455 0 1:0.445524 2:0.344743 
11.40115052797369 79.48060601525594 1:0.347474 2:0.524643 
32768 0 1:-0.0587328 2:-0.167667 
32768 32768 1:-0.392475 2:-0.0742442 
13.4084929166078 0 1:0.355274 2:0.87525 
32768 32768 1:-0.611428 2:-0.535692 
63.62757253151167 0 1:0.0913858 2:0.173277 
2357.215924482025 0 1:-0.339718 2:0.220296 
0 3889.210560865557 1:-0.336906 2:0.0771111 
32768 0 1:-0.817321 2:-0.775582 
0 14540.73070858722 1:-0.379877 2:-0.208422 
14487.38627145954 14117.5266144381 1:-0.285326 2:-0.226988 
0 18146.46996185254 1:-0.186467 2:0.225652 
18687.12639271364 32768 1:-0.402394 2:-0.210793 
32768 32768 1:-0.49197 2:-0.311026 
32768 32768 1:-0.686914 2:-0.55266 
0 17251.01371993545 1:-0.293115 2:0.228933 
13263.74359725032 25885.28516345282 1:-0.593407 2:-0.236574 
0 32768 1:-0.210357 2:-0.0266888 
0 34.56641061195287 1:0.328851 2:0.325184 
15.46672973207172 0 1:1 2:0.551121 
26200.19881290352 0 1:-0.507209 2:-0.088165 
25582.42375348837 32768 1:-0.189944 2:-0.0732809 
0 6963.798250888683 1:-0.14742 2:-0.231809 
-2220.972885942324 25063.93709673918 1:-0.294224 2:0.244001 
-2078.512848552193 24397.1746100026 1:-0.558318 2:-0.618564 
-17683.36954760435 0 1:-0.451889 2:-0.0326412 
-0 3123.593255066275 1:-0.657751 2:-0.6141 
-0 32768 1:-0.77447 2:-0.637814 
-0 32768 1:-0.486577 2:-0.385815 
-8972.527816892874 0 1:-0.841713 2:-0.766114 
-24254.20325409908 0 1:-0.0187475 2:-0.170936 
-1333.053663666989 127.0505631409852 1:-0.197754 2:-0.304733 
-32768 32768 1:-0.493026 2:-0.30439 
-32768 13834.6571589888 1:-0.507829 2:-0.140924 
-32768 32768 1:-0.630342 2:-0.516983 
-3998.779721919677 0 1:-0.858935 2:-0.79501 
-0 1323.984719960428 1:-0.721538 2:-0.641166 
-0 8544.095025616129 1:-0.242705 2:0.402916 
-1015.56380855385 32768 1:-0.698918 2:-0.356369 
-19619.06969811092 32768 1:-0.659195 2:-0.388204 
-0 32768 1:-0.634272 2:-0.748463 
-162.9719914028499 43.68569376395391 1:0.399483 2:-0.20538 
-32768 32768 1:-0.320197 2:-0.111183 
-28745.32459057632 32768 1:-0.560141 2:-0.500317 
-0 1071.036229786864 1:-0.889519 2:-0.672563 
-31700.90081234018 32768 1:-0.653623 2:-0.577838 
-126.7846672203596 244.602412720112 1:0.262601 2:0.167301 
-19801.97701654783 0 1:-0.785883 2:-0.777861 
-0 32768 1:-0.607289 2:-0.616813 
-15880.79375872987 21227.79207701249 1:-0.130374 2:-0.0601248 
-0 32768 1:-0.79369 2:-0.641375 
-0 32768 1:-0.553184 2:-0.3958 
-0 3152.740786324967 1:-0.759615 2:-0.824257 
-32768 32768 1:-0.696813 2:-0.575014 
-4118.282522258864 0 1:-0.539622 2:-0.261941 
-0 32768 1:-0.595813 2:-0.360801 
-3164.713386418164 32768 1:-0.735123 2:-0.521135 
-0 32768 1:-0.458272 2:-0.407529 
-13968.29042000084 1857.451490500255 1:-0.156631 2:-0.173494 
-8265.35232703461 27634.63167938239 1:-0.491851 2:-0.524192 
-0 32768 1:-0.80908 2:-0.527569 
-32768 32768 1:-0.613428 2:-0.548628 
-0 32768 1:-0.50184 2:-0.411572 
-0 32768 1:-0.651666 2:-0.577224 
-10622.34293407329 32768 1:-0.304918 2:-0.158283 
-0 3470.07676812426 1:-0.124546 2:0.313977 
-0 268.3434319090931 1:0.102012 2:0.0505881 
-32768 32768 1:-0.50087 2:-0.525714 
-2637.981748388204 0 1:-0.487577 2:-0.025944 
-0 4245.558201041781 1:-0.611596 2:-0.357685 
-4316.888425823836 0 1:-0.779386 2:-0.715379 
-10774.84563574546 0 1:-0.403091 2:-0.366875 
-1232.647366582863 -28348.17392830303 1:-0.670627 2:-0.774978 
-148.5367873683913 -32768 1:-0.797454 2:-0.630208 
-0 -14714.84069780753 1:-0.849188 2:-0.581583 
-32768 -32768 1:-0.680268 2:-0.598269 
-0 -11372.31736688273 1:-0.812558 2:-0.624959 
-0 -32768 1:-0.533747 2:-0.395719 
-29930.49936808043 -0 1:-0.283973 2:0.179437 
-1288.32767313666 -0 1:0.0318458 2:0.218986 
-8066.024753686547 -0 1:-0.160749 2:0.282011 
-22524.22398432804 -32768 1:-0.452448 2:-0.421043 
-32768 -0 1:-0.189495 2:0.140188 
-303.680845806285 -465.1485503399962 1:0.206966 2:-0.00722227 
-2275.139743580244 -29930.56038639396 1:-0.274088 2:0.288167 
-9767.692399012569 -32768 1:-0.544715 2:-0.384807 
-0 -1808.476257958047 1:-0.060489 2:0.392884 
-0 -32768 1:-0.562251 2:-0.612691 
-0 -9353.626484816414 1:-0.562921 2:-0.525964 
-0 -1632.949495769303 1:-0.219919 2:0.518551 
-0 -9868.275335631053 1:-0.739546 2:-0.428564 
-0 -32768 1:-0.646975 2:-0.432682 
-32768 -22421.50225031318 1:-0.478043 2:-0.261847 
-23424.9246013309 -16997.33828267282 1:-0.689347 2:-0.533375 
-32768 -0 1:-0.577835 2:-0.512558 
-32768 -31235.46031250984 1:-0.374417 2:-0.186307 
-14.24832376035452 -0 1:0.418732 2:0.998368 
-0 -32768 1:-0.482766 2:-0.448685 
-1906.777886925155 -32768 1:-0.56127 2:-0.547597 
-474.4544074153294 -350.1261848196059 1:-0.376463 2:0.390197 
-22641.19978977738 -12521.22758918794 1:-0.322246 2:-0.0913882 
-0 -31207.82413921967 1:-0.502049 2:-0.431571 
-5706.717885408737 -20583.62905954619 1:-0.645557 2:-0.457611 
-0 -32768 1:-0.717776 2:-0.561729 
-17373.65971729118 -0 1:-0.137177 2:0.0409943 
-0 -32768 1:-0.742495 2:-0.595827 
-4.370031270176889 -10.50363315684534 1:0.809909 2:1 
-32768 -32768 1:-0.547101 2:-0.557899 
-0 -32768 1:-0.527952 2:-0.399102 
-32768 -32768 1:-0.218369 2:-0.128352 
-20077.03828063818 -0 1:-0.582141 2:-0.481828 
-32768 -7333.252976156949 1:-0.339675 2:0.0170116 
-32768 -32768 1:-0.671159 2:-0.539029 
-10019.06854574105 -32768 1:-0.66119 2:-0.622367 
-0 -32768 1:-0.561071 2:-0.621086 
-16695.85802723876 -7821.381030778195 1:-0.152776 2:-0.0445873 
-28320.83508184329 -7616.540706133354 1:-0.453478 2:-0.0973527 
-0 -5109.256531683232 1:-0.0713465 2:0.0047544 
-7703.812876564692 -0 1:-0.201778 2:-0.259071 
-24911.86911189936 -32768 1:-0.630688 2:-0.29921 
-0 -32768 1:-0.732471 2:-0.404342 
