svm_type c_svc
kernel_type rbf
gamma 8
nr_class 3
total_sv 172
rho 0.0953302 0.191467 0.477474
label 1 3 2
nr_sv 62 46 64
SV
0.5 0.5 1:-0.445384 2:0.215461 
0 0.08107991811958047 1:-0.558318 2:-0.610385 
0.5 0.5 1:-0.451889 2:-0.0274234 
0.5 0.5 1:-0.875597 2:-0.571113 
0 0.006963864373395275 1:-0.942032 2:-0.771833 
0 0.5 1:-0.740379 2:-0.662428 
0.198390855314862 0.5 1:-0.483847 2:-0.596965 
0 0.5 1:-0.77447 2:-0.629538 
0.5 0.5 1:-0.486577 2:-0.378813 
0.4515293129520355 0.5 1:-1 2:-0.989894 
0 0.02930169699033084 1:-0.923877 2:-0.95498 
0.5 0.5 1:-0.985226 2:-1 
0.5 0.5 1:-0.598923 2:-0.314254 
0.5 0.5 1:-0.0187475 2:-0.165019 
0.5 0.5 1:-0.197754 2:-0.29814 
0.5 0.5 1:-0.493026 2:-0.297799 
0.5 0.5 1:-0.507829 2:-0.135159 
0 0.07159872195676077 1:-0.630342 2:-0.509317 
0 0.3143627571835336 1:-0.996614 2:-0.939396 
0.5 0.3395054515161642 1:-0.617709 2:-0.385017 
0 0.5 1:-0.721538 2:-0.632873 
0 0.06739267351063503 1:-0.708392 2:-0.650731 
0.5 0.5 1:-0.698918 2:-0.349515 
0 0.5 1:-0.659195 2:-0.381189 
0.5 0.5 1:-0.634272 2:-0.739628 
0.5 0.5 1:0.399483 2:-0.19929 
0.5 0.5 1:-0.152353 2:0.395391 
0.5 0.5 1:-0.889519 2:-0.664112 
0 0.5 1:-0.653623 2:-0.569866 
0.5 0.5 1:0.262601 2:0.171508 
0.5 0.5 1:-0.437033 2:-0.402501 
0.5 0.5 1:-0.353569 2:0.139679 
0 0.5 1:-0.797419 2:-0.528603 
0.5 0.5 1:-0.194723 2:0.358139 
0.5 0.5 1:-0.130374 2:-0.054768 
0 0.5 1:-0.79369 2:-0.633081 
0 0.5 1:-0.777049 2:-0.559144 
0 0.5 1:-0.821395 2:-0.66837 
0.5 0.5 1:-0.553184 2:-0.388747 
0 0.5 1:-0.759615 2:-0.815039 
0 0.5 1:-0.696813 2:-0.567055 
0 0.5 1:-0.819246 2:-0.664329 
0.5 0.5 1:-0.539109 2:-0.2016 
0.5 0.5 1:-0.595813 2:-0.353925 
0 0.5 1:-0.735123 2:-0.513449 
0.5 0.5 1:-0.319863 2:0.293545 
0.5 0.5 1:-0.496417 2:-0.407313 
0.5 0.5 1:-0.574582 2:-0.225766 
0.5 0.5 1:-0.470561 2:0.0535453 
0 0.5 1:-0.491851 2:-0.516491 
0.08694036788593784 0.5 1:-0.80908 2:-0.51985 
0.5 0.5 1:-0.50184 2:-0.404439 
0 0.5 1:-0.521296 2:-0.568348 
0 0.5 1:-0.575384 2:-0.679989 
0.5 0.5 1:-0.304918 2:-0.15243 
0.5 0.5 1:-0.124546 2:0.317443 
0.5 0.5 1:0.102012 2:0.0553854 
0 0.5 1:-0.50087 2:-0.518005 
0.5 0.5 1:-0.487577 2:-0.0207599 
0.5 0.5 1:-0.582199 2:-0.7161 
0.5 0.5 1:-0.611596 2:-0.350824 
0.5 0.5 1:-0.403091 2:-0.359968 
-0.5 0.5 1:0.458202 2:0.203509 
-0.5 0.5 1:-0.583507 2:-0.401843 
-0.5 0.5 1:-0.306216 2:-0.233331 
-0.5 0.5 1:0.0967608 2:-0.170617 
-0 0.5 1:-0.361942 2:0.0303488 
-0.5 0.5 1:-0.657934 2:-0.493766 
-0.5 0.5 1:-0.670829 2:-0.456388 
-0.5 0.5 1:-0.484196 2:-0.521935 
-0.5 0.5 1:-0.330063 2:-0.240165 
-0.1007918664002183 0.5 1:0.0101098 2:0.0957613 
-0 0.5 1:-0.402387 2:-0.0666673 
-0.5 0.5 1:-0.452625 2:-0.27883 
-0.5 0.5 1:0.0107956 2:0.210518 
-0.5 0.5 1:-0.57016 2:-0.121434 
-0 0.5 1:-0.396581 2:-0.00106664 
-0.5 0.5 1:0.347474 2:0.527045 
-0 0.5 1:-0.157722 2:-0.127429 
-0.5 0.5 1:-0.524369 2:-0.0219985 
-0.4541169264871671 0.5 1:-0.0587328 2:-0.161767 
-0 0.5 1:-0.392475 2:-0.0688161 
-0.5 0.5 1:-0.510002 2:-0.0612942 
-0.5 0.5 1:0.355274 2:0.87588 
-0.5 0.5 1:-0.341795 2:-0.248904 
-0.4958199789609842 0.5 1:-0.388005 2:0.0414004 
-0.5 0.5 1:0.0913858 2:0.177455 
-0.5 0.5 1:-0.165891 2:0.169751 
-0.5 0.5 1:-0.339718 2:0.224235 
-0.5 0.5 1:-0.336906 2:0.0817744 
-0.5 0.5 1:-0.817321 2:-0.76661 
-0.5 0.5 1:-0.285326 2:-0.220788 
-0.5 0.5 1:-0.186467 2:0.229565 
-0.5 0.5 1:-0.754785 2:-0.335894 
-0.5 0.5 1:-0.402394 2:-0.204675 
-0.5 0.5 1:-0.49197 2:-0.304402 
-0.5 0.5 1:-0.686914 2:-0.544815 
-0.5 0.5 1:-0.0862507 2:0.17121 
-0.5 0.5 1:-0.440446 2:-0.309984 
-0.5 0.5 1:-0.593407 2:-0.230325 
-0 0.5 1:-0.210357 2:-0.021501 
-0.5 0 1:-0.465725 2:-0.080067 
-0.5 0.5 1:1 2:0.553389 
-0.5 0.5 1:-0.558779 2:-0.510778 
-0.5 0.5 1:-0.219742 2:0.667322 
-0.5 0.2747262341063043 1:-0.507209 2:-0.0826665 
-0 0.5 1:-0.189944 2:-0.0678577 
-0.1861317643044657 0.5 1:-0.14742 2:-0.225585 
-0.5 -0.1292013319061023 1:-0.765476 2:-0.790293 
-0.5 -0 1:-0.670627 2:-0.766009 
-0.3806785904111048 -0.5 1:-0.306231 2:0.0339856 
-0.5 -0 1:-0.797454 2:-0.62197 
-0.5 -0 1:-0.849188 2:-0.573592 
-0.5 -0.5 1:-0.687067 2:-0.794132 
-0.5 -0 1:-0.812558 2:-0.616749 
-0.5 -0.5 1:-0.965117 2:-0.850614 
-0.5 -0.5 1:-0.533747 2:-0.388666 
-0.3404776619794263 -0.5 1:-0.283973 2:0.183584 
-0.5 -0 1:-0.729823 2:-0.606073 
-0.5 -0 1:-0.269009 2:0.41183 
-0 -0.5 1:-0.222896 2:0.170714 
-0.4323561031711232 -0.5 1:-0.160749 2:0.285639 
-0.5 -0.5 1:-0.452448 2:-0.413862 
-0.5 -0.5 1:0.206966 2:-0.00213283 
-0.5 -0.2491768269619652 1:-0.274088 2:0.291764 
-0.5 -0.5 1:-0.544715 2:-0.377809 
-0.5 -0.5 1:-0.060489 2:0.395952 
-0.5 -0.5 1:-0.42999 2:-0.43671 
-0.5 -0.5 1:0.742084 2:0.461216 
-0 -0.5 1:-0.259061 2:0.141545 
-0.5 -0.5 1:-0.418803 2:-0.0680415 
-0.5 -0.5 1:-0.409525 2:-0.132516 
-0.5 -0.5 1:-0.328741 2:-0.483327 
-0.1780724630035123 -0 1:-0.219919 2:0.520984 
-0.5 -0.5 1:0.364706 2:0.237099 
-0.5 -0 1:-0.677928 2:-0.489647 
-0.5 -0.5 1:-0.646975 2:-0.425443 
-0.5 -0.5 1:-0.478043 2:-0.255471 
-0.5 -0 1:-0.689347 2:-0.525627 
-0.5 -0.06034071594820865 1:-0.577835 2:-0.504915 
-0.5 -0.5 1:0.418732 2:0.998376 
-0.5 -0.5 1:-0.482766 2:-0.441365 
-0.5 -0.3968501456865056 1:-0.376463 2:0.393278 
-0.5 -0.5 1:-0.322246 2:-0.0858734 
-0.5 -0.5 1:-0.645557 2:-0.450245 
-0.5 -0 1:-0.717776 2:-0.553838 
-0.5 -0.5 1:0.320346 2:0.0498374 
-0.5 -0 1:-0.686906 2:-0.502908 
-0 -0.5 1:-0.248489 2:0.0879125 
-0 -0.5 1:-0.137177 2:0.0458401 
-0.5 -0.5 1:-0.464875 2:0.0130526 
-0.5 -0.5 1:0.809909 2:1 
-0.5 -0 1:-0.547101 2:-0.550027 
-0.5 -0.5 1:-0.666726 2:-0.439591 
-0.5 -0.5 1:-0.527952 2:-0.392032 
-0.5 -0.5 1:-0.218369 2:-0.122651 
-0.5 -0.5 1:-0.315896 2:-0.0575998 
-0.5 -0.4391572136035226 1:-0.812009 2:-0.457617 
-0.5 -0.5 1:-0.339675 2:0.0219786 
-0.5 -0 1:-0.671159 2:-0.531253 
-0.5 -0 1:-0.66119 2:-0.61417 
-0.5 -0 1:-0.561071 2:-0.612895 
-0 -0.5 1:-0.152776 2:-0.0393091 
-0.5 -0.5 1:-0.453478 2:-0.0918079 
-0.5 -0.5 1:-0.0713465 2:0.00978333 
-0.5 -0 1:-0.834437 2:-0.622241 
-0.5 -0 1:-0.819769 2:-0.751134 
-0.5 -0.5 1:-0.201778 2:-0.252709 
-0.5 -0.5 1:-0.0376903 2:0.596382 
-0.07862026508523348 -0.5 1:-0.181908 2:-0.0720706 
-0.5 -0.5 1:-0.630688 2:-0.292645 
-0.5 -0.5 1:-0.732471 2:-0.397246 
