svm_type c_svc
kernel_type rbf
gamma 0.5
nr_class 3
total_sv 174
rho -0.319607 -0.464396 -0.487749
label 3 1 2
nr_sv 46 60 68
SV
2 2 1:-0.422316 2:-0.487939 
2 2 1:0.12957 2:0.162825 
2 2 1:-0.169082 2:0.00241695 
2 2 1:-0.163108 2:-0.0614213 
2 2 1:-0.29462 2:-0.0777568 
2 2 1:0.0310503 2:0.090145 
0 2 1:0.272781 2:0.623563 
2 2 1:-0.0937058 2:0.074832 
0 2 1:0.323047 2:0.55597 
2 2 1:-0.302207 2:-0.322814 
0 0.5226888487983627 1:0.475068 2:0.561744 
2 2 1:-0.165743 2:-0.218303 
2 2 1:-0.854937 2:-0.871463 
2 2 1:-0.425712 2:-0.111735 
2 2 1:-0.378788 2:-0.134131 
2 0 1:1 2:1 
2 2 1:-0.147587 2:0.0785402 
2 2 1:0.217275 2:0.0757163 
2 2 1:0.124545 2:0.168147 
1.676125665146703 2 1:0.110998 2:0.422922 
2 2 1:0.0216123 2:-0.0827988 
2 2 1:0.111555 2:0.200139 
0 2 1:0.225955 2:0.696814 
2 2 1:-0.0773261 2:0.27459 
2 2 1:-0.515109 2:-0.348428 
1.62689356574239 2 1:0.54873 2:-0.272332 
2 2 1:-0.341489 2:-0.0716832 
1.27498597938733 2 1:0.0455913 2:0.73568 
0 2 1:0.200992 2:0.283916 
2 2 1:-0.191646 2:-0.0850513 
2 2 1:-0.708454 2:-0.569453 
2 2 1:-0.00305495 2:-0.0782489 
2 2 1:0.0541469 2:0.518156 
2 2 1:0.135398 2:0.230582 
2 2 1:0.0450875 2:0.0806458 
2 2 1:0.0144813 2:0.470115 
2 2 1:0.145478 2:0.222873 
2 2 1:-0.229539 2:-0.208609 
0 2 1:0.359817 2:0.0795343 
0 2 1:0.311565 2:0.169194 
0 2 1:0.217896 2:0.288653 
2 2 1:-0.0990826 2:-0.151834 
2 2 1:-0.285809 2:-0.133848 
2 2 1:-0.589641 2:-0.454838 
2 2 1:-0.155507 2:-0.0460695 
2 2 1:-0.0363498 2:0.117981 
-2 2 1:0.0701147 2:0.466433 
-2 2 1:-0.379817 2:-0.225068 
-0 2 1:-0.681366 2:-0.573829 
-2 2 1:0.881602 2:0.613589 
-0 2 1:-0.567208 2:-0.492026 
-0 2 1:-0.631517 2:-0.590806 
-2 2 1:-0.366968 2:-0.120363 
-0 2 1:-0.583977 2:-0.620425 
-2 2 1:-0.162698 2:0.0461647 
-2 2 1:-0.517583 2:-0.322509 
-2 2 1:-0.305629 2:-0.221509 
-0 2 1:-0.453928 2:-0.419052 
-2 2 1:-0.3282 2:-0.245655 
-0 2 1:-0.483412 2:-0.419454 
-0 2 1:-0.597722 2:-0.599577 
-2 2 1:-0.316617 2:-0.240283 
-2 2 1:-0.0794047 2:0.151872 
-0 2 1:-0.460241 2:-0.473282 
-2 2 1:0.278586 2:0.609849 
-0 2 1:-0.440645 2:-0.576313 
-0 2 1:-0.518055 2:-0.37385 
-0 2 1:-0.552732 2:-0.369309 
-2 2 1:-0.247384 2:-0.395782 
-0 2 1:-0.641242 2:-0.289282 
-2 2 1:-0.0670093 2:-0.356058 
-0.05667950434145241 2 1:-0.562067 2:-0.318032 
-2 2 1:-0.0217519 2:0.0161509 
-2 2 1:-0.17767 2:-0.0204445 
-2 2 1:-0.398302 2:-0.22658 
-0 2 1:-0.40863 2:-0.481821 
-2 2 1:0.350053 2:0.378145 
-2 2 1:-0.147551 2:0.0287553 
-2 2 1:-0.218042 2:-0.270614 
-2 2 1:-0.424624 2:-0.303461 
-2 2 1:0.0262947 2:0.109172 
-2 2 1:-0.0466181 2:0.188512 
-0 0.3167564619496001 1:-0.605347 2:-0.625478 
-0.5213257059349706 0 1:-1 2:-1 
-2 2 1:-0.277725 2:-0.169185 
-0 2 1:-0.458376 2:-0.409467 
-0 2 1:-0.447965 2:-0.414386 
-2 2 1:-0.202007 2:-0.0287814 
-2 2 1:-0.105618 2:0.0136781 
-0 2 1:-0.458161 2:-0.612914 
-0 2 1:-0.496008 2:-0.546705 
-2 2 1:0.0918368 2:0.412007 
-2 2 1:-0.418741 2:-0.387201 
-2 2 1:-0.196189 2:0.127222 
-2 2 1:0.254437 2:0.519218 
-2 2 1:0.0924378 2:0.238731 
-0 2 1:-0.680618 2:-0.493645 
-2 2 1:-0.20555 2:-0.589051 
-0 2 1:-0.574063 2:-0.53165 
-2 2 1:-0.152454 2:0.10828 
-0 2 1:-0.574762 2:-0.430681 
-2 2 1:-0.117913 2:0.114138 
-2 2 1:0.408126 2:0.701543 
-2 2 1:-0.376231 2:-0.419684 
-2 2 1:-0.265681 2:-0.518908 
-2 2 1:-0.39035 2:-0.269993 
-2 -2 1:-0.11965 2:-0.269713 
-0 -2 1:-0.719574 2:-0.440696 
-2 -0 1:0.142677 2:0.29757 
-0 -2 1:-0.562284 2:-0.107113 
-2 -2 1:-0.871832 2:-0.898812 
-2 -2 1:-0.641747 2:-0.675807 
-2 -2 1:-0.292917 2:-0.0958885 
-2 -1.435900623817643 1:0.202522 2:0.264179 
-2 -0 1:0.150695 2:0.332627 
-0 -2 1:-0.615559 2:-0.494423 
-2 -2 1:0.040551 2:-0.303113 
-0 -2 1:-0.697076 2:-0.615498 
-2 -2 1:-0.142293 2:-0.0770066 
-2 -2 1:-0.160688 2:0.0332403 
-2 -0 1:-0.0187392 2:0.309797 
-2 -2 1:-0.26711 2:-0.131601 
-2 -2 1:0.476948 2:0.578327 
-1.343488256305944 -2 1:-0.382444 2:-0.101025 
-2 -2 1:-0.309291 2:-0.273842 
-2 -0 1:0.088479 2:0.187343 
-2 -2 1:-0.103763 2:-0.161616 
-2 -2 1:0.335046 2:0.4137 
-0 -2 1:-0.347006 2:-0.340758 
-0 -2 1:-0.463976 2:-0.383041 
-0 -2 1:-0.392813 2:-0.17768 
-2 -2 1:-0.079738 2:-0.238738 
-0 -2 1:-0.475627 2:-0.480756 
-0 -2 1:-0.451205 2:-0.278292 
-2 -2 1:-0.308181 2:-0.14931 
-2 -2 1:-0.394848 2:0.0779802 
-0.6283089331249549 -2 1:-0.318945 2:-0.273187 
-2 -0 1:0.145826 2:0.314068 
-0 -2 1:-0.420774 2:-0.149235 
-2 -2 1:0.223303 2:0.25006 
-2 -2 1:0.220592 2:0.23426 
-2 -2 1:-0.0592908 2:-0.0796659 
-0 -2 1:-0.67748 2:-0.563074 
-0 -2 1:-0.527864 2:-0.329159 
-2 -0 1:-0.162542 2:0.288621 
-2 -2 1:-0.165365 2:-0.0517024 
-0 -2 1:-0.537248 2:-0.493418 
-0 -2 1:-0.661416 2:-0.247046 
-2 -2 1:-0.167608 2:-0.167235 
-0 -2 1:-0.525908 2:-0.655666 
-2 -0 1:0.0531356 2:0.252473 
-0 -2 1:-0.471815 2:-0.278178 
-0.5508916593674633 -2 1:-0.793586 2:-0.585196 
-2 -2 1:-0.147462 2:0.00665283 
-2 -2 1:-0.105766 2:-0.113808 
-2 -2 1:-0.268166 2:-0.108768 
-2 -2 1:0.249312 2:0.334379 
-0 -2 1:-0.347233 2:-0.25252 
-0 -2 1:-0.483631 2:-0.333156 
-2 -2 1:-0.188119 2:-0.00976313 
-2 -2 1:-0.20381 2:-0.0994312 
-2 -2 1:0.00744425 2:-0.104959 
-2 -2 1:-0.723643 2:-0.655579 
-0 -2 1:-0.543192 2:-0.27723 
-2 -2 1:0.16299 2:0.39927 
-0 -2 1:-0.428167 2:-0.167153 
-2 -0 1:-0.00236452 2:0.220328 
-2 -0 1:-0.0639592 2:0.402333 
-0 -2 1:-0.475253 2:-0.444148 
-0 -2 1:-0.58979 2:-0.549847 
-2 -1.133278105708701 1:-0.209183 2:0.200692 
-2 -2 1:-0.0207161 2:0.0353201 
-2 -2 1:0.441057 2:0.591151 
-2 -1.747577732423255 1:-0.0517743 2:0.17479 
