svm_type c_svc
kernel_type rbf
gamma 2
nr_class 3
total_sv 143
rho -47.4413 -25.428 -8.15536
label 3 1 2
nr_sv 37 52 54
SV
32768 32768 1:-0.459931 2:-0.891248 
3735.56921988606 32768 1:0.226427 2:-0.150495 
0 32768 1:-0.0100845 2:-0.393307 
22328.05169772236 32768 1:-0.153408 2:-0.599469 
0 5055.626602294681 1:0.586292 2:-0.134673 
254.7456251554872 0 1:0.486513 2:1 
4777.111642380466 0 1:0.712366 2:0.625224 
32768 0 1:0.723617 2:-0.568534 
32768 32768 1:-0.285774 2:-0.626858 
0 32768 1:-0.175547 2:-0.198352 
32768 1220.898283707754 1:-0.864433 2:-0.765764 
32768 32768 1:-0.0631501 2:-0.665196 
32768 32768 1:0.134554 2:-0.478093 
17552.74283398846 9781.651065799719 1:-0.401228 2:-0.380046 
0 19700.59600932327 1:0.50075 2:-0.632948 
8541.264837074656 32768 1:-0.0326314 2:-0.868189 
15166.83877089937 8790.12155035017 1:0.493317 2:0.149656 
9517.989285763244 0 1:0.789624 2:-0.388359 
24081.44333290424 32768 1:0.344306 2:-0.404895 
32768 32768 1:-0.312789 2:-0.760665 
0 32768 1:-0.0209078 2:-0.534282 
729.8214268399641 0 1:0.822334 2:0.839567 
32768 32768 1:-0.035007 2:-0.650862 
32768 32768 1:-0.545904 2:-0.763674 
0 32768 1:-0.0278326 2:-0.0821676 
12749.3277897088 0 1:0.601194 2:-0.0940304 
0 32768 1:0.29789 2:-0.372532 
215.6545244888204 32768 1:0.139753 2:-0.47524 
0 5202.986314070247 1:-0.165323 2:-0.0158405 
29587.91164746607 32768 1:0.370989 2:-0.618909 
0 16672.80671049621 1:0.233144 2:-0.431346 
32768 32768 1:-0.105442 2:-0.833246 
32768 32768 1:0.4293 2:-0.380051 
32768 32768 1:-0.42502 2:-0.755106 
0 32768 1:0.00610692 2:0.20013 
32768 32768 1:-0.0660076 2:-0.699724 
32768 32768 1:0.17913 2:-0.656709 
-23307.94693158465 0 1:0.546641 2:0.0730884 
-0 17662.21819677841 1:-0.412791 2:-0.957289 
-0 32768 1:-0.550519 2:-0.858889 
-32768 0 1:0.701847 2:-0.556411 
-0 32768 1:-0.633794 2:-0.828839 
-0 32768 1:-0.568424 2:-0.66364 
-30075.61718898144 0 1:-0.860893 2:-0.773368 
-0 32768 1:-0.285452 2:-0.773409 
-4141.802564364516 32768 1:-0.669959 2:-0.661376 
-28109.16984285118 0 1:-0.387277 2:-0.462522 
-32768 32768 1:0.209006 2:-0.373772 
-0 32768 1:0.214875 2:-0.577897 
-5743.546391676865 0 1:0.697902 2:0.682933 
-0 32768 1:-0.243766 2:-0.86392 
-0 2041.754765691161 1:-0.636864 2:-0.850929 
-0 32768 1:-0.334813 2:-0.697827 
-0 32768 1:-0.250408 2:-0.820573 
-10477.66298403679 32768 1:-0.307684 2:-0.690159 
-0 30584.53336079842 1:-0.280731 2:-0.786581 
-0 32768 1:0.0717305 2:-0.704689 
-0 32768 1:-0.184277 2:-0.751601 
-0 25966.65212583646 1:-0.898805 2:-0.968192 
-32768 0 1:-0.453479 2:-0.80462 
-32768 0 1:0.539162 2:-0.343312 
-0 32768 1:0.453525 2:-0.511792 
-32768 32768 1:-0.548893 2:-0.820899 
-19472.83756636353 32768 1:-0.230719 2:-0.910276 
-32768 32768 1:-0.265363 2:-0.725058 
-2551.587984718544 985.8585196349477 1:0.169839 2:0.0602005 
-28168.88740747167 32768 1:0.253519 2:-0.620786 
-0 32768 1:-0.604993 2:-0.850668 
-1198.243523870075 0 1:-1 2:-0.762789 
-32768 32768 1:-0.123743 2:-0.701587 
-7975.691995564982 0 1:-0.377167 2:-0.841549 
-0 32768 1:-0.496938 2:-0.759837 
-0 10728.39727746523 1:-0.382355 2:-0.516752 
-0 32768 1:0.0243406 2:-0.658266 
-1408.384998100264 1371.983294595633 1:-0.591742 2:-0.333435 
-7807.273485013426 32768 1:-0.521911 2:-0.851827 
-0 25198.3395304312 1:-0.368908 2:-0.642259 
-2035.05136438843 28866.89913271647 1:0.489238 2:-0.39894 
-32768 32768 1:-0.0107449 2:-0.636951 
-0 15201.36819019853 1:-0.506033 2:-0.860647 
-32768 32768 1:0.168899 2:-0.533711 
-32768 32768 1:-0.163416 2:-0.694414 
-0 32768 1:0.175077 2:-0.579547 
-32768 32768 1:0.0164943 2:-0.796038 
-9532.768405291812 0 1:0.794611 2:-0.514233 
-0 1562.143847168271 1:-0.492594 2:-0.954719 
-0 9697.957748488398 1:-0.788205 2:-0.78154 
-32768 32768 1:-0.230065 2:-0.648647 
-32768 32768 1:0.2758 2:-0.607171 
-32768 -0 1:-0.229769 2:-0.251322 
-32768 -32768 1:-0.410105 2:-0.761728 
-20065.79416984439 -0 1:0.368542 2:-0.213344 
-32768 -21215.30586169794 1:-0.0878316 2:-0.87514 
-32768 -32768 1:0.0345086 2:-0.622764 
-118.4211285379541 -32768 1:-0.893277 2:-0.95318 
-32768 -0 1:-0.046437 2:-0.570101 
-0 -32768 1:0.405517 2:-0.456968 
-32768 -32768 1:-0.46677 2:-0.712362 
-0 -32768 1:-0.594467 2:-0.804735 
-0 -32768 1:-0.604672 2:-0.770311 
-32768 -20650.63229079006 1:0.0897547 2:-0.499029 
-0 -32768 1:0.381437 2:-0.568709 
-360.753396853046 -0 1:-0.0841023 2:0.120163 
-32768 -28068.15710962322 1:0.152552 2:-0.445483 
-27562.3336548945 -0 1:-0.11576 2:-0.238202 
-0 -6298.880897192135 1:0.491024 2:-0.307792 
-32768 -32768 1:0.281029 2:-0.528609 
-17662.30368424099 -32768 1:-0.3047 2:-0.781151 
-4432.322815915836 -32768 1:-0.349295 2:-0.597081 
-14029.87920311113 -32768 1:-0.1971 2:-0.871825 
-0 -32768 1:-0.629144 2:-0.714609 
-24096.39688605965 -32768 1:-0.238818 2:-0.742797 
-2279.740915064334 -0 1:0.0428803 2:-1 
-17627.81175634837 -32768 1:0.136942 2:-0.681331 
-28075.87685529923 -32768 1:-0.102701 2:-0.735341 
-32768 -0 1:0.301769 2:-0.41984 
-32768 -0 1:-0.0293271 2:0.192744 
-0 -32768 1:-0.389523 2:-0.926744 
-32768 -32768 1:-0.292466 2:-0.678831 
-2671.23469981058 -0 1:0.359104 2:-0.68687 
-0 -32768 1:-0.46571 2:-0.893776 
-0 -32768 1:-0.205863 2:-0.775828 
-0 -32768 1:-0.121686 2:-0.671532 
-32768 -0 1:0.404223 2:-0.333234 
-3313.310158242542 -17144.94583692275 1:-0.636833 2:-0.546031 
-9809.475429685022 -0 1:0.320979 2:-0.793514 
-0 -32768 1:0.0999271 2:-0.716107 
-0 -32768 1:-0.238697 2:-0.689363 
-0 -32768 1:-0.562507 2:-0.739436 
-32768 -1982.978248867386 1:0.061713 2:-0.0263046 
-12607.09346603261 -17736.19061636545 1:-0.0600214 2:-0.653248 
-21330.24665390143 -30123.39732362012 1:0.407364 2:-0.441057 
-32768 -32768 1:-0.0557991 2:-0.660248 
-32768 -32768 1:0.0443991 2:-0.641034 
-12503.04276412524 -0 1:-0.056004 2:-0.369446 
-7802.112554480176 -32768 1:-0.636741 2:-0.818891 
-11863.44948104123 -168.5546228524967 1:0.475805 2:0.122951 
-32768 -3787.56025833898 1:0.479035 2:-0.589853 
-0 -32768 1:-0.239618 2:-0.783994 
-0 -32768 1:-0.413745 2:-0.854906 
-24821.08686255522 -32768 1:-0.525226 2:-0.893887 
-32768 -0 1:0.0919482 2:-0.288249 
-0 -22691.50292353255 1:0.239047 2:-0.672933 
