svm_type c_svc
kernel_type rbf
gamma 0.03125
nr_class 3
total_sv 169
rho 0.864735 -2.59981 -3.46941
label 3 1 2
nr_sv 42 58 69
SV
32 32 1:-0.487939 2:-0.891248 
0 32 1:0.00241695 2:0.276774 
0 32 1:0.832665 2:-0.435005 
32 32 1:-0.0614213 2:-0.393307 
32 32 1:-0.197312 2:-0.599469 
32 32 1:-0.0777568 2:-0.689383 
32 32 1:0.090145 2:-0.259566 
0 32 1:0.504027 2:-0.134673 
32 32 1:-0.529381 2:-0.0754326 
32 32 1:0.634231 2:-0.568534 
0 32 1:0.55597 2:-0.164521 
32 32 1:-0.218303 2:-0.198352 
32 32 1:-0.111735 2:-0.665196 
32 32 1:-0.134131 2:-0.277244 
32 32 1:0.0785402 2:-0.384647 
32 32 1:0.0757163 2:-0.478093 
32 32 1:-0.43228 2:-0.380046 
32 32 1:0.168147 2:-0.746846 
32 32 1:0.422922 2:-0.632948 
0 11.33039185212394 1:0.415874 2:0.149656 
8.759158767192563 32 1:0.200139 2:-0.210594 
32 32 1:0.27459 2:-0.404895 
32 32 1:-0.348428 2:-0.760665 
0 32 1:0.700269 2:-0.30511 
32 32 1:-0.272332 2:-0.494847 
32 32 1:-0.0716832 2:-0.534282 
32 32 1:0.73568 2:-0.665554 
0 32 1:0.283916 2:-0.229647 
32 32 1:-0.569453 2:-0.763674 
0 32 1:0.518156 2:-0.0940304 
32 32 1:0.230582 2:-0.372532 
32 32 1:0.470115 2:-0.350985 
32 32 1:0.222873 2:-0.308515 
32 32 1:0.29989 2:-0.618909 
32 32 1:0.0795343 2:-0.219737 
32 32 1:0.169194 2:-0.431346 
32 32 1:0.288653 2:-0.436986 
32 32 1:0.355177 2:-0.380051 
32 32 1:-0.133848 2:-0.674457 
0 32 1:-0.0460695 2:0.20013 
32 32 1:-0.114444 2:-0.699724 
32 32 1:0.117981 2:-0.656709 
-32 32 1:0.466433 2:0.0730884 
-0 32 1:-0.443243 2:-0.957289 
-32 32 1:-0.225068 2:-0.582068 
-0 32 1:-0.573829 2:-0.858889 
-0 32 1:-0.652785 2:-0.828839 
-0 32 1:-0.492026 2:-0.779886 
-32 32 1:-0.120363 2:-0.78517 
-32 32 1:0.0461647 2:-0.596747 
-8.759158767192556 32 1:-0.322509 2:-0.773409 
-0 32 1:-0.687074 2:-0.661376 
-32 32 1:-0.221509 2:-0.179085 
-0 32 1:-0.245655 2:-0.850371 
-32 32 1:0.146307 2:-0.373772 
-0 32 1:-0.599577 2:-0.820672 
-0 32 1:-0.319621 2:-0.822757 
-32 32 1:-0.240283 2:-0.786623 
-32 32 1:-0.473282 2:-0.605467 
-32 32 1:0.609849 2:0.682933 
-0 32 1:-0.282984 2:-0.86392 
-0 16.12590397243333 1:-0.576313 2:-0.897092 
-0 32 1:-0.37385 2:-0.795869 
-0 32 1:-0.395782 2:-0.880668 
-0 32 1:-0.289282 2:-0.820573 
-0 32 1:-0.356058 2:-0.944596 
-32 32 1:-0.343587 2:-0.690159 
-0 32 1:-0.318032 2:-0.786581 
-32 32 1:0.0161509 2:-0.704689 
-32 32 1:-0.0204445 2:-0.661333 
-32 32 1:-0.22658 2:-0.751601 
-32 32 1:0.459341 2:-0.343312 
-0 32 1:-0.572288 2:-0.820899 
-32 32 1:0.0287553 2:-0.42407 
-0 32 1:-0.270614 2:-0.910276 
-32 32 1:-0.424213 2:-0.703223 
-32 32 1:-0.303461 2:-0.725058 
-32 32 1:0.188512 2:-0.620786 
-32 32 1:-0.169185 2:-0.701587 
-0 32 1:-0.523027 2:-0.759837 
-32 32 1:-0.0287814 2:-0.658266 
-32 32 1:0.0136781 2:-0.37543 
-0 32 1:-0.546705 2:-0.851827 
-32 32 1:-0.401637 2:-0.642259 
-32 32 1:0.412007 2:-0.39894 
-0 32 1:-0.387201 2:-0.872181 
-32 32 1:-0.0620474 2:-0.636951 
-32 32 1:0.127222 2:-0.673778 
-32 32 1:0.519218 2:-0.392361 
-32 32 1:0.238731 2:-0.670656 
-0 32 1:-0.493645 2:-0.732738 
-0 32 1:-0.53165 2:-0.860647 
-0 32 1:-0.430681 2:-0.785872 
-32 32 1:-0.206801 2:-0.694414 
-32 32 1:0.114138 2:-0.579547 
-32 32 1:-0.0362208 2:-0.796038 
-32 32 1:0.506856 2:-0.474821 
-0 32 1:-0.419684 2:-0.89857 
-0 32 1:-0.524456 2:-0.900291 
-32 32 1:0.209638 2:-0.607171 
-32 -32 1:-0.269713 2:-0.251322 
-0 -32 1:-0.440696 2:-0.761728 
-0 -32 1:-0.135136 2:-0.87514 
-32 -32 1:-0.107113 2:-0.645929 
-32 -32 1:-0.0191407 2:-0.622764 
-0 -32 1:-0.898812 2:-0.95318 
-0 -32 1:-0.675807 2:-0.588378 
-32 -0 1:0.264179 2:0.0427222 
-32 -32 1:0.332627 2:-0.456968 
-0 -32 1:-0.494423 2:-0.712362 
-32 -32 1:-0.276411 2:-0.43782 
-11.33039185212394 -32 1:-0.303113 2:-0.51538 
-0 -32 1:-0.625173 2:-0.770311 
-32 -32 1:-0.0770066 2:-0.356807 
-32 -32 1:0.309797 2:-0.568709 
-32 -0 1:-0.131601 2:0.120163 
-32 -0 1:0.578327 2:-0.477972 
-32 -32 1:-0.273842 2:-0.424035 
-32 -32 1:0.092781 2:-0.445483 
-32 -32 1:0.187343 2:-0.393572 
-32 -32 1:0.214595 2:-0.528609 
-0 -32 1:-0.383041 2:-0.597081 
-0 -32 1:-0.17768 2:-0.639347 
-0 -32 1:-0.238738 2:-0.871825 
-0 -32 1:-0.480756 2:-0.872643 
-0 -32 1:-0.648377 2:-0.714609 
-0 -32 1:-0.278292 2:-0.742797 
-0 -32 1:-0.0112031 2:-1 
-32 -0 1:-0.14931 2:-0.0310086 
-32 -32 1:0.0779802 2:-0.681331 
-32 -0 1:0.314068 2:-0.243858 
-0 -32 1:-0.149235 2:-0.735341 
-32 -32 1:0.183873 2:-0.67573 
-32 -32 1:0.25006 2:-0.53526 
-32 -32 1:0.23426 2:-0.41984 
-32 -0 1:-0.0796659 2:0.192744 
-32 -0 1:0.276783 2:-0.127671 
-0 -32 1:-0.421182 2:-0.926744 
-0 -32 1:-0.563074 2:-0.814639 
-0 -32 1:-0.329159 2:-0.678831 
-32 -32 1:0.288621 2:-0.68687 
-32 -32 1:-0.0517024 2:-0.680432 
-0 -32 1:-0.167235 2:-0.671532 
-32 -0 1:0.3314 2:-0.333234 
-0 -32 1:-0.655666 2:-0.546031 
-32 -32 1:0.252473 2:-0.793514 
-32 -32 1:0.0428852 2:-0.716107 
-0 -32 1:-0.585196 2:-0.739436 
-32 -32 1:-0.113808 2:-0.484277 
-32 -32 1:-0.108768 2:-0.653248 
-32 -32 1:-0.129941 2:-0.578234 
-32 -16.12590397243333 1:0.334379 2:-0.441057 
-0 -32 1:-0.25252 2:-0.717082 
-32 -32 1:-0.104765 2:-0.660248 
-0 -32 1:-0.333156 2:-0.672466 
-32 -32 1:-0.00976313 2:-0.641034 
-32 -32 1:-0.0994312 2:-0.54094 
-0 -32 1:-0.655579 2:-0.818891 
-0 -32 1:-0.27723 2:-0.752156 
-32 -0 1:0.39927 2:0.122951 
-32 -32 1:-0.167153 2:-0.580499 
-32 -0 1:0.220328 2:-0.317826 
-0 -32 1:-0.279052 2:-0.783994 
-0 -32 1:-0.444148 2:-0.854906 
-0 -32 1:-0.549847 2:-0.893887 
-32 -32 1:0.200692 2:-0.654711 
-32 -32 1:0.0353201 2:-0.288249 
-32 -0 1:0.591151 2:0.00930372 
-32 -32 1:0.17479 2:-0.672933 
