svm_type c_svc
kernel_type rbf
gamma 0.00012207
nr_class 3
total_sv 169
rho 1.14612 -18.9926 -13.1094
label 3 1 2
nr_sv 44 58 67
SV
32768 32768 1:-0.50602 2:-0.891248 
0 32768 1:0.152651 2:-0.150495 
7721.65120515585 32768 1:0.830631 2:-0.435005 
32768 32768 1:-0.211862 2:-0.599469 
32768 32768 1:-0.090854 2:-0.689383 
0 32768 1:0.498 2:-0.134673 
32768 32768 1:-0.547966 2:-0.0754326 
32768 32768 1:0.0635891 2:-0.382957 
0 32768 1:0.550574 2:-0.164521 
32768 32768 1:-0.338889 2:-0.626858 
32768 32768 1:-0.233108 2:-0.198352 
32768 32768 1:-0.894206 2:-0.765764 
32768 32768 1:-0.147913 2:-0.277244 
32768 32768 1:0.0673424 2:-0.384647 
32768 32768 1:0.0644841 2:-0.478093 
32768 32768 1:-0.449685 2:-0.380046 
32768 32768 1:0.158038 2:-0.746846 
32768 32768 1:0.415909 2:-0.632948 
32768 32768 1:-0.0959573 2:-0.868189 
0 23203.35706137873 1:0.408776 2:0.149656 
32768 32768 1:0.190418 2:-0.210594 
32768 32768 1:0.69313 2:-0.388359 
0 32768 1:0.765897 2:-0.285263 
32768 32768 1:-0.364814 2:-0.760665 
0 32768 1:0.696627 2:-0.30511 
0 22021.87297887056 1:0.76108 2:-0.242147 
32768 32768 1:-0.287793 2:-0.494847 
32768 32768 1:0.732468 2:-0.665554 
32768 32768 1:0.275214 2:-0.229647 
32768 32768 1:-0.0982372 2:-0.650862 
11417.97794417528 32768 1:-0.0913521 2:-0.0821676 
32768 32768 1:0.221232 2:-0.372532 
32768 32768 1:0.0694735 2:-0.47524 
32768 32768 1:0.463675 2:-0.350985 
32768 32768 1:0.213429 2:-0.308515 
0 32768 1:-0.223296 2:-0.0158405 
32768 32768 1:0.291382 2:-0.618909 
32768 32768 1:0.0683485 2:-0.219737 
32768 32768 1:0.280008 2:-0.436986 
32768 32768 1:-0.165831 2:-0.833246 
32768 32768 1:0.347341 2:-0.380051 
32768 32768 1:-0.147627 2:-0.674457 
32768 32768 1:-0.472518 2:-0.755106 
32768 32768 1:-0.127987 2:-0.699724 
-0 32768 1:-0.460782 2:-0.957289 
-32768 32768 1:-0.239955 2:-0.582068 
-0 32768 1:-0.592955 2:-0.858889 
-32768 32768 1:0.608894 2:-0.556411 
-0 8505.062441690863 1:-0.67287 2:-0.828839 
-0 32768 1:-0.510158 2:-0.779886 
-0 32768 1:-0.610138 2:-0.66364 
-32768 32768 1:-0.133978 2:-0.78517 
-32768 32768 1:0.0345734 2:-0.596747 
-0 32768 1:-0.33858 2:-0.773409 
-32768 32768 1:-0.236353 2:-0.179085 
-32768 32768 1:-0.436297 2:-0.462522 
-0 32768 1:-0.260792 2:-0.850371 
-0 32768 1:-0.436703 2:-0.725167 
-32768 32768 1:0.135933 2:-0.373772 
-0 32768 1:-0.619016 2:-0.820672 
-0 32768 1:-0.335657 2:-0.822757 
-0 32768 1:-0.255355 2:-0.786623 
-32768 32768 1:0.141565 2:-0.577897 
-32768 32768 1:0.605108 2:0.682933 
-0 32768 1:-0.298575 2:-0.86392 
-32768 32768 1:-0.385949 2:-0.697827 
-0 32768 1:-0.412744 2:-0.880668 
-0 32768 1:-0.30495 2:-0.820573 
-32768 32768 1:-0.359915 2:-0.690159 
-0 32768 1:-0.33405 2:-0.786581 
-32768 32768 1:-0.0328452 2:-0.661333 
-32768 32768 1:-0.241485 2:-0.751601 
-0 32768 1:-0.499829 2:-0.80462 
-32768 32768 1:0.452771 2:-0.343312 
-32768 32768 1:0.370588 2:-0.511792 
-0 32768 1:-0.591395 2:-0.820899 
-32768 32768 1:0.0169524 2:-0.42407 
-0 32768 1:-0.286055 2:-0.910276 
-19139.62914933115 32768 1:-0.441521 2:-0.703223 
-32768 32768 1:-0.319301 2:-0.725058 
-32768 32768 1:0.0983464 2:0.0602005 
-32768 32768 1:-0.183394 2:-0.701587 
-0 32768 1:-0.426595 2:-0.841549 
-0 32768 1:-0.541535 2:-0.759837 
-32768 32768 1:-0.431574 2:-0.516752 
-32768 32768 1:0.00169208 2:-0.37543 
-32768 32768 1:-0.632515 2:-0.333435 
-32768 32768 1:-0.41867 2:-0.642259 
-32768 32768 1:-0.0749537 2:-0.636951 
-32768 32768 1:0.116616 2:-0.673778 
-32768 32768 1:0.22948 2:-0.670656 
-0 32768 1:-0.511797 2:-0.732738 
-32768 32768 1:0.0974437 2:-0.533711 
-0 32768 1:-0.448067 2:-0.785872 
-32768 32768 1:-0.221467 2:-0.694414 
-32768 32768 1:0.103373 2:-0.579547 
-32768 32768 1:-0.0488133 2:-0.796038 
-32768 32768 1:0.697916 2:-0.514233 
-32768 32768 1:0.500863 2:-0.474821 
-0 32768 1:-0.542982 2:-0.900291 
-32768 32768 1:-0.285427 2:-0.648647 
-32768 32768 1:0.200033 2:-0.607171 
-0 -32768 1:-0.458204 2:-0.761728 
-32768 -0 1:0.289034 2:-0.213344 
-0 -32768 1:-0.148931 2:-0.87514 
-32768 -32768 1:-0.0315256 2:-0.622764 
-0 -32768 1:-0.921886 2:-0.95318 
-0 -32768 1:-0.696172 2:-0.588378 
-32768 -32768 1:-0.109206 2:-0.570101 
-32768 -32768 1:0.324517 2:-0.456968 
-32768 -32768 1:-0.291922 2:-0.43782 
-32768 -32768 1:-0.318949 2:-0.51538 
-0 -32768 1:-0.63513 2:-0.804735 
-0 -32768 1:-0.644923 2:-0.770311 
-32768 -32768 1:-0.0900947 2:-0.356807 
-32768 -32768 1:0.021492 2:-0.499029 
-32768 -0 1:-0.145352 2:0.120163 
-32768 -0 1:0.573203 2:-0.477972 
-32768 -32768 1:-0.114405 2:-0.554453 
-32768 -32768 1:0.0817563 2:-0.445483 
-32768 -32768 1:0.177467 2:-0.393572 
-32768 -32768 1:-0.175732 2:-0.238202 
-32768 -0 1:0.406575 2:-0.307792 
-32768 -32768 1:0.20505 2:-0.528609 
-0 -32768 1:-0.357051 2:-0.781151 
-32768 -32768 1:-0.191991 2:-0.639347 
-0 -32768 1:-0.253792 2:-0.871825 
-0 -32768 1:-0.498751 2:-0.872643 
-0 -32768 1:-0.668409 2:-0.714609 
-0 -32768 1:-0.293826 2:-0.742797 
-32768 -32768 1:-0.0234916 2:-1 
-32768 -22670.3242299602 1:-0.163277 2:-0.0310086 
-32768 -32768 1:0.0667756 2:-0.681331 
-32768 -32768 1:-0.288659 2:-0.51489 
-32768 -32768 1:0.173956 2:-0.67573 
-32768 -32768 1:0.240947 2:-0.53526 
-32768 -32768 1:0.224955 2:-0.41984 
-32768 -0 1:0.267994 2:-0.127671 
-0 -32768 1:-0.438453 2:-0.926744 
-0 -32768 1:-0.582068 2:-0.814639 
-0 -32768 1:-0.345311 2:-0.678831 
-32768 -32768 1:0.279976 2:-0.68687 
-32768 -32768 1:-0.064483 2:-0.680432 
-0 -32768 1:-0.511566 2:-0.893776 
-0 -32768 1:-0.262201 2:-0.775828 
-32768 -0 1:0.323275 2:-0.333234 
-0 -32768 1:-0.675787 2:-0.546031 
-32768 -32768 1:0.031254 2:-0.716107 
-0 -32768 1:-0.293711 2:-0.689363 
-0 -32768 1:-0.604459 2:-0.739436 
-32768 -0 1:-0.0054186 2:-0.0263046 
-32768 -32768 1:-0.127344 2:-0.484277 
-32768 -32768 1:-0.143672 2:-0.578234 
-32768 -32768 1:0.32629 2:-0.441057 
-12457.23004024927 -32768 1:-0.267741 2:-0.717082 
-32768 -32768 1:-0.118191 2:-0.660248 
-0 -32768 1:-0.349357 2:-0.672466 
-32768 -32768 1:-0.112792 2:-0.54094 
-32768 -32768 1:-0.118387 2:-0.369446 
-0 -32768 1:-0.292751 2:-0.752156 
-32768 -0 1:0.39197 2:0.122951 
-32768 -18602.73821173067 1:0.210853 2:-0.317826 
-32768 -32768 1:0.39507 2:-0.589853 
-0 -32768 1:-0.294595 2:-0.783994 
-0 -32768 1:-0.461697 2:-0.854906 
-32768 -32768 1:0.190978 2:-0.654711 
-32768 -32768 1:0.023597 2:-0.288249 
-32768 -0 1:0.586183 2:0.00930372 
-32768 -32768 1:0.164762 2:-0.672933 
