svm_type c_svc
kernel_type rbf
gamma 8
nr_class 3
total_sv 170
rho -1.96811 2.32791 0.307741
label 2 1 3
nr_sv 60 61 49
SV
2048 0 1:-0.483285 2:-0.920325 
0 367.8403527506007 1:0.169682 2:-0.843687 
2048 1929.398370598941 1:-0.523287 2:-0.868693 
2048 0 1:-0.476728 2:-0.93827 
2048 2048 1:-0.573091 2:-0.944555 
2048 0 1:-0.280438 2:-0.866385 
2048 2048 1:-0.224806 2:-0.890164 
2048 2048 1:-0.480668 2:-0.895921 
2048 2048 1:-0.741221 2:-0.952516 
863.5423282710037 2048 1:0.0036449 2:-0.710096 
2048 1445.972969600701 1:-0.620093 2:-0.907269 
2048 2048 1:-0.0631451 2:-0.875571 
2048 2048 1:-0.0810094 2:-0.912326 
0 3.707355311262551 1:0.194573 2:1 
2048 2048 1:-0.742518 2:-0.944609 
2048 2048 1:-0.259415 2:-0.800961 
2048 2048 1:-0.288833 2:-0.937662 
2048 2048 1:-0.0724909 2:-0.899527 
1337.009272277763 2048 1:0.055928 2:-0.835511 
8.880168437022032 495.5030228718591 1:-0.977233 2:-0.999848 
2048 2048 1:-0.204992 2:-0.851352 
2048 2048 1:0.00152487 2:-0.856976 
0 2048 1:0.116793 2:-0.825972 
629.1829370568267 9.28693784532841 1:-0.365691 2:-0.964099 
904.8633173414679 1261.60609605273 1:-0.340455 2:-0.923212 
0 2048 1:0.0573415 2:-0.855854 
499.8286795264717 0 1:0.0883925 2:-0.947764 
1461.539837882978 0 1:-0.55699 2:-0.830851 
0 15.6644012621007 1:0.0620361 2:-0.88336 
2048 0 1:-0.357091 2:-0.905256 
2048 2048 1:-0.424279 2:-0.896947 
2048 1756.815485986995 1:-0.593367 2:-0.964535 
2048 0 1:-0.357575 2:-0.907205 
2048 1999.618637770895 1:-0.435051 2:-0.906606 
659.5569771341393 2048 1:-0.13013 2:-0.85149 
2048 0 1:-0.501638 2:-0.904374 
31.1961892799892 233.5654833560939 1:0.5144 2:-0.729477 
2048 0 1:-0.570143 2:-0.98556 
1884.718841096021 0 1:-0.775804 2:-0.989116 
1922.241612572136 479.0867739661639 1:-0.65968 2:-0.880452 
2048 207.835879247869 1:-0.40779 2:-0.90113 
2048 2048 1:-0.25143 2:-0.899797 
2048 2048 1:-0.435423 2:-0.884948 
2048 0 1:-0.591619 2:-0.914428 
525.1503409603229 2048 1:0.160329 2:-0.798222 
2048 2048 1:-0.201674 2:-0.931246 
2048 0 1:-0.539025 2:-0.890806 
2048 0 1:-0.576241 2:-0.919446 
2048 1891.972056318953 1:-0.792165 2:-0.966256 
2048 1288.691868437728 1:0.160875 2:-0.826719 
1786.192080228002 0 1:-0.45492 2:-0.929061 
2048 1707.438119938352 1:-0.243864 2:-0.863357 
2048 0 1:-0.524182 2:-0.896124 
2048 2048 1:-0.716598 2:-0.901852 
2048 2048 1:-0.324359 2:-0.941833 
2048 2048 1:-0.020066 2:-0.847384 
1639.188897327635 2048 1:0.124097 2:-0.806673 
2048 2048 1:-0.247618 2:-0.90914 
2048 2048 1:-0.18892 2:-0.851642 
2048 2048 1:-0.255938 2:-0.917034 
-2048 0 1:-0.343375 2:-0.872888 
-2048 2048 1:-0.733278 2:-0.923384 
-2048 457.6156742673443 1:-0.582459 2:-0.892068 
-2048 2048 1:-0.458838 2:-0.906713 
-2048 0 1:-0.542349 2:-0.930722 
-2048 2048 1:-0.669692 2:-0.90302 
-2048 2048 1:-0.359893 2:-0.929475 
-2048 2048 1:-0.233786 2:-0.920776 
-2048 0 1:-0.488081 2:-0.867199 
-2048 2048 1:-0.245125 2:-0.850669 
-2048 2048 1:-0.120928 2:-0.845331 
-2048 0 1:-0.543797 2:-0.922922 
-2048 2048 1:-0.249829 2:-0.949977 
-8.495224240737404 14.91161837511108 1:0.855953 2:-0.782262 
-4.496687201262208 1.698618394740983 1:0.0327893 2:0.00362499 
-2048 0 1:-0.73189 2:-0.960971 
-2048 2048 1:-0.573498 2:-0.885842 
-0 1268.832909150234 1:-0.627676 2:-0.966301 
-2048 0 1:-0.81228 2:-0.957832 
-2048 0 1:-0.440682 2:-0.964467 
-1027.909387485312 0 1:-0.650631 2:-0.928591 
-2048 695.6981464560567 1:-0.460657 2:-0.929943 
-2048 2048 1:-0.384594 2:-0.919039 
-0 1396.468472304637 1:-0.676959 2:-0.93385 
-2048 0 1:-0.409206 2:-0.893425 
-2048 0 1:-0.514195 2:-0.849116 
-2048 2048 1:0.105112 2:-0.84165 
-2048 2048 1:-0.342633 2:-0.912334 
-2048 2048 1:-0.105116 2:-0.797933 
-2048 2048 1:-0.132107 2:-0.913157 
-2048 786.5951328272208 1:-0.759087 2:-0.9667 
-4.612457281104342 266.6064447170354 1:0.527833 2:-0.913802 
-2048 2048 1:-0.165257 2:-0.878031 
-2048 2048 1:0.0432706 2:-0.775014 
-0 1312.059975351117 1:-0.429045 2:-0.824729 
-2048 2048 1:-0.234599 2:-0.92192 
-2048 2048 1:-0.641961 2:-0.907834 
-2048 2048 1:-0.263247 2:-0.866562 
-2048 2048 1:0.00824259 2:-0.890682 
-2048 0 1:-0.516963 2:-0.910524 
-2048 2048 1:-0.0487719 2:-0.860777 
-0 460.6085358301627 1:-0.953108 2:-0.969526 
-2048 1865.112488659371 1:-0.332387 2:-0.861575 
-443.0105505973293 1411.201372917939 1:-0.808969 2:-0.946135 
-0 2048 1:-0.807866 2:-0.934957 
-368.9560029844421 698.1465067878557 1:-0.0018766 2:-0.957359 
-2048 2048 1:0.036514 2:-0.878579 
-192.9793137732704 0 1:-0.461414 2:-0.857295 
-0 5.602976141862879 1:-0.910535 2:-0.9254 
-2048 326.4730810343831 1:-0.377202 2:-0.941205 
-66.19669225912271 218.7031586809788 1:-0.165087 2:-0.61102 
-2048 2048 1:-0.177607 2:-0.905912 
-2048 2048 1:0.186485 2:-0.806276 
-2048 1709.966931396461 1:-0.496562 2:-0.905679 
-2048 0 1:-0.337612 2:-0.863081 
-1796.435163569193 935.8245327557051 1:-0.608002 2:-1 
-2048 0 1:-0.532323 2:-0.875631 
-2048 2048 1:-0.288608 2:-0.871371 
-2048 0 1:-0.602796 2:-0.950523 
-2048 2048 1:-0.212014 2:-0.911731 
-2048 0 1:-0.567722 2:-0.94198 
-36.8203014557421 -264.1389348672564 1:0.543589 2:-0.87266 
-2048 -2048 1:-0.381715 2:-0.90311 
-2048 -2048 1:-0.509833 2:-0.841607 
-2048 -2048 1:-0.878259 2:-0.971791 
-125.7763112739004 -667.6092665068263 1:-0.0905186 2:-0.789763 
-402.251083811919 -0 1:-0.0798482 2:-0.820794 
-2048 -242.5946829060587 1:0.0926594 2:-0.802955 
-2048 -2048 1:-0.154214 2:-0.926885 
-0 -3.635278979557094 1:-0.348924 2:0.00999196 
-2048 -2048 1:-0.452717 2:-0.88276 
-2048 -2048 1:-0.33608 2:-0.91166 
-2048 -2048 1:-0.143865 2:-0.843814 
-0 -0.4533890194583167 1:1 2:0.0397901 
-415.1555773732831 -2048 1:-0.765057 2:-0.881822 
-0.695407280063936 -0.692572594223186 1:0.459415 2:0.925313 
-2048 -2048 1:-0.313885 2:-0.882751 
-2048 -2048 1:-0.716219 2:-0.91675 
-0 -0.3000634622666751 1:0.932082 2:-0.0847191 
-2048 -2048 1:-0.239713 2:-0.925441 
-0 -208.8718694682219 1:0.240653 2:-0.714818 
-2048 -2048 1:-0.596185 2:-0.942443 
-2048 -0 1:0.0554395 2:-0.813238 
-227.065098821159 -312.0560889588195 1:0.102927 2:-0.724939 
-2048 -2048 1:-0.126459 2:-0.932678 
-2048 -2048 1:-0.172902 2:-0.882776 
-2048 -0 1:-0.0403211 2:-0.844903 
-2048 -2048 1:-0.263484 2:-0.918749 
-2048 -2048 1:-0.694108 2:-0.953574 
-2048 -2048 1:-0.69675 2:-0.932209 
-2048 -2048 1:-0.277991 2:-0.904829 
-2048 -2048 1:-0.273457 2:-0.876679 
-2048 -2048 1:-0.649493 2:-0.946469 
-2048 -2048 1:-0.0145717 2:-0.854089 
-2048 -2048 1:-0.206491 2:-0.772724 
-2048 -2048 1:-0.108936 2:-0.869239 
-2048 -2041.636837480106 1:-0.038187 2:-0.852224 
-2048 -1847.301479798611 1:0.162049 2:-0.860583 
-997.3381440666025 -0 1:0.234085 2:-0.772175 
-2048 -2048 1:-0.156035 2:-0.913713 
-2048 -2048 1:-0.357588 2:-0.889337 
-2048 -1058.643303927707 1:0.111408 2:-0.784653 
-2048 -2048 1:0.0424255 2:-0.828695 
-119.664599880887 -0 1:0.551197 2:-0.651026 
-2048 -2048 1:0.107234 2:-0.861386 
-2048 -2048 1:-0.408737 2:-0.942623 
-457.7212944359358 -155.2640286845564 1:0.00898098 2:-0.646503 
-2048 -2048 1:-0.386987 2:-0.91247 
-2048 -2048 1:-0.618361 2:-0.926472 
-23.51599291708678 -884.9287793945615 1:-0.144369 2:-0.951332 
