svm_type c_svc
kernel_type rbf
gamma 0.125
nr_class 3
total_sv 186
rho -15.6661 27.6256 -14.4232
label 3 2 1
nr_sv 48 72 66
SV
32768 21695.64335764929 1:-0.331585 2:-0.5843 
32768 32768 1:-0.35647 2:-0.90311 
32768 32768 1:-0.84394 2:-0.971791 
32768 32768 1:-0.0705933 2:-0.789763 
32768 32768 1:-0.0601179 2:-0.820794 
32768 32768 1:0.109238 2:-0.802955 
15933.22837411423 0 1:-0.324277 2:0.00999196 
32768 32768 1:-0.506374 2:-0.941557 
32768 32768 1:-0.311668 2:-0.91166 
9687.742817243783 0 1:1 2:0.0397901 
28153.9115455362 0 1:0.830208 2:-0.360289 
14258.91476780002 0 1:0.469292 2:0.925313 
32768 32768 1:-0.460924 2:-0.90436 
32768 32768 1:-0.684862 2:-0.91675 
32768 0 1:0.399287 2:-0.679166 
32768 32768 1:-0.217062 2:-0.925441 
32768 32768 1:-0.694493 2:-0.912968 
32768 0 1:0.254527 2:-0.714818 
32768 32768 1:-0.56702 2:-0.942443 
32768 0 1:0.119318 2:-0.724939 
32768 32768 1:-0.503822 2:-0.832539 
32768 32768 1:-0.105877 2:-0.932678 
32768 32768 1:-0.021313 2:-0.844903 
32768 32768 1:-0.197484 2:-0.874901 
32768 32768 1:-0.240398 2:-0.918749 
32768 32768 1:-0.324136 2:-0.88306 
32768 32768 1:-0.663154 2:-0.953574 
32768 32768 1:-0.665748 2:-0.932209 
32768 32768 1:-0.250189 2:-0.876679 
32768 32768 1:-0.0825497 2:-0.962612 
32768 32768 1:-0.619354 2:-0.946469 
32768 32768 1:0.00396586 2:-0.854089 
32768 32768 1:-0.184447 2:-0.772724 
32768 32768 1:-0.0387938 2:-0.770414 
32768 32768 1:-0.0192179 2:-0.852224 
32768 32768 1:0.177359 2:-0.860583 
32768 276.0893403068972 1:0.248079 2:-0.772175 
32768 32768 1:-0.750527 2:-0.86116 
32768 32768 1:-0.134913 2:-0.913713 
32768 32768 1:-0.332783 2:-0.889337 
32768 32768 1:-0.33393 2:-0.854971 
32768 32768 1:0.127644 2:-0.784653 
32768 0 1:0.559397 2:-0.651026 
32768 32768 1:0.123546 2:-0.861386 
32768 32768 1:-0.069282 2:-0.74788 
24811.62345152463 0 1:0.0270882 2:-0.646503 
32768 32768 1:-0.361644 2:-0.91247 
32768 32768 1:-0.12346 2:-0.951332 
-32768 32768 1:0.184854 2:-0.843687 
-32768 32768 1:-0.495454 2:-0.868693 
-24635.55183283667 0 1:0.301938 2:0.207247 
-0 32768 1:-0.449746 2:-0.93827 
-0 32768 1:-0.65058 2:-0.97175 
-32768 32768 1:-0.257043 2:-0.866385 
-32768 0 1:0.36119 2:-0.772661 
-32768 32768 1:-0.202427 2:-0.890164 
-32768 32768 1:-0.453615 2:-0.895921 
-32768 32768 1:-0.325357 2:-0.873678 
-0 32768 1:-0.709406 2:-0.952516 
-0 32768 1:-0.369834 2:-0.91576 
-32768 0 1:0.0218497 2:-0.710096 
-32768 32768 1:-0.590492 2:-0.907269 
-32768 32768 1:-0.04372 2:-0.875571 
-20353.61487486602 32768 1:-0.0612579 2:-0.912326 
-32768 0 1:0.96961 2:-0.162746 
-8665.436710233578 0 1:0.20929 2:1 
-0 32768 1:-0.71068 2:-0.944609 
-32768 32768 1:-0.236403 2:-0.800961 
-0 32768 1:-0.431478 2:-0.94487 
-0 32768 1:-0.265284 2:-0.937662 
-32768 32768 1:-0.052895 2:-0.899527 
-0 32768 1:-0.555822 2:-0.984422 
-32768 32768 1:0.0731775 2:-0.835511 
-0 32768 1:0.657672 2:-0.872935 
-3186.946014265681 32768 1:-0.941106 2:-0.999848 
-32768 32768 1:-0.269438 2:-0.894644 
-32768 32768 1:-0.182975 2:-0.851352 
-32768 32768 1:0.115607 2:-0.848332 
-32768 32768 1:-0.194997 2:-0.833197 
-0 32768 1:-0.900358 2:-0.999137 
-32768 32768 1:-0.480903 2:-0.856326 
-32768 7144.882902891693 1:0.132931 2:-0.825972 
-0 32768 1:-0.21785 2:-0.938486 
-0 32768 1:-0.340738 2:-0.964099 
-0 32768 1:-0.315963 2:-0.923212 
-32768 32768 1:0.0745652 2:-0.855854 
-32768 32768 1:-1 2:-0.997941 
-32768 15212.06612812215 1:-0.0641631 2:-0.475443 
-32768 32768 1:-0.528542 2:-0.830851 
-32768 32768 1:0.079174 2:-0.88336 
-32768 32768 1:-0.223198 2:-0.759878 
-32768 32768 1:-0.332295 2:-0.905256 
-0 32768 1:-0.564254 2:-0.964535 
-0 32768 1:-0.624705 2:-0.955056 
-32768 32768 1:-0.408831 2:-0.906606 
-0 32768 1:-0.53178 2:-0.927199 
-32768 32768 1:-0.474201 2:-0.904374 
-32768 0 1:0.523273 2:-0.729477 
-0 32768 1:-0.541455 2:-0.98556 
-32768 32768 1:-0.382067 2:-0.90113 
-32768 32768 1:-0.228564 2:-0.899797 
-32768 32768 1:-0.409196 2:-0.884948 
-4551.181899771223 32768 1:-0.562538 2:-0.914428 
-31452.6896242454 32768 1:-0.731687 2:-0.940009 
-0 32768 1:-0.179718 2:-0.931246 
-32768 32768 1:-0.510905 2:-0.890806 
-32768 32768 1:-0.584256 2:-0.871565 
-0 32768 1:-0.547441 2:-0.919446 
-0 32768 1:-0.75942 2:-0.966256 
-32768 0 1:0.176207 2:-0.826719 
-0 32768 1:-0.428337 2:-0.929061 
-32768 0 1:0.361093 2:-0.788691 
-32768 32768 1:-0.496333 2:-0.896124 
-32768 32768 1:-0.685234 2:-0.901852 
-32768 32768 1:-0.00142799 2:-0.847384 
-0 32768 1:-0.451476 2:-0.935677 
-32768 0 1:0.140101 2:-0.806673 
-32768 32768 1:-0.224822 2:-0.90914 
-32768 32768 1:-0.167196 2:-0.851642 
-0 32768 1:-0.358887 2:-0.920641 
-32768 -32768 1:-0.31883 2:-0.872888 
-0 -32768 1:-0.461772 2:-0.90618 
-0 -32768 1:-0.432183 2:-0.906713 
-0 -32768 1:-0.514168 2:-0.930722 
-0 -32768 1:-0.619331 2:-0.943038 
-0 -32768 1:-0.335046 2:-0.929475 
-32768 -32768 1:-0.211243 2:-0.920776 
-0 -32768 1:-0.66356 2:-0.93933 
-32768 -12594.08769043147 1:-0.460892 2:-0.867199 
-17207.3023234126 -32768 1:-0.963457 2:-0.956437 
-32768 -32768 1:-0.225661 2:-0.88724 
-0 -32768 1:-0.641274 2:-0.954151 
-32768 -32768 1:-0.100447 2:-0.845331 
-0 -32768 1:-0.51559 2:-0.922922 
-0 -32768 1:-0.429981 2:-0.92088 
-5745.949713332642 -6353.930526417759 1:0.858585 2:-0.782262 
-32768 -32768 1:-0.700246 2:-0.960971 
-0 -32768 1:-0.407722 2:-0.935505 
-32768 -32768 1:-0.28003 2:-0.909862 
-32768 -32768 1:-0.170307 2:-0.857204 
-0 -32768 1:-0.414359 2:-0.964467 
-0 -32768 1:-0.620472 2:-0.928591 
-19733.89967194018 -32768 1:-0.359295 2:-0.919039 
-0 -32768 1:-0.646319 2:-0.93385 
-32768 -32768 1:-0.383458 2:-0.893425 
-32768 -0 1:-0.486528 2:-0.849116 
-32768 -32768 1:0.121463 2:-0.84165 
-32768 -32768 1:-0.318101 2:-0.912334 
-32768 -32768 1:-0.0849241 2:-0.797933 
-32768 -32768 1:-0.111422 2:-0.913157 
-0 -32768 1:0.53646 2:-0.913802 
-32768 -32768 1:0.0607514 2:-0.775014 
-0 -32768 1:-0.716006 2:-0.939864 
-32768 -32768 1:-0.402934 2:-0.824729 
-32768 -32768 1:-0.212041 2:-0.92192 
-32768 -32768 1:-0.693898 2:-0.964145 
-32768 -32768 1:-0.240166 2:-0.866562 
-32768 -32768 1:0.0263633 2:-0.890682 
-32768 -32768 1:-0.279649 2:-0.890936 
-0 -32768 1:-0.489246 2:-0.910524 
-32768 -32768 1:-0.0296094 2:-0.860777 
-32768 -32768 1:-0.917423 2:-0.969526 
-32768 -32768 1:-0.308043 2:-0.861575 
-19019.37238734159 -32768 1:-0.775917 2:-0.946135 
-0 -32768 1:-0.647694 2:-0.951921 
-0 -3408.930814164607 1:-0.774833 2:-0.934957 
-20361.57904185983 -32768 1:0.016429 2:-0.957359 
-32768 -32768 1:0.0541182 2:-0.878579 
-32768 -32768 1:-0.434712 2:-0.857295 
-32768 -32768 1:-0.746205 2:-0.948027 
-0 -32768 1:-0.352039 2:-0.941205 
-0 -32768 1:-0.73097 2:-0.940593 
-32768 -32768 1:-0.143799 2:-0.61102 
-32768 -32768 1:-0.179164 2:-0.937016 
-0 -32768 1:-0.645806 2:-0.951818 
-32768 -32768 1:0.201349 2:-0.806276 
-32768 -32768 1:-0.321892 2:-0.75113 
-0 -32768 1:-0.469218 2:-0.905679 
-5439.629560069411 -32768 1:-0.578622 2:-1 
-32768 -0 1:-0.504325 2:-0.875631 
-32768 -32768 1:-0.104507 2:-0.880574 
-32768 -32768 1:-0.265064 2:-0.871371 
-0 -32768 1:-0.573511 2:-0.950523 
-32768 -32768 1:-0.189869 2:-0.911731 
-0 -32768 1:-0.539078 2:-0.94198 
-0 -32768 1:-0.461592 2:-0.909856 
