svm_type c_svc
kernel_type rbf
gamma 0.000488281
nr_class 3
total_sv 182
rho 4.96723 -1.49176 -3.86248
label 2 3 1
nr_sv 67 57 58
SV
2048 2048 1:-0.448797 2:-0.447792 
2048 2048 1:-0.463297 2:0.203135 
2048 2048 1:-0.208391 2:-0.487669 
2048 743.4554467418171 1:-0.572384 2:0.322026 
0 2048 1:-0.566013 2:-0.537318 
0 2048 1:-0.410278 2:-0.645189 
2048 2048 1:-0.040296 2:-0.245579 
2048 0 1:0.177463 2:0.382193 
2048 2048 1:-0.280736 2:-0.445184 
2048 2048 1:0.00881269 2:-0.314948 
0 2048 1:-0.427826 2:-0.704923 
2048 2048 1:-0.069365 2:-0.36011 
2048 2048 1:0.269484 2:0.0376164 
2048 2048 1:-0.428799 2:-0.028965 
2048 2048 1:-0.454424 2:-0.0467735 
2048 0 1:0.0376384 2:1 
0 2048 1:-0.655791 2:-0.706216 
2048 2048 1:0.0950574 2:-0.224621 
2048 2048 1:0.0154731 2:-0.253948 
0 2048 1:-0.615997 2:-0.548969 
2048 0 1:1 2:0.0897361 
2048 0 1:-0.377469 2:0.683249 
0 2048 1:-0.881255 2:-0.940197 
2048 2048 1:0.709575 2:-0.258166 
2048 0 1:0.355345 2:0.13282 
2048 2048 1:-0.443358 2:-0.182576 
2048 2048 1:-0.0827283 2:0.035503 
2048 2048 1:-0.235235 2:-0.472893 
2048 2048 1:0.197119 2:0.150411 
2048 2048 1:0.0875299 2:-0.205782 
2048 2048 1:-0.299103 2:-0.330566 
2048 2048 1:0.0129197 2:0.0911452 
2048 2048 1:-0.154988 2:0.122099 
0 2048 1:-0.945252 2:-1 
2048 2048 1:-0.476415 2:-0.0497236 
2048 2048 1:0.205687 2:0.0958252 
2048 2048 1:-0.0935843 2:-0.211212 
2048 2048 1:-0.231022 2:-0.321992 
2048 2048 1:-0.144745 2:-0.388971 
2048 2048 1:-0.324672 2:-0.55753 
2048 2048 1:-0.0521372 2:-0.322476 
1056.148971471391 2048 1:-0.422278 2:-0.618915 
2048 2048 1:-0.364469 2:-0.39971 
2048 2048 1:0.0280266 2:-0.0957409 
2048 2048 1:-0.421926 2:-0.524555 
2048 2048 1:-0.330587 2:-0.466088 
2048 2048 1:-0.0406219 2:-0.534379 
0 2048 1:-0.395235 2:-0.739397 
2048 2048 1:-0.368243 2:-0.623636 
2048 2048 1:-0.261446 2:-0.216661 
2048 2048 1:-0.301549 2:-0.40008 
2048 0 1:0.0456123 2:0.193811 
0 2048 1:-0.432574 2:-0.727547 
2048 2048 1:-0.278879 2:-0.167062 
2048 2048 1:0.144338 2:-0.577841 
2048 2048 1:-0.100853 2:-0.540458 
0 2048 1:-0.721917 2:-0.755708 
2048 0 1:0.170211 2:0.194355 
2048 2048 1:-0.111115 2:-0.209119 
2048 0 1:0.287784 2:0.382094 
0 2048 1:-0.487316 2:-0.680377 
2048 2048 1:-0.031464 2:-0.289363 
2048 2048 1:0.0604515 2:0.0139796 
2048 2048 1:-0.327634 2:-0.443012 
2048 0 1:0.197696 2:0.157692 
2048 2048 1:-0.0183541 2:-0.154347 
2048 2048 1:0.0385552 2:-0.221156 
-2048 2048 1:-0.567869 2:-0.321272 
-2048 779.6318298024028 1:-0.158344 2:0.575874 
-2048 0 1:0.178059 2:0.514627 
-2048 2048 1:-0.378982 2:-0.393037 
-2048 2048 1:-0.172424 2:0.176075 
-2048 2048 1:-0.171336 2:-0.474257 
-2048 2048 1:-0.81735 2:-0.841532 
-2048 2048 1:-0.109715 2:-0.0456159 
-2048 0 1:0.421266 2:0.126353 
-2048 2048 1:-0.105764 2:-0.119749 
-2048 2048 1:0.631498 2:-0.313851 
-2048 2048 1:-0.176543 2:-0.41732 
-2048 2048 1:-0.600757 2:-0.498758 
-2048 2048 1:-0.343344 2:-0.301047 
-60.2340563750648 0 1:0.714532 2:-0.109433 
-2048 0 1:-0.0781219 2:0.790949 
-2048 2048 1:-0.778563 2:-0.728685 
-995.9149150963268 0 1:0.103053 2:0.858447 
-2048 2048 1:-0.326904 2:-0.452607 
-2048 2048 1:-0.0346316 2:-0.278921 
-2048 0 1:0.0642507 2:0.595844 
-2048 2048 1:-0.539424 2:-0.679999 
-2048 0 1:-0.0279717 2:0.963153 
-2048 0 1:0.363439 2:0.420878 
-2048 2048 1:-0.399823 2:-0.204981 
-2048 2048 1:-0.564685 2:-0.689779 
-2048 2048 1:0.221114 2:0.118301 
-2048 2048 1:0.0752662 2:0.0892492 
-2048 2048 1:0.588472 2:-0.496166 
-2048 2048 1:0.0841614 2:-0.0920811 
-2048 2048 1:0.0287725 2:-0.138379 
-2048 2048 1:-0.116693 2:-0.185102 
-2048 2048 1:0.0407673 2:-0.313708 
-2048 2048 1:-0.845222 2:-0.657957 
-2048 2048 1:-0.492788 2:-0.660591 
-2048 2048 1:0.27299 2:-0.24314 
-2048 2048 1:0.0165952 2:-0.00325908 
-2048 2048 1:-0.196788 2:-0.0683939 
-2048 2048 1:-0.401818 2:-0.613481 
-2048 241.414755725495 1:0.499596 2:0.0194566 
-2048 2048 1:0.139016 2:-0.171863 
-2048 2048 1:0.0444455 2:-0.0239628 
-2048 2048 1:-0.141246 2:-0.0746125 
-2048 2048 1:0.226259 2:-0.00408483 
-2048 0 1:0.467874 2:0.195525 
-2048 2048 1:-0.525092 2:-0.746678 
-2048 2048 1:-0.285679 2:-0.121565 
-2048 0 1:0.327344 2:0.286948 
-2048 2048 1:0.333214 2:-0.323652 
-2048 2048 1:0.195704 2:0.145043 
-2048 2048 1:0.255414 2:0.0762759 
-2048 2048 1:-0.334191 2:-0.373477 
-2048 2048 1:0.0595809 2:-0.0549215 
-2048 2048 1:0.347114 2:0.0429358 
-2048 2048 1:-0.132557 2:-0.351795 
-2048 2048 1:-0.351167 2:-0.582446 
-2048 2048 1:-0.00450248 2:-0.109935 
-2048 -2048 1:-0.402725 2:-0.546657 
-2048 -2048 1:-0.220855 2:-0.453468 
-2048 -0 1:-0.56802 2:-0.613457 
-2048 -1021.046585527898 1:-0.417781 2:-0.633618 
-2048 -2048 1:-0.0280348 2:-0.199073 
-2048 -0 1:-0.566518 2:-0.669558 
-2048 -0 1:-0.544777 2:-0.658369 
-2048 -2048 1:-0.0704787 2:-0.452574 
-2048 -2048 1:-0.381336 2:-0.213713 
-2048 -2048 1:-0.400083 2:-0.635739 
-2048 -2048 1:-0.187509 2:-0.210377 
-2048 -2048 1:-0.383378 2:-0.508115 
-2048 -2048 1:-0.22789 2:-0.215065 
-2048 -2048 1:-0.16715 2:-0.421186 
-2048 -2048 1:0.428021 2:0.0666697 
-2048 -2048 1:-0.35434 2:-0.398584 
-2048 -2048 1:-0.326158 2:-0.537724 
-2048 -0 1:-0.535073 2:-0.591732 
-2048 -2048 1:-0.40198 2:-0.268921 
-2048 -2048 1:0.0835251 2:-0.157505 
-2048 -2048 1:0.0235476 2:-0.405323 
-2048 -0 1:-0.465575 2:-0.614616 
-2048 -2048 1:-0.534303 2:-0.425235 
-2048 -2048 1:-0.265626 2:-0.349409 
-2048 -0 1:-0.522562 2:-0.640862 
-2048 -0 1:-0.53415 2:-0.672791 
-2048 -2048 1:-0.335774 2:-0.373945 
-2048 -2048 1:0.50147 2:0.138767 
-2048 -2048 1:-0.435188 2:-0.591571 
-2048 -2048 1:-0.203345 2:-0.0708048 
-2048 -2048 1:0.337508 2:-0.130758 
-2048 -0 1:-0.441135 2:-0.711624 
-2048 -2048 1:-0.178358 2:-0.393722 
-2048 -2048 1:-0.212683 2:-0.199883 
-2048 -2048 1:-0.224432 2:-0.605973 
-2048 -0 1:-0.472821 2:-0.689175 
-2048 -2048 1:0.0588016 2:0.0421997 
-2048 -2048 1:0.00132119 2:-0.268534 
-2048 -2048 1:-0.27515 2:-0.481365 
-2048 -2048 1:-0.0709067 2:-0.0146367 
-743.4554467418175 -0 1:-0.855282 2:-0.642258 
-2048 -2048 1:0.113482 2:0.0321121 
-2048 -2048 1:0.275103 2:0.0703828 
-2048 -2048 1:0.0767193 2:-0.42599 
-2048 -2048 1:-0.1137 2:-0.130589 
-2048 -2048 1:-0.326476 2:-0.166499 
-2048 -2048 1:-0.106018 2:-0.143069 
-2048 -0 1:-0.658295 2:-0.640341 
-2048 -2048 1:0.156067 2:0.219886 
-2048 -2048 1:-0.422996 2:-0.311429 
-2048 -2048 1:-0.409847 2:-0.461028 
-2048 -2048 1:-0.049596 2:-0.302574 
-2048 -2048 1:-0.309579 2:-0.496677 
-2048 -2048 1:0.23517 2:-0.0906903 
-2048 -2048 1:-0.416369 2:-0.56693 
-2048 -0 1:-0.624638 2:-0.676829 
-2048 -2048 1:-0.145986 2:-0.177369 
-2048 -2048 1:-0.442065 2:-0.453285 
