svm_type c_svc
kernel_type rbf
gamma 0.00012207
nr_class 3
total_sv 196
rho 0.382721 0.154144 -0.259338
label 2 3 1
nr_sv 68 60 68
SV
512 512 1:-0.413581 2:-0.456183 
512 512 1:-0.429007 2:0.184854 
512 512 1:-0.545063 2:0.301938 
512 512 1:-0.390472 2:-0.449746 
0 512 1:-0.538286 2:-0.544349 
512 512 1:-0.372601 2:-0.65058 
512 512 1:0.021019 2:-0.257043 
512 512 1:0.25269 2:0.36119 
512 512 1:0.125572 2:-0.202427 
512 512 1:0.0732652 2:-0.325357 
0 512 1:-0.39127 2:-0.709406 
512 512 1:0.35059 2:0.0218497 
0 512 1:-0.61035 2:-0.590492 
512 512 1:-0.419568 2:-0.0612579 
512 479.0913627183082 1:0.103933 2:0.96961 
512 512 1:-0.0440921 2:0.20929 
512 512 1:0.16502 2:-0.236403 
512 512 1:-0.0992159 2:-0.431478 
512 512 1:0.108227 2:-0.052895 
0 512 1:-0.591463 2:-0.555822 
512 512 1:-0.337696 2:0.657672 
512 512 1:0.818799 2:-0.269438 
512 512 1:-0.0324686 2:-0.182975 
512 512 1:-0.407794 2:-0.194997 
0 512 1:-0.273601 2:-0.900358 
512 512 1:-0.0241243 2:0.0197684 
512 512 1:-0.186375 2:-0.480903 
512 512 1:0.273602 2:0.132931 
512 512 1:0.157012 2:-0.21785 
512 512 1:-0.254323 2:-0.340738 
512 512 1:-0.255745 2:-0.315963 
512 512 1:-0.101001 2:0.105049 
0 512 1:-0.941754 2:-1 
512 512 1:-0.442964 2:-0.0641631 
512 512 1:-0.347701 2:-0.528542 
512 512 1:-0.0356739 2:-0.223198 
512 512 1:-0.181893 2:-0.332295 
512 512 1:-0.0901037 2:-0.398256 
512 512 1:-0.281526 2:-0.564254 
512 512 1:0.00842129 2:-0.332771 
512 512 1:-0.385368 2:-0.624705 
512 512 1:-0.323866 2:-0.408831 
512 512 1:0.0937067 2:-0.109481 
512 512 1:-0.384993 2:-0.53178 
512 512 1:-0.287819 2:-0.474201 
512 512 1:0.276373 2:0.523273 
512 512 1:0.0206723 2:-0.541455 
512 512 1:-0.356597 2:-0.743357 
512 512 1:-0.32788 2:-0.629355 
512 512 1:-0.175344 2:-0.382067 
512 512 1:-0.256926 2:-0.409196 
512 512 1:-0.356402 2:-0.562538 
512 512 1:0.112416 2:0.175671 
0 512 1:-0.396322 2:-0.731687 
512 512 1:-0.532481 2:-0.510905 
512 512 1:0.217449 2:-0.584256 
512 512 1:-0.0434067 2:-0.547441 
0 512 1:-0.70415 2:-0.75942 
512 512 1:-0.131188 2:-0.428337 
512 512 1:-0.0543248 2:-0.221137 
512 512 1:0.37006 2:0.361093 
512 512 1:-0.426751 2:-0.496333 
512 512 1:0.0304153 2:-0.300161 
512 512 1:-0.284676 2:-0.451476 
512 512 1:0.274216 2:0.140101 
512 512 1:-0.272053 2:-0.224822 
512 512 1:0.104908 2:-0.232991 
512 512 1:-0.303682 2:-0.358887 
-512 512 1:-0.54026 2:-0.331585 
-512 0 1:0.682058 2:0.125451 
-512 512 1:-0.104571 2:0.551928 
-512 512 1:0.253325 2:0.491612 
-512 512 1:-0.339305 2:-0.40226 
-512 512 1:-0.11955 2:0.158204 
-512 512 1:-0.114595 2:-0.35647 
-512 512 1:-0.118394 2:-0.482246 
-512 512 1:-0.805681 2:-0.84394 
-512 512 1:-0.345059 2:-0.0705933 
-512 512 1:0.51207 2:0.109238 
-512 512 1:-0.0486317 2:-0.133125 
-512 512 1:0.735734 2:-0.324277 
-512 512 1:-0.123933 2:-0.426174 
-512 512 1:-0.57525 2:-0.506374 
-512 512 1:0.824073 2:-0.122965 
-512 125.8581673306866 1:-0.135653 2:1 
-512 512 1:-0.764416 2:-0.732807 
-512 0 1:0.173527 2:0.830208 
-512 512 1:-0.239842 2:0.469292 
-512 512 1:-0.2839 2:-0.460924 
-512 512 1:0.0270453 2:-0.289878 
-512 512 1:0.132245 2:0.571595 
-512 512 1:-0.509998 2:-0.684862 
-512 0 1:0.0341307 2:0.933323 
-512 512 1:-0.536873 2:-0.694493 
-512 512 1:0.112661 2:-0.56702 
-512 512 1:0.143964 2:0.0726979 
-512 512 1:0.458876 2:0.119318 
-512 512 1:0.689959 2:-0.503822 
-512 512 1:0.0945003 2:-0.151472 
-512 512 1:0.282629 2:-0.021313 
-512 512 1:-0.0602587 2:-0.197484 
-512 512 1:-0.301084 2:-0.240398 
-512 512 1:0.107261 2:-0.324136 
-512 512 1:-0.835333 2:-0.663154 
-512 512 1:0.662542 2:0.027333 
-512 512 1:0.354321 2:-0.25464 
-512 512 1:-0.116702 2:-0.250189 
-512 512 1:0.081545 2:-0.0184047 
-512 512 1:-0.145471 2:-0.0825497 
-512 512 1:0.595405 2:0.00396586 
-512 512 1:0.191988 2:0.226176 
-512 512 1:0.111175 2:-0.0387938 
-512 512 1:-0.086381 2:-0.0886739 
-512 512 1:0.561656 2:0.177359 
-512 512 1:0.290832 2:0.248079 
-512 512 1:-0.494751 2:-0.750527 
-512 512 1:-0.240041 2:-0.134913 
-512 512 1:-0.0369073 2:-0.332783 
-512 512 1:0.412148 2:0.267392 
-512 512 1:0.418393 2:-0.33393 
-512 512 1:0.335621 2:0.0599217 
-512 512 1:0.524114 2:0.123546 
-512 512 1:-0.291653 2:-0.382998 
-512 0 1:0.550292 2:0.35308 
-512 512 1:0.127277 2:-0.069282 
-512 512 1:0.433181 2:0.0270882 
-512 512 1:-0.309714 2:-0.588791 
-512 512 1:0.0590993 2:-0.12346 
-512 -512 1:0.720341 2:-0.31883 
-512 -512 1:-0.364566 2:-0.553546 
-512 -512 1:-0.171076 2:-0.461772 
-512 -512 1:-0.559512 2:-0.432183 
-512 -512 1:-0.444426 2:-0.514168 
-512 -512 1:-0.380583 2:-0.639185 
-512 -512 1:-0.287826 2:-0.335046 
-512 -0 1:-0.538823 2:-0.674579 
-512 -0 1:-0.515693 2:-0.66356 
-512 -512 1:-0.0110921 2:-0.460892 
-512 -512 1:-0.34181 2:-0.225661 
-512 -512 1:-0.135599 2:-0.222375 
-512 -512 1:-0.0351138 2:-0.100447 
-512 -512 1:-0.17856 2:-0.226993 
-512 -512 1:-0.11394 2:-0.429981 
-512 -512 1:-0.246986 2:0.858585 
-512 -0 1:-0.433291 2:-0.758127 
-512 -512 1:0.519256 2:0.0504615 
-512 -0 1:-0.655109 2:-0.700246 
-512 -512 1:-0.313089 2:-0.407722 
-512 -512 1:-0.283106 2:-0.544748 
-512 -512 1:-0.505369 2:-0.597936 
-512 -512 1:-0.363772 2:-0.28003 
-512 -0 1:-0.451625 2:-0.779168 
-512 -512 1:0.152751 2:-0.170307 
-512 -512 1:0.0889415 2:-0.414359 
-512 -512 1:-0.50455 2:-0.433969 
-512 -512 1:-0.218707 2:-0.359295 
-512 -0 1:-0.504387 2:-0.677763 
-512 -512 1:-0.293337 2:-0.383458 
-512 -125.8581673306866 1:-0.627366 2:-0.486528 
-512 -512 1:0.597398 2:0.121463 
-512 -512 1:-0.24157 2:-0.318101 
-512 -512 1:-0.399103 2:-0.597777 
-512 -512 1:0.0290325 2:-0.111422 
-512 -512 1:-0.234877 2:-0.920671 
-512 -0 1:-0.561008 2:-0.726946 
-512 -512 1:-0.401791 2:0.53646 
-512 -512 1:0.42296 2:-0.143966 
-512 -512 1:0.253942 2:0.0607514 
-512 -512 1:-0.40543 2:-0.716006 
-512 -512 1:-0.125863 2:-0.402934 
-512 -512 1:-0.174882 2:-0.61196 
-512 -512 1:-0.43914 2:-0.693898 
-512 -512 1:-0.0245145 2:-0.240166 
-512 -512 1:0.0652951 2:-0.279649 
-512 -512 1:-0.228839 2:-0.489246 
-479.0913627183082 -0 1:-0.637649 2:-0.917423 
-512 -512 1:-0.540405 2:-0.308043 
-512 -0 1:-0.846037 2:-0.647694 
-512 -512 1:0.184622 2:0.016429 
-512 -0 1:-0.621342 2:-0.746205 
-512 -512 1:-0.135277 2:-0.352039 
-512 -0 1:-0.580317 2:-0.73097 
-512 -512 1:-0.0570747 2:-0.143799 
-512 -512 1:-0.283445 2:-0.179164 
-512 -512 1:-0.0489024 2:-0.15609 
-512 -512 1:0.229927 2:0.201349 
-512 -512 1:-0.386131 2:-0.321892 
-512 -512 1:0.0111248 2:-0.313172 
-512 -512 1:-0.324337 2:-0.578622 
-512 -512 1:0.314084 2:-0.104507 
-512 -512 1:-0.0352421 2:-0.265064 
-512 -512 1:-0.379081 2:-0.573511 
-512 -0 1:-0.600656 2:-0.68174 
-512 -512 1:-0.0914236 2:-0.189869 
-512 -512 1:-0.36386 2:-0.539078 
-512 -512 1:-0.406419 2:-0.461592 
