svm_type c_svc
kernel_type rbf
gamma 8
nr_class 3
total_sv 198
rho 0.237255 0.229969 -0.255449
label 2 3 1
nr_sv 68 61 69
SV
0.003918531078382063 0.125 1:-0.456183 2:-0.920325 
0.125 0.125 1:0.184854 2:-0.843687 
0.125 0.125 1:0.301938 2:0.207247 
0 0.125 1:-0.449746 2:-0.93827 
0 0.125 1:-0.544349 2:-0.944555 
0.125 0.125 1:-0.65058 2:-0.97175 
0.125 0.125 1:-0.257043 2:-0.866385 
0.125 0.125 1:0.36119 2:-0.772661 
0.125 0.125 1:-0.202427 2:-0.890164 
0.125 0.125 1:-0.325357 2:-0.873678 
0.125 0.125 1:-0.709406 2:-0.952516 
0.125 0.125 1:0.0218497 2:-0.710096 
0.125 0.125 1:-0.590492 2:-0.907269 
0.125 0.125 1:-0.0612579 2:-0.912326 
0.125 0.125 1:0.96961 2:-0.162746 
0.125 0.125 1:0.20929 2:1 
0.125 0.125 1:-0.236403 2:-0.800961 
0.125 0.125 1:-0.431478 2:-0.94487 
0.125 0.125 1:-0.052895 2:-0.899527 
0.125 0.125 1:-0.555822 2:-0.984422 
0.125 0.125 1:0.657672 2:-0.872935 
0.125 0.125 1:-0.269438 2:-0.894644 
0.125 0.125 1:-0.182975 2:-0.851352 
0.125 0.125 1:-0.194997 2:-0.833197 
0.125 0.125 1:-0.900358 2:-0.999137 
0.125 0.125 1:0.0197684 2:-0.856976 
0.125 0.125 1:-0.480903 2:-0.856326 
0.125 0.125 1:0.132931 2:-0.825972 
0.125 0.125 1:-0.21785 2:-0.938486 
0.125 0.125 1:-0.340738 2:-0.964099 
0.125 0.125 1:-0.315963 2:-0.923212 
0.125 0.125 1:0.105049 2:-0.947764 
0.125 0.125 1:-1 2:-0.997941 
0.125 0.125 1:-0.0641631 2:-0.475443 
0.125 0.125 1:-0.528542 2:-0.830851 
0.125 0.125 1:-0.223198 2:-0.759878 
0.125 0.125 1:-0.332295 2:-0.905256 
0.125 0.125 1:-0.398256 2:-0.896947 
0.125 0.125 1:-0.564254 2:-0.964535 
0.125 0.125 1:-0.332771 2:-0.907205 
0.125 0.125 1:-0.624705 2:-0.955056 
0.125 0.125 1:-0.408831 2:-0.906606 
0.125 0.125 1:-0.109481 2:-0.85149 
0 0.125 1:-0.53178 2:-0.927199 
0 0.125 1:-0.474201 2:-0.904374 
0.125 0.125 1:0.523273 2:-0.729477 
0 0.125 1:-0.541455 2:-0.98556 
0.125 0.125 1:-0.743357 2:-0.989116 
0.125 0.125 1:-0.629355 2:-0.880452 
0.125 0.125 1:-0.382067 2:-0.90113 
0.125 0.125 1:-0.409196 2:-0.884948 
0.125 0.125 1:-0.562538 2:-0.914428 
0.125 0.125 1:0.175671 2:-0.798222 
0.125 0.125 1:-0.731687 2:-0.940009 
0.125 0.125 1:-0.510905 2:-0.890806 
0.125 0.125 1:-0.584256 2:-0.871565 
0 0.125 1:-0.547441 2:-0.919446 
0.125 0.125 1:-0.75942 2:-0.966256 
0.125 0.125 1:-0.428337 2:-0.929061 
0.125 0.125 1:-0.221137 2:-0.863357 
0.125 0.125 1:0.361093 2:-0.788691 
0.07892307199714134 0.125 1:-0.496333 2:-0.896124 
0.125 0.125 1:-0.300161 2:-0.941833 
0 0.125 1:-0.451476 2:-0.935677 
0.125 0.125 1:0.140101 2:-0.806673 
0.125 0.125 1:-0.224822 2:-0.90914 
0.125 0.125 1:-0.232991 2:-0.917034 
0.125 0.125 1:-0.358887 2:-0.920641 
-0.125 0.125 1:-0.331585 2:-0.5843 
-0.125 0.125 1:0.551928 2:-0.87266 
-0.125 0.125 1:0.491612 2:-0.474369 
-0.125 0.125 1:-0.40226 2:0.00903037 
-0.125 0.1229458401807313 1:0.158204 2:-0.538101 
-0.125 0.125 1:-0.35647 2:-0.90311 
-0.125 0.125 1:-0.482246 2:-0.841607 
-0.125 0.125 1:-0.84394 2:-0.971791 
-0.125 0.125 1:-0.0705933 2:-0.789763 
-0.03960935725940506 0 1:0.109238 2:-0.802955 
-0.125 0.125 1:-0.133125 2:-0.926885 
-0.125 0.125 1:-0.324277 2:0.00999196 
-0.125 0.125 1:-0.426174 2:-0.88276 
-0.125 0.125 1:-0.506374 2:-0.941557 
-0.125 0.125 1:-0.122965 2:-0.843814 
-0.125 0.125 1:1 2:0.0397901 
-0.125 0.125 1:-0.732807 2:-0.881822 
-0.125 0.125 1:0.830208 2:-0.360289 
-0.125 0.125 1:0.469292 2:0.925313 
-0.125 0.125 1:-0.460924 2:-0.90436 
-0.125 0.125 1:-0.289878 2:-0.882751 
-0.125 0.125 1:0.571595 2:-0.580722 
-0.125 0.125 1:-0.684862 2:-0.91675 
-0.125 0.125 1:0.933323 2:-0.0847191 
-0.125 0.125 1:-0.694493 2:-0.912968 
-0.125 0 1:0.254527 2:-0.714818 
-0.125 0.125 1:-0.56702 2:-0.942443 
-0.125 0.08410252966760122 1:0.0726979 2:-0.813238 
-0.125 0.125 1:-0.503822 2:-0.832539 
-0.125 0.125 1:-0.151472 2:-0.882776 
-0.125 0.125 1:-0.021313 2:-0.844903 
-0.125 0.125 1:-0.0106429 2:-0.73369 
-0.125 0.125 1:-0.197484 2:-0.874901 
-0.125 0.125 1:-0.240398 2:-0.918749 
-0.125 0.125 1:-0.324136 2:-0.88306 
-0.125 0.125 1:-0.663154 2:-0.953574 
-0.125 0.123745164865795 1:0.027333 2:-0.646368 
-0.125 0.125 1:-0.25464 2:-0.904829 
-0.125 0.125 1:-0.250189 2:-0.876679 
-0.125 0.125 1:-0.0184047 2:-0.831578 
-0.125 0.125 1:-0.0825497 2:-0.962612 
-0.125 0.125 1:0.00396586 2:-0.854089 
-0.04323224581611833 0 1:0.226176 2:-0.594002 
-0.125 0.125 1:-0.0387938 2:-0.770414 
-0.125 0.125 1:-0.0886739 2:-0.869239 
-0.125 0.125 1:0.177359 2:-0.860583 
-0.125 0 1:0.248079 2:-0.772175 
-0.125 0.125 1:-0.750527 2:-0.86116 
-0.125 0.125 1:-0.134913 2:-0.913713 
-0.125 0.125 1:-0.332783 2:-0.889337 
-0.125 0.06187847059671978 1:0.267392 2:-0.816237 
-0.125 0.125 1:-0.33393 2:-0.854971 
-0.125 0.125 1:0.0599217 2:-0.828695 
-0.125 0.125 1:0.559397 2:-0.651026 
-0.125 0.125 1:0.123546 2:-0.861386 
-0.125 0.125 1:-0.382998 2:-0.942623 
-0.125 0.0833234960795504 1:0.35308 2:-0.644496 
-0.125 0.125 1:-0.069282 2:-0.74788 
-0.125 0.125 1:0.0270882 2:-0.646503 
-0.125 0.125 1:-0.588791 2:-0.926472 
-0.125 0.125 1:-0.12346 2:-0.951332 
-0.125 -0.125 1:-0.31883 2:-0.872888 
-0.125 -0 1:-0.553546 2:-0.892068 
-0.125 -0.05758091274987595 1:-0.461772 2:-0.90618 
-0.125 -0.125 1:-0.432183 2:-0.906713 
-0.125 -0 1:-0.514168 2:-0.930722 
-0.125 -0.125 1:-0.639185 2:-0.90302 
-0.125 -0.125 1:-0.335046 2:-0.929475 
-0.125 -0.125 1:-0.674579 2:-0.941197 
-0.125 -0.04341458864052172 1:-0.66356 2:-0.93933 
-0.125 -0.125 1:-0.460892 2:-0.867199 
-0.125 -0.125 1:-0.225661 2:-0.88724 
-0.125 -0.125 1:-0.222375 2:-0.850669 
-0.125 -0.125 1:-0.100447 2:-0.845331 
-0.125 -0.125 1:-0.226993 2:-0.949977 
-0.125 -0.125 1:-0.429981 2:-0.92088 
-0.125 -0.125 1:0.858585 2:-0.782262 
-0 -0.125 1:-0.758127 2:-0.899 
-0.125 -0.125 1:0.0504615 2:0.00362499 
-0.125 -0.125 1:-0.700246 2:-0.960971 
-0.125 -0.125 1:-0.407722 2:-0.935505 
-0.125 -0 1:-0.544748 2:-0.885842 
-0.125 -0 1:-0.597936 2:-0.966301 
-0.125 -0.125 1:-0.28003 2:-0.909862 
-0.125 -0.125 1:-0.779168 2:-0.957832 
-0.125 -0.125 1:-0.170307 2:-0.857204 
-0.125 -0.125 1:-0.414359 2:-0.964467 
-0.125 -0.125 1:-0.433969 2:-0.929943 
-0.125 -0.125 1:-0.359295 2:-0.919039 
-0.125 -0.125 1:-0.677763 2:-0.94308 
-0.125 -0.125 1:-0.383458 2:-0.893425 
-0.125 -0.125 1:-0.486528 2:-0.849116 
-0.125 -0.125 1:0.121463 2:-0.84165 
-0.125 -0.125 1:-0.318101 2:-0.912334 
-0.125 -0 1:-0.597777 2:-0.93508 
-0.125 -0.125 1:-0.111422 2:-0.913157 
-0.125 -0.125 1:-0.920671 2:-0.91097 
-0.125 -0.125 1:-0.726946 2:-0.9667 
-0.125 -0.125 1:0.53646 2:-0.913802 
-0.125 -0.125 1:-0.143966 2:-0.878031 
-0.125 -0.125 1:0.0607514 2:-0.775014 
-0.125 -0.125 1:-0.716006 2:-0.939864 
-0.125 -0.125 1:-0.402934 2:-0.824729 
-0.125 -0 1:-0.61196 2:-0.907834 
-0.125 -0.125 1:-0.693898 2:-0.964145 
-0.125 -0.125 1:-0.240166 2:-0.866562 
-0.125 -0.125 1:-0.279649 2:-0.890936 
-0.125 -0 1:-0.489246 2:-0.910524 
-0.125 -0.125 1:-0.917423 2:-0.969526 
-0.125 -0.125 1:-0.308043 2:-0.861575 
-0.125 -0 1:-0.647694 2:-0.951921 
-0.125 -0.125 1:0.016429 2:-0.957359 
-0.125 -0.125 1:-0.875627 2:-0.9254 
-0.125 -0.125 1:-0.746205 2:-0.948027 
-0.125 -0.125 1:-0.352039 2:-0.941205 
-0.125 -0.125 1:-0.73097 2:-0.940593 
-0.125 -0.125 1:-0.143799 2:-0.61102 
-0.125 -0.125 1:-0.179164 2:-0.937016 
-0.125 -0.125 1:-0.15609 2:-0.905912 
-0.125 -0.125 1:0.201349 2:-0.806276 
-0.125 -0.125 1:-0.321892 2:-0.75113 
-0.125 -0.125 1:-0.313172 2:-0.863081 
-0.125 -0 1:-0.578622 2:-1 
-0.125 -0.125 1:-0.104507 2:-0.880574 
-0.125 -0.125 1:-0.265064 2:-0.871371 
-0.125 -0 1:-0.573511 2:-0.950523 
-0.125 -0.125 1:-0.68174 2:-0.905349 
-0.125 -0.125 1:-0.189869 2:-0.911731 
-0.125 -0 1:-0.539078 2:-0.94198 
-0.125 -0 1:-0.461592 2:-0.909856 
