svm_type c_svc
kernel_type rbf
gamma 0.00195313
nr_class 3
total_sv 182
rho 1.95969 90.6491 87.028
label 2 3 1
nr_sv 68 56 58
SV
8192 8192 1:-0.721645 2:-0.668491 
8192 8192 1:-0.781442 2:-0.576689 
8192 8192 1:-0.319798 2:-0.212016 
0 8192 1:-0.942474 2:-0.901728 
0 8192 1:-0.844866 2:-0.749556 
8192 0 1:-0.527085 2:-0.283507 
8192 8192 1:-0.775952 2:-0.655192 
8192 8192 1:-0.725379 2:-0.525913 
8192 8192 1:-0.761292 2:-0.7166 
8192 8192 1:-0.685762 2:-0.616021 
8192 0 1:-0.631796 2:-0.356423 
8192 8192 1:-0.560079 2:-0.347742 
0 8192 1:-0.965716 2:-0.884545 
8192 0 1:-0.474488 2:-0.269405 
8192 8192 1:-0.5358 2:-0.339411 
8192 8192 1:-0.451267 2:-0.499199 
8192 0 1:-0.500482 2:-0.278139 
0 8192 1:-0.842044 2:-0.693632 
8192 8192 1:-0.654398 2:-0.451743 
8192 8192 1:-0.415413 2:-0.258543 
8192 8192 1:-0.705532 2:-0.548481 
8192 8192 1:-0.791544 2:-0.65669 
8192 0 1:-0.458697 2:-0.147653 
8192 8192 1:-0.717547 2:-0.603102 
8192 8192 1:-0.767933 2:-0.701397 
8192 8192 1:-0.229609 2:-0.135636 
0 8192 1:-0.962741 2:-0.984217 
8192 8192 1:-0.520696 2:-0.350576 
8192 0 1:-0.540953 2:-0.257279 
8192 0 1:-0.238479 2:-0.0106363 
8192 4791.182084697881 1:-0.0564829 2:0.0562868 
8192 0 1:-0.479219 2:-0.195697 
8192 8192 1:-0.636741 2:-0.445584 
8192 8192 1:-0.667255 2:-0.430337 
0 8192 1:-0.976598 2:-0.987979 
8192 0 1:0.069889 2:0.595374 
0 8192 1:-0.815129 2:-0.761594 
0 8192 1:-0.937599 2:-0.887197 
8192 8192 1:-0.676081 2:-0.580039 
8192 8192 1:-0.595422 2:-0.427428 
8192 8192 1:-0.26973 2:-0.197509 
0 8192 1:-0.854363 2:-0.633762 
0 8192 1:-0.936898 2:-0.945804 
0 8192 1:-0.871492 2:-0.813491 
8192 0 1:-0.214945 2:0.154574 
8192 8192 1:-0.662855 2:-0.475091 
8192 8192 1:-0.798713 2:-0.811935 
8192 4768.773394107448 1:-0.658108 2:-0.417585 
8192 8192 1:-0.749722 2:-0.629742 
8192 8192 1:-0.710219 2:-0.546327 
8192 8192 1:-0.670776 2:-0.629115 
8192 8192 1:-0.457729 2:-0.33212 
8192 8192 1:-0.745961 2:-0.691105 
3742.490417435203 8192 1:-0.806359 2:-0.744567 
0 8192 1:-0.901262 2:-0.86778 
8192 8192 1:-0.742257 2:-0.543757 
8192 8192 1:-0.520187 2:-0.420072 
8192 8192 1:-0.693083 2:-0.535374 
8192 8192 1:-0.503251 2:-0.404613 
8192 0 1:-0.446144 2:-0.0813344 
0 8192 1:-0.827862 2:-0.73879 
8192 8192 1:-0.550963 2:-0.360017 
8192 8192 1:-0.642284 2:-0.581235 
8192 8192 1:-0.577816 2:-0.38955 
0 8192 1:-0.961112 2:-0.972043 
0 8192 1:-0.881171 2:-0.811468 
8192 0 1:-0.556206 2:-0.270439 
8192 0 1:-0.288069 2:-0.130084 
-8192 0 1:-0.50439 2:-0.101991 
-8192 8192 1:-0.540687 2:-0.519287 
-8192 8192 1:-0.449689 2:-0.350062 
-8192 8192 1:-0.389775 2:-0.374696 
-8192 8192 1:-0.552578 2:-0.418247 
-8192 8192 1:-0.77051 2:-0.721022 
-8192 8192 1:-0.593442 2:-0.427906 
-0 8192 1:-0.0580342 2:-0.139469 
-8192 8192 1:-0.43943 2:-0.223043 
-8192 8192 1:-0.515806 2:-0.343292 
-8192 0 1:-0.281955 2:0.0285442 
-8192 0 1:-0.475465 2:-0.131541 
-8192 8192 1:-0.376579 2:-0.2947 
-8192 8192 1:-0.639514 2:-0.288627 
-0 1047.857326105898 1:0.698389 2:0.198743 
-8192 8192 1:-0.562065 2:-0.323182 
-8192 8192 1:-0.610645 2:-0.434797 
-8192 8192 1:-0.821119 2:-0.750665 
-8192 8192 1:-0.63628 2:-0.420904 
-8192 8192 1:-0.755779 2:-0.716257 
-8192 8192 1:-0.468881 2:-0.287532 
-8192 0 1:-0.408697 2:-0.161509 
-8192 0 1:-0.250297 2:0.157384 
-8192 8192 1:-0.407975 2:-0.42936 
-859.9532194656873 0 1:-0.215726 2:0.189987 
-8192 8192 1:-0.643967 2:-0.346418 
-8192 8192 1:-0.804106 2:-0.708155 
-8192 8192 1:-0.700981 2:-0.520155 
-8192 8192 1:-0.757176 2:-0.675512 
-8192 8192 1:-0.863112 2:-0.869678 
-8192 8192 1:-0.335107 2:-0.233875 
-8192 8192 1:-0.547424 2:-0.516012 
-8192 8192 1:-0.780468 2:-0.78854 
-2882.537197969518 8192 1:-0.209434 2:-0.362729 
-8192 0 1:-0.279978 2:0.135728 
-8192 0 1:-0.320849 2:-0.00760572 
-8192 0 1:-0.349568 2:-0.0692736 
-8192 8192 1:-0.77117 2:-0.711593 
-8192 8192 1:-0.694532 2:-0.485873 
-8192 0 1:-0.285715 2:-0.0478373 
-8192 0 1:-0.269975 2:0.307239 
-8192 8192 1:-0.530025 2:-0.429836 
-8192 8192 1:-0.539834 2:-0.359342 
-8192 8192 1:-0.561406 2:-0.510071 
-8192 8192 1:-0.792327 2:-0.709145 
-8192 8192 1:-0.687309 2:-0.597827 
-8192 8192 1:-0.637734 2:-0.471114 
-8192 8192 1:-0.516442 2:-0.328586 
-8192 2073.08115463967 1:-0.573321 2:-0.226711 
-8192 8192 1:-0.852924 2:-0.770101 
-8192 8192 1:-0.781195 2:-0.766801 
-8192 0 1:-0.225022 2:-0.0227784 
-8192 8192 1:-0.704481 2:-0.555259 
-8192 8192 1:-0.730177 2:-0.647757 
-8192 8192 1:-0.577559 2:-0.465577 
-8192 8192 1:-0.597059 2:-0.489125 
-8192 -8192 1:-0.649667 2:-0.578382 
-8192 -8192 1:-0.417131 2:-0.358078 
-8192 -8192 1:-0.868674 2:-0.766188 
-8192 -8192 1:-0.50875 2:-0.196579 
-8192 -8192 1:-0.792785 2:-0.770207 
-8192 -8192 1:-0.659346 2:-0.527628 
-8192 -8192 1:-0.789039 2:-0.722613 
-8192 -8192 1:-0.793206 2:-0.579924 
-8192 -8192 1:-0.807194 2:-0.711507 
-8192 -8192 1:-0.520918 2:-0.322271 
-8192 -8192 1:-0.680306 2:-0.490163 
-8192 -0 1:-0.897093 2:-0.839975 
-8192 -3120.938480745562 1:-0.844796 2:-0.791073 
-8192 -0 1:-0.846453 2:-0.794203 
-8192 -8192 1:-0.707732 2:-0.532895 
-8192 -0 1:-0.864478 2:-0.817547 
-8192 -8192 1:0.128964 2:0.544194 
-8192 -8192 1:-0.672304 2:-0.589942 
-8192 -8192 1:-0.759987 2:-0.638744 
-8192 -0 1:-0.9292 2:-0.918433 
-0 -8192 1:-0.338244 2:-0.570638 
-8192 -8192 1:-0.324222 2:0.0465903 
-8192 -8192 1:-0.783838 2:-0.683847 
-8192 -0 1:-0.950089 2:-0.932237 
-1367.955478805328 -0 1:-0.932001 2:-0.925168 
-8192 -8192 1:-0.850032 2:-0.759242 
-8192 -0 1:-0.907049 2:-0.89195 
-0 -8192 1:-0.368415 2:-0.560602 
-8192 -8192 1:-0.841688 2:-0.715127 
-8192 -8192 1:-0.810719 2:-0.754764 
-8192 -0 1:-0.807964 2:-0.815309 
-8192 -0 1:-0.899659 2:-0.863175 
-8192 -8192 1:-0.845214 2:-0.787025 
-8192 -8192 1:0.557049 2:1 
-8192 -0 1:-0.884259 2:-0.892145 
-8192 -8192 1:-0.183481 2:-0.260009 
-8192 -8192 1:-0.729215 2:-0.571761 
-8192 -0 1:-0.878404 2:-0.819976 
-8192 -8192 1:-0.721042 2:-0.6768 
-8192 -8192 1:-0.508772 2:-0.526336 
-8192 -8192 1:-0.517194 2:-0.251392 
-8192 -8192 1:-0.659287 2:-0.428163 
-8192 -8192 1:-0.757689 2:-0.728579 
-8192 -0 1:-0.877785 2:-0.843694 
-8192 -8192 1:-0.376036 2:-0.366939 
-8192 -0 1:-0.978159 2:-0.922155 
-8192 -8192 1:-0.782061 2:-0.778984 
-0 -8192 1:-0.102906 2:-0.468292 
-8192 -8192 1:-0.564932 2:-0.392131 
-8192 -8192 1:-0.560538 2:-0.429599 
-8192 -8192 1:-0.602632 2:-0.396959 
-8192 -8192 1:-0.786976 2:-0.758953 
-8192 -8192 1:-0.839658 2:-0.762902 
-8192 -8192 1:-0.657621 2:-0.577333 
-8192 -0 1:-0.927994 2:-0.892387 
-8192 -0 1:-0.846562 2:-0.846758 
-8192 -8192 1:-0.660941 2:-0.45775 
-8192 -8192 1:-0.79903 2:-0.756981 
