svm_type c_svc
kernel_type rbf
gamma 0.0078125
nr_class 3
total_sv 174
rho 52.085 13.5303 -54.6465
label 2 1 3
nr_sv 68 55 51
SV
2048 0 1:-0.745702 2:-0.908331 
0 2048 1:-0.0664843 2:-0.617243 
2048 2048 1:-0.675283 2:-0.859063 
0 2048 1:-0.395546 2:-0.70359 
2048 0 1:-0.924616 2:-0.886828 
2048 2048 1:-0.44442 2:-0.646287 
2048 2048 1:-0.807887 2:-0.864676 
2048 0 1:-0.735501 2:-0.891757 
2048 954.8261012914849 1:-0.636333 2:-0.901511 
2048 2048 1:-0.782607 2:-0.832712 
2048 2048 1:-0.499659 2:-0.67921 
2048 0 1:-0.911435 2:-0.915299 
0 2048 1:-0.439568 2:-0.772057 
2048 0 1:-0.823794 2:-0.912265 
2048 2048 1:-0.493269 2:-0.598737 
2048 2048 1:-0.615841 2:-0.666522 
2048 2048 1:-0.571979 2:-0.861318 
2048 0 1:-0.913138 2:-0.943407 
2048 2048 1:-0.131551 2:-0.244741 
2048 2048 1:-0.653645 2:-0.895596 
2048 2048 1:-0.736651 2:-0.850756 
0 2048 1:-0.346174 2:-0.608259 
2048 2048 1:-0.695544 2:-0.863596 
0 2048 1:-0.336955 2:-0.582864 
2048 0 1:-0.987893 2:-0.953983 
823.8685000083908 2048 1:-0.440923 2:-0.670292 
2048 2048 1:-0.567322 2:-0.806588 
2048 2048 1:-0.501833 2:-0.749329 
2048 2048 1:-0.241069 2:-0.313407 
0 2048 1:-0.189733 2:-0.598617 
2048 2048 1:-0.487478 2:-0.699766 
0 2048 1:-0.383028 2:-0.823861 
1126.099529431799 2048 1:-0.574713 2:-0.887642 
2048 2048 1:-0.563017 2:-0.72417 
2048 1486.746805080501 1:-0.865928 2:-0.878195 
2048 2048 1:-0.817121 2:-0.861064 
2048 0 1:-0.963595 2:-0.977966 
2048 0 1:-0.91347 2:-0.913558 
2048 2048 1:-0.565734 2:-0.808498 
2048 2048 1:-0.560786 2:-0.805702 
2048 0 1:-0.719063 2:-0.894761 
0 2048 1:-0.329508 2:-0.825785 
2048 0 1:-0.85693 2:-0.916414 
0 2048 1:-0.114338 2:-0.519847 
2048 2048 1:-0.597348 2:-0.682398 
2048 0 1:-0.717101 2:-0.931322 
2048 0 1:-0.855738 2:-0.954802 
2048 0 1:-0.72246 2:-0.893447 
2048 2048 1:-0.715979 2:-0.842978 
2048 2048 1:-0.651992 2:-0.793475 
2048 2048 1:-0.715498 2:-0.826024 
2048 2048 1:-0.76305 2:-0.842649 
2048 0 1:-0.80406 2:-0.889314 
2048 0 1:-0.898576 2:-0.912588 
2048 2048 1:-0.681537 2:-0.793134 
2048 2048 1:-0.65002 2:-0.854491 
2048 0 1:-0.919981 2:-0.906593 
2048 2048 1:-0.643591 2:-0.868781 
2048 2048 1:-0.543284 2:-0.798374 
0 2048 1:-0.295301 2:-0.731463 
2048 2048 1:-0.799628 2:-0.860935 
0 2048 1:-0.509076 2:-0.7876 
2048 2048 1:-0.53173 2:-0.765192 
2048 0 1:-0.978555 2:-0.980618 
2048 2048 1:-0.855379 2:-0.876504 
0 2048 1:-0.440361 2:-0.696228 
0 2048 1:-0.332696 2:-0.544261 
2048 2048 1:-0.597149 2:-0.881759 
-2048 2048 1:-0.676581 2:-0.917053 
-2048 2048 1:-0.507588 2:-0.645401 
-2048 2048 1:-0.820645 2:-0.897928 
-2048 243.7644843059701 1:-0.823728 2:-0.929589 
-2048 2048 1:-0.637648 2:-0.800162 
-2048 2048 1:-0.787219 2:-0.867468 
-2048 2048 1:-0.677764 2:-0.881619 
-2048 0 1:-0.86776 2:-0.864416 
-2048 2048 1:-0.7787 2:-0.882111 
-2048 2048 1:-0.480121 2:-0.898823 
-2048 2048 1:-0.608909 2:-0.752021 
-2048 0 1:-0.877247 2:-0.89313 
-2048 0 1:-0.839734 2:-0.932983 
-2048 2048 1:-0.842135 2:-0.836847 
-2048 2048 1:-0.707661 2:-0.788377 
-2048 0 1:-0.860042 2:-0.871299 
-1649.982262678449 2048 1:0.184535 2:0.35396 
-2048 2048 1:-0.685449 2:-0.821288 
-2048 2048 1:-0.722884 2:-0.872134 
-2048 0 1:-0.937431 2:-0.948394 
-2048 0 1:-0.879668 2:-0.962828 
-2048 2048 1:-0.670641 2:-0.842798 
-2048 2048 1:-0.753757 2:-0.832408 
-2048 2048 1:-0.197171 2:-0.685583 
-2048 2048 1:-0.757482 2:-0.884712 
-2048 2048 1:-0.790252 2:-0.874721 
-299.9857667617392 0 1:-0.948019 2:-0.947194 
-2048 0 1:-0.942597 2:-0.960141 
-2048 0 1:-0.917116 2:-0.948077 
-2048 2048 1:-0.662943 2:-1 
-2048 2048 1:-0.811882 2:-0.858182 
-2048 0 1:-0.858325 2:-0.959031 
-2048 0 1:-0.895043 2:-0.926081 
-2048 2048 1:-0.836629 2:-0.82924 
-2048 2048 1:0.53418 2:0.138469 
-2048 2048 1:-0.656992 2:-0.770976 
-2048 2048 1:-0.43236 2:-0.507257 
-2048 0 1:-0.861905 2:-0.866026 
-2048 2048 1:-0.752077 2:-0.798141 
-2048 2048 1:-0.777702 2:-0.843021 
-2048 2048 1:-0.425751 2:-0.76218 
-2048 2048 1:-0.808895 2:-0.891399 
-2048 2048 1:-0.561349 2:-0.73743 
-2048 2048 1:-0.733082 2:-0.897224 
-2048 2048 1:-0.791796 2:-0.90852 
-2048 2048 1:-0.514385 2:-0.739165 
-2048 0 1:-0.830461 2:-0.981253 
-2048 2048 1:-0.592132 2:-0.743083 
-2048 2048 1:-0.537413 2:-0.802459 
-2048 2048 1:-0.815095 2:-0.916329 
-2048 2048 1:-0.818124 2:-0.924333 
-2048 2048 1:-0.806286 2:-0.847194 
-2048 0 1:-0.882449 2:-0.956764 
-2048 2048 1:-0.584046 2:-0.873474 
-2048 0 1:-0.939327 2:-0.96857 
-2048 -2048 1:-0.471836 2:-0.646839 
-2048 -2048 1:-0.520335 2:-0.896771 
-2048 -2048 1:-0.553743 2:-0.71633 
-2048 -2048 1:-0.423437 2:-0.774201 
-2048 -2048 1:-0.408188 2:-0.649176 
-2048 -2048 1:-0.785999 2:-0.838883 
-2048 -0 1:-0.339895 2:-0.637251 
-2048 -2048 1:-0.404004 2:-0.717549 
-2048 -0 1:-0.257798 2:-0.531419 
-2048 -524.6522887617701 1:-0.458971 2:-0.431828 
-2048 -2048 1:-0.454313 2:-0.54347 
-2048 -2048 1:-0.48082 2:-0.841137 
-2048 -2048 1:-0.808737 2:-0.85831 
-2048 -2048 1:-0.453473 2:-0.719208 
-2048 -2048 1:-0.562268 2:-0.589074 
-2048 -2048 1:-0.906565 2:-0.926703 
-2048 -0 1:-0.0871728 2:-0.666865 
-2048 -2048 1:-0.546497 2:-0.444917 
-2048 -2048 1:-0.498644 2:-0.85142 
-2048 -0 1:-0.154789 2:-0.770296 
-2048 -2048 1:-0.631915 2:-0.852437 
-2048 -2048 1:-0.751089 2:-0.893912 
-2048 -2048 1:-0.900031 2:-0.976355 
-2048 -2048 1:-0.628738 2:-0.924195 
-2048 -0 1:-0.173132 2:-0.518589 
-2048 -2048 1:-0.837791 2:-0.956715 
-2048 -2048 1:-0.511156 2:-0.646494 
-2048 -2048 1:-0.831066 2:-0.887024 
-2048 -0 1:-0.286049 2:-0.748755 
-2048 -0 1:-0.0484236 2:-0.59931 
-2048 -2048 1:-0.778766 2:-0.862553 
-2048 -2048 1:-0.419459 2:-0.70534 
-0 -99.31016943595294 1:0.0820934 2:1 
-2048 -0 1:0.00276975 2:-0.808391 
-2048 -2048 1:-0.497059 2:-0.851875 
-2048 -2048 1:-0.562633 2:-0.699825 
-2048 -2048 1:-0.914241 2:-0.870615 
-2048 -2048 1:-0.508558 2:-0.640161 
-2048 -1667.802026108247 1:-0.357952 2:-0.789065 
-2048 -2048 1:-0.62418 2:-0.678599 
-2048 -2048 1:-0.776888 2:-0.786705 
-2048 -2048 1:-0.594297 2:-0.760141 
-393.5729063719862 -2048 1:-0.484965 2:-0.424539 
-2048 -2048 1:-0.823647 2:-0.860771 
-2048 -2048 1:-0.821115 2:-0.899767 
-2048 -2048 1:-0.802629 2:-0.934197 
-2048 -0 1:-0.250383 2:-0.465165 
-2048 -2048 1:-0.729798 2:-0.783454 
-2048 -2048 1:-0.590049 2:-0.794274 
-2048 -0 1:-0.335962 2:-0.469036 
-2048 -2048 1:-0.608113 2:-0.826152 
