svm_type c_svc
kernel_type rbf
gamma 0.5
nr_class 3
total_sv 170
rho 1.74109 0.997933 -1.84719
label 2 3 1
nr_sv 70 51 49
SV
0 32 1:-0.745702 2:-0.908331 
32 0 1:-0.0664843 2:-0.617243 
0 32 1:-0.675283 2:-0.859063 
32 0 1:-0.395546 2:-0.70359 
32 32 1:-0.924616 2:-0.886828 
32 0 1:-0.44442 2:-0.646287 
32 0 1:-0.450385 2:-0.609709 
0 32 1:-0.735501 2:-0.891757 
32 32 1:-0.782607 2:-0.832712 
0 32 1:-0.705453 2:-0.90483 
32 0 1:-0.506319 2:-0.716631 
32 0 1:-0.499659 2:-0.67921 
32 0 1:-0.439568 2:-0.772057 
0 32 1:-0.823794 2:-0.912265 
32 0 1:-0.493269 2:-0.598737 
32 0 1:-0.446268 2:-0.805222 
32 32 1:-0.571979 2:-0.861318 
0 32 1:-0.764988 2:-0.880812 
0 32 1:-0.913138 2:-0.943407 
32 32 1:-0.579438 2:-0.795953 
32 0 1:-0.431236 2:-0.774936 
32 0 1:-0.131551 2:-0.244741 
0 32 1:-0.653645 2:-0.895596 
0 32 1:-0.770945 2:-0.939382 
32 32 1:-0.987893 2:-0.953983 
32 0 1:-0.440923 2:-0.670292 
32 32 1:-0.567322 2:-0.806588 
32 0 1:-0.501833 2:-0.749329 
32 0 1:-0.430266 2:-0.780555 
32 0 1:-0.189733 2:-0.598617 
32 0 1:-0.487478 2:-0.699766 
32 0 1:-0.383028 2:-0.823861 
0 32 1:-0.574713 2:-0.887642 
32 32 1:-0.563017 2:-0.72417 
6.953348965088662 32 1:-0.990779 2:-0.957597 
32 0 1:0.223795 2:-0.200589 
32 32 1:-0.865928 2:-0.878195 
32 32 1:-0.817121 2:-0.861064 
0 32 1:-0.963595 2:-0.977966 
22.49372051394463 32 1:-0.91347 2:-0.913558 
0 32 1:-0.677852 2:-0.950832 
32 32 1:-0.565734 2:-0.808498 
32 32 1:-0.560786 2:-0.805702 
32 0 1:-0.384417 2:-0.942528 
0 32 1:-0.719063 2:-0.894761 
0 32 1:-0.958427 2:-0.991796 
32 0 1:-0.329508 2:-0.825785 
32 0 1:-0.114338 2:-0.519847 
32 32 1:-0.597348 2:-0.682398 
0 32 1:-0.717101 2:-0.931322 
0 32 1:-0.855738 2:-0.954802 
32 32 1:-0.553236 2:-0.679567 
0 32 1:-0.72246 2:-0.893447 
32 32 1:-0.651992 2:-0.793475 
32 32 1:-0.715498 2:-0.826024 
32 25.23197345874267 1:-0.487676 2:-0.543055 
0 32 1:-0.80406 2:-0.889314 
0 32 1:-0.898576 2:-0.912588 
32 32 1:-0.681537 2:-0.793134 
17.24529119992644 32 1:-0.65002 2:-0.854491 
32 32 1:-0.555143 2:-0.693599 
32 32 1:-0.919981 2:-0.906593 
32 32 1:-0.543284 2:-0.798374 
32 32 1:-0.799628 2:-0.860935 
32 0 1:-0.509076 2:-0.7876 
0 32 1:-0.67877 2:-0.919607 
32 31.81665412153195 1:-0.53173 2:-0.765192 
0 32 1:-0.978555 2:-0.980618 
32 0 1:-0.440361 2:-0.696228 
0 32 1:-0.597149 2:-0.881759 
-32 0 1:-0.471836 2:-0.646839 
-32 32 1:-0.63125 2:-0.68028 
-3.753789555123938 32 1:0.155578 2:0.0593497 
-32 0 1:-0.501439 2:-0.602893 
-32 32 1:-0.520335 2:-0.896771 
-32 32 1:-0.553743 2:-0.71633 
-32 32 1:-0.423437 2:-0.774201 
-32 0 1:-0.408188 2:-0.649176 
-32 32 1:-0.561153 2:-0.789611 
-32 0 1:-0.404004 2:-0.717549 
-32 32 1:-0.496246 2:-0.748448 
-32 0 1:-0.257798 2:-0.531419 
-32 0 1:-0.454313 2:-0.54347 
-1.192402632296246 12.35950419696511 1:1 2:-0.223831 
-32 32 1:-0.566438 2:-0.743263 
-32 32 1:-0.808737 2:-0.85831 
-32 32 1:-0.555781 2:-0.76396 
-32 32 1:-0.782343 2:-0.890162 
-32 0 1:-0.356802 2:-0.576191 
-32 0 1:-0.562268 2:-0.589074 
-32 32 1:-0.906565 2:-0.926703 
-32 32 1:-0.776129 2:-0.858397 
-32 0 1:-0.154789 2:-0.770296 
-32 32 1:-0.751089 2:-0.893912 
-32 32 1:-0.900031 2:-0.976355 
-32 0 1:-0.412313 2:-0.495423 
-32 0 1:-0.173132 2:-0.518589 
-32 32 1:-0.511156 2:-0.646494 
-32 0 1:-0.128795 2:-0.680347 
-32 0 1:-0.238744 2:-0.746663 
-32 32 1:-0.831066 2:-0.887024 
-1.872276591454682 0 1:0.455007 2:-0.167852 
-32 0 1:-0.286049 2:-0.748755 
-6.88224957339936 0 1:-0.0484236 2:-0.59931 
-32 32 1:-0.605618 2:-0.832884 
-32 0 1:-0.419459 2:-0.70534 
-1.613235527414909 14.37937928855761 1:0.0820934 2:1 
-32 0 1:0.00276975 2:-0.808391 
-32 32 1:-0.497059 2:-0.851875 
-32 32 1:-0.914241 2:-0.870615 
-32 26.65597903282499 1:-0.508558 2:-0.640161 
-32 32 1:-0.357952 2:-0.789065 
-32 32 1:-0.776888 2:-0.786705 
-32 32 1:-0.691497 2:-0.814189 
-32 32 1:-0.823647 2:-0.860771 
-32 32 1:-0.821115 2:-0.899767 
-32 32 1:-0.802629 2:-0.934197 
-31.3784067992706 0 1:-0.250383 2:-0.465165 
-32 32 1:-0.658844 2:-0.791556 
-32 0 1:-0.335962 2:-0.469036 
-32 32 1:-0.608113 2:-0.826152 
-32 -32 1:-0.676581 2:-0.917053 
-32 -0 1:-0.820645 2:-0.897928 
-32 -32 1:-0.383704 2:-0.702876 
-32 -0 1:-0.823728 2:-0.929589 
-32 -32 1:-0.787219 2:-0.867468 
-32 -0 1:-0.86776 2:-0.864416 
-32 -0 1:-0.7787 2:-0.882111 
-32 -32 1:-0.608909 2:-0.752021 
-32 -0 1:-0.877247 2:-0.89313 
-32 -32 1:-0.842135 2:-0.836847 
-32 -32 1:-0.641688 2:-0.88082 
-32 -32 1:-0.707661 2:-0.788377 
-32 -0 1:-0.860042 2:-0.871299 
-5.34904879849713 -32 1:0.184535 2:0.35396 
-32 -32 1:-0.685449 2:-0.821288 
-32 -0 1:-0.879668 2:-0.962828 
-32 -32 1:-0.670641 2:-0.842798 
-32 -32 1:-0.753757 2:-0.832408 
-32 -32 1:-0.197171 2:-0.685583 
-32 -32 1:-0.757482 2:-0.884712 
-32 -26.38616493255948 1:-0.790252 2:-0.874721 
-32 -32 1:-0.815317 2:-0.835758 
-32 -0 1:-0.662943 2:-1 
-32 -0 1:-0.781477 2:-0.919884 
-32 -32 1:-0.811882 2:-0.858182 
-32 -0 1:-0.858325 2:-0.959031 
-18.89798841725163 -0 1:-0.895043 2:-0.926081 
-32 -32 1:-0.836629 2:-0.82924 
-0.8015903645258784 -27.00869758578824 1:0.53418 2:0.138469 
-32 -32 1:-0.656992 2:-0.770976 
-32 -32 1:-0.671502 2:-0.885174 
-32 -0 1:-0.861905 2:-0.866026 
-32 -32 1:-0.636657 2:-0.705837 
-32 -32 1:-0.777702 2:-0.843021 
-32 -0 1:-0.808895 2:-0.891399 
-32 -32 1:-0.561349 2:-0.73743 
-32 -32 1:-0.733082 2:-0.897224 
-32 -0 1:-0.880099 2:-0.887071 
-32 -0 1:-0.830461 2:-0.981253 
-32 -32 1:-0.592132 2:-0.743083 
-32 -32 1:-0.53371 2:-0.87157 
-32 -32 1:-0.562451 2:-0.934989 
-32 -0 1:-0.815095 2:-0.916329 
-32 -0 1:-0.818124 2:-0.924333 
-32 -32 1:-0.675776 2:-0.875878 
-32 -32 1:-0.806286 2:-0.847194 
-32 -0 1:-0.882449 2:-0.956764 
-32 -32 1:-0.584046 2:-0.873474 
-32 -0 1:-0.813583 2:-0.86688 
