svm_type c_svc
kernel_type rbf
gamma 0.03125
nr_class 3
total_sv 176
rho 2.06411 17.1957 23.9354
label 2 3 1
nr_sv 70 54 52
SV
0 2048 1:-0.745702 2:-0.875957 
2048 0 1:-0.0664843 2:-0.443355 
2048 2048 1:-0.675283 2:-0.802737 
2048 0 1:-0.395546 2:-0.571681 
0 2048 1:-0.924616 2:-0.844001 
2048 0 1:-0.44442 2:-0.486519 
2048 2048 1:-0.807887 2:-0.81108 
2048 461.3434029466735 1:-0.450385 2:-0.43216 
2048 2048 1:-0.636333 2:-0.865822 
2048 2048 1:-0.782607 2:-0.763576 
2048 2048 1:-0.705453 2:-0.870755 
2048 2048 1:-0.506319 2:-0.591061 
0 2048 1:-0.911435 2:-0.886313 
2048 0 1:-0.439568 2:-0.673434 
0 2048 1:-0.823794 2:-0.881804 
2048 2048 1:-0.615841 2:-0.516593 
2048 1328.657161295442 1:-0.446268 2:-0.722721 
2048 2048 1:-0.571979 2:-0.80609 
2048 2048 1:-0.764988 2:-0.835061 
0 2048 1:-0.913138 2:-0.928085 
2048 2048 1:-0.579438 2:-0.708947 
2048 0 1:-0.431236 2:-0.677712 
2048 0 1:-0.131551 2:0.110239 
2048 2048 1:-0.736651 2:-0.790392 
2048 0 1:-0.346174 2:-0.430005 
2048 2048 1:-0.695544 2:-0.809474 
0 2048 1:-0.770945 2:-0.922104 
2048 0 1:-0.336955 2:-0.392264 
0 2048 1:-0.987893 2:-0.943804 
2048 0 1:-0.440923 2:-0.522195 
2048 2048 1:-0.567322 2:-0.724752 
2048 0 1:-0.430266 2:-0.686063 
2048 0 1:-0.241069 2:0.00819127 
2048 0 1:-0.189733 2:-0.415675 
2048 2048 1:-0.487478 2:-0.565998 
2048 2048 1:-0.563017 2:-0.602266 
0 2048 1:-0.990779 2:-0.949175 
2048 0 1:0.223795 2:0.175855 
2048 2048 1:-0.865928 2:-0.83117 
2048 2048 1:-0.817121 2:-0.805712 
0 2048 1:-0.963595 2:-0.979446 
0 2048 1:-0.91347 2:-0.883726 
0 2048 1:-0.677852 2:-0.93912 
2048 2048 1:-0.565734 2:-0.727591 
2048 0 1:-0.384417 2:-0.926779 
2048 2048 1:-0.719063 2:-0.85579 
0 2048 1:-0.958427 2:-1 
2048 0 1:-0.329508 2:-0.753282 
0 2048 1:-0.85693 2:-0.887971 
2048 2048 1:-0.597348 2:-0.540186 
0 2048 1:-0.717101 2:-0.910125 
2048 2048 1:-0.553236 2:-0.535979 
2048 2048 1:-0.72246 2:-0.853837 
2048 2048 1:-0.715979 2:-0.778833 
2048 2048 1:-0.715498 2:-0.753637 
2048 2048 1:-0.487676 2:-0.333102 
2048 2048 1:-0.76305 2:-0.778344 
1673.819818567651 2048 1:-0.80406 2:-0.847696 
2048 2048 1:-0.681537 2:-0.704757 
2048 2048 1:-0.555143 2:-0.556833 
0 2048 1:-0.919981 2:-0.873374 
2048 2048 1:-0.643591 2:-0.81718 
2048 0 1:-0.295301 2:-0.613105 
2048 2048 1:-0.509076 2:-0.696532 
0 2048 1:-0.67877 2:-0.892715 
0 2048 1:-0.978555 2:-0.983387 
2048 2048 1:-0.855379 2:-0.828658 
2048 0 1:-0.440361 2:-0.560739 
2048 0 1:-0.332696 2:-0.334893 
2048 2048 1:-0.597149 2:-0.836467 
-2048 0 1:-0.471836 2:-0.487341 
-2048 2048 1:-0.63125 2:-0.537039 
-1607.964900653065 0 1:0.155578 2:0.562164 
-2048 0 1:-0.501439 2:-0.42203 
-2048 2048 1:-0.553743 2:-0.590614 
-2048 2048 1:-0.423437 2:-0.67662 
-2048 0 1:-0.408188 2:-0.490813 
-2048 2048 1:-0.785999 2:-0.772747 
-2048 2048 1:-0.561153 2:-0.699521 
-2048 0 1:-0.339895 2:-0.473091 
-2048 0 1:-0.404004 2:-0.592426 
-2048 2048 1:-0.496246 2:-0.638347 
-2048 0 1:-0.257798 2:-0.315809 
-2048 0 1:-0.454313 2:-0.333718 
-2048 2048 1:-0.48082 2:-0.776098 
-2048 2048 1:-0.566438 2:-0.630641 
-2048 2048 1:-0.555781 2:-0.6614 
-2048 2048 1:-0.782343 2:-0.848956 
-2048 2048 1:-0.453473 2:-0.594892 
-2048 0 1:-0.356802 2:-0.382346 
-2048 1592.233709041413 1:-0.562268 2:-0.401493 
-2048 2048 1:-0.906565 2:-0.903261 
-2048 0 1:-0.0871728 2:-0.517102 
-2048 2048 1:-0.498644 2:-0.79138 
-2048 2048 1:-0.776129 2:-0.801749 
-2048 0 1:-0.154789 2:-0.670816 
-2048 2048 1:-0.631915 2:-0.792891 
-2048 2048 1:-0.751089 2:-0.854529 
-2048 0 1:-0.412313 2:-0.262313 
-2048 2048 1:-0.628738 2:-0.899534 
-293.7531361679032 0 1:-0.173132 2:-0.296741 
-2048 2048 1:-0.837791 2:-0.947864 
-2048 0 1:-0.511156 2:-0.486828 
-2048 0 1:-0.128795 2:-0.537139 
-2048 0 1:-0.238744 2:-0.635694 
-2048 2048 1:-0.831066 2:-0.844292 
-2048 2048 1:-0.778766 2:-0.807924 
-2048 2048 1:-0.605618 2:-0.763832 
-2048 0 1:-0.419459 2:-0.574282 
-2048 0 1:0.00276975 2:-0.727431 
-2048 2048 1:-0.497059 2:-0.792055 
-2048 2048 1:-0.562633 2:-0.566086 
-2048 2048 1:-0.914241 2:-0.819906 
-2048 921.5435607608667 1:-0.357952 2:-0.698709 
-2048 2048 1:-0.62418 2:-0.53454 
-2048 2048 1:-0.776888 2:-0.695203 
-2048 2048 1:-0.691497 2:-0.736048 
-2048 2048 1:-0.594297 2:-0.655724 
-2048 2048 1:-0.821115 2:-0.86323 
-2048 2048 1:-0.802629 2:-0.914398 
-2048 2048 1:-0.658844 2:-0.702412 
-2048 2048 1:-0.729798 2:-0.690371 
-2048 2048 1:-0.590049 2:-0.706452 
-1820.101781746683 0 1:-0.335962 2:-0.223097 
-2048 -2048 1:-0.507588 2:-0.485204 
-2048 -0 1:-0.820645 2:-0.860496 
-2048 -2048 1:-0.383704 2:-0.57062 
-2048 -2048 1:-0.637648 2:-0.715201 
-2048 -2048 1:-0.677764 2:-0.83626 
-2048 -0 1:-0.86776 2:-0.810693 
-2048 -2048 1:-0.480121 2:-0.861828 
-2048 -2048 1:-0.608909 2:-0.643657 
-2048 -0 1:-0.839734 2:-0.912594 
-2048 -2048 1:-0.842135 2:-0.769721 
-2048 -2048 1:-0.641688 2:-0.835071 
-2048 -2048 1:-0.707661 2:-0.697688 
-194.891888539622 -249.014404242312 1:0.184535 2:1 
-2048 -2048 1:-0.722884 2:-0.822164 
-2048 -0 1:-0.937431 2:-0.935497 
-2048 -0 1:-0.879668 2:-0.956949 
-2048 -2048 1:-0.670641 2:-0.778566 
-2048 -2048 1:-0.753757 2:-0.763124 
-2048 -2048 1:-0.757482 2:-0.840855 
-2048 -2048 1:-0.790252 2:-0.826008 
-1595.108675702492 -0 1:-0.942597 2:-0.952955 
-2048 -2048 1:-0.815317 2:-0.768103 
-2048 -0 1:-0.917116 2:-0.935026 
-2048 -0 1:-0.781477 2:-0.893127 
-2048 -0 1:-0.858325 2:-0.951305 
-2048 -2048 1:-0.836629 2:-0.758416 
-2048 -0 1:-0.917266 2:-0.944989 
-2048 -2048 1:-0.656992 2:-0.671827 
-2048 -2048 1:-0.43236 2:-0.2799 
-2048 -2048 1:-0.671502 2:-0.841543 
-2048 -2048 1:-0.752077 2:-0.712198 
-2048 -2048 1:-0.636657 2:-0.57502 
-2048 -2048 1:-0.777702 2:-0.778897 
-2048 -2048 1:-0.425751 2:-0.658755 
-2048 -2048 1:-0.808895 2:-0.850793 
-2048 -2048 1:-0.733082 2:-0.859451 
-2048 -216.7628655599704 1:-0.791796 2:-0.876239 
-2048 -0 1:-0.880099 2:-0.844362 
-2048 -2048 1:-0.514385 2:-0.62455 
-2048 -0 1:-0.940286 2:-0.943623 
-2048 -0 1:-0.830461 2:-0.984331 
-2048 -2048 1:-0.592132 2:-0.630374 
-2048 -2048 1:-0.53371 2:-0.821326 
-2048 -2048 1:-0.562451 2:-0.915575 
-2048 -2048 1:-0.537413 2:-0.718615 
-2048 -0 1:-0.815095 2:-0.887843 
-2048 -2048 1:-0.675776 2:-0.827727 
-2048 -0 1:-0.917451 2:-0.80303 
-2048 -2048 1:-0.806286 2:-0.785099 
-2048 -0 1:-0.94413 2:-0.928203 
-2048 -2048 1:-0.584046 2:-0.824155 
-2048 -2048 1:-0.813583 2:-0.814355 
