svm_type c_svc
kernel_type rbf
gamma 8
nr_class 3
total_sv 128
rho -0.89337 -0.536135 0.0696691
label 2 3 1
nr_sv 56 24 48
SV
0 32 1:-0.727897 2:-0.72151 
10.74000950091711 32 1:-0.426643 2:-0.412468 
0 32 1:-0.735761 2:-0.529033 
0 0.1966115600207466 1:0.759481 2:0.193089 
32 32 1:-0.522457 2:-0.11307 
0 32 1:-0.72344 2:-0.438563 
0 32 1:-0.650455 2:-0.392741 
32 0 1:-0.0945266 2:0.120017 
15.03783668109066 0 1:-0.258953 2:0.0845078 
0 32 1:-0.638985 2:-0.487508 
32 0 1:-0.170885 2:0.177496 
0 32 1:-0.357021 2:-0.214134 
0 32 1:-0.352386 2:-0.0326131 
24.10057278273885 32 1:-0.573315 2:-0.395348 
0 32 1:-0.567144 2:-0.458653 
32 25.33952275647376 1:-0.149031 2:-0.0202368 
32 32 1:-0.2969 2:-0.0402103 
0 32 1:-0.488368 2:-0.336824 
0 32 1:-0.689076 2:-0.577349 
32 0 1:-0.223561 2:0.158366 
32 32 1:-0.0267132 2:0.220186 
32 1.875117627303048 1:-0.243346 2:-0.0131148 
0 32 1:-0.579142 2:-0.241718 
0 32 1:-0.822899 2:-0.682945 
1.430173356962407 32 1:-0.594864 2:-0.326358 
13.97470066379062 32 1:-0.177289 2:0.269105 
0 32 1:-0.438079 2:-0.3082 
9.712472837720773 26.64200659317683 1:-0.0583995 2:0.410239 
0 32 1:-0.729371 2:-0.61075 
31.43569052550567 0.06214021381407558 1:0.537679 2:0.691284 
0 32 1:-0.354218 2:-0.0598316 
0.02803391890660842 0.3364013621883952 1:1 2:0.174891 
0 32 1:-0.312247 2:0.20922 
0 32 1:-0.274512 2:0.227543 
32 32 1:-0.146333 2:0.282651 
32 0 1:-0.0324838 2:0.368159 
0 32 1:-0.705507 2:-0.358755 
0 32 1:-0.174828 2:0.287241 
29.27569249022508 0.1111538994979152 1:0.131882 2:0.0911488 
28.56309870560488 32 1:-0.51148 2:-0.178252 
32 32 1:-0.296034 2:-0.162375 
0 32 1:-0.338002 2:-0.106059 
32 32 1:-0.269709 2:-0.0407757 
2.535626864414641 32 1:-0.164406 2:0.603769 
5.202007858436207 0 1:-0.475223 2:0.0471191 
0 32 1:-0.599762 2:-0.458208 
0 32 1:-0.839547 2:-0.749074 
0 32 1:-0.756538 2:-0.627156 
4.71608645312755 32 1:-0.407937 2:-0.0871444 
32 0 1:0.087606 2:-0.0473393 
32 0 1:-0.204534 2:0.1498 
0 11.45012623465334 1:-0.381433 2:0.00170959 
0 32 1:-0.616839 2:-0.541956 
0 32 1:-0.470907 2:-0.197664 
0 32 1:-0.440875 2:-0.334075 
16.71090348853778 32 1:-0.550435 2:-0.329097 
-32 32 1:-0.164384 2:0.18819 
-32 32 1:-0.348471 2:-0.0588337 
-32 32 1:-0.393508 2:-0.0496415 
-32 0.5011356335933653 1:0.563223 2:0.723792 
-32 0 1:-0.121405 2:0.0503161 
-32 32 1:-0.538877 2:-0.136001 
-32 32 1:-0.153851 2:0.242385 
-32 20.1527727655988 1:-0.0498572 2:0.306137 
-32 29.25746638860237 1:-0.12076 2:0.226837 
-32 32 1:-0.569389 2:-0.358298 
-32 3.344540534117503 1:0.0849366 2:0.117817 
-32 32 1:-0.262967 2:0.0112043 
-32 12.88724810231692 1:-0.147093 2:0.0291126 
-0 0.3777190495604285 1:0.439572 2:1 
-21.59530081464145 23.8275641633548 1:-0.159445 2:-0.228806 
-32 0 1:0.0931286 2:-0.0378545 
-32 32 1:-0.339311 2:-0.0753821 
-32 0 1:-0.136853 2:0.157163 
-32 32 1:-0.0836997 2:0.399173 
-2.858621894750747 0.5453725622187013 1:-0.0356111 2:0.903399 
-9.008983418586668 0 1:-0.107461 2:-0.0314129 
-32 32 1:-0.499613 2:-0.339895 
-0 0.539248865868222 1:0.684766 2:0.956959 
-32 32 1:-0.275163 2:0.0922528 
-22.52821351175901 -0.03512597670820147 1:-0.868562 2:-0.626143 
-14.64306621304751 -1.729810995105907 1:-0.196357 2:0.363835 
-32 -0 1:-0.719995 2:-0.516254 
-32 -0 1:-0.581821 2:-0.513707 
-32 -0 1:-0.583373 2:-0.468574 
-32 -0 1:-0.355622 2:-0.103602 
-32 -0 1:-0.616159 2:-0.598978 
-1.652744459587617 -0.8492488408471992 1:-1 2:-0.988071 
-32 -32 1:-0.0461731 2:0.350748 
-22.92405713523661 -0 1:-0.579375 2:-0.320486 
-32 -32 1:-0.112256 2:0.166258 
-32 -0 1:-0.620258 2:-0.359051 
-32 -7.803594440316665 1:-0.564438 2:-0.274431 
-32 -4.847428608207892 1:-0.561183 2:-0.410825 
-32 -32 1:-0.0890047 2:0.151871 
-32 -0 1:-0.677154 2:-0.460941 
-26.12124120103345 -0 1:-0.77671 2:-0.648678 
-32 -32 1:-0.216045 2:0.272927 
-32 -4.251820243461382 1:-0.340869 2:-0.299367 
-32 -0 1:-0.436122 2:-0.318947 
-32 -0 1:-0.443311 2:-0.129151 
-32 -0 1:-0.793041 2:-0.7397 
-24.03316044323612 -0 1:-0.586204 2:-0.447498 
-32 -32 1:-0.355017 2:0.0570294 
-27.67988707111182 -0 1:-0.757841 2:-0.740416 
-32 -32 1:-0.273319 2:-0.0806899 
-32 -0 1:-0.666859 2:-0.406119 
-32 -25.20220081477111 1:-0.344839 2:-0.0840228 
-30.04485107871223 -0 1:-0.448428 2:-0.200496 
-32 -0.7192293909353357 1:-0.19618 2:0.561822 
-25.26066813484412 -0 1:-0.804122 2:-0.700387 
-32 -32 1:-0.309589 2:-0.0800273 
-32 -32 1:-0.582015 2:-0.185878 
-32 -32 1:-0.264334 2:-0.0261447 
-32 -15.77501379953139 1:-0.517288 2:-0.209454 
-0.1262377694516327 -0 1:-0.604423 2:-0.498546 
-32 -0 1:-0.272869 2:0.29696 
-32 -16.44617432395541 1:-0.383732 2:0.0948011 
-32 -32 1:-0.535251 2:-0.404159 
-32 -0 1:-0.613087 2:-0.345863 
-32 -0 1:-0.458123 2:-0.203628 
-6.582724865470027 -13.77342063139057 1:-0.291165 2:-0.21887 
-6.46239376028978 -0 1:-0.62538 2:-0.594509 
-19.99232622339866 -0 1:-0.391935 2:-0.303504 
-29.96150837994947 -0 1:-0.734313 2:-0.548688 
-32 -0 1:-0.328161 2:-0.143576 
-32 -32 1:-0.129481 2:0.325536 
-32 -0 1:-0.714885 2:-0.501442 
