svm_type c_svc
kernel_type rbf
gamma 0.5
nr_class 3
total_sv 120
rho 4.38865 0.263551 -5.98615
label 2 3 1
nr_sv 49 26 45
SV
0 512 1:-0.727897 2:-0.722035 
0 512 1:-0.735761 2:-0.529921 
24.12460415686318 0 1:0.759481 2:0.190842 
0 512 1:-0.522457 2:-0.114741 
0 512 1:-0.650455 2:-0.393884 
0 512 1:-0.456817 2:0.0842313 
512 512 1:-0.270148 2:0.0653697 
512 512 1:-0.258953 2:0.0824651 
0 512 1:-0.686728 2:-0.617475 
512 512 1:-0.170885 2:0.175278 
512 512 1:-0.352386 2:-0.0344353 
0 512 1:-0.573315 2:-0.396487 
512 512 1:-0.149031 2:-0.0220823 
184.3361020381373 512 1:-0.488368 2:-0.338073 
512 512 1:-0.223561 2:0.156184 
512 97.61709431367724 1:-0.0267132 2:0.217887 
512 512 1:-0.243346 2:-0.0149737 
512 512 1:0.0536394 2:0.47712 
0 512 1:-0.579142 2:-0.243146 
512 512 1:-0.392623 2:-0.168085 
0 512 1:-0.822899 2:-0.683542 
512 512 1:-0.438079 2:-0.309503 
512 0 1:-0.0583995 2:0.407583 
0 512 1:-0.729371 2:-0.611483 
0 512 1:-0.675196 2:-0.483224 
0 512 1:-0.582807 2:-0.677894 
512 21.72400025372149 1:0.537679 2:0.688098 
512 512 1:-0.474146 2:-0.351747 
0 512 1:-0.369881 2:0.092825 
197.5464468691956 0 1:-0.146333 2:0.280235 
0 512 1:-0.705507 2:-0.359963 
512 512 1:-0.181305 2:0.0958715 
512 0 1:0.131882 2:0.0890935 
0 512 1:-0.51148 2:-0.1798 
512 512 1:-0.296034 2:-0.163953 
512 512 1:-0.338002 2:-0.107743 
512 512 1:-0.269709 2:-0.0425825 
487.07762906532 332.436716479078 1:-0.164406 2:0.600748 
0 512 1:-0.591298 2:-0.411271 
0 512 1:-0.599762 2:-0.459228 
512 512 1:0.162117 2:0.576012 
0 512 1:-0.756538 2:-0.627858 
0 512 1:-0.407937 2:-0.0888638 
512 66.8218302478153 1:0.087606 2:-0.0491337 
512 512 1:-0.204534 2:0.147634 
0 512 1:-0.374019 2:0.0286107 
0 512 1:-0.616839 2:-0.542819 
0 512 1:-0.470907 2:-0.199175 
0 512 1:-0.329263 2:0.0758722 
-512 512 1:-0.164384 2:0.185952 
-512 512 1:-0.121876 2:0.613188 
-512 512 1:-0.481508 2:-0.135059 
-512 512 1:-0.442696 2:-0.290207 
-512 512 1:-0.129731 2:0.312346 
-300.4151461714713 0 1:0.563223 2:0.720545 
-512 16.49346132805292 1:-0.144487 2:-0.183755 
-512 431.2887287140359 1:-0.121405 2:0.0483377 
-512 512 1:-0.538877 2:-0.137628 
-512 512 1:-0.12076 2:0.224526 
-512 0 1:0.0849366 2:0.115711 
-512 512 1:-0.262967 2:0.00929963 
-512 512 1:-0.147093 2:0.0271742 
-100.3743461812168 0 1:0.263111 2:0.0654796 
-512 322.2751412815743 1:-0.000746211 2:0.415589 
-0 97.03510855669522 1:0.439572 2:0.996233 
-492.2952897768276 512 1:-0.159445 2:-0.230258 
-512 512 1:-0.184386 2:0.198684 
-512 512 1:-0.155125 2:-0.00694428 
-512 512 1:-0.339311 2:-0.0771237 
-512 512 1:-0.136853 2:0.154983 
-512 512 1:-0.0836997 2:0.396538 
-512 0 1:-0.107461 2:-0.0332373 
-512 512 1:-0.499613 2:-0.341138 
-512 0 1:0.409549 2:0.696224 
-512 512 1:-0.275163 2:0.0901954 
-473.9008920971485 -146.010235524639 1:-0.868562 2:-0.626847 
-512 -512 1:-0.196357 2:0.361266 
-512 -512 1:-0.0220682 2:0.355442 
-18.08022519355702 -0 1:-0.811537 2:-0.84439 
-512 -512 1:-0.355622 2:-0.105291 
-512 -0 1:-0.785071 2:-0.720056 
-345.6483678195248 -0 1:-0.364351 2:-0.25497 
-512 -512 1:-0.0461731 2:0.348204 
-512 -0 1:-0.579375 2:-0.321765 
-512 -0 1:-0.579735 2:-0.34035 
-512 -512 1:0.124729 2:0.695063 
-512 -512 1:-0.112256 2:0.164061 
-304.1528891424145 -0 1:-0.711435 2:-0.646688 
-512 -0 1:-0.620258 2:-0.360258 
-512 -0 1:-0.490175 2:-0.229493 
-512 -0 1:-0.564438 2:-0.275798 
-512 -0 1:-0.753486 2:-0.791896 
-512 -0 1:-0.639765 2:-0.38278 
-512 -0 1:-0.627193 2:-0.652583 
-512 -512 1:-0.0890047 2:0.149701 
-512 -512 1:-0.28053 2:0.240814 
-0 -308.7145689371693 1:-0.340869 2:-0.300687 
-512 -0 1:-0.580873 2:-0.331125 
-512 -0 1:-0.793041 2:-0.74019 
-512 -512 1:-0.355017 2:0.0550384 
-512 -512 1:-0.355163 2:-0.215937 
-512 -512 1:-0.273319 2:-0.0824215 
-512 -0 1:-0.666859 2:-0.407237 
-512 -0 1:-0.488817 2:-0.223103 
-512 -512 1:-0.344839 2:-0.0857481 
-512 -0 1:-0.448428 2:-0.202002 
-512 -512 1:-0.264334 2:-0.0279791 
-512 -0 1:-0.517288 2:-0.210943 
-512 -0 1:-0.546434 2:-0.265518 
-512 -412.3676354185502 1:-0.383732 2:0.0927389 
-512 -0 1:-0.613087 2:-0.347095 
-400.8172670416467 -0 1:-0.535466 2:-0.311234 
-512 -0 1:-0.458123 2:-0.205129 
-512 -512 1:-0.291165 2:-0.220342 
-512 -0 1:-0.439588 2:-0.0879242 
-512 -0 1:-0.64546 2:-0.652233 
-512 -512 1:-0.206552 2:-0.0663855 
-512 -512 1:-0.328161 2:-0.145189 
-512 -512 1:-0.129481 2:0.32304 
-512 -0 1:-0.447597 2:-0.0749396 
