svm_type c_svc
kernel_type rbf
gamma 0.000488281
nr_class 3
total_sv 142
rho 1.13564 3.06886 -2.58551
label 2 1 3
nr_sv 56 55 31
SV
2048 0 1:-0.724104 2:-0.921618 
2048 2048 1:-0.415273 2:-0.253017 
2048 0 1:-0.531759 2:-0.79706 
2048 2048 1:-0.11608 2:-0.502052 
2048 0 1:-0.44135 2:-0.651924 
2048 0 1:-0.395559 2:-0.904661 
2048 2048 1:0.0831311 2:-0.542475 
1718.323860525082 2048 1:0.116847 2:0.312901 
2048 2048 1:0.0813627 2:-0.528883 
2048 0 1:-0.490262 2:-0.787856 
2048 0 1:-0.619418 2:-0.581158 
2048 2048 1:0.174287 2:-0.334744 
2048 2048 1:-0.217075 2:-0.427164 
2048 2048 1:0.182561 2:-0.541301 
2048 0 1:-0.398165 2:-0.57957 
2048 0 1:-0.461427 2:-0.786838 
2048 2048 1:-0.0233102 2:0.326146 
2048 2048 1:-0.04327 2:-0.0101833 
2048 0 1:-0.33968 2:-0.707052 
2048 0 1:-0.580041 2:-0.64048 
2048 2048 1:0.15517 2:-0.277734 
2048 2048 1:0.476492 2:-0.201944 
0 2048 1:0.566725 2:-0.132393 
2048 2048 1:-0.169489 2:-0.427358 
2048 0 1:-0.685565 2:-0.687462 
2048 0 1:-0.329222 2:-0.685774 
2048 2048 1:0.265833 2:-0.614606 
2048 0 1:-0.311076 2:-0.614147 
2048 2048 1:0.406871 2:-0.260285 
2048 0 1:-0.485006 2:-0.673985 
2048 0 1:-0.67991 2:-0.988985 
0 2048 1:0.687724 2:-0.0145543 
2048 2048 1:-0.353371 2:-0.1949 
2048 2048 1:-0.0628779 2:-0.528803 
2048 2048 1:0.171684 2:0.223033 
2048 0 1:0.2243 2:-0.744794 
2048 2048 1:0.364819 2:-0.161064 
2048 0 1:-0.361597 2:-0.742321 
2048 0 1:0.283957 2:-0.698398 
2048 2048 1:0.0947852 2:-0.180904 
2048 0 1:0.0879991 2:-0.969176 
2048 0 1:-0.165351 2:-0.59961 
2048 2048 1:-0.043835 2:-0.352518 
2048 2048 1:0.600269 2:-0.49527 
2048 1995.462532601842 1:0.0439996 2:-0.588234 
2048 0 1:-0.412966 2:-0.628235 
2048 0 1:-0.751648 2:-0.83862 
2048 2048 1:0.575502 2:-0.277098 
2048 0 1:-0.629814 2:-0.747394 
2048 243.0414675470921 1:-0.090172 2:-0.537747 
2048 2048 1:0.14661 2:-0.238502 
2048 2048 1:-0.00137883 2:-0.387429 
2048 0 1:-0.200616 2:-0.627618 
2048 2048 1:0.074762 2:-0.269569 
2048 2048 1:-0.336934 2:0.0734797 
2048 0 1:-0.331959 2:-0.663776 
-2048 2048 1:0.327134 2:0.321301 
-2048 0 1:-0.505637 2:-0.649329 
-2048 0 1:-0.392947 2:-0.785655 
-2048 2048 1:0.360499 2:-0.479822 
-2048 0 1:-0.544051 2:-0.468169 
-2048 2048 1:-0.516443 2:-0.253684 
-2048 0 1:-0.471341 2:-0.577621 
-2048 2048 1:0.354668 2:-0.351926 
-2048 2048 1:-0.256478 2:-0.367357 
-2048 2048 1:0.347421 2:0.882339 
-2048 2048 1:0.694696 2:-0.258269 
-2048 0 1:-0.361892 2:-0.769518 
-2048 0 1:-0.23097 2:-0.646134 
-2048 0 1:-0.277331 2:-0.705886 
-2048 0 1:-0.325401 2:-0.597362 
-2048 0 1:-0.384441 2:-0.65539 
-2048 2048 1:-0.543829 2:0.127672 
-2048 2048 1:0.148679 2:-0.56196 
-2048 2048 1:0.239902 2:-0.687962 
-2048 2048 1:0.269653 2:1 
-2048 0 1:-0.456964 2:-0.530858 
-1158.724980517815 0 1:-0.30225 2:-0.915934 
-2048 0 1:-0.396219 2:-0.648666 
-2048 2048 1:-0.321816 2:-0.00802051 
-2048 0 1:-0.332724 2:-0.821495 
-2048 1648.347651900026 1:-0.132149 2:-0.709218 
-2048 0 1:-0.482385 2:-0.702513 
-2048 2048 1:0.0539031 2:-0.386177 
-2048 2048 1:-0.217398 2:-0.466941 
-2048 0 1:-0.0837219 2:-0.860094 
-2048 0 1:-0.408928 2:-0.799043 
-2048 0 1:-0.380454 2:-0.83427 
-2048 0 1:-0.224572 2:-0.66587 
-2048 2048 1:-0.0870525 2:-0.710437 
-2048 0 1:-0.203446 2:-0.671219 
-2048 2048 1:0.55835 2:-0.167929 
-2048 2048 1:-0.0830597 2:-0.672842 
-2048 2048 1:-0.188838 2:-0.466963 
-2048 0 1:-0.437084 2:-0.759256 
-559.5988800072672 0 1:-0.476682 2:-0.742796 
-2048 0 1:-0.212398 2:-0.719823 
-2048 0 1:-0.267039 2:-0.699424 
-2048 2048 1:0.293669 2:-0.532606 
-2048 0 1:-0.313702 2:-0.693654 
-2048 2048 1:0.0916489 2:-0.570772 
-2048 0 1:-0.406969 2:-0.708647 
-2048 0 1:-0.31281 2:-0.609019 
-2048 0 1:-0.323877 2:-0.760282 
-2048 2048 1:-0.221808 2:-0.317671 
-2048 2048 1:-0.0892313 2:-0.556262 
-2048 437.0819954380471 1:-0.28563 2:-0.551725 
-2048 2048 1:-0.0676666 2:-0.629565 
-2048 2048 1:-0.146565 2:-0.427901 
-2048 2048 1:0.322226 2:-0.568683 
-2048 2048 1:-0.076231 2:-0.688652 
-2048 -2048 1:-0.0618807 2:0.509847 
-2048 -2048 1:0.612723 2:-0.570875 
-2048 -2048 1:-0.136423 2:-0.638738 
-2048 -2048 1:-0.0526948 2:-0.391765 
-2048 -2048 1:-0.291757 2:-0.590315 
-190.5040001489339 -0 1:0.720209 2:0.501155 
-2048 -2048 1:-0.185177 2:0.835026 
-2048 -2048 1:0.0471944 2:-0.236837 
-2048 -2048 1:0.239132 2:-0.617471 
-2048 -2048 1:0.302841 2:0.406459 
-2048 -2048 1:0.223594 2:-0.165305 
-2048 -2048 1:-0.36114 2:-0.419829 
-2048 -2048 1:0.114649 2:-0.28747 
-2048 -2048 1:0.00810941 2:-0.282178 
-2048 -2048 1:0.0260054 2:-0.850895 
-2048 -37.42964733807297 1:0.0643569 2:0.659121 
-2048 -2048 1:0.414887 2:-0.259448 
-2048 -0 1:0.996228 2:0.0633021 
-2048 -2048 1:-0.231736 2:-0.362401 
-2048 -2048 1:0.197722 2:-0.504027 
-2048 -2048 1:-0.0409158 2:-0.425998 
-2048 -2048 1:-0.00815402 2:0.02394 
-2048 -2048 1:-0.0784177 2:-0.371658 
-2048 -2048 1:0.153968 2:-0.329334 
-2048 -2048 1:0.395813 2:-0.35715 
-2048 -0 1:0.899694 2:-0.0183933 
-2048 -2048 1:-0.0344786 2:-0.225035 
-2048 -2048 1:-0.317715 2:-0.556021 
-2048 -2048 1:0.695859 2:-0.420753 
-2048 -2048 1:0.00944859 2:-0.322398 
-2048 -2048 1:0.0891024 2:-0.453853 
