svm_type c_svc
kernel_type rbf
gamma 2
nr_class 3
total_sv 133
rho -0.131893 -0.0610608 -0.618852
label 3 1 2
nr_sv 29 52 52
SV
0.227415087478466 2 1:0.185952 2:0.0474314 
0.2721307730162631 2 1:-0.0606065 2:0.507517 
2 2 1:0.613188 2:-0.578341 
2 2 1:-0.135059 2:-0.646526 
2 2 1:-0.0514316 2:-0.39838 
2 2 1:-0.290207 2:-0.597873 
2 0 1:0.312346 2:0.678409 
0.1520037982430322 0 1:0.720545 2:0.498785 
1.531164812235047 0.2353819490007384 1:-0.183755 2:0.834242 
2 2 1:-0.137628 2:-0.646317 
2 2 1:0.240045 2:-0.625158 
0 2 1:0.303677 2:0.403638 
2 2 1:0.224526 2:-0.170843 
2 2 1:-0.359507 2:-0.426577 
2 2 1:0.115711 2:-0.293589 
2 2 1:0.0271742 2:-0.859692 
0.8784697702159162 0.4157248257126591 1:1 2:0.896699 
2 2 1:0.415589 2:-0.265434 
2 2 1:0.198684 2:-0.511175 
2 2 1:-0.0396667 2:-0.432775 
2 2 1:-0.00694428 2:0.019301 
2 2 1:-0.0771237 2:-0.378178 
2 2 1:0.154983 2:-0.335652 
1.276439173595898 2 1:0.899814 2:-0.0232334 
2 2 1:-0.341138 2:-0.106414 
2 2 1:-0.316134 2:-0.563416 
1.934144294230129 2 1:0.696224 2:-0.427505 
2 2 1:0.0106372 2:-0.328683 
2 2 1:0.0901954 2:-0.460763 
-2 2 1:0.327941 2:0.318075 
-0.1878162700481837 0.3749266192708715 1:-0.479602 2:-0.969578 
-2 2 1:0.361266 2:-0.486855 
-0 1.29827192110917 1:-0.514623 2:-0.259642 
-0 2 1:-0.300973 2:-0.396239 
-2 2 1:0.355442 2:-0.358351 
-0 2 1:-0.713015 2:-0.838613 
-2 2 1:-0.105291 2:-0.553146 
-0 2 1:-0.732645 2:-0.759349 
-2 2 1:-0.25497 2:-0.373855 
-2 2 1:0.695063 2:-0.264249 
-2 2 1:0.164061 2:-0.102586 
-0 2 1:-0.229493 2:-0.653958 
-0 2 1:-0.657814 2:-0.699035 
-0 2 1:-0.323811 2:-0.604954 
-2 2 1:-0.541977 2:0.123526 
-0 2 1:-0.64934 2:-0.881326 
-2 2 1:0.240814 2:-0.695984 
-2 0.6636998051601707 1:0.270529 2:1 
-2 2 1:-0.32023 2:-0.0128114 
-0 2 1:-0.345846 2:-0.288965 
-0 2 1:-0.130791 2:-0.717342 
-0.4483396611052069 0 1:-1 2:-0.958265 
-0 2 1:-0.74019 2:-0.854679 
-0 2 1:-0.59691 2:-0.858144 
-2 2 1:0.0550384 2:-0.392766 
-2 2 1:-0.215937 2:-0.473913 
-0 2 1:-0.223103 2:-0.673788 
-0 2 1:-0.0857481 2:-0.718567 
-0 2 1:-0.202002 2:-0.679162 
-2 2 1:0.55888 2:-0.173479 
-0 2 1:-0.609199 2:-0.839535 
-2 2 1:-0.0817601 2:-0.680793 
-2 2 1:-0.187411 2:-0.473935 
-0.7473715742339385 0 1:-0.955917 2:-1 
-2 2 1:-0.0279791 2:-0.476185 
-0 2 1:-0.265518 2:-0.707501 
-2 2 1:0.294517 2:-0.53989 
-0 0.5193200524045243 1:-0.312125 2:-0.701703 
-2 2 1:0.0927389 2:-0.578238 
-0 2 1:-0.347095 2:-0.545257 
-0 2 1:-0.311234 2:-0.616666 
-0 2 1:-0.205129 2:-0.707944 
-2 2 1:-0.220342 2:-0.323934 
-0 2 1:-0.595272 2:-0.948582 
-2 2 1:-0.0879242 2:-0.563658 
-0 1.264861269116433 1:-0.652233 2:-0.930544 
-0 2 1:-0.284088 2:-0.5591 
-0 1.660980214716698 1:-0.593548 2:-0.831161 
-2 2 1:-0.0663855 2:-0.637309 
-2 2 1:-0.145189 2:-0.434687 
-0.8882402036274235 2 1:-0.0749396 2:-0.696677 
-1.293235839958784 -2 1:-0.413575 2:-0.258972 
-0 -2 1:-0.529921 2:-0.8056 
-2 -0 1:0.190842 2:-0.166475 
-0 -2 1:-0.43962 2:-0.659776 
-0 -2 1:-0.393884 2:-0.913714 
-0 -2 1:0.0842313 2:-0.549806 
-0 -2 1:0.0653697 2:-0.404966 
-2 -2 1:0.117907 2:0.309635 
-0 -2 1:-0.488474 2:-0.796353 
-0.7937957316861156 -2 1:-0.617475 2:-0.588673 
-2 -2 1:-0.215614 2:-0.433947 
-2 -2 1:-0.0344353 2:-0.525284 
-0.02769009815931389 -2 1:0.183542 2:-0.548626 
-0 -2 1:-0.459673 2:-0.795331 
-2 -1.068522078300305 1:-0.0420181 2:-0.0149844 
-0 -2 1:-0.338073 2:-0.715165 
-0 -2 1:-0.578145 2:-0.648277 
-0 -2 1:-0.0149737 2:-0.30916 
-2 -0.7276890391118251 1:0.47712 2:-0.207657 
-2 -2 1:-0.243146 2:-0.586704 
-2 -2 1:0.567245 2:-0.137775 
-2 -2 1:-0.168085 2:-0.434142 
-0 -2 1:-0.327627 2:-0.693786 
-2 -2 1:0.266714 2:-0.622279 
-2 -0 1:0.407583 2:-0.266275 
-0 -2 1:-0.611483 2:-0.739916 
-0 -2 1:-0.483224 2:-0.681941 
-0.8017831893970686 -2 1:-0.677894 2:-0.998439 
-0 -2 1:-0.351747 2:-0.200579 
-2 -2 1:0.092825 2:-0.805206 
-2 -2 1:-0.0616025 2:-0.536069 
-0 -2 1:0.206942 2:-0.450639 
-2 -1.985848764365737 1:0.280235 2:-0.50127 
-2 -0 1:0.365582 2:-0.166582 
-2 -2 1:0.284816 2:-0.70647 
-1.433290984365239 -0 1:0.0958715 2:-0.186516 
-1.821974252462728 -2 1:-0.1798 2:-0.68242 
-2 -2 1:-0.107743 2:0.140766 
-2 -2 1:-0.0425825 2:-0.358946 
-0.4793366786841473 -2 1:0.0451467 2:-0.595782 
-0 -2 1:-0.411271 2:-0.635973 
-0 -2 1:-0.459228 2:-0.710115 
-0 -2 1:-0.749547 2:-0.847359 
-2 -2 1:0.576012 2:-0.283168 
-0 -2 1:-0.627858 2:-0.755699 
-2 -2 1:-0.0491337 2:-0.450298 
-0 -2 1:-0.000177221 2:-0.394023 
-0 -2 1:0.0286107 2:-0.569135 
-0 -2 1:-0.542819 2:-0.849832 
-2 -2 1:-0.199175 2:-0.635354 
-2 -2 1:-0.335329 2:0.0690762 
-0 -2 1:-0.330361 2:-0.671684 
