svm_type c_svc
kernel_type rbf
gamma 0.0078125
nr_class 3
total_sv 130
rho 34.7891 -4.63618 22.956
label 2 3 1
nr_sv 54 27 49
SV
1284.491717498429 2048 1:-0.722035 2:-0.91737 
0 2048 1:-0.529921 2:-0.786062 
2048 2048 1:0.190842 2:-0.115488 
0 2048 1:-0.114741 2:-0.475067 
0 2048 1:-0.393884 2:-0.899495 
0 2048 1:0.0842313 2:-0.51768 
2048 2048 1:0.0653697 2:-0.365713 
987.3045709256372 2048 1:0.0824651 2:-0.503352 
0 2048 1:-0.617475 2:-0.55846 
2048 2048 1:0.175278 2:-0.298693 
0 2048 1:-0.0344353 2:-0.491952 
0 2048 1:-0.396487 2:-0.556786 
2048 2048 1:-0.0220823 2:0.398012 
0 2048 1:-0.338073 2:-0.691177 
2048 2048 1:0.156184 2:-0.238593 
2048 2048 1:0.217887 2:-0.153839 
2048 2048 1:-0.0149737 2:-0.265194 
2048 0 1:0.47712 2:-0.158696 
0 2048 1:-0.243146 2:-0.556394 
2048 2048 1:-0.168085 2:-0.396325 
0 2048 1:-0.683542 2:-0.670525 
2048 2048 1:0.266714 2:-0.59372 
0 2048 1:-0.309503 2:-0.593237 
2048 0 1:0.407583 2:-0.220198 
0 2048 1:-0.611483 2:-0.717145 
0 2048 1:-0.483224 2:-0.656318 
0 2048 1:-0.677894 2:-0.988389 
2048 0 1:0.688098 2:0.0388492 
2048 2048 1:-0.351747 2:-0.15127 
0 2048 1:0.092825 2:-0.785648 
2048 353.6753580722769 1:0.172678 2:0.289312 
2048 2048 1:0.206942 2:-0.413634 
0 2048 1:0.225231 2:-0.730963 
2048 2048 1:0.280235 2:-0.466757 
0 2048 1:-0.359963 2:-0.728356 
0 2048 1:0.284816 2:-0.682053 
2048 2048 1:0.0958715 2:-0.136515 
0 2048 1:0.0890935 2:-0.967506 
0 2048 1:-0.1798 2:-0.65682 
0 2048 1:-0.163953 2:-0.577912 
2048 2048 1:-0.107743 2:0.206871 
2048 2048 1:-0.0425825 2:-0.31743 
2048 0 1:0.600748 2:-0.467918 
0 2048 1:-0.411271 2:-0.608088 
0 2048 1:-0.459228 2:-0.685878 
2048 0 1:0.576012 2:-0.237922 
0 2048 1:-0.627858 2:-0.733705 
0 2048 1:-0.0888638 2:-0.512697 
2048 2048 1:-0.0491337 2:-0.413276 
2048 2048 1:0.147634 2:-0.197235 
0 2048 1:0.0286107 2:-0.53796 
0 2048 1:-0.542819 2:-0.83247 
0 2048 1:-0.199175 2:-0.607438 
2048 2048 1:0.0758722 2:-0.229986 
-2048 2048 1:0.185952 2:0.108944 
-2048 2048 1:0.613188 2:-0.54762 
-2048 2048 1:-0.135059 2:-0.61916 
-2048 2048 1:-0.290207 2:-0.568113 
-443.7822738256937 0 1:0.312346 2:0.770969 
-1828.014014598374 0 1:0.720545 2:0.582506 
-0 1126.321294556713 1:-0.183755 2:0.93447 
-2048 2048 1:0.0483377 2:-0.19548 
-2048 2048 1:-0.137628 2:-0.618941 
-2048 2048 1:0.224526 2:-0.120071 
-2048 2048 1:0.115711 2:-0.248856 
-2048 2048 1:0.00929963 2:-0.243278 
-2048 2048 1:0.0271742 2:-0.842815 
-2048 0 1:0.0654796 2:0.749032 
-2048 35.1865271586526 1:0.415589 2:-0.219316 
-2048 0 1:0.996233 2:0.120925 
-2048 2048 1:-0.230258 2:-0.327848 
-2048 2048 1:0.198684 2:-0.477149 
-2048 2048 1:-0.0396667 2:-0.394891 
-2048 2048 1:-0.00694428 2:0.0794295 
-2048 2048 1:-0.0771237 2:-0.337607 
-2048 2048 1:0.154983 2:-0.292989 
-2048 2048 1:0.396538 2:-0.322313 
-2048 2048 1:-0.0332373 2:-0.183038 
-2048 2048 1:-0.341138 2:-0.0524717 
-2048 0 1:0.696224 2:-0.389362 
-2048 2048 1:0.0901954 2:-0.424256 
-2048 -2048 1:0.361266 2:-0.451633 
-925.4033905425024 -0 1:-0.514623 2:-0.213239 
-2048 -0 1:-0.300973 2:-0.356557 
-2048 -2048 1:0.355442 2:-0.316806 
-2048 -2048 1:-0.105291 2:-0.521185 
-2048 -2048 1:-0.25497 2:-0.333072 
-2048 -2048 1:0.348204 2:0.984347 
-2048 -0 1:-0.341822 2:-0.79634 
-2048 -0 1:-0.321765 2:-0.662703 
-2048 -0 1:-0.34035 2:-0.618455 
-2048 -2048 1:0.695063 2:-0.218073 
-2048 -2048 1:0.164061 2:-0.0484548 
-2048 -0 1:-0.360258 2:-0.757028 
-2048 -0 1:-0.229493 2:-0.626957 
-2048 -0 1:-0.275798 2:-0.689947 
-2048 -0 1:-0.323811 2:-0.575542 
-2048 -0 1:-0.38278 2:-0.636715 
-2048 -2048 1:-0.541977 2:0.188783 
-2048 -2048 1:0.149701 2:-0.538222 
-2048 -2048 1:0.240814 2:-0.671052 
-2048 -0 1:-0.300687 2:-0.911379 
-2048 -0 1:-0.394544 2:-0.629626 
-2048 -2048 1:-0.32023 2:0.045737 
-2048 -0 1:-0.331125 2:-0.811821 
-2048 -1161.507821715367 1:-0.345846 2:-0.244005 
-2048 -2048 1:0.0550384 2:-0.352913 
-2048 -0 1:-0.375923 2:-0.575044 
-2048 -2048 1:-0.215937 2:-0.438054 
-2048 -0 1:-0.0824215 2:-0.852512 
-2048 -0 1:-0.223103 2:-0.647763 
-2048 -0 1:-0.0857481 2:-0.694745 
-2048 -0 1:-0.202002 2:-0.653402 
-2048 -2048 1:-0.0279791 2:-0.440437 
-2048 -0 1:-0.210943 2:-0.70464 
-2048 -0 1:-0.265518 2:-0.683136 
-2048 -0 1:-0.312125 2:-0.677052 
-2048 -2048 1:0.0927389 2:-0.547511 
-2048 -0 1:-0.347095 2:-0.512908 
-2048 -0 1:-0.311234 2:-0.587831 
-2048 -0 1:-0.205129 2:-0.6836 
-2048 -0 1:-0.322288 2:-0.747292 
-2048 -2048 1:-0.220342 2:-0.280694 
-2048 -2048 1:-0.0879242 2:-0.532215 
-1476.271967529774 -0 1:-0.304816 2:-0.919318 
-2048 -0 1:-0.284088 2:-0.527432 
-2048 -2048 1:-0.0663855 2:-0.60949 
-2048 -2048 1:-0.145189 2:-0.396898 
-2048 -2048 1:0.32304 2:-0.545309 
-2048 -0 1:-0.0749396 2:-0.671779 
