svm_type c_svc
kernel_type rbf
gamma 8
nr_class 3
total_sv 136
rho 0.114828 0.13113 -0.414237
label 3 1 2
nr_sv 27 58 51
SV
0 32 1:-0.0501565 2:0.185952 
32 32 1:-0.259408 2:-0.0606065 
17.24236440278866 10.78719683125446 1:-0.00183781 2:0.613188 
32 32 1:-0.410631 2:-0.135059 
32 32 1:-0.310602 2:-0.0514316 
32 32 1:-0.366514 2:-0.290207 
32 32 1:-0.0107666 2:0.312346 
19.56859015804923 12.58993273143072 1:-0.0275391 2:-0.183755 
32 32 1:-0.475842 2:-0.137628 
18.97235899738339 32 1:-0.0381839 2:0.240045 
0 32 1:0.0800261 2:0.303677 
0 32 1:-0.000568607 2:0.224526 
32 32 1:-0.510525 2:-0.359507 
0 1.505477826858516 1:0.233246 2:0.115711 
0 16.50590373799886 1:-0.0305019 2:0.0271742 
0.5343994539288011 0.7284773016907522 1:0.966418 2:1 
1.658141837890851 5.487396973297925 1:0.435777 2:0.0654796 
21.62548146025839 32 1:0.13585 2:0.415589 
32 32 1:-0.0728932 2:0.198684 
0 24.07430286822341 1:0.242558 2:-0.0396667 
24.21448356606353 32 1:-0.0396314 2:-0.00694428 
32 32 1:-0.248996 2:-0.0771237 
0 30.04677663866981 1:-0.0188617 2:0.154983 
1.306979429494339 0 1:0.0962196 2:0.899814 
32 32 1:-0.431211 2:-0.341138 
4.113193759081644 2.729420205462667 1:0.602233 2:0.696224 
32 32 1:-0.176078 2:0.0901954 
-0 32 1:-0.450035 2:-0.479602 
-0 32 1:-0.665188 2:-0.551736 
-0 32 1:-0.465067 2:-0.441344 
-17.16270827191605 31.78003709372259 1:-0.0865005 2:0.361266 
-0 32 1:-0.575004 2:-0.397335 
-32 32 1:0.111614 2:0.355442 
-0 0.3519520174782368 1:-0.654627 2:-0.541489 
-0 5.462011312251735 1:-0.87062 2:-0.713015 
-0 32 1:-0.267536 2:-0.105291 
-0 15.08582610795189 1:-0.563688 2:-0.599734 
-0.7411160700922337 0 1:-1 2:-0.988094 
-0 32 1:-0.414972 2:-0.341822 
-10.04245303537587 11.00637182262314 1:0.278478 2:0.695063 
-32 32 1:0.0090969 2:0.164061 
-0 4.909504494351983 1:-0.618154 2:-0.718952 
-10.89054343827114 0 1:-0.420482 2:-0.229493 
-0 17.22810518067529 1:-0.501197 2:-0.411935 
-0 17.69208266742058 1:-0.828936 2:-0.774042 
-0 32 1:-0.590522 2:-0.38278 
-0 32 1:-0.57623 2:-0.652583 
-0 20.34578579590264 1:-0.633022 2:-0.461956 
-0 32 1:-0.182179 2:0.240814 
-32 32 1:-0.108879 2:0.270529 
-0 32 1:-0.35904 2:-0.32023 
-32 32 1:-0.425311 2:-0.345846 
-0 32 1:-0.367213 2:-0.130791 
-0.02965275004869447 0.1049077087020291 1:-0.908209 2:-0.9976 
-0 32 1:-0.708298 2:-0.59691 
-0 23.30784199661057 1:-0.595127 2:-0.42364 
-32 32 1:-0.266849 2:0.0550384 
-0 32 1:-0.621319 2:-0.407237 
-0 2.556510281627598 1:-0.559368 2:-0.378798 
-32 0 1:-0.418939 2:-0.223103 
-0 32 1:-0.255279 2:-0.0857481 
-0 28.57683091865889 1:-0.373029 2:-0.202002 
-12.89787964554622 0 1:-0.0862989 2:0.55888 
-0 24.62659084486852 1:-0.706665 2:-0.609199 
-0 2.991837798163317 1:-0.870558 2:-0.80532 
-31.26537514329338 32 1:-0.215211 2:-0.0817601 
-26.68389181793344 32 1:-0.524877 2:-0.187411 
-32 32 1:-0.163769 2:-0.0279791 
-1.387198521873179 0 1:-0.484433 2:-0.265518 
-0 16.54730557124429 1:-0.173471 2:0.294517 
-0 32 1:-0.299488 2:0.0927389 
-17.61165383741784 32 1:-0.47172 2:-0.405281 
-0 26.36107446548619 1:-0.560197 2:-0.347095 
-0 32 1:-0.705179 2:-0.59222 
-3.291538285231593 32 1:-0.363821 2:-0.356084 
-8.874188551675516 0 1:-0.455222 2:-0.322288 
-11.43492011457055 0 1:-0.194268 2:-0.220342 
-19.09331941486157 32 1:-0.36298 2:-0.0879242 
-0 22.83528449630683 1:-0.638877 2:-0.483573 
-0.7210122938544634 28.61720658730081 1:-0.697994 2:-0.549538 
-0 32 1:-0.596994 2:-0.652233 
-32 32 1:-0.0980885 2:-0.0663855 
-0 32 1:-0.236321 2:-0.145189 
-1.108541872977086 0 1:-0.675911 2:-0.502381 
-32 32 1:-0.372084 2:-0.0749396 
-6.568746615007242 -32 1:-0.348266 2:-0.413575 
-0 -32 1:-0.699639 2:-0.529921 
-1.278505534461276 -1.327853938525575 1:1 2:0.190842 
-0 -32 1:-0.685635 2:-0.43962 
-0 -32 1:-0.602672 2:-0.393884 
-0 -1.541927967475813 1:-0.382565 2:0.0842313 
-21.64860986578764 -0 1:-0.170378 2:0.0653697 
-32 -2.623767866977482 1:0.0292504 2:0.117907 
-0 -32 1:-0.589634 2:-0.488474 
-0 -32 1:-0.643904 2:-0.617475 
-6.208001830554256 -32 1:-0.269127 2:-0.215614 
-0 -32 1:-0.263859 2:-0.0344353 
-0 -22.14192906427714 1:-0.201776 2:0.183542 
-13.56755074298652 -32 1:-0.507974 2:-0.459673 
-30.12450404665821 -32 1:-0.200787 2:-0.0420181 
-30.63469251006065 -32 1:-0.418429 2:-0.338073 
-0 -32 1:-0.646573 2:-0.578145 
-32 -0 1:-0.117422 2:0.156184 
-32 -0 1:0.106334 2:0.217887 
-32 -32 1:-0.139913 2:-0.0149737 
-32 -32 1:-0.521611 2:-0.243146 
-32 -32 1:-0.309595 2:-0.168085 
-0 -32 1:-0.539483 2:-0.327627 
-32 -32 1:-0.0648259 2:0.266714 
-32 -27.09427862425283 1:0.070316 2:0.407583 
-0 -32 1:-0.692377 2:-0.611483 
-0 -32 1:-0.630796 2:-0.483224 
-0 -32 1:-0.525777 2:-0.677894 
-0 -32 1:-0.402262 2:-0.351747 
-0 -32 1:-0.26594 2:-0.0616025 
-0 -32 1:-0.218233 2:0.206942 
-32 -32 1:-0.0296381 2:0.280235 
-32 -0 1:0.0997744 2:0.365582 
-32 -32 1:-0.0620276 2:0.284816 
-32 -0 1:-0.0693904 2:0.0958715 
-32 -32 1:-0.4447 2:-0.1798 
-0 -32 1:-0.247508 2:-0.107743 
-32 -32 1:-0.16988 2:-0.0425825 
-20.32605505099677 -32 1:-0.403487 2:0.0451467 
-0 -32 1:-0.535429 2:-0.411271 
-0 -32 1:-0.54505 2:-0.459228 
-0.474969582938682 -32 1:-0.817614 2:-0.749547 
-5.623249335435891 -11.59360441762326 1:0.320976 2:0.576012 
-0 -32 1:-0.723257 2:-0.627858 
-32 -8.46543203176247 1:0.23628 2:-0.0491337 
-0 -32 1:-0.296876 2:-0.000177221 
-0 -1.598273250452502 1:-0.288449 2:0.0286107 
-0 -32 1:-0.564461 2:-0.542819 
-32 -32 1:-0.39858 2:-0.199175 
-0 -32 1:-0.364444 2:-0.335329 
-0 -32 1:-0.48898 2:-0.330361 
