svm_type c_svc
kernel_type rbf
gamma 0.5
nr_class 3
total_sv 154
rho 3.56411 -14.0425 -11.9362
label 1 3 2
nr_sv 55 41 58
SV
0 2048 1:-0.668424 2:-0.504606 3:-0.628399 4:-0.587703 5:-0.50415 6:-0.587764 7:-0.859696 
302.5660096044531 249.7352482499606 1:0.593002 2:0.278308 3:-0.34591 4:-0.414057 5:0.42762 6:-0.41406 7:-0.758351 
0 2048 1:-0.351705 2:-0.429793 3:-0.666741 4:-0.645383 5:-0.376246 6:-0.645428 7:-0.887826 
0 131.4560603413526 1:-0.164634 2:0.642385 3:0.716675 4:0.789057 5:0.594603 6:0.789022 7:0.632288 
330.0522512018081 2048 1:-0.564411 2:-0.545188 3:-0.626086 4:-0.658299 5:-0.518888 6:-0.658352 7:-0.893744 
571.8267898250164 0 1:-0.823662 2:-0.651785 3:-0.796417 4:-0.678807 5:-0.663088 6:-0.678833 7:-0.902858 
0 2048 1:-0.783288 2:-0.543968 3:-0.657666 4:-0.612302 5:-0.561188 6:-0.612364 7:-0.872029 
0 2048 1:-0.487829 2:-0.455795 3:-0.601558 4:-0.592227 5:-0.425861 6:-0.592285 7:-0.862004 
2048 2048 1:-0.114783 2:-0.0562313 3:-0.394246 4:-0.383763 5:-0.00396364 6:-0.383804 7:-0.738084 
0 2048 1:-0.936099 2:-0.865373 3:-0.889822 4:-0.87643 5:-0.871383 6:-0.876455 7:-0.972775 
0 1298.445680062904 1:-0.993474 2:-1 3:-1 4:-1 5:-1 6:-1 7:-1 
0 68.18246041354362 1:-0.859506 2:-0.811042 3:-0.886596 4:-0.864812 5:-0.80889 6:-0.864836 7:-0.969563 
0 738.3714674970203 1:-0.872141 2:-0.793553 3:-0.845925 4:-0.81273 5:-0.796162 6:-0.812757 7:-0.953783 
0 2048 1:-0.918904 2:-0.898881 3:-0.938865 4:-0.932721 5:-0.897159 6:-0.932734 7:-0.986751 
1379.6722057117 0 1:-0.781894 2:-0.488313 3:-0.655468 4:-0.549785 5:-0.512441 6:-0.549839 7:-0.839699 
89.39754363829816 81.5230504517463 1:-0.372396 2:0.59695 3:0.280485 4:0.415809 5:0.513872 6:0.415739 7:0.0721657 
1877.76562342265 2048 1:-0.351468 2:-0.241655 3:-0.33992 4:-0.362653 5:-0.212345 6:-0.362737 7:-0.723513 
2048 2048 1:-0.472648 2:-0.476648 3:-0.674257 4:-0.688874 5:-0.441015 6:-0.688917 7:-0.907206 
0 2048 1:-0.633904 2:-0.512773 3:-0.641449 4:-0.604822 5:-0.504425 6:-0.60488 7:-0.868332 
0 2048 1:-0.665479 2:-0.506725 3:-0.734057 4:-0.638782 5:-0.505413 6:-0.63882 7:-0.884747 
0 2048 1:-0.388711 2:-0.337849 3:-0.36812 4:-0.444061 5:-0.303502 6:-0.444144 7:-0.777634 
1614.386401958881 321.9032825713057 1:-0.593125 2:-0.445764 3:-0.712128 4:-0.551076 5:-0.437985 6:-0.551087 7:-0.840404 
2048 2048 1:-0.200364 2:-0.0781651 3:-0.32458 4:-0.326349 5:-0.0400216 6:-0.326412 7:-0.697604 
0 2048 1:-0.587512 2:-0.541715 3:-0.66117 4:-0.665585 5:-0.52044 6:-0.665638 7:-0.897022 
0 2048 1:-0.943139 2:-0.919333 3:-0.981494 4:-0.960848 5:-0.919773 6:-0.960855 7:-0.992748 
1959.45767640391 2048 1:-0.59734 2:-0.319589 3:-0.447881 4:-0.393009 5:-0.328932 6:-0.39309 7:-0.744334 
0 2048 1:-0.789897 2:-0.693412 3:-0.830633 4:-0.797235 5:-0.692652 6:-0.797267 7:-0.948654 
2048 2048 1:-0.418861 2:-0.147914 3:-0.260218 4:-0.270902 5:-0.144055 6:-0.270987 7:-0.655912 
0 2048 1:-0.929956 2:-0.875046 3:-0.921232 4:-0.904456 5:-0.87859 6:-0.904474 7:-0.980062 
0 2048 1:-0.623137 2:-0.422706 3:-0.605957 4:-0.563294 5:-0.42385 6:-0.563358 7:-0.846961 
0 2048 1:-0.264382 2:-0.194696 3:-0.344509 4:-0.383549 5:-0.154195 6:-0.383625 7:-0.737933 
0 2048 1:-0.478194 2:-0.418237 3:-0.512854 4:-0.528591 5:-0.391242 6:-0.528656 7:-0.828001 
2048 2048 1:-0.446965 2:-0.07355 3:-0.376322 4:-0.272015 5:-0.084858 6:-0.272071 7:-0.656777 
2048 0 1:-0.666024 2:-0.5989 3:-0.723341 4:-0.715258 5:-0.585798 6:-0.715301 7:-0.918195 
0 2048 1:-0.499434 2:-0.266321 3:-0.42153 4:-0.413015 5:-0.263142 6:-0.413091 7:-0.757643 
2048 2048 1:-0.613857 2:-0.272764 3:-0.553763 4:-0.472989 5:-0.291423 6:-0.473058 7:-0.795539 
0 2048 1:-0.769225 2:-0.570584 3:-0.682363 4:-0.649476 5:-0.581583 6:-0.64953 7:-0.889714 
0 2048 1:-0.664008 2:-0.431147 3:-0.589985 4:-0.528183 5:-0.439298 6:-0.528238 7:-0.827772 
2048 2048 1:-0.362538 2:-0.159148 3:-0.373259 4:-0.35429 5:-0.142681 6:-0.354362 7:-0.71764 
47.53201499107397 0 1:-0.714469 2:-0.659509 3:-0.721493 4:-0.734688 5:-0.648182 6:-0.734736 7:-0.92592 
690.4098567301282 2032.12693545047 1:-0.0702942 2:-0.11446 3:-0.320088 4:-0.366122 5:-0.045863 6:-0.366189 7:-0.725938 
1047.655056238854 0 1:-0.115087 2:-0.413689 3:-0.690597 4:-0.697014 5:-0.315343 6:-0.697048 7:-0.910661 
2048 2048 1:-0.404591 2:-0.300443 3:-0.631964 4:-0.546538 5:-0.27407 6:-0.546581 7:-0.837935 
0 2048 1:-0.861986 2:-0.716287 3:-0.846278 4:-0.792682 5:-0.726857 6:-0.792714 7:-0.947108 
672.0678605381323 114.8351919255858 1:-0.761566 2:-0.298809 3:-0.347727 4:-0.279401 5:-0.34337 6:-0.279504 7:-0.662458 
0 205.8899341781772 1:-0.261 2:-0.259599 3:-0.349808 4:-0.423417 5:-0.21005 6:-0.423492 7:-0.764432 
1272.337696667922 0 1:-0.403787 2:-0.650394 3:-0.845718 4:-0.856692 5:-0.578692 6:-0.856712 7:-0.967252 
486.7474399190245 51.58346941657212 1:-0.794531 2:-0.627216 3:-0.799253 4:-0.707279 5:-0.635918 6:-0.707311 7:-0.914933 
0 2048 1:-0.419188 2:-0.263838 3:-0.360062 4:-0.400286 5:-0.245081 6:-0.400375 7:-0.749217 
0 1663.13863145011 1:-0.593793 2:-0.528963 3:-0.559826 4:-0.597941 5:-0.510578 6:-0.598011 7:-0.864891 
0 2048 1:-0.349637 2:-0.27914 3:-0.436713 4:-0.449679 5:-0.24463 6:-0.449752 7:-0.781167 
2048 1541.567579483371 1:-0.505648 2:-0.225326 3:-0.203828 4:-0.251654 5:-0.22867 6:-0.251762 7:-0.640839 
441.524024730731 2048 1:-0.328004 2:-0.361089 3:-0.628438 4:-0.60838 5:-0.311715 6:-0.608423 7:-0.8701 
370.5660201142441 2048 1:-0.445949 2:-0.232066 3:-0.443277 4:-0.421577 5:-0.222713 6:-0.421643 7:-0.763236 
0 2048 1:-0.38391 2:-0.445885 3:-0.620792 4:-0.627702 5:-0.396642 6:-0.627753 7:-0.879497 
-362.7749240745188 135.803572941894 1:-0.44966 2:-0.194162 3:-0.611687 4:-0.421219 5:-0.190436 6:-0.421219 7:-0.763007 
0 55.26370353259668 1:-0.724641 2:-0.417308 3:0.00346161 4:-0.111404 5:-0.439258 6:-0.111562 7:-0.521725 
-2048 1329.45064056965 1:-0.496723 2:-0.640575 3:-0.778648 4:-0.799551 5:-0.588553 6:-0.79958 7:-0.949434 
-1003.044142318676 1002.16510732502 1:-0.474277 2:-0.240471 3:-0.0592307 4:-0.185387 5:-0.235645 6:-0.185519 7:-0.5866 
-796.7669447507906 2048 1:-0.0535584 2:0.000613322 3:-0.207748 4:-0.23774 5:0.0576734 6:-0.237814 7:-0.629767 
-527.3556997244148 1201.429477938046 1:-0.708729 2:-0.188235 3:-0.53861 4:-0.362389 5:-0.2366 6:-0.362449 7:-0.723324 
-2048 2048 1:-0.194023 2:-0.0847234 3:-0.43425 4:-0.406764 5:-0.044477 6:-0.406814 7:-0.753529 
-2048 2048 1:-0.506251 2:-0.355198 3:-0.44608 4:-0.460304 5:-0.341898 6:-0.460384 7:-0.787772 
0 583.1692334016673 1:0.222182 2:0.300874 3:-0.256811 4:-0.268453 5:0.373807 6:-0.268474 7:-0.654038 
0 2048 1:0.028274 2:0.448126 3:0.0208263 4:0.0637274 5:0.463636 6:0.0637091 7:-0.35011 
-593.8199121400747 2048 1:0.0321812 2:-0.0918282 3:-0.554337 4:-0.550434 5:-0.00584993 6:-0.550462 7:-0.840062 
0 2048 1:-0.100488 2:0.0220128 3:-0.149108 4:-0.182674 5:0.0670132 6:-0.182747 7:-0.584317 
0 2048 1:-0.141857 2:0.236105 3:-0.00546277 4:-0.00616489 5:0.245275 6:-0.00624737 7:-0.421657 
0 124.0639518367673 1:0.0419288 2:0.861918 3:0.941027 4:1 5:0.826723 6:1 7:1 
-143.4776138660826 1433.708319269683 1:0.387686 2:0.0380077 3:-0.509746 4:-0.446258 5:0.177659 6:-0.446289 7:-0.779028 
-7.202448555845224 0 1:0.594307 2:0.389818 3:-0.182423 4:-0.172691 5:0.524995 6:-0.172699 7:-0.575831 
0 1055.911859183586 1:-0.0383134 2:0.517049 3:0.448718 4:0.428829 5:0.51047 6:0.428769 7:0.0897344 
0 308.6539957815049 1:-0.385898 2:0.367447 3:0.0144715 4:0.213376 5:0.311316 6:0.213323 7:-0.183201 
-2048 2048 1:-0.220497 2:-0.233991 3:-0.396304 4:-0.437747 5:-0.179723 6:-0.437819 7:-0.773636 
-2048 2048 1:-0.566166 2:-0.401386 3:-0.628423 4:-0.569755 5:-0.393994 6:-0.569805 7:-0.850381 
-24.18151986923471 75.06985428785046 1:-0.0955605 2:0.779641 3:0.213178 4:0.433873 5:0.727828 6:0.433898 7:0.0965736 
-2048 2048 1:-0.623788 2:-0.222381 3:-0.500779 4:-0.343711 5:-0.24951 6:-0.343749 7:-0.710131 
-23.69015093686545 0 1:-0.437165 2:0.721673 3:-0.0109009 4:0.474743 5:0.609664 6:0.474861 7:0.152878 
-2048 2048 1:-0.603772 2:-0.432884 3:-0.571536 4:-0.547894 5:-0.428877 6:-0.547959 7:-0.838671 
-2048 2048 1:-0.382554 2:-0.138368 3:-0.31492 4:-0.296094 5:-0.128549 6:-0.296187 7:-0.675172 
0 1006.475223490992 1:-0.406895 2:0.155638 3:-0.0409246 4:0.0640234 5:0.122686 6:0.0639567 7:-0.349773 
-2048 0 1:-0.312117 2:-0.498892 3:-0.792579 4:-0.780104 5:-0.428583 6:-0.780126 7:-0.942753 
-2048 2048 1:-0.849904 2:-0.605816 3:-0.769311 4:-0.644588 5:-0.628251 6:-0.644628 7:-0.887455 
0 2.211347559189159 1:-0.350289 2:0.353298 3:0.539071 4:0.51506 5:0.306048 6:0.514946 7:0.209824 
-2048 2048 1:-0.503691 2:-0.221452 3:-0.329644 4:-0.304798 5:-0.224908 6:-0.304879 7:-0.681699 
-2048 2048 1:-0.340626 2:-0.190014 3:-0.403063 4:-0.410553 5:-0.165222 6:-0.410622 7:-0.756025 
0 50.55187059399444 1:0.34364 2:0.913036 3:0.893678 4:0.787436 5:0.931017 6:0.787433 7:0.629537 
-350.7765733422525 0 1:0.340626 2:0.217626 3:-0.329876 4:-0.351094 5:0.32477 6:-0.351121 7:-0.715401 
-2048 2048 1:-0.423201 2:-0.125276 3:-0.280879 4:-0.24028 5:-0.125199 6:-0.240348 7:-0.631796 
-2048 2048 1:-0.62169 2:-0.490712 3:-0.698643 4:-0.629126 5:-0.482791 6:-0.629165 7:-0.880177 
0 2048 1:-0.0492247 2:0.195395 3:0.00145661 4:-0.00380994 5:0.228172 6:-0.00388153 7:-0.419312 
-8.854137791444288 70.97474430980891 1:-0.0563629 2:0.435647 3:0.874198 4:0.667355 5:0.436 6:0.667206 7:0.436941 
0 2011.28235096076 1:-0.31827 2:0.263297 3:0.136081 4:0.193224 5:0.234008 6:0.193145 7:-0.206754 
0 60.14032147744408 1:-0.648326 2:0.0885005 3:-0.275759 4:-0.0248861 5:0.0163831 6:-0.0249474 7:-0.440117 
-1120.020404326618 2048 1:-0.393696 2:-0.0518591 3:-0.376953 4:-0.302584 5:-0.0554132 6:-0.30265 7:-0.680049 
0 52.41017214280598 1:0.309535 2:1 3:1 4:0.903777 5:1 6:0.903777 7:0.827632 
-2048 0 1:-1 2:-0.941328 3:-0.946695 4:-0.936549 5:-0.950193 6:-0.936562 7:-0.987605 
-401.7314239332405 -2048 1:-0.499987 2:-0.0468857 3:-0.302744 4:-0.223555 5:-0.0721399 6:-0.223633 7:-0.61829 
-1878.645087095094 0 1:-0.96605 2:-0.837275 3:-0.923279 4:-0.876036 5:-0.852846 6:-0.876059 7:-0.972667 
-2048 0 1:-0.89397 2:-0.850064 3:-0.908067 4:-0.898572 5:-0.849703 6:-0.89859 7:-0.978586 
-2048 0 1:-0.452498 2:-0.243458 3:-0.367313 4:-0.365007 5:-0.233932 6:-0.36509 7:-0.725154 
0 -1179.640186597127 1:-0.00838536 2:0.283428 3:-0.108355 4:-0.0861064 5:0.312933 6:-0.0861599 7:-0.498542 
-2048 0 1:-0.66209 2:-0.509998 3:-0.630965 4:-0.617208 5:-0.507592 6:-0.617269 7:-0.87443 
-2048 0 1:-0.938331 2:-0.947084 3:-0.991348 4:-0.98271 5:-0.94299 6:-0.982712 7:-0.996954 
-2048 0 1:-0.624694 2:-0.453986 3:-0.658783 4:-0.594167 5:-0.4514 6:-0.594218 7:-0.862986 
-2048 0 1:-0.433701 2:-0.419142 3:-0.546209 4:-0.597379 5:-0.383215 6:-0.597436 7:-0.86461 
-2048 0 1:-0.696453 2:-0.618793 3:-0.714316 4:-0.692723 5:-0.609152 6:-0.692767 7:-0.908844 
-148.3812483764567 -255.1535735316092 1:-0.203441 2:0.535697 3:0.688404 4:0.742465 5:0.493997 6:0.742334 7:0.556055 
-2048 0 1:-0.796325 2:-0.717568 3:-0.821452 4:-0.799984 5:-0.714964 6:-0.800016 7:-0.949578 
-2048 0 1:-0.505407 2:-0.377005 3:-0.516447 4:-0.525113 5:-0.360723 6:-0.525183 7:-0.826048 
-2048 0 1:-0.334321 2:-0.342914 3:-0.583692 4:-0.561919 5:-0.297137 6:-0.561971 7:-0.846231 
-2048 0 1:-0.144727 2:-0.178598 3:-0.462668 4:-0.46375 5:-0.116469 6:-0.463804 7:-0.789901 
-2048 0 1:-0.561562 2:-0.428597 3:-0.531693 4:-0.54279 5:-0.416781 6:-0.542861 7:-0.83588 
-2048 -380.3635829396178 1:-0.727059 2:-0.712698 3:-0.814182 4:-0.812721 5:-0.697 6:-0.812753 7:-0.953781 
0 -2048 1:-0.426712 2:0.139783 3:0.0729166 4:0.117809 5:0.104952 6:0.11771 7:-0.291912 
-916.1548139381561 0 1:-0.484262 2:-0.386453 3:-0.599797 4:-0.57757 5:-0.364763 6:-0.57762 7:-0.854471 
0 -2048 1:-0.142796 2:0.439819 3:0.130423 4:0.214584 5:0.422509 6:0.214552 7:-0.181786 
-2048 -2048 1:-0.328532 2:-0.1828 3:-0.318365 4:-0.334901 5:-0.156543 6:-0.334979 7:-0.703806 
-1837.766345406249 -2048 1:-0.616751 2:-0.176643 3:-0.372038 4:-0.253544 5:-0.208282 6:-0.253614 7:-0.642332 
-2048 0 1:-0.226025 2:-0.190373 3:-0.436856 4:-0.438749 5:-0.14283 6:-0.438808 7:-0.774274 
0 -929.6301657036312 1:0.0858 2:0.285614 3:-0.0963399 4:-0.087128 5:0.333497 6:-0.087155 7:-0.49948 
-57.22793823296269 -2048 1:0.00729976 2:-0.0284921 3:-0.39081 4:-0.347091 5:0.0443817 6:-0.347141 7:-0.712547 
-2048 -1827.933196467984 1:-0.560673 2:-0.506877 3:-0.711387 4:-0.687177 5:-0.484781 6:-0.687221 7:-0.906479 
-35.47046342951399 -286.9977430717131 1:0.193506 2:0.89483 3:0.931292 4:0.80091 5:0.885418 6:0.800864 7:0.651924 
-2048 0 1:-0.451131 2:-0.403499 3:-0.53949 4:-0.557539 5:-0.373044 6:-0.557599 7:-0.843885 
-2048 0 1:-0.546478 2:-0.48062 3:-0.651602 4:-0.642616 5:-0.459101 6:-0.642667 7:-0.886539 
-2048 0 1:-0.494909 2:-0.350547 3:-0.506422 4:-0.489778 5:-0.3356 6:-0.489839 7:-0.80561 
-1766.991646409471 -2048 1:0.0351369 2:0.0715583 3:-0.302703 4:-0.290107 5:0.137033 6:-0.290157 7:-0.670651 
-2048 0 1:-0.485375 2:-0.258955 3:-0.447661 4:-0.41475 5:-0.253942 6:-0.414821 7:-0.758781 
0 -2048 1:-0.550811 2:-0.300625 3:-0.564164 4:-0.486243 5:-0.303197 6:-0.486304 7:-0.803511 
-130.6120341249549 -1131.408186094434 1:0.458639 2:-0.0394105 3:-0.527529 4:-0.583885 5:0.124291 6:-0.583906 7:-0.857748 
-2048 -2048 1:-0.653194 2:-0.330659 3:-0.557036 4:-0.477763 5:-0.349639 6:-0.47782 7:-0.798426 
0 -665.3564289106506 1:-0.021387 2:0.50007 3:0.0731379 4:0.171194 5:0.499037 6:0.171168 7:-0.232149 
0 -2048 1:-0.0673964 2:0.322929 3:0.237993 4:0.188783 5:0.335645 6:0.188667 7:-0.211916 
-1093.366575915955 -2048 1:-0.0849425 2:-0.11412 3:-0.472401 4:-0.459879 5:-0.0484689 6:-0.459916 7:-0.787518 
-2048 -1996.0083307013 1:-0.864408 2:-0.640867 3:-0.798416 4:-0.662947 5:-0.661651 6:-0.662977 7:-0.89584 
0 -2048 1:-0.357186 2:-0.162895 3:-0.484963 4:-0.427017 5:-0.144884 6:-0.427073 7:-0.766759 
-2048 -127.1454892182887 1:-0.306587 2:-0.364629 3:-0.427153 4:-0.477785 5:-0.310555 6:-0.47786 7:-0.798443 
-2048 0 1:-0.957199 2:-0.884222 3:-0.922213 4:-0.901674 5:-0.891979 6:-0.901694 7:-0.979368 
-2048 0 1:-0.451704 2:-0.305337 3:-0.479658 4:-0.470856 5:-0.287666 6:-0.470925 7:-0.794244 
-379.8992266077591 -2048 1:-0.553892 2:-0.268216 3:-0.503006 4:-0.430787 5:-0.275582 6:-0.430841 7:-0.769185 
-2048 0 1:-0.456805 2:-0.152517 3:-0.342397 4:-0.323055 5:-0.155581 6:-0.323132 7:-0.695194 
0 -2048 1:-0.117139 2:0.165518 3:-0.130951 4:-0.102754 5:0.188697 6:-0.102823 7:-0.513877 
-1900.512188022326 0 1:-0.461408 2:-0.247709 3:-0.458763 4:-0.429213 5:-0.239399 6:-0.429281 7:-0.768173 
-2048 -2048 1:-0.55274 2:-0.510059 3:-0.532422 4:-0.582197 5:-0.485981 6:-0.58227 7:-0.856868 
-2048 -2048 1:-0.413605 2:-0.385622 3:-0.716032 4:-0.617839 5:-0.35004 6:-0.617866 7:-0.874741 
-2048 -2048 1:-0.233271 2:-0.0586542 3:-0.217492 4:-0.254636 5:-0.0295484 6:-0.254718 7:-0.643201 
-2048 0 1:-0.595451 2:-0.415954 3:-0.558033 4:-0.544788 5:-0.412484 6:-0.544852 7:-0.836975 
-2048 -2048 1:-0.379956 2:-0.241145 3:-0.248646 4:-0.304977 5:-0.217545 6:-0.305071 7:-0.681832 
-2048 -110.2215892028993 1:-0.593251 2:-0.535576 3:-0.699692 4:-0.673241 5:-0.51623 6:-0.673289 7:-0.90042 
-2048 0 1:-0.706077 2:-0.543749 3:-0.653034 4:-0.628466 5:-0.545701 6:-0.628525 7:-0.87986 
0 -891.5803342528185 1:0.0517717 2:0.108734 3:-0.129488 4:-0.183824 5:0.172706 6:-0.183891 7:-0.585298 
-2048 -2048 1:-0.455969 2:-0.214906 3:-0.293667 4:-0.311026 5:-0.209752 6:-0.31112 7:-0.686334 
0 -777.2969399111934 1:-0.532728 2:-0.104325 3:-0.135638 4:-0.132696 5:-0.128652 6:-0.132802 7:-0.540872 
