svm_type c_svc
kernel_type rbf
gamma 8
nr_class 3
total_sv 176
rho 0.558779 0.450448 -0.362034
label 1 3 2
nr_sv 59 50 67
SV
0 0.5 1:-0.623744 2:-0.504606 3:-0.628399 4:-0.587703 5:-0.50415 6:-0.587764 7:-0.859696 
0.5 0.5 1:0.807657 2:0.278308 3:-0.34591 4:-0.414057 5:0.42762 6:-0.41406 7:-0.758351 
0.5 0.5 1:-0.264348 2:-0.429793 3:-0.666741 4:-0.645383 5:-0.376246 6:-0.645428 7:-0.887826 
0 0.5 1:-0.505716 2:-0.545188 3:-0.626086 4:-0.658299 5:-0.518888 6:-0.658352 7:-0.893744 
0.5 0.5 1:-0.754087 2:-0.543968 3:-0.657666 4:-0.612302 5:-0.561188 6:-0.612364 7:-0.872029 
0.2664758492303359 0.5 1:-0.927488 2:-0.865373 3:-0.889822 4:-0.87643 5:-0.871383 6:-0.876455 7:-0.972775 
0 0.3499782640833553 1:-0.892889 2:-0.873899 3:-0.924939 4:-0.912519 5:-0.872767 6:-0.912534 7:-0.982038 
0.3155321697228681 0.5 1:-0.515728 2:-0.470558 3:-0.523766 4:-0.545768 5:-0.455638 6:-0.545839 7:-0.83751 
0.5 0.5 1:-0.992595 2:-1 3:-1 4:-1 5:-1 6:-1 7:-1 
0.5 0.5 1:-0.932797 2:-0.963832 3:-0.953329 4:-0.962253 5:-0.95806 6:-0.962262 7:-0.99303 
0 0.5 1:-0.903978 2:-0.922084 3:-0.970201 4:-0.960664 5:-0.916669 6:-0.96067 7:-0.99271 
0 0.1363542957861104 1:-0.574877 2:-0.6517 3:-0.806815 4:-0.791243 5:-0.623727 6:-0.791277 7:-0.946618 
0.5 0.5 1:-0.585902 2:-0.325613 3:0.155807 4:-0.0334917 5:-0.341654 6:-0.0336594 7:-0.448501 
0 0.5 1:-0.907976 2:-0.898881 3:-0.938865 4:-0.932721 5:-0.897159 6:-0.932734 7:-0.986751 
0.5 0.5 1:-0.287827 2:0.59695 3:0.280485 4:0.415809 5:0.513872 6:0.415739 7:0.0721657 
0.5 0.5 1:-0.264079 2:-0.241655 3:-0.33992 4:-0.362653 5:-0.212345 6:-0.362737 7:-0.723513 
0.5 0.5 1:-0.401588 2:-0.476648 3:-0.674257 4:-0.688874 5:-0.441015 6:-0.688917 7:-0.907206 
0 0.5 1:-0.584573 2:-0.512773 3:-0.641449 4:-0.604822 5:-0.504425 6:-0.60488 7:-0.868332 
0.5 0.5 1:-0.189955 2:-0.574069 3:-0.842338 4:-0.833973 5:-0.488912 6:-0.833987 7:-0.960493 
0.04015814725653675 0.5 1:-0.620403 2:-0.506725 3:-0.734057 4:-0.638782 5:-0.505413 6:-0.63882 7:-0.884747 
0.02865365069680067 0.5 1:-0.503921 2:-0.656066 3:-0.802757 4:-0.811042 5:-0.615141 6:-0.81107 7:-0.953235 
0.08020793743552347 0 1:-0.768422 2:-0.866933 3:-0.958707 4:-0.95083 5:-0.84497 6:-0.950837 7:-0.990687 
0.3069389925159153 0.5 1:-0.538299 2:-0.445764 3:-0.712128 4:-0.551076 5:-0.437985 6:-0.551087 7:-0.840404 
0.5 0.5 1:-0.0926149 2:-0.0781651 3:-0.32458 4:-0.326349 5:-0.0400216 6:-0.326412 7:-0.697604 
0.3153751214320037 0.5 1:-0.533371 2:-0.564936 3:-0.614888 4:-0.648851 5:-0.540915 6:-0.648912 7:-0.889428 
0.1451560058806153 0.5 1:-0.935477 2:-0.919333 3:-0.981494 4:-0.960848 5:-0.919773 6:-0.960855 7:-0.992748 
0.5 0.5 1:-0.340554 2:-0.147914 3:-0.260218 4:-0.270902 5:-0.144055 6:-0.270987 7:-0.655912 
0 0.5 1:-0.920517 2:-0.875046 3:-0.921232 4:-0.904456 5:-0.87859 6:-0.904474 7:-0.980062 
0.5 0.5 1:-0.561044 2:-0.77128 3:-0.91947 4:-0.922015 5:-0.725457 6:-0.922024 7:-0.984296 
0.5 0.5 1:-0.165259 2:-0.194696 3:-0.344509 4:-0.383549 5:-0.154195 6:-0.383625 7:-0.737933 
0 0.5 1:-0.407881 2:-0.418237 3:-0.512854 4:-0.528591 5:-0.391242 6:-0.528656 7:-0.828001 
0.5 0.5 1:-0.372445 2:-0.07355 3:-0.376322 4:-0.272015 5:-0.084858 6:-0.272071 7:-0.656777 
0.5 0.5 1:-0.450513 2:-0.706711 3:-0.854623 4:-0.865277 5:-0.649924 6:-0.865296 7:-0.969694 
0.5 0.5 1:-0.628205 2:-0.363129 3:-0.651055 4:-0.544717 5:-0.381713 6:-0.544769 7:-0.836936 
0 0.5 1:-0.621022 2:-0.5989 3:-0.723341 4:-0.715258 5:-0.585798 6:-0.715301 7:-0.918195 
0.5 0.5 1:-0.431983 2:-0.266321 3:-0.42153 4:-0.413015 5:-0.263142 6:-0.413091 7:-0.757643 
0.5 0.5 1:-0.561825 2:-0.272764 3:-0.553763 4:-0.472989 5:-0.291423 6:-0.473058 7:-0.795539 
0.5 0.5 1:-0.618734 2:-0.431147 3:-0.589985 4:-0.528183 5:-0.439298 6:-0.528238 7:-0.827772 
0 0.5 1:-0.581636 2:-0.560461 3:-0.711205 4:-0.676382 5:-0.545444 6:-0.676431 7:-0.901799 
0.5 0.5 1:-0.276641 2:-0.159148 3:-0.373259 4:-0.35429 5:-0.142681 6:-0.354362 7:-0.71764 
0 0.5 1:-0.822268 2:-0.799614 3:-0.813553 4:-0.820058 5:-0.795741 6:-0.820094 7:-0.956139 
0.5 0.5 1:0.0549821 2:-0.11446 3:-0.320088 4:-0.366122 5:-0.045863 6:-0.366189 7:-0.725938 
0.2121020453015069 0.5 1:-0.32436 2:-0.300443 3:-0.631964 4:-0.546538 5:-0.27407 6:-0.546581 7:-0.837935 
0.2464386161374194 0.5 1:-0.843389 2:-0.716287 3:-0.846278 4:-0.792682 5:-0.726857 6:-0.792714 7:-0.947108 
0 0.5 1:-0.899714 2:-0.872593 3:-0.928743 4:-0.904764 5:-0.872822 6:-0.904781 7:-0.980139 
0.2052307571206268 0.5 1:-0.161422 2:-0.259599 3:-0.349808 4:-0.423417 5:-0.21005 6:-0.423492 7:-0.764432 
0.5 0.5 1:-0.323448 2:-0.650394 3:-0.845718 4:-0.856692 5:-0.578692 6:-0.856712 7:-0.967252 
0.5 0.5 1:-0.766844 2:-0.627216 3:-0.799253 4:-0.707279 5:-0.635918 6:-0.707311 7:-0.914933 
0.5 0.5 1:-0.0419781 2:-0.282013 3:-0.523764 4:-0.5474 5:-0.208717 6:-0.547454 7:-0.838407 
0.5 0.5 1:-0.340925 2:-0.263838 3:-0.360062 4:-0.400286 5:-0.245081 6:-0.400375 7:-0.749217 
0 0.5 1:-0.262002 2:-0.27914 3:-0.436713 4:-0.449679 5:-0.24463 6:-0.449752 7:-0.781167 
0.5 0.5 1:-0.439035 2:-0.225326 3:-0.203828 4:-0.251654 5:-0.22867 6:-0.251762 7:-0.640839 
0 0.5 1:-0.55217 2:-0.531106 3:-0.578861 4:-0.597907 5:-0.514734 6:-0.597976 7:-0.864874 
0.2202244671538126 0.5 1:-0.237453 2:-0.361089 3:-0.628438 4:-0.60838 5:-0.311715 6:-0.608423 7:-0.8701 
0.5 0.5 1:-0.52005 2:-0.314604 3:-0.581726 4:-0.481387 5:-0.320568 6:-0.481447 7:-0.800606 
0.5 0.3192865759319536 1:-0.738182 2:-0.694335 3:-0.673035 4:-0.707443 5:-0.68937 6:-0.707499 7:-0.914999 
0.5 0.5 1:-0.371292 2:-0.232066 3:-0.443277 4:-0.421577 5:-0.222713 6:-0.421643 7:-0.763236 
0.1340759729490218 0 1:-0.719625 2:-0.634424 3:-0.666127 4:-0.667578 5:-0.633952 6:-0.667637 7:-0.89791 
0 0.5 1:-0.300893 2:-0.445885 3:-0.620792 4:-0.627702 5:-0.396642 6:-0.627753 7:-0.879497 
-0.4206686138424136 0.5 1:0.278811 2:0.704889 3:-0.0543725 4:0.109024 5:0.706808 6:0.109058 7:-0.30158 
-0.5 0.5 1:-0.375503 2:-0.194162 3:-0.611687 4:-0.421219 5:-0.190436 6:-0.421219 7:-0.763007 
-0.5 0.5 1:-0.751908 2:-0.592129 3:-0.716302 4:-0.671825 5:-0.602753 6:-0.671877 7:-0.899793 
-0.3626424264093729 0.4391418471763098 1:0.744958 2:0.916515 3:0.836012 4:0.69802 5:0.972504 6:0.698022 7:0.484897 
-0.5 0.5 1:-0.687537 2:-0.417308 3:0.00346161 4:-0.111404 5:-0.439258 6:-0.111562 7:-0.521725 
0 0.5 1:-0.476227 2:0.0135477 3:-0.265002 4:-0.145319 5:-0.0271217 6:-0.145388 7:-0.552042 
-0.5 0.5 1:-0.428907 2:-0.640575 3:-0.778648 4:-0.799551 5:-0.588553 6:-0.79958 7:-0.949434 
-0.5 0.5 1:-0.403437 2:-0.240471 3:-0.0592307 4:-0.185387 5:-0.235645 6:-0.185519 7:-0.5866 
-0.2627837085796065 0.4729142216628479 1:-0.232054 2:0.649811 3:-0.0929386 4:0.321958 5:0.569647 6:0.322005 7:-0.0504781 
-0.5 0.5 1:0.073973 2:0.000613322 3:-0.207748 4:-0.23774 5:0.0576734 6:-0.237814 7:-0.629767 
-0.5 0.5 1:-0.669481 2:-0.188235 3:-0.53861 4:-0.362389 5:-0.2366 6:-0.362449 7:-0.723324 
-0.5 0.5 1:-0.0854186 2:-0.0847234 3:-0.43425 4:-0.406764 5:-0.044477 6:-0.406814 7:-0.753529 
-0.2448607878800503 0.5 1:-0.713935 2:-0.178452 3:-0.588657 4:-0.355653 5:-0.235841 6:-0.355708 7:-0.718598 
-0.5 0.5 1:-0.439719 2:-0.355198 3:-0.44608 4:-0.460304 5:-0.341898 6:-0.460384 7:-0.787772 
-0.1017919641467526 0.5 1:-0.133679 2:0.262538 3:0.0804603 4:0.140757 5:0.249536 6:0.140671 7:-0.26651 
-0.06809407275689867 0.5 1:0.386869 2:0.300874 3:-0.256811 4:-0.268453 5:0.373807 6:-0.268474 7:-0.654038 
-0.5 0.5 1:0.171266 2:-0.0918282 3:-0.554337 4:-0.550434 5:-0.00584993 6:-0.550462 7:-0.840062 
-0.06346775002021972 0.5 1:0.0207197 2:0.0220128 3:-0.149108 4:-0.182674 5:0.0670132 6:-0.182747 7:-0.584317 
-0.5 0.5 1:-0.21649 2:-0.185229 3:-0.281076 4:-0.329718 5:-0.154894 6:-0.329806 7:-0.700054 
-0.333855504945289 0.5 1:1 2:0.391506 3:-2.82289e-005 4:-0.0562119 5:0.559788 6:-0.0562359 7:-0.470426 
0 0.5 1:-0.181473 2:0.0968259 3:0.13479 4:0.114933 5:0.0968687 6:0.114813 7:-0.295075 
-0.5 0.5 1:0.666645 2:0.196749 3:-0.53754 4:-0.43669 5:0.331968 6:-0.436694 7:-0.772977 
-0.3750442621167784 0.5 1:0.182327 2:0.861918 3:0.941027 4:1 5:0.826723 6:1 7:1 
-0.2428334202811114 0.2638867257392865 1:0.809137 2:0.389818 3:-0.182423 4:-0.172691 5:0.524995 6:-0.172699 7:-0.575831 
-0.3526042029001648 0.49560501862387 1:0.0912722 2:0.517049 3:0.448718 4:0.428829 5:0.51047 6:0.428769 7:0.0897344 
-0.1933330644569543 0.4186307064015336 1:-0.303149 2:0.367447 3:0.0144715 4:0.213376 5:0.311316 6:0.213323 7:-0.183201 
-0.1522701973839321 0.5 1:0.362475 2:0.0243689 3:-0.446115 4:-0.420238 5:0.128733 6:-0.420278 7:-0.762377 
-0.5 0.5 1:-0.507707 2:-0.401386 3:-0.628423 4:-0.569755 5:-0.393994 6:-0.569805 7:-0.850381 
-0.3459725275020922 0.4191556200421952 1:0.0263111 2:0.779641 3:0.213178 4:0.433873 5:0.727828 6:0.433898 7:0.0965736 
-0.5 0.5 1:-0.573094 2:-0.222381 3:-0.500779 4:-0.343711 5:-0.24951 6:-0.343749 7:-0.710131 
-0.5 0.5 1:-0.289539 2:-0.0765013 3:-0.208436 4:-0.181028 5:-0.0729536 6:-0.181114 7:-0.582911 
-0.4386014166312059 0.3633545566582847 1:-0.361324 2:0.721673 3:-0.0109009 4:0.474743 5:0.609664 6:0.474861 7:0.152878 
-0.5 0.5 1:-0.55038 2:-0.432884 3:-0.571536 4:-0.547894 5:-0.428877 6:-0.547959 7:-0.838671 
-0.5 0.5 1:-0.299354 2:-0.138368 3:-0.31492 4:-0.296094 5:-0.128549 6:-0.296187 7:-0.675172 
-0.0879785884134542 0.4713499034740145 1:-0.326975 2:0.155638 3:-0.0409246 4:0.0640234 5:0.122686 6:0.0639567 7:-0.349773 
-0.5 0.5 1:-0.219426 2:-0.498892 3:-0.792579 4:-0.780104 5:-0.428583 6:-0.780126 7:-0.942753 
-0.322875117978533 0.5 1:-0.237251 2:0.00974028 3:0.256105 4:0.151774 5:0.0112854 6:0.151641 7:-0.254139 
-0.3955640406941512 0.4748379981409082 1:-0.262742 2:0.353298 3:0.539071 4:0.51506 5:0.306048 6:0.514946 7:0.209824 
-0.5 0.5 1:-0.251776 2:-0.190014 3:-0.403063 4:-0.410553 5:-0.165222 6:-0.410622 7:-0.756025 
-0.110189365928836 0.5 1:0.524693 2:0.913036 3:0.893678 4:0.787436 5:0.931017 6:0.787433 7:0.629537 
-0.1036800386398303 0.3097432835517991 1:0.521273 2:0.217626 3:-0.329876 4:-0.351094 5:0.32477 6:-0.351121 7:-0.715401 
-0.5 0.5 1:-0.345478 2:-0.125276 3:-0.280879 4:-0.24028 5:-0.125199 6:-0.240348 7:-0.631796 
-0.5 0.5 1:-0.49673 2:-0.167176 3:-0.500233 4:-0.371378 5:-0.188098 6:-0.371429 7:-0.729576 
-0.5 0.5 1:-0.570713 2:-0.490712 3:-0.698643 4:-0.629126 5:-0.482791 6:-0.629165 7:-0.880177 
-0.4047717862575996 0.5 1:0.0707905 2:0.435647 3:0.874198 4:0.667355 5:0.436 6:0.667206 7:0.436941 
-0.279905850067241 0.2004036946089416 1:0.51908 2:0.411903 3:-0.239418 4:-0.264845 5:0.493588 6:-0.264855 7:-0.651234 
0 0.04482936589175076 1:-0.226408 2:0.263297 3:0.136081 4:0.193224 5:0.234008 6:0.193145 7:-0.206754 
-0.2680519369929347 0.4597485880386959 1:-0.234925 2:0.300728 3:0.308027 4:0.309705 5:0.26512 6:0.3096 7:-0.0659214 
-0.3085224456435631 0.4503114752703177 1:-0.600938 2:0.0885005 3:-0.275759 4:-0.0248861 5:0.0163831 6:-0.0249474 7:-0.440117 
-0.2762066423640014 0.4798791396913608 1:0.485992 2:1 3:1 4:0.903777 5:1 6:0.903777 7:0.827632 
-0.5 -0.5 1:-1 2:-0.941328 3:-0.946695 4:-0.936549 5:-0.950193 6:-0.936562 7:-0.987605 
-0.1741586563393409 -0.5 1:-0.432611 2:-0.0468857 3:-0.302744 4:-0.223555 5:-0.0721399 6:-0.223633 7:-0.61829 
-0.5 -0.5 1:-0.413945 2:-0.663019 3:-0.850414 4:-0.854402 5:-0.605487 6:-0.854421 7:-0.96659 
-0.5 -0.1192795234534576 1:-0.961475 2:-0.837275 3:-0.923279 4:-0.876036 5:-0.852846 6:-0.876059 7:-0.972667 
-0.5 0 1:-0.879683 2:-0.850064 3:-0.908067 4:-0.898572 5:-0.849703 6:-0.89859 7:-0.978586 
-0.4834457031367838 -0.5 1:0.486902 2:0.303121 3:0.326283 4:0.152522 5:0.393229 6:0.152437 7:-0.253316 
-0.133914118123553 -0.5 1:0.125233 2:0.283428 3:-0.108355 4:-0.0861064 5:0.312933 6:-0.0861599 7:-0.498542 
-0.5 -0.5 1:-0.616557 2:-0.509998 3:-0.630965 4:-0.617208 5:-0.507592 6:-0.617269 7:-0.87443 
-0.5 -0.1590259258079007 1:-0.987125 2:-0.915744 3:-0.930706 4:-0.912622 5:-0.925664 6:-0.912639 7:-0.982063 
-0.5 -0.5 1:-0.930022 2:-0.947084 3:-0.991348 4:-0.98271 5:-0.94299 6:-0.982712 7:-0.996954 
-0.5 -0.1574999775818201 1:-0.574122 2:-0.453986 3:-0.658783 4:-0.594167 5:-0.4514 6:-0.594218 7:-0.862986 
-0.5 0 1:-0.357393 2:-0.419142 3:-0.546209 4:-0.597379 5:-0.383215 6:-0.597436 7:-0.86461 
-0.5 -0.5 1:-0.829866 2:-0.679148 3:-0.729801 4:-0.703574 5:-0.69215 6:-0.703626 7:-0.913399 
-0.5 -0.5 1:-0.0961064 2:0.535697 3:0.688404 4:0.742465 5:0.493997 6:0.742334 7:0.556055 
-0.5 0 1:-0.438762 2:-0.377005 3:-0.516447 4:-0.525113 5:-0.360723 6:-0.525183 7:-0.826048 
-0.5 -0.193500111975693 1:-0.244622 2:-0.342914 3:-0.583692 4:-0.561919 5:-0.297137 6:-0.561971 7:-0.846231 
-0.5 -0.5 1:-0.0647462 2:-0.243118 3:-0.487498 4:-0.4813 5:-0.178818 6:-0.481354 7:-0.800558 
-0.5 -0.5 1:-0.502483 2:-0.428597 3:-0.531693 4:-0.54279 5:-0.416781 6:-0.542861 7:-0.83588 
-0.5 -0.5 1:-0.388075 2:-0.583961 3:-0.708574 4:-0.737574 5:-0.532117 6:-0.737615 7:-0.927041 
-0.5 -0.4857368536187366 1:-0.690281 2:-0.712698 3:-0.814182 4:-0.812721 5:-0.697 6:-0.812753 7:-0.953781 
-0.365887227136428 -0.5 1:-0.349463 2:0.139783 3:0.0729166 4:0.117809 5:0.104952 6:0.11771 7:-0.291912 
-0.5 0 1:-0.414767 2:-0.386453 3:-0.599797 4:-0.57757 5:-0.364763 6:-0.57762 7:-0.854471 
-0.5 0 1:-0.472319 2:-0.425828 3:-0.68201 4:-0.628062 5:-0.409103 6:-0.628104 7:-0.879669 
-0.3667995251717007 -0.5 1:-0.0272898 2:0.439819 3:0.130423 4:0.214584 5:0.422509 6:0.214552 7:-0.181786 
0 -0.5 1:-0.418392 2:-0.218081 3:-0.360344 4:-0.323247 5:-0.218756 6:-0.323316 7:-0.695337 
-0.5 0 1:-0.238053 2:-0.1828 3:-0.318365 4:-0.334901 5:-0.156543 6:-0.334979 7:-0.703806 
-0.3777396555521995 -0.5 1:-0.565109 2:-0.176643 3:-0.372038 4:-0.253544 5:-0.208282 6:-0.253614 7:-0.642332 
-0.5 -0.08112170287076136 1:-0.121733 2:-0.190373 3:-0.436856 4:-0.438749 5:-0.14283 6:-0.438808 7:-0.774274 
-0.2787646031096082 -0.5 1:0.23211 2:0.285614 3:-0.0963399 4:-0.087128 5:0.333497 6:-0.087155 7:-0.49948 
0 -0.5 1:-0.275152 2:-0.029488 3:-0.19215 4:-0.192247 5:-0.0294969 6:-0.192327 7:-0.592392 
-0.5 0 1:-0.501474 2:-0.506877 3:-0.711387 4:-0.687177 5:-0.484781 6:-0.687221 7:-0.906479 
-0.2084117757956571 -0.5 1:-0.166907 2:0.113307 3:0.160285 4:0.0799463 5:0.113765 6:0.0798365 7:-0.332893 
-0.5 -0.5 1:0.354329 2:0.89483 3:0.931292 4:0.80091 5:0.885418 6:0.800864 7:0.651924 
-0.08269092614688274 0 1:-0.377172 2:-0.403499 3:-0.53949 4:-0.557539 5:-0.373044 6:-0.557599 7:-0.843885 
-0.5 0 1:-0.485366 2:-0.48062 3:-0.651602 4:-0.642616 5:-0.459101 6:-0.642667 7:-0.886539 
-0.5 0 1:-0.490864 2:-0.530542 3:-0.710231 4:-0.694041 5:-0.503539 6:-0.694085 7:-0.909403 
-0.5 -0.06716826421305457 1:-0.426848 2:-0.350547 3:-0.506422 4:-0.489778 5:-0.3356 6:-0.489839 7:-0.80561 
-0.007418057132596493 -0.5 1:-0.219656 2:-0.0171426 3:-0.336806 4:-0.259411 5:-0.00905586 6:-0.259467 7:-0.646958 
-0.2646559360606017 -0.5 1:0.17462 2:0.0715583 3:-0.302703 4:-0.290107 5:0.137033 6:-0.290157 7:-0.670651 
-0.5 -0.5 1:-0.41603 2:-0.258955 3:-0.447661 4:-0.41475 5:-0.253942 6:-0.414821 7:-0.758781 
-0.5 0 1:-0.847648 2:-0.814163 3:-0.89478 4:-0.876619 5:-0.812844 6:-0.876641 7:-0.972826 
-0.5 -0.5 1:0.655188 2:-0.0394105 3:-0.527529 4:-0.583885 5:0.124291 6:-0.583906 7:-0.857748 
-0.1775724969849807 -0.5 1:0.110479 2:0.50007 3:0.0731379 4:0.171194 5:0.499037 6:0.171168 7:-0.232149 
-0.02015656950062604 -0.5 1:0.0582703 2:0.322929 3:0.237993 4:0.188783 5:0.335645 6:0.188667 7:-0.211916 
-0.5 -0.5 1:0.03836 2:-0.11412 3:-0.472401 4:-0.459879 5:-0.0484689 6:-0.459916 7:-0.787518 
-0.5 -0.5 1:-0.447096 2:-0.539887 3:-0.793549 4:-0.759382 5:-0.504037 6:-0.759411 7:-0.935285 
-0.5 -0.5 1:-0.846137 2:-0.640867 3:-0.798416 4:-0.662947 5:-0.661651 6:-0.662977 7:-0.89584 
-0.5 -0.5 1:-0.348556 2:-0.151521 3:-0.499048 4:-0.375098 5:-0.148594 6:-0.375141 7:-0.732147 
-0.4063240810424211 -0.5 1:0.439663 2:0.0844319 3:-0.271242 4:-0.306752 5:0.194519 6:-0.306796 7:-0.683173 
-0.5 0 1:-0.213151 2:-0.364629 3:-0.427153 4:-0.477785 5:-0.310555 6:-0.47786 7:-0.798443 
-0.5 -0.4953545524918978 1:-0.256768 2:-0.0515615 3:-0.338126 4:-0.299683 5:-0.0455115 6:-0.299749 7:-0.677873 
-0.5 0 1:-0.951432 2:-0.884222 3:-0.922213 4:-0.901674 5:-0.891979 6:-0.901694 7:-0.979368 
-0.5 -0.5 1:-0.420234 2:-0.232212 3:-0.317445 4:-0.328578 5:-0.231385 6:-0.32868 7:-0.699221 
-0.2038744673263931 0 1:-0.38361 2:-0.152517 3:-0.342397 4:-0.323055 5:-0.155581 6:-0.323132 7:-0.695194 
-0.5 -0.5 1:-0.51052 2:-0.265332 3:-0.527238 4:-0.444788 5:-0.275992 6:-0.444851 7:-0.77809 
-0.5 -0.5 1:-0.388833 2:-0.247709 3:-0.458763 4:-0.429213 5:-0.239399 6:-0.429281 7:-0.768173 
-0.5 -0.2348347843526541 1:-0.492473 2:-0.510059 3:-0.532422 4:-0.582197 5:-0.485981 6:-0.58227 7:-0.856868 
-0.353962196601858 -0.5 1:-0.216364 2:-0.0909599 3:-0.209893 4:-0.231734 5:-0.0727704 6:-0.231818 7:-0.624924 
-0.5 -0.5 1:-0.33459 2:-0.385622 3:-0.716032 4:-0.617839 5:-0.35004 6:-0.617866 7:-0.874741 
-0.5 -0.5 1:-0.129955 2:-0.0586542 3:-0.217492 4:-0.254636 5:-0.0295484 6:-0.254718 7:-0.643201 
-0.5 -0.5 1:-0.595487 2:-0.423781 3:-0.689069 4:-0.592002 5:-0.428824 6:-0.592046 7:-0.861889 
-0.5 -0.5 1:-0.540938 2:-0.415954 3:-0.558033 4:-0.544788 5:-0.412484 6:-0.544852 7:-0.836975 
-0.5 -0.5 1:-0.296406 2:-0.241145 3:-0.248646 4:-0.304977 5:-0.217545 6:-0.305071 7:-0.681832 
-0.5 0 1:-0.538443 2:-0.535576 3:-0.699692 4:-0.673241 5:-0.51623 6:-0.673289 7:-0.90042 
0 -0.5 1:0.193496 2:0.108734 3:-0.129488 4:-0.183824 5:0.172706 6:-0.183891 7:-0.585298 
-0.5 -0.2702704486061404 1:-0.382662 2:-0.214906 3:-0.293667 4:-0.311026 5:-0.209752 6:-0.31112 7:-0.686334 
-0.3998431406397884 -0.5 1:-0.0245122 2:-0.16573 3:-0.511359 4:-0.475688 5:-0.104394 6:-0.475738 7:-0.79718 
