svm_type c_svc
kernel_type rbf
gamma 2
nr_class 3
total_sv 163
rho 0.292307 -0.20586 -0.531347
label 1 3 2
nr_sv 54 45 64
SV
0 2 1:-0.668424 2:-0.482086 3:-0.615179 4:-0.542124 5:-0.486437 6:-0.54218 7:-0.830132 
0 2 1:-0.351705 2:-0.403872 3:-0.654885 4:-0.60618 5:-0.353964 6:-0.60622 7:-0.86419 
2 2 1:-0.164634 2:0.717046 3:0.777748 4:0.986837 5:0.651568 6:0.986848 7:0.976227 
0.6576049019117307 0 1:-0.823662 2:-0.635956 3:-0.789174 4:-0.643299 5:-0.651052 6:-0.643319 7:-0.88239 
1.1391884124282 1.078740876828709 1:-0.783288 2:-0.523237 3:-0.645487 4:-0.569443 5:-0.545513 6:-0.5695 7:-0.845064 
0 2 1:-0.487829 2:-0.431056 3:-0.587383 4:-0.547148 5:-0.405351 6:-0.547201 7:-0.832927 
2 2 1:-0.114783 2:-0.0133288 3:-0.372695 4:-0.315638 5:0.0316182 6:-0.315666 7:-0.682896 
0 2 1:-0.936099 2:-0.859253 3:-0.885902 4:-0.86277 5:-0.866788 6:-0.862794 7:-0.967038 
0 2 1:-0.573234 2:-0.44649 3:-0.506824 4:-0.495553 5:-0.436192 6:-0.495619 7:-0.803272 
0.9028421885703609 2 1:-0.993474 2:-1 3:-1 4:-1 5:-1 6:-1 7:-1 
0 0.3124463399759017 1:-0.940777 2:-0.962188 3:-0.951669 4:-0.958081 5:-0.956562 6:-0.958089 7:-0.991561 
0 1.495022930749934 1:-0.625359 2:-0.635867 3:-0.799942 4:-0.768165 5:-0.610285 6:-0.768197 7:-0.93537 
0 2 1:-0.872141 2:-0.784169 3:-0.840444 4:-0.792027 5:-0.78888 6:-0.792052 7:-0.944045 
2 2 1:-0.635075 2:-0.294956 3:0.196927 4:0.0733556 5:-0.318136 6:0.0731967 7:-0.332295 
2 2 1:-0.781894 2:-0.465053 3:-0.643211 4:-0.500014 5:-0.495024 6:-0.500061 7:-0.805922 
2 2 1:-0.372396 2:0.669546 3:0.32604 4:0.572326 5:0.567952 6:0.572288 7:0.298081 
0 2 1:-0.472648 2:-0.452857 3:-0.662668 4:-0.654479 5:-0.421046 6:-0.654518 7:-0.887653 
2 0 1:-0.286146 2:-0.554707 3:-0.836729 4:-0.815619 5:-0.470654 6:-0.815629 7:-0.952169 
1.095002028757472 2 1:-0.665479 2:-0.484302 3:-0.724595 4:-0.59885 5:-0.487745 6:-0.598881 7:-0.860462 
0 0.7834783602080826 1:-0.562829 2:-0.640431 3:-0.79574 4:-0.790153 5:-0.601392 6:-0.790178 7:-0.943381 
0.7049092781855302 2 1:-0.388711 2:-0.307749 3:-0.34564 4:-0.382602 5:-0.278621 6:-0.382678 7:-0.730779 
0 2 1:-0.593125 2:-0.420569 3:-0.701886 4:-0.501448 5:-0.417908 6:-0.501447 7:-0.806776 
0 0.9990082617449791 1:-0.943139 2:-0.915666 3:-0.980836 4:-0.95652 5:-0.916907 6:-0.956526 7:-0.99122 
2 2 1:-0.59734 2:-0.288659 3:-0.428238 4:-0.325907 5:-0.304959 6:-0.325979 7:-0.690463 
0 2 1:-0.789897 2:-0.679475 3:-0.824608 4:-0.774819 5:-0.681673 6:-0.774849 7:-0.937835 
2 2 1:-0.418861 2:-0.109179 3:-0.2339 4:-0.190301 5:-0.113478 6:-0.190374 7:-0.583409 
0 2 1:-0.929956 2:-0.869366 3:-0.918429 4:-0.893894 5:-0.874253 6:-0.893911 7:-0.975861 
0 2 1:-0.623137 2:-0.396463 3:-0.591939 4:-0.515016 5:-0.403268 6:-0.515075 7:-0.814714 
2 2 1:-0.264382 2:-0.158088 3:-0.321189 4:-0.315401 5:-0.12398 6:-0.315467 7:-0.682713 
2 2 1:-0.446965 2:-0.0314348 3:-0.354133 4:-0.191537 5:-0.0521659 6:-0.191578 7:-0.584456 
2 2 1:-0.672355 2:-0.334178 3:-0.638641 4:-0.494386 5:-0.359626 6:-0.49443 7:-0.802577 
0 0.9309682907850307 1:-0.666024 2:-0.580666 3:-0.713498 4:-0.683779 5:-0.571001 6:-0.68382 7:-0.900958 
0 2 1:-0.664008 2:-0.405288 3:-0.575398 4:-0.476024 5:-0.419268 6:-0.476071 7:-0.791482 
2 2 1:-0.362538 2:-0.120924 3:-0.350962 4:-0.282906 5:-0.112055 6:-0.282968 7:-0.658145 
0 1.620104333044854 1:-0.843373 2:-0.790504 3:-0.80692 4:-0.800166 5:-0.788444 6:-0.800201 7:-0.946897 
0.9837367681394446 0.3414951999338848 1:-0.115087 2:-0.387036 3:-0.67959 4:-0.663519 5:-0.290884 6:-0.663548 7:-0.891836 
0 2 1:-0.404591 2:-0.268642 3:-0.618871 4:-0.496408 5:-0.248137 6:-0.496442 7:-0.803786 
0 2 1:-0.861986 2:-0.70339 3:-0.84081 4:-0.769763 5:-0.717099 6:-0.769793 7:-0.935963 
2 2 1:-0.761566 2:-0.266934 3:-0.324521 4:-0.199739 5:-0.319913 6:-0.199833 7:-0.591335 
2 2 1:-0.261 2:-0.225941 3:-0.326676 4:-0.359675 5:-0.18183 6:-0.359743 7:-0.714795 
1.614206171028571 2 1:-0.403787 2:-0.634502 3:-0.84023 4:-0.84085 5:-0.563642 6:-0.840867 7:-0.960352 
2 1.064878582604886 1:-0.794531 2:-0.610269 3:-0.792111 4:-0.674919 5:-0.622912 6:-0.674946 7:-0.897008 
1.184001872422649 2 1:-0.155741 2:-0.249374 3:-0.506822 4:-0.497366 5:-0.18045 6:-0.497412 7:-0.804357 
2 2 1:-0.419188 2:-0.230373 3:-0.337295 4:-0.333988 5:-0.218113 6:-0.33407 7:-0.696374 
0 2 1:-0.593793 2:-0.50755 3:-0.544166 4:-0.553494 5:-0.493094 6:-0.55356 7:-0.836422 
2 2 1:-0.349637 2:-0.246371 3:-0.416673 4:-0.388841 5:-0.217645 6:-0.388907 7:-0.735056 
0 0.9054863016527573 1:-0.605349 2:-0.509791 3:-0.563878 4:-0.553455 5:-0.497399 6:-0.553521 7:-0.836401 
0 2 1:-0.328004 2:-0.332045 3:-0.615219 4:-0.565086 5:-0.287127 6:-0.565123 7:-0.842729 
1.953237905372198 1.01285649057164 1:1 2:0.0908952 3:-0.580956 4:-0.572679 5:0.350291 6:-0.572668 7:-0.846808 
0 2 1:-0.706668 2:-0.613691 3:-0.782427 4:-0.733385 5:-0.607836 6:-0.733421 7:-0.92189 
2 2 1:-0.577043 2:-0.283446 3:-0.566845 4:-0.424054 5:-0.296297 6:-0.424106 7:-0.758591 
0.9940407806013061 0 1:-0.769272 2:-0.68044 3:-0.661403 4:-0.675101 5:-0.678273 6:-0.675155 7:-0.897088 
2 2 1:-0.445949 2:-0.197157 3:-0.423471 4:-0.357633 5:-0.194945 6:-0.35769 7:-0.713348 
0 2 1:-0.38391 2:-0.420696 3:-0.607301 4:-0.586544 5:-0.375088 6:-0.58659 7:-0.854106 
-0.3177926307124594 1.85385349593071 1:0.126956 2:0.782391 3:-0.0207305 4:0.231626 5:0.767781 6:0.231696 7:-0.154417 
-2 2 1:-0.781368 2:-0.573588 3:-0.706209 4:-0.635546 5:-0.588561 6:-0.635594 7:-0.878679 
-2 0 1:-0.724641 2:-0.390819 3:0.0391612 4:-0.0131701 5:-0.419226 6:-0.0133198 7:-0.420947 
0 2 1:-0.538424 2:0.0596223 3:-0.238853 4:-0.0508338 5:0.00763284 6:-0.0508868 7:-0.457653 
-2 2 1:-0.496723 2:-0.624236 3:-0.770773 4:-0.777392 5:-0.573854 6:-0.777418 7:-0.93878 
-0.4044827854604816 2 1:-0.474277 2:-0.205944 3:-0.0257615 4:-0.0953312 5:-0.208339 6:-0.0954553 7:-0.499493 
-2 2 1:-0.708729 2:-0.151333 3:-0.522195 4:-0.291901 5:-0.209329 6:-0.29195 7:-0.665026 
-2 2 1:-0.506251 2:-0.325886 3:-0.426373 4:-0.400641 5:-0.318389 6:-0.400714 7:-0.743054 
0 2 1:-0.236552 2:0.319932 3:0.118899 4:0.266867 5:0.294174 6:0.266805 7:-0.111957 
0 2 1:0.222182 2:0.36001 3:-0.230371 4:-0.18758 5:0.422884 6:-0.187584 7:-0.58114 
0 2 1:0.028274 2:0.513956 3:0.0571437 4:0.181322 5:0.515922 6:0.181332 7:-0.213172 
-2 2 1:0.0321812 2:-0.0505439 3:-0.538482 4:-0.500735 5:0.0296645 6:-0.500753 7:-0.806361 
-2 2 1:-0.30953 2:-0.148191 3:-0.255499 4:-0.255618 5:-0.124704 6:-0.255698 7:-0.636852 
-0.5466491224741905 0.6982030138233886 1:0.762505 2:0.454762 3:0.0355472 4:0.0481237 5:0.615509 6:0.0481238 7:-0.358839 
0 2 1:-0.141857 2:0.292296 3:0.0299193 4:0.103703 5:0.289761 6:0.10364 7:-0.299794 
-2 2 1:-0.307479 2:-0.154406 3:-0.128905 4:-0.129682 5:-0.129646 6:-0.129798 7:-0.530701 
-1.442333464402819 0.3216498079731938 1:0.387686 2:0.0851942 3:-0.492304 4:-0.385042 5:0.219729 6:-0.385061 7:-0.732468 
-0.4160849126465348 0 1:-0.431609 2:0.385652 3:0.156495 4:0.482844 5:0.310854 6:0.482816 7:0.170088 
-0.01894381462068492 0.6420328381947889 1:-0.0383134 2:0.586012 3:0.500258 4:0.586786 5:0.56443 6:0.58676 7:0.319352 
0 2 1:-0.385898 2:0.429609 3:0.0505628 4:0.347514 5:0.358161 6:0.34749 7:-0.0110931 
0 2 1:0.200685 2:0.0709354 3:-0.426409 4:-0.356146 5:0.169055 6:-0.356174 7:-0.712308 
-2 2 1:-0.220497 2:-0.19917 3:-0.374826 4:-0.37559 5:-0.15042 6:-0.375654 7:-0.725939 
-2 2 1:-0.566166 2:-0.374173 3:-0.615203 4:-0.522192 5:-0.372346 6:-0.522235 7:-0.818855 
-0.7602401249893177 0.282606146478603 1:-0.0955605 2:0.860542 3:0.256339 4:0.592387 5:0.789552 6:0.592456 7:0.327632 
-2 2 1:-0.623788 2:-0.187031 3:-0.483019 4:-0.271159 5:-0.2227 6:-0.271182 7:-0.649053 
0 2 1:-0.373904 2:-0.0345202 3:-0.180275 4:-0.0904908 5:-0.0398363 6:-0.0905635 7:-0.495026 
-1.173271793250685 0 1:-0.437165 2:0.799938 3:0.0242876 4:0.637776 5:0.667167 6:0.637949 7:0.395801 
-2 2 1:-0.603772 2:-0.407103 3:-0.556293 4:-0.497913 5:-0.408475 6:-0.497974 7:-0.804678 
-2 2 1:-0.382554 2:-0.0991991 3:-0.290548 4:-0.218277 5:-0.0974173 6:-0.218361 7:-0.606728 
-2 2 1:-0.312117 2:-0.476112 3:-0.785199 4:-0.755794 5:-0.40817 6:-0.755813 7:-0.93069 
-2 2 1:-0.849904 2:-0.587897 3:-0.761104 4:-0.605297 5:-0.614971 6:-0.605331 7:-0.863741 
-0.4833223136079339 0 1:-0.350289 2:0.414817 3:0.593825 4:0.682549 5:0.352704 6:0.682466 7:0.464745 
-2 2 1:-0.503691 2:-0.18606 3:-0.305795 4:-0.227944 5:-0.197219 6:-0.228014 7:-0.61463 
-2 2 1:-0.340626 2:-0.153193 3:-0.381826 4:-0.34539 5:-0.135401 6:-0.34545 7:-0.704618 
0 2 1:-0.203967 2:0.0690499 3:0.0556923 4:0.0361157 5:0.0843958 6:0.0360194 7:-0.371232 
-1.060449527136489 2 1:0.34364 2:1 3:0.961048 4:0.985037 5:1 6:0.985084 7:0.972896 
-0.3604286618919726 2 1:-0.423201 2:-0.0855117 3:-0.255296 4:-0.156293 5:-0.0939481 6:-0.156347 7:-0.554212 
-2 2 1:-0.556492 2:-0.129317 3:-0.482453 4:-0.301883 5:-0.159094 6:-0.301923 7:-0.672595 
-2 2 1:-0.62169 2:-0.467561 3:-0.687922 4:-0.588126 5:-0.464315 6:-0.588159 7:-0.85493 
0 2 1:-0.0492247 2:0.249736 3:0.0370848 4:0.106319 5:0.272047 6:0.106267 7:-0.296956 
-1.646643453556423 1.906746000142311 1:-0.0563629 2:0.500909 3:0.940875 4:0.851681 5:0.487298 6:0.851562 7:0.739718 
0 1.527847837465714 1:0.338693 2:0.476087 3:-0.212359 4:-0.183573 5:0.546944 6:-0.183564 7:-0.577746 
-0.5981277026674725 1.989062933542405 1:-0.325775 2:0.359858 3:0.354562 4:0.454492 5:0.310315 6:0.454413 7:0.130898 
-2 2 1:-0.393696 2:-0.00875781 3:-0.354787 4:-0.225485 5:-0.0216693 6:-0.225539 7:-0.612632 
0 1.623736935228398 1:-0.501991 2:-0.191932 3:-0.0426478 4:-0.0412906 5:-0.201937 6:-0.0414042 7:-0.44846 
-2 -1.041411338533093 1:-1 2:-0.93866 3:-0.944798 4:-0.929534 5:-0.948414 6:-0.929547 7:-0.984993 
-2 -1.598869829875224 1:-0.483537 2:-0.6477 3:-0.845092 4:-0.838306 5:-0.591394 6:-0.838323 7:-0.95955 
-2 0 1:-0.96605 2:-0.829878 3:-0.920549 4:-0.862331 5:-0.847589 6:-0.862354 7:-0.966908 
-2 0 1:-0.89397 2:-0.843248 3:-0.904796 4:-0.887359 5:-0.844334 6:-0.887376 7:-0.974074 
-2 -2 1:-0.452498 2:-0.209067 3:-0.344804 4:-0.294808 5:-0.206565 6:-0.294883 7:-0.667241 
-0.31668700626263 -0.8973666992283417 1:0.310336 2:0.362359 3:0.373467 4:0.279933 5:0.442999 6:0.279872 7:-0.0959822 
0 -2 1:-0.00838536 2:0.341771 3:-0.0766333 4:0.0149244 5:0.359836 6:0.0148908 7:-0.39288 
-2 -0.948158571593776 1:-0.66209 2:-0.487724 3:-0.617837 4:-0.57489 5:-0.490001 6:-0.574947 7:-0.847971 
-2 0 1:-0.988654 2:-0.911914 3:-0.928241 4:-0.902962 5:-0.923009 6:-0.902979 7:-0.978283 
-2 0 1:-0.624694 2:-0.429165 3:-0.646643 4:-0.549302 5:-0.431802 6:-0.549347 7:-0.834116 
-2 -0.3131941060726768 1:-0.850069 2:-0.664562 3:-0.720188 4:-0.670804 5:-0.681153 6:-0.670853 7:-0.895151 
-2 0 1:-0.696453 2:-0.601464 3:-0.704152 4:-0.658754 5:-0.59519 6:-0.658794 7:-0.889636 
-2 -2 1:-0.203441 2:0.605508 3:0.748471 4:0.935095 5:0.547368 6:0.934998 7:0.883931 
-2 0 1:-0.796325 2:-0.704729 3:-0.815099 4:-0.777872 5:-0.704782 6:-0.777902 7:-0.938954 
-2 -0.9785797468205004 1:-0.334321 2:-0.313043 3:-0.568881 4:-0.513489 5:-0.272028 6:-0.513535 7:-0.813831 
-2 -2 1:-0.144727 2:-0.141258 3:-0.443551 4:-0.404468 5:-0.0849057 6:-0.404513 7:-0.745631 
-2 -0.216386790648326 1:-0.175805 2:-0.208711 3:-0.469265 4:-0.423957 5:-0.149483 6:-0.424004 7:-0.758533 
-2 0 1:-0.561562 2:-0.402621 3:-0.515032 4:-0.492245 5:-0.395946 6:-0.492311 7:-0.801298 
-2 -2 1:-0.46074 2:-0.565049 3:-0.698206 4:-0.708563 5:-0.515403 6:-0.708601 7:-0.911668 
-0.4041206581947524 -2 1:-0.426712 2:0.191596 3:0.111087 4:0.241382 5:0.144424 6:0.241304 7:-0.142711 
-2 0 1:-0.53498 2:-0.399726 3:-0.670697 4:-0.586944 5:-0.387994 6:-0.58698 7:-0.854315 
-1.798286651005345 -2 1:-0.142796 2:0.505271 3:0.170639 4:0.348857 5:0.473326 6:0.348855 7:-0.00938056 
-2 -2 1:-0.487456 2:-0.182536 3:-0.337588 4:-0.248432 5:-0.190847 6:-0.24849 7:-0.631142 
-1.088270468129408 -2 1:-0.616751 2:-0.139214 3:-0.349697 4:-0.171024 5:-0.179999 6:-0.17108 7:-0.566967 
-2 0 1:-0.226025 2:-0.153568 3:-0.416821 4:-0.376703 5:-0.112209 6:-0.376752 7:-0.726712 
0 -0.5795428547318441 1:0.0734377 2:0.384128 3:0.214609 4:0.178034 5:0.413172 6:0.177969 7:-0.21693 
0 -2 1:0.0858 2:0.344056 3:-0.064191 4:0.0137899 5:0.381134 6:0.0137857 7:-0.394015 
0 -2 1:-0.361226 2:0.0146302 3:-0.16341 4:-0.10295 5:0.00517283 6:-0.103016 7:-0.506505 
0 -1.24370955155433 1:0.00729976 2:0.0156714 3:-0.369138 4:-0.274912 5:0.0816906 6:-0.274949 7:-0.651977 
-2 0 1:-0.560673 2:-0.48446 3:-0.701119 4:-0.652594 5:-0.466376 6:-0.652635 7:-0.886773 
0 -2 1:-0.265834 2:0.163916 3:0.201564 4:0.199334 5:0.153553 6:0.199243 7:-0.192327 
-1.595784889733479 -2 1:0.193506 2:0.980967 3:1 4:1 5:0.952772 6:1 7:1 
-2 0 1:-0.451131 2:-0.376383 3:-0.523107 4:-0.508625 5:-0.350647 6:-0.508679 7:-0.810991 
-2 0 1:-0.551323 2:-0.509201 3:-0.699922 4:-0.660217 5:-0.485803 6:-0.660258 7:-0.890314 
0 -2 1:-0.31232 2:0.0275368 3:-0.313212 4:-0.177539 5:0.0263441 6:-0.17758 7:-0.572568 
-2 0 1:-0.550811 2:-0.268832 3:-0.548659 4:-0.429447 5:-0.278305 6:-0.429501 7:-0.762108 
-2 0 1:-0.865739 2:-0.805716 3:-0.891036 4:-0.862979 5:-0.806158 6:-0.863 7:-0.9671 
-2 -2 1:-0.653194 2:-0.300232 3:-0.541277 4:-0.42003 5:-0.326405 6:-0.420079 7:-0.755953 
0 -2 1:-0.021387 2:0.568261 3:0.111316 4:0.30067 5:0.552587 6:0.300673 7:-0.0703555 
0 -2 1:-0.0673964 2:0.383068 3:0.282037 4:0.320203 5:0.383359 6:0.320107 7:-0.0458587 
-2 -2 1:-0.512752 2:-0.518971 3:-0.786204 4:-0.732782 5:-0.486319 6:-0.732807 7:-0.921649 
-2 -2 1:-0.864408 2:-0.624541 3:-0.791244 4:-0.625686 5:-0.649564 6:-0.62571 7:-0.873893 
0 -0.002873381650190112 1:-0.425914 2:-0.11295 3:-0.481226 4:-0.306015 5:-0.118179 6:-0.306045 7:-0.675708 
-2 0 1:-0.357186 2:-0.124841 3:-0.46664 4:-0.363674 5:-0.114336 6:-0.363719 7:-0.717613 
-1.341336294775045 -2 1:0.268707 2:0.133729 3:-0.245316 4:-0.230113 5:0.237192 6:-0.230143 7:-0.616415 
0 -0.4224069669679492 1:-0.345025 2:-0.00844673 3:-0.314579 4:-0.222263 5:-0.0114139 6:-0.222317 7:-0.609998 
-2 -2 1:-0.48908 2:-0.197309 3:-0.293162 4:-0.254352 5:-0.203927 6:-0.254446 7:-0.635845 
-2 0 1:-0.451704 2:-0.273759 3:-0.461147 4:-0.41236 5:-0.262219 6:-0.412421 7:-0.75089 
-2 -2 1:-0.553892 2:-0.23495 3:-0.485325 4:-0.367861 5:-0.249703 6:-0.367905 7:-0.72055 
0 -2 1:-0.456805 2:-0.113991 3:-0.319002 4:-0.248219 5:-0.125416 6:-0.248285 7:-0.630968 
0 -0.6032391711032616 1:-0.117139 2:0.218501 3:-0.100034 4:-0.00356306 5:0.231161 6:-0.00361474 7:-0.411446 
-2 -2 1:-0.568645 2:-0.231934 3:-0.510419 4:-0.383409 5:-0.250128 6:-0.383463 7:-0.731331 
-2 0 1:-0.55274 2:-0.487787 3:-0.515788 4:-0.536009 5:-0.467618 6:-0.536078 7:-0.826708 
0 -2 1:-0.309419 2:-0.0496361 3:-0.181784 4:-0.146802 5:-0.0396466 6:-0.146873 7:-0.545892 
0 -2 1:-0.233271 2:-0.0158618 3:-0.189653 4:-0.172237 5:0.0051195 6:-0.172306 7:-0.56802 
0 -2 1:0.09419 2:0.338038 3:-0.0830311 4:-0.0364964 5:0.377663 6:-0.0365292 7:-0.443854 
-2 -2 1:-0.643522 2:-0.397587 3:-0.678008 4:-0.546898 5:-0.40842 6:-0.546935 7:-0.832787 
-2 0 1:-0.595451 2:-0.389404 3:-0.54231 4:-0.494464 5:-0.391496 6:-0.494522 7:-0.802624 
-2 -2 1:-0.379956 2:-0.206648 3:-0.221915 4:-0.228142 5:-0.189593 6:-0.228227 7:-0.614791 
-2 0 1:-0.593251 2:-0.514464 3:-0.689008 4:-0.637118 5:-0.498948 6:-0.637162 7:-0.879437 
-2 -2 1:-0.706077 2:-0.523009 3:-0.64069 4:-0.587393 5:-0.529472 6:-0.587448 7:-0.854546 
-2 -2 1:-0.455969 2:-0.179216 3:-0.268538 4:-0.23486 5:-0.181522 6:-0.234945 7:-0.620241 
-2 -2 1:-0.532728 2:-0.0636092 3:-0.104887 4:-0.0368151 5:-0.0975245 6:-0.0369088 7:-0.444129 
-2 -2 1:-0.140349 2:-0.127806 3:-0.493975 4:-0.417725 5:-0.0724003 6:-0.417766 7:-0.754444 
