svm_type c_svc
kernel_type rbf
gamma 0.000488281
nr_class 3
total_sv 122
rho 14.8033 143.883 3.67036
label 1 3 2
nr_sv 53 19 50
SV
0 32768 1:-0.462544 2:-0.599075 
32768 32768 1:-0.427829 2:-0.304498 
0 32768 1:-0.616146 2:-0.457938 
32712.72972662651 32768 1:-0.74113 2:-0.305021 
0 32768 1:-0.561314 2:-0.42434 
32768 32768 1:0.431041 2:-0.169709 
5766.783179369979 32768 1:-0.549475 2:-0.260058 
32768 32768 1:0.757012 2:-0.144795 
32768 32768 1:-0.463251 2:-0.157369 
0 32768 1:-0.53587 2:-0.338516 
32768 32768 1:-0.0395145 2:-0.196613 
0 32768 1:-0.632972 2:-0.542119 
0 32768 1:-0.658732 2:-0.512071 
0 32768 1:-0.54225 2:-0.547946 
16598.60803754407 0 1:-0.947411 2:-0.895851 
0 32768 1:-0.547818 2:-0.250638 
0 32768 1:-0.562104 2:-0.531045 
0 32768 1:-0.62031 2:-0.551065 
32768 32768 1:-0.37077 2:-0.137951 
0 32768 1:-0.650279 2:-0.392591 
32768 32768 1:-0.0387893 2:-0.0206781 
0 32768 1:-0.427673 2:-0.517775 
0 32768 1:-0.682922 2:-0.507707 
32768 32768 1:-0.434151 2:-0.169398 
32768 32768 1:0.473157 2:-0.122406 
32768 32768 1:-0.985692 2:-0.0202272 
32532.98297768763 0 1:-1 2:-1 
0 32768 1:0.0589284 2:-0.318681 
32768 32768 1:-0.138865 2:-0.10557 
0 32768 1:-0.465233 2:-0.367484 
0 32768 1:-0.046133 2:-0.520878 
0 32768 1:-0.66016 2:-0.480788 
29.69076733047657 32768 1:-0.21913 2:-0.272519 
32768 32768 1:-0.44859 2:-0.192344 
0 32768 1:-0.373829 2:-0.527013 
0 32768 1:-0.523994 2:-0.458983 
0 32768 1:-0.390175 2:-0.328102 
32768 32768 1:-0.283088 2:0.147049 
0 32768 1:-0.122885 2:-0.241516 
0 32768 1:-0.659482 2:-0.577854 
32768 32768 1:-0.463332 2:-0.312072 
10663.20531144129 32768 1:0.0176808 2:-0.293694 
32768 32768 1:-0.0894793 2:0.125685 
0 32768 1:-0.399555 2:-0.642332 
0 12608.08059802744 1:-0.796232 2:-0.584825 
0 8683.445720325783 1:-0.644618 2:-0.599459 
0 32768 1:-0.606125 2:-0.485705 
0 32768 1:-0.3933 2:-0.570837 
0 32768 1:-0.39855 2:-0.26871 
0 32768 1:-0.572666 2:-0.583077 
32768 0 1:-0.997615 2:-0.994704 
0 32768 1:-0.461352 2:-0.549534 
0 32768 1:-0.308179 2:-0.372171 
-32768 32768 1:-0.772374 2:-0.36301 
-32768 32768 1:-0.477318 2:-0.364611 
-32768 32768 1:-0.36931 2:-0.372493 
-32768 32768 1:-0.775309 2:-0.448147 
-32768 32768 1:0.111937 2:0.564471 
-32768 32768 1:-0.212982 2:0.340308 
-32768 32768 1:0.866612 2:0.538707 
-32768 32768 1:0.156135 2:0.432013 
-32768 32768 1:-0.595802 2:-0.380286 
-32768 32768 1:-0.997162 2:-0.869156 
-32768 32768 1:-0.594296 2:-0.523332 
-32768 32768 1:-0.686045 2:-0.497982 
-32768 32768 1:-0.656131 2:-0.601006 
-32768 32768 1:0.254638 2:-0.0906489 
-32768 32768 1:-0.212047 2:-0.45483 
-32768 32768 1:-0.644684 2:-0.626858 
-32768 32768 1:0.325553 2:-0.614282 
-32768 32768 1:-0.118774 2:-0.0189215 
-32768 32768 1:-0.425069 2:-0.315094 
-32768 -14578.75564019887 1:-0.740626 2:-0.219114 
-32768 -0 1:0.322679 2:-0.499573 
-32768 -32768 1:-0.257299 2:0.0415103 
-32768 -0 1:-0.159268 2:-0.335737 
-0 -20327.48807367174 1:1 2:0.733174 
-32768 -0 1:-0.360757 2:-0.510548 
-32768 -32768 1:-0.691517 2:-0.61072 
-32768 -0 1:-0.839882 2:-0.772425 
-32768 -0 1:-0.989507 2:-0.98408 
-32768 -0 1:-0.834533 2:-0.731621 
-21291.52631835323 -0 1:-0.374871 2:1 
-32768 -0 1:-0.117779 2:-0.18071 
-32768 -32768 1:-0.3916 2:-0.410872 
-32768 -32768 1:-0.418248 2:-0.477606 
-32768 -0 1:-0.988552 2:-0.987059 
-32768 -0 1:-0.564498 2:-0.581927 
-32768 -32768 1:0.0803782 2:-0.0345282 
-32768 -0 1:-0.0826975 2:0.0901695 
-32768 -0 1:-0.11 2:-0.103942 
-32768 -0 1:-0.329476 2:-0.095877 
-32768 -32768 1:0.23026 2:0.321808 
-32768 -0 1:0.0241315 2:-0.129754 
-32768 -32768 1:-0.381243 2:-0.508813 
-32768 -3133.942847292049 1:0.11469 2:0.287604 
-32768 -12675.74982241339 1:0.932536 2:-0.578008 
-32768 -32768 1:-0.716436 2:-0.830695 
-32768 -0 1:-0.793796 2:-0.677714 
-32768 -0 1:-0.666424 2:-0.46066 
-32768 -32768 1:-0.581713 2:-0.497129 
-32768 -0 1:-0.457713 2:-0.453932 
-32768 -0 1:0.677707 2:-0.042841 
-32768 -0 1:-0.582548 2:-0.545965 
-32768 -32768 1:-0.295576 2:-0.181854 
-32768 -0 1:-0.560843 2:-0.421581 
-32768 -14820.06361642408 1:-0.626613 2:0.0557144 
-32768 -0 1:-0.322667 2:0.208587 
-32768 -0 1:-0.83804 2:-0.764401 
-32768 -0 1:-0.361173 2:-0.288487 
-32768 -32768 1:-0.760078 2:-0.699978 
-32768 -0 1:-0.578456 2:-0.645273 
-32768 -0 1:-0.770406 2:-0.771436 
-32768 -0 1:-0.0652566 2:-0.135861 
-32768 -32768 1:-0.648376 2:-0.612106 
-32768 -0 1:-0.596293 2:-0.49285 
-32768 -32768 1:-0.781509 2:-0.194869 
-32768 -32768 1:0.583554 2:0.34473 
-32768 -32768 1:-0.185683 2:0.540368 
-32768 -0 1:-0.596235 2:-0.758013 
-32768 -32768 1:-0.659124 2:-0.505579 
-32768 -32768 1:-0.326908 2:-0.535096 
