svm_type c_svc
kernel_type rbf
gamma 2
nr_class 3
total_sv 179
rho 0.307455 0.202003 -0.245329
label 1 3 2
nr_sv 62 44 73
SV
0 0.5 1:-0.786697 2:-0.888458 
0 0.5 1:-0.680791 2:-0.937178 
0 0.5 1:-0.7196 2:-0.812203 
0.5 0.5 1:-0.582764 2:-0.826601 
0.3575233918087704 0.5 1:-0.631732 2:-0.801658 
0 0.5 1:-0.809358 2:-0.840719 
0.5 0.5 1:-0.454676 2:-0.657139 
0.5 0.5 1:-0.495296 2:-0.73485 
0 0.5 1:-0.721679 2:-0.779617 
0 0.5 1:-0.680095 2:-0.849842 
0 0.5 1:-0.782184 2:-0.820357 
0.5 0.5 1:-0.352477 2:-0.71427 
0.5 0.5 1:-0.592682 2:-0.847433 
0.5 0.5 1:-0.566478 2:-0.844543 
0.5 0.5 1:0.56497 2:-0.658338 
0.5 0.5 1:-0.527301 2:-0.622 
0 0.5 1:-0.795622 2:-0.837598 
0.5 0.5 1:0.207792 2:-0.102018 
0.5 0.5 1:-0.374153 2:-0.769378 
0 0.5 1:-0.612453 2:-0.835481 
0.5 0.5 1:0.0997756 2:-0.921297 
0 0.5 1:-0.773352 2:-0.766458 
0 0.5 1:-0.660668 2:-0.890565 
0 0.5 1:-0.689569 2:-0.823475 
0.5 0.5 1:-0.490591 2:-0.767495 
0.5 0.5 1:-0.594511 2:-0.834483 
0.3495939995699819 0 1:-1 2:-1 
0.5 0.5 1:-0.482111 2:-0.812306 
0.5 0.5 1:-0.519393 2:-0.811611 
0 0.5 1:-0.70137 2:-0.840855 
0.5 0.5 1:-0.515636 2:-0.789518 
0.5 0.5 1:-0.557919 2:-0.78621 
0.5 0.5 1:-0.238827 2:-0.716694 
0.5 0.5 1:-0.437415 2:-0.768712 
0.5 0.5 1:-0.541455 2:-0.746705 
0 0.5 1:-0.782023 2:-0.902184 
0.5 0.5 1:-0.613568 2:-0.774583 
0.5 0.5 1:-0.161209 2:-0.526823 
0 0.5 1:-0.751115 2:-0.82254 
0 0.5 1:-0.844217 2:-0.761434 
0.5 0.5 1:-0.616339 2:-0.787522 
0.5 0.5 1:-0.440055 2:-0.727102 
0.5 0.5 1:-0.597456 2:-0.790036 
0 0.5 1:-0.846552 2:-0.839263 
0 0.5 1:-0.831827 2:-0.882334 
0.5 0.5 1:-0.262196 2:-0.790048 
0 0.5 1:-0.811944 2:-0.896389 
0.5 0.5 1:-0.537093 2:-0.900303 
0.5 0.5 1:-0.407952 2:-0.717398 
0.5 0.5 1:-0.384814 2:-0.747579 
0.5 0.5 1:-0.482232 2:-0.755089 
0 0.5 1:-0.69903 2:-0.778288 
0.5 0.5 1:-0.560616 2:-0.707022 
0 0.3742662131835072 1:-0.819708 2:-0.96411 
0.5 0.5 1:-0.446457 2:-0.758949 
0 0.5 1:-0.778271 2:-0.877844 
0.5 0.5 1:-0.444712 2:-0.750858 
0 0.5 1:-0.707331 2:-0.824373 
0 0.5 1:-0.716789 2:-0.74814 
0 0.5 1:-0.665443 2:-0.795201 
0 0.5 1:-0.794819 2:-0.860144 
0 0.5 1:-0.748548 2:-0.839221 
-0 0.5 1:0.0394725 2:-0.456202 
-0.5 0.5 1:-0.0282977 2:-0.770361 
-0.5 0.5 1:-0.436881 2:-0.770228 
-0.1253458025207811 0.5 1:-0.154471 2:0.0041337 
-0.5 0.5 1:-0.301673 2:-0.727151 
-0.5 0.5 1:-0.505515 2:-0.787647 
-0.5 0.5 1:-0.333679 2:-0.647394 
-0.5 0.5 1:-0.222641 2:-0.735146 
-0 0.5 1:-0.137658 2:-0.593948 
-0.5 0.5 1:-0.459091 2:-0.736876 
-0.5 0.5 1:-0.819812 2:-0.873269 
-0.4121114131554622 0.5 1:0.76479 2:0.892604 
-0 0.5 1:-0.147177 2:-0.513021 
-0.3383995854980039 0.4536966193585078 1:1 2:1 
-0.5 0.5 1:-0.460158 2:-0.67976 
-0.4814228605410589 0.455167185086442 1:0.361194 2:-0.341365 
-0.5 0.5 1:-0.346222 2:-0.740338 
-0.5 0.5 1:-0.64826 2:-0.813014 
-0 0.5 1:0.897448 2:0.883502 
-0.5 0.5 1:-0.310725 2:-0.756714 
-0.5 0.5 1:-0.819812 2:-0.873269 
-0.5 0.5 1:-0.228881 2:-0.687542 
-0 0.5 1:-0.109069 2:-0.4774 
-0.5 0.5 1:-0.625455 2:-0.805858 
-0.5 0.5 1:-0.194263 2:-0.538448 
-0 0.5 1:-0.107988 2:-0.583914 
-0.5 0.5 1:-0.538617 2:-0.79526 
-0 0.5 1:-0.0850549 2:-0.625237 
-0.5 0.5 1:-0.465017 2:-0.757236 
-0.5 0.5 1:-0.49768 2:-0.729282 
-0.5 0.5 1:-0.306802 2:-0.72514 
-0.5 0.5 1:-0.265209 2:-0.660549 
-0.5 0.5 1:-0.394825 2:-0.699486 
-0.5 0.5 1:-0.320352 2:-0.630806 
-0.5 0.5 1:-0.466548 2:-0.798903 
-0.5 0.5 1:-0.23066 2:-0.711951 
-0.5 0.5 1:-0.376175 2:-0.708239 
-0.5 0.5 1:-0.652922 2:-0.790675 
-0.5 0.5 1:-0.230423 2:-0.546533 
-0.5 0.5 1:-0.347446 2:-0.633891 
-0 0.5 1:-0.150484 2:-0.518144 
-0.5 0.5 1:-0.475686 2:-0.671568 
-0.3498377296634463 0.5 1:-0.164175 2:-0.576776 
-0.5 0.5 1:-0.79397 2:-0.85589 
-0 -0.5 1:-0.103456 2:-0.671041 
-0.5 -0 1:-0.640637 2:-0.837301 
-0.4275947296494633 -0.5 1:0.757765 2:0.729599 
-0.5 -0 1:-0.725397 2:-0.836808 
-0.5 -0 1:-0.736508 2:-0.848018 
-0 -0.5 1:-0.293216 2:-0.702383 
-0.5 -0.5 1:-0.34361 2:-0.645698 
-0.1474284031750626 -0.5 1:0.0933268 2:-0.581655 
-0.5 -0.5 1:-0.889903 2:-0.841643 
-0.5 -0.5 1:-0.437195 2:-0.740381 
-0.200586398622337 -0.5 1:-0.33886 2:-0.644156 
-0.5 -0 1:-0.663414 2:-0.828592 
-0.5 -0.5 1:-0.53803 2:-0.759731 
-0.5 -0.5 1:0.513039 2:0.636108 
-0.5 -0 1:-0.700071 2:-0.820036 
-0 -0.5 1:-0.330293 2:-0.580094 
-0.5 -0 1:-0.564726 2:-0.793482 
-0.5 -0.5 1:-0.472047 2:-0.847993 
-0.5 -0 1:-0.540359 2:-0.838175 
-0.5 -0.5 1:-0.408986 2:-0.724493 
-0.5 -0.5 1:0.30737 2:-0.830278 
-0 -0.5 1:-0.198595 2:-0.548578 
-0.5 -0 1:-0.62912 2:-0.770386 
-0.5 -0.5 1:-0.385439 2:-0.714097 
-0.5 -0.5 1:-0.359578 2:-0.621383 
-0.5 -0 1:-0.513588 2:-0.836977 
-0 -0.5 1:-0.215832 2:-0.666959 
-0.5 -0 1:-0.649846 2:-0.892806 
-0.5 -0.5 1:-0.448398 2:-0.741017 
-0.5 -0 1:-0.566157 2:-0.7645 
-0.5 -0 1:-0.577803 2:-0.799227 
-0 -0.5 1:-0.151091 2:-0.460062 
-0 -0.5 1:-0.273961 2:-0.766653 
-0.5 -0 1:-0.758985 2:-0.900922 
-0.5 -0 1:-0.593892 2:-0.806201 
-0.5 -0 1:-0.736533 2:-0.804254 
-0.5 -0 1:-0.774594 2:-0.904462 
-0.5 -0 1:-0.63984 2:-0.879532 
-0.5 -0.5 1:-0.418146 2:-0.76212 
-0.5 -0.5 1:-0.523698 2:-0.754009 
-0.5 -0.5 1:-0.459223 2:-0.804769 
-0.5 -0.5 1:-0.448581 2:-0.753608 
-0.5 -0.5 1:0.111024 2:-0.522178 
-0.5 -0.3288844596870886 1:-0.863567 2:-0.829296 
-0.09865668173664435 -0.5 1:-0.221322 2:-0.863307 
-0.5 -0 1:-0.591402 2:-0.848303 
-0 -0.5 1:-0.147649 2:-0.43442 
-0.5 -0.07997934475786124 1:-0.565426 2:-0.747193 
-0.5 -0 1:-0.644782 2:-0.903448 
-0.5 -0.5 1:-0.872359 2:-0.873299 
-0.5 -0 1:-0.674195 2:-0.797528 
-0.5 -0 1:-0.696361 2:-0.852465 
-0.5 -0.5 1:-0.370152 2:-0.736702 
-0.5 -0.5 1:-0.530804 2:-0.757801 
-0.5 -0.5 1:-0.466448 2:-0.728568 
-0 -0.5 1:-0.302851 2:-0.606935 
-0.5 -0 1:-0.636179 2:-0.798026 
-0.5 -0.5 1:-0.418026 2:-0.771939 
-0.5 -0.5 1:-0.41056 2:-0.731904 
-0.5 -0.5 1:-0.42317 2:-0.556343 
-0.5 -0 1:-0.576334 2:-0.818424 
-0 -0.5 1:-0.263788 2:-0.625117 
-0.5 -0 1:-0.650668 2:-0.802629 
-0.5 -0 1:-0.762306 2:-0.820953 
-0.5 -0.5 1:-0.43796 2:-0.774175 
-0.5 -0 1:-0.621581 2:-0.779424 
-0.5 -0 1:-0.558595 2:-0.755874 
-0.5 -0 1:-0.566035 2:-0.746617 
-0.5 -0.5 1:-0.349576 2:-0.713679 
-0.5 -0.5 1:-0.871189 2:-0.85002 
-0.5 -0.5 1:-0.528996 2:-0.732887 
-0.5 -0.5 1:-0.417686 2:-0.792042 
-0.5 -0.5 1:-0.508924 2:-0.727429 
