svm_type c_svc
kernel_type rbf
gamma 0.000488281
nr_class 3
total_sv 170
rho -9.5514 -25.0821 43.7512
label 1 3 2
nr_sv 59 44 67
SV
0 32768 1:-0.758584 2:-0.882128 
0 32768 1:-0.68852 2:-0.801546 
32768 32768 1:-0.499417 2:-0.724068 
0 32768 1:-0.639299 2:-0.788028 
32768 32768 1:-0.391745 2:-0.81555 
0 2909.973774836707 1:-0.782247 2:-0.831681 
32768 32768 1:-0.411887 2:-0.637684 
671.9608940631675 32768 1:-0.600258 2:-0.807326 
32768 32768 1:-0.454303 2:-0.719804 
0 32768 1:-0.646285 2:-0.856858 
0 32768 1:-0.690692 2:-0.767111 
0 32768 1:-0.64727 2:-0.841321 
0 32768 1:-0.753871 2:-0.810163 
0 32768 1:-0.738857 2:-0.812136 
32768 32768 1:-0.305172 2:-0.698056 
0 32768 1:-0.684132 2:-0.848666 
32768 32768 1:-0.555993 2:-0.838776 
32768 32768 1:-0.528631 2:-0.835722 
32768 32768 1:-0.487722 2:-0.600551 
32768 32768 1:-0.209823 2:-0.659496 
32768 32768 1:0.279861 2:-0.0510617 
32768 32768 1:-0.327806 2:-0.756291 
32768 32768 1:-0.576638 2:-0.826145 
32768 32768 1:0.167071 2:-0.916831 
0 32768 1:-0.744649 2:-0.753206 
0 32768 1:-0.626984 2:-0.884355 
0 32768 1:-0.657162 2:-0.813458 
32768 32768 1:-0.44939 2:-0.754302 
32768 32768 1:-0.557903 2:-0.825091 
32768 32768 1:-0.440536 2:-0.801655 
32768 32768 1:-0.269907 2:-0.590702 
32768 32768 1:-0.479465 2:-0.800921 
32768 32768 1:-0.475542 2:-0.777574 
32768 32768 1:-0.186499 2:-0.700618 
32768 32768 1:-0.126962 2:-0.570145 
32768 32768 1:-0.393864 2:-0.755588 
0 32768 1:-0.753703 2:-0.896633 
32768 32768 1:-0.577802 2:-0.761792 
32768 32768 1:-0.105449 2:-0.499973 
0 32768 1:-0.721429 2:-0.81247 
0 32768 1:-0.657409 2:-0.792276 
32768 32768 1:-0.580696 2:-0.775465 
32768 32768 1:-0.560978 2:-0.778122 
32768 32768 1:-0.298123 2:-0.732412 
32768 32768 1:-0.477772 2:-0.754878 
0 32768 1:-0.649942 2:-0.886422 
0 10865.82238215591 1:-0.784947 2:-0.89051 
32768 32768 1:-0.31334 2:-0.706394 
32768 32768 1:-0.363098 2:-0.701362 
32768 32768 1:-0.338937 2:-0.733256 
32768 32768 1:-0.440662 2:-0.741191 
0 32768 1:-0.667042 2:-0.765707 
0 32768 1:-0.650564 2:-0.815145 
32768 32768 1:-0.52251 2:-0.690397 
32768 32768 1:-0.403305 2:-0.74527 
0 32768 1:-0.749785 2:-0.870912 
0 32768 1:-0.675709 2:-0.814407 
0 32768 1:-0.685586 2:-0.733848 
0 32768 1:-0.63197 2:-0.78358 
-0 32768 1:0.104102 2:-0.425344 
-15816.25085684075 32768 1:0.0333365 2:-0.757331 
-32768 32768 1:-0.393306 2:-0.75719 
-32768 32768 1:-0.252122 2:-0.711668 
-32768 32768 1:-0.285542 2:-0.627385 
-32768 32768 1:-0.169597 2:-0.720117 
-0 32768 1:-0.0808576 2:-0.570906 
-32768 32768 1:-0.793163 2:-0.866078 
-32768 32768 1:-0.373295 2:-0.753539 
-0 32768 1:-0.0907971 2:-0.485387 
-0 32768 1:-0.14665 2:-0.50851 
-32768 32768 1:-0.417612 2:-0.661588 
-32768 32768 1:-0.29864 2:-0.725604 
-32768 32768 1:-0.614028 2:-0.802404 
-32768 32768 1:-0.261574 2:-0.742909 
-0 31345.58855487547 1:0.0711311 2:-0.259075 
-32768 32768 1:-0.793163 2:-0.866078 
-32768 32768 1:-0.176112 2:-0.669811 
-32768 32768 1:-0.330157 2:-0.762164 
-0 32768 1:-0.0510043 2:-0.447745 
-32768 32768 1:-0.215342 2:-0.733624 
-32768 32768 1:-0.136495 2:-0.579036 
-0 32768 1:-0.139965 2:-0.512257 
-32768 32768 1:-0.505054 2:-0.824166 
-32768 32768 1:-0.499538 2:-0.783642 
-32768 32768 1:-0.422685 2:-0.74346 
-32768 32768 1:-0.456793 2:-0.71392 
-32768 32768 1:-0.214046 2:-0.641287 
-32768 32768 1:-0.649545 2:-0.776953 
-32768 32768 1:-0.349391 2:-0.682433 
-17623.71003722241 32768 1:-0.157291 2:-0.54198 
-32768 32768 1:-0.271626 2:-0.609856 
-32768 32768 1:-0.363031 2:-0.712685 
-32768 32768 1:-0.17797 2:-0.695606 
-32768 32768 1:-0.329917 2:-0.691683 
-32768 32768 1:-0.317232 2:-0.700639 
-32768 32768 1:-0.177722 2:-0.520801 
-32768 32768 1:-0.299918 2:-0.613116 
-0 32768 1:-0.0942507 2:-0.490801 
-32768 32768 1:-0.433827 2:-0.652931 
-32768 32768 1:-0.526255 2:-0.783368 
-0 32768 1:-0.108546 2:-0.55276 
-32768 32768 1:-0.246388 2:-0.582151 
-32768 32768 1:-0.766178 2:-0.847712 
-0 -32768 1:-0.045144 2:-0.652375 
-32768 -0 1:-0.606068 2:-0.828069 
-0 -32768 1:0.854142 2:0.827745 
-32768 -0 1:-0.694574 2:-0.827547 
-32768 -32768 1:-0.243291 2:-0.685495 
-0 -32768 1:-0.0929673 2:-0.502478 
-0 -32768 1:0.160337 2:-0.557916 
-32768 -0 1:-0.602397 2:-0.801072 
-32768 -32768 1:-0.393634 2:-0.725649 
-32768 -32768 1:-0.290952 2:-0.623964 
-32768 -0 1:-0.629851 2:-0.818865 
-32768 -32768 1:-0.498925 2:-0.746097 
-32768 -0 1:-0.668129 2:-0.809824 
-32768 -32768 1:-0.282007 2:-0.556266 
-32768 -32768 1:-0.364176 2:-0.778258 
-32768 -0 1:-0.430026 2:-0.839367 
-32768 -32768 1:-0.499532 2:-0.703279 
-32768 -32768 1:-0.433478 2:-0.708941 
-0 -32768 1:0.383841 2:-0.820647 
-0 -32768 1:-0.144488 2:-0.522962 
-32768 -32768 1:-0.594042 2:-0.757357 
-32768 -32768 1:-0.268004 2:-0.689854 
-32768 -32768 1:-0.33959 2:-0.697873 
-32768 -32768 1:-0.312587 2:-0.599899 
-32768 -32768 1:-0.381354 2:-0.761016 
-0 -32768 1:-0.162486 2:-0.64806 
-32768 -0 1:-0.615684 2:-0.886723 
-32768 -32768 1:-0.528296 2:-0.751137 
-32768 -0 1:-0.540456 2:-0.787834 
-13775.79615699261 -32768 1:-0.223185 2:-0.753411 
-32768 -0 1:-0.729647 2:-0.8953 
-32768 -0 1:-0.831351 2:-0.870056 
-32768 -0 1:-0.557257 2:-0.795204 
-32768 -0 1:-0.706202 2:-0.793146 
-32768 -0 1:-0.745946 2:-0.89904 
-32768 -0 1:-0.605235 2:-0.872696 
-32768 -32768 1:-0.373743 2:-0.748621 
-32768 -32768 1:-0.416635 2:-0.79369 
-32768 -32768 1:-0.405523 2:-0.739626 
-32768 -0 1:-0.838851 2:-0.81961 
-0 -7967.017750959249 1:-0.16822 2:-0.85555 
-32768 -0 1:-0.554656 2:-0.839695 
-32768 -32768 1:-0.527533 2:-0.732847 
-32768 -0 1:-0.610396 2:-0.897969 
-32768 -0 1:-0.848032 2:-0.86611 
-32768 -0 1:-0.641109 2:-0.786039 
-32768 -32768 1:-0.244973 2:-0.70066 
-32768 -32768 1:-0.323628 2:-0.721761 
-32768 -32768 1:-0.49138 2:-0.744058 
-32768 -32768 1:-0.253352 2:-0.584631 
-32768 -32768 1:-0.366223 2:-0.681341 
-32768 -32768 1:-0.373618 2:-0.758998 
-32768 -32768 1:-0.365822 2:-0.716691 
-32768 -32768 1:-0.378988 2:-0.531168 
-32768 -32768 1:-0.472984 2:-0.715565 
-32768 -32768 1:-0.212562 2:-0.603845 
-32768 -0 1:-0.616542 2:-0.791429 
-32768 -0 1:-0.733115 2:-0.810793 
-0 -32768 1:-0.199236 2:-0.777274 
-32768 -23378.57080391621 1:-0.586169 2:-0.766907 
-32768 -32768 1:-0.520399 2:-0.742021 
-32768 -32768 1:-0.557896 2:-0.75115 
-32768 -32768 1:-0.411572 2:-0.787662 
-32768 -32768 1:-0.302142 2:-0.697431 
-32768 -0 1:-0.84681 2:-0.841509 
-32768 -32768 1:-0.373263 2:-0.780241 
-32768 -32768 1:-0.468534 2:-0.711962 
