svm_type c_svc
kernel_type rbf
gamma 8
nr_class 3
total_sv 175
rho -0.291516 -0.224895 0.263296
label 1 3 2
nr_sv 60 42 73
SV
0 1.250303548797177 1:-0.665886 2:-0.937178 
0 2 1:-0.70435 2:-0.812203 
2 2 1:-0.568728 2:-0.826601 
2 2 1:-0.524857 2:-0.738885 
0 2 1:-0.617262 2:-0.801658 
0 2 1:-0.657631 2:-0.799411 
2 2 1:-0.422658 2:-0.825455 
0 2 1:-0.620574 2:-0.817672 
2 2 1:-0.482036 2:-0.73485 
0 2 1:-0.664261 2:-0.864545 
0 2 1:-0.706411 2:-0.779617 
0 2 1:-0.665196 2:-0.849842 
2 2 1:-0.340484 2:-0.71427 
0 2 1:-0.700185 2:-0.856792 
0.7278467113865198 2 1:-0.578558 2:-0.847433 
2 2 1:-0.552587 2:-0.844543 
0.6836118316925197 1.695680915150606 1:0.568828 2:-0.658338 
2 2 1:-0.513757 2:-0.622 
2 2 1:-0.249981 2:-0.67778 
2 1.081821250218143 1:0.214817 2:-0.102018 
0 2 1:-0.598154 2:-0.835481 
1.140897142202049 2 1:0.107759 2:-0.921297 
0.3856676569413838 0 1:-0.888075 2:-0.827451 
0 2 1:-0.757626 2:-0.766458 
0 2 1:-0.674585 2:-0.823475 
2 2 1:-0.580371 2:-0.834483 
0 0.7222545310966613 1:-0.982264 2:-1 
0 2 1:-0.979644 2:-0.868084 
2 2 1:-0.307011 2:-0.612681 
0 2 1:-0.686282 2:-0.840855 
2 2 1:-0.544104 2:-0.78621 
2 2 1:-0.227842 2:-0.716694 
2 2 1:-0.171331 2:-0.593227 
2 2 1:-0.527786 2:-0.746705 
0.1747991594100582 0 1:-0.916565 2:-0.987912 
0.6172833797712032 2 1:-0.599259 2:-0.774583 
2 2 1:-0.150911 2:-0.526823 
0 0.03202957550567985 1:-0.735586 2:-0.82254 
0 2 1:-0.67482 2:-0.803431 
0 2 1:-0.602006 2:-0.787522 
2 2 1:-0.427285 2:-0.727102 
2 2 1:-0.58329 2:-0.790036 
2 2 1:-0.333793 2:-0.746781 
2 2 1:-0.251003 2:-0.790048 
2 2 1:-0.504312 2:-0.76804 
0 2 1:-0.667732 2:-0.892521 
2 2 1:-0.348237 2:-0.72216 
2 2 1:-0.523462 2:-0.900303 
1.904654062882519 0 1:-0.863567 2:-0.937351 
2 2 1:-0.372533 2:-0.747579 
2 2 1:-0.469088 2:-0.755089 
2 1.595735173022975 1:-0.886036 2:-0.81662 
0 2 1:-0.683963 2:-0.778288 
0 2 1:-0.668323 2:-0.825071 
2 2 1:-0.546777 2:-0.707022 
2 2 1:-0.43363 2:-0.758949 
2 2 1:-0.4319 2:-0.750858 
0 2 1:-0.69219 2:-0.824373 
0 2 1:-0.970511 2:-0.932369 
0 2 1:-0.701565 2:-0.74814 
-1.224179708400454 2 1:0.0479904 2:-0.456202 
-2 2 1:-0.424139 2:-0.770228 
-1.04023065050312 1.003915191836884 1:-0.144233 2:0.0041337 
-2 2 1:-0.29013 2:-0.727151 
-2 2 1:-0.492164 2:-0.787647 
-2 2 1:-0.321852 2:-0.647394 
-2 2 1:-0.446152 2:-0.736876 
-2 2 1:-0.803674 2:-0.873269 
-2 2 1:-0.405145 2:-0.766774 
-1.291697189245637 1.723037975661141 1:1 2:1 
-0 2 1:-0.190019 2:-0.534902 
-2 2 1:-0.447209 2:-0.67976 
-2 2 1:-0.334284 2:-0.740338 
-2 2 1:-0.633643 2:-0.813014 
-2 2 1:-0.299101 2:-0.756714 
-0 1.408630867222995 1:0.0166949 2:-0.298861 
-2 2 1:-0.803674 2:-0.873269 
-2 2 1:-0.364199 2:-0.774935 
-0.8089596632005801 2 1:-0.255219 2:-0.747928 
-0 2 1:-0.180379 2:-0.601641 
-2 2 1:-0.611041 2:-0.805858 
-0 2 1:-0.183673 2:-0.538448 
-0 1.787335978565504 1:-0.0981627 2:-0.583914 
-2 2 1:-0.530207 2:-0.833608 
-2 2 1:-0.524972 2:-0.79526 
-2 2 1:-0.0754326 2:-0.625237 
-2 2 1:-0.452025 2:-0.757236 
-2 2 1:-0.484399 2:-0.729282 
-2 2 1:-0.295213 2:-0.72514 
-0 2 1:-0.25399 2:-0.660549 
-2 2 1:-0.667356 2:-0.78893 
-1.779599225188292 0 1:0.0267354 2:-0.230489 
-0 2 1:-0.200118 2:-0.566574 
-2 2 1:-0.308643 2:-0.630806 
-2 2 1:-0.395402 2:-0.728114 
-2 2 1:-0.453542 2:-0.798903 
-2 2 1:-0.363971 2:-0.708239 
-2 2 1:-0.638264 2:-0.790675 
-2 2 1:-0.351931 2:-0.716714 
-0 2 1:-0.219511 2:-0.546533 
-2 2 1:-0.550331 2:-0.795001 
-1.490093507748171 2 1:-0.284688 2:-0.604588 
-2 -1.378023117429891 1:-0.626088 2:-0.837301 
-0.7689197110693784 -1.29842593922862 1:0.759913 2:0.729599 
-2 -0 1:-0.710096 2:-0.836808 
-2 -0 1:-0.721109 2:-0.848018 
-0 -2 1:-0.331695 2:-0.645698 
-1.896945570270271 -2 1:-0.139064 2:-0.529194 
-1.284130078892785 -2 1:0.101367 2:-0.581655 
-2 -1.720388930823687 1:-0.873144 2:-0.841643 
-2 -0 1:-0.622603 2:-0.811754 
-0 -2 1:-0.42445 2:-0.740381 
-2 -2 1:-0.648663 2:-0.828592 
-0.783505128394538 -0.07461321611131935 1:0.517357 2:0.636108 
-2 -2 1:-0.684995 2:-0.820036 
-2 -0 1:-0.55085 2:-0.793482 
-0.9190493642337241 -2 1:-0.396489 2:-0.790165 
-2 -0 1:-0.458993 2:-0.847993 
-2 -0 1:-0.526699 2:-0.838175 
-2 -0 1:-0.524967 2:-0.719212 
-0 -2 1:-0.396491 2:-0.724493 
-2 -0.5415241625470243 1:-0.462269 2:-0.72457 
-2 -0.1884747348487666 1:0.313512 2:-0.830278 
-2 -2 1:-0.187966 2:-0.548578 
-2 -0 1:-0.614673 2:-0.770386 
-0 -2 1:-0.305205 2:-0.706508 
-0 -2 1:-0.373153 2:-0.714097 
-0 -2 1:-0.347522 2:-0.621383 
-2 -0 1:-0.500165 2:-0.836977 
-0 -2 1:-0.412794 2:-0.773849 
-2 -2 1:-0.20505 2:-0.666959 
-2 -2 1:-0.635215 2:-0.892806 
-1.213807132973904 -2 1:-0.435554 2:-0.741017 
-2 -0 1:-0.552269 2:-0.7645 
-0 -2 1:-0.140883 2:-0.460062 
-2 -2 1:-0.262663 2:-0.766653 
-2 -0 1:-0.839922 2:-0.877034 
-2 -0 1:-0.579758 2:-0.806201 
-2 -2 1:-0.721133 2:-0.804254 
-2 -0 1:-0.758857 2:-0.904462 
-0 -2 1:-0.40557 2:-0.76212 
-2 -0 1:-0.510186 2:-0.754009 
-2 -0 1:-0.446282 2:-0.804769 
-2 -2 1:-0.435735 2:-0.753608 
-0.0144776463118087 -2 1:0.118908 2:-0.522178 
-2 -0 1:-0.847041 2:-0.829296 
-0.8037717523143879 -2 1:-0.137472 2:-0.43442 
-2 -0 1:-0.551544 2:-0.747193 
-2 -0.03841618262584369 1:-0.855755 2:-0.873299 
-2 -2 1:-0.659348 2:-0.797528 
-2 -2 1:-0.681318 2:-0.852465 
-2 -2 1:-0.283344 2:-0.716734 
-0 -2 1:-0.358002 2:-0.736702 
-2 -2 1:-0.453444 2:-0.728568 
-0 -2 1:-0.291298 2:-0.606935 
-0 -2 1:-0.398432 2:-0.698452 
-2 -0.6830537296713719 1:-0.621669 2:-0.798026 
-0 -2 1:-0.405451 2:-0.771939 
-1.546834277625259 -2 1:-0.410549 2:-0.556343 
-2 -0 1:-0.562355 2:-0.818424 
-2 -0 1:-0.499768 2:-0.730839 
-1.146384331705186 -2 1:-0.25258 2:-0.625117 
-2 -0 1:-0.746678 2:-0.820953 
-2 -2 1:-0.425208 2:-0.774175 
-2 -2 1:-0.239931 2:-0.789234 
-2 -0 1:-0.6072 2:-0.779424 
-2 -0 1:-0.544773 2:-0.755874 
-2 -0 1:-0.552147 2:-0.746617 
-2 -0 1:-0.580364 2:-0.764513 
-2 -0 1:-0.441477 2:-0.799064 
-0 -2 1:-0.337608 2:-0.713679 
-2 -0 1:-0.854595 2:-0.85002 
-2 -0 1:-0.515437 2:-0.732887 
-2 -2 1:-0.405114 2:-0.792042 
-2 -0 1:-0.495543 2:-0.727429 
