svm_type c_svc
kernel_type rbf
gamma 8
nr_class 3
total_sv 166
rho 0.0710473 0.308887 0.336539
label 1 2 3
nr_sv 54 64 48
SV
0.5 0 1:-0.665886 2:-0.937523 
0.5 0 1:-0.70435 2:-0.812525 
0.5 0.5 1:-0.568728 2:-0.826927 
0.5 0.5 1:-0.524857 2:-0.739195 
0.5 0 1:-0.617262 2:-0.801979 
0.5 0 1:-0.657631 2:-0.799731 
0.5 0.5 1:-0.422658 2:-0.82578 
0.5 0.5 1:-0.441776 2:-0.657434 
0.5 0 1:-0.620574 2:-0.817996 
0.5 0 1:-0.664261 2:-0.864877 
0.5 0 1:-0.706411 2:-0.779934 
0.2256599779196296 0 1:-0.752128 2:-0.822548 
0.5 0 1:-0.700185 2:-0.857123 
0.5 0.223432057785848 1:-0.578558 2:-0.847762 
0.5 0.5 1:0.568828 2:-0.658633 
0.5 0.5 1:-0.249981 2:-0.678079 
0.5 0.5 1:0.214817 2:-0.102214 
0.5 0.5 1:-0.361968 2:-0.769693 
0.5 0.1320609727154276 1:-0.757626 2:-0.766772 
0.5 0 1:-0.645941 2:-0.890902 
0.5 0 1:-0.674585 2:-0.823799 
0.5 0.5 1:-0.477373 2:-0.76781 
0.5 0.5 1:-0.580371 2:-0.83481 
0.5 0.5 1:-0.468968 2:-0.812628 
0.3253433234429648 0.5 1:-0.979644 2:-0.868417 
0.5 0.5 1:-0.307011 2:-0.612968 
0.5 0.5 1:-0.505919 2:-0.811934 
0.5 0 1:-0.686282 2:-0.841183 
0.5 0.5 1:-1 2:-1 
0.5 0.5 1:-0.502195 2:-0.789836 
0.5 0.5 1:-0.544104 2:-0.786528 
0.5 0.5 1:-0.171331 2:-0.593511 
0.5 0.5 1:-0.424668 2:-0.769027 
0.5 0.5 1:-0.527786 2:-0.747016 
0 0.5 1:-0.916565 2:-0.988266 
0.5 0.5 1:-0.599259 2:-0.774899 
0 0.5 1:-0.827862 2:-0.761748 
0.5 0 1:-0.67482 2:-0.803752 
0.5 0.5 1:-0.602006 2:-0.78784 
0.5 0.5 1:-0.427285 2:-0.727409 
0.5 0.5 1:-0.333793 2:-0.747092 
0.5 0.5 1:-0.251003 2:-0.790367 
0.5 0.5 1:-0.504312 2:-0.768355 
0.5 0 1:-0.667732 2:-0.892858 
0.5 0.5 1:-0.348237 2:-0.722467 
0.5 0.5 1:-0.523462 2:-0.900641 
0.5 0.5 1:-0.395466 2:-0.717704 
0.5 0.5 1:-0.469088 2:-0.755401 
0 0.06614112997098162 1:-0.886036 2:-0.816944 
0.5 0 1:-0.668323 2:-0.825396 
0.5 0.5 1:-0.546777 2:-0.707325 
0.5 0.5 1:-0.4319 2:-0.751169 
0.5 0 1:-0.650674 2:-0.795521 
0.5 0 1:-0.733042 2:-0.839549 
-0.5 0.5 1:-0.0936709 2:-0.671339 
-0.5 0.5 1:-0.710096 2:-0.837135 
-0.5 0.5 1:-0.721109 2:-0.848347 
-0 0.5 1:-0.281748 2:-0.702686 
-0 0.5 1:-0.331695 2:-0.645991 
-0 0.5 1:-0.139064 2:-0.529466 
-0.5 0.5 1:-0.873144 2:-0.841971 
-0.5 0 1:-0.622603 2:-0.812077 
-0.5 0.5 1:-0.42445 2:-0.740691 
-0 0.5 1:-0.326987 2:-0.644449 
-0.5 0 1:-0.52439 2:-0.760044 
-0.5 0.5 1:0.517357 2:0.636044 
-0 0.5 1:-0.318496 2:-0.580375 
-0.5 0 1:-0.55085 2:-0.793802 
-0.5 0.5 1:-0.396489 2:-0.790484 
-0.5 0 1:-0.526699 2:-0.838502 
-0.5 0.5 1:-0.524967 2:-0.719518 
-0.5 0.5 1:-0.396491 2:-0.7248 
-0.5 0.5 1:-0.462269 2:-0.724877 
-0.04764871422035955 0.5 1:-0.187966 2:-0.548853 
-0 0.5 1:-0.305205 2:-0.706812 
-0 0.5 1:-0.347522 2:-0.621672 
-0.5 0 1:-0.500165 2:-0.837304 
-0.5 0.5 1:-0.412794 2:-0.774165 
-0 0.5 1:-0.20505 2:-0.667256 
-0.5 0.5 1:-0.435554 2:-0.741327 
-0.5 0 1:-0.563811 2:-0.799547 
-0.5 0.5 1:-0.140883 2:-0.460322 
-0 0.5 1:-0.262663 2:-0.766967 
-0.5 0.5 1:-0.743386 2:-0.901261 
-0.5 0.5 1:-0.839922 2:-0.877368 
-0.5 0 1:-0.579758 2:-0.806522 
-0.5 0 1:-0.625298 2:-0.879867 
-0.5 0 1:-0.510186 2:-0.754321 
-0.5 0.3790671285307038 1:-0.446282 2:-0.80509 
-0.5 0.5 1:0.118908 2:-0.522449 
-0.5 0.5 1:-0.210492 2:-0.863638 
-0.5 0 1:-0.577289 2:-0.848632 
-0.5 0.5 1:-0.137472 2:-0.434675 
-0.5 0.01359842474417167 1:-0.551544 2:-0.747504 
-0.5 0.3837551518063874 1:-0.630196 2:-0.903787 
-0.5 0.03596167761385789 1:-0.659348 2:-0.797848 
-0.5 0.2091935120363652 1:-0.681318 2:-0.852794 
-0 0.5 1:-0.283344 2:-0.717039 
-0 0.5 1:-0.358002 2:-0.737011 
-0.5 0 1:-0.517229 2:-0.758114 
-0.5 0.5 1:-0.453444 2:-0.728876 
-0.4123332945893023 0.5 1:-0.398432 2:-0.698755 
-0.5 0 1:-0.621669 2:-0.798346 
-0.5 0.5 1:-0.405451 2:-0.772255 
-0.5 0.5 1:-0.398051 2:-0.732213 
-0.5 0 1:-0.562355 2:-0.818748 
-0.5 0.5 1:-0.499768 2:-0.731147 
-0.5 0 1:-0.636029 2:-0.80295 
-0.5 0.5 1:-0.746678 2:-0.821277 
-0.5 0.5 1:-0.425208 2:-0.774491 
-0.09102129255293265 0.5 1:-0.239931 2:-0.789552 
-0.5 0 1:-0.544773 2:-0.756186 
-0.5 0.5 1:-0.552147 2:-0.746928 
-0.5 0 1:-0.580364 2:-0.764827 
-0.5 0.5 1:-0.441477 2:-0.799384 
-0 0.5 1:-0.337608 2:-0.713984 
-0.5 0.5 1:-0.515437 2:-0.733196 
-0.5 0.5 1:-0.405114 2:-0.792361 
-0.1533013994131893 -0.5 1:-0.0191788 2:-0.770677 
-0.5 -0.5 1:-0.424139 2:-0.770544 
-0.4542956411597667 -0.3184697765254165 1:0.157556 2:-0.305067 
-0.5 -0.5 1:-0.144233 2:0.00395642 
-0.5 -0.5 1:-0.492164 2:-0.787965 
-0.5 -0.5 1:-0.321852 2:-0.647687 
-0.5 -0.5 1:-0.211799 2:-0.735455 
-0 -0.5 1:-0.127569 2:-0.594232 
-0.5 -0.5 1:-0.446152 2:-0.737185 
-0.5 -0.5 1:-0.803674 2:-0.873603 
-0.4343551349621278 -0.5 1:0.766876 2:0.892585 
-0.5 -0.5 1:-0.405145 2:-0.767088 
-0.4346115995368117 -0.395025581073524 1:1 2:1 
-0 -0.5 1:-0.190019 2:-0.535175 
-0.5 -0.5 1:-0.447209 2:-0.680059 
-0.5 -0.5 1:0.366859 2:-0.341604 
-0.5 -0.5 1:-0.633643 2:-0.813337 
-0.5 -0.5 1:-0.299101 2:-0.757027 
-0 -0.5 1:-0.217983 2:-0.687842 
-0.5 -0.5 1:-0.364199 2:-0.775251 
-0.5 -0.5 1:-0.255219 2:-0.748239 
-0 -0.5 1:-0.180379 2:-0.601926 
-0.5 -0.5 1:-0.611041 2:-0.80618 
-0 -0.5 1:-0.183673 2:-0.538722 
-0.5 -0.5 1:-0.530207 2:-0.833935 
-0.5 -0.5 1:-0.524972 2:-0.79558 
-0 -0.1130187763627835 1:-0.0754326 2:-0.625526 
-0.5 -0.5 1:-0.452025 2:-0.757549 
-0.5 -0.5 1:-0.484399 2:-0.72959 
-0.5 -0.5 1:-0.295213 2:-0.725447 
-0.2882904591199584 -0.5 1:-0.25399 2:-0.660845 
-0.5 -0.5 1:-0.667356 2:-0.789248 
-0.5 -0.5 1:-0.382456 2:-0.699788 
-0.1567799262804034 -0.1132872934066419 1:0.0267354 2:-0.230708 
-0 -0.5 1:-0.200118 2:-0.566853 
-0.5 -0.5 1:-0.395402 2:-0.728421 
-0.5 -0.5 1:-0.453542 2:-0.799223 
-0 -0.5 1:-0.219746 2:-0.712256 
-0.5 -0.5 1:-0.638264 2:-0.790993 
-0.5 -0.5 1:-0.351931 2:-0.71702 
-0 -0.5 1:-0.219511 2:-0.546808 
-0.5 -0.5 1:-0.335497 2:-0.634182 
-0 -0.08177446736311995 1:-0.140282 2:-0.518414 
-0.5 -0.5 1:-0.4626 2:-0.671866 
-0.5 -0.5 1:-0.550331 2:-0.79532 
-0 -0.5 1:-0.153851 2:-0.577056 
-0.5 -0.5 1:-0.284688 2:-0.604874 
-0.5 -0.5 1:-0.778061 2:-0.85622 
