svm_type c_svc
kernel_type rbf
gamma 2
nr_class 3
total_sv 170
rho 0.188559 0.282177 0.00786818
label 1 3 2
nr_sv 61 39 70
SV
0 2.077964409049194 1:-0.47016 2:-0.770853 
8 8 1:-0.0258616 2:-0.665886 
0 8 1:-0.724472 2:-0.70435 
0 8 1:-0.359794 2:-0.568728 
8 8 1:-0.523771 2:-0.524857 
8 8 1:-0.695886 2:-0.617262 
0 8 1:-0.713664 2:-0.657631 
8 8 1:0.228711 2:-0.422658 
0 8 1:-0.670486 2:-0.620574 
8 8 1:-0.475063 2:-0.482036 
0 8 1:-0.35647 2:-0.664261 
0 8 1:-0.804382 2:-0.706411 
0 8 1:-0.449968 2:-0.665196 
0 8 1:-0.797075 2:-0.752128 
8 8 1:-0.358174 2:-0.340484 
0 8 1:-0.391951 2:-0.700185 
8 8 1:-0.217004 2:-0.578558 
8 8 1:-0.183467 2:-0.552587 
0.177623664342636 8 1:0.236702 2:0.568828 
8 8 1:-0.342354 2:-0.513757 
8 8 1:-0.0209679 2:-0.249981 
4.432097077638288 8 1:0.496608 2:0.214817 
0 8 1:-0.514117 2:-0.598154 
8 8 1:0.0859591 2:0.107759 
0 8 1:-0.5599 2:-0.674585 
0 8 1:-0.302391 2:-0.580371 
0 5.653470898914199 1:-1 2:-0.979644 
8 8 1:-0.346453 2:-0.307011 
3.156851262179142 8 1:-0.810939 2:-0.686282 
8 8 1:-0.429947 2:-0.544104 
5.089225465958175 0 1:-0.815831 2:-0.883059 
8 8 1:-0.32583 2:-0.227842 
8 8 1:-0.0422861 2:-0.171331 
8 8 1:-0.402964 2:-0.527786 
0 8 1:-0.375166 2:-0.76622 
0 8 1:-0.637197 2:-0.599259 
8 8 1:-0.0192908 2:-0.150911 
0 8 1:-0.724076 2:-0.735586 
0 8 1:-0.650674 2:-0.67482 
0 8 1:-0.441894 2:-0.602006 
8 8 1:-0.454578 2:-0.427285 
0 8 1:-0.45871 2:-0.58329 
8 8 1:0.0339258 2:-0.333793 
8 8 1:-0.141366 2:-0.251003 
8 8 1:-0.454706 2:-0.504312 
0 8 1:-0.0948355 2:-0.667732 
8 8 1:-0.539851 2:-0.348237 
8 8 1:0.308258 2:-0.523462 
8 8 1:-0.167597 2:-0.372533 
8 8 1:-0.294957 2:-0.469088 
0 8 1:-0.733941 2:-0.683963 
0 8 1:-0.47813 2:-0.668323 
8 8 1:-0.496119 2:-0.546777 
0 0.9009588644185222 1:0.131523 2:-0.803571 
8 8 1:0.0576417 2:-0.43363 
8 8 1:-0.291505 2:-0.4319 
0 8 1:-0.582771 2:-0.69219 
2.28687999342154 0 1:-0.589812 2:-0.970511 
8 8 1:-0.895156 2:-0.701565 
0 4.13409905333874 1:-0.724182 2:-0.778903 
0 8 1:-0.592645 2:-0.733042 
-8 8 1:0.0615411 2:0.0479904 
-8 8 1:0.00313112 2:-0.424139 
-0 8 1:0.0911251 2:-0.144233 
-8 8 1:-0.392044 2:-0.29013 
-8 8 1:-0.212504 2:-0.492164 
-8 8 1:-0.126812 2:-0.321852 
-8 8 1:-0.568861 2:-0.446152 
-8 8 1:-0.59007 2:-0.803674 
-8 8 1:-0.235084 2:-0.405145 
-1.802600233333337 6.335054636196591 1:0.023521 2:1 
-0 4.282653474869075 1:-0.275957 2:-0.190019 
-8 8 1:-0.296157 2:-0.447209 
-8 8 1:0.0023791 2:-0.334284 
-8 8 1:-0.364516 2:-0.633643 
-0 8 1:0.0689126 2:-0.299101 
-3.011335618000616 4.879462797700647 1:0.991409 2:0.0166949 
-8 8 1:-0.59007 2:-0.803674 
-8 8 1:0.0779577 2:-0.364199 
-0 8 1:0.210774 2:-0.255219 
-8 8 1:-0.593295 2:-0.611041 
-5.534257357931466 8 1:-0.367182 2:-0.183673 
-8 8 1:0.0934686 2:-0.530207 
-8 8 1:-0.211436 2:-0.524972 
-5.949892556343099 8 1:0.129903 2:-0.0754326 
-8 8 1:-0.51552 2:-0.452025 
-8 8 1:-0.383873 2:-0.484399 
-0 8 1:0.0201518 2:-0.295213 
-8 8 1:-0.157822 2:-0.25399 
-8 8 1:-0.863775 2:-0.667356 
-1.620883523017305 8 1:-0.266199 2:-0.200118 
-8 8 1:-0.292707 2:-0.308643 
-8 8 1:0.0593758 2:-0.395402 
-8 8 1:0.199371 2:-0.453542 
-8 8 1:-0.558654 2:-0.363971 
-8 8 1:-0.67587 2:-0.638264 
-5.223708174913958 8 1:0.166272 2:-0.351931 
-8 8 1:-0.215747 2:-0.219511 
-8 8 1:-0.459132 2:-0.550331 
-8 8 1:-0.457939 2:-0.284688 
-8 -0 1:-0.370255 2:-0.626088 
-3.841647961630911 -6.479765628751155 1:-0.311597 2:0.759913 
-8 -0 1:-0.527669 2:-0.710096 
-8 -0 1:-0.594159 2:-0.721109 
-4.734319780859363 -7.089906471530234 1:-0.863302 2:-0.331695 
-6.730065323061792 -8 1:0.289296 2:-0.139064 
-8 -7.353403852933233 1:0.290475 2:0.101367 
-8 -2.368210227157492 1:-0.838711 2:-0.873144 
-8 -0 1:-0.622495 2:-0.622603 
-8 -8 1:-0.379527 2:-0.42445 
-8 -0 1:-0.54192 2:-0.648663 
-4.913585805300485 -0 1:0.683369 2:0.517357 
-8 -0 1:-0.582762 2:-0.684995 
-8 -0 1:-0.337011 2:-0.55085 
-5.103613083114698 -0 1:0.29826 2:-0.396489 
-8 -6.783602196059547 1:0.159911 2:-0.458993 
-8 -0 1:-0.482391 2:-0.526699 
-8 -0 1:-0.598595 2:-0.524967 
-8 -8 1:-0.113026 2:-0.396491 
-8 -8 1:-0.527157 2:-0.462269 
-8 -4.390015798306024 1:0.233298 2:0.313512 
-8 -8 1:-0.282356 2:-0.187966 
-8 -0 1:-0.697787 2:-0.614673 
-0 -8 1:0.260881 2:-0.305205 
-2.070499653622579 -8 1:-0.257753 2:-0.373153 
-0 -8 1:-0.415439 2:-0.347522 
-8 -0.9248179606240816 1:-0.0239879 2:-0.500165 
-8 -8 1:-0.0451746 2:-0.412794 
-8 -0 1:-0.0850145 2:-0.635215 
-8 -8 1:-0.364413 2:-0.435554 
-8 -0 1:-0.624075 2:-0.552269 
-8 -8 1:-0.0210696 2:-0.140883 
-0.05235488179859957 -0.0927455555104974 1:0.609251 2:-0.262663 
-8 -8 1:-0.692863 2:-0.839922 
-8 -0 1:-0.300818 2:-0.579758 
-8 -0 1:-0.838772 2:-0.721133 
-8 -0 1:-0.127519 2:-0.758857 
-8 -8 1:-0.130859 2:-0.40557 
-8 -8 1:-0.564053 2:-0.510186 
-8 -8 1:-0.105244 2:-0.446282 
-8 -8 1:-0.219866 2:-0.435735 
-8 -0 1:-0.873408 2:-0.847041 
-0 -8 1:0.311632 2:-0.137472 
-8 -0 1:-0.631191 2:-0.551544 
-8 -8 1:-0.71181 2:-0.855755 
-8 -0 1:-0.681716 2:-0.659348 
-8 -0 1:-0.43333 2:-0.681318 
-2.610573691378466 -8 1:-0.0663314 2:-0.283344 
-0 -8 1:0.0179407 2:-0.358002 
-8 -8 1:-0.313307 2:-0.453444 
-0 -8 1:-0.450189 2:-0.291298 
-8 -8 1:-0.362836 2:-0.398432 
-8 -0 1:-0.464374 2:-0.621669 
-8 -8 1:-0.13916 2:-0.405451 
-0 -8 1:-0.022078 2:-0.410549 
-8 -0 1:-0.288934 2:-0.562355 
-8 -8 1:-0.465082 2:-0.499768 
-3.124209840163281 -8 1:-0.285759 2:-0.25258 
-8 -7.667293542298597 1:-0.650808 2:-0.746678 
-3.585623204790482 -8 1:0.13257 2:-0.425208 
-8 -0 1:-0.555211 2:-0.6072 
-8 -0 1:-0.532713 2:-0.544773 
-8 -0 1:-0.432016 2:-0.552147 
-8 -0 1:-0.526162 2:-0.580364 
-8 -8 1:-0.118874 2:-0.441477 
-0 -8 1:-0.201176 2:-0.337608 
-8 -0 1:-0.831034 2:-0.854595 
-8 -4.347409675595451 1:-0.568485 2:-0.515437 
-0 -8 1:0.150966 2:-0.405114 
-8 -8 1:-0.583913 2:-0.495543 
